%YAML:1.0
---
svmDetector_object1: !!opencv-object-detector-hog
   winSize: [ 32, 32 ]
   blockSize: [ 8, 8 ]
   blockStride: [ 4, 4 ]
   cellSize: [ 2, 2 ]
   nbins: 9
   derivAperture: 1
   winSigma: 2.
   histogramNormType: 0
   L2HysThreshold: 2.0000000000000001e-01
   gammaCorrection: 1
   nlevels: 64
   signedGradient: 1
   SVMDetector: [ -1.46644376e-03, -2.17655697e-03, -6.12005172e-03,
       4.30502958e-04, -1.16075147e-02, -6.58465689e-03, -8.51531792e-03,
       -5.14821894e-03, -6.12291228e-03, -1.43612036e-03,
       -3.75762838e-03, -7.31405336e-03, -2.26963009e-03,
       -2.71950290e-02, -1.97090041e-02, -3.14863585e-02, 6.82277605e-04,
       -7.67257530e-03, -3.19201988e-03, 2.22440955e-04, -6.40096935e-03,
       -3.51601094e-03, -3.04507762e-02, -3.93693708e-03,
       -3.33930701e-02, -4.99587215e-04, -7.03590503e-03,
       -3.35352658e-03, 8.25627299e-04, -4.30372922e-04, -3.31647228e-03,
       -7.98756257e-03, 7.28880847e-03, -1.68301016e-02, -9.77253448e-03,
       -2.06491165e-03, -2.95488955e-03, -5.29290596e-03,
       -5.43416431e-03, 3.22740967e-03, -2.94925310e-02, -1.82266328e-02,
       -2.12577004e-02, -1.29569462e-02, -5.60358446e-03, 7.25629367e-03,
       -1.29496465e-02, -1.71739254e-02, 1.30419794e-03, -5.61340190e-02,
       -2.20585521e-02, -6.91586882e-02, -8.27938505e-03,
       -2.92239748e-02, 4.47180588e-03, -2.34486368e-02, -2.38291193e-02,
       7.64824683e-03, -2.88812947e-02, 2.27490850e-02, -3.65845822e-02,
       -5.29359141e-03, -2.24414095e-02, -5.21933986e-03,
       -1.71778817e-03, 1.08782761e-03, -1.28934276e-03, 2.44959653e-03,
       2.96034832e-02, -1.86419953e-02, -4.42077545e-03, -8.03901907e-03,
       -4.94387466e-03, -4.91752941e-03, -2.17208490e-02, 6.13198569e-03,
       -2.89606955e-02, 4.28281538e-03, -3.51760983e-02, 7.86833651e-03,
       2.51252297e-02, 4.12943569e-04, 7.58479582e-04, -1.46017727e-02,
       2.22961064e-02, -1.56069333e-02, 4.37974557e-02, -8.06104839e-02,
       2.19390094e-02, 1.14664473e-02, 9.20288451e-03, 3.42561584e-03,
       -1.14569804e-02, -1.07062748e-02, 2.67380606e-02, 6.88371509e-02,
       -5.81989205e-03, 2.81517450e-02, 5.51461196e-03, -1.55865084e-04,
       1.23152463e-02, 9.79513396e-03, 7.36812269e-03, 2.21100654e-02,
       5.42688817e-02, 6.36170758e-03, 1.99989998e-03, -7.89285172e-03,
       1.17561957e-02, -3.82052665e-03, -1.32185696e-02, 4.85813711e-03,
       1.99222867e-03, 1.63042787e-02, -9.67078563e-03, 2.22984422e-02,
       3.17818001e-02, 3.33924815e-02, 2.76769791e-02, -7.90182909e-04,
       2.18191780e-02, 1.90379459e-03, 5.13583608e-02, -4.92449803e-03,
       3.99381816e-02, 2.60723270e-02, 3.46994214e-02, 1.53139178e-02,
       -5.92810335e-03, -3.14671313e-03, 1.94626637e-02, 6.85120448e-02,
       5.18989190e-02, 1.85785014e-02, 2.07874645e-02, 1.80232860e-02,
       2.52383668e-02, 2.71301693e-03, 4.42574685e-03, 2.19820905e-02,
       4.40858416e-02, 8.23526550e-03, -1.81688578e-03, 6.25516614e-03,
       -4.64961352e-03, -2.78338604e-03, -1.03556952e-02,
       -3.94662190e-03, -9.53980908e-03, -1.91241706e-04,
       -1.31490221e-02, -4.76267794e-03, -3.23207513e-03,
       -6.69972133e-03, 9.12749165e-05, -6.56350469e-03, -1.16561446e-02,
       -1.12119047e-02, -3.79945640e-03, -2.35207807e-02,
       -8.34441744e-03, -1.78007653e-03, 2.61123013e-03, 4.77308966e-03,
       -6.83890597e-04, -1.35341929e-02, -3.64612904e-03,
       -8.07188358e-03, -2.94632912e-02, -1.56190349e-02,
       -1.16323791e-02, -4.48574312e-03, -1.97482412e-03, 1.66955043e-03,
       1.07785955e-03, 5.39817428e-03, 3.12516489e-03, -9.64533165e-03,
       -3.89895914e-03, -9.69040673e-03, -4.77023330e-03,
       -1.11702476e-02, -2.22171508e-02, -3.87398433e-03,
       -1.10707646e-02, 7.41938315e-03, -2.88550891e-02, -2.76216934e-03,
       -3.54970642e-03, 3.08755622e-03, 5.64664602e-03, 1.19477129e-02,
       -2.78161876e-02, 5.36964228e-03, -1.76120561e-03, -4.71381284e-02,
       5.82150370e-03, -9.06868558e-03, 5.54022938e-03, 1.59427952e-02,
       2.95960158e-03, -3.54739353e-02, 4.77100350e-02, 3.64265405e-03,
       -4.42554206e-02, 3.10976803e-03, -1.71361454e-02, -1.23116393e-02,
       5.33039030e-03, -1.43784480e-02, -2.22946908e-02, 4.82937284e-02,
       1.21966451e-02, -1.70584302e-02, -2.38233861e-02, -5.59830514e-04,
       4.75496781e-04, 9.34497733e-03, -9.02403053e-03, -3.26660369e-03,
       2.93996185e-03, 2.27306616e-02, -2.51966957e-02, -1.77290570e-03,
       1.30126462e-03, 1.03935152e-02, 3.38144861e-02, 1.41380951e-02,
       -1.77541059e-02, 2.05807947e-02, 2.87095737e-02, -1.76152997e-02,
       1.23359477e-02, -7.44880782e-03, 1.41369374e-02, 4.98698354e-02,
       -3.27731073e-02, -3.12468130e-02, 5.48137054e-02, -1.50835514e-02,
       -9.32322163e-03, 3.86078991e-02, -1.73829272e-02, 1.84641487e-03,
       1.81224830e-02, -2.59044208e-02, -2.21242961e-02, 6.58921599e-02,
       3.52689903e-03, -2.28930749e-02, -4.72130394e-03, 1.50346628e-03,
       7.13945413e-03, 1.49901574e-02, -1.15329679e-02, -3.37569800e-04,
       1.11927968e-02, 2.00287979e-02, -6.79995806e-04, -6.82902522e-03,
       4.99190297e-03, 1.58566926e-02, 4.45308834e-02, -5.13937883e-03,
       4.26132558e-03, 3.67118642e-02, 3.22380997e-02, 3.47534195e-03,
       -9.21824365e-04, 1.02729874e-03, 9.35833063e-03, 3.56186442e-02,
       -1.45741776e-02, 4.30281647e-03, 3.74104045e-02, 2.09291950e-02,
       7.22456630e-03, 9.44256224e-03, 4.07890277e-03, 1.02601144e-02,
       1.03840875e-02, -6.18122146e-03, 3.38229327e-03, 2.23048180e-02,
       5.41879050e-03, -1.28316497e-02, 1.11612892e-02, -4.24442068e-03,
       -8.81499087e-04, -1.21955585e-03, -2.52784975e-03,
       -4.32837475e-03, 4.41111298e-03, -2.04858612e-02, -2.50858795e-02,
       -4.78212908e-03, -3.31035745e-03, -7.06533063e-03,
       -1.61881261e-02, -1.66854225e-02, -1.12138735e-02, 2.62769293e-02,
       7.79318623e-03, -2.36678179e-02, -1.04946997e-02, 4.45002748e-04,
       2.28724559e-03, -5.29135251e-03, -2.47280579e-02, -2.83835747e-04,
       4.22347225e-02, -4.03551152e-03, -1.87323615e-02, -2.13312125e-03,
       5.58231259e-03, -3.90845630e-03, -3.79289873e-03, -1.20311854e-02,
       1.31486533e-02, 2.13550106e-02, -2.67193210e-03, -1.64519008e-02,
       -1.16871193e-03, 2.83138338e-03, -2.79491744e-03, 1.04738642e-02,
       -5.03538176e-03, -1.57151893e-02, 2.53578350e-02, -1.71082485e-02,
       -2.30069049e-02, 4.96048667e-03, 2.86123785e-03, -1.09254671e-02,
       4.41935472e-03, -1.39146438e-02, -5.16596287e-02, 4.94762324e-02,
       1.57378446e-02, -4.25635539e-02, -2.01064311e-02, 2.61550397e-02,
       2.05031894e-02, 1.61293745e-02, -3.81430946e-02, -3.44966240e-02,
       -3.46132694e-03, -6.38447655e-03, -7.76402839e-03, 1.79783683e-02,
       1.57339089e-02, 3.42465076e-03, -8.64196755e-03, -3.21499705e-02,
       -1.75812729e-02, 3.53760794e-02, -1.07816448e-02, -2.41874089e-03,
       2.02989541e-02, -1.26632843e-02, 4.81530884e-03, 3.10677141e-02,
       -9.59752873e-03, -9.86097008e-03, 1.24756070e-02, -1.83152407e-02,
       9.73883737e-03, 1.27614187e-02, -3.69228446e-03, -5.75381890e-03,
       3.54266278e-02, -1.81749053e-02, -4.36726287e-02, 1.87500529e-02,
       -1.35564329e-02, -1.84454117e-02, 2.20106076e-02, 1.09879142e-02,
       5.76673262e-03, 1.36035252e-02, -3.48435156e-02, -2.02343240e-02,
       1.29687293e-02, -1.62074473e-02, -2.91398969e-02, 4.79715392e-02,
       1.13057066e-02, 1.95132531e-02, 9.54816677e-03, -2.59364098e-02,
       -8.07740167e-03, -4.80324612e-04, -3.75061780e-02,
       -1.96023635e-03, 3.76173630e-02, 2.18773028e-03, 2.78674206e-03,
       1.23332581e-02, 1.70647341e-04, 2.76313117e-03, 6.24656328e-04,
       6.14624145e-03, 1.94590315e-02, -2.44232616e-03, -7.80462474e-03,
       9.71499924e-03, 1.71558764e-02, 5.97204175e-03, -9.57478117e-03,
       4.07415023e-03, 2.03946070e-03, 4.16803034e-03, 4.85934084e-03,
       -1.46162799e-02, 1.10371120e-03, 1.06008416e-02, -1.00854579e-02,
       -1.67769194e-02, -8.13789375e-04, -1.81205627e-02,
       -1.86970010e-02, 2.43538804e-02, 2.03843564e-02, 8.44936818e-03,
       1.32893827e-02, -1.08810589e-02, -7.65031204e-04, 2.87915324e-03,
       -2.01533530e-02, 6.55122986e-03, 1.75052490e-02, 6.67081156e-04,
       8.19306530e-04, 1.56986143e-03, -4.39904165e-03, 2.43919226e-03,
       4.49100276e-03, -2.39203926e-02, -1.51411761e-02, 6.73167640e-04,
       -7.77460577e-04, -1.26277236e-02, -8.80688708e-03,
       -1.17986435e-02, 1.37183508e-02, 2.81121600e-02, -1.66531652e-02,
       -3.23439091e-02, 3.81219806e-03, 2.17696675e-03, 7.68576050e-04,
       1.31188449e-03, -9.30594001e-03, 1.34470500e-02, 3.45809273e-02,
       -1.68240499e-02, -1.88162196e-02, -2.70115733e-02,
       -8.35325336e-04, -1.67904550e-03, -1.64354558e-03,
       -6.71756174e-03, 1.55865820e-02, 1.00106318e-02, -5.77370450e-03,
       -1.01393610e-02, -1.45281078e-02, -4.21212520e-03, 9.12893284e-03,
       2.76692561e-03, -1.55423246e-02, -9.17104818e-03, 3.21893767e-03,
       -2.22238358e-02, -9.71229188e-03, 1.14920298e-02, -4.06744611e-03,
       1.15451673e-02, 4.08082473e-04, -2.22974382e-02, -2.94957086e-02,
       5.18939719e-02, -4.88193147e-02, -2.50529665e-02, 1.91156678e-02,
       -1.04321865e-02, 1.81419663e-02, 2.10399386e-02, -9.56150889e-03,
       -2.66235527e-02, 2.23263223e-02, -3.34582888e-02, -2.06999164e-02,
       -5.40052392e-02, -8.97179265e-03, 7.32957735e-04, -4.74329153e-03,
       3.06208548e-03, -7.35048437e-03, 4.67118099e-02, -1.15740690e-02,
       -9.08872392e-03, -1.46305542e-02, -6.25898736e-03, 8.05281010e-03,
       2.79797683e-03, -1.25976410e-02, 4.31211898e-03, 7.44075794e-03,
       -8.93912185e-03, -2.03345809e-02, 7.84157868e-03, -1.65288281e-02,
       4.28834297e-02, 1.42117757e-02, -2.45565176e-02, -2.23586205e-02,
       -6.57106237e-03, -4.01819386e-02, -9.58423037e-03, 3.96656431e-02,
       -1.05881440e-02, 4.36237156e-02, 9.66608711e-03, -3.96918431e-02,
       6.71298942e-03, 5.95406303e-03, -1.85020380e-02, -1.51284533e-02,
       -2.34997412e-03, -1.79261696e-02, -4.12809197e-03,
       -1.01802237e-02, -7.14309141e-03, -1.85266114e-03, 1.52455634e-02,
       2.04423862e-03, -2.63473671e-03, -1.83369368e-02, 1.20573454e-02,
       -5.86860348e-04, 3.86678032e-03, -3.33503797e-03, 4.19459352e-03,
       5.23875467e-04, -6.91016298e-03, -1.17095597e-02, -1.38307828e-02,
       -1.16727035e-02, 3.19020473e-03, 1.11187305e-02, -1.58809312e-02,
       -2.11807457e-03, 1.88533645e-02, -1.38064791e-02, 9.56407562e-03,
       1.50875039e-02, -2.75537800e-02, 1.61034521e-02, 1.25170900e-02,
       -2.14330889e-02, -1.04180193e-02, 6.83889585e-03, -1.79047659e-02,
       8.75950698e-03, 1.49438567e-02, -8.43143836e-03, -1.26452697e-03,
       2.60102213e-03, -7.95367640e-03, -6.51056180e-03, 1.24748680e-03,
       1.69113651e-03, 7.67165842e-03, 8.96771962e-05, 9.80220921e-03,
       -1.17940549e-03, -9.55419207e-04, -3.53614637e-03, 1.98049215e-03,
       2.88540428e-03, -6.30246988e-03, -2.90520955e-03, -8.90067965e-03,
       -2.10221112e-03, -1.51192769e-03, -4.37968934e-04,
       -1.74537599e-02, 7.14295218e-03, 3.00455722e-03, -1.64613537e-02,
       -1.26755750e-02, -1.30643742e-02, -3.72257689e-03,
       -9.43395402e-03, 2.59607821e-03, -1.23445056e-02, 1.04043949e-02,
       1.89846773e-02, -7.58362748e-03, -2.34788824e-02, -1.52829988e-02,
       -9.07721836e-03, -4.00679139e-03, -4.08150861e-03,
       -1.70557387e-02, 3.37321241e-03, 1.84328370e-02, 9.78661794e-03,
       -1.38904257e-02, -1.20839104e-02, 5.79721760e-04, 2.21322298e-05,
       4.19483054e-03, 3.94477742e-04, -1.02580879e-02, 4.57491959e-03,
       -9.99685191e-03, -6.41754223e-03, -2.35561896e-02,
       -9.03817639e-03, -2.22102366e-03, -4.77481913e-03,
       -1.41924771e-03, -1.82103943e-02, 3.17990109e-02, -3.81880067e-02,
       -1.06119365e-02, -1.31528256e-02, -1.49232820e-02,
       -2.51613166e-02, 8.50680098e-03, -4.87560825e-03, 1.54694542e-02,
       5.75629659e-02, -1.24050826e-02, -1.01716053e-02, -3.93447187e-03,
       -5.59512060e-04, -1.99719463e-02, -3.51309497e-03,
       -2.30963733e-02, -1.32961096e-02, 5.78427464e-02, 1.62266325e-02,
       -2.25995705e-02, 1.44706080e-02, -5.30948583e-03, 6.42253272e-03,
       7.94534513e-04, -5.82430419e-03, 4.05683368e-03, -6.11942902e-04,
       -1.08259479e-02, -1.17813991e-02, -8.68646987e-03,
       -1.15935393e-02, -8.29557423e-03, -3.40351183e-03,
       -6.71867048e-03, -2.88001336e-02, -1.35486841e-03,
       -1.41672473e-02, 7.40016764e-03, -4.11807932e-02, -4.79237270e-03,
       -1.63634811e-02, 9.69709177e-03, -9.89297777e-03, -2.74646934e-02,
       3.65089178e-02, -9.86820180e-03, -4.69807128e-04, 1.73227135e-02,
       2.57541593e-02, -7.80827086e-03, -1.12527041e-02, -1.29971914e-02,
       5.30853961e-03, 2.82324180e-02, 8.68517533e-03, -5.41316671e-03,
       5.43292128e-02, 7.23471493e-03, 6.56085555e-03, 1.45699712e-03,
       -1.27467723e-03, -9.47002089e-04, 3.15738656e-03, -6.04581647e-03,
       -8.47077172e-04, -9.79701756e-04, -4.65178909e-03, 9.98790469e-03,
       1.20109022e-02, -5.07095736e-03, -7.29364483e-03, 4.27444791e-03,
       3.96358751e-04, 5.87566709e-03, -1.53034255e-02, -5.60077047e-03,
       1.49877637e-03, 1.36384799e-03, -1.66777559e-02, -1.37408441e-02,
       2.93042008e-02, -1.25838900e-02, 1.66417621e-02, 5.52737108e-03,
       -1.64991319e-02, -7.64433900e-03, -7.84189813e-03,
       -4.88537084e-03, 1.69244781e-02, 2.30810232e-02, 1.24254879e-02,
       9.01101343e-03, 2.90111192e-02, -4.04745713e-03, -1.61689369e-03,
       -1.22210477e-03, -3.04479175e-03, 3.64571204e-03, -3.39756440e-03,
       3.82933626e-03, -1.88556209e-04, -1.28552015e-03, -1.18190970e-03,
       6.86093263e-05, -5.99158276e-03, -2.22060010e-02, -4.00623679e-03,
       4.54131427e-04, 1.67300925e-02, -4.11639968e-03, -1.63122732e-02,
       3.13303387e-03, -1.22059369e-03, -9.55839083e-03, -2.33480390e-02,
       -1.97580010e-02, -1.34894317e-02, 1.31144878e-02, 5.35124494e-03,
       -2.00292096e-02, 1.22690713e-03, -4.68141818e-03, -9.03009344e-03,
       -1.63292382e-02, -8.79766699e-03, -9.70543455e-03,
       -1.32993306e-03, -2.72395927e-03, -7.54134310e-03,
       -5.48668359e-05, -6.47067418e-03, 1.23161357e-03, 2.06251908e-03,
       3.62306577e-03, 1.48336459e-02, 7.08642136e-03, 6.70813164e-03,
       1.57307158e-03, -3.42592457e-03, -2.42024455e-02, 2.56312615e-03,
       -3.46440785e-02, -1.00267269e-02, 3.47419344e-02, 2.61996053e-02,
       -1.27349868e-02, -1.91076677e-02, -1.57568231e-02,
       -1.45944683e-02, -3.59987803e-02, -3.41502540e-02,
       -1.19354455e-02, 2.17761695e-02, 1.36372223e-02, 1.62816998e-02,
       -5.41846156e-02, -2.76801288e-02, -9.95425601e-03,
       -2.48669907e-02, -1.98846050e-02, 1.94103119e-03, -1.66187920e-02,
       -2.42070877e-03, -1.04538370e-02, -2.45011169e-02,
       -9.46933776e-03, -6.09994540e-03, 5.40846493e-03, 5.22076106e-03,
       2.38245400e-03, 1.63120441e-02, 3.01547791e-03, 1.30829681e-02,
       -4.34234599e-03, -8.79848469e-03, -1.04351463e-02,
       -7.46627199e-03, -2.41197646e-02, 1.41290622e-02, 4.38269600e-03,
       2.53944080e-02, 8.03504419e-03, 2.89503839e-02, -2.25266870e-02,
       -5.85241336e-03, -1.14336452e-02, -4.17381339e-02, 1.17153339e-02,
       7.64572062e-03, 3.70519701e-03, 5.20559493e-03, 7.37882452e-03,
       -3.65388282e-02, 1.07040135e-02, -1.95097607e-02, -7.41040241e-03,
       3.11792307e-02, -6.90368470e-03, -2.87377778e-02, -1.00908577e-02,
       -7.06810225e-03, -2.81588873e-03, -1.82897178e-03, 1.26464511e-04,
       2.35727872e-03, 8.60089320e-04, 1.49871437e-02, -5.25974017e-03,
       8.59903637e-03, -8.40186048e-03, -1.28443837e-02, -8.42433702e-03,
       -1.61606050e-03, -6.59510447e-03, 4.75970730e-02, 3.17511931e-02,
       1.17338225e-02, 1.38461695e-03, 2.20143497e-02, -1.44494502e-02,
       -5.76672005e-03, 1.16899321e-02, -1.48865143e-02, 4.13830616e-02,
       -1.33879390e-02, -4.73451801e-03, -1.98318399e-02, 2.44080648e-02,
       -2.94381920e-02, 5.44205680e-03, -1.26739731e-02, -3.57908802e-03,
       1.32668726e-02, -1.07513471e-02, -1.82979982e-02, -1.64145418e-02,
       -3.83285526e-03, -7.50847207e-03, -4.02286300e-04,
       -3.49357910e-03, -6.54028822e-03, -1.35857495e-03,
       -5.90186846e-03, 1.88942300e-03, -8.81622080e-04, -4.90408344e-03,
       -1.87102574e-04, -1.35808508e-03, -7.62883853e-03,
       -1.95048507e-02, -5.23419119e-03, -2.83407867e-02,
       -1.05195008e-02, -3.25197075e-03, -4.26423876e-03,
       -1.37754634e-03, -2.96034641e-03, 2.33617262e-03, -1.78328585e-02,
       -1.27711790e-02, -2.87897028e-02, -7.00960029e-03,
       -1.76413322e-03, -9.62366536e-03, -3.12831183e-03,
       -4.03006468e-03, 7.35765381e-04, -1.95097283e-03, -6.47448702e-03,
       -2.08443142e-02, -1.67844165e-03, 1.07038766e-03, -1.09898765e-03,
       -1.62591599e-03, 1.86642385e-04, -1.61034819e-02, -7.90838338e-03,
       1.84915420e-02, 4.11500037e-03, -1.72585808e-03, -8.41063540e-03,
       -2.08067689e-02, -6.08441280e-03, -1.98930912e-02,
       -2.39558946e-02, -1.58156138e-02, 3.65242437e-02, -4.64737602e-02,
       -7.24828942e-03, -8.42961483e-03, -2.05118749e-02,
       -1.44119719e-02, -1.79170016e-02, 5.29658096e-03, -2.40538642e-02,
       5.51889604e-03, -5.29216379e-02, -6.36731274e-03, -9.49673541e-03,
       -8.58131051e-03, -5.46229677e-03, 5.29219583e-03, 2.06900891e-02,
       -5.04517835e-03, 1.61904318e-03, -2.68393699e-02, 1.40071027e-02,
       -2.79495842e-03, -2.22073193e-03, -2.17264285e-03, 4.69629932e-03,
       -6.43906649e-03, 7.48314289e-03, 5.87099642e-02, 2.56481059e-02,
       -5.38719678e-03, -9.94025636e-03, -1.43352402e-02,
       -1.66838914e-02, 4.79285000e-03, -5.22674480e-03, 5.11566363e-02,
       9.91666839e-02, -2.03451216e-02, -2.08567437e-02, -2.13581678e-02,
       -1.05829304e-02, 4.98676952e-03, 8.35045055e-03, 1.16597582e-02,
       -9.34606884e-03, 3.43237966e-02, -6.05155230e-02, 1.83583051e-02,
       -1.87758394e-02, 1.72203791e-03, 1.84895378e-02, 8.08770861e-03,
       2.19840091e-02, 3.41889146e-03, -5.04917698e-03, -2.53723115e-02,
       2.90515721e-02, -1.75000820e-02, 3.10000358e-03, 1.77062710e-03,
       1.44959555e-03, 6.04417967e-03, 2.61353683e-02, 6.59752786e-02,
       8.05582572e-03, 1.00109284e-03, -1.63589104e-03, -1.08954553e-02,
       -1.42574767e-02, 6.11937232e-03, -5.15956990e-03, 6.70024380e-02,
       9.54360589e-02, -3.09638004e-03, 5.43124322e-03, -1.91817749e-02,
       -2.85278186e-02, -7.59944599e-03, 1.17484694e-02, -2.43395455e-02,
       1.53695503e-02, 7.04036728e-02, -4.39030342e-02, 1.54793859e-02,
       -1.42611023e-02, -1.61326099e-02, 1.68514939e-03, 3.79289500e-04,
       -5.37016615e-03, 8.09507724e-03, 8.39403644e-03, -3.64595838e-02,
       3.81557597e-03, -7.31602497e-03, -2.90564890e-03, 2.38626474e-03,
       -7.21294479e-03, -7.34019140e-03, -1.14285452e-02,
       -2.06716685e-03, -1.55529846e-02, 1.06259910e-02, -1.00288726e-02,
       -1.39921336e-04, -7.64834345e-04, -9.49430093e-03,
       -2.21787835e-03, -9.81683191e-03, 5.64179709e-03, -1.71806049e-02,
       2.13305000e-02, -2.66529433e-02, -2.19248654e-03, -1.78448893e-02,
       -8.48538987e-03, 2.72032409e-03, -4.86219564e-04, 2.39120517e-03,
       -9.47697274e-03, 2.62668207e-02, -1.27234648e-03, -7.87304621e-03,
       -2.57539209e-02, -5.59176737e-03, 3.05788545e-03, -3.20879789e-03,
       5.37529355e-03, 1.03925006e-03, 1.03840549e-02, -3.33644985e-03,
       -8.56735371e-03, -1.55843068e-02, -1.16034993e-03,
       -1.09082423e-02, -2.94038542e-02, -2.24257819e-03,
       -3.89091205e-03, 3.00421175e-02, -4.12710663e-03, 2.11935211e-03,
       1.40704715e-03, 2.05184016e-02, 2.44712643e-02, -2.66836863e-02,
       4.29184502e-03, -8.59193504e-03, 5.33213690e-02, -1.82738770e-02,
       -4.23283828e-03, -2.14611385e-02, 5.39463665e-03, 8.50533787e-03,
       -1.10127972e-02, -4.04457067e-04, 8.66779312e-03, 4.53583635e-02,
       1.25202173e-02, -1.28924139e-02, -2.53980178e-02, 1.58151286e-03,
       1.23930331e-02, -8.91911390e-04, 5.14577283e-03, 1.55083463e-02,
       3.03599965e-02, -1.51424827e-02, -2.21575145e-02, -5.09100175e-03,
       -5.10668429e-03, 2.01072707e-03, -2.06081588e-02, -2.54337303e-03,
       -2.99413735e-03, 3.10813449e-02, 1.09294048e-02, -1.38561139e-02,
       1.67430495e-03, -3.40215163e-03, -3.19326529e-03, -3.93180177e-03,
       2.32939459e-02, -1.81683637e-02, 7.24246427e-02, 7.84218777e-03,
       -4.24289703e-02, 3.42158513e-04, -1.67217776e-02, 2.09309626e-02,
       -3.94472992e-03, 2.93205422e-03, -2.41903984e-03, 3.79212536e-02,
       1.32232569e-02, 4.54626372e-03, -2.17719432e-02, 6.98686345e-03,
       1.22443782e-02, 2.92448350e-03, -6.09158166e-03, 1.24342088e-02,
       1.09118633e-02, -4.46770787e-02, -1.35960681e-02, -1.56473939e-03,
       4.07661591e-03, 1.61046057e-03, -6.72467425e-03, -3.13615729e-03,
       6.10885583e-03, 5.59161790e-03, 8.03501531e-03, -9.89092141e-03,
       -9.98895266e-04, 2.52081710e-03, 3.20481835e-03, -1.59639225e-03,
       5.59601514e-03, -5.20203123e-03, 2.22979356e-02, 3.06863748e-02,
       -1.59359872e-02, 1.58078223e-03, -2.67652184e-04, 3.30037214e-02,
       1.44655602e-02, 5.34648681e-03, -8.96868005e-05, 1.47468587e-02,
       2.61561591e-02, -1.36756245e-02, -7.60439504e-03, 2.02577654e-03,
       6.99421810e-03, 4.83645778e-03, -2.38931645e-03, 4.82012564e-03,
       3.74968932e-03, -1.88238043e-02, -1.60837155e-02, -4.41443268e-03,
       -3.70942266e-03, 3.46268597e-03, -2.52829050e-03, -5.99739840e-04,
       6.39957329e-03, -2.27146433e-03, 2.60505686e-03, 1.23242696e-03,
       -6.49685366e-03, -1.12524759e-02, 9.02750064e-03, 2.94316886e-03,
       1.41758879e-03, 3.13667729e-02, 5.51723223e-03, 4.02873941e-03,
       1.90889873e-02, -2.13058628e-02, -1.64492857e-02, 1.66881960e-02,
       -1.07281907e-02, 3.00101587e-03, 3.11062876e-02, -1.17896311e-03,
       5.58993639e-03, 1.58324633e-02, -2.95305625e-02, -8.54229555e-03,
       2.10879557e-03, -9.26010124e-03, 5.13824692e-04, 1.10452715e-02,
       1.98024581e-03, 2.90793809e-03, -2.07427004e-03, -1.84706356e-02,
       2.12251768e-03, 2.24004053e-02, -1.14572048e-02, 1.88974675e-03,
       2.33408269e-02, 1.99444089e-02, -5.92159107e-03, 2.54373974e-03,
       -9.01282858e-03, -1.74468747e-04, 6.05904385e-02, 3.55323916e-03,
       3.17843957e-03, 4.41135243e-02, 4.69567813e-02, 1.43961813e-02,
       3.25923786e-02, -9.47546493e-03, -1.80647504e-02, 3.13577950e-02,
       -2.36086873e-03, 1.69366375e-02, 8.99674185e-03, 2.28388812e-02,
       1.41509492e-02, 3.26737836e-02, -2.92272866e-02, -5.40911127e-03,
       -4.41134122e-04, -1.04639390e-02, 1.14845717e-02, -2.65895436e-03,
       -7.14572659e-03, -4.52142814e-03, 1.74625367e-02, -2.48650052e-02,
       1.84327387e-03, 3.15916091e-02, -1.04255881e-03, -5.16316807e-03,
       6.66039344e-03, 1.10601550e-02, -3.00726038e-03, 1.60467438e-02,
       -3.96983558e-03, -1.75936997e-03, 4.95798141e-02, 5.48204593e-03,
       -4.48905677e-03, 7.89819285e-03, 2.30418742e-02, -3.37806600e-03,
       2.99671348e-02, 8.21338966e-03, -1.73608344e-02, -1.39214087e-03,
       3.75127443e-03, 1.14100007e-03, -1.36299431e-02, -4.34880285e-03,
       -1.33888572e-02, 2.84279305e-02, -1.34326052e-02, 9.70393326e-03,
       -2.92835268e-03, -8.56721029e-03, 1.96815399e-03, -1.61140859e-02,
       -1.33637059e-02, -2.24686693e-02, 1.44986250e-03, -4.08358267e-03,
       -5.69471042e-04, 2.04853602e-02, 3.92781990e-03, -3.03825689e-03,
       1.69215014e-03, 2.08979426e-03, 7.47560104e-03, 1.12705631e-02,
       1.68764894e-03, -1.48679400e-02, -2.35346699e-04, 1.57513318e-03,
       -4.14937735e-03, 6.99466839e-03, 6.33385684e-03, 7.25621311e-03,
       1.10072056e-02, -5.23254182e-03, -2.01081056e-02, -9.27481055e-03,
       5.00969915e-03, 1.02586299e-02, 4.07955796e-03, -1.29746292e-02,
       -5.26621193e-03, -4.78733011e-04, -2.28264928e-03,
       -5.22695901e-03, 8.42315797e-03, 7.32938014e-03, 5.72699495e-03,
       -1.46941235e-02, -1.11320047e-02, -1.20279677e-02,
       -6.01214450e-03, -7.36451335e-03, -4.25654976e-03, 4.64102905e-03,
       -6.33507269e-03, 3.61960474e-03, 1.79546420e-02, -8.92948546e-03,
       2.48779636e-03, 1.22953756e-02, -3.30819236e-03, -3.90462251e-03,
       6.92300312e-03, -4.30935714e-03, 6.03097305e-03, 5.12410253e-02,
       8.44087824e-03, 4.51240718e-04, 1.54006192e-02, -1.21819405e-02,
       -1.23910941e-02, 1.04296661e-03, -5.00810426e-03, 1.09249754e-02,
       5.72317168e-02, -4.26059449e-03, -1.21393977e-02, 1.05270473e-02,
       -1.85730811e-02, -6.93673734e-03, 2.87105772e-03, -4.29416867e-03,
       1.68111213e-02, 2.61685587e-02, -1.18299397e-02, -5.86548401e-03,
       -1.97143084e-03, -1.93261188e-02, -7.37485103e-03, 7.63285719e-03,
       -7.33832503e-03, 1.34903966e-02, 7.24536553e-03, 6.01765886e-03,
       2.55081058e-02, 3.98978777e-02, -5.79631515e-03, -2.82414048e-03,
       2.00652778e-02, 1.34985363e-02, 2.52092239e-02, 1.50565440e-02,
       -2.04009488e-02, 2.20323186e-02, 4.96581048e-02, -3.17592435e-02,
       -2.84093004e-02, 1.67320278e-02, -8.88328720e-03, 1.17935585e-02,
       3.47658060e-03, -4.03027907e-02, -3.80194793e-03, 5.07060625e-02,
       -2.32852455e-02, -1.62281804e-02, 2.08607316e-03, -1.66895669e-02,
       6.46455772e-03, 1.00351253e-03, -1.85766108e-02, 1.94622646e-03,
       8.12525116e-03, -1.97782088e-02, -4.51092666e-04, -2.61122687e-03,
       -1.11496691e-02, -2.44635111e-03, 5.16942516e-03, 8.99782404e-03,
       1.39151504e-02, 2.23522782e-02, -1.19766863e-02, -2.75889924e-03,
       1.30363796e-02, 1.89554901e-03, 2.40276270e-02, 3.59446090e-03,
       -2.09477935e-02, 2.02792082e-02, 3.95104103e-02, 3.52052576e-03,
       -1.17280018e-02, 4.53615934e-02, -1.09844282e-02, 2.82688607e-02,
       1.55810239e-02, -5.52144796e-02, 4.72335564e-03, 3.93868275e-02,
       -2.91100387e-02, -8.99426825e-03, -1.69523843e-02,
       -9.52724926e-03, 2.15637200e-02, -6.61648531e-03, -2.40311045e-02,
       -1.85565825e-03, 2.11655032e-02, -1.10053364e-03, -8.04989878e-03,
       -6.03059167e-03, 2.18252279e-03, 3.80833138e-04, -1.11054222e-03,
       2.91319424e-03, 3.53071839e-03, -3.88279371e-03, -1.04626566e-02,
       -1.14155561e-02, 1.48691796e-02, 8.65384564e-03, 3.56920273e-03,
       -1.48759568e-02, -6.14707638e-03, 2.82443129e-02, -5.80054149e-03,
       -3.61812040e-02, 1.43343983e-02, 1.93549972e-02, -1.85983931e-03,
       1.24448622e-02, -1.95086002e-02, -9.38692410e-03, 1.58159155e-02,
       7.37109222e-04, -1.94193926e-02, 8.49061180e-04, -1.12894112e-02,
       -4.53489879e-03, 7.00320303e-03, -1.76641028e-02, -1.61953103e-02,
       8.93233251e-03, 1.58845130e-02, 6.60362560e-03, -1.67061240e-04,
       -7.67636870e-04, -2.22741393e-03, 5.30108809e-03, 1.87702458e-02,
       4.72059939e-03, -6.06312975e-03, 3.19924532e-03, -3.82130919e-03,
       2.67902273e-03, 5.05735725e-03, -1.33855296e-02, 1.44224083e-02,
       4.59540375e-02, -5.83054312e-03, -3.55827599e-03, 1.40411053e-02,
       -1.12050576e-02, 5.83620602e-03, 5.13045117e-03, -1.87471304e-02,
       3.02365124e-02, 7.86952004e-02, -1.01122959e-02, -9.97638050e-03,
       3.44866514e-03, -1.85078010e-02, -4.15435759e-03, -2.83510238e-03,
       -3.64649110e-03, 2.23433245e-02, 4.90226895e-02, 3.44934990e-03,
       -1.28766452e-03, -1.11387847e-02, -3.16609605e-03,
       -8.71860015e-04, 5.34276757e-03, -7.37756211e-03, 8.11335258e-03,
       9.54585429e-03, -3.18919937e-03, -9.24025755e-03, 1.32423760e-02,
       5.14765549e-03, -1.05373957e-03, 2.45296974e-02, -1.35724014e-02,
       -7.29653810e-04, 3.07338405e-02, -2.00020280e-02, -1.18437288e-02,
       1.47818588e-02, -1.72865149e-02, -2.67046271e-03, 2.47718878e-02,
       -2.67333235e-03, -1.21295871e-02, 9.54189524e-03, -4.01451588e-02,
       -3.24645638e-02, 2.47091576e-02, -1.17988912e-02, -3.58607899e-03,
       -7.36385060e-04, -1.30654788e-02, -1.48901064e-02, 3.00127380e-02,
       -4.45594266e-03, 1.24103259e-02, 1.85561813e-02, 5.19421883e-03,
       3.36222094e-03, 1.24719981e-02, -1.29680941e-03, 1.44313518e-02,
       3.16751888e-03, -1.27268555e-02, -4.09306027e-03, 8.91898945e-03,
       -5.98870823e-03, 8.76175426e-03, -2.62103160e-03, -7.21582817e-03,
       2.99366303e-02, 1.35176936e-02, -2.13740077e-02, -1.79685708e-02,
       1.74959451e-02, 7.50345085e-03, -6.65262761e-03, 1.73360333e-02,
       1.61144715e-02, 5.88112697e-03, -1.52370892e-02, 8.22327938e-03,
       1.74204316e-02, -1.71541348e-02, -2.20035836e-02, -1.35942278e-02,
       -4.49243700e-03, -2.19632452e-03, -9.65077896e-03, 1.13442168e-02,
       1.52532104e-02, 1.74360573e-02, 1.21114105e-02, 7.54069490e-03,
       5.78021072e-03, 4.11857665e-03, -2.48907134e-03, 1.10960891e-03,
       -6.96803955e-03, -2.65130866e-03, 1.05068577e-03, -9.42980219e-03,
       -1.08343344e-02, 9.29085072e-03, -5.28684352e-03, -1.23820007e-02,
       2.34545469e-02, 1.34948827e-03, -1.24849435e-02, 9.00643133e-03,
       9.24071879e-04, 1.17757432e-02, 2.01586783e-02, 3.05122975e-02,
       3.32060666e-03, 5.72798029e-03, -1.10521987e-02, 2.20182035e-02,
       1.19739315e-02, -9.71107930e-03, -3.90549307e-03, 1.36820292e-02,
       6.22451631e-03, -3.85412318e-03, -5.26651740e-03, -7.64824962e-03,
       1.67387929e-02, 1.83507353e-02, 4.08421736e-03, 2.22497433e-03,
       9.46093875e-04, -4.70113970e-04, -3.80332419e-03, 4.35777707e-03,
       6.19526487e-03, 7.71824853e-04, -5.20854443e-03, 1.06512301e-03,
       -2.23054225e-03, -6.15147967e-03, 1.30867411e-03, -1.77885883e-03,
       7.51168188e-03, 2.67571509e-02, 3.29564878e-04, -4.21804562e-03,
       -9.05120932e-03, 1.20964320e-02, -4.20418242e-03, 1.56665721e-03,
       -5.91411069e-03, 1.52143892e-02, 5.30891381e-02, -6.79244753e-03,
       -5.28092124e-03, 6.73431158e-03, 2.13309377e-02, -3.47054750e-03,
       -4.80364682e-03, -6.85906503e-03, 2.87505854e-02, 2.58259755e-02,
       7.96670001e-03, -1.91207544e-03, 1.28742931e-02, 4.28879773e-03,
       -5.71726263e-03, -1.95257878e-03, 4.19855583e-03, -4.88104438e-03,
       -8.27076659e-03, -7.70234130e-03, -5.29786712e-03, 4.28051502e-03,
       -2.33359099e-03, -4.50694282e-03, 1.47797335e-02, -1.20271808e-02,
       -1.29002193e-02, 1.42926974e-02, -1.43674314e-02, -1.16650676e-02,
       5.52731846e-03, 8.75420053e-04, -1.57244019e-02, -9.48449038e-03,
       -1.88727081e-02, -2.63584405e-02, 2.83621065e-02, -3.13144326e-02,
       5.12515055e-03, 2.41501592e-02, 7.77521031e-03, -7.50219543e-03,
       -1.42173404e-02, -2.20715124e-02, 6.02230197e-03, 3.30730490e-02,
       1.52729917e-03, 6.79880241e-03, 4.19354104e-02, 7.96637312e-03,
       -1.08563825e-02, -5.42095768e-06, 1.38929971e-02, 9.26646608e-05,
       -4.02616709e-03, -2.03266740e-03, 1.18487712e-03, -2.76125669e-02,
       -1.64234042e-02, -2.94410205e-03, 2.40884430e-04, -7.93083198e-03,
       -1.13550120e-03, 2.16115043e-02, -3.23769462e-04, -1.29015259e-02,
       -6.22438500e-03, -8.13563727e-03, 5.54327853e-04, -8.18376802e-03,
       -3.39545570e-02, -2.93784076e-03, 1.15665253e-02, -2.66465358e-03,
       -1.05443327e-02, -3.77194816e-03, 1.45126693e-02, -1.03582749e-02,
       -7.42060738e-03, -1.88855324e-02, -1.50667960e-02,
       -4.45915246e-03, 3.17911431e-03, 4.89980588e-03, 3.14137191e-02,
       9.35121253e-03, 3.24539258e-03, 6.76508900e-03, 7.10613932e-03,
       5.82053210e-04, -7.48205697e-03, 3.77671281e-03, 3.05730896e-03,
       -2.52575893e-02, -1.95857212e-02, 4.06064326e-03, -8.42045818e-04,
       3.85014177e-03, 1.52837753e-03, -5.58467698e-04, 6.12719683e-03,
       9.46684927e-03, -2.62658801e-02, -1.49560459e-02, -4.44127759e-03,
       -7.28478050e-03, -6.95153978e-03, 1.21899676e-02, 2.62371916e-02,
       1.25025108e-03, -7.29683554e-04, -2.11023632e-02, 8.04509874e-03,
       -2.95946829e-05, -4.93006734e-03, -9.37975198e-03, 4.33460344e-03,
       7.54703023e-03, 2.81106587e-03, 5.99570852e-03, -3.17700533e-03,
       9.77892242e-03, -9.16693942e-04, 5.66089700e-04, -1.49357296e-03,
       3.94793972e-03, 2.97899591e-03, -5.20020816e-03, -2.48930696e-03,
       -2.10765866e-04, 3.51092755e-03, -3.82939540e-03, -5.56827337e-03,
       -9.08909831e-03, 2.75659747e-02, -1.68192957e-03, 1.27333426e-03,
       -6.87323278e-03, 1.00679826e-02, 6.12499844e-03, -2.91472091e-03,
       -1.83133327e-03, -1.71386357e-02, 9.59130842e-03, 1.03200702e-02,
       5.02798427e-03, 4.83555859e-03, 1.38162188e-02, -2.85710325e-03,
       1.07934349e-03, 2.43369839e-04, 6.92787813e-03, 2.69371271e-02,
       1.91166569e-02, -5.99611457e-03, -6.54637057e-04, -5.06961765e-03,
       -1.59066787e-03, -7.54242204e-03, -5.40891243e-03,
       -2.44435994e-03, -7.55550712e-03, 2.54392019e-03, -1.87614132e-02,
       -2.85216817e-03, 4.53427574e-03, -8.79703613e-04, -1.12466626e-02,
       -7.23013049e-03, -1.68497413e-02, 4.47352715e-02, 2.51642079e-03,
       9.31814662e-04, -1.01992562e-02, 2.75064055e-02, -6.64543652e-04,
       -1.39043145e-02, 1.04112423e-03, -4.38023880e-02, 3.22361253e-02,
       -1.52294366e-02, -7.62999640e-04, -1.24487458e-02, 5.90779707e-02,
       -7.61414226e-03, 3.73707758e-03, -1.56308468e-02, -9.72137321e-03,
       1.51863266e-02, 5.59528219e-03, -1.50882770e-04, -1.06334379e-02,
       6.10150723e-03, -1.67479843e-03, -4.15412895e-03, -1.91657897e-03,
       -5.32829808e-03, -5.45454863e-03, -7.78015703e-03,
       -1.37441549e-02, 3.25426809e-03, 1.82948809e-03, 3.40017141e-03,
       -1.96678806e-02, -8.04628711e-03, -3.61240911e-03,
       -5.47269220e-03, -4.09119762e-02, -2.42129248e-02, 4.98026283e-03,
       3.49209830e-02, 1.29411637e-03, -2.87249517e-02, -3.52458330e-03,
       -1.02873202e-02, 3.13454890e-03, -3.01633608e-02, -9.97914653e-03,
       -1.06314486e-02, 8.12261999e-02, -1.10156681e-04, 1.35768810e-03,
       -7.92455114e-03, -1.01977028e-02, -1.33022424e-02,
       -2.13159807e-02, -6.72837347e-03, -9.71487444e-03, 2.44996753e-02,
       -4.69635939e-03, -3.18683288e-03, -1.79765595e-03, 4.94588050e-04,
       2.03329278e-03, 3.65854474e-03, -2.34281411e-03, 5.91618381e-03,
       -4.30409703e-03, -1.75411976e-03, -1.32945282e-02,
       -4.08080779e-03, -2.12008087e-03, 2.37260270e-03, -9.91604291e-03,
       -8.83434806e-03, 1.25766229e-02, 1.87950965e-03, 2.48817098e-03,
       -1.55713288e-02, -7.63303367e-03, 4.13552485e-03, -2.35906080e-03,
       -5.98687399e-03, -1.14563489e-02, -1.09156109e-02, 2.80099008e-02,
       -9.23856162e-03, -2.92222411e-03, 6.46392233e-04, -1.16185518e-03,
       -5.83505025e-03, -1.20439408e-02, -1.34057067e-02,
       -1.41238980e-02, 1.01201497e-02, -3.09663173e-03, -1.61705379e-04,
       -1.99255161e-03, -3.85703612e-03, 5.27547486e-03, -4.62664012e-03,
       -6.92908419e-03, -7.27942446e-03, -2.40248651e-03,
       -4.48323693e-03, 6.38155558e-04, 6.15605677e-04, 3.24691209e-04,
       2.44278722e-02, 1.14410440e-03, -1.64327323e-02, -6.85012806e-03,
       -6.79142401e-03, -6.20474457e-04, -9.46091954e-03, 3.22439941e-03,
       -1.95691665e-03, 2.94846967e-02, 7.33064674e-03, 2.66830008e-02,
       -2.30250123e-04, -2.78504007e-03, -4.82135825e-03,
       -2.91423360e-03, 3.59689281e-03, 6.49483642e-03, 6.00200240e-03,
       8.26939009e-03, 2.23143008e-02, 1.76102307e-03, 8.13110091e-04,
       -8.51622608e-04, -4.86564677e-05, -3.87408002e-03,
       -4.28827805e-03, 2.25332044e-02, -8.93277489e-03, -1.34901926e-02,
       -2.60965507e-02, -6.80459058e-03, -4.60574077e-03, 9.67342639e-04,
       -2.93239802e-02, 6.00035011e-04, 4.39699218e-02, 7.91918952e-04,
       1.93337852e-03, -2.89278571e-02, -1.37022871e-03, -1.16426935e-02,
       -7.34857342e-04, -2.79966481e-02, -2.72586551e-02, 8.62028673e-02,
       -1.08428160e-02, 4.37852927e-02, -2.93612783e-03, 8.93603917e-03,
       -2.83466037e-02, -8.56380071e-03, -3.89275374e-03, 7.71579053e-03,
       2.33103335e-02, -7.42110005e-03, 1.52083607e-02, 2.61380058e-03,
       -1.13624707e-03, -9.50949918e-03, -3.98872048e-03,
       -2.00806255e-03, 1.38501637e-02, 2.58711185e-02, -1.16197355e-02,
       -7.89290201e-03, -2.33305544e-02, 4.13997984e-03, -6.49105152e-03,
       -2.68634385e-03, -6.13368070e-03, 2.29359418e-02, 2.53674295e-02,
       -1.71653815e-02, 2.91317445e-03, 2.82708160e-03, 2.72422582e-02,
       -2.50405278e-02, 3.32293985e-03, 7.35342689e-03, -1.75228603e-02,
       5.23372814e-02, -2.95625329e-02, -1.86231546e-02, 1.31559353e-02,
       3.09305880e-02, -2.69244071e-02, -1.49212945e-02, 1.91366056e-03,
       5.34342136e-03, 1.96208525e-02, -2.53460947e-02, -1.61384773e-02,
       -9.08646209e-04, 8.40456225e-03, -1.47960000e-02, -2.60630273e-03,
       -9.58881923e-04, 1.09784249e-02, 1.02581242e-02, 9.95235750e-04,
       -3.79973534e-03, -8.47153552e-03, -6.90169400e-03,
       -8.07365775e-03, -1.26592945e-02, 4.58671665e-03, 2.65221652e-02,
       1.28307901e-02, -2.24846192e-02, -1.19241532e-02, -5.05686877e-03,
       7.36196293e-03, -1.25002591e-02, -6.94180140e-03, -1.26980720e-02,
       5.46519295e-04, -1.06383360e-03, -4.09615487e-02, -8.36568698e-03,
       1.27017766e-03, 8.27228092e-03, -1.55328996e-02, -7.81917945e-03,
       -1.03834802e-02, 5.20419795e-03, -5.03320945e-03, -2.42781993e-02,
       -1.72738284e-02, -8.74828547e-03, -1.68529979e-03,
       -5.98678133e-03, 2.18727090e-03, 9.99411568e-04, -4.29543015e-03,
       -1.01696071e-03, -4.16204752e-03, 4.77241538e-03, 6.28861925e-03,
       -2.35317415e-03, 1.48090848e-03, 4.65991115e-03, 2.11297162e-03,
       7.46306218e-03, 4.66783904e-03, -9.73563921e-03, 5.14896214e-03,
       1.10180937e-02, -1.32718477e-02, 8.23148526e-04, -4.15466819e-03,
       1.71053279e-02, 3.24019068e-03, 3.29681742e-03, -6.81727799e-03,
       3.93718830e-04, 6.48583239e-03, -5.32529410e-03, -7.71829905e-03,
       9.29774076e-04, 3.69149051e-03, 2.48205359e-03, -7.69653998e-05,
       -4.16641543e-03, -1.54173712e-03, -8.79087392e-03,
       -4.41312511e-03, -4.63604275e-03, 1.56592205e-02, 1.01552512e-02,
       -5.30609675e-03, -3.92309763e-03, -2.13386142e-03,
       -9.91329458e-03, 2.18377206e-02, -3.49974493e-04, -2.95100675e-04,
       3.10693625e-02, 3.68708335e-02, 1.71233434e-02, 3.50975315e-03,
       -4.40370664e-02, -1.20757334e-02, 4.40603346e-02, -1.48413982e-02,
       9.86244343e-03, 3.34408786e-03, 4.66492958e-02, 1.07819103e-02,
       2.81728338e-03, -3.43323238e-02, 1.62370037e-02, 2.71650571e-02,
       4.34974954e-03, 5.13408973e-04, -6.29614713e-03, 4.40525031e-03,
       2.18667462e-03, -9.96532981e-05, 3.54406890e-03, -5.88483689e-03,
       -8.23454093e-03, -2.09700968e-02, -1.29988585e-02, 5.39792760e-04,
       1.52710360e-02, 5.51431207e-03, -8.64653569e-03, -1.07133696e-02,
       -2.57545654e-02, 1.57160070e-02, 2.55634505e-02, -1.04247341e-02,
       3.51396156e-04, 6.82113739e-03, 5.99030480e-02, -1.81986671e-02,
       -2.71789022e-02, -3.13444547e-02, 7.40431547e-02, 3.02731502e-03,
       -7.56706530e-03, -2.90674977e-02, 6.48235483e-03, 1.78468078e-02,
       -1.83134135e-02, -2.72467323e-02, -5.94465807e-03, 1.84419062e-02,
       2.75740530e-02, 2.38614040e-03, -5.65110124e-04, 1.53277982e-02,
       -1.21606758e-03, -9.66457836e-03, -1.16744323e-03,
       -2.55060326e-02, -2.24783607e-02, -2.13234816e-02, 4.32115607e-03,
       -9.01822653e-03, 4.04814258e-03, 2.08377675e-03, -2.77189049e-03,
       3.65536031e-03, -1.00850826e-02, 8.37705936e-03, 5.90097392e-03,
       -1.83025245e-02, -5.92321716e-03, -7.90844485e-03, 1.82588939e-02,
       -1.56430081e-02, 4.32072114e-03, -1.14190048e-02, 5.74526936e-02,
       3.97329481e-04, -3.25426161e-02, -3.96492006e-03, 4.75511933e-03,
       2.93200538e-02, -3.03652994e-02, -1.72918979e-02, -1.49751464e-02,
       1.53605128e-02, 1.34426297e-03, -6.35260437e-03, -3.86206375e-04,
       1.04056615e-02, 4.22822405e-03, -4.53380216e-03, 4.41603683e-04,
       -1.05716912e-02, -6.04946818e-03, -1.22242635e-02,
       -7.57734990e-04, -1.92786450e-03, 5.83494641e-03, -3.86592653e-03,
       -2.68106326e-03, -1.73809018e-03, -7.09839445e-03,
       -2.21267971e-03, 1.64443906e-03, -2.25385465e-03, -1.14810150e-02,
       8.56820401e-03, -2.65764561e-03, -6.36399956e-03, -5.51711209e-03,
       5.31232031e-03, -7.31975213e-03, 8.17961525e-03, -5.40532358e-03,
       -1.77720282e-02, -4.25939076e-03, -3.22218752e-03,
       -6.79415045e-03, -7.77622394e-04, 1.41753862e-05, 6.37550693e-05,
       -2.73069716e-03, -1.24486051e-02, -2.66949320e-03,
       -2.63506756e-03, -1.81770953e-03, -2.31675245e-03,
       -1.12469764e-02, -1.51055795e-03, -5.41660236e-03,
       -1.11416681e-02, -1.21220956e-02, -3.29332193e-03, 2.01054346e-02,
       -1.11366194e-02, -3.08761792e-03, -7.75631284e-03,
       -5.21452213e-03, 1.13602830e-02, 7.29121873e-03, -1.95149821e-03,
       -2.83645038e-02, 2.57481355e-03, -5.66412648e-03, -7.67998630e-03,
       -4.56965901e-03, -9.14679095e-03, 9.48437955e-03, 3.98555920e-02,
       3.75412032e-03, -2.32362673e-02, -1.47045692e-02, 2.92995083e-03,
       1.34715717e-02, -1.90906785e-02, -1.82806533e-02, -1.56864896e-02,
       3.12503017e-02, 5.58662368e-03, -1.36526022e-02, 6.73092157e-03,
       2.81564821e-03, 1.97153841e-03, -2.01671720e-02, 3.28201568e-04,
       -1.19617600e-02, -6.84103603e-03, -1.73045881e-02,
       -8.71196762e-03, 1.11159477e-02, -1.10557023e-02, -8.78443196e-03,
       -1.16393743e-02, -1.25353634e-02, 1.15912119e-02, 2.80611794e-02,
       2.37588631e-03, -1.08679188e-02, 1.03391921e-02, -8.44905060e-03,
       -2.47959830e-02, 5.14740450e-03, 3.61345406e-03, 2.38589272e-02,
       5.81717715e-02, 8.69279169e-03, 4.21329821e-03, -1.41957607e-02,
       -2.54294612e-02, -9.40279383e-03, 9.64353420e-03, 2.79550664e-02,
       1.81217361e-02, 4.03326862e-02, -1.57209430e-02, -8.16430151e-03,
       2.28109746e-03, -1.12733280e-03, 2.17242097e-03, -7.41633028e-03,
       1.04527064e-02, -2.24014767e-03, -1.40766678e-02, -9.22563393e-03,
       -9.41975415e-03, -5.03811659e-03, -1.10731157e-03,
       -6.90594828e-03, -4.54645976e-03, -3.75006278e-03, 1.28127374e-02,
       1.40866078e-02, -5.48517937e-03, -1.99391767e-02, -1.07086366e-02,
       -9.67417285e-03, -2.93983088e-04, 2.84009334e-03, 1.74953695e-02,
       3.82851250e-02, 1.89971682e-02, -1.33866062e-02, 9.21860244e-03,
       -9.38845892e-03, -2.67595192e-03, 5.76167833e-03, 2.59269075e-03,
       8.75745621e-03, 2.79554166e-02, -1.86341081e-03, 3.14142881e-03,
       9.77679342e-03, -1.80820636e-02, -1.37705778e-04, 6.54029008e-03,
       -7.06573622e-03, -1.85563397e-02, -1.15117698e-03,
       -4.14808467e-03, 3.75197339e-03, -1.21635676e-03, -4.67591407e-03,
       -4.36052820e-03, 1.31025910e-03, 5.00953058e-03, 3.88449058e-03,
       3.06906016e-03, 1.00399246e-02, 2.28688834e-04, 2.12071044e-03,
       4.95620770e-03, -2.36590451e-04, 1.06079560e-02, -2.25275537e-04,
       -1.01577919e-02, 2.36671860e-03, 7.06680631e-03, 4.25680261e-03,
       -1.25029136e-03, 1.89256296e-02, -1.06266942e-02, 9.78840631e-04,
       -8.34997930e-03, -1.74156260e-02, 1.21653592e-02, 1.77991251e-03,
       -1.25425216e-02, -3.94439418e-03, -4.05203877e-03,
       -6.42443448e-03, 2.71101645e-03, -1.56751880e-03, -6.06207736e-03,
       6.28672424e-04, -5.17638028e-03, -1.28152119e-02, -6.34158822e-03,
       6.48564834e-04, 1.96612533e-03, 1.25655560e-02, -6.15945086e-03,
       3.95473093e-03, 4.90971655e-03, 2.82725208e-02, 6.04819274e-03,
       3.84828541e-03, 4.13617827e-02, 1.10526849e-02, 2.26888154e-02,
       -6.23666402e-03, -1.15952967e-02, 6.24123774e-03, 2.38385294e-02,
       -4.12690034e-03, 1.29629439e-02, 4.63441424e-02, -3.76175129e-04,
       2.34553572e-02, -7.25073228e-03, -1.82323530e-02, 3.51750366e-02,
       1.40079642e-02, -2.58282982e-02, 9.57108627e-04, -1.97597523e-03,
       -1.34443436e-02, -6.60245307e-03, -1.30753433e-02,
       -2.81173922e-02, 1.62174534e-02, 2.43717581e-02, -1.94923300e-03,
       8.43325350e-03, 4.35628230e-03, -1.67635623e-02, 5.95644489e-03,
       5.66200819e-03, 1.10153751e-02, 2.50294972e-02, 1.22837517e-02,
       -2.02105753e-03, 1.90910660e-02, 2.62014326e-02, 1.84090377e-03,
       2.14263368e-02, 2.26766858e-02, 1.93995684e-02, 2.29054298e-02,
       -1.45457024e-02, 1.00434925e-02, 2.10631024e-02, 2.16531567e-02,
       4.61385548e-02, 4.91378270e-02, 3.02091017e-02, -3.61214839e-02,
       6.00339286e-02, -2.22351383e-02, -1.31212315e-02, 7.65618868e-04,
       5.48773585e-03, 1.83041636e-02, 5.84944570e-03, 1.31385878e-03,
       -3.21703292e-02, 3.96104008e-02, 7.63778714e-03, -1.61900297e-02,
       8.42927769e-03, -2.90562026e-03, -8.40495341e-03, 1.75447087e-03,
       1.82893511e-03, 3.46609624e-03, 2.21317802e-02, 8.51953682e-03,
       1.97158474e-03, 3.21663655e-02, -2.90966895e-03, -2.08607828e-03,
       1.47568844e-02, 1.00483568e-02, -1.22002540e-02, 3.15678567e-02,
       -1.97431222e-02, -1.76099211e-03, 2.10064221e-02, 1.14742555e-02,
       2.50309613e-02, 9.69536602e-03, 1.30956611e-02, -9.98773240e-03,
       2.46105101e-02, -1.99083518e-02, -1.11140090e-03, -1.35413487e-03,
       -7.25402636e-03, 2.44860351e-02, -2.12451327e-03, -4.31953324e-03,
       -2.25085858e-02, 9.63822939e-03, -6.51682611e-04, 1.39036810e-03,
       -1.79119909e-03, 9.27376794e-04, -6.19501621e-03, 4.44577215e-03,
       -4.59587725e-04, -4.38712630e-03, 2.25084322e-03, 5.99113666e-03,
       -1.05310837e-03, -5.47696976e-03, -7.58204889e-03,
       -1.38734207e-02, 1.59354974e-02, 1.04426378e-02, -1.09752240e-02,
       -1.11153293e-02, 9.83297476e-04, -2.63101398e-03, -1.06428452e-02,
       -6.05362281e-03, -7.15701608e-03, 1.40831079e-02, 1.58610828e-02,
       -5.47031872e-03, 3.84736387e-03, -1.78773850e-02, -1.90262198e-02,
       -7.82407075e-03, -4.46304120e-03, -3.27551086e-03, 1.99933094e-03,
       9.94740985e-03, 9.79597098e-04, 8.74311489e-04, -7.79165141e-03,
       -8.28272197e-03, 2.60931533e-03, -8.19912937e-04, -7.69864768e-03,
       1.22532733e-02, 4.09195805e-03, -6.70086686e-03, 4.02512681e-03,
       1.67211331e-02, -1.91097939e-03, 5.52757829e-03, -1.32593722e-03,
       -2.38743722e-02, 2.86925007e-02, 1.07976487e-02, -4.19923216e-02,
       1.79794077e-02, 3.75396125e-02, 2.71997172e-02, 2.04729605e-02,
       4.19923812e-02, -1.71152242e-02, 4.19286452e-03, -2.64900625e-02,
       -4.04858869e-03, 2.26343982e-02, 1.71227027e-02, -2.22224812e-03,
       4.44313325e-03, 2.16858520e-04, -1.38684185e-02, -5.44887176e-03,
       -1.09463790e-02, 3.01625114e-03, 3.23505104e-02, -2.45579518e-03,
       -2.19628797e-03, 2.43840250e-03, 1.75323803e-03, 8.13744124e-03,
       2.25133467e-02, 5.83417341e-03, -1.12472577e-02, 2.92694606e-02,
       -6.74536731e-03, -6.80247461e-03, 1.08927349e-02, 2.84117721e-02,
       3.09241842e-02, 3.78149748e-02, 4.84036505e-02, -5.00269495e-02,
       4.62875403e-02, 9.12513491e-03, -1.84882283e-02, 1.57731026e-02,
       1.02388272e-02, -2.77302996e-03, 2.03303676e-02, 1.04096895e-02,
       -2.27206461e-02, 1.84104815e-02, 3.79062183e-02, -8.09353217e-03,
       7.56392197e-04, -3.58200469e-03, -2.79499590e-02, -2.22465862e-02,
       1.28452610e-02, 1.23286797e-02, 2.12988667e-02, -7.07721431e-03,
       4.37148148e-03, 7.54483091e-03, 4.96622268e-03, 5.30940481e-03,
       4.01442265e-03, 6.32884214e-04, 2.18686555e-03, 1.58122405e-02,
       4.73849615e-03, 4.60797595e-03, 1.62520679e-03, 8.15339945e-03,
       2.68041287e-02, 9.90113243e-03, 2.01647654e-02, -1.59186311e-02,
       3.27220932e-02, -8.63484479e-03, 3.00361007e-03, 3.39656253e-04,
       7.36592163e-04, -1.74082327e-03, -2.36830045e-03, 2.32370589e-02,
       6.12576725e-03, 1.72301736e-02, -9.78766009e-03, -1.50445271e-02,
       1.21610612e-03, -5.18008880e-03, -1.50661562e-02, -1.09076099e-02,
       1.53668337e-02, 2.01157469e-04, -1.01873595e-02, -9.65861697e-03,
       8.96571949e-03, -5.04888315e-03, -4.44443384e-03, 2.94280844e-03,
       5.46681928e-03, 4.73843515e-03, -7.99717288e-03, -1.57895207e-03,
       -1.28990633e-03, 4.81921743e-04, -5.48301125e-03, -9.22992267e-03,
       -6.25900365e-03, 1.01531651e-02, 2.63366811e-02, -1.31162189e-04,
       -1.81687064e-02, -3.89671943e-04, 1.10586537e-02, -5.74383128e-04,
       -5.05116256e-03, -1.50797553e-02, 1.13737006e-02, 2.99145002e-02,
       7.64406519e-03, -1.61694288e-02, -7.20396731e-03, 1.59111992e-02,
       -2.20293133e-03, -4.50552627e-03, -6.11250661e-03, 6.29902072e-03,
       2.40525650e-03, 1.62072259e-03, -5.52266976e-03, -7.70976301e-03,
       6.20215805e-03, 2.98165862e-04, 1.45017607e-02, 1.14544816e-02,
       7.84892030e-03, -6.75460231e-03, -1.23905507e-03, 4.38204128e-03,
       7.25979591e-03, 2.44789029e-04, 1.40561135e-02, 7.38779036e-03,
       -1.30904978e-02, 3.13332048e-03, 1.98504739e-02, 2.17410978e-02,
       1.19312285e-02, 1.87795924e-03, 2.17798799e-02, 2.20046602e-02,
       4.74146800e-03, -2.43347362e-02, 3.13453265e-02, 5.28877489e-02,
       3.48153175e-03, -1.60575490e-02, -3.56575698e-02, 4.74119596e-02,
       -5.78475976e-03, -1.49403303e-03, 4.23485553e-03, 1.56642962e-02,
       8.36263783e-03, 4.08901414e-03, -4.36722068e-03, -1.82978483e-03,
       2.38548294e-02, 2.22056801e-03, 4.30729473e-03, 1.35125797e-02,
       1.27152000e-02, 6.85778027e-03, 8.42578430e-03, 1.83958653e-02,
       -2.09617037e-02, -1.05235009e-02, 3.43924090e-02, 2.91374456e-02,
       -7.60912057e-03, -3.33850011e-02, 2.72026286e-02, 5.96903898e-02,
       6.86334213e-04, -2.31698379e-02, 1.48874987e-02, 1.80312917e-02,
       -1.12344483e-02, -2.74305735e-02, 1.14453649e-02, 4.52539288e-02,
       3.44739817e-02, -2.73920875e-02, -1.87285338e-02, 4.60542478e-02,
       6.99242624e-03, -1.09088290e-02, -1.88771146e-03, 1.64740924e-02,
       2.87652034e-02, 6.64773909e-03, -6.91647234e-04, -1.11758534e-03,
       1.56700630e-02, 9.88717284e-03, 3.88466660e-03, 3.95682594e-03,
       -2.05446128e-03, 6.89455727e-03, 1.14008645e-02, 4.44112998e-03,
       -3.20029780e-02, -1.41809359e-02, 1.45847593e-02, 1.70639493e-02,
       -6.75338786e-03, -8.66138749e-03, 2.28328835e-02, 2.36093048e-02,
       -2.50433236e-02, -4.21980321e-02, 1.40675427e-02, 1.06173614e-03,
       6.00015139e-03, -2.05617715e-02, -4.14713845e-03, 2.01349277e-02,
       2.06513423e-03, 9.67858010e-04, -8.65847245e-03, 2.24616937e-02,
       1.26136746e-02, 2.10209400e-03, -1.18715521e-02, 5.36095642e-04,
       3.47403507e-03, 1.24852657e-02, 2.33549299e-03, -2.10100040e-02,
       4.45004692e-03, 7.22704048e-04, -2.69218348e-03, -4.80160723e-03,
       5.56751201e-03, 9.27284267e-03, 4.84502176e-03, -9.59638681e-04,
       -1.42703776e-03, 6.08060323e-03, -3.50415055e-03, -4.77712136e-03,
       -3.00979614e-03, 1.35072125e-02, 6.34833332e-03, 7.59117014e-04,
       -3.08415410e-03, 7.38750212e-03, 1.19207427e-02, -9.95579734e-03,
       -1.12514524e-02, 6.64437976e-05, 3.19355205e-02, 2.05008946e-02,
       6.31943299e-03, -1.08446889e-02, 2.16869805e-02, 9.53267794e-03,
       -2.67452886e-03, -4.98934463e-03, -1.07664429e-03, 1.55129405e-02,
       2.37575695e-02, 6.54886989e-03, 4.10099979e-03, 3.54529149e-03,
       -3.42261791e-03, 4.46603168e-03, -3.54898139e-03, -1.29272230e-03,
       1.17380051e-02, 1.43019734e-02, -2.96167773e-03, -3.15656274e-04,
       -4.70453687e-03, 1.07864253e-02, -1.21056605e-02, -1.94024877e-03,
       9.99441650e-03, 3.00360490e-02, 9.52452235e-03, -8.19497928e-03,
       -3.64341517e-03, 1.23831620e-02, 3.11777443e-02, -1.43905748e-02,
       -1.64668523e-02, 6.30857097e-03, 2.75376588e-02, 2.23312061e-02,
       1.92920282e-03, 5.42747695e-03, 4.69852202e-02, 1.92245971e-02,
       -3.25444387e-03, -1.57808512e-02, -4.61837556e-03, 1.61757208e-02,
       8.02194583e-04, -5.50065143e-03, 8.75153020e-03, 2.20866166e-02,
       7.84871727e-03, 3.46374372e-03, -5.72942849e-03, 4.54751914e-03,
       6.69140089e-03, 1.04018925e-02, -1.18974512e-02, -1.62253121e-03,
       -8.72647855e-03, 1.05196834e-02, -3.73706920e-03, -1.75184719e-02,
       8.57104920e-03, 1.62569676e-02, 1.89682823e-02, 7.37438258e-03,
       -1.07432762e-03, -8.74751061e-03, 3.15477625e-02, -3.46655734e-02,
       -2.29541436e-02, 9.70002916e-03, 2.93645984e-03, -2.74762195e-02,
       -4.18746192e-03, 1.57817211e-02, 2.03947444e-02, 1.41622648e-02,
       -8.00293777e-03, -2.20241435e-02, -1.11560849e-02, 5.11649763e-03,
       -2.32868865e-02, -1.76775735e-02, -1.23117678e-02, 2.11465862e-02,
       -2.41178740e-02, 6.32433221e-03, 1.04919076e-03, -9.81522724e-04,
       -3.59384087e-03, -1.28421036e-03, -6.16553519e-03, 6.07392984e-03,
       -1.96395740e-02, 1.10561552e-03, -5.32039022e-03, -6.74847048e-03,
       -4.71884478e-03, -5.22969570e-03, -9.02205054e-03,
       -3.14968522e-04, 4.89711342e-03, -2.94101611e-02, 1.04063582e-02,
       -3.07023432e-02, -1.88517906e-02, -1.40734704e-03,
       -8.01503938e-03, -2.10757833e-02, -1.66195706e-02,
       -1.04981819e-02, 1.85819883e-02, 6.93520880e-04, -1.24928495e-02,
       -9.63359233e-03, -4.95996559e-03, 5.36922924e-03, -2.18052454e-02,
       -1.00979395e-02, -1.21691646e-02, 1.06171574e-02, -1.23710642e-02,
       -2.37208325e-03, -1.17806881e-03, 5.58542646e-03, 1.07914992e-02,
       6.47109840e-03, -4.66986187e-03, -1.04927691e-02, 3.13717732e-03,
       2.98288837e-03, 3.50319990e-03, 4.24626004e-03, -1.33349924e-04,
       2.68620327e-02, 2.76355017e-02, 4.63797152e-03, 1.53260957e-02,
       2.07595695e-02, 5.00569167e-03, 7.33458577e-03, 1.31612113e-02,
       8.09376314e-03, 3.79132144e-02, 3.30342092e-02, 9.73824877e-03,
       2.66247261e-02, 2.59275753e-02, -4.37318254e-03, -7.06389663e-04,
       6.27633184e-03, 1.62833165e-02, 1.18316785e-02, 2.37799790e-02,
       5.35644172e-03, 7.84783252e-03, 8.00060108e-03, -5.14002237e-03,
       5.79256914e-04, 6.13448489e-03, 1.84973460e-02, 1.67239625e-02,
       1.27328616e-02, -1.59290228e-02, -1.81129221e-02, 6.07490446e-03,
       8.83547869e-03, 1.53390598e-03, 9.55774263e-03, 2.95951613e-04,
       3.76397856e-02, -3.10134958e-03, -7.72436988e-03, 1.91757139e-02,
       5.05604446e-02, 1.29311197e-02, 9.91473626e-03, 1.71393268e-02,
       2.77018603e-02, 1.37758404e-02, -3.84458154e-02, 1.68273728e-02,
       6.78940192e-02, 3.87807377e-02, -5.20632835e-03, 1.66676356e-03,
       1.30739389e-02, 2.72961576e-02, -1.05590560e-02, -7.55994674e-03,
       -2.48747086e-03, 1.10495696e-02, 4.57545370e-03, -2.16899044e-03,
       -2.28623976e-03, 8.85745604e-03, 2.44382378e-02, 9.46889818e-03,
       -3.79946153e-03, -7.83223193e-03, -1.32883461e-02, 1.56368129e-03,
       -5.70644625e-03, 1.41871525e-02, -1.40143968e-02, -5.54895401e-03,
       2.12971382e-02, -8.55035149e-03, 7.44258007e-03, -2.67989165e-03,
       2.06124224e-02, -2.49905307e-02, -4.95470082e-03, 5.88422734e-03,
       7.74630858e-03, -2.38514524e-02, -9.68120713e-03, -6.23791106e-03,
       1.58776492e-02, 2.77982140e-03, -1.83933740e-03, -7.97811896e-03,
       1.80502739e-02, 1.81462578e-02, -2.06275955e-02, -3.84283066e-02,
       -2.76593603e-02, 1.46904029e-03, -1.24407420e-02, -1.48974976e-03,
       -1.72810908e-03, -1.92254971e-04, 1.32466424e-02, 3.36854928e-03,
       -5.18372748e-03, -3.52849346e-03, -5.56707243e-03, 1.60349458e-02,
       -4.41348320e-03, -1.64808314e-02, -1.45343365e-02, 6.60427334e-03,
       4.80834395e-03, -1.81769431e-02, 1.10821715e-02, 7.20563577e-03,
       -2.39695911e-03, -1.91065334e-02, -1.31556438e-02, 1.12563623e-02,
       9.30679147e-04, -7.83274323e-03, -1.43813286e-02, -1.39380842e-02,
       -9.26735997e-03, -3.47928219e-02, -2.82028541e-02,
       -6.05740538e-03, 7.83977844e-03, 1.05570536e-02, 1.18715735e-03,
       -2.63745710e-02, -2.98147276e-02, -6.60807267e-03,
       -5.12780389e-03, 3.67621396e-05, -1.84197095e-03, 1.73931068e-03,
       2.81791785e-03, -2.61698915e-06, -1.55028992e-03, -1.15369121e-02,
       1.20751036e-03, 1.05466368e-02, -4.39949147e-03, -4.69150580e-03,
       -1.15841273e-02, 1.89757198e-02, -6.39433786e-03, 2.81330687e-03,
       -2.38893311e-02, 2.82771233e-02, 6.92347297e-03, -1.45800947e-03,
       -6.44015288e-03, -5.19789197e-03, 5.35889342e-03, -2.81055784e-03,
       6.29607867e-03, -9.96969640e-03, 5.62254339e-03, 6.23093825e-03,
       8.71010404e-03, 1.57033268e-03, 2.51129828e-03, 5.12158591e-03,
       2.57490692e-03, 7.06156949e-03, -6.61327410e-03, -1.04616359e-02,
       -7.80802639e-03, 9.70535353e-03, -1.20017845e-02, 6.47066114e-03,
       5.77685982e-03, 6.52640665e-05, -2.57526804e-03, -2.51327232e-02,
       1.41887674e-02, 1.09340642e-02, -2.21694782e-02, -1.67089645e-02,
       -4.04069526e-03, 3.95214483e-02, -3.89559753e-03, -1.04661211e-02,
       -4.48647961e-02, 6.07999079e-02, 1.10618472e-04, -4.05428223e-02,
       -2.15792786e-02, 7.44475517e-03, 3.59577462e-02, -3.97335738e-02,
       -4.44863588e-02, -2.57636495e-02, 2.35989746e-02, 1.24620302e-02,
       -6.79538958e-03, -1.39539409e-02, 9.57064610e-03, 9.79159493e-03,
       1.53475907e-03, -6.23216899e-03, -1.18887946e-02, 2.96300932e-05,
       -1.17220934e-02, -1.53127592e-02, 2.22410262e-03, -5.45305782e-04,
       9.06122383e-03, -2.42761453e-03, -2.92908493e-02, -7.92941265e-03,
       2.56122258e-02, -4.12731012e-03, -1.64280999e-02, -1.62088014e-02,
       2.22137123e-02, 4.19005081e-02, -1.87486317e-02, -2.30649244e-02,
       -6.62309602e-02, 6.63138703e-02, 1.74950517e-03, -2.76058018e-02,
       -5.11231013e-02, -4.47616400e-03, 3.68716642e-02, -2.72116009e-02,
       -1.58515312e-02, -1.69917550e-02, 2.95043364e-02, 1.83378055e-03,
       -3.77283506e-02, -1.08024385e-03, 6.10726466e-03, 5.85166318e-03,
       -3.06696608e-03, -1.32106561e-02, -1.04778642e-02,
       -7.93104526e-03, -2.29823496e-03, -1.54709471e-02,
       -1.72327680e-03, 1.59347919e-03, 4.37391596e-03, 3.79083492e-03,
       -1.82029302e-03, 1.11992098e-02, 2.20568012e-02, -1.39496857e-02,
       -2.13437397e-02, -2.63091829e-03, 2.17693932e-02, 1.55152362e-02,
       -1.73255615e-02, 1.51300505e-02, -1.48044992e-03, 4.03486788e-02,
       1.22122082e-03, -3.26177180e-02, 1.34111301e-03, -3.83857172e-03,
       5.15267579e-03, -1.84445009e-02, 5.93102491e-03, 2.76103010e-03,
       2.28851791e-02, -1.94669724e-03, -1.72785781e-02, 5.29642543e-03,
       2.79709254e-03, 2.99707940e-03, -2.53723731e-04, 1.12532135e-02,
       2.70719826e-03, -1.92107800e-02, -7.25721801e-03, -8.79061222e-03,
       -4.05412121e-03, 6.24299981e-04, -3.14433128e-03, -3.69390869e-03,
       -1.53424707e-03, -5.25019644e-03, 3.22611886e-03, 6.32057572e-03,
       8.48158728e-04, -1.17446878e-03, 3.59272677e-03, -9.63615952e-04,
       -1.01942671e-02, 1.08659023e-03, -1.60505195e-04, 8.76725838e-03,
       1.58494897e-02, 7.05920905e-03, 2.61813262e-03, -1.46627845e-03,
       -9.42538772e-03, -1.07404194e-03, 5.67476172e-03, 2.50273827e-03,
       8.22226144e-03, -3.62127996e-03, -4.45390260e-03, 1.36502192e-03,
       -1.63463596e-03, 7.01798534e-04, -2.58081639e-03, -5.44192386e-04,
       -1.50548888e-03, -5.98473183e-04, -9.10921302e-03,
       -2.84348265e-03, -1.61566678e-02, -4.52009588e-03,
       -1.57590548e-03, -1.09056039e-02, -1.23371510e-02,
       -6.00594841e-03, 1.82203986e-02, 1.19896792e-02, -1.20539498e-02,
       -2.63401270e-02, 5.83843654e-03, -7.41768582e-03, 3.16618918e-03,
       -3.24198343e-02, 8.91945884e-03, 5.40034063e-02, 3.15332711e-02,
       -2.80428790e-02, 3.59685905e-03, -5.47721982e-04, 7.93829747e-03,
       7.33069098e-03, -1.68766920e-02, 6.15971768e-03, 2.88376249e-02,
       4.96210810e-03, 7.84026738e-03, 1.27150277e-02, -9.97042190e-03,
       -2.35494343e-03, 5.38513158e-03, -1.63267227e-03, -3.14807333e-02,
       5.97056467e-03, -1.66787840e-02, -1.30405594e-02, -1.56453103e-02,
       -1.78114651e-03, -9.33477934e-03, -1.51901059e-02,
       -1.88246779e-02, 6.39596488e-03, 1.52836367e-02, 1.32165253e-02,
       -1.88725889e-02, -1.98758673e-02, 1.29431104e-02, -1.07234372e-02,
       -3.30266892e-03, -3.73946279e-02, 2.86096404e-03, 5.28226085e-02,
       5.24477437e-02, -2.32248288e-02, -7.11340318e-03, 1.47326179e-02,
       5.90413227e-04, 5.21298556e-04, 1.07177747e-02, -6.48637163e-03,
       3.93834598e-02, 3.44562754e-02, -1.57270487e-03, 5.37113706e-03,
       -1.99411344e-03, -1.03827361e-02, 9.79182031e-03, 9.25873872e-03,
       -2.77917515e-02, 1.87730398e-02, -2.07633972e-02, -2.74150558e-02,
       -6.94736606e-03, -4.22695931e-03, -5.92250843e-03,
       -3.45315319e-03, -2.28026533e-03, 9.56402626e-03, 7.18150102e-03,
       -6.22420944e-03, -1.50415618e-02, -1.39875840e-02,
       -5.29604685e-03, 1.00941099e-02, -1.96965574e-03, 1.04717985e-02,
       2.78439093e-02, 1.03991777e-02, 1.18359085e-02, -1.39367273e-02,
       1.72544693e-04, -8.97307228e-03, -1.39170587e-02, -1.98965310e-03,
       1.25664454e-02, -6.86272839e-03, 1.51680838e-02, 1.61520299e-02,
       -4.57094749e-03, -5.56112453e-03, -7.39112590e-03,
       -2.90010474e-03, 2.30897684e-03, 6.41153799e-03, -8.58302787e-03,
       5.71524259e-03, -1.74121337e-03, -6.89061079e-03, -1.58422929e-03,
       -3.25183594e-03, -5.01680234e-03, 4.54763509e-03, 1.81545713e-03,
       2.36890232e-03, 8.77640117e-03, 3.61456652e-03, 2.40341248e-03,
       -5.01589803e-03, -8.55107699e-03, 1.88045390e-03, 7.86767248e-03,
       -2.65959208e-03, 3.49204009e-03, 1.32726897e-02, -3.58310924e-03,
       3.26067070e-03, -2.10774434e-03, 3.07430746e-04, 1.49768358e-02,
       4.70417785e-03, -5.07564703e-03, -7.13510904e-03, 1.79619920e-02,
       -1.96140017e-02, -1.76243065e-03, -2.40835454e-03, 7.91865867e-03,
       6.89985277e-03, -3.26734153e-03, 5.71785495e-04, -7.06792949e-03,
       1.03916423e-02, -1.46741606e-02, -8.68842751e-03, 2.97923759e-03,
       -7.69850472e-03, -6.75830664e-03, 1.05183721e-02, 2.88778986e-03,
       3.84037988e-03, 3.06709465e-02, 1.23423710e-02, 8.67836643e-03,
       2.96777245e-02, -8.05986859e-03, -4.99613490e-03, 4.20282483e-02,
       9.93866287e-03, -3.65570635e-02, 6.00614548e-02, 2.16764212e-02,
       -2.06183572e-03, 2.52579805e-02, 3.58194858e-02, 1.74708422e-02,
       2.35755108e-02, 5.67959715e-03, -2.01388523e-02, 3.57232392e-02,
       -1.95576083e-02, -6.94388198e-03, -1.68127217e-03, 1.60311926e-02,
       3.01580057e-02, -7.43179908e-03, -1.06183253e-02, -1.83093343e-02,
       9.94207244e-03, -2.51112115e-02, -1.30645288e-02, 1.02987494e-02,
       -4.83496144e-04, -1.01131471e-02, 7.17544509e-03, 1.08119147e-02,
       1.09262420e-02, 3.75272334e-02, 1.91002972e-02, -3.01327999e-03,
       4.51983809e-02, 2.65764445e-02, -1.32895382e-02, 3.03858649e-02,
       2.72361040e-02, -1.55636389e-02, 6.05813265e-02, 5.24501270e-03,
       -2.23449040e-02, 1.38880229e-02, 2.60991547e-02, 1.91136319e-02,
       3.96331288e-02, 2.49720570e-02, -4.85052019e-02, 3.06422226e-02,
       -2.03803717e-03, 6.30244985e-03, 2.90963589e-03, 2.77337944e-03,
       3.41573581e-02, -4.03722329e-03, -7.44382944e-03, -2.52191983e-02,
       1.21344309e-02, -3.26028541e-02, -3.36026214e-03, 8.30569863e-03,
       -1.37781259e-03, -7.88353942e-03, -8.79285741e-04, 5.31719625e-03,
       3.91175831e-03, 1.32208169e-02, 1.34205483e-02, -1.17248006e-03,
       9.24327597e-03, 8.85130744e-03, 1.07762020e-03, -3.03095812e-03,
       9.15014744e-03, 3.71666322e-03, 6.11611595e-03, 1.37658808e-02,
       -5.20060258e-03, -1.33356201e-02, 1.81927998e-02, 2.65959147e-02,
       -2.94445432e-03, 1.47116771e-02, -2.57339496e-02, 1.39727686e-02,
       -3.35169141e-03, -9.29957908e-03, 1.91616954e-03, -8.62927083e-03,
       2.34959498e-02, 4.68436675e-03, -9.12290346e-03, -2.13735998e-02,
       -1.31797366e-04, -1.02692833e-02, -4.50793421e-03,
       -4.06085141e-03, -3.04900599e-03, 3.78326979e-03, 5.34420041e-03,
       7.33471476e-04, 6.97123585e-04, 8.63365736e-03, -1.26094546e-03,
       9.26843612e-04, -3.85386380e-03, 1.02320779e-02, 1.24245072e-02,
       9.87166259e-03, 2.31367368e-02, -1.39178429e-02, 1.56903621e-02,
       9.93367285e-04, -3.44581809e-03, -7.66699063e-03, 1.70910929e-03,
       -1.09479334e-02, 2.62812874e-03, 1.99876409e-02, 1.53223879e-03,
       1.25314593e-02, 9.80589353e-03, -4.68604686e-03, -2.29736511e-03,
       2.96753598e-03, -9.65688843e-03, -6.10832917e-03, 1.13375718e-02,
       1.14851343e-02, 1.62729144e-03, -6.69515366e-03, -5.11241797e-03,
       4.38033137e-03, 3.27636045e-03, 6.07201876e-03, 9.80012119e-03,
       1.75614923e-03, -1.17842690e-03, 2.22463310e-02, 1.02030206e-02,
       -2.13689241e-03, 1.41504605e-03, 1.95294619e-02, 3.87532562e-02,
       2.35528890e-02, 3.39964069e-02, -2.42384635e-02, 5.36069460e-02,
       3.34891537e-03, 1.19129225e-04, -3.68590374e-03, -5.96093712e-03,
       -2.30509788e-03, -1.14167454e-02, 3.42210829e-02, 1.38029186e-02,
       3.35611887e-02, 6.20114291e-03, -1.37651283e-02, -4.37988580e-04,
       -7.16028642e-03, -1.96343977e-02, -2.90437005e-02, 2.78681982e-03,
       1.27210086e-02, -1.21214204e-02, -1.52157918e-02, 1.59224719e-02,
       5.43636596e-03, 8.86194408e-03, 1.48679258e-03, 8.11057258e-03,
       6.91407407e-03, -5.59089100e-03, 3.26818377e-02, 5.60647296e-03,
       -2.15461332e-04, 5.00705503e-02, 2.15374976e-02, 3.05968486e-02,
       2.25958079e-02, -7.99102709e-03, -3.21656605e-03, 6.14171177e-02,
       -9.75966547e-03, 1.59460474e-02, 1.26876608e-02, -1.38987107e-02,
       1.22528356e-02, -1.86339708e-03, -1.08745350e-02, -3.60329053e-03,
       2.21749973e-02, 1.85220800e-02, 2.63203848e-02, -2.14469107e-03,
       -3.41734327e-02, -2.30202381e-03, -8.21377058e-03, 2.98961625e-03,
       -2.92275054e-03, -1.56566240e-02, -2.17773076e-02, 4.05679643e-02,
       2.42629158e-03, 1.10793673e-02, 1.75165781e-03, -4.88851871e-03,
       1.38615060e-03, -5.57494722e-03, 1.27134733e-02, 4.49803658e-03,
       -1.98175455e-03, 4.81949858e-02, 2.03891494e-03, 2.11909413e-02,
       1.29783992e-02, -1.23050790e-02, -8.66425782e-03, 2.74235029e-02,
       -1.84423793e-02, 8.48301873e-03, 3.28397527e-02, -5.96469315e-03,
       -1.35762291e-02, -1.82969589e-03, -1.46693485e-02,
       -6.68975199e-03, 2.00409275e-02, 1.05279160e-03, 1.53738204e-02,
       -4.14240872e-03, -1.70087069e-02, -5.29132970e-03, 9.08277463e-04,
       -2.03235727e-03, -1.70702599e-02, 3.65058216e-03, 5.66910673e-03,
       2.16817465e-02, -1.12778018e-03, 3.05905007e-03, -7.38795352e-05,
       6.18783105e-03, 1.60666835e-02, 3.20011168e-04, -2.72257044e-03,
       -2.07825378e-03, -1.02424587e-03, 7.40793906e-03, 1.17027499e-02,
       -2.78757373e-03, -4.06236574e-03, 3.75912860e-02, 2.18885429e-02,
       -1.55184027e-02, -8.33560061e-03, 8.43618345e-03, -2.48314184e-03,
       -1.32105537e-02, -9.08020977e-03, 7.75187882e-03, 2.47381311e-02,
       1.01227639e-02, -1.54434908e-02, -2.83421972e-03, 1.75871681e-02,
       -1.90092903e-03, -6.42312411e-03, -5.41624753e-03, 6.42345473e-03,
       1.43190846e-02, 2.82233628e-03, 2.51193205e-03, -8.80359579e-03,
       4.75176517e-03, 7.71152787e-03, 8.55913758e-03, 8.49244557e-03,
       2.39360239e-03, 3.08494680e-02, -6.98729837e-03, -2.42773425e-02,
       -5.71811944e-03, 3.38109583e-03, 3.86769953e-03, 1.82678029e-02,
       -1.56351700e-02, 1.61167495e-02, 5.49314544e-02, 9.48054902e-03,
       -4.51620333e-02, -2.15310678e-02, 3.74288522e-02, 1.32798254e-02,
       -1.36907762e-02, -3.61599736e-02, 2.76108906e-02, 4.87949327e-02,
       2.33523939e-02, -1.15094716e-02, -2.83617433e-02, 3.95736098e-02,
       1.17327897e-02, -1.65091571e-03, -1.52867800e-02, 1.12738926e-02,
       6.48909155e-03, 1.62982382e-02, -7.42542616e-04, -2.43164506e-02,
       9.24949534e-03, 1.41560929e-02, -1.01150409e-03, 2.03505196e-02,
       5.08939289e-03, 1.59241632e-02, -1.35312816e-02, -2.34024413e-02,
       -1.89001393e-02, 2.36633830e-02, 3.03906575e-02, -1.38647724e-02,
       4.51229000e-03, 3.60113718e-02, 2.58017629e-02, 1.39372451e-02,
       -4.58190739e-02, -3.79767120e-02, 8.48919451e-02, 4.96019311e-02,
       -9.14751831e-03, -5.40474914e-02, 1.92505084e-02, 2.56043188e-02,
       2.55304966e-02, -1.98314302e-02, -2.09909603e-02, 4.89169806e-02,
       2.34908126e-02, -1.44961160e-02, -1.66791771e-02, 2.27902569e-02,
       1.23754898e-02, -5.79467462e-03, -5.13886940e-03, -1.00420369e-03,
       1.06482198e-02, 1.83761921e-02, 1.24970137e-03, 2.93191569e-03,
       -8.30125005e-04, 5.47017204e-03, -6.31023617e-03, -5.69311064e-03,
       -3.54363373e-03, 1.04574338e-02, 2.95789284e-03, -1.97862629e-02,
       1.18400259e-02, 2.05161572e-02, 2.82395128e-02, -1.26019178e-04,
       -1.03948386e-02, -5.36697078e-03, 5.59586100e-02, 1.78162921e-02,
       -2.89954245e-03, -2.15212200e-02, -4.26560408e-03, 1.74813382e-02,
       2.30028164e-02, -2.05722488e-02, -7.31816096e-03, 3.00766136e-02,
       2.43652724e-02, -1.18005904e-03, -6.44660322e-03, -2.35783262e-03,
       -9.25576373e-04, 1.19728586e-02, 6.51180232e-03, -5.85828070e-03,
       1.22121237e-02, 2.26372411e-03, 4.86828736e-04, 1.23291090e-03,
       4.19172971e-03, 7.43932696e-03, -1.26083614e-02, -4.19797050e-03,
       -1.05091266e-03, 6.05390267e-03, 3.84450122e-03, -9.59412428e-04,
       5.52251050e-03, 1.15488376e-02, 1.89686939e-02, 1.02404575e-03,
       2.18270416e-03, -8.17152672e-03, 9.54067707e-03, -9.04590450e-03,
       -5.61327673e-03, 1.39122056e-02, 1.30618103e-02, 1.39978272e-03,
       1.07556554e-02, 5.53573482e-03, 1.67809543e-03, 3.27771367e-03,
       -3.34280450e-03, -7.69475987e-03, 5.03830099e-03, 1.32639855e-02,
       6.64685480e-03, 5.98803023e-03, -2.47898372e-03, -6.87873736e-03,
       -1.38035119e-02, 1.61423087e-02, 8.09288584e-03, 1.77570875e-03,
       1.20476335e-02, 1.31856762e-02, -1.30061628e-02, 4.54615895e-03,
       -6.27735490e-03, 9.73282196e-03, 1.42284920e-02, 6.91528898e-03,
       9.15164407e-03, 1.73232350e-02, 1.17611811e-02, -2.68313685e-03,
       1.26311695e-02, -1.24411732e-02, 2.13032216e-02, -1.17046274e-02,
       -1.23552503e-02, 5.19988313e-03, 3.52023728e-03, 1.47452615e-02,
       -1.74152683e-02, 1.41634047e-02, 1.85805243e-02, 2.29535419e-02,
       -5.59968234e-04, -2.25177221e-02, -2.41596922e-02, 1.05724586e-02,
       -4.16247966e-03, 1.83950160e-02, 1.43717080e-02, 8.10227916e-03,
       -3.11602023e-03, 2.23810058e-02, -1.29712326e-03, 8.68609350e-04,
       1.67011563e-02, 2.12089084e-02, -1.25985919e-02, -8.44798400e-04,
       -8.34393036e-03, 2.37094378e-03, 3.07063442e-02, 1.67987065e-03,
       3.80715542e-03, 2.10054424e-02, 2.02199724e-02, -6.45618699e-03,
       1.50222089e-02, 8.99953302e-03, 9.35824029e-03, 2.11107475e-03,
       4.60561831e-03, 1.27113359e-02, -2.26950850e-02, 1.01061631e-02,
       3.30822207e-02, 5.39857782e-02, -1.64174139e-02, 9.39718634e-03,
       9.85409971e-03, 6.72715541e-04, -2.40599569e-02, -1.08353337e-02,
       4.14760457e-03, 2.14421237e-03, 1.85987186e-02, 6.75742654e-03,
       4.39800974e-03, 1.09690381e-02, -6.22960797e-04, 2.40303506e-03,
       1.83773681e-03, 7.41503900e-03, 2.06366251e-03, -2.78858980e-03,
       -1.20633533e-02, 1.55921315e-03, 2.76556332e-02, 5.70997968e-03,
       1.33818500e-02, 2.95008486e-03, 8.52525514e-03, 1.81954727e-02,
       -4.48457897e-03, -4.58747707e-03, 1.83307044e-02, 2.23736614e-02,
       1.43173421e-02, 1.17038600e-02, -1.76565330e-02, 3.79718514e-03,
       7.53875775e-03, 1.96753908e-02, 1.27572436e-02, 1.81830488e-02,
       1.75211001e-02, 2.47087255e-02, -8.77308287e-03, -6.82332739e-03,
       -3.98783013e-05, -2.41665896e-02, 2.41074758e-03, -9.35608801e-03,
       8.38297512e-03, -1.61013962e-03, 3.00211343e-03, 8.78511183e-03,
       4.33296990e-03, -3.93490726e-03, 6.43360009e-03, -8.60972982e-03,
       3.86882573e-03, 1.18989067e-03, 6.63788232e-04, 1.81787915e-03,
       3.47113091e-04, 4.94275847e-03, 5.27728489e-03, 1.44956298e-02,
       -7.23360106e-03, 7.62230993e-05, -6.81935111e-03, 3.11294105e-03,
       7.96505623e-03, 6.88919332e-03, -4.02830448e-03, 1.27221867e-02,
       1.88970417e-02, 1.10631706e-02, -1.92931015e-02, -1.33479591e-02,
       -5.96819771e-03, 7.43714068e-03, 1.45439245e-02, 4.60820273e-03,
       5.86264720e-03, -4.67914715e-03, 1.32604619e-03, -1.09814713e-02,
       -7.61073967e-03, 1.73345348e-03, 2.30985857e-03, 1.41140074e-02,
       8.45660269e-03, -3.80682875e-04, -7.92318024e-03, -5.68491220e-03,
       1.21831764e-02, 6.03036908e-03, -1.08515872e-02, 1.06117653e-03,
       -7.80325802e-03, 1.43294344e-02, -2.62578693e-03, 4.14495245e-02,
       -1.95041136e-03, 2.13232841e-02, 2.91524688e-03, -1.42377885e-02,
       3.11520230e-02, 6.07325044e-03, -2.74396478e-03, -1.80511363e-02,
       1.49821835e-02, 9.29551315e-04, -3.12963799e-02, -3.25855985e-02,
       -2.26812307e-02, 1.40441488e-02, 2.73333862e-02, 1.63629185e-02,
       -3.80400708e-03, -2.12710146e-02, 1.04361158e-02, -1.61186941e-02,
       -1.99043863e-02, 3.52186523e-03, 6.21908950e-03, 1.63703561e-02,
       -3.62351863e-03, 5.80986356e-03, 1.16804633e-02, 1.19172195e-02,
       -1.40277864e-02, 3.40845756e-04, 2.54708808e-03, 2.88919397e-02,
       -3.24071129e-03, -3.42326495e-03, -5.16869966e-03, 1.52960382e-02,
       1.31581146e-02, 1.50503777e-02, 2.66486406e-02, -2.04932336e-02,
       2.63070390e-02, 2.67623793e-02, 6.36542402e-03, -3.76219004e-02,
       -3.12154740e-02, 4.98162583e-03, 1.68772228e-02, 1.52390962e-02,
       -1.70008070e-03, 3.86295207e-02, 3.65325548e-02, -7.39815831e-03,
       -3.73649113e-02, -7.23049883e-03, 1.88499521e-02, -1.92566328e-02,
       -1.46973357e-02, 6.56403543e-04, 4.64389473e-03, 1.09468345e-02,
       -1.19197159e-03, 3.34039703e-03, 4.71900543e-03, -1.06153300e-03,
       -6.75420603e-03, 1.29327364e-03, -1.74687093e-03, 1.50094945e-02,
       -5.27893007e-03, 5.75408014e-03, 1.19829979e-02, 1.85254216e-03,
       1.53408316e-03, -9.01782792e-03, -9.55117983e-04, -7.68570090e-03,
       1.16574101e-03, 1.83989760e-02, 3.06722661e-03, 1.00237904e-02,
       -9.54505149e-03, 3.19190836e-03, 1.42033920e-02, 1.49092032e-02,
       3.67289060e-04, 1.16087543e-02, 3.04301437e-02, -1.81303720e-03,
       -5.94744273e-03, -1.36967227e-02, 8.85024841e-04, -3.43109714e-03,
       -9.79529414e-03, -2.62784277e-04, -1.63028378e-03,
       -2.55172933e-03, -5.21808979e-04, -1.21920314e-02,
       -3.15080071e-03, 4.33911290e-03, 5.54571510e-04, -2.92674871e-03,
       -8.24298058e-03, -2.84372875e-03, -1.15145394e-03,
       -9.22554638e-03, -4.23753681e-03, -1.71292592e-02, 2.50258129e-02,
       1.30265076e-02, -2.47031078e-03, -1.29908873e-02, -7.85763096e-03,
       9.43044014e-03, -3.21939937e-03, 2.95925396e-03, -6.56028651e-03,
       1.75371126e-03, -2.19167513e-03, -8.44909530e-03, 1.64247067e-05,
       -3.41428188e-03, 1.48188998e-03, 4.97619435e-03, 5.82406064e-03,
       -2.94964691e-03, -1.35343410e-02, -8.16229545e-03,
       -6.59636827e-03, -7.38167949e-03, -3.99400899e-03, 8.75509717e-03,
       8.39015190e-03, -2.27220519e-03, 6.67757029e-03, 2.33594608e-02,
       1.82471098e-03, -2.09638607e-02, -9.58859641e-03, 6.73924852e-03,
       2.18321942e-02, -1.03016552e-02, 1.30298017e-02, -1.19211767e-02,
       5.43809570e-02, 4.46920060e-02, -3.07804439e-02, -2.25777994e-03,
       -2.13417038e-02, 1.91100256e-03, -1.66275427e-02, -1.92163847e-02,
       -1.18088990e-03, 2.89327502e-02, 9.95071977e-03, -1.15853576e-02,
       5.03562344e-03, -1.30704185e-02, -5.34127979e-03, -2.65593012e-03,
       1.00604130e-03, -7.12695345e-03, -3.10283732e-02, -1.93458628e-02,
       -1.40419584e-02, -1.04693638e-03, -1.13594783e-02, 1.40197268e-02,
       1.45878335e-02, 8.49167351e-03, -1.56687840e-03, 4.61041648e-03,
       1.97025277e-02, -9.50461533e-03, -9.01465956e-03, -1.09267803e-02,
       4.25834097e-02, 2.06658356e-02, 3.05659026e-02, -1.45441247e-02,
       1.87761076e-02, 3.08293123e-02, -2.89568175e-02, 1.13480184e-02,
       -1.80863235e-02, 4.81048040e-02, 2.05926560e-02, -4.61656973e-03,
       -2.85206130e-03, 8.93341564e-03, 2.26422548e-02, -1.11446613e-02,
       1.33419167e-02, -1.88177417e-03, 4.07712255e-03, -7.78473029e-03,
       -1.01187937e-02, -1.60247758e-02, -2.08046120e-02,
       -8.76266696e-03, 2.40646928e-04, -6.00389810e-03, -7.97832943e-03,
       -2.72358907e-03, 5.33614215e-03, -1.74033095e-03, 2.05832021e-03,
       -8.53762031e-03, 1.93635076e-02, -4.18268517e-03, -9.72534530e-03,
       2.92704301e-03, 4.89863241e-03, 4.87034256e-03, -2.51430925e-03,
       -6.58883341e-03, -2.16888357e-02, 2.39365064e-02, -1.23184882e-02,
       2.14748154e-03, -9.56025254e-03, 2.36795321e-02, -1.56184164e-04,
       -1.12885479e-02, -1.44904172e-02, 1.50450068e-02, 1.08039826e-02,
       -1.47038903e-02, -2.05109967e-03, 1.71922892e-03, 9.93013382e-03,
       2.70032045e-03, 7.54927925e-04, -9.14590806e-03, -8.93733464e-03,
       -1.20128384e-02, -2.23279046e-03, -2.61711888e-03, 2.22716690e-03,
       -2.43498222e-03, -2.97778845e-03, -2.81230966e-03, 6.24044519e-03,
       7.16021936e-03, 3.76632833e-03, -3.52242286e-03, 1.64548995e-03,
       -1.60770840e-03, -8.62959400e-03, -3.14466772e-03,
       -4.69731539e-03, 6.61769928e-03, 1.53022148e-02, 2.04364602e-02,
       2.38370895e-03, 1.40012568e-03, 2.64756090e-04, -5.27576962e-03,
       3.88383307e-03, 1.24655208e-02, -9.10647493e-03, 1.03090433e-02,
       1.66948345e-02, 5.23318304e-04, 7.55178684e-04, 3.81405209e-03,
       -6.18651975e-03, -1.10793801e-03, 1.00433091e-02, -6.14859629e-03,
       4.61476576e-03, -2.80577247e-03, -9.82395466e-03, -1.14879920e-03,
       -3.67052970e-03, -7.73409475e-03, 3.87712079e-03, -8.70218221e-03,
       1.88034307e-02, 1.90134346e-02, -2.00119568e-03, -6.61390740e-03,
       -8.10985570e-04, -1.30361905e-02, -5.60844317e-03,
       -1.20857917e-02, -2.55001383e-03, 4.79463115e-02, 3.79909202e-02,
       1.61153097e-02, -8.42823181e-03, 1.33647053e-02, -5.46129933e-03,
       -2.56866552e-02, 4.09749430e-03, 5.69716154e-04, 3.01162014e-03,
       1.84337124e-02, 1.72994174e-02, 5.91246039e-03, 1.06988708e-03,
       -2.13101460e-03, -3.59559694e-04, 8.55265558e-03, -2.71626352e-03,
       -1.46955159e-02, -8.40071216e-03, 7.37296976e-03, 5.91587322e-03,
       2.13148422e-03, -1.82313118e-02, 9.61325318e-03, 1.90644562e-02,
       -9.37572867e-03, 2.18664799e-02, 1.14576863e-02, 7.10838893e-03,
       -6.07467955e-03, -4.63797199e-03, -7.62940431e-03, 7.46235438e-03,
       -2.85602845e-02, -2.41421927e-02, 3.90186384e-02, 5.76077811e-02,
       3.72856553e-03, -1.42938085e-03, -1.75434106e-03, 2.91875750e-02,
       -6.18040096e-03, -2.62020677e-02, -2.03534383e-02, 2.48171221e-02,
       2.61536371e-02, -2.80851256e-02, -2.15552244e-02, -1.06491745e-02,
       1.77304633e-02, 7.33578287e-04, 8.01707720e-05, -1.35221928e-02,
       -2.98126135e-02, -7.24870898e-03, -8.81851558e-03,
       -1.03706233e-02, -3.33383749e-03, -9.29496437e-03, 8.22660606e-03,
       5.68996137e-03, -4.56184382e-03, 5.23736700e-03, 7.68451998e-03,
       -5.85809210e-03, -6.85383147e-03, -1.24062402e-02,
       -1.41775552e-02, 1.77482273e-02, 5.89512801e-03, -1.83048286e-02,
       1.87544599e-02, 9.12262499e-03, -6.35059830e-03, 1.91213097e-02,
       -7.09438557e-03, -8.20856728e-03, 8.18651461e-04, -3.73127055e-03,
       -2.27427315e-02, 4.26333537e-03, 3.66405211e-03, -1.58695132e-02,
       8.63355491e-03, -1.10957250e-02, -2.44300161e-03, -5.92442416e-03,
       1.57166796e-03, -5.84240444e-03, -2.72857938e-02, -6.67841313e-03,
       -1.64465550e-02, -7.38193747e-03, 1.43904984e-03, -4.31905407e-03,
       -4.40569827e-03, 3.44401668e-03, 4.49384237e-03, 1.30641088e-03,
       1.55182444e-02, 1.03152860e-02, -8.15981650e-04, 1.00281071e-02,
       2.63479888e-03, -2.73005571e-03, 9.68762673e-03, 2.12039892e-02,
       -2.39320062e-02, 1.17160622e-02, 2.35924730e-03, -6.55461196e-03,
       1.83410035e-03, 9.60281491e-03, 1.33932941e-02, -4.86814475e-04,
       2.12583859e-02, -2.36359313e-02, 1.17952842e-02, -3.95778567e-03,
       5.93093981e-04, -4.92653402e-04, 4.52643260e-03, 7.29139522e-03,
       -1.06002046e-02, 3.46540217e-03, -3.27521935e-03, 1.06336959e-02,
       -1.00488206e-02, -3.66469845e-03, 1.02414861e-02, -8.05985462e-03,
       -1.14049995e-02, 8.20599776e-03, 4.31414274e-03, -3.49851063e-04,
       2.82487702e-02, 1.85386725e-02, 4.75573819e-03, 2.22068783e-02,
       8.07936769e-04, 1.09272515e-02, 3.44756097e-02, 1.57398619e-02,
       -1.13980127e-02, 7.67400535e-03, 2.00726427e-02, 1.64677743e-02,
       2.58674864e-02, 3.75446193e-02, 3.33559401e-02, 1.03424396e-02,
       2.30984148e-02, -4.04639058e-02, 3.00225988e-02, -2.00768560e-02,
       -4.19786014e-03, 1.38671929e-02, 3.16211907e-03, 1.37264840e-02,
       -3.53348005e-04, -7.48211471e-03, -6.48378674e-03, 2.46371254e-02,
       -1.66308284e-02, -1.27023319e-02, 5.82545251e-03, 1.05255358e-02,
       -8.96042120e-03, -4.22837492e-03, -2.83992081e-03, 2.10979115e-02,
       3.72494832e-02, 6.37957733e-03, -6.22949470e-03, 7.57885817e-03,
       2.65969951e-02, 2.13961434e-02, 3.36955674e-02, 2.21706252e-03,
       -1.20184394e-02, 5.08682542e-02, 1.57156319e-03, -1.63778923e-02,
       1.86736844e-02, 2.25252565e-02, 3.45698521e-02, 5.00765666e-02,
       1.42638730e-02, -2.75245346e-02, 5.83472364e-02, -1.89255010e-02,
       -1.85481217e-02, 3.66091914e-03, -3.82534647e-03, -1.86579637e-02,
       9.07685049e-03, 1.12798286e-03, 1.22932550e-02, 3.81799079e-02,
       -2.47695390e-02, -3.24267745e-02, 3.27911903e-03, -3.20366537e-03,
       -1.12372460e-02, 5.74261474e-04, -2.46851216e-03, 1.51474103e-02,
       1.68209970e-02, -1.90172635e-03, 4.59533464e-03, 1.53472880e-02,
       5.71334874e-03, 2.37948552e-04, 8.95332638e-03, 5.02759079e-03,
       8.85409303e-03, 2.66518798e-02, -2.03706305e-02, -3.48608685e-03,
       1.24859679e-02, -5.48408460e-03, 1.58695318e-02, 2.14875545e-02,
       -2.29774639e-02, -1.64584741e-02, 2.11110469e-02, -2.19198596e-02,
       -1.56053854e-02, 4.61727846e-03, 3.17453477e-03, -1.38941146e-02,
       -7.76262674e-03, -1.29627949e-02, -8.30687676e-03, 4.52623889e-03,
       -8.35816469e-03, -1.37076238e-02, -6.50049551e-05, 3.62358894e-03,
       2.02775677e-03, 2.18663900e-03, 7.44964276e-03, -1.64739613e-03,
       9.60389525e-03, 5.33938315e-03, 2.48785666e-03, 1.53054316e-02,
       8.00947007e-03, 7.51773966e-03, 2.14616233e-03, 7.75429793e-03,
       -8.51358380e-03, 1.59304477e-02, 4.48108325e-03, 1.04835676e-02,
       8.17051716e-03, -2.90575899e-05, 5.11273369e-03, 1.38079748e-03,
       4.18756763e-03, -1.50405550e-02, 4.59692394e-03, 2.00590352e-03,
       1.53038399e-02, 2.05279235e-03, -7.22639542e-03, -1.23476796e-03,
       -1.28766941e-03, 7.44949654e-03, -4.24193870e-03, -4.07763943e-03,
       -9.77127440e-03, 1.59132909e-02, 1.32976258e-02, 1.21504199e-02,
       3.71969794e-03, 4.46851552e-03, 7.28605222e-03, -1.60195157e-02,
       6.63297810e-03, 4.41299286e-03, -2.96226237e-03, 5.00742607e-02,
       7.21120788e-03, 2.52158027e-02, 2.07303315e-02, 2.38213153e-03,
       -1.53328748e-02, 4.24611121e-02, -2.45436770e-03, 8.67170561e-03,
       2.45712437e-02, 1.70521978e-02, -1.36708876e-03, 9.43966862e-03,
       1.12191737e-02, -8.64858087e-03, 4.40169498e-02, -2.35310979e-02,
       1.50648020e-02, -1.03433775e-02, -2.20588613e-02, -1.15292417e-02,
       -4.26258240e-03, 1.29132858e-02, -3.68748256e-03, 1.72727443e-02,
       1.84526213e-03, 2.50733178e-02, 1.85782202e-02, 4.47756471e-03,
       -9.04912129e-03, 1.27232494e-02, 5.18809026e-03, 4.50921897e-03,
       1.03453090e-02, -8.78337864e-03, -6.65684417e-03, 4.02641110e-02,
       -4.70203522e-04, -2.52864603e-02, 3.52932066e-02, 1.56495869e-02,
       4.51292284e-02, 4.86751944e-02, -1.92641802e-02, -3.08590140e-02,
       -1.12705221e-02, -3.37644666e-03, 1.28752366e-02, 6.89958036e-02,
       1.90053470e-02, -2.11480097e-03, 4.84074615e-02, -2.79862005e-02,
       1.64216645e-02, -1.76247079e-02, -1.03657627e-02, -1.04922140e-02,
       1.36538530e-02, 2.44758138e-03, -1.58172585e-02, 3.78484614e-02,
       6.83763018e-03, 8.67278501e-03, 8.43934063e-03, 3.72010283e-03,
       -5.99056343e-03, 8.63490719e-03, -7.72104599e-03, 2.72834930e-03,
       2.48481706e-03, -7.57745991e-04, -6.33573579e-03, 3.62956300e-02,
       4.11917362e-03, -2.63784807e-02, -1.18718203e-02, -2.77621439e-03,
       1.40607543e-02, -3.71233700e-03, -1.07574109e-02, -1.09900068e-02,
       2.97753364e-02, -8.13936815e-03, -9.42733046e-03, -6.34697353e-05,
       -9.68938135e-03, -3.13435830e-02, -8.84231646e-03,
       -1.81165833e-05, 1.92533026e-03, 9.61328391e-03, -7.68757192e-04,
       -4.25617630e-03, -2.44579255e-03, -1.28029538e-02,
       -1.29701924e-02, 2.06417826e-04, -4.01022844e-03, 1.29674394e-02,
       -4.51588625e-04, -1.22106704e-03, 4.01335955e-03, 3.57187795e-03,
       7.24518765e-03, -2.83283275e-02, -1.08700627e-02, 3.40164010e-03,
       6.81801559e-03, -3.40817915e-03, -6.10991707e-03, 4.79376223e-03,
       1.53653892e-02, 1.99559182e-02, -2.36474909e-02, -2.07397994e-02,
       -5.24675706e-03, 2.84200478e-02, -2.42954027e-03, -1.09049017e-02,
       -7.37203890e-03, 1.22432783e-02, 7.93832913e-03, 3.00833629e-03,
       -3.30628408e-03, -3.05339112e-04, 1.68798082e-02, 3.23924539e-03,
       -5.51574351e-03, -6.09435886e-03, 1.26175359e-02, 2.65935995e-03,
       -4.10448015e-03, -3.66004184e-03, 1.34719093e-03, 8.04695580e-03,
       3.00211506e-03, 1.17318286e-02, 5.97753283e-03, -2.16912851e-03,
       7.38535495e-03, -3.82968858e-02, -2.94408482e-03, 3.82066681e-03,
       1.00389468e-02, -1.60559081e-02, -2.42794901e-02, 1.00175450e-02,
       3.03001385e-02, 2.62799803e-02, -2.08702199e-02, -3.25157959e-03,
       4.32106387e-03, 4.23098356e-02, 1.67995244e-02, -1.08164623e-02,
       -1.92370545e-02, 9.80275497e-03, 3.71804647e-02, 2.14956654e-03,
       -3.52214910e-02, -1.98994484e-03, 4.19971272e-02, 1.20950500e-02,
       1.72705227e-03, -1.27219164e-03, 3.32403020e-03, 9.21821222e-03,
       1.22433836e-02, 2.28215853e-04, -4.03880840e-03, 2.53006741e-02,
       -4.35648067e-03, 1.06138475e-02, 1.31168971e-02, 1.07291834e-02,
       1.28367415e-03, -1.09994523e-02, 1.14021767e-02, -1.37463594e-02,
       7.69220199e-03, 1.01467753e-02, -1.10163423e-03, -7.73094507e-05,
       1.45818507e-02, 6.84445119e-03, -7.36895530e-03, 1.48808686e-02,
       -1.51146983e-03, 2.71069948e-02, 6.16327189e-02, -9.53277387e-03,
       -2.62250584e-02, 2.26728478e-03, 3.68009284e-02, 1.24931904e-02,
       -3.20422798e-02, -9.67404060e-03, 3.11842840e-02, 6.10010233e-03,
       -2.26244141e-04, 7.98434857e-03, -1.08424108e-03, 1.76697876e-02,
       1.58093590e-02, 1.61069911e-03, 9.46364552e-03, 2.03219824e-03,
       8.43725353e-03, 3.80580896e-04, -1.21525920e-03, -3.21353902e-03,
       -4.36139107e-03, -1.52997870e-03, -5.88901248e-03,
       -2.03638966e-03, -7.84369092e-03, 1.55874789e-02, 4.80500329e-03,
       -9.99144930e-03, -5.89168165e-03, 5.49651682e-03, 9.52154305e-03,
       -8.99824593e-03, -2.90541872e-02, 2.11683102e-02, 2.07438301e-02,
       -2.29567681e-02, -2.01521702e-02, -2.75602774e-03, 2.02042330e-02,
       1.71829443e-02, -1.69387064e-03, -3.05204783e-02, 2.49378197e-02,
       9.01751965e-03, -1.58297084e-02, 9.42796527e-04, -9.37927235e-03,
       6.37785438e-03, 7.36666238e-03, -1.17524771e-03, -9.84633807e-03,
       -1.25988806e-03, -3.60702019e-04, -3.31270555e-03,
       -1.57404633e-03, 1.76282821e-03, 7.01158866e-03, -6.01536129e-03,
       -5.51766076e-04, -6.00899977e-04, -1.02763169e-03, 1.29207491e-03,
       -4.81985463e-03, -5.97473141e-03, -1.14498439e-03,
       -3.30579304e-03, -8.76562262e-04, 5.89907984e-04, -6.67172426e-04,
       -1.71793881e-03, -8.80358648e-03, -1.19519234e-03,
       -5.68264723e-03, -1.93108264e-02, -1.56587437e-02, 1.09850690e-02,
       1.95558812e-03, -1.08999275e-02, -7.58114085e-03, -3.22399917e-03,
       9.03171662e-04, -8.29623453e-03, -1.01484265e-02, -6.47696666e-03,
       -4.22870088e-03, -1.39832671e-03, -9.26071219e-03,
       -1.11169536e-02, 5.52545860e-03, 2.60611996e-03, -3.34917358e-03,
       -2.87973764e-03, 1.25991739e-02, -1.08282117e-03, -9.16491076e-03,
       -4.99256421e-03, 3.53568909e-03, 1.40803745e-02, 5.31160552e-03,
       1.46018469e-03, -1.40972221e-02, 5.09048672e-03, 1.56384539e-02,
       -1.20866233e-02, -6.87616086e-03, 1.49678141e-02, -8.65321548e-04,
       1.87374870e-04, -1.41613921e-02, -3.55842076e-02, -1.74427833e-02,
       4.08896711e-03, 1.71970557e-02, -2.40871659e-03, -1.37509564e-02,
       -6.89508393e-03, 7.15652667e-03, -3.12550403e-02, -1.60934571e-02,
       -1.57708656e-02, -1.30300764e-02, 1.32283978e-02, -2.70965509e-02,
       -1.99916624e-02, 1.82890240e-02, -1.09104870e-03, -1.09405546e-02,
       -6.24413369e-03, 8.08927231e-03, -2.38047307e-03, -1.19673517e-02,
       -6.28153374e-03, 7.77005358e-03, 2.03563515e-02, 6.17562700e-03,
       6.78753806e-03, -1.40846204e-02, 7.28578866e-03, 1.39896059e-03,
       -2.51648738e-03, 1.04886862e-02, -5.08133043e-03, 1.13631776e-02,
       2.01311447e-02, -2.40478534e-02, -2.94583812e-02, -1.08521096e-02,
       2.63341907e-02, 4.10435647e-02, -4.41353256e-03, -9.64288786e-03,
       -4.80866991e-03, 1.93089824e-02, -2.86635980e-02, -1.21692838e-02,
       -7.53208250e-03, 5.15567698e-03, 1.64160803e-02, 2.32933159e-03,
       -1.67674907e-02, 9.60846525e-03, -8.35983735e-03, -8.72063823e-03,
       -1.99317886e-03, 7.44740199e-03, 1.86593761e-03, -1.38272799e-03,
       -1.26961246e-02, -5.31821186e-03, 1.00785000e-02, -1.24914469e-02,
       -1.46452710e-03, -1.92718375e-02, 1.00168241e-02, 9.77945421e-03,
       8.50614160e-03, -1.54196266e-02, -1.23632215e-02, 3.41009609e-02,
       -1.98543118e-03, -1.56827811e-02, -1.42838834e-02,
       -1.12907607e-02, 2.18727365e-02, 1.45462202e-02, -1.13294665e-02,
       -5.68417367e-03, 2.51492765e-02, 7.20664999e-03, -1.93546768e-02,
       -1.17236865e-03, -1.18863517e-02, -2.36235606e-03, 4.11704276e-03,
       5.83147258e-03, 7.15017272e-03, -1.53211155e-03, 2.19357619e-03,
       2.26825988e-03, -2.28947331e-03, -1.73832569e-03, 7.15291919e-03,
       5.09799505e-03, -2.94603570e-03, -1.93930254e-03, -8.10838770e-03,
       1.06295720e-02, -1.08515900e-02, -1.10179745e-02, -5.19996462e-03,
       -8.04430339e-03, 2.85096164e-03, -6.42702042e-04, -5.79971541e-03,
       -1.23067675e-02, 3.69709241e-03, 3.39564704e-03, -1.03681255e-02,
       -1.42438952e-02, -1.68447532e-02, -9.21675377e-03,
       -1.79229081e-02, -1.56935621e-02, -1.33825466e-02, 2.44554784e-03,
       9.40422900e-03, -4.53427015e-03, -4.76762885e-03, -1.77729689e-03,
       6.03070832e-04, -1.93601325e-02, -2.29154862e-02, 4.26988991e-04,
       5.98146813e-03, 7.47363642e-03, -6.46828441e-04, -4.36570816e-04,
       -6.05394552e-03, 6.59684138e-03, -6.15511136e-03, -5.63228643e-03,
       -8.21540691e-03, 2.31898744e-02, -4.25755121e-02, 8.54721759e-03,
       -3.30109964e-03, -8.22343584e-03, 1.68332588e-02, -1.15337092e-02,
       -1.20044444e-02, -3.41682099e-02, -5.50064910e-03,
       -8.55282973e-03, -1.41597874e-02, -7.70594878e-03, 1.97488978e-03,
       6.08682865e-03, -1.27856880e-02, -2.49113590e-02, -3.63631062e-02,
       -1.24845812e-02, 2.96071172e-02, -2.63494509e-03, -9.58634075e-03,
       -7.54454173e-03, 9.44017374e-04, -1.79431923e-02, -4.93493639e-02,
       1.17860436e-02, 1.38946194e-02, 8.77494831e-03, -3.82592436e-03,
       3.26643279e-03, -3.76950920e-04, 1.49164198e-03, -2.09000930e-02,
       -1.24132726e-02, -2.11848971e-03, 2.87433583e-02, -1.34295262e-02,
       9.83777083e-03, -9.85614024e-03, 2.86517106e-02, 4.62957472e-02,
       4.09421837e-03, -1.67619418e-02, -3.82618904e-02, 1.66082773e-02,
       2.82967137e-03, 1.23110171e-02, -6.64739544e-03, 2.09128112e-03,
       6.07873499e-02, 5.05840294e-02, -2.80476771e-02, -3.63375805e-02,
       1.27351715e-03, 1.59498509e-02, -4.14347101e-04, -1.23221828e-02,
       1.61074020e-03, 1.43275391e-02, 2.24629859e-03, -2.49093007e-02,
       6.32464094e-03, 6.34093909e-03, 4.21046466e-03, -1.23978488e-03,
       -1.54227146e-03, 7.20799714e-03, -4.10821848e-03, -1.71025023e-02,
       -8.24559852e-03, 4.08015139e-02, 1.23135215e-02, -1.17675290e-02,
       5.96758956e-03, -4.54805372e-03, 1.51272453e-02, 2.45669838e-02,
       1.14894956e-02, -6.34873146e-03, 4.74758036e-02, 2.47040857e-02,
       1.88851100e-03, 1.86694283e-02, 3.66892805e-03, 5.83175104e-03,
       5.02274893e-02, 2.40980666e-02, 1.91792529e-02, 8.52083694e-03,
       1.69697460e-02, 1.08316271e-02, -1.84606970e-03, -7.53686903e-03,
       2.24057049e-03, 1.70930419e-02, 6.97821518e-03, 1.87240578e-02,
       3.60213174e-03, -5.07943332e-03, 7.45375291e-04, 1.54828478e-03,
       -4.91868646e-04, -7.48925377e-04, -7.01072905e-03, 6.27776887e-03,
       4.87065734e-03, 5.93797490e-03, -7.46239326e-04, 2.44512595e-03,
       -3.67237628e-03, 8.71167518e-03, -1.58895680e-03, 5.79746999e-03,
       2.56946255e-02, 5.09161456e-03, 8.34247377e-03, 5.52450656e-04,
       2.53037568e-02, 5.54645248e-03, 4.35391301e-03, -2.78199022e-03,
       6.82071084e-03, 1.88854486e-02, 2.67549651e-03, 1.76759914e-03,
       3.48747184e-04, 1.05107147e-02, 3.87127744e-03, 4.43657441e-03,
       -2.71544978e-03, -1.19318031e-02, -6.32927939e-03, 7.24245561e-03,
       -6.25684205e-03, -1.39082670e-02, -4.71083634e-03,
       -2.93708988e-03, -6.75251894e-03, 1.19862864e-02, -1.82008874e-02,
       2.88093276e-02, 8.73647165e-03, -9.11587477e-03, -5.64105576e-03,
       -2.01633200e-03, -3.05892387e-03, -9.18636937e-03, 9.42358281e-03,
       -2.56793220e-02, 5.46022691e-02, 8.19300115e-03, 7.16623664e-03,
       -9.22110397e-03, 1.89242512e-02, -1.13259917e-02, -1.65375695e-02,
       -5.36029227e-03, 2.18987428e-02, 4.55290526e-02, 1.28222089e-02,
       3.92860547e-03, -2.32569175e-04, 1.89770795e-02, 9.12683550e-03,
       8.65259022e-03, -3.61636840e-03, -2.96150129e-02, -1.30031221e-02,
       1.10179922e-02, -1.44485375e-02, -2.09792461e-02, -3.38277817e-02,
       1.87729893e-03, -4.81519755e-03, 2.44582240e-02, -2.08329577e-02,
       1.91186406e-02, 1.10795079e-02, -2.44836509e-02, -3.33289877e-02,
       -1.36774052e-02, 4.03745472e-02, -2.01515313e-02, -1.19573215e-03,
       -3.86871882e-02, 3.08106421e-03, 2.61911973e-02, -1.01908538e-02,
       -5.61940018e-03, 6.25168718e-03, 1.97309181e-02, -1.82997975e-02,
       -3.18575138e-03, -3.83364246e-03, 4.39504236e-02, 5.22425435e-02,
       8.51571281e-03, 1.22814626e-02, 1.29599702e-02, 1.82051882e-02,
       -8.17511976e-03, -6.29964285e-03, -3.60509790e-02, 2.76492666e-02,
       3.66998613e-02, -1.73804741e-02, -1.08437426e-02, -2.04284750e-02,
       -4.58733132e-03, -1.41379498e-02, 9.46622621e-03, -2.14264132e-02,
       2.13880884e-03, -5.47260465e-03, -1.40562123e-02, -6.71639433e-03,
       -1.61159970e-02, -4.83583426e-03, -4.31779101e-02,
       -2.41690432e-03, -5.45402169e-02, -5.81419969e-04,
       -1.99234128e-04, -1.58524197e-02, 1.06649920e-02, 3.57183628e-03,
       5.44172339e-03, -4.37678881e-02, -1.77630186e-02, -2.64048856e-02,
       1.95326991e-02, 2.69637592e-02, -2.91591324e-03, 1.01483762e-02,
       3.30600771e-03, 7.13178283e-03, -2.79866122e-02, -1.13516701e-02,
       -1.04175089e-02, 5.58290305e-03, 2.16722172e-02, 3.00246757e-03,
       -3.82194133e-03, 1.05851637e-02, 4.09065513e-03, -4.73273173e-03,
       1.29592521e-02, 4.39197896e-03, 2.02059420e-03, 2.41393060e-03,
       3.53254285e-03, -4.55606589e-03, 6.36551296e-03, -4.40525822e-03,
       -7.01477937e-03, -1.11034396e-03, 3.18909506e-03, -1.58248015e-03,
       1.05362404e-02, 2.57516559e-03, 1.77491223e-03, 1.01013505e-03,
       -5.21737710e-03, -5.58671867e-03, -1.04594305e-02,
       -1.13853521e-03, -1.12695331e-02, -1.59766129e-03,
       -5.65799652e-03, 4.07429552e-03, 2.72227661e-03, 2.05183867e-03,
       -2.05881754e-03, -1.06592672e-02, -2.64868396e-03,
       -6.78800931e-03, -8.00987799e-03, 3.20417364e-03, -4.63726511e-03,
       1.51365399e-02, 1.22021958e-02, -4.50115977e-03, 5.72271878e-03,
       1.30943451e-02, 3.99970915e-03, 1.86611875e-03, -3.11644189e-03,
       -5.24582621e-03, 3.72075588e-02, 1.93889476e-02, 1.45604729e-03,
       9.84453037e-03, 1.86199148e-03, 1.03605185e-02, 1.28318360e-02,
       -1.40524199e-02, -5.42580197e-03, 3.04439035e-03, 5.82431536e-03,
       -9.62825865e-03, 1.09140483e-05, 8.36954825e-03, -1.49741108e-02,
       6.62013947e-04, -7.36445282e-03, -1.11492928e-02, -5.38397627e-03,
       1.06564602e-02, 7.55750714e-03, -4.35768859e-03, -6.16533728e-03,
       -2.71441452e-02, -1.27705717e-02, 4.72884718e-03, -1.68983743e-03,
       6.39722636e-03, 2.83730850e-02, -1.23927221e-02, 5.62221278e-03,
       -4.94424254e-03, 9.59372520e-03, 3.26499417e-02, 9.50218458e-03,
       5.96154435e-03, 4.29019630e-02, 4.72218506e-02, -1.11486167e-02,
       2.58480757e-02, 3.15513019e-03, 3.22299711e-02, 5.47792986e-02,
       -1.66847520e-02, 5.73543413e-03, 8.17422010e-03, 1.96658969e-02,
       -4.29698266e-02, 1.40831163e-02, 3.95437106e-02, -5.59339393e-03,
       1.63430292e-02, -4.47002053e-03, -1.29691232e-02, -8.10605939e-03,
       2.45165452e-02, -2.71179769e-02, -1.44095691e-02, 4.78288485e-03,
       -2.08732188e-02, 2.38806172e-03, -3.92671302e-03, -5.51585574e-04,
       1.70944317e-03, 1.10818874e-02, -1.61297247e-02, 8.05440079e-03,
       -7.47435354e-03, -8.09902325e-03, 1.48005346e-02, 6.53156498e-03,
       5.46080200e-03, 1.09680444e-02, 1.68922264e-02, -3.67961973e-02,
       2.29115300e-02, 1.69943999e-02, -1.11909676e-02, 5.98601140e-02,
       1.60148852e-02, -2.03875657e-02, 7.66291935e-03, 2.32566819e-02,
       -5.16005121e-02, 1.07443370e-02, 2.45309025e-02, -1.85049009e-02,
       2.94835158e-02, 1.13719180e-02, -1.78652797e-02, -6.98692072e-03,
       7.08926190e-03, -2.17467453e-02, -1.33730303e-02, -1.95926079e-03,
       -1.00969216e-02, 1.90418065e-02, -2.25453055e-03, -1.33316894e-03,
       -3.27179674e-03, -3.19183478e-03, -5.91757707e-03,
       -9.07524023e-03, 2.46450701e-03, 7.89148500e-04, 1.01824582e-03,
       -6.29858579e-03, 2.04327912e-03, 6.53868495e-03, 2.47518043e-03,
       -9.20463819e-03, -3.24865021e-02, 1.73336323e-02, 9.41600371e-03,
       -5.67370281e-03, -3.31429043e-03, -7.45587982e-04, 6.22278685e-03,
       1.10585578e-02, 1.21829298e-03, -2.32516434e-02, 1.68070719e-02,
       5.47456788e-03, -5.07260067e-03, 1.68106495e-03, 4.29155584e-03,
       -8.48729070e-03, -3.89932957e-03, 9.75203409e-04, -3.27031332e-04,
       8.99395533e-03, 2.45881703e-04, -9.98934638e-03, -1.84991874e-03,
       -1.46579705e-02, -8.47160816e-03, 6.23648288e-03, -4.80760867e-03,
       -7.99476227e-04, 1.82817709e-02, 4.43847198e-03, 9.33407433e-03,
       1.71990730e-02, -6.70282962e-03, 5.46693522e-03, 9.49420407e-03,
       1.08056571e-02, 8.32310761e-04, 2.84828413e-02, -1.40767079e-02,
       -8.85344110e-03, 3.28696556e-02, -3.18394531e-03, 1.91098899e-02,
       3.49928662e-02, -3.83136272e-02, 6.47463650e-03, 1.38988746e-02,
       -3.02862637e-02, -1.73645802e-02, 1.19904010e-02, 1.08400744e-03,
       -7.86354207e-03, -2.64487020e-03, -1.27559546e-02, 1.84674300e-02,
       8.86369124e-03, -2.28723302e-03, -1.53342206e-02, -7.65830220e-04,
       1.29432930e-03, -5.33566112e-03, 5.60259353e-03, -1.98181905e-02,
       1.99596640e-02, 4.46185954e-02, 1.01580666e-02, 7.24506611e-03,
       7.69078964e-03, -5.97480824e-03, 2.14096569e-02, 3.90490256e-02,
       -3.19152176e-02, 1.38454908e-03, 4.55366634e-02, -2.16051303e-02,
       -7.61398394e-03, 1.21665113e-02, -1.44835440e-02, 1.17422407e-02,
       2.91492678e-02, -4.49785478e-02, 5.44503480e-02, 2.62095630e-02,
       -5.94629422e-02, -3.71011235e-02, 9.16944258e-03, -1.50075965e-02,
       -1.81640848e-03, 1.95809640e-02, -3.99197601e-02, 2.06792206e-02,
       1.21233454e-02, -1.91978272e-02, -1.64516084e-02, 1.38360607e-02,
       -7.76801677e-03, -1.33874244e-03, 5.12233004e-03, -1.25912959e-02,
       1.51184266e-02, 1.80650502e-02, -1.36717660e-02, 3.61299119e-03,
