%YAML:1.0
---
descriptor: !!opencv-object-detector-hog
   winSize: [ 32, 32 ]
   blockSize: [ 8, 8 ]
   blockStride: [ 4, 4 ]
   cellSize: [ 2, 2 ]
   nbins: 9
   derivAperture: 1
   winSigma: 2.
   histogramNormType: 0
   L2HysThreshold: 2.0000000000000001e-01
   gammaCorrection: 1
   nlevels: 64
   signedGradient: 1
   SVMDetector: [ 7.29291467e-03, 7.52059743e-03, -4.99767344e-03,
       3.15979905e-02, -5.01262471e-02, -3.48040052e-02, -4.24206182e-02,
       -7.24626053e-03, -1.05272196e-02, 2.30723936e-02, 9.83484276e-03,
       -2.95677669e-02, 2.13446468e-02, -4.30813096e-02, -7.91183189e-02,
       -1.99875496e-02, 4.91616391e-02, 4.04702587e-04, -5.69684803e-03,
       4.09502387e-02, -1.91841880e-03, -6.37883367e-03, -5.18286750e-02,
       -1.17457002e-01, -4.44503501e-02, 5.22773713e-02, 4.13287058e-02,
       -2.73905555e-03, 2.73084808e-02, -8.52114987e-03, 2.21994985e-02,
       -1.04469266e-02, -2.61947569e-02, -3.49918678e-02,
       -6.89406097e-02, 7.14613532e-04, 2.14323197e-02, 6.37386739e-02,
       1.38636651e-02, 1.28165744e-02, -8.82745981e-02, -4.54192795e-03,
       -2.55305152e-02, -6.84799105e-02, -9.96499322e-03, 8.86401683e-02,
       9.79328901e-02, 2.54672579e-02, 1.86220203e-02, -5.09586334e-02,
       8.89107957e-02, -3.07850000e-02, 1.01915887e-02, -2.59197224e-02,
       4.34545055e-02, 1.04481526e-01, -3.53573486e-02, 8.91328081e-02,
       -6.15473185e-03, -1.49684064e-02, 6.72144024e-03, 6.35425150e-02,
       -7.27700219e-02, 7.15844752e-03, 6.08389974e-02, 8.97197127e-02,
       2.07183603e-02, -4.85802777e-02, 5.27856238e-02, -4.47984487e-02,
       -4.85581756e-02, -1.30664557e-02, 1.78190060e-02, 4.80901413e-02,
       -1.49879605e-02, 5.30979075e-02, -1.04097575e-01, -3.50403711e-02,
       -2.57252157e-02, -1.14175677e-01, -4.58580256e-02,
       -2.50627585e-02, -3.02042495e-02, -6.40748721e-03,
       -4.39083576e-02, -5.26229069e-02, 1.62557945e-01, -1.35919061e-02,
       2.53615435e-02, -1.77784208e-02, -7.02908263e-02, 6.11986667e-02,
       1.69497542e-02, 1.13289334e-01, 1.21547431e-02, 2.00696886e-02,
       -9.77920368e-02, 4.71255518e-02, -8.01423863e-02, -1.18476152e-02,
       5.47448769e-02, 6.94562644e-02, 1.20863311e-01, 1.62847936e-02,
       4.04815711e-02, 6.37648702e-02, -5.53339757e-02, 2.51562819e-02,
       -7.05602625e-03, -2.28158087e-02, -3.95340193e-03, 2.74914503e-02,
       -3.85796838e-02, 2.20116265e-02, -4.28902842e-02, -3.90396267e-02,
       -2.70463489e-02, -1.86179411e-02, -7.48443753e-02,
       -6.02377998e-03, 8.41657072e-03, -8.04490224e-03, 1.35628204e-03,
       4.78911735e-02, 2.90980842e-02, -4.43077907e-02, 8.07000175e-02,
       9.43434983e-02, 5.29388199e-04, -3.00105847e-02, 5.68128154e-02,
       5.69324121e-02, 2.44605504e-02, 2.86203972e-03, -9.86569747e-03,
       -1.44537222e-02, 5.41375875e-02, 4.89777736e-02, 3.61108780e-02,
       7.83938468e-02, 5.06123193e-02, 1.03516929e-01, -2.27126870e-02,
       3.37735675e-02, -1.10947499e-02, -1.81989733e-03, -1.06526893e-02,
       9.75610875e-03, -1.67324897e-02, -6.19349256e-02, -3.18407603e-02,
       -4.24929603e-04, 1.22618880e-02, -1.08159352e-02, 2.60100961e-02,
       -2.56800205e-02, 2.07436439e-02, -3.29053798e-03, -4.01261486e-02,
       2.74704257e-03, -2.62757987e-02, 3.36050093e-02, 2.82707233e-02,
       5.81514202e-02, -2.06234455e-02, -2.82240529e-02, -6.50797924e-03,
       -2.79875845e-02, -3.92836779e-02, -2.97798961e-02,
       -4.60048616e-02, 4.39592777e-03, -3.41859050e-02, -3.11918054e-02,
       4.12947405e-03, -1.13902669e-02, -3.91477253e-03, 5.18888468e-03,
       3.33494619e-02, -3.13175432e-02, -1.89808365e-02, 3.42621352e-03,
       -4.32176050e-03, -1.06299005e-04, -1.92634296e-02, 1.32285254e-02,
       -5.55826956e-03, -7.83601124e-03, -9.60533787e-03,
       -2.39319783e-02, -1.23738020e-03, 5.07914498e-02, -1.66971646e-02,
       5.46095520e-02, 5.07408679e-02, -7.29767010e-02, 2.73445603e-02,
       8.46356079e-02, -1.24027938e-01, -5.40471002e-02, 9.89761055e-02,
       -2.84022316e-02, 5.44756986e-02, -9.34995338e-02, -2.25218982e-02,
       3.07308156e-02, -7.73090199e-02, -5.85590564e-02, -4.53650281e-02,
       8.99668969e-03, -2.94401776e-02, -2.06520483e-02, 4.32493389e-02,
       -9.24541242e-03, 5.02551571e-02, -5.81659190e-02, -3.66328354e-03,
       2.37113256e-02, -4.51787710e-02, -9.67246946e-04, -7.64241396e-03,
       -4.00804309e-03, -2.92511862e-02, -3.77946682e-02, 2.08695717e-02,
       5.69108990e-04, 3.25380242e-03, -6.14945851e-02, -5.96820656e-03,
       2.88413223e-02, -3.11723072e-02, -8.97684321e-03, -5.21287546e-02,
       7.12817013e-02, 7.37150712e-03, 1.20551169e-01, -1.00577980e-01,
       -9.01605487e-02, -4.50589648e-03, -6.72707185e-02,
       -1.18352070e-01, -1.11928182e-02, 1.63567737e-02, 1.13393236e-02,
       -3.63201946e-02, -6.58492045e-03, -3.04568168e-02,
       -6.14406131e-02, -1.16488682e-02, -7.22200349e-02,
       -3.46086435e-02, 2.78690532e-02, 3.16536892e-03, 4.34303284e-02,
       -6.52690083e-02, -5.08590117e-02, 1.36458478e-03, 2.81617120e-02,
       -9.15310998e-03, -3.63918208e-02, 6.43362291e-03, -3.41661237e-02,
       4.04508635e-02, -6.68581622e-03, -4.91768569e-02, 7.65807480e-02,
       -3.26954611e-02, 5.45666404e-02, -2.45730188e-02, 3.04307081e-02,
       -8.15102179e-03, 6.60265535e-02, -5.89124486e-02, -1.65791810e-02,
       1.20402217e-01, -1.65590481e-03, 4.34889738e-03, -2.95691658e-02,
       1.79403909e-02, -7.87318777e-03, -1.74733400e-02, -1.00103412e-02,
       1.28869126e-02, 6.81942701e-02, 4.64605503e-02, -4.70673442e-02,
       -2.90648285e-02, -6.75609859e-04, 1.85831469e-02, 1.44165866e-02,
       -1.03707388e-02, -6.85545430e-03, 1.90142225e-02, -1.07150506e-02,
       -1.26541508e-02, -4.34281130e-04, -2.47950573e-02, 2.09030993e-02,
       -3.65985446e-02, -5.53340614e-02, -2.31448319e-02,
       -1.78877693e-02, -3.04879760e-03, -2.17078384e-02, 4.07588407e-02,
       -9.45237093e-03, 1.96276046e-02, -3.61725641e-03, 2.09069392e-03,
       -7.49603212e-02, 2.24355944e-02, -9.82681662e-03, -7.15957135e-02,
       3.64100710e-02, -1.40620321e-02, 1.67087722e-03, 3.85750248e-03,
       -1.98983215e-02, -3.24709192e-02, 1.14710405e-02, -1.36945704e-02,
       -5.91167323e-02, -9.69609711e-03, 1.39711797e-03, -1.64275207e-02,
       1.21335434e-02, 5.03503233e-02, -1.30275507e-02, 6.23164102e-02,
       -3.06975306e-03, 1.05847819e-02, -4.11849394e-02, -3.16443369e-02,
       -2.72564702e-02, 4.99983169e-02, -3.42336483e-02, -6.66590929e-02,
       1.29481647e-02, 1.42194435e-01, -1.32015854e-01, -4.29054759e-02,
       -2.79723797e-02, 9.15492419e-03, -2.29950640e-02, -8.61889869e-03,
       -7.00721666e-02, 2.46764021e-03, -7.31667224e-03, 4.10693325e-03,
       3.31680328e-02, -1.37545457e-02, -5.78525551e-02, -9.92604624e-03,
       2.65940968e-02, -7.73227438e-02, 2.56766267e-02, -5.15467525e-02,
       -9.16585210e-04, 2.06080661e-03, -2.96725854e-02, -6.20167877e-04,
       7.18513280e-02, 4.03502723e-03, -2.13184245e-02, -1.00774635e-02,
       -2.43553668e-02, 3.23923640e-02, 3.27843130e-02, 5.92267960e-02,
       -3.07842181e-03, 3.04209050e-02, -7.85757452e-02, 7.73676438e-03,
       -1.03462286e-01, 2.18364168e-02, -1.33628011e-01, -7.05940574e-02,
       1.11897979e-02, -5.24462238e-02, 4.54052053e-02, -1.86547749e-02,
       -6.22877702e-02, -1.56275619e-05, -3.58119123e-02, 1.04932711e-02,
       1.11830689e-01, 2.20031547e-03, 3.13555859e-02, -2.99183093e-02,
       5.88302081e-03, -7.44741261e-02, 2.26191189e-02, -8.32478926e-02,
       -1.98018961e-02, 3.33958976e-02, -2.90788095e-02, -1.93270762e-02,
       -7.23295962e-04, -2.98066856e-03, 2.18742471e-02, 2.92140096e-02,
       1.91585273e-02, 5.94363362e-02, 2.92694550e-02, 4.85447934e-03,
       1.27500668e-02, 4.24124487e-02, 4.16918518e-03, 2.69390456e-02,
       3.72262374e-02, 1.34915560e-02, 2.31720153e-02, -2.12384537e-02,
       -2.48164535e-02, 2.14597080e-02, 5.56453951e-02, -1.44856528e-03,
       -6.45652190e-02, 3.86444964e-02, 6.10876419e-02, -3.15137468e-02,
       1.25812450e-02, -2.20565964e-02, 5.30366041e-02, 4.49515553e-03,
       -1.88514069e-02, -4.04470116e-02, 2.42660884e-02, -1.37841925e-02,
       1.86402798e-02, 2.58018691e-02, -5.39433863e-03, 1.65704153e-02,
       -1.09233987e-02, -2.46307850e-02, -2.50814203e-02,
       -2.80702412e-02, -2.94145197e-02, -4.50891890e-02, 1.06632710e-02,
       1.09230112e-02, 3.56287658e-02, 5.04480070e-03, -3.99952047e-02,
       -2.67396756e-02, -2.57348139e-02, -7.81151652e-02,
       -1.23858489e-01, -1.43513978e-02, 2.69051027e-02, -7.88887701e-05,
       1.95875969e-02, 5.76574914e-02, -4.83276509e-02, 3.97886001e-02,
       -5.53247668e-02, -9.57678109e-02, -6.30322173e-02,
       -1.53962756e-02, -1.98341291e-02, 1.03964070e-02, -1.49112092e-02,
       -7.16523686e-03, 5.08304164e-02, -3.34811620e-02, -3.06349210e-02,
       -2.57151364e-03, -2.31547914e-02, 6.04475662e-03, -2.52300240e-02,
       -4.30597514e-02, -2.87181083e-02, 5.48054138e-03, -5.61721660e-02,
       -2.47191009e-03, 2.46831346e-02, 2.35925391e-02, 7.44846277e-03,
       8.56150836e-02, -1.19114155e-02, -8.24779496e-02, -5.54616153e-02,
       -9.20014977e-02, -7.57972663e-03, 2.63505392e-02, 5.17758839e-02,
       -9.63974074e-02, 4.70194891e-02, -1.09440070e-02, -6.78529143e-02,
       -2.76288204e-02, -6.63120002e-02, -3.71979475e-02,
       -1.17839240e-01, 6.35484904e-02, -5.85518330e-02, -3.43417237e-03,
       -4.54391129e-02, -2.39781998e-02, 8.26177076e-02, -4.28515524e-02,
       -5.56563772e-02, -2.45057177e-02, -4.08195369e-02,
       -2.03397088e-02, 2.07763892e-02, -2.02503670e-02, -3.82378581e-04,
       2.00545955e-02, -6.14286512e-02, -3.61193419e-02, 9.28280801e-02,
       -8.67471285e-03, 6.36715516e-02, 4.00841683e-02, -3.27672996e-02,
       -3.36163156e-02, 3.92430276e-02, -3.41832861e-02, -9.36612580e-03,
       5.73045388e-02, -5.21721989e-02, -1.62289143e-02, -1.89358052e-02,
       -8.71305615e-02, -1.58610940e-02, -8.99895132e-02,
       -5.68326144e-03, -4.23372611e-02, 3.21482681e-02, -3.53893004e-02,
       -3.13322134e-02, -5.99753037e-02, -9.15343910e-02, 1.00875143e-02,
       4.32786494e-02, -1.85318813e-02, -4.86945882e-02, -1.60421394e-02,
       -1.09281456e-02, 1.16919391e-02, 2.07010447e-03, 9.75758230e-05,
       -2.13281251e-02, 8.47840589e-03, 2.25712545e-02, -1.08412262e-02,
       -2.49282829e-02, -2.66850181e-02, 3.84297147e-02, 2.18957737e-02,
       -8.57566297e-02, -2.92501338e-02, 9.01903659e-02, 5.24876788e-02,
       -1.63522121e-02, 3.61700207e-02, -1.52900005e-02, 7.05625266e-02,
       -9.79571138e-03, -3.15353125e-02, -5.26076090e-03,
       -3.75306467e-03, 3.82360108e-02, -1.91620067e-02, -3.70452963e-02,
       -1.02265971e-03, 5.21821305e-02, -4.99851815e-03, -2.87431162e-02,
       1.47727579e-02, -5.54384701e-02, 3.93420570e-02, 5.44123054e-02,
       2.78895013e-02, 1.90240778e-02, 1.13682710e-02, 7.13189878e-03,
       6.59409678e-03, -1.55985504e-02, 1.65427253e-02, -1.40613373e-02,
       -1.12300236e-02, -1.64715759e-02, -1.95364282e-03, 1.47032766e-02,
       1.02988549e-03, -5.08991554e-02, -2.91744210e-02, 8.06334317e-02,
       -3.39210480e-02, -2.63245683e-02, 2.79198270e-02, -5.02884900e-03,
       2.79386137e-02, -2.83776317e-02, -7.47199208e-02, -1.99318286e-02,
       1.37392521e-01, -6.35281950e-03, -9.59872156e-02, 1.70821196e-03,
       -6.97044609e-03, -1.88367744e-03, -1.67058650e-02,
       -6.22190759e-02, 1.12913996e-02, 4.89770323e-02, -1.14733842e-03,
       2.22424883e-02, -2.88301148e-02, 1.30949914e-02, -2.93054106e-03,
       1.40289189e-02, -4.42683231e-03, -1.07219582e-02, 3.88091132e-02,
       1.60444882e-02, 2.70165317e-02, -5.57588860e-02, 3.35992575e-02,
       1.22737736e-02, -1.24351857e-02, -9.26749557e-02, -7.42337480e-02,
       4.45524007e-02, -6.08166829e-02, -8.64461716e-03, -2.55919583e-02,
       1.60168465e-02, -1.95879377e-02, 5.54491673e-03, -7.34820962e-02,
       -1.11803316e-01, 2.06098352e-02, -7.09874136e-03, 6.56884164e-04,
       3.02368272e-02, 3.85985821e-02, 1.44878530e-03, -3.31270695e-03,
       -9.62404236e-02, -4.05503139e-02, -2.55084168e-02, 5.32763451e-02,
       1.08358022e-02, 2.94237733e-02, -4.05568071e-02, 2.50634868e-02,
       -2.59686653e-02, -4.13614921e-02, -7.51082925e-03,
       -4.23162021e-02, -2.18913928e-02, -3.67289991e-03, 1.61683112e-02,
       1.64071843e-02, -8.60075578e-02, 1.79210883e-02, -1.18734956e-01,
       -1.20882280e-02, -1.48047134e-02, -1.04731731e-01, 3.01602646e-03,
       -1.92512963e-02, -1.75418779e-02, -3.41620557e-02, 7.28208125e-02,
       -4.40259352e-02, -6.63341880e-02, -1.85567420e-02,
       -8.17572698e-02, 7.08601624e-02, 1.72712244e-02, -3.68271805e-02,
       2.65405830e-02, -1.19333342e-02, -5.08485697e-02, -1.99790206e-02,
       -1.84482113e-02, 6.99501531e-03, 5.07856496e-02, 1.25251770e-01,
       3.92692909e-02, 3.51604000e-02, -1.88381094e-02, 1.59257080e-03,
       -3.45480675e-03, -2.73566674e-02, 8.51686578e-03, 2.34573614e-02,
       2.82514822e-02, 5.47878072e-02, 4.51737605e-02, 4.69485447e-02,
       -5.26887290e-02, 1.21895466e-02, -7.19335526e-02, 2.66884118e-02,
       6.00899383e-02, 7.49809071e-02, 7.23321438e-02, -1.47903711e-02,
       9.35932738e-04, 2.43750457e-02, -3.71215008e-02, 3.86664420e-02,
       -6.52576387e-02, -7.51223648e-03, -1.33559322e-02, 9.39346552e-02,
       -4.24978174e-02, -5.21636344e-02, 1.66569054e-02, 1.51424715e-02,
       1.21370293e-02, 1.08362790e-02, -1.74320042e-02, 6.36369362e-02,
       7.49163926e-02, 8.24934617e-03, -9.64525528e-03, -2.34838836e-02,
       -4.23518289e-03, 3.03837154e-02, 2.78418493e-02, -2.86789890e-03,
       -1.35117173e-02, -1.01133659e-02, 1.03870574e-02, -5.01848161e-02,
       -4.32215482e-02, 2.04836130e-02, 9.93209984e-03, -7.76458546e-05,
       7.85432905e-02, 1.89952198e-02, 4.24654260e-02, 3.04034594e-02,
       -2.41241734e-02, -2.71020103e-02, 3.21329199e-02, -5.22337668e-02,
       -1.46072498e-02, -8.15035254e-02, 2.51190756e-02, 1.74310561e-02,
       -1.02877896e-02, -3.08989771e-02, -2.58046482e-03, 5.92272319e-02,
       -9.56523512e-03, 5.91492560e-03, -4.57709748e-03, -8.64431541e-03,
       4.47421626e-04, -5.05899172e-03, 2.60599311e-02, -3.57290395e-02,
       1.17620348e-03, 1.87634479e-03, 5.82928248e-02, 1.90267223e-03,
       -4.35065757e-03, -2.27706172e-02, 1.07952319e-02, -3.94122861e-02,
       -6.71405122e-02, 1.09290471e-02, -4.93936427e-02, 5.35015725e-02,
       -1.12700667e-02, -1.35760000e-02, -1.23024359e-02, 1.82457529e-02,
       -3.79105397e-02, 9.85333230e-03, -5.88813797e-02, -2.01481767e-02,
       7.81723186e-02, 2.54732277e-02, 1.10385187e-01, -2.05223518e-03,
       -4.97478880e-02, -1.18098306e-02, -2.49842014e-02, 5.84965609e-02,
       -2.72962302e-02, 4.72004414e-02, 7.79867247e-02, 1.21691832e-02,
       -2.86925975e-02, 1.16413077e-02, 3.60185690e-02, -1.42208496e-02,
       6.41495809e-02, 1.58334430e-02, -1.01803448e-02, 7.10219741e-02,
       1.45451147e-02, 7.60118244e-03, 1.40869599e-02, -1.06960395e-02,
       -1.14921294e-01, 1.35268336e-02, 7.59806065e-03, 1.55520272e-02,
       1.05293877e-01, -1.58910900e-02, 4.06996273e-02, 5.90912402e-02,
       -1.19423226e-01, -3.43203358e-02, -8.62065405e-02, 5.39442375e-02,
       -3.74941044e-02, 2.81188618e-02, -3.08235679e-02, -1.73298568e-02,
       4.11121845e-02, -1.04259863e-01, -3.63406278e-02, -8.30643401e-02,
       -7.55366832e-02, -5.75533435e-02, 1.67548396e-02, -2.24671736e-02,
       6.23098351e-02, -2.28171330e-02, 3.78487725e-03, 2.18754429e-02,
       2.88451873e-02, 5.84476925e-02, 1.40929305e-05, 2.80796271e-02,
       -3.16888168e-02, 7.37360027e-03, -7.92995021e-02, -3.13112438e-02,
       1.22257443e-02, 1.13313027e-01, 6.32933304e-02, 7.44078532e-02,
       7.96203502e-03, 5.47103100e-02, -2.21639033e-02, -2.85974033e-02,
       -5.53478040e-02, 1.36479025e-03, 1.10042486e-02, -3.43622640e-03,
       -3.43028791e-02, -4.42548990e-02, -9.09637362e-02,
       -4.23742570e-02, -1.43681662e-02, -1.05301943e-02, 1.39732026e-02,
       -7.75215775e-02, -5.35396487e-02, -4.82570603e-02,
       -1.25920558e-02, -1.95823349e-02, -5.00377119e-02, 3.20058991e-03,
       -1.29550667e-02, -3.45451646e-02, 1.39615592e-02, -8.38060491e-03,
       2.30160560e-02, -6.32790104e-02, 6.88000070e-03, -9.36985575e-03,
       -1.15183769e-02, -4.45392393e-02, -9.08315033e-02, 6.89164624e-02,
       -7.44263828e-03, -8.47678166e-03, 2.35623848e-02, -2.36006151e-03,
       1.69227016e-03, -1.25471754e-02, 3.25506106e-02, -3.10666189e-02,
       9.05838888e-03, -3.72796617e-02, -3.12405918e-02, 2.40757614e-02,
       -1.50624672e-02, -2.22412217e-02, -1.84676256e-02, 3.06615606e-02,
       4.26069982e-02, -4.01693117e-03, -1.66882332e-02, 1.47609441e-02,
       -3.04716639e-03, 1.78977698e-02, -7.89245311e-03, 1.18144676e-02,
       -2.56719464e-03, -7.27447718e-02, 2.36688349e-02, 6.43043667e-02,
       1.39195798e-02, -4.97839712e-02, 4.34546098e-02, -2.96839941e-02,
       -5.62042743e-03, 6.43076971e-02, -3.01246271e-02, 1.37950048e-01,
       1.64221460e-03, 1.97874159e-02, 5.83874956e-02, -7.44704530e-03,
       1.91103723e-02, -1.59922205e-02, 1.06958985e-01, 1.91057194e-02,
       1.97404763e-03, -3.65257747e-02, -2.39127595e-02, 1.93628315e-02,
       3.08254007e-02, -4.97205742e-03, -9.95573960e-03, 9.18513089e-02,
       2.77398992e-02, 1.09424908e-02, -1.24255642e-02, 8.54661092e-02,
       4.21064794e-02, -2.46215835e-02, -4.20773625e-02, 4.39264886e-02,
       -4.23431396e-02, 1.05750272e-02, 8.55710804e-02, 9.94335562e-02,
       -4.13561873e-02, -4.82610008e-03, 3.59348804e-02, -3.73040065e-02,
       6.03772253e-02, 9.69983358e-03, 2.65989248e-02, 1.11253381e-01,
       1.04988202e-01, -4.31824476e-02, -1.20660346e-02, -5.73379733e-02,
       4.36689220e-02, -3.38892117e-02, -9.68713872e-03, -3.57499383e-02,
       -3.02837770e-02, 1.60196796e-02, -5.55618852e-02, -3.87834944e-02,
       1.30792052e-01, -7.11435154e-02, -1.66053511e-02, 6.25697896e-02,
       2.51094177e-02, -2.94462871e-02, -1.20064102e-01, 3.05079669e-02,
       5.61301829e-03, -3.70861143e-02, -7.35801235e-02, 5.97262243e-03,
       -4.36816737e-03, 4.30163518e-02, 1.17021628e-01, 3.82549353e-02,
       -1.14758862e-02, 4.77915071e-02, -1.98948383e-03, 3.76124680e-03,
       -1.02766063e-02, 3.33973207e-02, 1.99619025e-01, 9.08151716e-02,
       8.54595192e-03, -2.01682057e-02, 1.06828593e-04, 3.55970487e-02,
       -1.01183429e-02, -1.84158199e-02, -7.72260055e-02, 2.85723750e-02,
       1.07726187e-01, -6.94572181e-02, -1.08531974e-01, -1.18422955e-01,
       -2.84047867e-03, 2.21416596e-02, -4.65745926e-02, -5.95961045e-03,
       -1.13115297e-03, -3.82681452e-02, -8.05594996e-02,
       -6.64282516e-02, -1.00055505e-02, -8.77722912e-03, 2.49055233e-02,
       -1.04230223e-02, -1.71117671e-02, -1.28154305e-03, 2.05438789e-02,
       -4.89192642e-02, 9.37550887e-03, -1.09261097e-02, -2.72550918e-02,
       -1.35470368e-02, -1.55163184e-02, -2.39472333e-02,
       -1.04812644e-02, 1.29979448e-02, -5.53657338e-02, 4.99719381e-02,
       -2.07864703e-03, 1.05520124e-02, -2.69601420e-02, -1.93323381e-02,
       1.29075386e-02, -3.07909884e-02, 1.32083625e-03, -2.17182413e-02,
       1.62057094e-02, -8.02654177e-02, 1.14325956e-02, -4.57940064e-02,
       -3.14507671e-02, -1.23701682e-02, -3.07394266e-02, 1.71681345e-02,
       -5.52392507e-04, 1.54982659e-03, -1.97018869e-03, -3.48203368e-02,
       -3.16034537e-03, -6.28715707e-03, -5.36855757e-02, 6.66767918e-03,
       1.45672942e-02, -7.15743601e-02, 8.38070959e-02, -2.06733532e-02,
       -3.85794528e-02, -5.82166668e-03, 2.07094755e-02, 9.33995191e-03,
       8.20667446e-02, 7.03309849e-02, -5.25455028e-02, 4.25945111e-02,
       2.11481173e-02, 3.77748050e-02, -3.94688323e-02, 6.22057877e-02,
       2.30273549e-02, -4.04221052e-03, -3.21974903e-02, 3.49305850e-03,
       5.28564081e-02, 1.32636004e-03, 1.93350613e-02, -1.22563317e-02,
       -8.74612778e-02, -3.57709229e-02, -3.51584808e-04,
       -8.24418105e-03, -1.05220173e-02, 7.57667469e-04, -7.98713707e-04,
       2.19734088e-02, -2.05201283e-02, -4.06406187e-02, -3.46941799e-02,
       3.44452113e-02, -3.71366031e-02, 2.43953504e-02, 3.39470543e-02,
       3.07772141e-02, -2.54762471e-02, -3.03379688e-02, 3.04221660e-02,
       7.63065070e-02, 8.28461424e-02, 6.88282177e-02, -1.77060496e-02,
       -7.58137205e-04, -3.41659747e-02, -6.27265871e-02,
       -6.52998984e-02, 2.09788065e-02, -9.56711993e-02, 1.46112725e-01,
       4.52844389e-02, -1.54120587e-02, 3.64182517e-02, 5.76852970e-02,
       4.78421291e-03, 5.41762002e-02, 1.18637411e-02, 4.10507359e-02,
       3.32187787e-02, -1.13749906e-01, 9.77541506e-03, 4.04798500e-02,
       -8.65880176e-02, 4.81736511e-02, 3.54558676e-02, 4.46964474e-03,
       2.13083848e-02, -7.12876208e-04, -6.30781008e-03, 5.18545471e-02,
       -2.06870902e-02, -2.64689829e-02, -3.24785598e-02,
       -7.80080445e-03, 3.68336551e-02, -4.07993942e-02, 3.21406722e-02,
       1.63106434e-02, 7.15895668e-02, -3.62006389e-02, -3.10815535e-02,
       -8.17562267e-02, -2.06777062e-02, -8.35384615e-03, 2.03579776e-02,
       1.26285804e-02, 1.73798092e-02, 6.46688044e-02, 4.91066650e-02,
       2.83046775e-02, -3.45706567e-02, -1.66122839e-02, 1.20575465e-02,
       1.19290845e-02, 1.23447245e-02, 5.09575866e-02, 3.10362056e-02,
       8.56299922e-02, -1.54258013e-02, -1.59119777e-02, -1.90472435e-02,
       1.70949735e-02, 3.90946083e-02, -1.35428971e-03, -1.95313967e-03,
       7.84670655e-03, 2.17558793e-03, -2.21262146e-02, -1.53923603e-02,
       2.96378531e-03, -2.70642829e-03, 1.13043161e-02, -3.20541412e-02,
       4.14974894e-03, 3.74788865e-02, -2.18391586e-02, -6.99336687e-03,
       7.47415470e-03, 4.94924933e-02, -3.62395216e-03, 4.31569479e-02,
       -5.29476553e-02, 4.69705043e-03, 1.50893210e-02, -5.33233248e-02,
       -3.91616039e-02, 5.39662596e-03, 2.81103514e-02, 3.87021480e-03,
       -2.58034579e-02, -7.66872021e-04, 1.55745652e-02, -6.54319359e-04,
       -1.66861042e-02, -1.45039875e-02, -1.52220502e-02,
       -1.64951831e-02, 3.59641425e-02, 4.46600057e-02, -1.39290495e-02,
       -2.31097336e-03, 3.32430052e-03, 4.70739491e-02, 4.00197133e-03,
       -1.02586467e-02, 2.08273698e-02, -8.76479745e-02, 1.89965349e-02,
       2.01337542e-02, -5.64576723e-02, 6.78499565e-02, -2.01428831e-02,
       4.29053605e-02, 3.88522707e-02, 1.77067611e-02, -2.61218268e-02,
       -5.65526448e-03, -1.91031080e-02, 3.08257323e-02, 2.70455927e-02,
       -1.18528038e-01, 4.97888885e-02, 3.83327529e-02, -4.25350294e-03,
       -9.58545040e-03, -6.21267827e-03, -1.27353678e-02, 1.28545493e-04,
       -1.57784130e-02, -3.75919864e-02, -2.95375120e-02,
       -3.50782759e-02, -4.12340313e-02, -9.16500017e-03,
       -2.57285163e-02, 1.62804164e-02, 2.82509625e-03, 2.37689335e-02,
       2.67507639e-02, 3.76189798e-02, -7.48159876e-03, 9.27171670e-03,
       -5.90280369e-02, 1.28173277e-01, 2.77667455e-02, -1.60050005e-01,
       7.73490891e-02, 6.52421713e-02, -1.86949763e-02, 1.01346038e-01,
       4.64251786e-02, 7.33893132e-03, 1.20777942e-01, -3.91803542e-03,
       5.96954115e-02, -2.05395110e-02, -4.00222875e-02, -1.88418552e-02,
       8.20428785e-03, -4.38834429e-02, 1.86088309e-02, 4.58753854e-02,
       -2.62670722e-02, -3.06801610e-02, 3.91159812e-03, -7.36657530e-02,
       -1.69447828e-02, -1.00587793e-02, 2.89397482e-02, -9.66865104e-03,
       3.83013897e-02, -5.74637540e-02, 1.47902779e-02, 1.80951487e-02,
       -5.43784443e-03, -1.93467066e-02, 1.66718885e-02, -2.42853127e-02,
       -1.33178160e-02, 9.83109232e-03, -3.53530943e-02, 2.78378371e-02,
       6.86209872e-02, 3.96052822e-02, -4.69277427e-03, 2.36191750e-02,
       -4.23541553e-02, -5.75587852e-03, -4.24903780e-02, 2.77671311e-02,
       4.88541424e-02, 9.64635909e-02, -7.43405819e-02, 6.70465408e-03,
       -2.96885800e-02, -1.04307206e-02, -3.27523127e-02,
       -1.35979373e-02, 1.84758715e-02, 8.91119801e-03, 2.08967645e-03,
       -4.34699543e-02, 1.23920233e-03, -3.81227843e-02, -4.78333496e-02,
       -1.40390312e-02, -4.33065370e-03, -2.20476277e-02, 2.40033842e-03,
       1.26224821e-02, -1.52313579e-02, 1.21361073e-02, 1.67208295e-02,
       1.87251680e-02, 3.63422395e-03, -1.91223621e-02, -4.80167456e-02,
       3.80602153e-03, 2.99580432e-02, 2.48145089e-02, -1.17706377e-02,
       -1.09694153e-03, -3.49770393e-03, -3.10700014e-02, 8.63047875e-03,
       1.71547942e-02, 2.09594127e-02, 6.50557354e-02, -1.66032407e-02,
       -2.44348086e-02, 2.34401263e-02, -2.57373434e-02, -3.67495464e-03,
       -4.23154735e-04, -2.83443034e-02, 1.22366576e-02, 3.28066349e-02,
       -3.74855436e-02, -1.59978084e-02, 1.62221887e-03, -4.62433323e-02,
       -3.72748598e-02, -5.02189435e-02, -2.07365714e-02, 5.67374118e-02,
       3.62565443e-02, 7.61952763e-03, 1.14889391e-01, 8.14038664e-02,
       4.47667716e-03, 1.92238614e-02, 4.28808965e-02, -3.39085348e-02,
       5.59900180e-02, 4.25315760e-02, -6.03287593e-02, 8.43570605e-02,
       1.80232730e-02, -3.19055654e-02, -4.67581637e-02, 3.82799022e-02,
       2.05975138e-02, 2.81921960e-02, 2.23603845e-02, -4.81636263e-02,
       -2.93359235e-02, 6.24203794e-02, 6.72237715e-03, -8.23731422e-02,
       2.46147178e-02, 1.38519350e-02, -5.07612675e-02, -2.91767926e-03,
       -7.58429617e-02, -2.38886382e-02, 6.50603473e-02, -5.90602942e-02,
       4.44465270e-03, 7.98992347e-03, -2.58031152e-02, 6.23168498e-02,
       4.45927382e-02, -2.69081853e-02, 6.98529407e-02, 2.76415255e-02,
       2.32430864e-02, 5.21922633e-02, 1.26391733e-02, 5.71997277e-02,
       2.85989530e-02, -4.27359575e-03, -7.49738812e-02, 4.48495783e-02,
       1.03756234e-01, 4.85585891e-02, 7.59676918e-02, 3.31953093e-02,
       -1.68924835e-02, 6.00352883e-02, 1.54408822e-02, 2.60030432e-03,
       -3.51474364e-03, 2.28690505e-02, 7.63188973e-02, -7.17137903e-02,
       -3.81988436e-02, 6.10560812e-02, 2.14733090e-02, 1.49472719e-02,
       -5.94930202e-02, -7.48291239e-02, 3.15711051e-02, -5.33444397e-02,
       -1.69165153e-02, -1.11863716e-02, 1.22904480e-02, 2.37007271e-02,
       1.03338473e-02, -2.66494323e-02, 1.75652076e-02, -2.54874974e-02,
       -1.17128817e-02, -5.01713641e-02, 6.35191798e-03, 5.03598228e-02,
       -3.52213047e-02, -4.35507484e-02, -6.08200468e-02, 1.38803333e-01,
       -9.09135211e-03, -1.34192586e-01, 1.68864988e-02, 1.32728051e-02,
       -1.28090670e-02, -5.13835289e-02, 1.14086904e-02, -1.79681666e-02,
       5.29450364e-02, -4.10030223e-02, -2.19327416e-02, 2.00491380e-02,
       -2.68163756e-02, 1.12402653e-02, -6.19097240e-03, -1.66788064e-02,
       -1.68435592e-02, -4.58505191e-02, -9.47550591e-03,
       -1.31490361e-02, 2.63953023e-03, 4.41901246e-03, 9.85168153e-04,
       5.97928243e-04, 5.23919836e-02, 1.97052322e-02, -1.13496045e-02,
       1.20153027e-02, 6.27265108e-05, 3.70459296e-02, 2.87005422e-03,
       -6.47805184e-02, 2.81327292e-02, 1.49842247e-01, 3.99292894e-02,
       -5.14048673e-02, 1.16237467e-02, -7.53480941e-03, 1.11952219e-02,
       6.41547237e-03, -6.56123310e-02, 6.55290931e-02, 7.45659322e-02,
       -4.43825312e-02, -1.00514598e-01, -1.29625881e-02,
       -3.98256704e-02, -2.18433253e-02, -1.18192807e-02,
       -4.09760550e-02, 4.35871705e-02, 4.87175733e-02, -3.27993855e-02,
       -3.30495760e-02, -2.01820415e-02, -3.10986321e-02, 1.82334799e-02,
       3.19981053e-02, 9.13339388e-03, 1.00664617e-02, 4.47137021e-02,
       5.05932570e-02, -5.12896664e-02, -9.20008775e-03, 1.90820154e-02,
       3.77442245e-03, 1.30050071e-03, -2.05010772e-02, -8.48466977e-02,
       3.21513265e-02, -3.74065228e-02, -5.45322103e-03, 6.55262545e-02,
       2.40339283e-02, -3.08947805e-02, -2.54837540e-03, 9.72068869e-03,
       -2.44895788e-03, 2.89770309e-03, -2.60204487e-02, -6.13973886e-02,
       -8.69628191e-02, -3.09208650e-02, -1.06065515e-02,
       -1.18939923e-02, 1.79186594e-02, 5.55641651e-02, 2.40634345e-02,
       -1.16867870e-02, -4.14941795e-02, 1.89385600e-02, -8.06119759e-03,
       5.61084002e-02, 5.32528870e-02, -9.85043775e-03, 2.44822018e-02,
       4.70945127e-02, 1.21896071e-02, -8.70700181e-02, -3.01394854e-02,
       6.48432702e-04, 4.56890129e-02, -5.44155985e-02, 6.92169517e-02,
       7.45936036e-02, 2.16487516e-03, -2.73601096e-02, 3.90779935e-02,
       9.86276418e-02, 6.86074421e-02, 8.11418742e-02, 1.17486008e-01,
       -8.62031281e-02, -1.77289490e-02, -1.04378760e-01,
       -1.07291810e-01, -9.19598900e-03, -3.27898636e-02,
       -1.13683762e-02, -1.07554495e-02, 4.49831747e-02, -1.66843738e-02,
       -5.76247126e-02, 6.08625449e-02, -1.96535066e-02, -7.58240297e-02,
       5.46679907e-02, 3.74548457e-04, 4.07975838e-02, 2.12848578e-02,
       -2.64654234e-02, -6.19739760e-03, 1.84188075e-02, -1.61514594e-03,
       -1.73246779e-03, -6.23789616e-02, -4.52238619e-02, 7.75561705e-02,
       2.34428747e-03, 1.20960129e-02, 6.99706972e-02, 3.59625407e-02,
       2.21053232e-02, -1.48784146e-02, -1.60839576e-02, -2.08040942e-02,
       1.27351031e-01, -2.38369219e-02, -3.26189138e-02, 4.15009186e-02,
       -9.84978210e-03, 7.80137628e-02, -4.50387709e-02, -8.14455934e-03,
       7.07465708e-02, 6.11101761e-02, 3.87304910e-02, -1.42913740e-02,
       -1.23307621e-03, 2.16625929e-02, 1.34064043e-02, -3.74513455e-02,
       1.14299152e-02, -2.17294432e-02, 3.61381448e-03, -4.32867324e-03,
       -9.98212397e-03, 2.20205914e-02, -7.96095189e-03, -1.90476123e-02,
       -9.90911946e-03, -5.04208263e-03, -1.16402432e-02,
       -6.11192323e-02, 2.52870098e-03, -5.01095802e-02, 6.17804844e-03,
       -7.67592294e-03, 2.63381358e-02, -2.90516522e-02, -9.99742653e-03,
       -2.57569794e-02, -2.60929242e-02, -9.67719872e-03,
       -1.32226711e-02, -3.27594876e-02, 7.96165019e-02, 1.31947789e-02,
       4.06005187e-03, 1.45467492e-02, -3.59354652e-02, -2.71539204e-03,
       -1.80098824e-02, -1.27891693e-02, 4.50074077e-02, 5.96100278e-02,
       6.78305328e-03, 7.89509359e-05, 4.28055460e-03, -1.93332601e-02,
       1.57192554e-02, -1.71851683e-02, 2.18025520e-02, 1.60738453e-02,
       -3.68127301e-02, 2.92517804e-03, 1.75923873e-02, -3.90970930e-02,
       -5.56676183e-03, 2.15091053e-02, -2.48447936e-02, -7.64419138e-02,
       9.21766609e-02, 5.38427308e-02, -1.67363919e-02, -1.19324764e-02,
       7.60715157e-02, 1.77191105e-02, -1.23213744e-02, -4.25601304e-02,
       -2.62349602e-02, -7.20863566e-02, 8.96563604e-02, -3.23364250e-02,
       -1.83882788e-02, 4.24227230e-02, -2.62960605e-03, -4.78606746e-02,
       -3.34416851e-02, 2.90953387e-02, -1.59403905e-02, -7.42539763e-03,
       1.47106452e-02, 3.74162495e-02, 3.48467305e-02, 1.71907954e-02,
       -1.99846979e-02, 2.29571424e-02, -1.11374110e-02, 3.25127807e-03,
       -1.04602436e-02, -2.79694349e-02, 2.55114064e-02, -8.66405070e-02,
       -1.16971925e-01, -2.27925996e-03, -1.47384843e-02,
       -1.09383985e-01, -5.69813885e-02, 4.77287099e-02, 3.01383901e-02,
       4.47717309e-02, 1.33307278e-02, -1.95602030e-02, 4.23068516e-02,
       4.26718593e-02, -3.41335535e-02, -2.76312716e-02, 7.19532603e-03,
       7.02958554e-02, 8.69572982e-02, -4.34184410e-02, -1.76456233e-03,
       2.10200548e-02, 1.58714689e-02, -1.15742423e-02, -1.64609980e-02,
       -3.54168378e-02, 3.42592858e-02, 9.23217554e-03, 1.28937066e-02,
       1.72100160e-02, -4.71755769e-03, -2.10421532e-03, 7.36155082e-04,
       1.86155774e-02, -4.24145674e-03, 1.23391708e-03, 2.65546199e-02,
       -4.99207601e-02, -5.79037890e-02, 7.76725635e-02, 5.23865931e-02,
       -1.15425661e-02, -1.32526783e-02, 3.82425077e-02, 5.48200076e-03,
       -2.49457881e-02, -9.36940163e-02, -2.83932127e-02, 8.74801055e-02,
       2.13595363e-03, 1.45414295e-02, 2.07024030e-02, 5.01610488e-02,
       2.65518222e-02, -2.10400447e-02, 1.84510238e-02, 1.12425886e-01,
       4.23203893e-02, -2.19386779e-02, -3.59196635e-03, 1.30927740e-02,
       -4.42837141e-02, -2.65431739e-02, -9.34599191e-02, 3.50863449e-02,
       9.51363612e-03, 5.14783477e-03, -5.53218182e-04, -9.83000919e-03,
       4.51272447e-03, -2.76829451e-02, 4.23467532e-02, 4.56075929e-02,
       1.39615759e-02, 2.36626551e-03, 6.18658308e-03, -8.86658207e-03,
       -4.92267795e-02, 5.77104911e-02, -3.44412704e-03, 4.72052721e-03,
       -1.70469861e-02, -2.66979560e-02, 1.26024028e-02, 5.03791030e-03,
       -4.07393947e-02, -7.91643187e-02, 2.74782069e-03, 9.16688070e-02,
       -1.59905162e-02, -3.40104774e-02, -4.68385518e-02,
       -1.17071467e-02, 5.43947238e-03, -2.38416903e-02, -1.65964309e-02,
       3.28099169e-02, 6.54622838e-02, -6.57285657e-03, -1.06964763e-02,
       -7.72674335e-03, 7.48638948e-03, -8.51499476e-03, -6.80930167e-03,
       5.27344458e-03, -1.82775296e-02, 2.29142196e-02, 5.92743978e-03,
       2.22991314e-02, -4.58579697e-03, -1.26087219e-02, -3.25858891e-02,
       -1.34420181e-02, 4.08591628e-02, 7.98653662e-02, -2.83771958e-02,
       4.93543744e-02, -4.89356779e-02, 4.46256287e-02, 1.94540154e-02,
       -5.11533022e-03, -6.53121173e-02, -7.02514425e-02,
       -2.64911237e-03, -3.11510973e-02, 4.64958772e-02, -1.32824806e-02,
       -5.95548339e-02, -2.57257298e-02, -4.01275605e-02, 2.11256440e-03,
       -3.84073593e-02, -6.94053173e-02, 1.31044313e-02, -4.24273200e-02,
       -1.86851583e-02, -5.48596447e-03, -5.22137173e-02, 1.71268340e-02,
       9.31072608e-03, -1.86835416e-02, -1.41422898e-02, 3.82439606e-02,
       -4.86380719e-02, 2.01307796e-02, -4.40058447e-02, 2.88405106e-03,
       -2.09267139e-02, 2.99896505e-02, 5.78408390e-02, 1.27724316e-02,
       5.53979771e-03, 9.08152461e-02, -2.30921954e-02, 6.04102984e-02,
       6.26063719e-02, -4.42143418e-02, -7.45340809e-03, -3.73994280e-03,
       -7.11311540e-03, 3.97310220e-02, 6.54022023e-02, -3.68550443e-03,
       3.30707803e-02, -1.01939686e-01, 1.42298092e-03, 1.27147241e-02,
       -8.79885629e-03, -4.38459180e-02, -6.72676265e-02,
       -2.62409225e-02, -1.99527852e-02, -4.36397782e-03,
       -5.55370413e-02, 1.21006751e-02, -1.15071794e-04, -9.83152725e-03,
       -6.21451577e-03, 1.76804997e-02, -1.59019064e-02, 1.43099362e-02,
       3.99578251e-02, 2.61979047e-02, 5.44665474e-03, -3.48027535e-02,
       1.49795562e-02, 1.82929505e-02, -4.00277451e-02, -1.75862443e-02,
       3.11831199e-02, 6.88242465e-02, -2.13657338e-02, -2.25778464e-02,
       1.59284081e-02, 4.15961817e-02, 2.31291987e-02, -4.61551249e-02,
       1.23572471e-02, -1.19981158e-03, 6.90002665e-02, -1.04226537e-01,
       -2.71259528e-02, 2.55754571e-02, 4.41091992e-02, -3.21780853e-02,
       -9.91749205e-03, -2.56478470e-02, -4.92256023e-02, 2.91451141e-02,
       -1.45606818e-02, 8.26100260e-03, -2.00109091e-02, 2.23991065e-03,
       1.30154602e-02, 1.26414802e-02, -3.19203176e-02, -6.58407211e-02,
       -3.13329175e-02, 1.67646198e-04, -1.03747370e-02, -6.11790866e-02,
       -3.17994580e-02, 4.00597453e-02, 1.32545121e-02, -6.08164351e-03,
       4.33176756e-03, -2.79788822e-02, 6.16067136e-03, -2.85392646e-02,
       -2.45580822e-02, -3.07806693e-02, 1.64522585e-02, 3.32929753e-02,
       4.06147949e-02, 2.04071514e-02, 1.89813841e-02, -2.58429814e-02,
       1.19438325e-03, 1.59888770e-02, 1.39907701e-02, 1.14458287e-02,
       -1.15725603e-02, -4.08274168e-03, -7.83400051e-03,
       -8.37172475e-03, 2.64085270e-03, -9.07018967e-03, -2.28491961e-03,
       1.24621456e-02, 3.89386229e-02, -2.00973134e-02, -7.36105349e-03,
       -7.48970285e-02, -5.47297634e-02, 3.26398872e-02, -3.15188393e-02,
       -7.90238194e-03, -1.15132015e-02, -2.25522183e-02, 5.67598343e-02,
       1.63731128e-02, 6.05226355e-03, -2.74936035e-02, 9.07875318e-03,
       2.09059194e-03, 1.04250032e-02, -5.67811169e-02, 1.35945361e-02,
       -2.58254190e-03, 2.72465814e-02, -3.01072355e-02, -3.17194462e-02,
       -3.64713781e-02, -1.82402376e-02, 4.14166749e-02, 3.92294349e-03,
       -4.13632132e-02, 3.00479662e-02, -6.86434731e-02, -2.80222786e-03,
       -1.03217950e-02, 2.37646084e-02, -3.92302498e-03, 8.26059878e-02,
       -1.12217478e-02, 6.18012324e-02, -1.52788162e-02, -2.92761507e-03,
       -4.40411642e-02, -2.28419695e-02, -4.31884788e-02,
       -4.48874645e-02, 2.13578232e-02, 2.85146460e-02, 5.37595414e-02,
       7.57023506e-03, 2.42666658e-02, 6.27868697e-02, 1.13446131e-01,
       -4.05897154e-04, -3.00990604e-02, 1.23131983e-02, -1.35961138e-02,
       1.14522934e-01, -7.86932036e-02, -2.90575940e-02, -1.55875497e-02,
       -4.49155569e-02, 9.43149347e-03, 3.90918329e-02, 3.15919742e-02,
       5.67054562e-02, 5.64866997e-02, -1.37775928e-01, -8.25020596e-02,
       8.93619955e-02, -1.02457300e-01, -9.12502781e-03, -1.37794483e-02,
       4.92013767e-02, 1.82755757e-02, 5.54638021e-02, 5.10602491e-03,
       -1.08207865e-02, 4.65416908e-03, -1.39071522e-02, -5.79433888e-02,
       -4.96985838e-02, 1.09764487e-02, 8.96789432e-02, -5.81408502e-04,
       -4.37310860e-02, 3.92763093e-02, 4.37351577e-02, 1.75872967e-02,
       2.73773883e-04, 2.59524137e-02, -2.08538435e-02, 8.37407857e-02,
       9.60164368e-02, -5.21179214e-02, 1.63623989e-02, -4.09169719e-02,
       -4.03311253e-02, 3.65534574e-02, 1.88015383e-02, -2.41127647e-02,
       2.83081867e-02, 8.18481948e-03, -6.24664687e-02, 2.19976692e-03,
       -1.84402131e-02, -5.39901555e-02, -4.12341133e-02, 3.34472116e-03,
       6.02862623e-04, 2.97224848e-03, -1.01169222e-03, 2.32802369e-02,
       2.06735302e-02, 2.65524276e-02, 4.82669380e-03, 1.05019268e-02,
       5.08505218e-02, 4.91650356e-03, 2.94339508e-02, 3.09859831e-02,
       -1.39142293e-02, 3.03281215e-03, 2.07388569e-02, -1.01927100e-02,
       1.71210598e-02, 5.07790148e-02, -1.16844689e-02, 2.36288514e-02,
       2.88862959e-02, -2.52463166e-02, 7.54465116e-04, 6.99353823e-03,
       -1.92891676e-02, 2.55322605e-02, 2.27855984e-02, 1.88775677e-02,
       1.23261744e-02, -3.65675054e-02, -1.30234156e-02, 8.86104628e-03,
       -2.24360302e-02, -2.37546954e-02, 2.91324779e-02, 4.56078425e-02,
       8.61792937e-02, -1.22451624e-02, -1.28578898e-02, 3.80446240e-02,
       1.43058002e-02, 3.16768102e-02, -1.18855154e-02, 2.82943919e-02,
       6.76169246e-02, -1.28963459e-02, 5.64872520e-03, 4.54905331e-02,
       -2.30613500e-02, -1.07049949e-01, 4.50344384e-02, -7.04126060e-02,
       7.14151375e-03, -2.19466519e-02, 9.30907875e-02, -1.95911657e-02,
       7.01410463e-03, -1.99746657e-02, 9.96319205e-03, 7.06778988e-02,
       -1.40926726e-02, -2.07950510e-02, 3.32095893e-03, 4.30343952e-03,
       6.96521103e-02, 7.42050726e-03, 4.67331596e-02, 5.28767593e-02,
       -2.90343463e-02, -5.01361974e-02, -3.69888283e-02, 1.41511783e-02,
       6.46929070e-02, 7.04451948e-02, -1.80884935e-02, 2.61330381e-02,
       9.27047245e-03, 4.57326137e-02, -3.21031408e-03, 2.28269547e-02,
       -3.44478562e-02, 7.63512254e-02, -1.41123272e-02, -4.50519994e-02,
       -9.45155919e-02, 5.93719445e-03, 1.45468786e-01, 1.34246806e-02,
       -8.70636925e-02, -9.58716124e-02, 2.10156832e-02, 4.97978702e-02,
       2.10430399e-02, 3.59870568e-02, 2.15516500e-02, 6.53059334e-02,
       9.68651325e-02, -1.63541973e-01, 2.95792595e-02, -3.22288759e-02,
       4.13618349e-02, -3.54998838e-03, 4.54954058e-02, 2.56159548e-02,
       -6.81793615e-02, 2.14352086e-02, 4.94788447e-03, 1.27234813e-02,
       -1.30725224e-02, 8.88150372e-03, 4.75620478e-03, -6.15681102e-03,
       -3.10751167e-03, -1.56963561e-02, -2.31078379e-02,
       -4.55250411e-04, 3.09199467e-02, -4.31875736e-02, -5.49903251e-02,
       2.96211033e-03, 1.10359851e-03, -5.89136383e-04, 9.73949507e-02,
       -2.18600258e-02, -4.42118458e-02, 2.26611346e-02, 5.21871112e-02,
       -1.44732567e-02, -1.04064718e-02, -8.77630245e-03,
       -1.48340007e-02, 3.29010338e-02, 5.09356782e-02, -5.34927472e-02,
       2.62550246e-02, 3.03489529e-02, 4.24783900e-02, 2.40231492e-02,
       -1.98480766e-03, -7.87436683e-03, -1.77568961e-02,
       -7.60168023e-03, 2.57527418e-02, -1.75572373e-02, -4.06889105e-03,
       1.60732418e-02, 6.39953930e-03, -6.31982367e-03, -1.39339045e-02,
       9.14220698e-03, 2.07668804e-02, 7.56024988e-03, -1.70486048e-03,
       5.08975377e-03, 1.24640958e-02, -2.90643405e-02, -3.10123768e-02,
       6.48445785e-02, -1.96111053e-02, 2.49880981e-02, 4.41948958e-02,
       1.31985880e-02, 4.24368642e-02, -7.40809366e-04, -3.22817676e-02,
       4.21339786e-03, 2.68437471e-02, 1.86603069e-02, -4.40005846e-02,
       2.66275220e-02, 1.09965354e-02, 1.31902639e-02, -6.68393867e-03,
       -3.16014029e-02, -1.00678122e-02, -2.41166018e-02, 2.66236742e-03,
       -2.45583188e-02, -7.40824593e-03, -2.36745626e-02, 7.53282234e-02,
       -5.38788699e-02, -6.56353252e-04, -1.08721117e-02,
       -1.27509749e-02, 8.65877979e-03, 7.03237876e-02, -2.15487778e-02,
       -2.38763113e-02, 1.88684035e-02, 1.96122546e-02, 2.99607273e-02,
       7.07564950e-02, 4.10978347e-02, 5.04362583e-02, 1.19399868e-01,
       4.76889499e-02, 1.23385596e-03, 9.99636296e-03, 1.02038957e-01,
       -3.75184976e-02, 3.60874906e-02, -9.16744471e-02, 1.71009582e-02,
       -2.82304194e-02, 2.24658940e-02, -2.97257062e-02, 1.09920483e-02,
       -5.09397909e-02, -5.22287637e-02, -3.53640355e-02,
       -3.99333201e-02, 9.14839841e-03, -3.67804505e-02, -6.40307665e-02,
       -2.33945902e-02, 1.01600578e-02, -2.31314730e-03, 3.58860428e-03,
       3.55646387e-02, 2.28713659e-04, -1.31697636e-02, 9.14054364e-02,
       -6.54720813e-02, 3.74081545e-02, 5.67102805e-02, -2.48347111e-02,
       8.05453360e-02, 2.01996155e-02, -1.54096698e-02, 1.38152629e-01,
       9.43167582e-02, 1.03380769e-01, 4.31162827e-02, 2.47914679e-02,
       5.00997007e-02, 7.87881836e-02, -3.27310152e-02, -5.44485040e-02,
       3.82377282e-02, 3.61985266e-02, 3.34205925e-02, -2.14744546e-02,
       -5.74645288e-02, 3.89914401e-02, -3.28933410e-02, -8.17454979e-02,
       5.01819327e-02, -3.07545811e-02, -1.83972903e-03, -3.35642323e-02,
       4.01580380e-03, 1.71507057e-02, 1.35311708e-02, -8.15692544e-03,
       1.47577282e-02, -3.44393938e-03, 2.59012287e-03, -1.19669514e-03,
       -1.85470488e-02, 9.00314562e-03, 5.77987991e-02, 7.35466704e-02,
       7.01354071e-02, -1.10279964e-02, -8.90368596e-03, 7.15310201e-02,
       1.93230677e-02, 4.94724624e-02, 4.14629132e-02, 4.05689236e-03,
       -6.92880433e-03, -2.37557050e-02, 1.36092128e-02, -1.85096171e-02,
       9.13437605e-02, 8.64053071e-02, 2.99310498e-02, -4.51106671e-03,
       -3.77561003e-02, 1.24480901e-02, 3.47656049e-02, 1.17365718e-02,
       7.80664086e-02, 7.89014176e-02, -2.33991835e-02, -3.23382430e-02,
       4.93971584e-03, -4.81735542e-03, -2.05178652e-02, 1.79881398e-02,
       6.12707101e-02, 1.52593190e-02, 2.22251061e-02, 9.38139856e-03,
       1.71400029e-02, 4.77390476e-02, 1.62259536e-03, 3.26619707e-02,
       1.27006732e-02, 6.83094338e-02, 1.87461935e-02, 4.61815223e-02,
       1.65258106e-02, -1.71754118e-02, 1.93764605e-02, 6.89351885e-03,
       1.75047375e-03, -3.87898050e-02, 4.57921177e-02, -1.78925321e-02,
       7.36400776e-04, -8.62440467e-03, 3.13929357e-02, 1.58773141e-03,
       -5.49092470e-03, -4.56576189e-03, -1.30980443e-02, 3.48332897e-02,
       -1.63305476e-02, -1.46323983e-02, -1.24876164e-02,
       -2.37926766e-02, 1.05290161e-02, -1.93982646e-02, -2.68143360e-02,
       4.90746945e-02, -7.31657073e-03, -2.03363784e-02, 3.15755606e-02,
       4.43939194e-02, 1.81953125e-02, -2.34247465e-03, 4.58779708e-02,
       -6.83897827e-03, 7.53329843e-02, -1.33266812e-02, -1.03643432e-01,
       1.42392173e-01, 7.21510500e-02, -3.78209017e-02, 1.92561988e-02,
       4.77239750e-02, 8.87301844e-03, 6.47196732e-03, 6.16510622e-02,
       -1.08874269e-01, 5.37714288e-02, 7.94016384e-03, -4.47787084e-02,
       1.04412753e-02, -1.90127511e-02, 1.23364171e-02, -4.17757332e-02,
       -2.96088234e-02, -5.87333813e-02, 1.43460575e-02, 1.02671813e-02,
       -4.93111722e-02, 2.84014456e-02, -4.76798154e-02, -5.37350886e-02,
       3.15870382e-02, -1.03084501e-02, 7.74848601e-03, 4.25972082e-02,
       5.05225286e-02, -8.05618148e-03, -4.11598459e-02, -4.87277657e-02,
       2.25827489e-02, 4.42242660e-02, -2.40808427e-02, -6.21265210e-02,
       7.27184191e-02, 1.65568646e-02, 2.46759560e-02, 6.77890480e-02,
       4.87081259e-02, 7.74238259e-02, 6.75802976e-02, 9.30829346e-02,
       -7.62195438e-02, 6.82910085e-02, -5.58721507e-03, 4.09642570e-02,
       1.16403040e-03, -2.02412019e-03, 2.55209543e-02, -2.85527222e-02,
       1.33472960e-02, -5.15746325e-02, 6.64123893e-02, 6.95275590e-02,
       -7.37569630e-02, 3.86144989e-03, -5.94373941e-02, -3.71241234e-02,
       -2.28977315e-02, 1.57508589e-02, 8.84960312e-03, 4.96936738e-02,
       5.49729839e-02, -2.94222846e-03, 4.15655226e-02, -4.99936268e-02,
       2.88949790e-03, 9.35670137e-02, 6.35193363e-02, 3.24244723e-02,
       2.49777734e-02, -5.22102937e-02, -2.08435226e-02, 4.44278456e-02,
       -4.20959443e-02, 2.74803210e-02, 1.79557875e-02, 4.86887582e-02,
       5.35349771e-02, -2.32124683e-02, -8.29808787e-02, 4.61292006e-02,
       -2.85037234e-02, 5.86851034e-03, 2.33624857e-02, -4.05899808e-02,
       -8.32594465e-03, -5.39438520e-03, 2.22935434e-02, 2.09421534e-02,
       -1.77781284e-02, 3.92968655e-02, 4.35071811e-03, -1.56599879e-02,
       -1.35868890e-02, 4.82583465e-03, -3.44130700e-03, 2.51814746e-03,
       1.20568573e-02, 3.27874906e-02, 5.74141145e-02, -2.31039785e-02,
       -1.36424592e-02, 4.12840843e-02, 1.24004139e-02, -2.98363883e-02,
       -1.96311548e-02, 2.01048725e-03, 1.72575936e-02, 1.43752545e-02,
       -3.73353623e-02, -9.59040150e-02, 2.67782900e-02, 1.43669108e-02,
       -5.35246842e-02, -2.72364467e-02, -3.81773897e-02,
       -4.88687605e-02, -1.78987794e-02, -3.70991300e-03,
       -4.98554818e-02, -7.44590387e-02, 4.29865643e-02, -1.63621008e-02,
       -9.48713219e-04, -8.56641401e-03, -5.48069328e-02, 5.49895093e-02,
       -2.45060436e-02, -4.90538664e-02, 2.17235480e-02, 1.06345862e-02,
       1.17735779e-02, 4.24799174e-02, 8.43446925e-02, 5.72352298e-02,
       4.28102203e-02, -1.79685764e-02, 5.80361951e-03, 3.84869613e-02,
       9.81514826e-02, -2.76163723e-02, -3.10539454e-02, 7.33912736e-02,
       1.12851568e-01, 5.82680292e-02, -3.97386849e-02, -8.57429281e-02,
       -3.55075710e-02, 4.00007404e-02, 4.60158810e-02, -6.48658425e-02,
       8.17728266e-02, 1.12295486e-01, 1.64357983e-02, 1.16699710e-02,
       -4.12555151e-02, -8.57034624e-02, -1.26221916e-02,
       -8.06406047e-03, -9.49681154e-04, -7.58693181e-03,
       -2.25638505e-02, 5.31747676e-02, -4.17081565e-02, -4.75203656e-02,
       7.14960396e-02, 5.22892624e-02, 1.27801262e-02, 9.79453325e-02,
       7.97549449e-03, -6.81591174e-03, 3.05282958e-02, -1.60808805e-02,
       9.58514214e-03, 7.97076002e-02, 2.00466380e-01, 4.99827042e-02,
       7.08811954e-02, 1.03009082e-01, -9.17299837e-03, 6.00907691e-02,
       3.83008532e-02, 5.36965847e-04, -3.22959237e-02, 9.48264226e-02,
       9.29823741e-02, 1.21050309e-02, 1.52814221e-02, -4.76728901e-02,
       -1.87882676e-03, -6.53147995e-02, -8.73542726e-02,
       -7.66115934e-02, 8.78583640e-03, 7.72317648e-02, 3.75819281e-02,
       5.11397608e-03, -2.44353563e-02, -1.85933139e-03, -1.80120729e-02,
       5.31422580e-03, -1.02542648e-02, 1.08277490e-02, 2.77577676e-02,
       3.48507985e-02, -3.85689922e-02, -1.20623326e-02, -1.68230408e-03,
       1.13114100e-02, -1.23605672e-02, 8.94357190e-02, 5.05346358e-02,
       7.43724778e-02, 7.99604356e-02, -1.61809996e-02, 2.60438683e-05,
       7.90695772e-02, 5.07805357e-03, 6.34941459e-02, 6.68260753e-02,
       8.62598792e-02, 3.60898599e-02, -3.37625332e-02, -6.26232103e-03,
       -5.11116497e-02, 6.09525964e-02, -3.33919413e-02, -3.20468470e-02,
       -5.32703325e-02, 2.41446681e-02, 4.18955497e-02, -1.29856961e-03,
       3.83412763e-02, 7.71465525e-03, -6.04855642e-03, -6.34895032e-03,
       -2.61546373e-02, 4.53125965e-03, 8.82030278e-03, -1.72044504e-02,
       1.21844020e-02, -1.52793089e-02, -3.24245133e-02, -2.53412612e-02,
       2.09315168e-03, -2.53416281e-02, -3.23172435e-02, 1.14999473e-01,
       -1.61308635e-04, -2.36747526e-02, -1.82450619e-02,
       -2.37725452e-02, -3.11980918e-02, 1.90761033e-02, 4.67870571e-02,
       1.34118469e-02, 1.01383343e-01, -2.74277236e-02, 2.61409953e-02,
       -8.19680765e-02, -4.53094356e-02, -6.95483061e-03,
       -7.38825463e-03, 2.19807345e-02, 1.75606497e-02, 1.25673534e-02,
       1.04728369e-02, 7.12979166e-03, -1.96909104e-02, -1.00688515e-02,
       5.14023821e-04, -2.72882432e-02, -2.82518640e-02, -1.79155376e-02,
       -3.93698700e-02, 3.24596604e-03, 2.53613442e-02, 7.35323280e-02,
       -4.05704789e-03, 4.04737368e-02, 7.24415332e-02, -1.57278590e-03,
       -4.20902157e-03, 3.25044356e-02, -6.83389455e-02, -4.68229093e-02,
       -3.55672324e-04, 3.74818482e-02, -1.20198550e-02, 8.58969018e-02,
       3.02981101e-02, 9.32373479e-02, 9.08962786e-02, 3.67892683e-02,
       3.61794978e-02, 3.69132385e-02, 8.96338820e-02, -3.36953886e-02,
       -2.20530629e-02, 8.59811082e-02, 4.69364189e-02, 2.00034436e-02,
       -1.00137871e-02, 6.54158212e-05, 6.93975156e-03, -3.75245810e-02,
       -9.07060318e-03, -5.46415076e-02, -2.67241299e-02,
       -3.76443518e-03, -2.66242605e-02, -2.33524591e-02, 8.50629956e-02,
       3.90166529e-02, -6.23666262e-03, -1.11102173e-02, 1.08797234e-02,
       -4.65772487e-02, 9.99880210e-03, 3.61473933e-02, 2.84724124e-02,
       3.07831224e-02, -1.98771115e-02, 1.85136814e-02, -1.28850704e-02,
       1.05774350e-01, 2.71271747e-02, 6.21879175e-02, 6.95538148e-02,
       2.32026707e-02, 4.52152118e-02, 1.95093267e-02, 1.12924486e-01,
       -2.41397358e-02, -1.50659634e-02, 3.78041808e-03, -1.08365901e-02,
       1.86826438e-02, 3.22809853e-02, 1.67153273e-02, -2.57270671e-02,
       1.31043326e-02, 1.94544606e-02, -2.36897729e-02, 5.05238399e-03,
       1.17814250e-03, 1.66345239e-02, -1.70599902e-03, 4.80146296e-02,
       -2.96834763e-02, -3.82699259e-02, 4.79097441e-02, 1.75838324e-03,
       1.97844282e-02, 4.15146947e-02, 1.17904441e-02, 4.60292101e-02,
       2.83129304e-03, -3.60598378e-02, 1.44483533e-03, -2.93362746e-03,
       -3.58272567e-02, 6.31351024e-02, 5.48059121e-04, 2.08542924e-02,
       1.35724366e-01, 7.74755888e-03, -7.43883625e-02, 1.08205371e-01,
       -1.54089537e-02, -6.74336180e-02, -2.27536075e-02,
       -3.26924361e-02, -2.85052171e-04, 6.70390129e-02, 2.37270854e-02,
       -3.07101849e-02, 1.24486191e-02, 2.54572456e-04, -5.58835780e-03,
       -7.74777401e-03, -3.52971326e-03, 2.13377848e-02, -6.65321127e-02,
       -3.76698887e-03, -1.77159645e-02, 1.04978755e-02, -1.19244470e-03,
       -1.49603626e-02, 1.92063977e-03, -3.66695633e-04, -1.13138612e-02,
       -1.47902165e-02, -4.09543030e-02, 7.22619705e-03, 3.55534777e-02,
       -1.29728764e-02, 9.70630534e-03, -2.97976136e-02, -1.41243488e-02,
       -5.49601726e-02, 1.44950266e-03, -4.88348790e-02, 1.20663783e-02,
       -6.83007762e-03, -1.18803401e-02, -5.38776512e-04,
       -3.87991406e-02, -1.35461595e-02, -1.74125202e-03,
       -1.04512777e-02, -1.63866729e-02, -2.06891857e-02,
       -1.52949905e-02, -1.90738086e-02, -2.10740883e-02,
       -2.88285762e-02, 2.43898910e-02, 2.32702661e-02, -5.14240824e-02,
       -4.74351048e-02, 2.28699967e-02, 1.41707100e-02, -2.14170162e-02,
       -3.05565242e-02, 8.68838467e-03, 3.28207389e-02, -2.18847860e-02,
       -5.70178740e-02, -8.49675089e-02, 5.31065278e-02, 1.43411534e-03,
       4.24383720e-03, -8.56190454e-03, -2.49291696e-02, 6.07268997e-02,
       -1.79188140e-02, 4.08399142e-02, -5.96111231e-02, 4.77134921e-02,
       -4.57012001e-03, -1.13186259e-02, -2.12647170e-02,
       -5.13344072e-02, 1.14222281e-02, 1.38656162e-02, -4.11310345e-02,
       -3.87539454e-02, 5.55894785e-02, -1.68263083e-04, -1.04885725e-02,
       -1.89062655e-02, -1.86206531e-02, 2.03081165e-02, 8.76580272e-03,
       -1.06517166e-01, -2.73424461e-02, -1.50943147e-02, 3.96775454e-02,
       -2.30079074e-03, -1.17585948e-02, -4.04146537e-02, 3.59642170e-02,
       -6.65079802e-02, 2.02531199e-04, 6.46362873e-03, 3.96442935e-02,
       4.68737744e-02, 1.48087991e-02, -3.51409391e-02, -5.93459532e-02,
       6.58028573e-02, -4.76191267e-02, 9.45028674e-04, -3.43327075e-02,
       -1.01898191e-02, -4.15714309e-02, 4.16384749e-02, -3.56878266e-02,
       -5.13235703e-02, -3.96818435e-03, -8.01707879e-02,
       -1.78403943e-03, -1.39589636e-02, 3.68469721e-03, -7.82035813e-02,
       1.76370367e-02, -1.83637589e-02, 4.46149008e-03, -1.12588024e-02,
       9.98422317e-03, -1.17694130e-02, -5.61935408e-03, -4.20704558e-02,
       4.03660946e-02, 3.34413932e-03, -5.34878746e-02, -3.84243615e-02,
       8.57152510e-03, -2.34288685e-02, 4.35887231e-03, 7.28851184e-02,
       -1.92885865e-02, 6.45944476e-02, -6.35837764e-02, -4.86904941e-02,
       1.62780453e-02, 2.82422807e-02, -1.00293560e-02, -1.90865621e-02,
       -1.71814710e-02, 5.78191504e-03, 3.76306218e-03, -2.00431030e-02,
       -7.58317560e-02, 4.87825484e-04, -9.16638819e-04, 8.38487130e-03,
       1.16090477e-02, 4.86666188e-02, -5.51009960e-02, -6.26913784e-03,
       -1.73745770e-02, 2.91160289e-02, 1.80279138e-03, 1.31601840e-02,
       5.35874441e-03, 3.89705189e-02, -4.60454375e-02, -2.24495437e-02,
       -7.55006261e-03, -9.26512852e-03, 1.68716498e-02, -1.84691977e-02,
       8.19721492e-04, 7.80311301e-02, 1.96301918e-02, -2.82721943e-03,
       1.36449495e-02, -1.20143155e-02, 1.11711174e-02, -2.87646661e-03,
       -3.07897683e-02, 4.58362103e-02, -1.10158445e-02, -1.65161770e-02,
       3.96053083e-02, 1.55434087e-02, 3.29438001e-02, 9.92736034e-03,
       1.37269003e-02, -1.12748891e-02, 6.11610850e-03, -4.68232743e-02,
       -1.67050976e-02, 4.42247689e-02, -3.87008414e-02, -2.20064837e-02,
       8.88773333e-03, 5.86658418e-02, 1.59337427e-02, 2.38458533e-02,
       2.18417924e-02, 5.27921170e-02, -7.57248402e-02, 1.91230867e-02,
       -4.40256856e-03, -5.17267035e-03, 6.95964471e-02, -2.66141761e-02,
       2.63565388e-02, 6.07452020e-02, 4.31654826e-02, -4.58381139e-02,
       2.92024408e-02, 3.87029760e-02, 4.06187661e-02, 4.83774841e-02,
       2.28904225e-02, 6.40310794e-02, 4.09901552e-02, 3.23610306e-02,
       7.75442123e-02, -2.85059470e-03, 7.21120322e-03, 1.16868205e-02,
       2.30513755e-02, -1.91949513e-02, -3.08522787e-02, 1.07431756e-02,
       -1.74655020e-02, 5.00077941e-02, -1.49223274e-02, -6.12755790e-02,
       9.35488380e-03, 1.14232032e-02, 2.37104762e-02, -1.31327391e-03,
       -2.35701166e-02, -4.26574163e-02, -3.67613174e-02, 1.17857028e-02,
       -2.86527630e-02, 4.13350351e-02, -7.04700574e-02, 3.68929096e-02,
       2.94376747e-03, -8.17398354e-02, -1.02465069e-02, -8.08693282e-03,
       7.72332400e-03, -9.02590528e-02, 2.19838172e-02, -7.00976849e-02,
       1.19722426e-01, -5.70829995e-02, -1.03679389e-01, -6.03096746e-02,
       -2.48526894e-02, 1.97837129e-02, -8.74850675e-02, 2.52406225e-02,
       -3.85144688e-02, -1.52247853e-03, -1.00096218e-01,
       -4.46005799e-02, -8.81550014e-02, 1.87734179e-02, 1.39175532e-02,
       1.95095260e-02, -1.37713030e-02, -1.65163117e-04, 2.63464525e-02,
       -5.25109423e-03, 9.96180624e-03, -1.62129495e-02, 8.70599106e-05,
       4.77542309e-03, 5.61404089e-03, -1.13149425e-02, -6.99373186e-02,
       6.64447621e-02, -4.13916679e-03, 3.05023994e-02, -9.14694835e-03,
       7.30694011e-02, -1.06232069e-01, 2.04203613e-02, 6.00904077e-02,
       1.37667228e-02, 2.72938125e-02, -4.11713496e-03, -5.98257296e-02,
       -3.54505889e-02, -9.67147723e-02, -4.36606929e-02, 2.44400208e-03,
       4.60217893e-02, 1.42400721e-02, 2.60332562e-02, -1.05417436e-02,
       -6.80258051e-02, -9.73053556e-03, -1.22121526e-02,
       -3.60532925e-02, 3.82098816e-02, -4.05785977e-04, -7.49847328e-04,
       2.40575653e-02, -3.08592757e-03, -1.14908814e-03, -7.83834886e-03,
       -8.39464646e-03, 2.11368445e-02, 6.23313431e-03, -1.77354477e-02,
       -2.78576296e-02, 2.94642267e-03, -2.73279734e-02, -3.35526988e-02,
       -2.90116481e-02, 4.61772010e-02, 3.31193442e-03, -2.52247043e-02,
       -8.01292807e-03, -1.19811436e-02, 2.15719733e-02, -6.46823086e-03,
       2.65310165e-02, -4.44053672e-02, 4.83552134e-03, 4.18153107e-02,
       -1.30675202e-02, 2.45174542e-02, 1.23850442e-02, 2.59646140e-02,
       -1.68248992e-02, 3.49541642e-02, 6.57849945e-03, -5.43245040e-02,
       -2.79291384e-02, 2.47901790e-02, -5.65299240e-04, -3.59765366e-02,
       7.72005646e-03, -7.31474999e-03, -2.27385275e-02, -4.29005101e-02,
       5.31151192e-03, 4.21910584e-02, -2.86348313e-02, -8.94630235e-03,
       -7.85776079e-02, -5.55063859e-02, 1.88701749e-02, 8.94880854e-03,
       -4.65479381e-02, 3.89632545e-02, -4.85822000e-03, -5.30313030e-02,
       3.99228409e-02, 1.88419983e-01, -8.62500444e-03, -6.19159266e-02,
       -8.75152797e-02, -1.33626787e-02, -4.02686410e-02, 6.32651374e-02,
       -5.66593781e-02, 4.35217330e-03, 7.55609870e-02, 1.14453733e-01,
       -1.54641755e-02, -2.57425406e-03, 2.56991964e-02, -2.14695204e-02,
       -5.30246012e-02, -2.96209124e-03, 6.28272165e-03, -3.82777341e-02,
       -8.14056098e-02, -5.61616383e-03, -9.12366807e-03,
       -3.76982167e-02, 9.64019299e-02, -6.31828010e-02, -9.98397917e-02,
       -9.71322507e-03, 1.13382392e-01, 3.05932071e-02, -9.04299244e-02,
       2.12579034e-03, -2.40023937e-02, 3.83033901e-02, -1.36792576e-02,
       -1.73207968e-01, -2.94463634e-02, -7.07217120e-03, 5.24747334e-02,
       7.29207844e-02, -2.43140571e-02, 3.45597491e-02, -6.29967377e-02,
       1.00104384e-01, -7.22748935e-02, 6.06305478e-03, 1.42136673e-02,
       5.97097054e-02, 7.59387687e-02, -1.83171406e-02, 2.05339678e-02,
       1.57382116e-02, -1.94157120e-02, 7.33413827e-03, -6.01382228e-03,
       3.65572958e-03, -2.49948073e-02, -1.92178171e-02, -1.66502353e-02,
       5.50097739e-03, 6.08985163e-02, -9.22785699e-02, -4.69966829e-02,
       -3.00787445e-02, 1.06000483e-01, 1.64704025e-02, -6.31744415e-02,
       1.79251209e-02, -3.24483700e-02, 8.42971355e-02, -8.14611167e-02,
       -8.29756632e-02, -2.27579344e-02, -3.07933427e-02,
       -3.77518348e-02, 4.05911542e-02, -9.52985045e-03, -2.37524807e-02,
       -4.10243906e-02, -3.14744934e-03, -4.93653342e-02, 6.93078116e-02,
       2.59121805e-02, 1.50145618e-02, 3.32780592e-02, -1.53852417e-03,
       2.68102121e-02, 1.89507119e-02, -6.54938770e-03, 1.28237996e-02,
       -5.30879572e-03, -1.98496021e-02, 2.69589052e-02, 2.60125985e-03,
       1.02525074e-02, -7.78899342e-03, -2.61651701e-03, 3.21564488e-02,
       4.18769754e-03, 3.11820656e-02, 2.47983076e-02, 7.31906248e-03,
       -2.52310024e-03, 1.72388013e-02, -1.06448364e-02, 4.10695225e-02,
       2.26945765e-02, 5.35687506e-02, 1.66156739e-02, 4.91588712e-02,
       3.21644209e-02, 2.96008289e-02, 1.98200848e-02, -3.54333408e-02,
       -1.00784590e-02, -1.17772510e-02, -1.13912961e-02,
       -6.81138365e-03, -5.95632661e-03, 1.48922335e-02, -2.82504559e-02,
       -3.28896008e-03, 4.06137994e-03, -2.84107141e-02, -3.17696333e-02,
       -1.59374811e-02, 9.76009388e-03, 2.93437950e-03, 2.13023843e-04,
       -5.55508886e-04, -1.57994945e-02, -1.16907647e-02,
       -2.02304404e-02, 4.76792119e-02, 1.03245378e-02, -5.42870313e-02,
       1.78738926e-02, 6.88837543e-02, 7.48104900e-02, -4.46685590e-02,
       1.69496853e-02, 5.64672649e-02, 6.04090989e-02, 3.49826403e-02,
       -4.41071466e-02, 4.26075272e-02, 1.52134364e-02, -2.96245571e-02,
       -2.90665608e-02, -2.22406257e-02, -2.97282115e-02, 1.12284772e-01,
       -2.56180745e-02, -4.47792113e-02, -1.02322670e-02, 7.11093377e-03,
       1.04634492e-02, 2.22246330e-02, -4.79934216e-02, -1.52667342e-02,
       -3.05355992e-02, -9.96861681e-02, 5.65784983e-03, -9.62546393e-02,
       -4.34446335e-02, 8.36393535e-02, -3.37974355e-03, -1.99295040e-02,
       -3.73262018e-02, 6.09000996e-02, 4.33314890e-02, -3.76304612e-02,
       -5.13142459e-02, -5.59773436e-03, 1.07938677e-01, -6.07075281e-02,
       -5.19148484e-02, 9.36941579e-02, 1.87487192e-02, 6.50903061e-02,
       -3.90907526e-02, 2.55325828e-02, -9.94618982e-03, 2.36906916e-01,
       -7.21970648e-02, -2.46953834e-02, 6.85238652e-03, -1.65593289e-02,
       -2.46277191e-02, -6.85982108e-02, 4.23893668e-02, -1.64496209e-02,
       -5.10177426e-02, -4.27146517e-02, -3.52285095e-02, 2.08408199e-02,
       -1.95035748e-02, -5.22446074e-02, -4.18204954e-03,
       -6.58721179e-02, 2.39578858e-02, 5.87323979e-02, -3.88874765e-03,
       -3.57809663e-02, -3.71253788e-02, 6.48140442e-03, -5.42174885e-03,
       7.43919378e-03, -3.27621102e-02, -2.17225589e-02, -4.77924757e-03,
       1.10012712e-02, -2.97904760e-03, 1.77803244e-02, 1.06804080e-01,
       2.67631356e-02, -5.48556484e-02, -1.44994156e-02, -1.34529909e-02,
       1.16956353e-01, -5.52485790e-03, -2.55345870e-02, 7.08848760e-02,
       -1.07657723e-02, -4.30148248e-05, -3.15494090e-02, 1.84097514e-02,
       1.51082333e-02, 5.18816933e-02, -2.57894043e-02, -6.36021569e-02,
       9.14901495e-02, -8.77894759e-02, -2.46320087e-02, -1.14370771e-02,
       -1.64482053e-02, -7.75069417e-03, 1.09860431e-02, 3.31639238e-02,
       4.68266048e-02, 2.19969600e-02, -5.08670288e-04, -6.71203388e-03,
       -2.24242751e-02, -7.21538141e-02, -2.12506112e-02, 8.47649667e-03,
       -1.24939745e-02, 1.72880832e-02, 5.80245815e-02, -8.06389377e-04,
       2.50947699e-02, 1.61024015e-02, -2.20963284e-02, -1.24382349e-02,
       -2.55027320e-02, -8.36807769e-03, -3.30608077e-02, 7.78507534e-03,
       -4.04252894e-02, 2.76250560e-02, -1.48005795e-03, 2.27608107e-04,
       1.37847783e-02, -4.18636911e-02, -3.33777703e-02, -5.52557921e-03,
       2.15505622e-02, -8.15671962e-03, -3.01053897e-02, -5.85429883e-03,
       -2.89546363e-02, -3.05571128e-02, -7.14184903e-03, 5.55204190e-02,
       6.42229691e-02, 2.55256388e-02, 5.23091257e-02, 8.55823141e-03,
       4.31522429e-02, -3.74231525e-02, 2.49921270e-02, 1.81797445e-01,
       6.16487563e-02, 2.11143098e-03, 3.53377052e-02, 1.68481693e-02,
       4.23115343e-02, 8.58006813e-03, -4.20173258e-02, 8.78786445e-02,
       2.21600123e-02, -1.14842288e-01, -4.95008901e-02, 6.27336055e-02,
       -5.20245396e-02, 6.39399365e-02, -1.78581309e-02, 3.44747566e-02,
       6.72551477e-03, -5.60522862e-02, -3.93187217e-02, -9.73785575e-03,
       -3.97015065e-02, -3.30169946e-02, -4.01978306e-02, 1.49894264e-02,
       4.26156633e-02, -5.32736033e-02, 3.41302156e-02, 4.40890677e-02,
       7.99984634e-02, 1.16536947e-04, 8.48579314e-03, 4.22857404e-02,
       7.16454983e-02, 1.16924353e-01, 5.12899719e-02, 2.75660343e-02,
       3.14760394e-02, 5.09978160e-02, 3.42986546e-02, 5.98166287e-02,
       4.07407209e-02, -5.98221133e-03, 1.30864764e-02, 4.34384272e-02,
       3.58790532e-02, 4.33610156e-02, -6.68637976e-02, 4.40502353e-02,
       2.84776068e-03, -4.49673785e-03, 1.38911456e-02, 2.74513569e-02,
       3.91580351e-02, 2.62135118e-02, 4.43497719e-03, -3.43284719e-02,
       3.73104289e-02, -5.93937002e-02, -1.15502225e-02, 2.06327289e-02,
       1.91631801e-02, -2.22955290e-02, 2.79970746e-02, -8.62701796e-03,
       3.13736722e-02, -1.82165410e-02, -2.78400071e-02, 3.36981788e-02,
       8.84171575e-02, 4.85795811e-02, 1.67826973e-02, 2.89994348e-02,
       -7.92675652e-03, -1.05380435e-02, 3.95354517e-02, 6.04486326e-03,
       5.79920784e-02, 6.58473596e-02, 6.11502528e-02, 6.80891201e-02,
       -4.49707685e-03, -1.97462346e-02, -1.33954431e-03, 6.78661615e-02,
       3.86886671e-02, -4.62930538e-02, 2.81692054e-02, -5.90863824e-03,
       3.80950943e-02, 5.40272854e-02, -5.26843667e-02, -1.04311056e-01,
       9.81396139e-02, 2.11424176e-02, 4.76094545e-04, 4.93467739e-03,
       -2.41842717e-02, 2.04607309e-03, 2.57186079e-03, 1.55854097e-03,
       1.68585647e-02, 2.48578209e-02, 1.34553027e-03, 2.20751367e-03,
       3.52224777e-03, -8.05649732e-04, 2.49186736e-02, -1.72205679e-02,
       -4.81318459e-02, -1.19294580e-02, 4.95084114e-02, 9.39659029e-03,
       -1.05610199e-03, 7.68231833e-03, -4.80914721e-03, 1.60036492e-03,
       -3.52929272e-02, -5.47880493e-02, -1.64246093e-02,
       -2.20245197e-02, -4.90133651e-02, -4.28441726e-02, 6.38092775e-03,
       -5.94844716e-03, -1.13600520e-02, -5.82736097e-02,
       -1.29265832e-02, 1.15893967e-02, -1.70190558e-02, -4.12286445e-02,
       -1.83793511e-02, -1.01334443e-02, -2.46539619e-02, 5.45218680e-03,
       -2.47961823e-02, 1.43627794e-02, 1.96868591e-02, -2.12070812e-02,
       -4.14760634e-02, 4.94427979e-04, -2.12679915e-02, 2.89768707e-02,
       -1.35846017e-02, 3.88247035e-02, -7.27819130e-02, -1.73365995e-02,
       -4.15705219e-02, 1.80609431e-02, 3.79048176e-02, -8.15028790e-03,
       -2.14819424e-02, 1.73653923e-02, -2.22424176e-02, -3.75348181e-02,
       -2.78080143e-02, -8.94494578e-02, 3.36838886e-02, -1.42194619e-02,
       -1.10435709e-02, -2.37222649e-02, 1.15507198e-02, -1.44657925e-01,
       -5.19027049e-03, 5.21716382e-03, -5.61352782e-02, -2.80845854e-02,
       -6.73277155e-02, 2.58270372e-02, 1.76011771e-02, -5.12032732e-02,
       -7.82070495e-03, 2.86592189e-02, -3.39229740e-02, -1.54587161e-02,
       -8.74037296e-02, -2.00707018e-02, 2.44140197e-02, 6.99840905e-03,
       2.50777882e-02, 1.21002905e-01, 2.68198214e-02, 6.83576707e-03,
       4.73776832e-02, -4.56734225e-02, 1.00692529e-02, -3.94062605e-03,
       -8.84115919e-02, 1.04525104e-01, 7.81907141e-02, 6.64962688e-03,
       9.69231650e-02, -4.89638634e-02, 1.23360470e-01, 1.63551085e-02,
       -4.41275910e-03, -1.54635474e-01, 8.26534033e-02, -1.06162708e-02,
       5.84745817e-02, -6.72230404e-03, -5.13797179e-02, -3.62710617e-02,
       1.08019626e-02, 3.90792713e-02, 2.45388243e-02, -8.35666806e-03,
       1.82365160e-03, -6.40528882e-03, 9.14365239e-03, -1.59669891e-02,
       -5.89341484e-02, -1.83776803e-02, 6.84994385e-02, 1.85599197e-02,
       -1.43123243e-03, 1.05487034e-01, 4.59668459e-03, 4.64520464e-03,
       8.22154582e-02, -2.11452041e-03, 8.13271571e-03, 1.08030595e-01,
       3.35272551e-02, 4.17872844e-03, 2.05809698e-02, 6.82515725e-02,
       5.14691398e-02, 8.67629331e-03, 4.10270877e-02, 2.09331606e-02,
       1.92438196e-02, -6.88529238e-02, 7.74153545e-02, -8.02301150e-03,
       2.51002200e-02, 2.35053357e-02, -1.87372956e-02, -9.48548596e-03,
       8.01943243e-02, 4.46573831e-03, -1.61987562e-02, -2.61437669e-02,
       -7.26080616e-04, -4.89932531e-03, -5.69540747e-02, 3.88243236e-03,
       3.02592642e-03, -1.11156851e-02, -8.27419385e-03, -3.63833411e-03,
       -3.08069419e-02, -4.60385578e-03, 1.79358944e-02, -6.73669716e-03,
       -4.71414328e-02, -1.34801716e-02, 3.57905403e-02, -1.35594476e-02,
       5.83890639e-03, -1.05459187e-02, -3.88779026e-03, -2.64269635e-02,
       -4.14400883e-02, -2.07747146e-02, -1.97949260e-02, 9.22467187e-02,
       -3.73757514e-03, -1.05824973e-02, -4.57145199e-02,
       -2.11671107e-02, 1.16274199e-02, -4.46151244e-03, 1.97060239e-02,
       -2.51094270e-02, 6.97880378e-03, 8.27250723e-03, -1.36474716e-02,
       -3.81716825e-02, -2.50240210e-02, 3.30136418e-02, -3.22413146e-02,
       8.06238595e-03, 5.03734127e-03, -1.88659001e-02, -4.29231413e-02,
       -2.32049245e-02, 5.15732840e-02, -7.32328072e-02, -5.70320189e-02,
       -4.37046066e-02, -4.26736996e-02, -1.44049339e-02,
       -4.29381952e-02, -1.13195339e-02, -5.01662120e-02,
       -3.27617675e-02, 4.22609039e-02, 5.01080509e-03, 1.40044894e-02,
       9.59229376e-03, -1.00988753e-01, 1.09397247e-01, -4.69118915e-03,
       2.02861708e-02, -7.77393356e-02, -3.44575532e-02, 4.24447656e-02,
       -2.69646961e-02, 1.97321810e-02, 4.09957841e-02, -4.67618898e-04,
       2.85460465e-02, -1.35078020e-02, -4.20850925e-02, 2.10665017e-02,
       1.14177924e-03, -4.46875440e-03, 7.71083403e-03, -2.94975378e-02,
       4.60610315e-02, 2.24823169e-02, -9.52097997e-02, 1.52547181e-01,
       2.33665612e-02, -4.08168621e-02, -6.95739836e-02, -7.00668711e-03,
       -2.16958616e-02, 1.02058947e-01, 3.65366004e-02, 6.40587509e-02,
       -5.29785343e-02, 3.07129789e-02, -5.88062890e-02, 8.38054866e-02,
       2.80936938e-02, -4.93874028e-03, 6.03156611e-02, 2.17318330e-02,
       5.28271012e-02, -2.81103589e-02, -1.83003116e-02, 4.28397134e-02,
       6.35389471e-03, 7.66311660e-02, -1.61526108e-03, -5.64210936e-02,
       3.54396589e-02, -1.47902882e-02, -2.92372163e-02, -1.85695272e-02,
       1.64651626e-03, 1.34247644e-02, -1.15239515e-03, 7.33494945e-03,
       3.33055183e-02, 2.74451971e-02, -7.08690062e-02, 1.14018351e-01,
       1.28287997e-03, 7.73476511e-02, 5.81164658e-02, 9.01647955e-02,
       -8.21422115e-02, 1.11420929e-01, -7.00925244e-03, 1.24327671e-02,
       -1.05031929e-03, 3.00346874e-02, 3.13030705e-02, 9.86323059e-02,
       4.79337536e-02, 9.79511719e-03, 5.32714389e-02, 8.37403461e-02,
       -3.30134458e-03, -5.28405160e-02, -2.55159158e-02, 5.73386787e-04,
       7.33274445e-02, 4.02135104e-02, -7.00202510e-02, 2.31081825e-02,
       -5.09177521e-03, 4.58766567e-03, 2.18410068e-03, 8.71728733e-03,
       4.03158646e-03, -4.34956066e-02, -8.35106522e-03, -1.82364415e-02,
       2.00835243e-02, -1.36326859e-02, 2.96117309e-02, 9.92251933e-03,
       4.05249037e-02, -2.72508664e-03, -1.72674917e-02, 1.57267302e-02,
       -5.76815419e-02, -1.13755111e-02, -2.54919920e-02, 9.84962471e-03,
       -1.35535225e-02, 5.91700152e-02, -1.49266375e-02, 1.73196308e-02,
       9.15658288e-03, -3.07695270e-02, -3.94227356e-02, 3.96554766e-04,
       -1.14205172e-02, -1.89053323e-02, 2.88869422e-02, 3.45167448e-03,
       4.87700384e-03, -3.46460543e-03, -7.04751397e-03, -3.38711739e-02,
       1.13680894e-02, 1.44522525e-02, -2.04072436e-04, 1.16104018e-02,
       1.36956815e-02, -6.52847439e-02, -5.67820622e-03, -8.76123272e-03,
       3.15333456e-02, 5.05485758e-02, 3.60755287e-02, 2.07351241e-02,
       1.31717697e-02, 2.09014025e-02, -7.07269236e-02, 1.74200442e-02,
       -5.15545392e-03, 1.10492688e-02, 9.25143436e-03, -3.41021195e-02,
       4.57699373e-02, -6.63488172e-03, 1.99251547e-02, 2.40447689e-02,
       -5.87904267e-02, 3.62311793e-03, 3.97502445e-02, 2.84604989e-02,
       -2.11058115e-03, -3.71167511e-02, -2.08298787e-02, 8.64740536e-02,
       5.09180538e-02, 7.48763978e-02, -2.52337232e-02, 2.07807999e-02,
       2.74383854e-02, 1.99390426e-02, -1.47254905e-02, 9.32682306e-03,
       1.77151058e-02, -1.16243558e-02, -2.79769371e-03, 9.56432428e-03,
       8.27391353e-03, 6.52438328e-02, 1.17028253e-02, 7.98716471e-02,
       9.09707416e-03, 8.97038504e-02, -5.73919117e-02, 2.46019103e-02,
       -2.49612320e-04, -4.20857128e-03, 3.62877585e-02, 2.12356448e-02,
       4.92145978e-02, -1.18671097e-02, 1.03638746e-01, 1.03142224e-01,
       2.44860295e-02, -1.59639501e-04, 7.12101022e-03, -4.47873138e-02,
       2.26954073e-02, -1.14684682e-02, -4.22740616e-02, -3.55664385e-03,
       -1.98784648e-04, 6.60069063e-02, 8.13549198e-03, 2.54601501e-02,
       1.22845853e-02, 1.05218252e-03, 1.64464079e-02, 8.33904464e-03,
       -7.58784823e-04, 1.68367326e-02, 4.64427061e-02, -9.62387118e-03,
       -9.30988463e-04, 2.54602246e-02, -3.42914392e-03, 2.90211886e-02,
       -3.79063971e-02, 1.49632022e-02, 2.22947244e-02, 3.33051495e-02,
       -2.07691286e-02, 4.95075732e-02, 1.68106635e-03, 3.27773020e-02,
       7.12839514e-02, -4.10445780e-02, 7.15795681e-02, 2.61696279e-02,
       -2.56952830e-02, 8.70896690e-03, -2.93806791e-02, 8.68791435e-03,
       5.70008112e-03, -3.28173041e-02, -6.86281361e-04, 6.43439405e-03,
       -4.79100533e-02, -1.95759274e-02, -1.77211910e-02, 2.44223494e-02,
       -4.21450892e-03, 3.37499101e-03, 3.07814451e-03, 4.86790994e-03,
       -6.04080316e-03, -2.07985844e-02, -3.28863598e-02, 3.92801216e-04,
       -4.35064454e-03, -1.36111630e-02, -3.33570950e-02,
       -2.84943786e-02, 3.50429192e-02, -2.00266503e-02, -7.18641793e-03,
       3.06843803e-03, -2.11235881e-02, -2.01668292e-02, 1.21484706e-02,
       -2.44129598e-02, -3.78357037e-03, 1.41422944e-02, -1.17587289e-02,
       7.01372512e-03, -1.46561582e-02, -3.47273424e-02, -9.46437847e-03,
       9.58034396e-03, -1.39389536e-03, -2.64059380e-02, -1.58777498e-02,
       -4.82324883e-03, -7.48039503e-03, 2.35471549e-03, -4.30515781e-03,
       -3.87077243e-03, -1.98378116e-02, 8.04000162e-03, 4.56409715e-03,
       -7.79058412e-03, 1.49169918e-02, -6.71912655e-02, -1.21822185e-03,
       2.01926604e-02, 1.02889193e-02, -4.14294563e-03, 2.79397126e-02,
       4.08011861e-02, -2.04618908e-02, -3.80795682e-03, -2.53964476e-02,
       9.01233554e-02, -8.73252004e-02, 3.31823528e-02, 9.85737331e-03,
       2.80515198e-02, -3.63180414e-02, -4.24587578e-02, -4.72979285e-02,
       -7.09774485e-03, -1.04508877e-01, -1.36600789e-02,
       -6.84057316e-03, -5.33778667e-02, -3.56683284e-02, 7.48762209e-03,
       -2.56606638e-02, -4.19243276e-02, 3.01395301e-02, 4.70695570e-02,
       -6.45626113e-02, -3.64572555e-02, -1.62059199e-02, 2.38219574e-02,
       3.91067890e-03, -4.44552489e-03, 7.70349940e-03, -1.25962906e-02,
       5.15943766e-02, -2.88573792e-03, 1.08654087e-03, -1.46113798e-01,
       5.17338775e-02, 1.33368760e-01, -8.31470490e-02, -6.44281209e-02,
       -6.58043288e-03, 8.27523768e-02, -4.53987047e-02, 1.53055815e-02,
       -9.30986181e-02, -1.14544541e-01, 5.69279771e-03, -1.92538705e-02,
       -3.11312266e-02, -5.26515767e-02, 4.75911573e-02, -9.79215652e-03,
       1.21420640e-02, 1.44014950e-03, 1.07989749e-02, 3.00130565e-02,
       -3.89857627e-02, -3.99797484e-02, -5.09710833e-02, 5.50367162e-02,
       2.22188747e-03, -6.01082817e-02, 1.03427460e-02, 5.85914403e-03,
       -2.02330179e-03, -2.07032659e-03, 9.66492109e-03, -2.18474232e-02,
       3.39926733e-03, -5.49870124e-03, 3.75141650e-02, -4.10998128e-02,
       -4.70790900e-02, -9.83853824e-03, -2.73238420e-02,
       -2.69316602e-03, -9.79926996e-03, -2.71203835e-02,
       -7.30391964e-02, 6.63000867e-02, 4.89083529e-02, -5.71822561e-03,
       -2.17575338e-02, -4.77384552e-02, -1.67385489e-02,
       -1.34120509e-02, 1.77098382e-02, -8.01859647e-02, 6.36557192e-02,
       -3.00527038e-03, 3.51953283e-02, 8.04364961e-03, -2.30812076e-02,
       -2.62649916e-02, -4.28015329e-02, 3.58941779e-02, 8.71231593e-03,
       -1.97058283e-02, -1.59675293e-02, -1.97614823e-02,
       -1.91869065e-02, -4.77159629e-03, 5.34708844e-03, -1.42127555e-03,
       4.40950170e-02, -1.95271149e-02, -2.45869067e-02, -2.68075839e-02,
       8.82064365e-03, 2.52633326e-04, -3.37476730e-02, 2.57110503e-03,
       -2.13168710e-02, 7.68911615e-02, 4.16948460e-02, -2.72549260e-02,
       -1.25755984e-02, -3.02891117e-02, 3.82891558e-02, 5.44791035e-02,
       -2.96767056e-03, 1.16181828e-03, -3.41048418e-03, 8.03627521e-02,
       -1.23527441e-02, 1.38247712e-02, 4.27074032e-03, 3.95965530e-03,
       2.48258002e-02, -9.04761348e-03, -4.45574243e-03, 1.93028711e-02,
       -4.04632464e-02, 3.43605061e-03, -2.89062615e-02, -1.97932404e-02,
       -2.47795470e-02, -3.51414667e-03, -2.32436452e-02, 1.84519403e-03,
       8.59642848e-02, -4.52877283e-02, -4.25948016e-02, -6.37720898e-02,
       7.07470328e-02, 3.28051820e-02, -1.58654545e-02, 1.34049952e-02,
       -4.28910144e-02, 1.31912470e-01, 4.94568683e-02, 3.36697325e-02,
       -4.60800044e-02, 2.51204465e-02, -2.02408135e-02, 6.81842258e-03,
       1.01935007e-02, -4.09462564e-02, 3.91951762e-02, 9.00609791e-02,
       -9.50094312e-03, 6.51011392e-02, 4.27299999e-02, 2.45080274e-02,
       -2.22723912e-02, 1.29257301e-02, -2.62541417e-02, 6.25247583e-02,
       4.81649162e-03, -1.13166086e-02, -6.95141451e-03, -4.11779992e-02,
       -1.96634289e-02, -8.11302569e-03, -1.01699397e-01, 3.40312496e-02,
       8.46458301e-02, 4.89056259e-02, -4.19390686e-02, -2.24450342e-02,
       -1.47594337e-03, 8.64062551e-03, 1.19308986e-01, 1.60430074e-02,
       4.89518344e-02, 3.55767570e-02, -1.12963216e-02, 3.00172102e-02,
       3.38307768e-02, -3.30654755e-02, -3.69970873e-02, -2.75861602e-02,
       4.64888178e-02, -4.97437306e-02, 5.68741523e-02, -2.93414351e-02,
       -6.97861752e-03, 2.05270331e-02, 2.84469966e-02, 8.02673474e-02,
       -1.02213921e-03, 2.14934535e-02, 2.97015291e-02, 7.60028437e-02,
       5.53355142e-02, -1.23948324e-02, -4.25855666e-02, -2.57207118e-02,
       -5.03703989e-02, -2.00200658e-02, -9.03807208e-03, 3.91909741e-02,
       3.44142281e-02, 5.52552529e-02, -7.05367625e-02, -4.95770350e-02,
       5.37792109e-02, -7.02404603e-02, 5.08867837e-02, -8.76964852e-02,
       3.83449867e-02, -7.18694478e-02, -1.35066602e-02, -2.74982136e-02,
       -4.70132045e-02, -1.91325471e-02, -2.47131288e-03, 2.70044040e-02,
       -1.01751097e-01, -5.32969907e-02, 1.55176111e-02, 1.69471595e-02,
       -1.05820084e-02, -1.18809100e-02, -1.35835102e-02,
       -5.34059154e-03, 2.76468899e-02, 2.16871817e-02, 3.04023400e-02,
       3.73928361e-02, 5.13808727e-02, -1.97815951e-02, 6.02056971e-03,
       -1.32533219e-02, -1.41244074e-02, 2.70090364e-02, -2.14710110e-03,
       1.24805244e-02, 9.56719741e-03, 1.67227928e-02, 8.67989752e-03,
       2.05918476e-02, 4.14383337e-02, -1.41889686e-02, 8.96124728e-03,
       2.55155261e-04, 4.84616235e-02, 5.77475280e-02, -5.40521229e-03,
       3.19849998e-02, -9.42479167e-03, 2.52664238e-02, -1.70850698e-02,
       8.06984529e-02, -1.01036970e-02, 3.73445675e-02, 1.31317135e-02,
       -4.67999540e-02, -5.87074738e-03, -2.04970017e-02, 1.11313714e-02,
       -1.23607581e-02, 5.27232792e-03, -8.15892185e-04, -5.79072535e-03,
       3.21363546e-02, -3.24163027e-02, -2.53984928e-02, 2.08085310e-02,
       -4.37845662e-02, -1.77916493e-02, 5.99309094e-02, 1.49754360e-02,
       -3.12327291e-03, -7.57296663e-03, 1.14077283e-03, -4.34824117e-02,
       8.72983038e-02, -1.90003146e-03, -6.86062947e-02, 4.49694926e-03,
       5.61334826e-02, 5.56198545e-02, 3.17074135e-02, 9.06820148e-02,
       2.33964603e-02, 1.26317460e-02, 1.07673435e-02, -3.66474167e-02,
       2.53957119e-02, 2.27364488e-02, -2.91126147e-02, 4.60189022e-02,
       1.60177052e-02, 2.64268778e-02, -7.11530168e-03, -4.28928947e-03,
       -3.13201509e-02, 6.00580536e-02, -8.02868232e-03, -4.82166111e-02,
       1.36049688e-01, -8.73102471e-02, -2.57955380e-02, 3.96530889e-02,
       -5.81594817e-02, -4.18300182e-03, -5.49557677e-04,
       -5.34023670e-03, -2.68985108e-02, 4.22167723e-05, -2.87002400e-02,
       -3.44634205e-02, 1.05531253e-02, -3.35727222e-02, 6.09784946e-02,
       4.24856767e-02, -2.52250396e-03, 2.06750669e-02, 3.98927405e-02,
       2.54433788e-02, -2.94873733e-02, 1.86484605e-02, 9.11530331e-02,
       3.39028239e-02, -7.58751929e-02, -7.38829300e-02, 9.19067189e-02,
       4.32099923e-02, -1.95067190e-02, 1.48737999e-02, -7.46414661e-02,
       -1.24157844e-02, -4.36307583e-03, -3.95735353e-02,
       -4.10626344e-02, 7.99665153e-02, 1.52872249e-01, -2.47918218e-02,
       3.12522352e-02, -1.75062604e-02, -2.67736167e-02, -6.30807579e-02,
       7.87474029e-03, -2.21242756e-02, -1.55736255e-02, 3.20551060e-02,
       -2.55903285e-02, -3.65116112e-02, -8.27987213e-03,
       -3.93875465e-02, 1.26124416e-02, 7.24757090e-02, -5.84650636e-02,
       -1.43194310e-02, 6.67845309e-02, 1.02837067e-02, -3.97460051e-02,
       -3.21347080e-02, 2.20616572e-02, 3.31861265e-02, 4.39199852e-03,
       -7.76084214e-02, 6.04855977e-02, -1.19528156e-02, 1.08919414e-02,
       2.14482415e-02, -4.89323698e-02, -2.98775155e-02, 2.51102960e-03,
       -6.89242082e-03, -5.95353246e-02, 6.10715337e-02, 4.79776114e-02,
       1.91109441e-02, 2.93524582e-02, -9.45221633e-03, 3.18712415e-03,
       -1.42499655e-02, 1.94034204e-02, 4.94254148e-03, 4.77609262e-02,
       4.26693223e-02, 2.73265480e-03, 5.51461987e-03, -7.72683788e-03,
       8.84186849e-03, 1.26388278e-02, 2.68172030e-03, -2.30079368e-02,
       -4.67647389e-02, 5.80848418e-02, -5.14868135e-03, -3.70421484e-02,
       -1.38280625e-02, -8.62881262e-03, -1.39666330e-02,
       -1.43357804e-02, 5.48620848e-03, -7.74421841e-02, 2.17187833e-02,
       5.59845418e-02, -3.57301235e-02, -4.79779579e-03, 1.25848353e-02,
       8.36363062e-03, -2.99798790e-02, 1.01727748e-03, -1.03541370e-02,
       4.10541669e-02, 2.23605754e-03, 9.27687250e-03, 1.74524412e-02,
       -6.91164378e-03, -2.35001948e-02, 6.16971925e-02, -2.71586678e-03,
       2.21832786e-02, 3.90868969e-02, -5.12650004e-03, 3.96479927e-02,
       4.41072462e-03, -6.47685155e-02, -2.78807618e-03, 1.32378042e-01,
       4.76538241e-02, -1.09631799e-01, 6.92616627e-02, -2.04513315e-02,
       -1.88198201e-02, 6.81191683e-02, -1.63186397e-02, 6.16816990e-02,
       3.70545499e-02, 5.43479957e-02, -1.80532131e-02, 1.07785827e-02,
       3.56550468e-03, -1.21121846e-01, 3.27223390e-02, -3.37074921e-02,
       -1.37498109e-02, -1.60260107e-02, -2.61621028e-02,
       -4.36156057e-02, 1.58784762e-01, -1.85989868e-02, 1.48453722e-02,
       3.37313600e-02, -6.52872899e-04, -1.44173782e-02, -5.22411196e-03,
       -3.82150486e-02, 3.92921120e-02, 7.86746368e-02, -4.74468514e-04,
       4.89092320e-02, 4.03552409e-03, -8.48386884e-02, 5.33609688e-02,
       9.19174626e-02, 1.08095380e-02, -1.94393806e-02, 1.20269358e-01,
       2.62202006e-02, -8.49748263e-04, 2.59509180e-02, 2.77930088e-02,
       7.61847869e-02, 5.49337268e-02, 1.95274800e-02, -5.27360328e-02,
       -3.57639231e-02, 3.14165875e-02, 1.73183829e-02, -1.55470362e-02,
       -1.00333273e-01, -3.43088843e-02, 3.16000506e-02, 4.14969437e-02,
       1.71098188e-02, 6.22262433e-02, -1.05427578e-01, -3.03275660e-02,
       4.81884927e-04, 7.51051493e-03, -3.62155610e-03, -1.33854644e-02,
       -1.17961988e-02, 6.54583797e-02, 1.69566832e-02, -1.73386913e-02,
       2.50026640e-02, 1.45940073e-02, 6.79963827e-03, 6.16644472e-02,
       3.24617848e-02, -9.35991332e-02, 4.49792482e-02, 2.14049146e-02,
       -2.63897981e-02, 7.38669261e-02, -5.37587237e-03, -8.79403111e-03,
       4.70918827e-02, -2.77958903e-03, -7.53210634e-02, 6.74960436e-04,
       2.43431758e-02, 2.24512015e-02, 8.56352895e-02, 5.68385012e-02,
       3.03427340e-04, 6.40844135e-03, -1.06081357e-02, -3.31458226e-02,
       -4.87831533e-02, 2.79963128e-02, 1.39937764e-02, -6.70851097e-02,
       3.72968498e-03, 1.98854506e-03, -8.70125275e-03, 2.64892098e-03,
       -1.01740670e-03, 6.35121902e-03, -6.05917117e-03, 8.17727763e-03,
       2.98565323e-03, 1.96947027e-02, 9.97210201e-03, 9.00668930e-03,
       -6.83447532e-03, 1.31273707e-02, 1.55435959e-02, 2.50976458e-02,
       -1.91559978e-02, 3.09925489e-02, 1.50433443e-02, -9.70209483e-03,
       1.29350200e-02, -3.10297012e-02, -7.01367408e-02, 2.06431467e-03,
       1.99610014e-02, 3.63319218e-02, 2.21065637e-02, 9.44148004e-03,
       -3.95604074e-02, 3.38771679e-02, -8.55140481e-03, -4.21479903e-02,
       -4.58720699e-03, -1.59935057e-02, -2.98780054e-02, 3.56598049e-02,
       5.46493642e-02, -1.03772059e-02, -3.43645900e-03, 1.48795098e-02,
       -3.27245742e-02, 2.49395017e-02, -2.08979938e-02, -1.69348344e-02,
       -3.12832533e-04, 8.36458951e-02, -4.81832176e-02, -2.64901835e-02,
       9.70760509e-02, -2.08714558e-03, -9.11805034e-02, 8.89057666e-02,
       3.56663167e-02, 8.38425085e-02, 9.03157368e-02, 3.97192836e-02,
       2.93045864e-02, -1.82802361e-02, 2.91896891e-02, -2.68503148e-02,
       1.02476720e-02, 2.68430071e-04, 3.30902301e-02, -2.79984232e-02,
       -5.65575026e-02, 7.10481554e-02, -5.85859045e-02, -4.85019423e-02,
       -2.63686907e-02, 1.26367575e-02, 9.90184955e-03, 3.47029418e-02,
       6.71114121e-03, -3.11334077e-02, -5.90314018e-03, 1.61125176e-02,
       1.18469903e-02, -2.09053643e-02, -5.23767732e-02, -6.07413799e-02,
       1.96483266e-02, 6.69240132e-02, -1.14226744e-01, -8.63857791e-02,
       6.81890268e-03, 4.46545295e-02, -8.78143311e-03, 6.00493699e-02,
       -8.18655789e-02, 3.58387195e-02, -5.58484495e-02, 2.49719098e-02,
       3.52821387e-02, -1.05617028e-02, 6.89672977e-02, -2.78017391e-02,
       2.93458328e-02, -6.92000762e-02, 1.02153011e-01, -7.99099207e-02,
       -5.05810454e-02, -3.26364376e-02, -7.98371434e-03, 3.68887074e-02,
       -1.34899523e-02, 3.52914259e-03, -2.52634436e-02, 6.48721773e-03,
       2.80957967e-02, -4.57364600e-03, 3.03059164e-03, -2.24165879e-02,
       -2.84976093e-03, -1.60438777e-03, 2.07605073e-04, -5.43990172e-02,
       4.02948447e-02, 1.51141688e-01, 1.92274004e-02, -1.56214405e-02,
       -3.41854915e-02, -2.63891611e-02, -1.99518669e-02,
       -1.43983560e-02, -1.64287575e-02, 1.41864130e-02, 6.36074841e-02,
       -3.03500108e-02, 1.92571189e-02, -2.30520833e-02, -6.04490237e-03,
       1.34565681e-02, 6.42044023e-02, 6.72584306e-03, 1.15086518e-01,
       3.24117579e-02, -4.17989045e-02, -7.94448424e-03, 4.46520234e-03,
       -3.13271321e-02, -3.37489694e-02, -4.02520150e-02, 1.13288444e-02,
       9.03172418e-02, 7.35577056e-03, -4.71251522e-04, 5.88858640e-03,
       1.37724485e-02, -8.09429027e-03, -3.88052575e-02, -2.69531533e-02,
       1.06459241e-02, 1.80728473e-02, 1.34617288e-03, -2.96401139e-02,
       6.75724894e-02, -2.77909101e-03, -3.36881801e-02, -1.86130702e-02,
       -5.09035960e-02, -1.80067290e-02, 3.85745578e-02, -6.18875073e-03,
       2.91575752e-02, 2.67245509e-02, 3.43182087e-02, -5.29568717e-02,
       2.58190744e-02, -8.87076557e-03, -2.86373403e-02, 5.06129581e-03,
       1.70778930e-02, -4.78391361e-04, 3.51833785e-03, 1.85396839e-02,
       -1.09654963e-02, -9.72304679e-03, 7.61320442e-03, -4.56292145e-02,
       -9.93427262e-03, 1.52285639e-02, 7.09352549e-03, 1.95588060e-02,
       -1.47719383e-02, 2.20329463e-02, -6.80579469e-02, -4.84380834e-02,
       3.31090540e-02, 1.96348876e-02, -8.54642875e-03, -6.20251112e-02,
       1.01124562e-01, -3.14729288e-02, 1.44430231e-02, -8.03574622e-02,
       5.53899771e-03, -2.82314494e-02, 3.68575193e-02, 2.82175038e-02,
       -2.41557118e-02, 5.08260727e-02, -3.29130143e-02, -1.76339671e-02,
       -2.29345802e-02, 1.04553122e-02, -7.44740292e-02, 2.06698049e-02,
       3.62995360e-03, -2.53207125e-02, -1.32797025e-02, 1.74392154e-03,
       -2.70645283e-02, 3.65035385e-02, 1.96921024e-02, -1.35202944e-01,
       3.75744398e-03, -7.11517455e-03, 5.43636233e-02, 1.68372635e-02,
       -4.58924547e-02, -5.64419338e-03, -6.29092976e-02, 9.14977025e-03,
       5.96410770e-04, 4.64429334e-02, -2.27849875e-02, -3.74043696e-02,
       -2.02465244e-02, -3.58986639e-04, 3.65334973e-02, -9.67258364e-02,
       -3.59731447e-03, -1.96186919e-02, 3.21650691e-02, 3.66260186e-02,
       -6.74519613e-02, 3.89503501e-02, -6.37878999e-02, 1.67684108e-02,
       7.41851032e-02, 1.44558083e-02, -6.60835728e-02, 1.47941172e-01,
       -5.82112512e-03, -2.83644497e-02, 7.39475414e-02, -5.76722510e-02,
       1.12898257e-02, 7.89776519e-02, 2.95869373e-02, -6.75402507e-02,
       2.38720290e-02, 1.49482405e-02, -4.33434546e-03, 5.59113873e-03,
       -2.36821771e-02, -1.61218438e-02, 1.81040298e-02, 5.59517518e-02,
       -6.21011667e-03, 1.21518541e-02, 2.36337073e-02, -5.71349487e-02,
       -2.59107202e-02, 2.45761722e-02, -2.67288014e-02, -3.96735482e-02,
       3.22616585e-02, 2.69663404e-04, 2.87595671e-02, 9.60486829e-02,
       -5.32631055e-02, -9.73393209e-03, 4.64359559e-02, -1.18137281e-02,
       -6.33468386e-03, -1.28645953e-02, 5.09367697e-03, 1.51437288e-02,
       1.41390979e-01, -8.09344556e-03, 1.13293929e-02, -3.22017707e-02,
       -3.37432735e-02, 4.50602658e-02, 3.34338821e-03, -4.72125486e-02,
       7.17455223e-02, 1.49085391e-02, 2.88804024e-02, 6.76293904e-03,
       1.09441755e-02, 1.52022503e-02, 8.99891090e-03, -2.20538699e-03,
       -4.94269654e-03, -5.48216980e-03, 3.53620052e-02, -3.31736309e-03,
       -6.12032018e-04, -7.78941670e-04, 4.20384221e-02, -4.50555943e-02,
       -3.21548409e-03, -2.07606461e-02, -1.09390402e-02,
       -1.64851509e-02, -1.27948625e-02, -6.48075622e-03, 1.27660148e-02,
       6.47178814e-02, 2.72794254e-03, -2.67929789e-02, -1.51319113e-02,
       -4.26614806e-02, -1.10534411e-02, -2.23456789e-02,
       -6.29019886e-02, -1.80150755e-02, 5.59900934e-03, 6.03220891e-03,
       -3.62167768e-02, -5.70665523e-02, -2.11738367e-02, 2.85513718e-02,
       6.19845577e-02, 5.20967878e-02, -3.05875065e-03, 1.86036769e-02,
       -1.00684818e-02, -2.73246113e-02, -2.23625582e-02,
       -9.37664881e-03, 3.47522907e-02, -2.74856202e-02, -4.36613485e-02,
       -6.38641566e-02, -1.16867600e-02, -5.89348860e-02,
       -5.41644320e-02, -3.80493626e-02, 4.58630081e-03, 1.39310751e-02,
       7.53456801e-02, -2.75710188e-02, -8.12076926e-02, 4.39509563e-03,
       -1.94170810e-02, -1.28104175e-02, -2.18577385e-02,
       -9.51555595e-02, -4.87255901e-02, -5.90091795e-02,
       -1.26120374e-01, 5.16145118e-03, -3.47261783e-03, 1.58761851e-02,
       -2.16381811e-02, -6.47585690e-02, -5.43108508e-02, 1.29152676e-02,
       3.42998542e-02, 6.43962920e-02, -1.50308423e-02, -5.32369502e-03,
       -3.45774256e-02, -7.45400712e-02, -4.77613695e-02, 3.53506841e-02,
       9.13834106e-03, -2.85628671e-03, 5.04349284e-02, -7.40322098e-02,
       2.48860121e-02, -6.83707595e-02, -1.77174760e-03, 3.24361511e-02,
       3.23483758e-02, -7.91372266e-03, 1.84347630e-02, -1.30848840e-01,
       -6.83105364e-02, 3.59149799e-02, 1.59730986e-01, 4.07373309e-02,
       -4.92599569e-02, 1.97575078e-03, 3.04382909e-02, -1.66490264e-02,
       -5.36963157e-02, -4.07501170e-03, -4.72756624e-02, 1.14067286e-01,
       4.18418944e-02, -3.70382741e-02, -1.60187818e-02, 3.87097597e-02,
       1.05973342e-02, 3.03017534e-03, 1.78874712e-02, -3.23098637e-02,
       5.12870448e-03, -3.39597054e-02, -7.39958137e-02, -1.73332468e-02,
       3.55147710e-03, -1.60044543e-02, -9.15773958e-03, -5.50575443e-02,
       -6.19669557e-02, 8.53604898e-02, 6.22778758e-02, -8.22646320e-02,
       3.32346633e-02, -4.16640379e-02, -1.02526369e-03, -4.86042202e-02,
       -6.31973371e-02, -1.15016639e-01, 1.12669267e-01, 3.52635086e-02,
       -4.41569798e-02, 1.36431837e-02, 1.19670304e-02, 9.22365207e-03,
       4.60320711e-02, -2.80807018e-02, -4.57153283e-02, 4.85051423e-02,
       -5.16772158e-02, -3.59533913e-03, 3.26052395e-04, 1.36648854e-02,
       6.80102333e-02, 3.16335596e-02, 3.36567126e-03, 1.36918407e-02,
       2.65155975e-02, -5.86406281e-03, -1.00142648e-02, -1.17570609e-02,
       -4.21636291e-02, 2.97710896e-02, 5.50586134e-02, -2.98784599e-02,
       -2.41039842e-02, -2.27972586e-02, 1.38162973e-03, -2.82605458e-02,
       8.80713668e-03, -2.14959066e-02, -6.46693930e-02, -5.14538772e-03,
       -1.28467185e-02, -5.21719642e-03, -8.77030659e-03, 4.73764539e-03,
       -3.81020270e-02, 2.05935296e-02, -7.66699668e-03, -1.42720137e-02,
       1.20153278e-02, -1.18019450e-02, 1.40664186e-02, -1.45666329e-02,
       7.29021616e-03, -2.74778847e-02, -2.88672745e-02, 4.36088145e-02,
       1.96332186e-01, 3.02632041e-02, 5.89162298e-03, -1.76262402e-03,
       -3.06997392e-02, -2.50333026e-02, -9.21812560e-03,
       -3.72449830e-02, -8.72365907e-02, 5.97863905e-02, -2.31949985e-03,
       2.41906792e-02, -2.68342886e-02, -5.51732853e-02, -3.66713554e-02,
       -3.00639383e-02, -4.95177601e-03, 7.90266879e-03, 1.88519619e-02,
       -9.93078575e-02, -1.07667290e-01, -1.27984593e-02,
       -4.01124507e-02, 1.09137215e-01, -4.76877801e-02, 5.75109897e-03,
       2.41161194e-02, -2.54091453e-02, -4.92460914e-02, 5.63912047e-03,
       -1.10336076e-02, -4.81770933e-02, 7.12876618e-02, -4.07947563e-02,
       -5.93572804e-05, 1.45946117e-02, 1.39330208e-01, 1.16807036e-02,
       1.46182710e-02, -4.74304846e-03, -2.41175704e-02, -4.06281166e-02,
       -2.37310659e-02, -1.36671998e-02, -3.58526893e-02, 2.40373556e-02,
       -6.75323606e-02, 3.33382078e-02, 1.22241667e-02, -1.11436024e-02,
       3.94203514e-03, 2.09664181e-02, -3.55969556e-02, -3.02944500e-02,
       -9.76515375e-03, -9.04680416e-03, -2.33549159e-02, 2.39668487e-04,
       -6.29141089e-03, 8.06556493e-02, 8.15310925e-02, -2.43598431e-01,
       -6.88098148e-02, -4.01140787e-02, 9.50476713e-03, 1.75159369e-02,
       -4.77809459e-02, 7.56176002e-03, 6.09297268e-02, -5.90256648e-03,
       4.51454194e-03, -2.88851392e-02, 1.72202680e-02, 3.30944285e-02,
       1.52718145e-02, -1.94359608e-02, -2.78228358e-03, -3.72512117e-02,
       -2.58134250e-02, 1.71958618e-02, -5.17211817e-02, -5.28454036e-02,
       6.62877187e-02, -6.02314249e-02, -2.26541366e-02, -2.36880290e-03,
       -4.24150601e-02, 5.18255495e-02, 1.13069769e-02, 3.92662100e-02,
       -3.40082124e-02, -6.54135570e-02, -5.45429764e-03,
       -4.55236547e-02, 3.67461843e-03, -1.53709408e-02, 7.75703117e-02,
       9.49234935e-04, 1.37392189e-02, 6.54176474e-02, 4.09431290e-03,
       -1.69807822e-02, -2.63429210e-02, 5.36317425e-03, 8.75074998e-04,
       -2.33431477e-02, 4.10325527e-02, -7.65751814e-03, -2.28729714e-02,
       -6.01003133e-03, -1.29027134e-02, -2.47949213e-02, 2.86201481e-02,
       2.61819195e-02, 1.80869009e-02, -6.55298214e-03, -2.73434091e-02,
       -1.82155613e-02, -2.74894591e-02, 2.10389011e-02, -5.99982496e-03,
       6.84950277e-02, 7.88718928e-03, 6.97197691e-02, 1.30774835e-02,
       8.55357572e-03, -2.74728541e-03, 9.86126438e-03, -1.93558866e-03,
       -9.54739656e-03, 1.21937562e-02, -1.99930258e-02, 7.65966438e-03,
       8.84928275e-03, 1.69804003e-02, 8.08602944e-03, 1.00991167e-02,
       -7.12453693e-05, 1.44247934e-02, -3.92212206e-03, -1.93709071e-04,
       3.72027904e-02, 5.06774522e-03, -4.92750779e-02, -5.04836738e-02,
       -2.38139462e-02, -2.85008810e-02, 4.86037768e-02, 6.19351789e-02,
       3.24048623e-02, 9.48684737e-02, -2.66482029e-02, -5.89494966e-02,
       3.41140479e-02, -5.86038530e-02, 1.84447151e-02, -2.92186551e-02,
       4.90183532e-02, -3.77236977e-02, 1.12449653e-01, 3.05361561e-02,
       -5.58359846e-02, -4.99233454e-02, -4.36714152e-03,
       -4.39271182e-02, -6.74209669e-02, -1.03215918e-01, 3.68583240e-02,
       3.01236454e-02, 9.97158065e-02, -6.37906343e-02, -3.01727280e-02,
       -3.03533338e-02, 1.59418024e-02, 9.16266292e-02, -7.22572133e-02,
       -8.27469453e-02, 1.07148878e-01, 3.77334580e-02, -2.87134703e-02,
       -1.81605872e-02, -5.82090914e-02, -4.66889404e-02,
       -1.94354111e-03, 4.07567210e-02, 9.60135832e-02, 6.39315769e-02,
       -1.20736472e-02, -7.73025975e-02, 6.05805069e-02, 3.51824574e-02,
       1.35518238e-01, -1.07797407e-01, 1.26433047e-03, -9.05337557e-03,
       3.82521003e-03, 2.41176896e-02, 6.25163410e-03, -9.68157053e-02,
       -6.59512207e-02, 7.92104304e-02, -1.27145156e-01, -2.51422282e-02,
       3.59403230e-02, 2.30651442e-02, 9.33735892e-02, -7.46897131e-04,
       -2.69675422e-02, -7.03639016e-02, -1.02223735e-03,
       -2.88991798e-02, -1.42536648e-02, -9.92145687e-02, 8.20143819e-02,
       2.16144174e-02, -4.56812903e-02, -2.12435201e-02, -2.79624630e-02,
       -1.39325233e-02, 2.18241010e-03, 3.08783222e-02, -5.62156271e-03,
       -2.76139025e-02, -3.75598744e-02, -1.49288308e-02,
       -3.57750952e-02, -7.25675235e-03, -1.02131469e-02,
       -4.85531874e-02, -3.28455307e-02, -5.10565192e-02, 1.31144272e-02,
       4.07717489e-02, -2.50071008e-02, -2.17445288e-02, -4.05258834e-02,
       3.44363302e-02, 8.36208835e-03, -2.93546692e-02, -4.14824039e-02,
       1.17055802e-02, 8.31441358e-02, -1.53603707e-03, -1.71026662e-02,
       -3.16198282e-02, -1.76456124e-02, -2.55531687e-02,
       -8.27148464e-03, 4.13030721e-02, -7.55310617e-03, 1.53004136e-02,
       1.13197519e-02, 6.02772506e-03, 2.01545116e-02, -8.93246790e-04,
       -6.24707388e-03, 2.92692017e-02, 1.67133119e-02, -4.64371685e-03,
       6.27325336e-03, 6.52796880e-04, -2.70155407e-02, 1.15176672e-02,
       6.41573104e-04, 3.88501748e-03, 2.14653667e-02, 1.24309110e-02,
       1.95024461e-02, 1.90534256e-02, -8.12030025e-03, 1.69384982e-02,
       -1.00611718e-02, -2.88473237e-02, -2.08909437e-02, 7.20560970e-03,
       6.83030533e-03, -3.85966618e-03, -7.66361319e-03, -1.24562681e-02,
       2.98757758e-03, -7.86080491e-03, -2.06084047e-02, -1.68632790e-02,
       1.42822613e-03, 4.19342108e-02, 8.66054744e-03, -1.36034749e-03,
       -3.93096097e-02, 2.97509003e-02, 2.63456404e-02, 1.81361679e-02,
       2.57086437e-02, 5.84329246e-03, 4.32951190e-02, 5.05183870e-03,
       9.73087922e-03, -2.17767339e-02, -9.55533516e-03, -4.80750240e-02,
       4.08748463e-02, 8.50065500e-02, -3.48515511e-02, 2.81249196e-03,
       7.82433599e-02, 5.99033982e-02, 1.12427790e-02, 5.69630135e-03,
       -7.62509629e-02, 2.91738790e-02, 9.16246697e-02, 2.46479157e-02,
       -9.09594670e-02, 7.27374777e-02, 6.68267831e-02, 1.29659632e-02,
       -6.83151558e-02, -5.23736142e-02, 2.31233495e-03, 1.38604660e-02,
       2.07208320e-02, 6.71477010e-03, 4.58318256e-02, 5.27604520e-02,
       1.02150869e-02, -2.43905671e-02, -8.41722451e-03, 7.99523517e-02,
       -8.34173523e-03, 5.55020198e-03, 1.45601062e-03, -4.43635397e-02,
       5.11506423e-02, 2.95711961e-02, -3.27607407e-03, -1.19083859e-02,
       1.03380293e-01, -4.15118374e-02, 4.93085496e-02, 9.42309666e-03,
       -2.54518818e-02, -4.98446003e-02, -3.56828012e-02,
       -6.34095594e-02, -1.11168213e-02, -5.18773682e-03,
       -4.63611409e-02, 5.35261929e-02, -6.42813370e-02, -3.44426557e-02,
       -8.74420628e-03, 2.96302177e-02, 1.90878920e-02, -9.06058699e-02,
       1.30833155e-02, 2.08567828e-02, 1.63933467e-02, 2.26317588e-02,
       5.64778633e-02, 5.71246259e-02, 3.33041069e-03, -2.10579447e-02,
       -1.30346566e-02, 2.32383553e-02, -3.21580120e-03, -6.85042283e-03,
       -7.49793183e-03, -4.27617021e-02, 5.27412482e-02, 5.87391481e-02,
       -3.47806402e-02, 4.54703718e-02, -6.23500682e-02, -4.88319732e-02,
       4.72723972e-03, 2.51042042e-02, -6.55207112e-02, 6.64661527e-02,
       3.07356752e-02, -2.97599491e-02, 3.37191559e-02, -5.87502383e-02,
       -6.32779300e-02, 3.61726619e-02, -2.98573785e-02, -4.15271632e-02,
       -7.71320891e-03, 4.95343991e-02, 2.54995879e-02, 1.51632004e-03,
       7.54066976e-03, 1.57431941e-02, -4.57197614e-02, -3.55814546e-02,
       3.34901884e-02, 6.45260215e-02, -1.62409730e-02, 5.25834551e-03,
       -6.12303056e-03, -1.61140449e-02, -2.07752362e-02,
       -1.98325813e-02, -1.24896877e-02, -7.25752499e-04, 3.16420919e-03,
       -3.46093625e-02, -2.61000339e-02, 1.02640521e-02, -1.22271217e-02,
       -4.64593992e-02, -4.21938375e-02, 2.15064324e-02, 2.97325905e-02,
       -1.90893020e-02, -1.42337289e-02, -5.43600088e-03, 2.14962335e-03,
       -1.19425049e-02, -3.73761468e-02, -9.03702453e-02, 2.10912358e-02,
       3.42112295e-02, -3.37862899e-03, -2.01217439e-02, 6.24551810e-03,
       -7.54165510e-03, -2.34401319e-02, -1.47207349e-03,
       -3.84512590e-03, 9.77763790e-04, -3.34155895e-02, -1.45539613e-02,
       -9.01873223e-03, -1.24163777e-02, -2.76183449e-02,
       -3.84987844e-03, 3.77649553e-02, 2.85929558e-03, -2.58096065e-02,
       2.66176951e-03, 3.55367153e-03, -3.87331471e-02, -5.10621779e-02,
       4.02274579e-02, -5.25303092e-03, 3.37533131e-02, -4.40212106e-03,
       -3.04594589e-03, -3.59142832e-02, 1.92649681e-02, -2.38965964e-03,
       -2.38514729e-02, -4.06503305e-03, -4.27876972e-02,
       -1.46527775e-04, 8.37623775e-02, 2.18267236e-02, -7.14193434e-02,
       -1.05133960e-02, 4.54857722e-02, -7.65824516e-04, 1.20317582e-02,
       -3.77183035e-02, 5.35734557e-03, -3.08587216e-02, -1.79403275e-02,
       -2.26985533e-02, -4.85057645e-02, -1.24310516e-02,
       -2.29589026e-02, -8.44347104e-03, -9.10490938e-03,
       -7.64267286e-03, -1.64078567e-02, 4.06363644e-02, -1.94893160e-03,
       -2.96821129e-02, 6.82180747e-02, -2.40796953e-02, 8.95513280e-04,
       5.84426709e-02, 2.94143930e-02, -5.05143171e-03, 5.58716431e-02,
       -7.35067502e-02, -5.19710593e-03, 3.59723791e-02, -1.11113265e-01,
       -5.81087470e-02, 7.87629709e-02, -2.33896282e-02, -2.04658862e-02,
       -5.21025546e-02, -4.25779931e-02, -9.15900543e-02, 6.77223802e-02,
       -3.61970738e-02, -6.72230264e-03, 3.08754705e-02, -3.52005474e-02,
       -9.88439023e-02, 8.79444648e-03, -2.66393404e-02, 1.62441784e-03,
       -1.32931881e-02, -1.50973974e-02, 6.35098154e-03, 8.17266293e-03,
       -1.74368080e-02, -4.86193318e-03, 1.30063621e-02, -4.96459268e-02,
