%YAML:1.0
---
svmDetector_object2: !!opencv-object-detector-hog
   winSize: [ 32, 32 ]
   blockSize: [ 8, 8 ]
   blockStride: [ 4, 4 ]
   cellSize: [ 2, 2 ]
   nbins: 9
   derivAperture: 1
   winSigma: 2.
   histogramNormType: 0
   L2HysThreshold: 2.0000000000000001e-01
   gammaCorrection: 1
   nlevels: 64
   signedGradient: 1
   SVMDetector: [ 3.37412045e-03, 4.72002802e-03, 2.38706241e-03,
       -6.59080455e-04, -3.19696451e-03, -8.04256462e-03,
       -8.08874052e-03, -2.31312774e-03, 2.89417617e-03, -1.06906507e-03,
       2.62327818e-03, 9.76662710e-03, -2.92536570e-03, -4.81742993e-03,
       -1.97804766e-03, -4.36326768e-03, -1.04638888e-02,
       -1.99950696e-03, -4.21326467e-06, -1.23862294e-03, 6.40637800e-03,
       4.21661790e-03, -9.98783577e-03, -4.88197198e-03, 1.50961755e-02,
       6.85044611e-03, 7.38266902e-03, 2.91965809e-03, -5.31562697e-03,
       -1.87788822e-03, -1.13574427e-03, -5.81545942e-03,
       -2.13943422e-03, 8.52615479e-03, 9.04326420e-03, 1.42931724e-02,
       1.08475448e-03, 4.36363975e-03, 5.91551792e-03, -9.32944997e-04,
       -1.63955279e-02, -1.34164141e-02, -4.49387636e-03, 4.68554581e-03,
       9.93367471e-03, -1.30837206e-02, -5.26385475e-03, 7.10968953e-03,
       -2.73075923e-02, -1.66618768e-02, -1.05901780e-02, 1.18024542e-03,
       1.11492327e-03, 4.19208605e-04, -1.16722481e-02, -3.14498866e-05,
       2.20610164e-02, -1.52159622e-03, -1.63351800e-02, -2.73818187e-02,
       2.25723162e-02, -5.56983706e-03, -1.27947852e-02, -5.99352038e-03,
       -1.57629792e-02, -3.49622662e-03, -7.23770307e-03,
       -8.71010649e-04, -5.26645035e-03, 1.71885379e-02, 2.02311529e-03,
       1.05468566e-02, -7.22347852e-03, -1.59388990e-03, 1.77152129e-03,
       -2.16920511e-03, -1.18089616e-02, -1.39752566e-03, 5.14163636e-03,
       -8.35224520e-03, -1.14000693e-03, -1.88734271e-02,
       -1.22947870e-02, -1.90382525e-02, -1.21482899e-02, 5.24953287e-03,
       -1.30635817e-02, -1.14651269e-03, 1.39607291e-03, 1.06320046e-02,
       -8.10168963e-03, 1.26243546e-03, 7.32247601e-04, -3.47214495e-03,
       -1.91419880e-04, -1.72613841e-02, 3.25908810e-02, 4.71729646e-03,
       -1.08072697e-03, -6.04872778e-03, -5.93132386e-03,
       -5.80261461e-03, -3.47512797e-03, -4.00230195e-03,
       -2.07827848e-04, 1.82068255e-02, 1.15310890e-03, -1.00818239e-02,
       -4.91291378e-03, -4.35906043e-03, -9.27903876e-03,
       -4.22940776e-03, -1.15540356e-03, -5.15645195e-04, 5.14643872e-03,
       -2.94306828e-03, -5.39549580e-03, -1.20533034e-02,
       -5.69839450e-03, -1.11909555e-02, -3.87351960e-04, 1.51902530e-02,
       7.10732490e-03, -8.51221289e-03, -1.51901515e-02, -1.65243428e-02,
       1.45014166e-03, 7.33962562e-03, 7.66396755e-04, -1.32007711e-02,
       1.18718352e-02, 6.44903071e-03, 1.66061930e-02, -9.77655221e-03,
       -9.45580844e-03, -2.33121892e-03, -6.20165141e-03,
       -8.27258267e-03, -1.42638490e-03, 6.68346183e-03, -1.15232577e-03,
       5.01973834e-03, 6.03226991e-03, -7.82958791e-03, 2.79672653e-03,
       6.96538831e-04, -2.59359507e-03, 1.22711528e-03, -1.66411127e-03,
       -3.70933441e-03, 4.67024976e-03, 2.60527083e-03, 4.02290747e-03,
       1.26552405e-02, -3.38116079e-03, 9.82051482e-04, -8.34788836e-04,
       -1.01141492e-02, -3.60288611e-03, 1.76288765e-02, 5.48476819e-03,
       2.01218687e-02, 9.34435427e-03, -4.75014909e-04, -1.45899993e-03,
       -3.07497871e-03, -1.52323600e-02, -1.06562125e-02, 6.33356906e-03,
       2.58456729e-03, 1.62538830e-02, -1.34544575e-03, -6.11232361e-03,
       -4.68633836e-03, -3.22436710e-04, -4.33422159e-03,
       -5.23454463e-03, 1.83878792e-03, 9.49973939e-04, 7.98888691e-03,
       9.22107254e-04, 4.16821917e-04, -3.00267991e-03, 2.00011232e-03,
       1.83473376e-03, -1.43868895e-03, 1.22537212e-02, -5.74123987e-04,
       -4.48163506e-03, -1.06607657e-02, -1.25437230e-02,
       -5.39356610e-04, -5.76960156e-03, 5.05281892e-03, -7.85805285e-03,
       3.99747975e-02, -2.14460713e-04, 8.82177986e-03, -2.89589502e-02,
       -3.10915336e-02, -2.46448937e-04, -1.75811164e-02,
       -2.71115117e-02, -3.44203413e-02, 2.17601769e-02, 2.02950165e-02,
       1.31089827e-02, -1.65396761e-02, -2.59379447e-02, -6.70841662e-03,
       -1.25119984e-02, -7.63194589e-03, -1.07652033e-02,
       -1.18004763e-03, 2.29400559e-03, 1.40140299e-02, -8.87784874e-04,
       4.00889461e-04, -4.25325288e-03, 4.81836993e-04, 8.55937973e-03,
       5.87704871e-03, 2.58892085e-02, -2.19302950e-03, -4.02445812e-03,
       -1.72615014e-02, -7.05303857e-03, 1.14844013e-02, 5.04621351e-03,
       1.39888031e-02, -8.00491020e-04, 3.13433297e-02, -1.40870651e-02,
       -2.51038559e-02, -3.13498974e-02, -2.15382185e-02, 5.89005789e-03,
       -2.01504286e-02, -2.94870585e-02, -2.47019324e-02,
       -3.55185731e-03, -1.78387593e-02, -9.71702300e-03,
       -9.48118698e-03, -2.11151782e-02, -1.15166986e-02,
       -1.70277134e-02, -1.43766431e-02, -5.84416697e-03, 3.30830400e-04,
       -9.26847011e-03, 7.77107896e-03, 2.03238887e-04, 1.87164149e-03,
       -5.02083171e-03, -3.86921084e-03, 1.08411880e-02, 8.70961323e-03,
       1.75891798e-02, -2.53793364e-03, -1.74605055e-03, -5.19942632e-03,
       -4.29293234e-03, -1.17018295e-03, 1.69073362e-02, 3.42432484e-02,
       5.35784801e-03, 5.36689674e-03, -4.16380307e-03, -1.19525865e-02,
       -1.98134966e-02, -1.80966929e-02, 7.62295024e-03, 1.19772619e-02,
       2.44313516e-02, -3.53895198e-03, -1.24955736e-02, -1.49704143e-02,
       -1.56438649e-02, -6.91640889e-03, -1.11953644e-02,
       -1.98245933e-03, -2.61096982e-04, 1.14977709e-03, 1.27324387e-02,
       5.25297783e-03, -1.19708367e-02, -5.72633324e-03, -1.74910377e-03,
       -4.70135594e-04, 1.21957087e-03, -1.28927547e-03, -2.23067729e-03,
       -9.63949785e-03, -1.91783695e-03, -1.69838523e-03, 6.26578752e-04,
       -7.81442132e-03, -1.04121696e-02, -7.90861156e-03,
       -3.47269722e-03, -6.92206575e-03, -9.07245558e-03, 1.29321134e-02,
       -1.64611801e-03, 1.23769697e-03, -9.57518537e-03, -1.10088708e-02,
       2.75858422e-03, -1.34507951e-03, -1.04817785e-02, -6.21109875e-03,
       -3.32682626e-03, -9.75893345e-03, -2.00398080e-03,
       -4.25692229e-03, -5.83104510e-03, 9.46908956e-04, 3.20495269e-03,
       -2.74342764e-03, -2.82353093e-03, -4.26228484e-03,
       -6.96545746e-03, -5.74468169e-04, -8.80884379e-03,
       -8.18754826e-03, -3.41385836e-03, -5.45019098e-03,
       -5.37306769e-03, -1.46778142e-02, 4.19710763e-03, 5.08100959e-04,
       2.77028675e-03, -1.02977268e-02, -2.26246435e-02, -2.37447154e-02,
       -1.31818680e-02, -9.78346542e-03, -1.03904223e-02, 2.60374248e-02,
       -1.29451824e-03, 1.12349615e-02, -1.14222476e-03, -6.40671421e-03,
       3.63067887e-03, -1.15062492e-02, -2.20371932e-02, -1.99471638e-02,
       1.29594635e-02, -5.25086140e-03, -7.86111783e-03, -1.45100849e-03,
       -8.42176005e-03, 7.20256381e-03, 6.08543050e-05, 1.99043239e-03,
       -1.22242561e-02, -5.41047519e-03, -9.93454829e-03,
       -5.80268214e-03, -4.53432696e-03, -4.49692644e-03,
       -1.19380197e-02, -4.88525489e-03, -6.83285482e-03,
       -3.16637778e-03, 7.43236532e-03, -6.11378904e-03, 5.95566991e-04,
       6.72035734e-04, -7.51005486e-03, -1.78690590e-02, -1.39455935e-02,
       -2.09276937e-02, 1.61130838e-02, 3.02036423e-02, -8.58247979e-04,
       2.34036520e-02, 1.08048245e-02, -1.01673771e-02, -3.63077642e-03,
       -2.00183932e-02, -1.94441378e-02, 2.36466862e-02, 2.13268325e-02,
       1.19256112e-03, 6.10613078e-03, -1.10709597e-03, -5.58376452e-03,
       -5.24803018e-03, 1.70772558e-03, 1.95395220e-02, -9.42577329e-03,
       -2.77269096e-03, -1.10119174e-03, -7.86898006e-03,
       -2.78506428e-03, -2.06923974e-03, 1.09640730e-03, 1.94492843e-03,
       6.89203013e-03, 8.33538547e-03, 2.36869277e-03, -7.21390778e-03,
       -3.94375110e-03, 5.34313684e-03, 3.32649215e-03, 5.19204559e-03,
       3.70390341e-03, -5.06411260e-03, 2.77682431e-02, 2.68516243e-02,
       -9.81563609e-03, -7.03211874e-04, 1.03309229e-02, -1.53748402e-02,
       -6.02107169e-03, -3.68731865e-03, 1.42460512e-02, 2.70728767e-02,
       2.61463784e-02, 1.42635778e-03, 3.73469346e-04, 4.33537090e-04,
       -3.07084154e-03, 3.75172909e-04, 1.05836373e-02, 1.62152164e-02,
       5.25160367e-03, -1.92520360e-03, -3.90907656e-03, -5.33614354e-03,
       -5.25925774e-03, -5.12553658e-03, 9.96194198e-04, 1.39299489e-03,
       -2.00121058e-03, -1.32667935e-02, -7.69629702e-03,
       -5.51770255e-03, -1.91947958e-03, -9.86143202e-03,
       -8.77060276e-03, -2.86498596e-03, 4.94459458e-03, -3.75737529e-03,
       -1.92585476e-02, -1.37166912e-02, -7.02765351e-03,
       -7.44254002e-03, -5.92574151e-03, -7.05643976e-03,
       -1.19313402e-02, -1.41806027e-03, -7.85752852e-03,
       -1.61889847e-02, -1.16096288e-02, 1.19890145e-03, -5.56761958e-03,
       3.54929623e-04, 3.14919068e-03, -6.78730104e-03, -5.06760273e-03,
       -5.24417497e-03, -4.98175062e-03, -2.45225983e-05,
       -4.66064736e-03, -3.01329349e-03, -3.07379477e-03,
       -3.92865064e-03, 7.33229378e-03, 6.18117920e-04, -3.81358340e-03,
       -2.80880537e-02, -6.10765116e-03, -4.86566918e-03,
       -3.78720602e-03, -8.82838573e-03, -1.01122567e-02, 2.31272895e-02,
       1.05790682e-02, 5.63816121e-03, -4.20784615e-02, -1.81478392e-02,
       -6.38456270e-03, -1.77619625e-02, -2.14949483e-03, 8.55423789e-03,
       9.94413160e-03, 1.51976133e-02, 2.25969031e-03, -3.78385000e-02,
       -6.29990175e-03, -1.32920709e-03, -1.17232623e-02, 2.41316971e-03,
       1.12660928e-02, -1.61113203e-05, 4.24848683e-03, -4.26336471e-03,
       -1.10486848e-02, 2.59250794e-02, -4.07907786e-03, -4.59303614e-03,
       2.84537859e-03, 3.74232535e-03, 3.55124427e-03, -1.35246792e-03,
       -2.36813817e-03, -6.09755609e-03, -4.09020251e-03, 6.40628813e-03,
       6.53744908e-04, 7.10517121e-03, 1.43750207e-02, 1.21175647e-02,
       8.19531828e-03, 1.56619549e-02, -3.07624880e-02, 2.97023449e-03,
       -3.42059029e-05, -1.00692380e-02, 2.10384926e-04, 1.35761043e-02,
       -6.19861344e-03, 2.73889098e-02, 2.46230531e-02, -1.21599706e-02,
       4.49435879e-03, -1.36149526e-02, -1.24890329e-02, -4.12999513e-03,
       -6.31721178e-03, -9.92846861e-03, 3.42556834e-02, 1.33308722e-02,
       7.08611589e-03, 2.17522718e-02, -1.04790484e-03, -8.54057632e-03,
       1.90623186e-03, -2.58820452e-04, -6.12734148e-05, -3.08102672e-03,
       4.72366670e-03, 5.13785658e-03, -1.74167246e-04, 7.23899109e-03,
       5.89963840e-03, 4.57446091e-03, 5.98846423e-03, 6.07076241e-03,
       1.91940740e-02, 2.65217051e-02, 1.14964955e-02, 7.08822161e-03,
       2.02050875e-03, -3.76224262e-03, -5.99443971e-04, -6.37090160e-03,
       -9.75531340e-03, 3.63289081e-02, 2.30004303e-02, 1.44453300e-02,
       6.67870976e-03, -8.66286922e-04, 2.44622841e-03, -9.50471312e-03,
       -1.17087932e-02, -6.91090431e-03, 2.04367284e-02, 1.05995992e-02,
       2.59560049e-02, 1.65166743e-02, 2.70422781e-03, -3.62134865e-03,
       -9.39143705e-04, -1.90693827e-03, -2.90583889e-03,
       -1.34013570e-03, -5.55799482e-03, -9.75644682e-03,
       -4.01062053e-03, 1.22011441e-03, 7.74294371e-04, 4.99291811e-03,
       2.70469440e-03, -6.71998551e-03, -8.28834157e-03, -1.03041902e-02,
       -1.66910961e-02, -1.72213267e-03, -5.78917749e-03,
       -4.27458901e-03, -5.91711549e-04, -1.65856071e-03,
       -8.12442508e-03, -5.79159241e-03, 4.16602194e-03, 1.03395677e-03,
       6.31318800e-03, -4.52996901e-04, -4.41571791e-03, -3.42724007e-03,
       -5.85141266e-03, -5.98938810e-03, -2.03292654e-03, 6.28151139e-03,
       1.21591554e-03, 2.30533886e-03, -2.18658606e-04, 5.50243596e-04,
       -5.36306645e-04, 3.48701770e-03, -2.36734608e-03, 1.02059096e-02,
       -2.56391871e-03, -2.43648738e-02, 4.57402272e-03, 5.70572400e-03,
       2.47773761e-03, 7.33647216e-03, -4.38882411e-03, -1.05172666e-02,
       1.74032722e-03, -2.32983306e-02, -7.09742168e-03, 4.91425209e-02,
       2.14857142e-03, -1.12235006e-02, -5.09298546e-03, -1.61485039e-02,
       -1.02125388e-02, -2.04540212e-02, -2.67822705e-02, 3.95381041e-02,
       4.37998585e-02, 8.49691313e-03, -9.26975533e-03, -6.63655694e-04,
       -2.03160122e-02, -9.75475274e-03, -9.39053390e-03,
       -1.21763803e-03, 1.75596159e-02, 8.86482280e-03, 4.25244868e-03,
       4.41693282e-03, -3.27052176e-03, -7.47447833e-04, -9.79240146e-03,
       2.72647981e-02, 1.52574424e-02, -6.37851702e-03, 5.68327121e-03,
       -1.83513982e-03, -5.13470313e-03, -1.36574591e-03,
       -2.32817698e-02, -1.79626103e-02, 5.26660010e-02, -2.91167921e-03,
       2.08795574e-02, 3.20722312e-02, 6.63669920e-03, -1.53887109e-03,
       -6.06699847e-03, -3.27569284e-02, -2.86107212e-02,
       -6.63275179e-03, -1.31265549e-02, 6.45631552e-02, 2.95528080e-02,
       -6.84246002e-03, 1.34347042e-03, -2.69469712e-03, -1.97753869e-02,
       -1.97915938e-02, -9.72034782e-03, 6.70813443e-03, 4.70499583e-02,
       1.29992468e-02, -1.21526630e-03, 7.33234081e-03, -3.98635864e-03,
       -1.28513190e-03, -4.13783127e-03, 1.99594926e-02, 4.11458407e-03,
       2.96513597e-03, -2.57292949e-03, 2.92956573e-03, 4.79542697e-03,
       -1.26474872e-02, -1.17784692e-02, -6.10208698e-03, 4.33908664e-02,
       1.33425333e-02, 2.29577571e-02, -4.74823965e-03, -2.39861570e-03,
       -6.28611189e-04, -8.42522550e-03, -1.23992572e-02,
       -2.06335541e-02, 9.73239355e-03, 2.26409873e-03, 6.34047240e-02,
       9.97896213e-03, -9.65171680e-03, -6.38766633e-03, -5.95826795e-03,
       -4.17930493e-03, -6.81813480e-03, -1.06157484e-02,
       -3.77075444e-03, 3.37073728e-02, 6.77573495e-03, -5.94381429e-03,
       -4.65819892e-03, -1.49667927e-03, -8.44867842e-04,
       -2.57972651e-03, -2.32800306e-03, 1.06877880e-03, -1.61131239e-03,
       1.87867379e-03, -4.21484699e-04, -8.66501709e-04, -6.82283100e-03,
       -1.20312655e-02, -5.24473097e-03, 3.05699580e-03, 1.05283661e-02,
       -3.88638489e-03, -5.50948083e-03, -3.44668492e-03, 4.28768544e-04,
       -8.39809049e-03, -1.56447124e-02, -4.57634358e-03, 1.54237840e-02,
       7.66447000e-03, -7.15243677e-03, -1.68172121e-02, -1.13125453e-02,
       -6.58065779e-03, -3.44928936e-03, -5.08105475e-03,
       -2.66044587e-03, 2.06750985e-02, 7.93065783e-03, -6.22527301e-03,
       -7.30465073e-03, -1.13814063e-02, -1.55114825e-03,
       -1.68448116e-03, -7.32714729e-03, -3.66501394e-03,
       -6.42578537e-03, -8.54447484e-03, 9.87243373e-04, 1.13792727e-02,
       -4.47518425e-04, -1.21419749e-03, -2.23948038e-03,
       -2.77937036e-02, -9.96186864e-03, 9.26805544e-04, -9.57231224e-03,
       1.90566741e-02, 1.33474879e-02, 4.93976008e-03, 6.08282629e-03,
       -1.58587992e-02, -2.81911306e-02, -9.48787201e-03, 3.81492749e-02,
       1.34953093e-02, -7.19503791e-04, 7.13201379e-03, -4.18538693e-03,
       6.72393595e-04, -8.54447111e-03, -1.14218425e-02, -5.33499056e-03,
       4.68790755e-02, 2.28399616e-02, -8.00279726e-04, -2.82523525e-03,
       -2.32460313e-02, -8.21294915e-03, -1.74847571e-03,
       -1.04388818e-02, -1.04808072e-02, -9.28634591e-03,
       -3.78123485e-03, 1.64291039e-02, 6.35527633e-03, -1.21999504e-02,
       2.35495833e-03, -2.46446882e-03, -1.07592894e-02, -2.12774295e-02,
       -1.12519711e-02, -4.66047460e-03, 3.50183137e-02, 1.30126877e-02,
       3.14523070e-03, 1.04712676e-02, -7.42530217e-03, -6.44149305e-03,
       -2.76283901e-02, -1.40973600e-02, 1.25217659e-03, 2.30000746e-02,
       3.06485686e-02, 5.85921528e-03, 1.26403272e-02, 7.05176126e-03,
       -1.11941677e-02, 5.64129231e-03, 2.89045293e-02, 4.67189029e-03,
       8.70682206e-03, 5.34074055e-03, -1.01737734e-02, 1.34138269e-02,
       -2.22273264e-03, -2.03346438e-03, -1.06042698e-02,
       -5.40098641e-03, -3.78838903e-03, 1.35079874e-02, 6.23972039e-04,
       -4.01460705e-03, -5.17831650e-03, -8.89514573e-03,
       -2.61472911e-03, -6.36295043e-03, -1.53838433e-02,
       -1.55878356e-02, 2.79179905e-02, -6.78473327e-04, -6.56864792e-03,
       -1.59638971e-02, -1.71454903e-02, -5.45608858e-03,
       -8.05026572e-03, -1.40109463e-02, -1.33880461e-02, 3.13428752e-02,
       1.57612804e-02, -3.68877430e-03, -1.00833951e-02, -9.51670227e-04,
       -5.19302627e-03, 1.47236111e-02, -1.07329746e-03, -4.77547757e-03,
       1.08583095e-02, -2.53512850e-03, -5.07395109e-03, -1.52820547e-03,
       -1.04307861e-03, -3.68807511e-03, -2.47664226e-04, 5.83436945e-03,
       1.87388214e-03, -6.84270449e-03, -4.86846641e-03, -3.63653572e-03,
       -2.13471576e-04, 5.80005697e-04, -7.75858993e-03, -9.51819029e-03,
       2.48701759e-02, -2.39264569e-03, -1.55767286e-02, -1.28999278e-02,
       -1.62017662e-02, -1.05138880e-03, -4.94148023e-03,
       -1.69664510e-02, -3.01548187e-02, 1.10687418e-02, -9.57845245e-03,
       1.02493155e-03, 4.01242683e-03, -8.03822465e-03, -9.90341324e-03,
       -5.53673645e-03, -4.53011366e-03, -7.28774583e-03, 8.34325911e-04,
       -1.03562362e-02, -5.52367826e-04, 1.11522507e-02, -2.95171025e-03,
       -7.45651312e-03, -4.47818032e-03, -4.20714403e-03, 1.09974444e-02,
       2.05237195e-02, 1.00673633e-02, -1.53591288e-02, 1.66970957e-03,
       -6.90667285e-03, -1.55683525e-03, -7.50454376e-03,
       -1.72073022e-02, 8.24599061e-03, 8.27236176e-02, 3.62263573e-03,
       -1.71397440e-02, -3.58823780e-03, -3.48070152e-02,
       -1.71774905e-02, -2.03819554e-02, -4.91692200e-02,
       -4.24543805e-02, 5.64532690e-02, -2.06080433e-02, -3.74968187e-03,
       3.08074746e-02, -9.52218566e-03, -3.29195261e-02, -1.32089769e-02,
       -8.90581682e-03, -3.85472231e-05, 1.07982918e-03, -2.86371112e-02,
       -6.31417427e-03, 2.52898876e-02, -6.58411579e-03, -1.74347386e-02,
       -1.57788058e-03, 5.85521990e-03, 1.55803449e-02, 2.65978859e-03,
       3.83521011e-03, -4.74910857e-03, 5.97343547e-03, -1.62691495e-03,
       1.15645060e-04, 1.02465395e-02, -1.51691446e-02, 5.36960028e-02,
       6.46425262e-02, 9.47044929e-04, -1.01594971e-02, -1.04471517e-03,
       -1.82620659e-02, -1.24220422e-03, -1.53201595e-02,
       -4.40666936e-02, 3.17791179e-02, 4.09381129e-02, -2.58172695e-02,
       -2.18465738e-02, 6.31993171e-03, 1.27471527e-02, -1.16489874e-02,
       -8.85508675e-03, 4.86511225e-03, 2.69843582e-02, -9.10189934e-03,
       -4.23097610e-02, -4.63053584e-03, 9.02692042e-03, -4.22838097e-03,
       -5.75386360e-03, -4.47779801e-03, 2.03315751e-03, 7.64766149e-03,
       5.87861578e-04, -2.47910595e-03, 5.81591437e-03, 2.21477705e-03,
       -4.19645291e-03, -6.93302276e-03, -4.36109956e-03,
       -7.40522053e-03, 4.76140864e-02, 3.11147561e-03, -3.48080299e-03,
       4.15273895e-03, -1.20947044e-03, -7.87417404e-03, -1.74460821e-02,
       -1.82862133e-02, -4.79344232e-03, 4.15524356e-02, 7.99124129e-03,
       -2.35031825e-02, -1.32195000e-02, -9.05169465e-04, 8.77355784e-03,
       -2.14124136e-02, -1.09039545e-02, 8.19058251e-03, 2.03726031e-02,
       -5.38950413e-03, -2.53733508e-02, -4.09440510e-03,
       -2.12702597e-03, 7.94829219e-04, -1.17115099e-02, -6.22250896e-04,
       -1.41786085e-03, -1.20284210e-03, -1.96155324e-03,
       -9.17460211e-03, -4.12015058e-03, 1.62892917e-03, -2.47834390e-03,
       1.34003256e-03, -3.33470223e-03, -7.45354861e-04, -6.32933853e-03,
       -1.78418972e-03, -4.36184811e-04, -5.97220659e-03,
       -3.06598446e-03, -4.31794114e-03, 4.13633045e-03, -4.94378095e-04,
       2.75782659e-03, -3.55356629e-03, -5.86706912e-03, -5.84327616e-04,
       -1.90473639e-03, 8.76492448e-03, -8.88917595e-04, 7.40987854e-03,
       -5.43351576e-04, 1.25157635e-03, -2.85627716e-03, 1.01715280e-03,
       -6.49564015e-03, -2.22892311e-04, 4.16839233e-04, 4.13931702e-04,
       -2.87776720e-03, -3.05359252e-03, -7.06081884e-03,
       -7.95598049e-03, -6.54509198e-03, -6.01145439e-03, 3.40046547e-03,
       1.55547326e-02, -1.75332290e-03, -2.43643136e-03, -4.79640346e-03,
       -6.92162802e-03, -1.51614668e-02, -8.19733460e-03, 1.09430710e-02,
       1.12278424e-02, -2.93976371e-03, -1.77757125e-02, -1.03673982e-02,
       -6.14807708e-03, 1.19921127e-02, -1.60315831e-03, -2.52729021e-02,
       1.23535087e-02, 1.73556320e-02, 1.52144469e-02, -1.41375763e-02,
       -2.26907395e-02, -3.00328131e-03, -4.86417935e-04,
       -1.31136002e-02, -5.51971607e-03, 1.14119863e-02, 4.25031455e-03,
       -2.27344083e-03, -1.70256221e-03, -1.23465350e-02, 2.63363123e-03,
       -5.80758881e-03, -8.45675182e-04, -2.79939617e-03,
       -7.04546319e-03, 1.19559253e-02, 2.28543617e-02, -1.33543592e-02,
       -4.73483326e-03, 4.98417346e-03, -3.33512621e-03, -6.04469236e-03,
       -1.68115404e-02, -1.03943823e-02, 1.43428035e-02, 8.56859144e-03,
       -2.01735590e-02, 6.55622547e-03, -1.78645104e-02, 1.17182955e-02,
       -3.15139093e-03, -2.74689198e-02, 1.44741507e-02, 2.78912997e-03,
       1.42778577e-02, -1.65070652e-03, 4.28699132e-04, -1.02651818e-02,
       -5.88402199e-03, -5.41332178e-03, -8.93227663e-03, 3.21082361e-02,
       5.41092455e-03, 1.86714274e-03, -1.30801080e-02, 7.24576414e-03,
       -3.35856806e-04, -5.07990422e-04, 1.18523499e-03, -2.86029815e-03,
       -5.15018497e-03, 5.07819047e-03, 1.20495865e-02, -5.32407500e-03,
       -6.34872913e-03, -2.76759570e-03, -7.23311212e-04, 9.17853089e-04,
       -1.38050029e-02, -5.13593061e-03, 8.75345431e-03, 9.92522575e-03,
       -1.75069720e-02, -8.00451450e-03, -1.71945915e-02,
       -1.02053699e-03, -5.60271693e-03, -1.39508741e-02, 1.01716993e-02,
       1.33053912e-02, 3.86823602e-02, -9.72899981e-03, -7.08749006e-03,
       -8.77085887e-03, -7.77476141e-03, -5.85246412e-03, 6.07006345e-03,
       2.39065886e-02, 1.95998084e-02, 1.25292810e-02, -7.30475364e-03,
       2.95872730e-03, 3.75844567e-04, 1.57491711e-03, -2.17890623e-03,
       -3.32691707e-03, -5.01517847e-04, -2.09954102e-03, 3.49507225e-03,
       1.69658940e-03, 1.14048179e-03, -2.30915332e-03, -2.02282774e-03,
       2.64910108e-04, 2.70674657e-03, -8.65722261e-03, -9.79891326e-03,
       1.15982734e-03, -5.11292368e-04, -2.68805493e-03, -1.02433432e-02,
       -7.24137994e-03, 3.46662407e-03, 3.85791599e-03, -5.29403193e-03,
       -1.40845422e-02, -1.44103942e-02, -1.32059529e-02,
       -5.49914083e-03, -7.40729272e-03, -4.70701884e-03,
       -2.23576580e-03, -5.72052202e-04, -8.17396562e-04,
       -1.11859303e-03, -2.74904282e-03, -5.58682019e-03,
       -1.20666961e-03, -4.19441285e-03, 5.20096393e-03, -6.41649868e-03,
       -1.04359463e-02, 7.37069547e-03, 9.97139420e-03, 1.16708698e-02,
       -4.44418489e-04, -7.00489525e-03, -6.81582233e-03,
       -5.81579516e-03, -1.74778979e-02, 5.50042093e-03, 1.89424045e-02,
       -3.06118326e-03, -3.82713857e-03, -5.56732807e-03,
       -4.32844879e-03, -2.84888223e-02, -1.65568683e-02, 3.71041172e-03,
       1.54372463e-02, 1.82797704e-02, -1.74291357e-02, -2.40731910e-02,
       -1.56577732e-02, -1.30077638e-02, -1.16189318e-02,
       -6.76766457e-03, -5.81518048e-04, 9.21435561e-03, 2.21249321e-03,
       6.50754198e-03, -6.63116109e-03, -1.94330085e-02, -4.72062128e-03,
       -7.32521433e-03, 2.71383184e-03, -1.03463782e-02, -1.24026127e-02,
       1.15926052e-02, 4.13328968e-03, 9.01567098e-03, -5.10393968e-03,
       2.19167653e-03, -1.59048475e-02, -1.36584649e-02, -1.48033500e-02,
       -3.16279288e-03, 4.77195494e-02, 4.96064546e-03, -5.86814014e-03,
       -3.02594434e-02, 1.56330541e-02, 9.41985854e-05, -4.35530441e-03,
       -4.05875035e-03, 2.69856919e-02, 2.54130606e-02, -1.74990203e-02,
       -2.99677067e-03, -2.10145693e-02, -1.84402661e-03, 9.06959362e-03,
       -1.76417846e-02, -7.77867623e-03, 1.85037386e-02, 1.05011952e-03,
       1.33730723e-02, 4.19936702e-03, -2.48036664e-02, 3.42412293e-03,
       -7.50936009e-03, -2.78112176e-03, -5.93584543e-03,
       -2.59563094e-03, 5.76111861e-03, 9.96541698e-03, 1.22054694e-02,
       -8.80480465e-03, -2.47601373e-03, -1.22735444e-02,
       -8.56261142e-03, -8.44886713e-03, 2.21118908e-02, 4.06139717e-02,
       1.75638534e-02, 1.98772619e-03, -1.85575131e-02, 1.76152296e-03,
       -5.18599176e-04, -1.31448876e-04, 4.57171304e-03, 5.09414412e-02,
       2.41477899e-02, -1.49004152e-02, 3.16011428e-04, -1.94242634e-02,
       -4.43520071e-03, 1.20030926e-03, -8.02759826e-03, -3.68700316e-03,
       1.22537911e-02, -5.02876099e-03, -6.77686650e-03, 1.42262820e-02,
       -7.50517007e-03, 7.35451293e-04, -4.19282075e-03, -2.52814009e-03,
       -3.76759144e-03, 6.73739472e-04, -4.36180411e-03, -1.27316294e-02,
       -3.42166546e-04, -2.51255301e-03, -2.32846336e-03,
       -1.24761378e-02, -6.42376766e-03, -1.07371081e-02,
       -3.71431536e-03, -6.83267135e-03, -7.07461126e-03, 1.12901032e-02,
       -1.06037769e-03, -1.77121453e-03, -6.36153342e-03,
       -1.04822563e-02, -8.62912275e-03, -7.48510193e-03,
       -2.51396187e-03, 9.04915296e-03, 7.30279135e-03, 6.21600263e-03,
       -2.09847698e-03, -3.04261851e-03, -2.43437011e-03,
       -3.79869924e-03, -5.11909486e-04, 4.92708245e-03, 1.11398543e-03,
       4.65255725e-05, 1.31488231e-03, -1.93485676e-03, -8.44116416e-03,
       -5.36706019e-03, -5.80142114e-05, 1.28801540e-02, 8.06982722e-03,
       -8.56236555e-03, 2.03562505e-03, -5.99140860e-03, -5.93042141e-03,
       -8.84419028e-03, -3.03590251e-03, -8.92461184e-03, 6.10818155e-03,
       -1.24251349e-02, 2.32015084e-02, 4.12928089e-02, -1.35449152e-02,
       -7.24477181e-03, 4.20476263e-03, -2.72558536e-02, -2.11270433e-02,
       -1.85285974e-02, -1.12475222e-02, 2.73740869e-02, 3.41003090e-02,
       2.41671894e-02, 1.04214984e-03, 4.57675057e-03, -1.26937055e-03,
       -2.78725543e-06, 1.66608975e-03, -1.09567933e-04, 8.41511693e-03,
       1.17079203e-03, 3.47215566e-03, 3.25101078e-03, 6.82593137e-03,
       -3.64349270e-03, 1.97642308e-04, 1.86894257e-02, 7.83750787e-03,
       -8.83394561e-04, 1.26790814e-02, -1.54068097e-02, -1.72780827e-03,
       1.79409608e-02, -1.20802084e-02, 6.14691246e-03, 3.41975801e-02,
       -1.02555407e-02, 4.01759930e-02, 3.06853671e-02, -3.37707847e-02,
       -2.53474806e-03, 1.04059307e-02, -1.45336976e-02, -2.54441146e-02,
       -1.29338158e-02, 2.12649652e-03, 3.88562493e-02, 3.36996354e-02,
       3.99249839e-03, -8.49636924e-03, 6.49092393e-03, 3.53160873e-03,
       -1.06011620e-02, -3.56963719e-03, 4.62916680e-03, -3.00643197e-03,
       -2.86755222e-03, -1.71851984e-03, 5.17839473e-03, 2.42477865e-03,
       2.85150512e-04, 1.64951372e-03, 1.31906811e-02, 4.08619642e-04,
       -2.55590258e-03, 1.03611760e-02, -8.57407693e-03, -2.21301918e-03,
       4.59818169e-03, 2.33726867e-04, 9.06288996e-03, 2.49468144e-02,
       -2.23638937e-02, 8.26217700e-03, 3.17466632e-02, -1.98824946e-02,
       -5.79954730e-03, 1.04662478e-02, 4.94129676e-03, -1.34086013e-02,
       3.38604022e-03, -3.69814001e-02, 1.79108214e-02, 2.02061906e-02,
       -1.24442717e-02, -6.16098568e-03, -1.77135295e-03, 1.17613596e-03,
       -8.74016248e-03, -9.49203502e-03, -2.14555897e-02,
       -7.71335745e-03, -4.98300511e-03, -1.20892972e-02,
       -2.11701915e-03, -1.05344912e-03, -1.52649800e-03,
       -2.47532083e-03, -2.31683347e-03, 4.80328483e-04, -5.41101675e-03,
       1.40503544e-04, 1.42520107e-03, -8.66068818e-04, 4.34320013e-04,
       1.25370873e-03, -2.16740067e-03, 3.96048697e-03, 8.51242803e-03,
       -1.03553943e-02, 2.13050540e-03, -3.90232122e-03, -3.25900479e-03,
       -1.73748960e-03, -3.62527266e-04, -4.19798400e-03, 2.15090085e-02,
       7.13975495e-03, -2.25191517e-03, -5.42937545e-03, -8.80453363e-03,
       -8.15987308e-03, -2.79786298e-03, -2.49872659e-03,
       -4.99224197e-03, 9.76291578e-03, -1.45081268e-03, 7.70763634e-03,
       -4.27582971e-04, -3.35387466e-03, -5.84442774e-03, 1.70460506e-03,
       -8.36691260e-03, -8.21968354e-03, -7.70873064e-03,
       -3.49402148e-03, 3.57913855e-03, 6.95937220e-03, 7.85625353e-03,
       2.60471879e-03, 1.05829267e-02, 6.95989840e-03, -2.14970089e-03,
       5.68768242e-04, 2.39205710e-03, 9.51218026e-05, -9.67677450e-04,
       -1.03954850e-02, 1.33656207e-02, 3.66996741e-03, -1.69219803e-02,
       -1.55174378e-02, 3.33743095e-02, 1.42205963e-02, 6.26174547e-03,
       -1.58728603e-02, 1.83631515e-03, 3.71825881e-02, -1.06789693e-02,
       -1.64611302e-02, -8.13204609e-03, 3.89213823e-02, 1.48789026e-02,
       5.93553763e-03, -6.42233249e-03, 1.05874557e-02, 6.49810676e-03,
       2.40633450e-03, -4.03665518e-03, -1.52454041e-02, -2.47657951e-03,
       -1.66261697e-03, 6.33492414e-03, 8.86171404e-03, 2.60901102e-03,
       1.09540299e-03, 2.28323285e-02, 2.86404951e-03, -1.84108019e-02,
       -9.24616959e-03, -4.96435678e-03, -1.54984044e-02,
       -1.06196627e-02, -1.00973956e-02, 2.02957559e-02, 9.50889383e-03,
       -3.11839338e-02, -2.55437046e-02, 3.24770738e-03, -8.79176427e-03,
       -2.71965959e-03, -1.30770840e-02, 1.58290993e-02, 3.88509072e-02,
       -5.04334318e-03, -2.66035665e-02, -2.13725306e-02, 1.08361924e-02,
       -2.57171714e-03, -1.80977001e-03, 1.10029066e-02, 3.79574560e-02,
       1.98323075e-02, 3.01417708e-03, 3.39173432e-03, -3.50932847e-03,
       -1.72738766e-03, -1.42515022e-02, 1.64885854e-03, 2.52800551e-03,
       -4.17676568e-03, -1.35419576e-03, 2.26729433e-03, 1.71339174e-03,
       -1.54328216e-02, -1.92438755e-02, -2.96073444e-02,
       -7.06979819e-03, -1.02791805e-02, -1.81790013e-02,
       -3.87229444e-03, -1.33714117e-02, -2.13857517e-02,
       -1.53152421e-02, -6.61084242e-03, -2.34596841e-02, 4.87256143e-03,
       3.28200101e-03, -6.03237003e-03, -4.16876050e-03, -4.88205906e-03,
       -4.77404241e-03, -6.67644897e-03, 1.41559797e-03, -5.62288007e-03,
       5.71150705e-03, 1.03685968e-02, 4.18603420e-03, -1.97714265e-03,
       -8.04621610e-04, 7.28119747e-04, -1.09504093e-03, 1.09661352e-02,
       5.14086382e-03, -1.05621843e-02, -6.28672261e-03, -2.36134976e-03,
       -2.25102715e-03, -3.94824398e-04, -5.41252643e-03,
       -2.30608624e-03, 2.66476478e-02, 4.00193455e-03, 4.07771440e-03,
       -4.84385155e-03, -4.01299726e-03, -2.03742227e-03,
       -1.18964410e-03, -7.60136452e-03, -1.10183684e-02, 7.18521839e-03,
       -2.44117086e-03, 1.98844746e-02, -2.86255497e-03, -9.30866972e-03,
       7.87413737e-04, -8.12055019e-04, -2.28062458e-03, -5.38663566e-03,
       -3.75160691e-03, -2.14965479e-03, 1.01149147e-02, -2.64716079e-03,
       -2.91671907e-03, 2.31588609e-03, -1.72268381e-04, -2.95612146e-03,
       -2.19871779e-03, 2.34555136e-02, 5.60442032e-03, -1.42820301e-02,
       -8.95016082e-03, 3.93518200e-03, 1.04079898e-02, -6.06950046e-03,
       -8.03170819e-03, 2.98430212e-03, 6.51259720e-02, 3.33375633e-02,
       9.08187497e-03, -2.12844480e-02, 1.85635022e-03, 1.21174392e-03,
       -8.63567088e-03, -5.52258873e-03, -9.22765862e-03, 3.29495296e-02,
       1.99330393e-02, 4.06847335e-02, -1.79449450e-02, -1.78767834e-02,
       -8.07942357e-03, -8.30325298e-03, -1.67382241e-03,
       -6.49387855e-03, -1.71389244e-02, -4.65634372e-03, 2.69150753e-02,
       -3.08897649e-03, -1.57825425e-02, -1.05839288e-02, 5.32367791e-04,
       -6.44342601e-03, -2.91323359e-03, 1.19039034e-02, -5.23910532e-03,
       -5.82875637e-03, -1.15596910e-03, 1.81501955e-02, 1.51127866e-02,
       6.53440552e-03, -9.51699726e-03, 5.82376402e-03, 3.70046832e-02,
       6.17928803e-03, -8.55428819e-03, -8.26950709e-04, 3.66035737e-02,
       3.17474976e-02, 7.76144490e-03, -4.50735632e-03, 1.67710297e-02,
       2.10759956e-02, 3.65999751e-02, 8.76303297e-03, -6.25115400e-03,
       -3.89721547e-03, 1.60236917e-02, -4.18935437e-03, -2.36663129e-03,
       -8.65518581e-03, -1.43631017e-02, 5.10930410e-03, 2.63367202e-02,
       -5.62308030e-03, -8.80588125e-03, -1.03820842e-02,
       -2.57617258e-03, -6.73906179e-04, -1.62159139e-03, 2.23641889e-03,
       -8.81774351e-03, 5.05713397e-04, 2.60992232e-03, 9.86658968e-03,
       5.81130013e-03, 4.33658017e-03, 4.92518768e-03, 2.81583169e-03,
       1.68049126e-03, -1.00775063e-02, 2.71327270e-04, 1.00171845e-02,
       1.46405669e-02, 1.23168556e-02, 1.17881279e-02, -2.98426626e-03,
       3.26858764e-03, -1.16196722e-02, -1.10572418e-02, 1.14670619e-02,
       1.21829205e-03, 9.79098585e-03, 3.71287088e-03, 4.16492717e-03,
       -2.24868464e-03, -1.43590691e-02, -8.09473451e-03,
       -5.12694567e-03, 1.06898043e-03, -1.67738320e-03, 5.56312407e-05,
       -7.13124964e-03, 2.86634895e-04, -1.08575297e-03, -2.36224872e-03,
       1.23509555e-03, 4.44328273e-03, 9.69555229e-03, 3.72975762e-03,
       -1.96725060e-03, 1.96137675e-03, 5.01336670e-03, -1.04188155e-04,
       -5.75644663e-03, 2.16406235e-03, 1.06674014e-02, 1.32541480e-02,
       9.51944850e-03, 4.18380136e-03, 9.57180187e-03, 1.16818929e-02,
       3.48382024e-03, -2.68891966e-03, 5.75833069e-03, 1.01551991e-02,
       5.35393599e-04, 5.17067034e-03, 6.83245994e-03, 1.70949008e-02,
       7.82266539e-03, 4.89062804e-04, 7.08976015e-03, 1.18907923e-02,
       2.98782275e-03, -8.83350949e-05, 2.82428670e-03, 3.72391380e-03,
       1.42829781e-02, 1.25719095e-03, 4.16767644e-03, 1.93051319e-03,
       1.09183099e-02, 6.17964612e-03, 1.88744515e-02, 4.96322056e-03,
       -5.30502666e-03, -1.46452701e-04, 1.40835089e-03, 2.14880309e-03,
       8.89162999e-03, -1.95352640e-02, -4.14032675e-03, 4.38534357e-02,
       -3.26415431e-03, -3.85249103e-03, 3.99328908e-03, -2.99905252e-04,
       3.91659036e-04, 5.12535544e-03, -7.66064413e-03, -3.77481279e-04,
       2.57572290e-02, -2.96420837e-03, 2.32243841e-03, 1.82841683e-03,
       1.17254513e-03, -4.02464811e-03, 2.89539099e-02, 5.51369460e-03,
       -2.94009806e-03, 5.05295070e-03, 1.96962082e-03, -2.06563715e-03,
       6.77746162e-03, 5.69861801e-03, 1.00910962e-02, 1.70709919e-02,
       1.06619205e-02, 7.77998846e-03, 1.27040234e-03, 2.76301452e-03,
       -3.62862251e-04, -5.37084416e-04, 1.53075461e-03, 9.20442678e-03,
       1.37847001e-02, -1.99264213e-02, -4.45981137e-03, 5.22463098e-02,
       -1.81030203e-02, -1.99606153e-03, -4.79966076e-03,
       -2.64248345e-03, -1.72797905e-03, 7.46251084e-03, -2.35875938e-02,
       -2.91646700e-02, 4.95383218e-02, -2.36583166e-02, 5.75271295e-03,
       6.17335457e-03, -8.61745502e-06, 8.36861786e-03, 9.92421247e-03,
       2.60233006e-04, -1.03070950e-02, 1.22630335e-02, -1.04791429e-02,
       -1.70231219e-02, -2.26476975e-03, 7.67926499e-03, 4.06931946e-03,
       3.56267602e-03, -1.31837314e-03, -4.50380193e-03, 3.65609583e-03,
       2.74356827e-03, 7.77848903e-03, -1.90605191e-04, 7.02515664e-03,
       1.03645921e-02, -9.28582344e-03, -4.44607623e-03, -1.88444532e-03,
       8.54188297e-03, -8.74278322e-03, -1.79984223e-03, -6.38515642e-03,
       4.12960211e-03, 8.68980400e-03, -5.62796695e-03, -8.12382612e-04,
       2.75463331e-03, 1.68762356e-02, -1.63810588e-02, 6.78682700e-03,
       8.89550615e-03, 1.23280939e-02, 1.39264399e-02, 4.70477808e-03,
       9.68387816e-03, -1.90385187e-03, 8.17359425e-03, -1.18786553e-02,
       3.56167392e-03, 8.13905615e-03, 1.06776936e-03, 1.38770847e-03,
       2.66202679e-03, 1.99219910e-03, 1.67921034e-03, -9.45256185e-03,
       -1.09034381e-03, 1.30978040e-03, 2.63701659e-03, 6.70636538e-03,
       -7.38081895e-03, 7.15052849e-03, 1.52431019e-02, -2.24328437e-03,
       -1.34999380e-02, 2.84032081e-03, 3.77295772e-03, 1.06145618e-02,
       -1.71098113e-03, -1.13653662e-02, 4.55449009e-03, 8.81265756e-03,
       -6.49883086e-03, -1.24043422e-02, 1.09750908e-02, 1.63361281e-02,
       5.15522389e-03, -2.41117808e-03, 2.55699456e-03, 9.24426410e-03,
       -2.18859036e-03, -9.84300673e-03, -2.12546252e-03, 3.92975193e-03,
       2.88744317e-03, -2.79160769e-04, -3.49531486e-03, 7.56010937e-04,
       9.65494569e-03, 2.60391342e-03, -2.56086374e-03, -4.70807217e-03,
       -4.62545082e-03, -4.56559099e-03, -6.41499273e-03,
       -1.25999264e-02, -1.57683063e-02, 4.40159068e-02, 4.04627435e-03,
       -1.72764510e-02, -8.68261606e-03, 1.20524864e-03, -3.61801311e-03,
       -3.47446743e-03, -2.14036908e-02, -5.94103662e-03, 2.53794063e-02,
       8.28087446e-04, -2.33394913e-02, -2.08577048e-02, 1.19240126e-02,
       4.57677916e-02, -1.89978583e-03, -7.93050881e-03, 1.33501831e-02,
       2.65749339e-02, -6.85149664e-03, -3.32021900e-02, -6.06559031e-03,
       1.60965743e-03, 1.85831878e-02, -5.54113976e-05, -1.91489409e-03,
       1.64898217e-03, 1.08288629e-02, -1.64694805e-03, -7.67041184e-03,
       5.05542709e-03, -9.69179813e-03, -8.47090967e-03, -8.26097839e-03,
       -9.53861699e-03, 8.40836763e-03, 3.33741382e-02, -8.55041016e-03,
       -2.24272497e-02, -2.55781994e-03, -1.07693393e-02,
       -2.66548712e-02, -2.05555242e-02, -3.14463042e-02, 3.13281603e-02,
       4.45532091e-02, -1.77242570e-02, -3.18558216e-02, -1.34275910e-02,
       2.73919920e-03, 1.85350161e-02, -1.52290305e-02, -8.84477142e-03,
       4.57712337e-02, 4.94415388e-02, -1.16206892e-02, -4.22709100e-02,
       -1.18803559e-02, -7.60578038e-03, 8.53650924e-03, -7.61366077e-03,
       4.18852409e-03, 5.71698509e-03, 1.41142320e-03, 3.92283895e-04,
       -2.67023104e-03, 2.03384529e-03, -5.52345673e-03, -3.74872261e-03,
       -3.47785186e-03, 1.57886334e-02, 1.87717397e-02, 1.60287097e-02,
       -2.97957566e-03, -1.03149312e-02, -3.67654813e-03,
       -9.03344247e-03, -8.60046223e-03, -2.15430884e-03, 7.23084609e-04,
       3.40122655e-02, 3.00911069e-02, -1.83945335e-02, -2.36897748e-02,
       -1.20900618e-02, 9.56527516e-03, 9.02749598e-03, -1.97911562e-04,
       -5.19546913e-03, 2.25761328e-02, 2.98633222e-02, -4.18149866e-03,
       -2.11960170e-02, -8.90278351e-03, -7.73648731e-03, 3.42740654e-03,
       2.18061658e-04, 1.65697897e-03, -9.89730353e-04, -5.44035924e-04,
       -1.78328925e-03, -4.27784212e-03, 7.30728218e-03, 1.18846418e-02,
       -1.06284604e-03, -6.34928583e-04, 5.35151502e-03, 3.26304766e-03,
       1.79375766e-03, -6.19581994e-03, -6.62128534e-03, 1.49749247e-02,
       1.31619079e-02, -4.54953406e-03, 4.53724060e-03, 9.39429912e-04,
       4.44436073e-03, 2.26885942e-03, -4.85506468e-03, 6.03100052e-03,
       -2.05505569e-03, 9.69996769e-03, -2.90055946e-03, 6.19846443e-03,
       -1.03596575e-03, -3.23470007e-03, -1.82328525e-03,
       -1.18055206e-03, 7.15626823e-03, 2.82296306e-03, 1.84914016e-03,
       -6.61000004e-03, 8.78529996e-03, 6.95741561e-04, -6.64785272e-04,
       -1.29064999e-03, -6.62601367e-03, -6.11904822e-03, 7.97679927e-03,
       2.91435029e-02, 5.51658100e-04, -5.99575462e-03, 1.08381314e-03,
       3.19278101e-03, -4.13499365e-04, -1.99503843e-02, -1.77702717e-02,
       6.34644087e-03, 9.36292578e-03, -9.32196435e-03, 2.93386355e-03,
       -1.67345013e-02, 4.65358887e-03, -1.01148291e-03, -2.91181635e-02,
       -2.17401408e-04, 2.53687240e-02, 2.19460875e-02, -4.64535924e-03,
       4.12446260e-03, -6.18123030e-03, -7.14322506e-03, -7.54449889e-03,
       -5.76301711e-03, 7.98566453e-03, 1.60504803e-02, 5.80641301e-03,
       -5.64430980e-03, 1.58054717e-02, -2.90221040e-04, -2.26437836e-03,
       -6.44326536e-03, -6.50183996e-03, -9.44550429e-03,
       -1.86314632e-03, 2.30883826e-02, 1.26195112e-02, -5.48684597e-03,
       -1.09066786e-02, -1.46075012e-02, -1.46611696e-02,
       -2.34532338e-02, -1.15990834e-02, 2.65879892e-02, 2.36748275e-03,
       5.80848847e-03, -1.02238897e-02, -2.69769616e-02, -7.57208932e-03,
       -1.15257455e-02, -3.11914235e-02, 1.18498346e-02, 6.14385605e-02,
       -1.16044153e-02, 1.84647494e-03, -2.33634058e-02, -2.77123856e-03,
       -4.02788632e-03, -8.75876006e-03, -1.88778564e-02, 6.54428173e-03,
       1.31361950e-02, -2.40188204e-02, -1.98777532e-03, 1.63254817e-03,
       -4.17005969e-03, -2.74512032e-03, -3.11084231e-03,
       -2.68627354e-03, -8.57948326e-03, 4.37520212e-03, 8.91380105e-03,
       1.42332353e-02, -6.55376678e-03, -6.07824977e-03, -7.75541924e-03,
       -1.33699011e-02, -9.64949280e-03, -1.97272506e-02, 2.64642462e-02,
       1.18547026e-02, 1.81708932e-02, -7.16895470e-03, -7.06699491e-03,
       -8.54064897e-03, -3.88895092e-03, -7.00001465e-03,
       -1.09033948e-02, 1.36551438e-02, 3.08403606e-03, -3.10913636e-03,
       -2.83189863e-03, -7.82299042e-03, -6.07064692e-03,
       -6.38889568e-03, -7.80929346e-03, -5.07866684e-03, 3.90493637e-03,
       -1.49738230e-02, -5.55715850e-03, -1.91189756e-03,
       -7.09426182e-04, -6.19940343e-04, -1.46890699e-03,
       -1.26438495e-03, 4.99208341e-04, -1.14031732e-02, 4.08010936e-04,
       -1.86790235e-03, 2.39002309e-03, -3.71766370e-03, -9.69671085e-03,
       -4.61127842e-03, 6.23633899e-03, 1.09069487e-02, -1.13723958e-02,
       4.68864688e-04, -6.09197561e-03, 1.32364891e-02, 4.81232908e-03,
       -4.49584005e-03, 4.62584103e-05, 1.93204749e-02, 5.90379583e-03,
       -1.14841564e-02, 4.05638246e-03, -3.04491259e-03, 4.73479368e-03,
       2.78288708e-03, -4.62382706e-03, 1.92730513e-03, 1.06315417e-02,
       -3.17012030e-03, 1.95745635e-03, 1.93680206e-03, -6.40794449e-03,
       -6.01721113e-04, -9.12134070e-03, -1.18844351e-03,
       -4.61252360e-03, -7.20374146e-03, -8.83582339e-04, 1.82807946e-03,
       3.32399877e-03, -2.51327478e-03, 1.41753547e-03, -7.26449210e-03,
       -1.23935267e-02, -1.61596797e-02, 1.66001562e-02, 1.38431760e-02,
       -3.60254198e-03, 2.47748161e-04, -1.15108443e-02, 2.56499667e-02,
       3.95162310e-03, -8.93126801e-03, 1.07425200e-02, 5.67285009e-02,
       8.56416859e-03, -2.41467021e-02, 4.31983528e-04, 1.01556862e-03,
       2.58781314e-02, -2.26727780e-03, -7.55959842e-03, 7.41033582e-03,
       2.05035582e-02, -7.56442826e-03, -9.05815046e-03, 1.17496168e-02,
       -2.70368764e-03, 1.16197420e-02, -7.39166839e-03, -2.21374258e-03,
       -6.11323304e-03, -9.33261216e-03, 1.18825224e-03, 1.43406214e-02,
       -1.17192063e-02, -1.75731035e-03, -5.62376250e-03,
       -8.26530810e-03, -1.51222236e-02, -1.21900458e-02,
       -1.01893293e-02, -4.91263997e-03, 3.50103551e-03, -2.05504503e-02,
       -9.21805389e-03, 3.49853770e-03, -1.11901313e-02, -8.63449648e-03,
       8.85730609e-03, 3.56615633e-02, 3.86885903e-03, -1.12835793e-02,
       -2.19034720e-02, -1.46122510e-02, 2.42578331e-04, 7.10571185e-03,
       6.11293968e-03, 1.68527383e-02, 2.22367025e-03, 1.14477414e-03,
       -7.59192370e-03, 3.33896419e-03, -7.46935233e-03, 8.01095460e-03,
       -2.41487264e-03, -3.23873456e-03, -1.66731735e-03,
       -5.13659092e-03, -6.05729874e-03, 2.90350779e-03, -6.05667382e-03,
       -5.11040073e-03, -1.62943453e-03, -1.99381839e-02,
       -1.68792307e-02, -1.19410092e-02, -1.74091198e-02,
       -1.32344840e-02, 9.79453232e-03, -1.58324391e-02, -4.53600613e-03,
       -9.61522013e-03, -6.87978044e-03, -6.40682923e-03,
       -4.49352752e-04, 1.68992504e-02, -3.34832846e-04, 4.31408516e-05,
       -2.01380905e-02, -1.46226762e-02, -1.43074756e-02, 7.23245693e-03,
       1.29760848e-02, 7.15804100e-03, 1.08650653e-02, -2.25646436e-04,
       -1.24273952e-02, -1.38846198e-02, -5.53793320e-03,
       -5.09462599e-03, 5.22666750e-03, -1.26512966e-03, -4.06721490e-04,
       6.80621993e-03, 2.16368091e-04, -9.44707356e-03, 5.28448913e-03,
       -1.65090803e-03, 7.28984131e-04, 5.76648302e-03, -6.11232547e-03,
       2.34458782e-03, 1.77984461e-02, -1.26543716e-02, 5.24890190e-03,
       1.46802887e-02, -4.72611468e-03, -4.35207086e-03, 5.77954052e-04,
       3.20343155e-04, -8.31048284e-03, 7.49674952e-03, -1.01616066e-02,
       7.30490685e-03, 1.12180663e-02, -1.71251653e-03, -8.50636512e-03,
       -6.79995690e-04, 5.59573877e-04, -7.97486398e-03, -2.55967141e-04,
       4.79061797e-04, 8.03768111e-04, -3.09941417e-04, -1.54429942e-03,
       1.84417272e-03, 3.97150312e-03, -4.73269308e-03, 4.94817644e-03,
       3.08167897e-02, 5.73125901e-03, -1.02172457e-02, 1.25402305e-02,
       7.55291316e-04, 7.14353053e-03, 3.06064729e-03, -3.73766478e-03,
       1.92781426e-02, 3.75199057e-02, -2.39342600e-02, -4.56000096e-04,
       5.25109731e-02, -6.70999475e-03, 5.59204677e-03, 7.47068506e-03,
       1.15440255e-02, -9.19543614e-04, 1.87910832e-02, -4.86200973e-02,
       1.75242443e-02, 2.57827900e-02, -1.66842658e-02, -2.10747030e-02,
       -3.44188977e-03, -2.54036649e-03, -1.67647954e-02,
       -1.47497421e-02, -3.11076213e-02, 4.65754792e-03, -2.07447354e-03,
       -1.33763375e-02, -6.72828872e-03, 1.27864780e-03, -1.19420362e-03,
       8.70813057e-03, 2.97376327e-02, 1.01503106e-02, -7.15278229e-03,
       7.58290477e-03, 1.01954472e-04, 5.61598875e-03, 1.22095970e-02,
       1.46669615e-02, 2.63617113e-02, 2.43441407e-02, 1.16686132e-02,
       5.54629136e-03, 4.55215201e-02, -2.01542489e-03, 1.19079510e-02,
       1.35514559e-02, 1.44774304e-03, -1.25705702e-02, 2.58327182e-02,
       9.61671956e-03, 1.80764589e-02, 1.88234157e-03, -1.33741936e-02,
       -2.38725506e-02, -6.38458412e-04, -1.89569630e-02,
       -2.12404318e-02, -4.88942722e-03, 2.79355096e-03, 1.06168883e-02,
       -8.83598579e-04, -8.32425337e-03, -1.38618834e-02, 2.97013111e-03,
       1.03623385e-03, 5.50508907e-04, 1.40318461e-02, 4.89131548e-03,
       7.11976318e-04, 1.49770267e-03, -3.37111927e-03, -3.25555052e-03,
       4.68398444e-03, 1.27583481e-02, 7.26165948e-03, 2.66825855e-02,
       9.78417415e-03, 2.44377740e-03, 1.76389366e-02, 2.33813422e-03,
       -9.49490722e-03, 8.46834946e-03, -3.97932110e-03, -1.43289212e-02,
       8.32416955e-03, 1.51463924e-02, 1.27306962e-02, 9.80149140e-04,
       -2.66359327e-03, -1.85963344e-02, 4.45966469e-03, -6.53164787e-03,
       -6.74757548e-03, -8.54773738e-04, 8.69718473e-03, 8.32423754e-03,
       -5.70178777e-03, -5.33373421e-03, -2.74060410e-03, 7.29329186e-04,
       3.47062852e-03, -2.71522789e-03, 1.27673883e-03, -2.68540985e-04,
       -3.91212711e-03, 6.14761841e-03, 1.32224348e-03, -2.17771681e-04,
       6.10882975e-03, 5.81239862e-03, -4.49627265e-03, 7.65864737e-03,
       8.95075407e-03, -6.82364823e-03, 3.34509090e-03, 1.35644001e-03,
       8.80291406e-03, 8.38175137e-03, -5.97506436e-03, -4.20268625e-03,
       1.86355170e-02, 1.57127436e-02, -2.97945226e-03, -1.01805932e-03,
       1.66854691e-02, 2.34559774e-02, 3.37559707e-03, -6.77125819e-04,
       -3.31341545e-03, 7.30975810e-03, -6.48952264e-04, 2.20170687e-03,
       4.61023254e-03, 1.77635960e-02, 1.44797303e-02, 7.59482803e-03,
       7.52381049e-03, 4.35082288e-03, 3.20117758e-03, -1.57674104e-02,
       4.06227633e-03, 1.23504326e-02, -4.64855367e-03, -2.20390316e-03,
       8.33123829e-03, 6.69340929e-03, -7.84344692e-03, -2.09599491e-02,
       -4.58692946e-02, 5.08763222e-03, -4.28111106e-03, -1.67333893e-02,
       2.78000347e-03, -1.15450770e-02, -1.68467667e-02, -2.16926876e-02,
       3.60965915e-03, -3.04410271e-02, 5.56452526e-03, 1.67593770e-02,
       8.69985390e-03, 2.43748701e-03, -5.77327004e-03, 6.47795526e-03,
       -5.01349987e-03, 1.50970034e-02, -2.88127898e-03, 6.79196976e-03,
       1.98039878e-02, 1.36704231e-02, 1.02601144e-02, 9.26010497e-03,
       7.56154582e-03, 5.63564012e-03, 1.41757820e-02, 7.84735102e-03,
       4.78395121e-03, -2.34095030e-03, -1.39526650e-02, -1.12113683e-02,
       7.62812980e-03, -2.41929828e-03, -7.17760855e-03, -8.73936526e-03,
       2.91102496e-03, 3.22304443e-02, -5.59325377e-03, -1.79545116e-02,
       -1.06027704e-02, -4.46654530e-03, 5.14381845e-03, -4.01343554e-02,
       -2.47686207e-02, -1.75358709e-02, 7.98532739e-02, 3.57440822e-02,
       -2.23447755e-03, 2.37225555e-03, 5.66047104e-03, 1.45654241e-02,
       -8.15768261e-03, -7.30933156e-03, 6.52571558e-04, 3.42239961e-02,
       9.66916978e-03, -6.06743479e-03, 1.13631245e-02, 6.47032354e-03,
       4.80222190e-03, -2.56681396e-03, 4.76795947e-03, 7.83155393e-03,
       6.69130823e-03, -2.16570869e-03, -5.75815560e-03, -6.58441288e-03,
       1.45246452e-02, 4.36217873e-04, -3.45929386e-03, 1.22540630e-02,
       3.05135716e-02, 3.33474427e-02, -1.65461730e-02, -1.41275115e-02,
       9.81019926e-04, 1.89269753e-03, 6.33439748e-03, -6.25114702e-03,
       -4.66470752e-04, 2.33636722e-02, 6.01047166e-02, 7.31588295e-03,
       -7.16635585e-03, 2.73357332e-03, 2.82064988e-03, 1.09627414e-02,
       6.39556115e-03, -3.53449979e-03, 4.25276393e-03, 1.39470361e-02,
       -5.06472681e-03, -8.10264610e-03, 6.46529673e-03, 2.20199698e-03,
       4.34681308e-04, 1.02246564e-03, 6.78108260e-03, 6.12976402e-03,
       2.84058694e-03, 3.48951225e-03, 4.54817666e-03, 3.64729762e-03,
       1.21755758e-02, 4.72624600e-03, 1.86480349e-03, 1.32600693e-02,
       1.13650914e-02, 3.16134980e-03, 1.27381114e-02, 1.73072834e-02,
       1.97880846e-02, 1.57267749e-02, 5.07293828e-03, 1.08599132e-02,
       -6.60739024e-04, 1.48143135e-02, 2.92807608e-03, 6.92529837e-03,
       7.05118198e-03, 1.61832012e-02, 2.15543830e-03, 3.85657349e-03,
       -1.20157399e-03, -6.26173243e-03, -1.12968613e-03, 9.17311292e-03,
       1.27107836e-03, -1.00923178e-03, -4.38531861e-03, -2.32177926e-03,
       7.57251075e-03, -4.76540346e-03, 5.83756994e-03, -2.07646540e-03,
       3.83320008e-03, 8.67072865e-03, 5.31521253e-03, -2.87469185e-04,
       1.77244004e-02, 3.25912945e-02, 4.39392449e-03, 1.74801685e-02,
       1.00953300e-02, 3.34320962e-03, 1.33917602e-02, 1.04292985e-02,
       1.47330323e-02, 3.97524387e-02, 1.43993581e-02, -9.28220863e-04,
       -4.86118626e-03, 4.92236577e-04, 2.28037350e-02, 2.02146266e-02,
       2.61306874e-02, 5.21224085e-03, 1.40604461e-02, 1.26075279e-03,
       -2.36669630e-02, -1.25743896e-02, -5.79500012e-03, 8.84853303e-03,
       1.96992909e-03, 3.47514753e-03, -1.55774679e-03, 9.12573945e-04,
       1.89258941e-02, -2.10276316e-03, -6.13257708e-03, -3.06785875e-03,
       1.59579404e-02, 5.59156761e-03, 2.02428852e-03, 2.28772857e-04,
       2.99901497e-02, 4.59044576e-02, -6.04661414e-03, -5.96553460e-03,
       6.98378030e-03, 3.21652442e-02, -4.26568417e-03, -2.92961090e-03,
       1.51393218e-02, 3.14280465e-02, 2.30092630e-02, -9.78203025e-03,
       -7.03204982e-03, -1.72623480e-03, 1.37014454e-02, 4.31673415e-03,
       1.29500479e-02, 1.67373810e-02, -2.63498165e-03, -2.63895490e-03,
       -1.00921448e-02, -1.18247680e-02, -1.31336674e-02, 1.80149581e-02,
       7.27197248e-03, 9.67413280e-03, 1.71652399e-02, 1.25156529e-03,
       8.21895897e-03, 4.08225413e-03, -7.64168624e-04, 5.75377233e-03,
       1.24154938e-02, 1.81533583e-03, -4.77427337e-03, -4.09564096e-03,
       5.53693902e-03, 2.18931213e-02, 1.54126529e-02, -3.46227811e-04,
       8.24593473e-03, 2.11864766e-02, -1.05503667e-02, -9.00128018e-03,
       7.09053176e-03, 3.02012311e-03, 3.64110270e-03, -1.16837211e-03,
       -4.98869596e-03, 1.85165706e-03, 1.67840756e-02, -6.95588719e-03,
       7.61815766e-03, 1.70297176e-02, -6.63060229e-03, -7.64193200e-03,
       -1.17901445e-03, -2.61652190e-03, -3.77722271e-03, 1.99759956e-02,
       1.03364615e-02, -1.80492149e-04, 2.93214712e-03, 5.39444946e-03,
       2.63117347e-03, 4.52183187e-03, -9.29595044e-05, 2.51082121e-03,
       -7.20182620e-03, -6.69651257e-04, 8.83357774e-04, 2.21613352e-03,
       6.47755479e-03, 7.70331034e-03, 2.97012087e-03, -5.74379042e-03,
       -9.34255018e-04, 8.69368855e-03, -1.16483374e-02, -1.08174921e-03,
       -1.65986270e-03, 6.21273136e-03, 6.03273837e-03, 4.58745006e-03,
       -9.68277734e-03, -4.33744490e-03, 1.60229038e-02, -5.81348734e-03,
       2.88208853e-03, 4.81041009e-03, 4.10732022e-03, 7.25160493e-03,
       3.21985199e-03, -9.36714583e-04, 8.98892235e-04, 2.12701713e-03,
       -1.57333945e-03, -4.87380335e-03, -1.66857312e-03, 1.70534421e-02,
       9.73717310e-03, 3.02138692e-03, -4.48547443e-03, -2.34459783e-03,
       -5.10449568e-03, -7.57352542e-03, 7.98767991e-03, 3.44862835e-03,
       3.53755020e-02, 9.40574426e-03, -2.44219676e-02, -1.02340495e-02,
       -1.30962050e-02, 2.99484772e-03, -1.77000556e-02, -2.12579546e-03,
       1.82376839e-02, 2.07772665e-02, 6.13312703e-03, -1.71670262e-02,
       1.26967719e-02, 9.20910109e-03, 1.54369958e-02, -2.68032178e-02,
       2.06681434e-02, 4.52021249e-02, 2.09829640e-02, 1.50162429e-02,
       1.23306056e-02, 2.41377354e-02, 4.78329929e-03, 6.87173242e-03,
       -1.97762549e-02, 1.35212634e-02, 2.61159390e-02, 1.11577408e-02,
       1.03591904e-02, 6.25287741e-03, -5.33088669e-03, -9.22587002e-04,
       6.50727772e-04, -3.79787222e-03, 9.21605714e-03, 1.12293009e-02,
       9.12761688e-03, 8.69209040e-03, -2.43738648e-02, -4.07451880e-04,
       -1.96867660e-02, 3.21619771e-02, 1.49488193e-03, 7.72534823e-03,
       2.49587819e-02, 1.27884522e-02, 2.01784801e-02, -9.83746722e-03,
       1.45914722e-02, -1.57040395e-02, -5.93954558e-03, -2.20627617e-02,
       1.70837939e-02, 4.92950864e-02, 1.22069269e-02, 1.43413628e-02,
       2.36040261e-02, 1.26163559e-02, 1.15685875e-03, -2.35417462e-03,
       -1.21780308e-02, 2.69889720e-02, 2.72569302e-02, 5.61443577e-03,
       4.90067527e-04, 9.51564463e-04, 1.43504888e-03, -9.25677712e-04,
       7.56189739e-03, 1.70223007e-03, 7.92256370e-03, 1.31637119e-02,
       -3.11106996e-05, 7.89107103e-03, 4.12609987e-03, -6.39732182e-03,
       -4.10090527e-03, 2.27549579e-02, 6.15602639e-03, 6.28555019e-04,
       9.87941399e-03, -1.58344824e-02, 2.08041146e-02, 4.45151515e-03,
       2.45858426e-03, -3.80371627e-03, 1.77540705e-02, -1.26041397e-02,
       -4.04291647e-03, 2.69897543e-02, -4.86178324e-03, 9.53303743e-03,
       1.18562514e-02, 4.59918892e-03, -2.27430207e-03, 1.11850621e-02,
       -9.16488189e-03, 5.07091824e-03, 1.00096427e-02, -1.31479918e-03,
       -2.08830601e-03, 6.48273563e-04, -3.38196731e-03, 7.90733611e-04,
       1.20438948e-04, -5.04001626e-04, -1.04175380e-03, -8.65532667e-04,
       -2.43964721e-03, 9.92244677e-05, -1.03393092e-03, -5.67280967e-03,
       3.03522870e-03, -5.10135805e-03, -1.78797543e-03, -8.81861616e-03,
       -8.91980063e-03, -9.33478028e-03, 6.31694868e-03, 9.84591525e-03,
       -1.03150290e-02, -7.61200022e-03, -3.34068900e-03,
       -7.26194819e-04, -4.40427626e-04, -8.28819070e-03,
       -4.10758611e-03, 1.09671131e-02, 1.14697181e-02, -5.37734246e-03,
       -9.08816699e-03, -2.73213373e-03, -3.07003898e-03, 3.15534271e-04,
       -5.92573965e-03, 4.75632120e-03, 9.92235844e-04, -5.46521647e-03,
       -5.76933799e-03, -3.74500826e-03, -2.94794911e-03,
       -1.10081872e-02, 2.69726780e-03, 6.03202917e-03, 1.32309860e-02,
       3.23059363e-03, -2.68485141e-03, -5.95923886e-03, -1.35070439e-02,
       -1.62075981e-02, -2.21493132e-02, 2.06878278e-04, 1.43864024e-02,
       -1.67327505e-02, 3.17848250e-02, 3.16207260e-02, -2.12943424e-02,
       -3.56520973e-02, -3.05355079e-02, 6.67749718e-03, 1.42931202e-02,
       -7.20359106e-03, -1.19692823e-02, 2.34514792e-02, 3.28187086e-02,
       -7.21947523e-03, -2.79250536e-02, -1.15054613e-02,
       -6.98849699e-03, 2.98087648e-03, -6.59522181e-03, 4.30678556e-05,
       -4.29859036e-04, 6.97810377e-04, -6.52461266e-03, -6.35683071e-03,
       -1.55386850e-02, -1.09111173e-02, 1.78685074e-03, 7.40343565e-03,
       -2.10823957e-04, -3.18108033e-03, 1.65895391e-02, -2.41384818e-03,
       -1.97064709e-02, -2.08142679e-02, 3.85425426e-03, 2.69993413e-02,
       1.17319236e-02, -1.85850039e-02, 5.12509532e-02, 5.94580472e-02,
       -7.23576779e-03, -3.15517634e-02, -3.33574116e-02, 1.74975563e-02,
       5.45203499e-02, 6.49940781e-03, 3.01248487e-03, 5.26710525e-02,
       5.97652420e-02, -1.26246258e-03, -2.08893158e-02, -1.42963156e-02,
       -5.62639383e-04, 1.48626044e-02, 4.14931634e-03, -7.10003031e-03,
       2.71685800e-04, -8.61400389e-04, -3.05184303e-03, -1.19807152e-03,
       -7.01692334e-05, -6.39061304e-03, -3.84741812e-03, 3.19398614e-03,
       -4.16784221e-03, 6.67559216e-03, 1.50710745e-02, -3.57419980e-04,
       -1.27935605e-02, 1.81542512e-03, 1.62784231e-03, 3.66973039e-03,
       6.59476966e-04, 8.12600739e-03, 5.43896481e-02, 3.51298675e-02,
       9.86802578e-03, -1.16259288e-02, -3.38749533e-06, 1.15798572e-02,
       2.50273179e-02, 6.83133677e-03, 1.35802543e-02, 4.43525575e-02,
       3.28800082e-02, 3.41359340e-03, 2.48120516e-03, -3.04653146e-03,
       2.07808218e-03, 1.20310262e-02, 1.89381950e-02, 1.31341175e-03,
       2.72481644e-04, -1.71636604e-03, -1.38115650e-03, -7.66498735e-03,
       -9.06942529e-04, 6.34405622e-03, 5.12834499e-03, 6.78159297e-04,
       3.34416691e-04, 4.91247454e-04, -2.76023452e-03, -7.34163728e-03,
       -8.17437097e-03, 1.15148481e-02, 4.26488044e-03, 5.31415967e-03,
       -5.38384018e-04, -4.10424965e-03, 2.21173186e-03, 5.91302582e-04,
       -5.31608984e-03, 1.45306962e-03, 9.38073546e-03, -2.13568448e-03,
       -2.45222962e-03, -4.46057133e-03, -8.30809237e-04,
       -1.19750854e-03, 1.52056149e-04, -5.75273857e-03, 7.62378797e-04,
       4.35702153e-04, -9.50989872e-03, -1.01188722e-03, 5.83956309e-04,
       3.20097432e-04, -1.24321389e-03, -2.61613959e-03, -5.75520284e-03,
       -1.77424327e-02, 1.11369072e-02, 1.71782393e-02, 2.05898937e-02,
       2.02436931e-04, 7.47319209e-05, -8.85660574e-03, -2.46132072e-02,
       -1.19804395e-02, -4.16572131e-02, 1.97249856e-02, 6.43202011e-03,
       3.10796387e-02, -2.12709536e-03, -2.88105570e-03, -9.36622731e-03,
       -4.21140622e-03, -9.53574758e-03, -3.33134085e-02,
       -2.45820172e-03, -6.75628241e-03, 3.66597320e-03, -3.68959038e-03,
       -1.25480844e-02, -1.24631878e-02, -1.21630551e-02,
       -1.41193960e-02, -1.61867291e-02, -1.50856399e-03,
       -2.76438892e-02, -1.19229779e-02, -1.83256413e-03,
       -1.17676621e-02, -3.49872326e-03, -5.76476380e-03,
       -2.93541350e-03, -5.56049356e-03, 1.25344237e-02, 3.00564952e-02,
       2.35235840e-02, -7.45468913e-03, -3.19096819e-02, -1.77455153e-02,
       -2.44750492e-02, -7.64891040e-03, -7.75731122e-03, 3.01084518e-02,
       2.16848813e-02, 3.64893265e-02, -2.56030690e-02, -2.45415661e-02,
       -9.57486127e-03, -6.45441562e-03, -1.02557978e-02,
       -8.62997863e-03, 9.19117033e-03, -2.15378087e-02, 1.22282514e-02,
       -2.84347404e-02, -2.74373889e-02, -1.60807893e-02,
       -1.41924489e-02, -1.22565636e-02, -1.33926719e-02, 5.04076714e-03,
       -3.52122411e-02, -7.93163851e-03, -1.27236685e-02,
       -9.31381062e-03, -2.93926429e-03, -3.38809472e-03, 1.70871068e-03,
       4.20465786e-03, 4.28784266e-03, 1.55851049e-02, 5.30077284e-03,
       -1.06577240e-02, -1.84456334e-02, -5.59535762e-03,
       -3.48116853e-03, -3.62399104e-03, 1.91468094e-03, 3.42821190e-03,
       8.16532876e-03, 2.31262222e-02, 8.54641024e-04, -9.48838424e-03,
       -1.17700053e-02, 6.87561370e-03, -5.94578823e-03, -7.01493490e-03,
       -9.20516264e-04, -1.25659024e-02, 1.54699432e-02, 8.55057035e-03,
       -8.44621379e-03, -9.51156206e-03, 5.76844322e-04, -1.36952486e-03,
       -1.74647139e-03, 5.79804834e-03, -1.42461974e-02, -4.70850617e-03,
       -5.40586363e-04, -1.86716643e-04, 1.60834857e-03, 5.75941885e-05,
       -3.41809657e-03, -1.06329622e-03, 1.63218006e-03, 3.25928023e-03,
       -7.83981406e-04, -1.74856372e-03, -3.41822160e-04,
       -4.66936734e-04, 2.79610581e-03, -5.87373739e-03, -7.17855711e-03,
       3.14384256e-03, -2.44860235e-03, 6.05252432e-03, 5.72337862e-03,
       -3.51920677e-03, -6.35950069e-04, 1.32365189e-02, 2.85701286e-02,
       1.18617807e-02, -6.46266015e-03, -4.85740462e-03, 1.09607065e-02,
       1.01817204e-02, 1.62675977e-03, 2.74150842e-03, 1.13531090e-02,
       8.57208762e-03, 1.30390888e-02, 4.75589419e-03, 3.55710299e-03,
       -1.03233417e-03, 8.64913862e-04, 1.14376459e-03, -1.71138940e-03,
       -6.79115625e-03, -3.80602828e-03, -1.14189489e-02, 1.11374035e-02,
       4.80673322e-03, 4.32168192e-04, -1.00073975e-03, -2.52435487e-02,
       -1.83041021e-02, -2.30038818e-02, -2.18077842e-02,
       -3.38768288e-02, 1.76932830e-02, -2.10938137e-02, 1.97418942e-03,
       -7.43591087e-03, -1.22936415e-02, -3.07816104e-03, 8.83324537e-03,
       1.96951851e-02, -1.24607347e-02, -4.43797326e-03, -6.29770802e-03,
       1.23261474e-02, -1.51259461e-02, 4.23793867e-03, 7.49264099e-03,
       1.33897550e-02, 2.24113893e-02, 6.37886301e-03, 1.77111666e-04,
       -2.97088199e-03, 3.28854239e-03, -1.60314143e-03, -1.00585399e-02,
       -6.95647066e-03, -4.10539098e-03, -6.28234004e-04,
       -8.94333934e-04, 4.89852764e-03, -3.53876525e-03, 1.74450316e-02,
       -5.46473404e-03, -4.09685820e-02, -2.68570744e-02,
       -2.51352172e-02, -2.04443987e-02, -3.19653228e-02, 2.08881944e-02,
       -3.02648488e-02, 9.14368872e-03, -2.05568001e-02, 1.10830751e-03,
       8.72134045e-03, -6.13698456e-03, -2.80478992e-03, -1.94968283e-02,
       2.30190554e-03, 2.79475260e-03, -5.08412952e-03, -2.67743096e-02,
       7.94314686e-03, 1.54848397e-02, 1.55012319e-02, 1.77324433e-02,
       1.19683694e-03, -1.48667453e-03, 6.21718634e-03, -3.32650729e-03,
       1.23746926e-03, -3.59481201e-03, -7.92961475e-03, 5.43398084e-03,
       -9.24510241e-04, -3.91153095e-04, 5.23728340e-05, -3.01761995e-03,
       1.39409872e-02, 9.73280694e-04, -9.31555498e-03, -5.23801614e-03,
       3.25440499e-03, -1.70691125e-03, 4.33916645e-03, 1.58206094e-02,
       -7.71754188e-03, 8.33544973e-03, -7.77186593e-03, 3.24133262e-02,
       2.97989491e-02, 1.04580922e-02, -1.13190655e-02, 4.56917891e-03,
       2.26188246e-02, 3.16921412e-03, -9.78346914e-03, 9.44390427e-04,
       1.28343413e-02, 1.39930500e-02, 1.40502276e-02, 2.75550853e-03,
       2.72408687e-03, 2.02482799e-03, 4.33954317e-03, 5.19332243e-03,
       1.94435809e-02, 6.51945535e-04, -9.18656704e-04, 1.97141012e-03,
       6.98284106e-03, 3.47711472e-03, -7.25976657e-03, -1.44184299e-03,
       2.83825444e-03, 3.05168820e-03, 6.28517009e-03, 7.11119547e-03,
       6.37004990e-03, 1.08079752e-02, 1.58236455e-02, -2.13692663e-03,
       8.84247664e-03, 5.94342686e-03, 4.78205970e-03, 6.34976244e-03,
       -8.68954347e-04, -7.13447761e-03, 2.04466451e-02, 1.73408873e-02,
       1.72949641e-03, -5.29492798e-04, 3.55367345e-04, -7.92963139e-04,
       7.45810743e-04, -4.26407764e-03, -4.64968616e-03, 4.03484562e-03,
       8.27861484e-03, 3.34427808e-03, -5.96503785e-04, -1.16294937e-03,
       -1.42110058e-03, 1.37544004e-03, 2.77778861e-04, -4.17307107e-04,
       1.08503606e-02, -4.08794440e-05, -7.33977789e-03, -4.58550407e-03,
       3.34052689e-04, -3.86828603e-03, 1.01795550e-02, 6.41486887e-03,
       -1.99277117e-03, 2.61614416e-02, 1.69392640e-03, -5.73389558e-03,
       1.20935384e-02, 1.27714397e-02, -6.46240776e-03, 7.78380409e-03,
       -1.13461586e-02, -1.23815387e-02, 1.21973176e-02, 9.51024145e-03,
       1.83894876e-02, -5.75451925e-03, 6.91991439e-03, -6.15479797e-03,
       4.48366906e-03, -3.76205239e-03, -4.05403925e-03, 2.61799339e-03,
       1.44963758e-02, 1.50451381e-02, -1.07905269e-02, -6.46249333e-04,
       7.47744320e-03, 9.09850188e-03, 5.31948917e-03, -3.84836993e-03,
       4.52940864e-03, -2.48930394e-03, -3.68225086e-03, -1.52207131e-03,
       -7.73253944e-03, -7.07490603e-03, 1.44722760e-02, 9.25660692e-03,
       1.02523493e-03, 2.61509530e-02, -5.59324631e-03, -2.91022914e-03,
       2.45271940e-02, 2.98592076e-03, -4.06329404e-04, 2.23449524e-02,
       -1.16161592e-02, -1.23023903e-02, 9.35791619e-03, -1.67073740e-04,
       4.41314979e-03, -3.61907645e-03, 1.18601713e-02, 1.62657183e-02,
       8.93418025e-03, -5.89140551e-03, -1.20050795e-02, 2.94982200e-03,
       1.11964867e-02, 5.31816680e-04, -9.70287062e-03, -3.22153745e-03,
       2.83688456e-02, 1.03969472e-02, 9.27952584e-03, 4.16794719e-05,
       -2.62721628e-03, 2.93053035e-03, 3.22479056e-03, 3.63972248e-03,
       -7.15712924e-03, -3.79164773e-03, 1.73020680e-02, 1.80024244e-02,
       9.97619238e-03, 1.30346846e-02, 7.86081143e-03, 5.95060270e-03,
       1.50516257e-02, -1.20651952e-04, 2.25172602e-02, 3.59092355e-02,
       6.93880022e-03, -4.56814375e-03, 4.10164660e-03, 2.62023974e-03,
       -5.37899090e-03, 2.43254632e-04, -1.59759203e-03, 1.76448524e-02,
       9.94756911e-03, -2.91703292e-03, -1.02748433e-02, -1.86924392e-03,
       -2.79469625e-03, -6.19947072e-03, -3.90122971e-03, 2.54701125e-03,
       9.39072482e-03, 1.93454698e-03, -2.34233332e-03, -8.39085551e-04,
       4.26376099e-03, 3.37753654e-03, -2.85352557e-03, -3.53642553e-03,
       -2.77181459e-03, -1.84382964e-03, 1.86154526e-03, -1.33326463e-03,
       -2.96902750e-03, -1.22733717e-03, 3.68881156e-03, 7.55733857e-03,
       -4.16611880e-03, -5.06613310e-03, -3.26983072e-03, 3.92131833e-03,
       1.59207080e-02, -7.11531285e-03, -9.23707243e-03, -7.42707634e-03,
       1.73079707e-02, 1.22585811e-03, -5.52049931e-03, 1.02485309e-03,
       3.52456910e-03, 6.28426159e-03, -2.32580304e-03, -8.02781899e-03,
       -5.24267135e-03, 6.81875460e-03, -4.23702225e-03, -5.00518223e-03,
       3.71740479e-03, 5.40648354e-03, -7.01193407e-04, -2.68771476e-03,
       5.43412240e-03, 1.59573404e-03, 3.78333987e-03, -6.74284250e-03,
       -3.87658109e-03, -7.87763682e-04, 2.31240932e-02, 1.54084701e-03,
       -7.50708627e-03, 7.14086811e-04, 2.34120470e-02, 1.94207840e-02,
       -3.01207490e-02, -1.71406344e-02, 2.53947135e-02, 1.88853778e-02,
       3.50311777e-04, -1.37867937e-02, -1.61096137e-02, 2.84762587e-02,
       3.87012661e-02, -2.13982794e-03, -1.21189142e-02, 8.35073087e-03,
       -1.29892619e-03, 5.31912176e-03, 1.00409128e-02, -3.79197090e-03,
       7.18763843e-03, 1.23892613e-02, -1.13413539e-02, -1.91514697e-02,
       3.49212112e-03, 8.49017873e-03, 5.48741140e-04, -2.60206114e-04,
       4.84239217e-03, 3.43904784e-03, -4.16451506e-03, -1.01037128e-02,
       2.10371055e-03, -2.55650957e-04, 1.93007234e-02, -1.14358552e-02,
       -1.14580086e-02, 1.97621360e-02, 2.87644807e-02, -2.99537205e-04,
       -3.38843130e-02, -1.27706490e-02, 4.15871441e-02, 1.47506725e-02,
       -3.30030322e-02, -2.04087561e-03, 1.02006020e-02, 2.15620007e-02,
       -1.80085041e-02, -1.22886123e-02, 2.49118134e-02, 4.61720340e-02,
       -7.13288924e-03, -4.57147090e-03, 1.20122610e-02, 3.24862311e-03,
       3.10691353e-03, -5.88607509e-03, -2.13767290e-02, 2.15002685e-03,
       2.07822714e-02, 8.25238135e-03, 1.32126594e-03, 1.89132604e-03,
       3.88495042e-04, 2.53370410e-04, -6.59778435e-03, -5.26611181e-03,
       -5.85189462e-03, 4.07722313e-04, 1.61447120e-03, -4.25879471e-03,
       -4.90669580e-03, 2.68922490e-03, -6.15946949e-03, -7.91519880e-03,
       -1.09912371e-02, 5.03842346e-03, 6.57501025e-03, -2.03886610e-02,
       -1.88959241e-02, -2.37340131e-03, 1.73683986e-02, 1.42926222e-03,
       -5.39692584e-03, -1.60196878e-03, 2.11752262e-02, 1.27254855e-02,
       -1.51950577e-02, -7.89948367e-03, 1.05776684e-03, 1.04434798e-02,
       5.90057299e-03, -6.87551335e-04, -1.23571511e-02, 6.89154258e-03,
       7.74385082e-03, 4.02906706e-04, 3.89561988e-03, 1.16189639e-03,
       -2.72319419e-03, 9.21343570e-04, -2.21293699e-03, 4.82272037e-04,
       1.69979816e-03, 1.14223338e-03, 1.09287556e-02, 1.52278496e-02,
       5.88414166e-03, -4.77572612e-04, -1.90571952e-03, 2.78990786e-03,
       -7.33064488e-03, 8.85157788e-04, 9.72143374e-03, 1.12198945e-02,
       1.04743242e-02, 3.09291505e-03, -2.42209947e-03, -5.85482782e-03,
       1.06346537e-03, -4.37610643e-03, 5.49290562e-03, 1.03116492e-02,
       3.36701836e-04, -4.94026281e-05, -2.95246439e-03, -4.51118033e-03,
       -2.68179807e-03, 7.99287576e-03, 3.11380788e-03, 4.41715121e-03,
       7.58197950e-03, 8.47130083e-03, 5.08565735e-03, 6.75211148e-03,
       -1.83593226e-03, 1.28405076e-02, 1.73609529e-03, 6.05766382e-03,
       1.55034265e-03, 3.45988944e-03, 1.68280471e-02, 4.20766845e-02,
       4.58972976e-02, 4.97737946e-03, 1.21514127e-02, 1.23197706e-02,
       -3.12864706e-02, -6.94265356e-03, 2.05287132e-02, 9.25437361e-03,
       1.57587007e-02, 9.69345402e-03, 1.81722897e-03, 4.96196374e-03,
       2.91674938e-02, -6.28187461e-03, 2.32613180e-02, 3.43723036e-02,
       7.72248546e-04, -3.53845418e-03, 3.91250523e-03, -1.04228994e-02,
       2.02589366e-03, 2.43343618e-02, 8.07145983e-03, 3.06478795e-03,
       1.74708311e-02, 8.44659936e-03, -1.67812000e-03, 1.27627412e-02,
       7.36108981e-03, 7.57224252e-03, -6.78963820e-03, 5.47759654e-03,
       1.07251257e-02, 1.54165644e-02, 3.70909087e-03, 2.39902101e-02,
       6.18184991e-02, 3.28694955e-02, 1.46953007e-02, 8.95647798e-03,
       -3.88367884e-02, 3.73574556e-03, 3.71525623e-02, -1.10839400e-02,
       1.03643592e-02, 2.05189884e-02, 1.57419350e-02, 2.18551476e-02,
       2.96326540e-02, 7.03832414e-03, 1.88427661e-02, 4.27898988e-02,
       -3.82659864e-03, -7.19670905e-03, 2.52651051e-03, -5.60561847e-03,
       6.93076570e-03, 1.22416690e-02, 8.07578489e-03, 1.99647620e-02,
       1.96326077e-02, -3.61482380e-03, -2.08890950e-03, 4.75386064e-03,
       6.90501742e-03, -9.02057800e-04, 3.00377561e-03, 1.64648797e-03,
       3.74528603e-03, 7.26662623e-03, -4.18153265e-03, 6.24236092e-03,
       2.09883433e-02, 2.88583729e-02, 1.69564467e-02, 6.38242112e-03,
       -1.23488531e-02, 8.18219781e-03, 1.68526378e-02, -9.73811187e-03,
       8.96424334e-03, 5.36911609e-03, 2.46639643e-02, 1.24923680e-02,
       1.20959049e-02, 1.88127288e-03, 4.11127112e-04, 1.32349739e-02,
       -8.31325538e-03, -7.42467213e-03, -5.15419710e-03, 1.52429205e-03,
       -6.98841686e-05, 1.31221721e-02, 6.39988435e-03, 9.99974273e-03,
       8.84124357e-03, 2.23367382e-03, 2.21120450e-03, 1.99450622e-03,
       -1.33873604e-03, -2.66435393e-03, -1.81796157e-03,
       -2.60984199e-03, 1.77035760e-03, 2.91777169e-03, 3.55641205e-05,
       1.22621321e-04, -6.63176365e-03, -2.94192205e-03, -1.22368690e-02,
       9.33706202e-03, 4.48280992e-03, 3.88109544e-03, 1.08183213e-02,
       5.57143986e-03, 8.88578873e-03, -4.11593076e-03, -5.06882556e-03,
       -1.82706267e-02, -7.19399098e-03, -1.01854708e-02, 3.09744524e-03,
       2.55857464e-02, 3.13983322e-03, 4.59734118e-03, 1.21432822e-02,
       -4.28262894e-04, -7.52351806e-03, -2.66537210e-03,
       -6.41104486e-03, 6.85382821e-03, 1.29153868e-02, -1.92985899e-04,
       -1.15730509e-03, -3.42419044e-05, 3.47919902e-03, 1.68505055e-03,
       1.29839005e-02, 1.61421287e-03, 4.07604966e-03, 3.37780733e-03,
       -2.07853038e-03, 5.28512988e-03, 2.34483518e-02, -1.28016556e-02,
       3.07006133e-03, 1.80613641e-02, 5.27772936e-04, -1.12770051e-02,
       1.69067997e-02, -1.04527408e-02, 2.87200268e-02, 2.20262799e-02,
       -9.97557957e-03, -5.00608096e-03, 1.19364168e-02, -3.60054411e-02,
       -6.80746371e-03, 5.23323007e-02, 6.88809063e-03, 1.25590777e-02,
       1.51763698e-02, 8.58534500e-03, -8.50720331e-04, 1.89420339e-02,
       -2.20821183e-02, 7.32806232e-03, 3.12068630e-02, -1.87681464e-03,
       2.71205720e-03, 7.33489753e-04, 3.98734072e-03, 2.07806937e-03,
       7.25318037e-04, 2.45176116e-03, 8.06124508e-03, 1.27080390e-02,
       -4.53006383e-03, -9.85435210e-04, 3.33804525e-02, 1.31117459e-03,
       -2.23897179e-04, -3.91434692e-03, -8.03482626e-03, 1.22783314e-02,
       1.66982263e-02, 3.22417403e-03, -7.19706528e-03, 5.13421334e-02,
       8.45388393e-04, 1.24161690e-02, 2.80918758e-02, -4.29867618e-02,
       -6.23453408e-03, 3.81034077e-03, -2.20781029e-03, 2.00581774e-02,
       1.36967851e-02, 6.84816623e-03, 1.67543683e-02, 2.56058611e-02,
       -1.71180628e-02, 7.24078855e-03, 1.01335431e-02, -4.29887557e-03,
       1.66365819e-03, 2.67840386e-03, 8.48331209e-03, 1.66818011e-03,
       2.70304852e-03, 3.16024583e-04, -7.20960693e-03, 2.63303053e-03,
       -1.47206467e-02, -8.87267478e-03, -6.16266858e-03, 5.26061468e-03,
       3.55120725e-03, 9.29140206e-03, 4.02701739e-03, 1.66514497e-02,
       -5.56690284e-05, -1.58561021e-02, -1.01771662e-02, 4.94721346e-03,
       1.02409702e-02, 2.78748255e-02, 1.96887553e-02, -4.55982098e-03,
       -1.22229578e-02, -2.28284262e-02, -1.35514932e-02, 1.33764297e-02,
       1.27287311e-02, 6.59800973e-03, 1.11443782e-02, 2.52435785e-02,
       7.96031614e-04, -8.47515743e-03, -7.22988322e-03, -8.93097895e-04,
       -3.44585482e-04, -1.23956602e-03, -4.49924776e-03,
       -4.58995160e-03, -2.56084477e-05, -3.95356119e-03,
       -1.58419251e-03, 1.65119721e-03, -5.49347652e-03, -3.62999912e-04,
       -4.97020315e-04, -8.97804368e-03, -1.17099434e-02,
       -5.46836620e-03, -3.82543798e-03, 2.94019259e-03, -2.73452443e-03,
       -1.03553375e-02, 1.69206876e-02, 8.19911249e-03, -8.33528396e-03,
       -1.04410788e-02, -6.62555080e-03, 5.79356798e-04, 1.13142440e-02,
       -4.98389732e-03, -2.41786800e-03, 1.54095618e-02, 1.67027805e-02,
       5.27760421e-04, -4.58746916e-03, -1.93977752e-03, -3.16444697e-04,
       2.87180673e-03, -1.34671922e-03, -8.24803859e-03, -3.61804123e-04,
       -1.07763137e-03, -8.08969606e-03, -5.30636823e-03, 4.19104565e-03,
       -1.55391339e-02, -7.70029938e-03, 4.03916603e-03, -9.77957249e-03,
       2.64316937e-03, -9.13562533e-03, -1.30101852e-02, -2.22377740e-02,
       1.05131883e-03, -1.57608166e-02, -8.09982978e-03, 4.60712938e-03,
       1.13597768e-03, 3.79614085e-02, 1.06173912e-02, 9.59093403e-03,
       -2.23731082e-02, -1.26324566e-02, 1.15918228e-02, 1.05490144e-02,
       -1.47559005e-03, 5.78141725e-03, 3.85636613e-02, 3.73084433e-02,
       9.90003441e-03, 1.75445876e-03, -1.45745347e-03, 1.46751909e-03,
       5.83335944e-03, 1.03909615e-02, -5.31536480e-03, -1.14240488e-02,
       5.94502268e-03, -9.59009212e-03, -2.82192742e-03, -9.11966024e-04,
       -1.99609846e-02, -4.27738344e-03, -2.68641487e-03,
       -2.87306048e-02, -9.36493801e-04, -9.10827518e-03,
       -3.82677838e-03, -5.14267199e-03, 6.25919900e-04, -8.86312593e-03,
       -4.00521280e-03, -1.22961635e-02, -2.57824659e-02, 9.93415131e-04,
       2.73140185e-02, 3.45393643e-02, -8.01474787e-03, 7.10884435e-03,
       3.08662336e-02, -1.01557765e-02, -1.05317915e-02, -7.82563537e-03,
       2.21466906e-02, 5.71224205e-02, 2.53803246e-02, 1.14850886e-02,
       1.16559155e-02, 5.48378332e-03, -5.73899876e-03, 3.00526083e-03,
       -6.13119127e-03, -7.52284192e-03, 8.01732298e-04, -2.02418142e-03,
       2.20524450e-03, -6.60723541e-04, -5.21846162e-03, -5.29317185e-04,
       -3.94011289e-03, -1.95135735e-02, -4.21934016e-03,
       -3.56696104e-03, -2.58658896e-03, -8.79393797e-03, 8.48063454e-03,
       5.37538109e-03, -9.33659263e-03, -1.40647478e-02, -2.43238118e-02,
       -5.04199823e-04, 2.34889816e-02, 7.53606670e-03, -1.84436198e-02,
       1.31074805e-02, 2.31904667e-02, -1.49912667e-02, -1.42907193e-02,
       -1.02498438e-02, 1.67818554e-02, 3.01805716e-02, 8.45192745e-03,
       -4.02797852e-03, -2.73017026e-03, 4.80402028e-03, -8.54974985e-03,
       -6.03565481e-03, -4.04823478e-03, -1.47679774e-03,
       -2.72587757e-03, -1.57670304e-03, -4.41327877e-03, 1.37145887e-03,
       8.27535614e-03, 3.47637013e-03, -2.06937385e-03, -9.68938414e-03,
       -5.92782907e-03, -7.78035633e-03, -5.65769756e-03,
       -3.38518713e-03, 9.29445203e-04, 5.10089984e-03, 1.70643665e-02,
       -1.96673369e-04, -6.34185411e-03, -7.45905936e-03,
       -3.77365714e-03, -5.92401531e-03, -2.19145603e-03, 6.29644434e-04,
       -9.05940216e-03, 1.21392412e-02, 1.30860566e-03, -5.99263469e-03,
       -6.21586060e-03, -3.89783015e-03, -2.47060903e-03,
       -2.16003833e-03, 9.48809495e-04, -9.96543467e-03, -3.93573631e-04,
       7.34438217e-05, -9.24886111e-03, -5.17262006e-03, -6.52986532e-03,
       9.14304052e-04, -2.90502748e-03, -3.87121254e-05, 1.34716341e-02,
       7.48587260e-03, -9.49159078e-03, -2.28123628e-02, -1.13836676e-02,
       -1.84361562e-02, -1.29074678e-02, -7.34887784e-03,
       -2.33978266e-03, -1.06230024e-02, 3.13737318e-02, 1.13037722e-02,
       -1.63763277e-02, -3.41092721e-02, -1.03348894e-02,
       -1.47523526e-02, -1.87392514e-02, 2.17106674e-04, -1.72175393e-02,
       2.72374023e-02, 4.26329076e-02, -5.03034471e-03, -1.86439399e-02,
       -3.56699806e-03, -1.61999706e-04, -5.22438949e-03, 4.94896946e-03,
       -2.08445136e-02, 1.89284654e-03, 9.38055292e-03, -9.09289997e-03,
       -2.43025762e-03, -1.96913397e-03, 3.92257469e-03, -8.89219251e-03,
       -4.34917398e-03, 1.14395590e-02, 2.47280598e-02, -4.83021187e-03,
       -3.21682021e-02, -4.72962623e-03, -1.22950901e-03, 4.91005660e-04,
       2.68145493e-04, -2.22277083e-03, -1.60356965e-02, 1.76953226e-02,
       -7.46490946e-03, -2.75049023e-02, -1.92910880e-02,
       -7.60730216e-03, -1.56857818e-02, -1.29522504e-02,
       -4.52209730e-03, 8.47540237e-03, 2.79104672e-02, 2.62740292e-02,
       2.22835713e-03, -8.72649532e-03, -5.22854598e-03, -7.95155670e-03,
       3.58872442e-03, -1.70214946e-04, -7.23213516e-03, 1.71024725e-02,
       2.33703293e-02, -5.79945091e-03, -4.48097271e-04, -2.26042792e-03,
       7.22701807e-05, 1.64716551e-03, -5.22019435e-03, 5.70721459e-03,
       1.93930846e-02, -3.00163054e-03, -2.05148812e-02, -4.60309675e-03,
       4.59803548e-03, 3.33315297e-03, 1.36748953e-02, -2.45378702e-03,
       -5.88743528e-03, 2.90635377e-02, -1.35501986e-03, -1.18615273e-02,
       -1.02179088e-02, 4.60225483e-03, 3.71475006e-03, 2.52541201e-03,
       -8.90760391e-04, 6.10430446e-03, 4.37500374e-03, 5.69319539e-03,
       2.80222972e-03, -6.75750617e-03, -3.68092116e-03, -4.73817997e-03,
       7.52972672e-03, 1.72667508e-03, -9.02558863e-03, 6.22160733e-03,
       8.46678205e-03, -3.80118540e-03, -2.74363765e-03, -2.85698799e-04,
       -2.23413971e-03, -1.08472619e-03, -1.25463726e-03,
       -4.42570448e-03, 1.68438687e-03, -8.78813502e-04, -1.02214189e-02,
       -8.12466815e-03, -7.01134698e-03, -9.58581083e-03,
       -7.72905443e-03, -1.44777214e-03, -9.85757262e-03, 2.77542183e-03,
       -8.26219679e-04, 9.00891423e-03, 2.67994893e-03, -2.69874511e-03,
       -5.22659486e-03, -1.78734248e-03, -1.12471944e-02,
       -1.25445696e-02, -4.97569190e-03, 6.50386908e-04, 2.13624141e-03,
       3.60739627e-03, 7.71114230e-03, 6.56996993e-03, 1.35144196e-03,
       -5.06696897e-03, -5.27559035e-03, -1.23031568e-02,
       -2.53091985e-03, -7.42450589e-03, -1.04388911e-02,
       -2.75482400e-03, -4.30068793e-03, -6.11652108e-03, 5.03949821e-03,
       -1.21939247e-02, 7.92638678e-03, 6.38083834e-03, -1.64805236e-03,
       -1.21245598e-02, -5.38087916e-03, -8.83393083e-03,
       -2.54894746e-03, 2.59899674e-03, -2.52852924e-02, -3.25905066e-03,
       -3.10469628e-03, 2.27298569e-02, 2.27989405e-02, 4.98708477e-03,
       -1.38206333e-02, -1.22638186e-03, -9.99944285e-03,
       -2.08561979e-02, -1.30462842e-02, -4.52491269e-03,
       -4.27716831e-03, 8.91260337e-03, 1.12144221e-02, -2.37828121e-03,
       7.91166350e-03, -2.58906418e-03, -3.68929701e-03, -2.50935002e-04,
       -1.31609943e-03, -8.22061859e-03, -6.93131797e-03,
       -5.07325120e-03, -6.00793958e-03, -6.99251611e-03,
       -5.58923872e-04, -1.96444918e-03, 9.72466916e-03, 5.34311915e-03,
       2.99173258e-02, 2.74028489e-03, -1.15856277e-02, -1.00662718e-02,
       9.25326906e-03, 5.12781925e-03, -1.58624072e-02, -1.63120385e-02,
       1.15080141e-02, 4.06832807e-02, 4.63714376e-02, -4.19300655e-03,
       -4.03652666e-03, 2.15961076e-02, 1.10111879e-02, -2.11771476e-04,
       -1.93670858e-02, -1.53075429e-02, 6.13189256e-03, 2.08074264e-02,
       -3.86867602e-03, -1.04307337e-02, 3.18765268e-03, 6.02602120e-03,
       -4.41234419e-03, 1.08587490e-02, -1.46095827e-02, -3.52677586e-03,
       -3.07182851e-03, -4.63394541e-03, -1.24138387e-05, 9.72623413e-04,
       -8.14279483e-05, 3.45702108e-04, -6.96948031e-03, -4.94864304e-03,
       1.89292468e-02, -3.23771732e-03, -8.98907613e-03, -1.06975269e-02,
       1.08239166e-02, 6.24991348e-03, -1.28593426e-02, -1.07658952e-02,
       2.07795389e-03, 2.51022801e-02, 9.46168415e-03, 3.20592808e-04,
       1.05958467e-03, 9.08049848e-03, -2.08932091e-03, 2.58382468e-04,
       -6.87907403e-03, -1.14347413e-03, 9.98760294e-03, 1.26729431e-02,
       -3.45138763e-03, 1.58312137e-03, -2.31019003e-04, -6.45166542e-03,
       -1.06471088e-02, 9.00445692e-03, -2.39850301e-03, 5.69096534e-03,
       2.88923201e-03, -6.95771678e-06, 1.95579533e-03, 3.09905247e-03,
       -6.96699508e-03, 9.78330034e-04, 6.14944845e-04, 1.78539229e-03,
       9.79798473e-03, 8.81966949e-03, 6.90886891e-03, 9.71134100e-03,
       2.98020267e-03, -6.68092351e-03, 9.31081455e-03, 4.71736165e-03,
       4.63016750e-03, 1.19259153e-02, -4.56627365e-03, -4.09285631e-03,
       6.16377499e-03, 4.94850974e-04, -6.64646504e-03, 1.62329734e-03,
       6.73514931e-03, 6.72649080e-03, 2.33055791e-03, -2.20699119e-03,
       -3.43693001e-03, 1.31835602e-03, 4.79890592e-03, -3.27673089e-03,
       -2.87348591e-03, -3.46032961e-04, 6.64066337e-03, 1.87109988e-02,
       1.86178610e-02, 3.97218158e-03, -3.19351116e-03, 5.45381615e-03,
       -2.27306178e-03, 4.71142400e-03, 4.23608720e-03, 1.71494868e-03,
       9.21671279e-03, 3.36766355e-02, 1.76621769e-02, 1.12128491e-02,
       1.25853820e-02, -1.57502200e-03, 1.43595804e-02, 2.67236289e-02,
       1.53091708e-02, 1.57410745e-02, 7.98616000e-03, -3.36837652e-03,
       1.26519604e-02, -4.84678801e-03, -1.83540192e-02, -5.55418292e-03,
       1.11542800e-02, 1.60815604e-02, -3.88734695e-03, -1.27731375e-02,
       -1.69909019e-02, -4.57382062e-03, -5.20728668e-03,
       -5.67896292e-03, -2.28962931e-03, 7.92290922e-03, 8.73510074e-03,
       2.55291853e-02, 2.62183473e-02, -1.77397998e-03, 7.96981098e-04,
       1.10399351e-02, 3.51045211e-03, 9.77866724e-03, 8.93631577e-03,
       -7.09970482e-03, 3.53326020e-03, 5.40627390e-02, 4.44304710e-03,
       -1.54329964e-03, 4.17175051e-03, 3.90876690e-03, 1.98889114e-02,
       6.04032576e-02, -2.38694325e-02, -3.65018770e-02, 2.10817289e-02,
       -9.02652182e-03, 1.67207364e-02, -4.55145305e-03, -1.49615947e-02,
       2.81974534e-03, 4.52455841e-02, -3.33295278e-02, -2.98793074e-02,
       -2.12806296e-02, -1.11334631e-02, -4.16691322e-03,
       -3.87322856e-03, -2.40457500e-03, -1.18189333e-02, 1.46509577e-02,
       -2.66340785e-02, 9.26170498e-03, 6.99527841e-03, -1.79618108e-03,
       5.88715961e-03, 6.18106220e-03, -1.73943245e-03, 7.26012047e-03,
       -1.92354771e-03, -6.68253936e-03, 7.97380228e-03, 2.11595166e-02,
       -2.17953697e-03, 3.76747921e-03, 2.42673536e-03, -5.19968243e-03,
       5.72094787e-03, 3.88451889e-02, -1.39985178e-02, -1.72570348e-02,
       -6.86494028e-03, -1.03623038e-02, 4.83336393e-03, -3.14562139e-03,
       -1.11784162e-02, 1.74038820e-02, 2.39394717e-02, 2.72531738e-03,
       -3.77121870e-03, -9.22968332e-03, -7.32318871e-03, 2.82831280e-03,
       3.39699304e-03, 2.05148337e-03, -7.51148909e-04, 2.62819021e-03,
       -2.07629381e-03, 6.29217178e-03, -1.43988559e-03, 7.99786765e-04,
       3.11193313e-03, 1.02775914e-04, -9.81917605e-03, -2.99390336e-03,
       2.01828405e-03, 4.18463070e-03, 1.74837690e-02, -3.02594766e-04,
       -4.67155408e-03, 5.81296626e-03, 5.04654413e-03, -1.50366332e-02,
       -1.12691130e-02, 2.30883691e-03, 2.74572037e-02, 5.81116695e-03,
       -5.45364898e-03, 1.82985771e-03, 5.63212857e-03, 8.18908028e-03,
       -7.90222175e-03, -2.99459277e-03, 2.15040743e-02, 2.87528746e-02,
       -4.48457245e-03, -5.12652259e-05, 8.41594022e-03, 6.81538833e-03,
       6.24954607e-03, -5.16321161e-04, -6.96069654e-03, 3.57675715e-03,
       6.31443132e-03, 1.23406658e-02, 5.36201289e-03, 9.29862168e-03,
       6.27129152e-03, -4.09179972e-03, -2.16588099e-02, -7.40154460e-03,
       2.13451241e-03, 3.20757809e-03, -5.82504971e-03, -1.63370371e-02,
       -7.65271299e-03, 8.92800963e-05, -9.70082171e-03, -1.57008562e-02,
       -1.81363076e-02, 1.33549152e-02, 2.09097266e-02, -2.54138112e-02,
       -3.36115882e-02, -2.79429741e-02, 3.96356173e-03, -3.99999181e-03,
       -4.19612322e-03, 1.42501770e-02, 6.03954494e-02, 4.04090248e-02,
       -8.13573878e-03, -6.30866271e-04, -3.35046649e-03, 1.66413840e-02,
       7.89407175e-03, -5.88431372e-04, -6.58442592e-03, 2.83334628e-02,
       2.02018842e-02, -1.11710653e-02, 5.08627994e-03, 4.65481449e-03,
       7.46908784e-03, 3.40376690e-04, -4.61924542e-03, 3.69436806e-04,
       2.01134328e-02, -1.73582435e-02, -4.42714132e-02, -3.17182951e-02,
       -1.85072573e-03, 6.10615965e-03, 3.61582055e-03, -1.66028424e-03,
       -2.64033452e-02, 6.14075316e-03, -3.82620543e-02, -2.31431425e-02,
       -1.90461222e-02, -3.47847901e-02, -1.25085060e-02,
       -9.97699704e-03, 1.54409846e-02, 3.07563134e-03, 2.52410900e-02,
       -1.39562795e-02, -1.20434712e-03, 9.13647562e-03, -5.97488973e-03,
       5.61588444e-03, -5.81581471e-03, 1.98895819e-02, 1.45764621e-02,
       2.68742573e-02, -1.54778035e-03, -2.79642828e-03, -3.00054066e-03,
       -6.59047510e-04, 3.79490783e-03, -1.06244197e-03, -1.32373394e-03,
       9.74849891e-03, 5.13256295e-03, -1.90042995e-03, 7.81353842e-03,
       -7.05523137e-03, -2.07300228e-03, 1.18702119e-02, 1.22283027e-02,
       9.27238259e-03, -1.14433654e-03, -2.84225680e-03, -4.85340087e-03,
       1.85233559e-02, 3.67928948e-03, -1.88819878e-02, 8.46454466e-04,
       2.74681561e-02, 3.51621360e-02, 1.09471688e-02, -5.71340648e-03,
       4.41809651e-03, 1.99566316e-03, 5.20847039e-03, -9.23090894e-03,
       2.90802890e-03, 9.19503346e-03, 3.90307680e-02, 1.24868415e-02,
       9.10328049e-03, -4.68978705e-03, -1.40707102e-03, -2.72512925e-03,
       3.47947469e-03, 2.26684776e-03, 1.11324480e-03, -5.27385902e-03,
       -1.29431125e-03, 4.09799255e-03, 4.89678374e-03, -4.81086131e-03,
       -2.97240593e-04, 1.09068062e-02, 7.39154872e-03, 6.86082244e-03,
       -2.77957227e-03, -1.05458861e-02, 3.65623413e-03, 1.03535699e-02,
       -9.85101052e-03, -2.00145040e-03, 1.24748552e-03, 8.81102111e-04,
       9.12410673e-03, 4.33911104e-03, -1.89633167e-03, -2.57387554e-04,
       9.73353535e-03, -4.58726194e-03, -1.30097126e-03, -2.69248127e-03,
       -4.30485979e-03, -2.19141413e-03, -4.48362989e-05, 2.61808652e-03,
       7.85533432e-03, 3.87179619e-03, -8.68258718e-03, -6.77178055e-03,
       2.00922485e-03, 9.39643104e-03, -2.11134576e-03, -2.29859201e-04,
       2.92500597e-03, 8.50757770e-03, 5.90353552e-03, -3.83919897e-03,
       2.38745561e-05, 1.27478950e-02, 3.58663984e-02, 1.42865786e-02,
       -3.91158136e-03, -1.06432084e-02, 1.21441726e-02, 1.70610826e-02,
       -9.51501448e-03, -1.02875708e-02, -4.96998057e-03, 3.17278802e-02,
       1.35409171e-02, 3.74956150e-03, 8.04900192e-03, 1.06468564e-03,
       1.40654771e-02, -1.33163873e-02, -1.29895387e-02, -1.19319158e-02,
       1.55175768e-03, -3.36930010e-04, 1.24078542e-02, 6.08392351e-04,
       3.34229693e-03, 8.09566490e-03, 1.58559211e-04, -1.94080931e-03,
       -7.58401176e-04, 5.42998174e-03, -5.15189627e-03, 6.08574040e-03,
       4.44733212e-03, 8.32416397e-03, -1.23440230e-03, 4.16713487e-03,
       1.87749248e-02, 1.38022434e-02, 3.93318720e-02, 1.16537232e-02,
       2.06385814e-02, 4.32319054e-03, 4.87571815e-03, -2.49805115e-03,
       -2.56337970e-02, 1.81734818e-03, -3.01902415e-03, 3.42248008e-02,
       3.42968479e-02, 3.84224276e-03, 3.11588161e-02, 8.33737385e-03,
       2.12640669e-02, -7.51399389e-03, -1.88100357e-02, -1.50964689e-02,
       1.19376751e-02, 1.24454603e-03, -1.77409500e-03, 3.36058089e-03,
       -2.76432070e-03, 4.64252802e-03, 7.45799905e-03, 5.91600779e-03,
       -1.29669125e-03, 1.84757228e-03, 4.51386394e-03, 8.60313606e-03,
       5.91428299e-03, 8.52963794e-03, 6.04482321e-03, 2.35664397e-02,
       1.16283325e-02, 2.42626457e-03, 1.47429369e-02, 1.72445923e-02,
       3.98873910e-02, 9.37839597e-03, 1.73885617e-02, -7.12316809e-03,
       1.25278924e-02, 1.31189497e-02, 1.50450962e-02, 5.95397456e-03,
       3.10464278e-02, 1.42437769e-02, 5.72875608e-03, -3.72796250e-03,
       9.64799244e-03, -8.13101605e-03, -1.57068705e-03, 6.82734279e-03,
       1.92088645e-03, -1.53594720e-03, -4.40338859e-03, 2.96024675e-03,
       3.44355078e-03, 7.14008976e-03, -1.86111091e-03, -2.69829775e-06,
       -7.16983108e-04, 3.99121112e-04, 8.15061107e-03, 5.22606727e-03,
       2.16221507e-03, 2.07686843e-03, 3.53797222e-03, -3.26649635e-03,
       -3.66271706e-03, 4.13135299e-03, 2.97987415e-03, -4.43041528e-04,
       6.10289909e-03, 1.68431154e-03, 1.06035369e-02, 3.96336801e-03,
       6.73163333e-04, -5.90431737e-04, 1.37548028e-02, 2.43656826e-03,
       3.91842099e-03, 6.52712630e-03, -9.24718939e-03, 1.00123922e-04,
       6.63106621e-04, 1.68286977e-04, 4.63223597e-03, 6.35775737e-03,
       -3.62402364e-03, 8.70309421e-04, 5.58866141e-03, -4.11987945e-04,
       -6.93512411e-05, 8.76159320e-05, -3.58372438e-03, -3.44853872e-03,
       2.29690899e-03, 1.05200736e-02, 8.84593371e-03, 1.00218672e-02,
       7.24407844e-03, -5.16151404e-03, 6.85299793e-03, -5.34926960e-03,
       -1.60840712e-02, -1.35913864e-02, 2.40151933e-03, 8.04598350e-03,
       1.61783192e-02, -4.14454052e-03, 1.67396311e-02, 1.38243036e-02,
       7.46939471e-03, 2.34767189e-03, -8.01185553e-04, 9.54221282e-03,
       1.76246669e-02, 2.54031215e-02, -6.20337296e-03, -9.85984597e-03,
       -3.16643622e-04, 1.98488706e-03, 1.98239982e-02, 1.30780553e-02,
       1.26530640e-02, 8.45421851e-03, 2.75442433e-02, 2.20331782e-03,
       -1.17177935e-02, 1.39899692e-03, -9.71891452e-03, 3.39107908e-04,
       8.25476460e-03, 1.52734378e-02, 1.71167739e-02, 2.46085180e-03,
       8.98315664e-03, -1.10455491e-02, 4.41364525e-03, -8.95880815e-03,
       -1.97371822e-02, -8.08342360e-03, 2.95463391e-02, 2.26740688e-02,
       1.08309099e-02, -2.52833497e-02, -5.48650511e-03, 5.13780222e-04,
       1.48765845e-02, -9.55681875e-03, -1.16868615e-02, 1.46688158e-02,
       2.39585582e-02, 5.30335046e-02, -2.52789985e-02, -4.56406036e-03,
       2.81414576e-02, 7.57062389e-03, 2.24373881e-02, 5.85558685e-03,
       2.59831138e-02, 1.51646836e-02, 2.45708618e-02, -1.08263679e-02,
       -4.46811691e-03, 9.53919534e-03, -8.68963951e-04, 7.82867428e-03,
       9.36824363e-03, 4.94184345e-03, 9.03724693e-03, 4.80639312e-04,
       4.52097040e-03, -6.52563339e-03, 2.06207251e-03, -1.18957609e-02,
       1.08237634e-03, 1.23448130e-02, 1.04748635e-02, 8.97292793e-03,
       4.14384203e-03, -1.24072181e-02, 4.79825103e-05, 1.01506459e-02,
       -1.94201432e-02, -1.67861786e-02, 1.36537319e-02, 8.05987604e-03,
       1.77641027e-02, 8.55180342e-03, -8.46299715e-03, 9.87706240e-03,
       7.01429974e-03, -7.41019798e-03, 5.08510275e-04, 7.86298234e-03,
       8.51882063e-03, 4.06813715e-03, -1.16543649e-02, -4.34431620e-03,
       1.37748162e-03, 1.13242038e-03, -7.97448680e-04, -3.48917185e-03,
       9.19406535e-04, -3.10442690e-03, -2.58543063e-04, -3.18577862e-03,
       -4.03440138e-03, -1.76982884e-03, -1.09404023e-03,
       -5.97900990e-03, 9.22805350e-03, 7.07560778e-03, 2.50450918e-04,
       -1.16418186e-03, -2.69578304e-03, 5.21097286e-03, -6.84843981e-04,
       -5.43194311e-03, -6.61178678e-03, 1.62725691e-02, 3.28076966e-02,
       2.21762806e-02, -6.46510452e-04, 1.20740170e-02, 1.59265120e-02,
       -7.70152081e-04, 4.30122282e-06, -1.84776809e-03, 9.64966509e-03,
       3.06059979e-02, 1.68460533e-02, 1.28656374e-02, 8.16961098e-03,
       4.39789984e-03, -2.87515763e-03, 1.18625385e-03, -4.02843300e-03,
       -4.98910109e-03, 7.98909532e-05, -1.33293448e-04, 3.43609275e-03,
       1.34931551e-03, -3.52709484e-03, -1.16867470e-02, -6.32725516e-03,
       -1.47345914e-02, 2.52077989e-02, 4.58610430e-03, 4.77450341e-03,
       -1.04940718e-03, 2.35054642e-02, 1.32823186e-02, -1.44397058e-02,
       -1.27511509e-02, -2.50229873e-02, 2.59898696e-02, 6.02640621e-02,
       1.20751346e-02, -1.46960942e-02, 2.94630229e-02, 4.72611189e-02,
       -1.95437111e-02, -2.37119850e-02, -1.45822382e-02, 2.49367412e-02,
       6.50218502e-02, 1.45898554e-02, 1.43113602e-02, -1.45922124e-03,
       1.10322526e-02, -1.30306380e-02, -1.68790538e-02, -3.78075126e-03,
       -8.75855703e-03, -2.93006538e-03, 5.84535347e-03, 6.12843689e-03,
       1.16197448e-02, -9.48319957e-03, -3.98283824e-03, 2.42824480e-03,
       -1.83032714e-02, 1.12783955e-02, 3.99462588e-04, 1.86446477e-02,
       1.58595461e-02, 1.55773871e-02, -1.22107910e-02, -1.60879064e-02,
       -1.64409950e-02, -4.36702520e-02, 1.45101203e-02, 5.08096628e-02,
       1.07370988e-02, -9.59534664e-03, 3.69097339e-03, 2.63082422e-02,
       -1.75606813e-02, -3.44107486e-02, -3.13315541e-02, 1.75279472e-02,
       5.47813140e-02, -2.15333514e-03, 1.63589697e-03, -8.93589866e-04,
       1.55495154e-03, -1.58416685e-02, -1.91928558e-02, -4.19333344e-03,
       -5.19437529e-03, 3.63971386e-03, -1.17237552e-03, 1.79397088e-04,
       -6.17610116e-04, -2.38308730e-03, -6.68640307e-04,
       -9.94373040e-05, -1.21891964e-02, -1.38058572e-03, 5.87349059e-03,
       -7.73200649e-04, -6.75922493e-03, -1.85700301e-02,
       -3.90079548e-03, -2.38323677e-03, -3.16010369e-03,
       -2.31429059e-02, 3.82448221e-03, 2.79458370e-02, -8.53678398e-03,
       -1.48535976e-02, -3.05877067e-03, 1.09968809e-02, -1.06323473e-02,
       -7.02966889e-03, -2.18082406e-02, 6.98417192e-03, 2.69721039e-02,
       4.46826732e-03, -8.35961476e-03, -8.28709337e-04, 3.68606416e-03,
       -6.99251471e-03, -8.43228213e-03, -1.97796710e-03, 4.64076496e-04,
       6.27991802e-04, 4.99893446e-04, -3.08088167e-03, -5.40455477e-03,
       1.03978021e-03, 5.93850343e-03, -9.79257980e-04, -6.92768302e-03,
       -1.63325225e-03, 2.71102745e-05, -1.08000415e-03, -1.77945907e-03,
       -1.28539903e-02, -5.24937222e-03, 1.48857627e-02, 4.36744606e-03,
       -2.19970196e-03, -6.54960750e-03, -4.65259328e-03,
       -7.01287528e-03, -1.11575946e-02, -1.15694758e-02, 8.98158830e-03,
       1.86281353e-02, 1.89470481e-02, 1.08840130e-02, -4.39428492e-04,
       -3.07044596e-03, -4.09872644e-03, -4.61668288e-03,
       -2.66917958e-03, 3.00883530e-05, 8.17323662e-03, 1.65230855e-02,
       -4.52477066e-03, 7.60097348e-04, -5.58971893e-03, -1.64393173e-03,
       7.19899894e-04, -1.40011488e-02, 4.31207987e-03, 1.80030484e-02,
       -1.37692981e-03, -1.20358868e-02, -7.92190619e-03,
       -3.56439897e-03, 3.95932788e-04, 1.16899107e-02, -1.28000248e-02,
       -1.52901812e-02, 2.18100548e-02, -8.91782343e-04, -1.51405315e-04,
       -2.33254619e-02, 2.73600128e-03, 2.26563192e-03, -2.00509056e-02,
       -5.70076657e-03, 1.08684003e-02, 1.03669744e-02, 2.46524885e-02,
       1.31640704e-02, -6.61571790e-03, -6.30370993e-03, -4.52534622e-03,
       -9.03260428e-03, 8.76452017e-04, -4.77625988e-03, 4.49427450e-03,
       2.19637565e-02, -9.68531985e-03, -7.78752845e-03, -1.12818237e-02,
       -7.46676791e-03, -4.67385445e-03, -7.05631869e-03, 7.77974399e-03,
       1.41938590e-02, -5.82850724e-03, 7.72012724e-03, -1.66665316e-02,
       -2.08575893e-02, 5.31508296e-04, -1.30783450e-02, -1.74232293e-02,
       -1.87881496e-02, 7.97371846e-03, 8.62947572e-03, -1.06151216e-02,
       -1.95683520e-02, 1.54669043e-02, 1.32841934e-02, -1.50015466e-02,
       -3.03022992e-02, 6.62052073e-03, 1.17699811e-02, 1.63397416e-02,
       -1.50244078e-03, -3.35742603e-03, -1.07684592e-02, 3.41858412e-03,
       -1.02179125e-02, -6.96908729e-03, 6.17157295e-03, 4.72882576e-03,
       1.80033427e-02, -7.32319709e-03, -1.28091732e-03, -2.95260176e-03,
       -5.99722005e-03, 4.04375431e-04, -8.41142144e-04, -3.40367481e-03,
       -6.70648180e-04, -1.25149190e-02, 8.55015998e-04, -3.72921280e-03,
       -1.69664621e-02, -6.91934070e-03, 3.58945318e-03, 1.77350524e-03,
       -2.85202754e-03, -1.18208155e-02, -4.60053841e-03,
       -2.74530798e-03, -2.89277709e-03, 5.94176864e-03, 7.82983087e-04,
       5.63016115e-03, -6.73961686e-03, 2.48293132e-02, -5.04324446e-03,
       2.53584911e-03, -1.40519126e-03, -4.45828447e-03, 2.87961448e-04,
       1.67539052e-03, -3.82301048e-03, -4.82230354e-03, 5.19441254e-03,
       1.83655170e-03, 2.02066894e-03, 1.24565745e-03, -4.04988322e-03,
       -5.07566333e-03, -2.38222745e-03, -3.86942853e-03,
       -6.90894946e-03, 1.08975149e-03, 1.02725569e-02, 8.67785700e-03,
       3.18973996e-02, 2.82792351e-03, -3.96254938e-03, -4.42944886e-03,
       -6.16071839e-03, -9.73420311e-03, -8.58799554e-03, 6.92294631e-03,
       2.32717823e-02, 3.74026373e-02, 1.84577163e-02, 1.85033784e-03,
       -3.29262298e-03, 2.61779618e-03, -1.14802253e-02, -5.80880605e-03,
       -4.16202936e-03, -5.77927160e-04, 3.00957821e-03, 4.89515159e-03,
       -5.12148859e-03, -4.06540325e-03, 1.54075737e-03, -2.14088522e-03,
       -1.44566630e-03, 4.99468856e-03, -9.84792318e-03, 2.44447816e-04,
       -1.19774025e-02, -9.71439295e-03, 6.96696807e-05, -6.82873232e-03,
       -5.65371849e-03, 7.62179354e-03, 1.12559265e-02, 1.17274802e-02,
       4.02954295e-02, -9.20003746e-03, -7.06528733e-03, -8.98323581e-03,
       -1.69853575e-03, -2.33987486e-03, -1.88633855e-02, 5.12614986e-03,
       2.78633460e-02, 4.58120741e-02, 7.95249641e-03, 4.73984284e-03,
       -8.32356513e-04, 4.92463168e-03, -1.45310787e-02, -6.86621945e-03,
       -3.35881184e-03, 9.68050025e-03, 1.18790679e-02, 2.89652939e-03,
       -1.09821223e-02, -4.36073635e-03, 8.21047556e-03, -7.73122814e-03,
       -1.75445247e-02, 2.32084952e-02, 1.56411005e-03, -5.89685049e-03,
       -1.05341729e-02, -1.21402081e-04, 2.20081396e-03, -6.07649330e-03,
       -6.71036681e-03, 1.78420823e-02, 1.59556735e-02, 9.89657175e-03,
       7.21285958e-03, 7.92724360e-03, -1.09398719e-02, -4.76754876e-03,
       -6.30343752e-03, -5.43885166e-03, 1.20439846e-03, -5.50896022e-03,
       2.44599897e-02, 1.37146674e-02, 2.02191286e-02, -3.82783148e-03,
       -2.11729966e-02, -1.86075289e-02, -9.06682760e-03,
       -2.27891300e-02, -2.52108332e-02, 6.91062678e-03, 7.24973017e-03,
       5.22964983e-04, -4.85232379e-03, -5.01673063e-03, -7.54887611e-03,
       -8.15440249e-03, -2.72619445e-02, 1.72873344e-02, -4.13015438e-03,
       -3.90454382e-03, -5.15626837e-03, 1.33933721e-03, 1.55532616e-03,
       3.27624817e-04, -2.26766337e-03, 1.17139230e-02, -1.62718748e-03,
       3.69803514e-04, -1.96332624e-03, -8.85103946e-04, -6.81977079e-04,
       -2.59462954e-03, -6.42618118e-03, -5.75967273e-03, 1.29542348e-03,
       -4.50793607e-03, -8.02999921e-03, -2.63735978e-03,
       -3.33596091e-03, 5.93893521e-04, -1.09173460e-02, -1.12618962e-02,
       -4.08422528e-03, -2.47677080e-02, -1.56649072e-02,
       -1.41814360e-02, -5.13203442e-03, -5.78071317e-03,
       -6.34949235e-03, -3.75782256e-03, -7.63422251e-03, 8.97517311e-04,
       -1.40656019e-02, 9.93913156e-04, -3.72845656e-03, 4.34758607e-03,
       2.53084395e-03, -1.02338358e-03, 9.22237814e-04, 1.33245613e-03,
       -6.35269331e-03, -1.02406309e-03, 3.67406313e-03, -2.25115451e-03,
       -2.35840236e-03, 1.20534590e-02, 8.63945825e-05, 1.18943892e-04,
       5.10906277e-04, -1.12195825e-02, -6.27601193e-03, 2.22976618e-02,
       -7.46924104e-03, -1.67943668e-02, -1.06521824e-03,
       -8.12670495e-03, 4.91979439e-03, 5.45907300e-03, -7.53442431e-03,
       -3.85179999e-03, 1.90254543e-02, -3.80278239e-03, -9.02418885e-03,
       -5.06119709e-03, -5.31541824e-04, 1.96496796e-04, 1.11953844e-03,
       -2.82006757e-03, -1.01492582e-02, -6.08271500e-03,
       -8.76587909e-03, 1.18149398e-02, 6.75032660e-03, -3.07788281e-03,
       4.37043561e-03, 9.39251389e-04, -1.38335498e-02, -1.16009358e-03,
       6.89867232e-03, 2.51817238e-03, 9.45433881e-03, 1.29421093e-02,
       -6.12995541e-03, 5.40631777e-03, 8.82024225e-03, -1.96583234e-02,
       -2.01209933e-02, 5.36373518e-02, 5.66744804e-03, -1.48464013e-02,
       -1.78795028e-02, -3.25688832e-02, 1.13151839e-03, 5.88391116e-03,
       -1.23562245e-02, 1.13985306e-02, 3.63370590e-02, 3.48069668e-02,
       2.00772029e-03, -6.52860058e-03, -6.91489596e-03, 7.21111055e-03,
       5.64512750e-03, -2.48123938e-03, -8.58892407e-03, -1.16847409e-02,
       1.44194150e-02, 9.43538640e-03, 3.83528532e-03, -5.41916490e-03,
       -2.79523339e-03, -7.54558668e-03, -4.60489048e-03,
       -3.23177362e-03, 2.38218089e-03, -1.71978012e-04, -8.45884252e-03,
       -9.23581235e-03, 4.67129226e-04, -9.15244687e-04, -5.42097446e-03,
       -1.33478874e-02, -2.13603093e-03, 5.71645983e-02, -1.54537000e-02,
       -3.01527921e-02, -2.43963115e-02, -3.80403809e-02,
       -9.41143651e-03, 4.12115734e-03, -1.47730077e-03, 1.74634978e-02,
       5.44430576e-02, 3.29529564e-03, 2.86725024e-03, 1.58936880e-03,
       -5.07347379e-03, 9.78557509e-04, 2.45317607e-03, -1.10552076e-03,
       -5.88246342e-03, 1.08021339e-02, 7.58910831e-03, -3.46688554e-03,
