%YAML:1.0
---
svmDetector: !!opencv-object-detector-hog
   winSize: [ 32, 32 ]
   blockSize: [ 8, 8 ]
   blockStride: [ 4, 4 ]
   cellSize: [ 2, 2 ]
   nbins: 9
   derivAperture: 1
   winSigma: 2.
   histogramNormType: 0
   L2HysThreshold: 2.0000000000000001e-01
   gammaCorrection: 1
   nlevels: 64
   signedGradient: 1
   SVMDetector: [ 1.73058000e-03, 2.16547796e-03, 6.88800705e-04,
       2.76817335e-03, -9.15494841e-03, -3.38552310e-03, -7.86476769e-03,
       -1.97934499e-03, 5.23279980e-03, -2.19055312e-03, 2.57044518e-03,
       -1.10617485e-02, -4.59685409e-03, -1.59158539e-02,
       -1.01859272e-02, -2.36900151e-02, 4.96585621e-03, 1.68028045e-02,
       7.12511642e-03, 2.22080685e-02, -1.14510988e-03, -3.75633454e-03,
       -2.29371525e-02, -1.75843034e-02, -2.49812640e-02, 7.67267542e-03,
       1.42542711e-02, -2.06579128e-03, 1.23419920e-02, 9.26526450e-03,
       -1.91556709e-03, -8.61245673e-03, -2.24269548e-04,
       -1.23081720e-02, 2.13671080e-03, 7.58035248e-03, -7.20274262e-03,
       6.93839090e-03, 5.12535684e-03, 5.51325316e-03, -1.82945300e-02,
       -1.93218375e-03, -2.27679741e-02, -1.11644098e-03, 1.34730684e-02,
       -2.73397546e-02, 1.84716117e-02, -1.12866573e-02, 4.75512631e-03,
       -5.51600866e-02, 1.39309438e-02, -6.35136217e-02, 1.24461288e-02,
       7.07181264e-03, -1.61604211e-02, 4.61041145e-02, -1.52400369e-02,
       6.18919684e-03, -4.12715115e-02, -3.60514456e-03, -4.31000665e-02,
       -6.54964766e-04, -1.35184685e-02, -2.59689707e-02, 1.77956019e-02,
       1.83128342e-02, 1.49330881e-03, -3.97854717e-03, 1.68341622e-02,
       -2.00679414e-02, 2.83869077e-03, -5.26101468e-03, -2.29067969e-04,
       7.26057449e-03, -5.91465971e-03, 1.23461559e-02, -1.99370142e-02,
       3.55418143e-03, -3.48536596e-02, -8.15642904e-03, 2.44342145e-02,
       -3.30465175e-02, 2.40711332e-03, -1.17340190e-02, 1.81059749e-03,
       -2.99705137e-02, 5.51184304e-02, -6.86435476e-02, 6.06837906e-02,
       2.45942920e-02, -3.35172191e-02, 2.67088525e-02, 3.05243256e-03,
       1.33155007e-02, -1.66920926e-02, 4.59128246e-02, -3.60387862e-02,
       -8.96861590e-03, -2.72366460e-02, -2.68652104e-02,
       -1.90160854e-03, 6.91600749e-03, 2.82576936e-03, 1.90555118e-02,
       3.23120840e-02, -2.75876559e-03, -3.95079888e-03, -6.17404655e-03,
       1.14497682e-02, -1.16069673e-03, -8.31167586e-03, 6.76705735e-03,
       -3.72722629e-03, 1.01734279e-02, -1.91694889e-02, 1.19137876e-02,
       3.99921983e-02, 5.17750578e-03, -1.81726310e-02, -7.11013190e-03,
       1.37059111e-02, -5.67827793e-03, 4.45884392e-02, -2.29888409e-02,
       4.52697314e-02, 5.64500578e-02, 2.00149249e-02, 1.40880132e-02,
       9.16445348e-03, 4.21919813e-03, 1.82131436e-02, 7.00294301e-02,
       1.25428811e-02, 1.33987041e-02, 3.11010592e-02, 3.85912787e-03,
       1.17448121e-02, 5.82037028e-03, -3.97526193e-04, 3.43209207e-02,
       3.03080473e-02, 1.63371339e-02, -6.31890912e-03, 1.05835544e-02,
       3.60351318e-04, 2.40645697e-03, -6.30927738e-03, -2.59377318e-03,
       -5.99052384e-03, -1.35760754e-02, -2.04527341e-02,
       -1.65059196e-03, 3.70928016e-03, 1.02299487e-03, 5.71880816e-03,
       4.24546393e-04, -6.64402824e-03, -1.92546658e-02, -1.16361901e-02,
       -1.00644259e-02, 1.18303988e-02, 1.40761174e-02, 1.14652310e-02,
       7.38627417e-03, -1.00130783e-02, -1.65572856e-02, -2.49600913e-02,
       -1.40141202e-02, -1.56726800e-02, 1.46740945e-02, 4.19379352e-03,
       -9.24472406e-04, -4.15499834e-03, -1.10876160e-02,
       -1.63833071e-02, -1.00212106e-02, -4.75522922e-03,
       -9.39658470e-03, 7.91187398e-03, -2.23283470e-03, -5.28186420e-03,
       5.52596105e-03, -2.28539146e-02, -4.04186361e-03, -1.39794573e-02,
       -1.19920485e-02, -3.51254120e-02, -4.13529901e-03, 9.43592843e-03,
       -2.29647961e-02, 1.08177902e-03, 1.05985685e-03, -9.89008322e-03,
       -2.09163269e-03, -1.33761140e-02, -2.42740996e-02, 3.85269336e-02,
       5.35254739e-03, -9.16482229e-03, -1.55799463e-03, -4.34470223e-03,
       -2.09511840e-03, -5.30180056e-04, -1.80484187e-02,
       -2.74509657e-02, 5.95609434e-02, -7.49249989e-03, -1.85778402e-02,
       -1.12829637e-02, -1.94050968e-02, -3.90452892e-02, 4.82866634e-03,
       9.80569329e-03, -1.24981329e-02, 2.07948219e-02, 1.98531076e-02,
       -1.34039633e-02, 5.87626873e-03, -2.16908082e-02, -3.13901249e-03,
       -5.00384765e-03, 1.32351369e-02, -2.99170241e-02, -7.13378657e-03,
       2.14435644e-02, -3.12711634e-02, -1.67136174e-02, -9.94874281e-04,
       -1.66928116e-02, -4.36219946e-03, 1.20950742e-02, -2.80484185e-02,
       3.15566137e-02, 4.02217656e-02, -1.32339150e-02, 2.25884672e-02,
       1.36971823e-03, -8.97379033e-03, -1.30940499e-02, -2.39686277e-02,
       -5.72948903e-02, 5.36079183e-02, 5.13528250e-02, -8.21753498e-03,
       6.32477039e-03, -2.14054510e-02, -2.10322365e-02, -2.10114894e-03,
       5.00175287e-04, -3.54056023e-02, 1.31348884e-02, 2.87521854e-02,
       2.16102949e-03, 1.36142597e-02, -1.00510065e-02, -2.70063477e-03,
       5.31609077e-03, 1.79952960e-02, -1.75605970e-03, 8.19454715e-03,
       3.97267453e-02, 9.99795925e-03, 2.30693966e-02, 2.68296408e-03,
       -8.73543601e-03, 2.06983704e-02, 1.78045090e-02, -1.84376643e-03,
       -3.21561145e-03, 7.04026446e-02, 1.94919594e-02, 1.26922689e-02,
       5.56671293e-03, 2.47651758e-03, 1.83015093e-02, 9.98396776e-04,
       -2.05157846e-02, 8.95667169e-03, 4.33299169e-02, 1.70411859e-02,
       9.59920231e-03, -7.71368109e-03, -1.30103319e-03, 1.89613719e-02,
       -8.82541481e-03, -1.79706607e-02, 1.73726771e-03, 1.34668853e-02,
       1.17096654e-03, -1.01418654e-03, -6.35192031e-03, -3.04072211e-03,
       -2.44198018e-03, -9.88839567e-03, -1.41695077e-02, 4.27212520e-03,
       1.31661087e-04, -2.36314139e-03, -7.88184814e-03, -2.07435805e-02,
       -1.91195589e-02, -1.86192244e-02, -2.80175777e-03,
       -2.48922650e-02, 1.31475891e-03, -1.92178076e-03, 3.61408293e-03,
       2.12686998e-03, -2.40662154e-02, -2.43029390e-02, -1.82106029e-02,
       -1.03648156e-02, -2.20718142e-02, -3.24175064e-03,
       -1.83598734e-02, -3.34705459e-03, -2.56320159e-03,
       -1.54187353e-02, -1.80381760e-02, -3.40490113e-03,
       -5.25751011e-03, -1.15543213e-02, 3.47117009e-03, -1.97041174e-03,
       -1.58881373e-03, -2.12239521e-03, -1.26204165e-02, 1.46640581e-04,
       1.33987982e-02, -6.48153434e-03, -1.16632087e-02, 2.11271811e-02,
       1.39255458e-02, -1.29686091e-02, -5.45932865e-03, -1.18549140e-02,
       -3.85320708e-02, -4.49005747e-03, 2.99055427e-02, -5.09385355e-02,
       5.27096912e-03, 4.67804447e-02, 7.51632033e-03, 1.58262756e-02,
       -4.73882891e-02, -5.10549024e-02, -5.41700907e-02, 1.22673716e-02,
       -1.97725799e-02, 1.95744261e-03, -2.90553048e-02, -2.39308570e-02,
       -1.93213169e-02, -3.21334675e-02, -2.89196447e-02,
       -8.85583926e-03, -2.04267167e-02, 1.88305974e-04, 2.03856435e-02,
       -3.18467505e-02, -1.07098995e-02, 1.16291428e-02, -8.70910846e-03,
       4.07535862e-03, 9.83243529e-03, -6.06741989e-04, -1.11712832e-02,
       3.21556889e-02, 3.93163264e-02, -1.10903168e-02, 2.46028975e-02,
       -5.46916388e-04, -1.60668045e-02, -1.26895513e-02,
       -8.08707497e-04, -6.76416308e-02, 5.27340099e-02, 8.83424655e-02,
       7.03613274e-03, 9.13002994e-03, -2.65936330e-02, -7.74912462e-02,
       -3.45217027e-02, -1.49319367e-02, -5.05936332e-03, 6.15625978e-02,
       4.38976958e-02, 7.23802857e-03, -2.67934110e-02, -3.86356339e-02,
       -3.59952115e-02, -2.86415070e-02, -2.39651799e-02, 1.17401974e-02,
       1.42180398e-02, -6.63329056e-03, -2.28352752e-03, 2.68851244e-03,
       8.59703054e-04, 1.02351960e-02, 8.69637821e-03, 4.54965793e-03,
       2.30835867e-03, 1.08284662e-02, 1.14000514e-02, 2.44450793e-02,
       9.08055436e-03, 9.54068266e-03, 1.50361303e-02, 3.29420045e-02,
       -5.62904403e-03, -2.24247924e-03, 3.82451667e-03, 2.30062678e-02,
       2.64507625e-02, -1.45480009e-02, -7.72301527e-03, -2.41097696e-02,
       1.29909934e-02, -5.36059029e-04, 3.34799546e-03, 1.04284817e-02,
       4.00288962e-02, 1.46253193e-02, -1.33618377e-02, -1.49115808e-02,
       -1.54867386e-02, 6.65995898e-03, -8.85560829e-03, 9.52748582e-03,
       1.97941642e-02, 3.15962024e-02, 4.35918849e-03, 6.17338592e-05,
       -7.74140051e-03, -7.21016293e-03, -8.26666411e-03,
       -1.04037207e-02, -6.92996616e-03, 3.16601573e-03, -1.63381011e-03,
       7.44305842e-04, -2.92308303e-03, -1.55139808e-02, -1.83416605e-02,
       -1.20386221e-02, -1.98551510e-02, -2.96071041e-02, 1.98123092e-03,
       1.36229889e-02, 2.74665328e-03, 5.63737750e-03, -6.32671453e-03,
       -7.04897149e-03, 4.91583534e-03, -2.37650089e-02, -3.11106499e-02,
       -1.07281124e-02, 7.93075282e-03, -3.78483720e-03, -3.69321648e-03,
       -9.67965368e-03, -4.26546112e-03, 1.25403479e-02, -8.81655328e-03,
       -2.24591698e-03, 1.85045518e-03, 2.44588056e-03, 6.74617244e-03,
       6.38074288e-03, -1.92565862e-02, -1.22300023e-02, -1.08983470e-02,
       -1.35866040e-02, 1.96149107e-03, 1.82874072e-02, -6.32199226e-03,
       -8.02234653e-03, -1.02220790e-03, -2.92972103e-02,
       -3.62015367e-02, -1.67022906e-02, -5.52689284e-02,
       -1.79338064e-02, 3.61866951e-02, 7.36929616e-03, -3.10850274e-02,
       9.58872680e-03, -1.07479747e-02, -4.56023663e-02, 1.20562990e-03,
       -4.77030203e-02, -2.51548737e-02, 1.67526733e-02, 2.02283543e-02,
       -2.22566035e-02, -1.09843798e-02, -3.50039341e-02,
       -2.26063952e-02, 3.11837494e-02, -8.48536193e-03, 5.57194813e-04,
       2.10766681e-02, 8.96584895e-03, 1.45397813e-03, 8.01088009e-03,
       -8.81841406e-03, -1.62460841e-02, -1.05175860e-02,
       -1.09276138e-02, 1.41972182e-02, 3.52603272e-02, 4.25913604e-03,
       2.17842609e-02, -1.25445370e-02, -3.49973664e-02, -3.58789898e-02,
       -1.93259399e-02, -2.49132384e-02, 7.17416964e-03, 3.69314477e-02,
       8.12961254e-03, 1.08144153e-02, -8.62912089e-03, -4.07149568e-02,
       -2.08098162e-02, -3.80086317e-03, -4.05416600e-02,
       -1.60660930e-02, 5.03885709e-02, 2.80791670e-02, 8.92069004e-03,
       -3.03537436e-02, -3.72709446e-02, -7.25060562e-03, 1.06996810e-02,
       7.78599060e-04, 2.13829875e-02, 1.12099657e-02, 3.63842249e-02,
       1.94106507e-03, 1.22466439e-03, 4.46627801e-03, -4.91950009e-03,
       9.09316353e-03, 4.40955907e-03, 7.50796171e-03, -4.18764865e-03,
       1.49640406e-03, 2.76632905e-02, 1.00925413e-03, -1.44969719e-02,
       -6.58703316e-03, 2.82502212e-02, 9.63017717e-03, 1.53849786e-02,
       2.41343584e-02, 4.18596081e-02, 5.23155481e-02, 6.75851433e-03,
       -2.57656705e-02, 6.69453293e-03, 3.39704007e-02, -3.56594031e-03,
       8.25876836e-03, 1.19924229e-02, 5.69799617e-02, 3.20807360e-02,
       -1.01299211e-02, -1.78631749e-02, -4.51422622e-03, 2.60877628e-02,
       1.73258204e-02, 1.87723357e-02, 1.23384204e-02, 3.47533375e-02,
       -2.42060152e-04, 1.93141354e-03, -1.55487237e-03, -2.10035057e-03,
       2.60685128e-03, -6.81111915e-03, -7.68803759e-03, -5.44415228e-03,
       -2.67364871e-04, -2.24173162e-03, -1.19296238e-02,
       -2.73380764e-02, -1.39807267e-02, 1.95746068e-02, -1.53805204e-02,
       -5.89800486e-03, -2.01818906e-03, 7.00371712e-03, -3.53327766e-03,
       -1.16397720e-02, -3.23804729e-02, -9.86981485e-03, 3.82863842e-02,
       -1.77246407e-02, -2.11002622e-02, 2.13427586e-03, 1.05485320e-02,
       -3.44262272e-03, -1.08908238e-02, -3.23788449e-02, 2.09556054e-03,
       9.11300536e-03, -1.73313625e-03, -1.54027967e-02, -3.29570990e-04,
       7.03273201e-03, -1.18318535e-02, 6.21668156e-03, 3.07491561e-03,
       -2.92983279e-03, 4.60638292e-03, -1.52896922e-02, -4.08564508e-03,
       -6.50631450e-03, -2.88996589e-03, -2.24146601e-02,
       -9.98187065e-03, -4.42917719e-02, -4.18790951e-02, 1.22190099e-02,
       -2.52978019e-02, 3.77875473e-03, 2.10948661e-03, 1.03076675e-03,
       -1.53173655e-02, 7.67598441e-03, -3.62459756e-02, -3.67668830e-02,
       2.62843282e-03, -3.88121270e-02, 4.61882912e-03, 2.99092401e-02,
       1.32447975e-02, -1.53334308e-02, -2.09895279e-02, -5.50531112e-02,
       -2.92213969e-02, 8.90540611e-03, 5.16795379e-04, -1.36400294e-02,
       4.30650152e-02, 1.00813461e-02, 5.91353374e-03, 3.23949178e-04,
       -8.62923078e-03, 3.76170664e-03, -5.25380671e-03, -2.54425425e-02,
       -1.15310634e-02, 8.78328923e-04, 9.20013711e-03, 1.16419168e-02,
       -1.72877591e-02, -3.50881778e-02, -2.55691074e-02,
       -2.76814960e-03, -2.76022907e-02, 2.07595639e-02, 5.02160937e-03,
       1.27553074e-02, 4.74655330e-02, 5.18948911e-03, -3.34467366e-02,
       -1.65652931e-02, 1.00853352e-03, -4.12344709e-02, 2.24125963e-02,
       4.07192707e-02, 1.26890056e-02, 2.13312171e-02, -2.70120706e-02,
       -4.00514528e-02, -1.15563376e-02, 1.20186042e-02, -1.89643179e-03,
       1.21282483e-03, 6.56433105e-02, 9.57075227e-03, 1.50701152e-02,
       2.02756398e-03, -6.10778620e-03, -4.02418606e-04, 1.34180756e-02,
       -7.31911696e-03, 8.15937819e-04, -1.28597002e-02, 1.17511339e-02,
       4.45935391e-02, 7.95425568e-03, -1.32939834e-02, -4.82254196e-03,
       5.10048158e-02, 1.53920846e-02, 1.15293264e-02, 3.09989695e-02,
       1.59202814e-02, 4.93488908e-02, 4.16947907e-04, -2.25615539e-02,
       8.73533357e-03, 6.29916787e-02, 2.66806502e-03, 1.85397174e-02,
       3.18205468e-02, 1.26982359e-02, 7.35269580e-03, -2.78451052e-02,
       -1.73526127e-02, 1.24853542e-02, 3.25087756e-02, 7.68440915e-03,
       6.49885554e-03, 1.63148604e-02, 2.49936841e-02, -3.17909056e-04,
       -6.22112537e-04, -6.64434303e-03, 1.30509690e-03, 8.66914447e-03,
       5.88933413e-04, -1.68495660e-03, 8.25955998e-04, 2.89388723e-03,
       -5.25316427e-05, -1.42275337e-02, -3.43082808e-02, 4.14864719e-03,
       -3.27292277e-04, 5.68014709e-03, -7.88942096e-04, -2.17180769e-03,
       3.57057038e-03, -4.18491615e-03, -2.05656812e-02, -2.91166399e-02,
       -3.79293133e-03, 2.71337433e-03, 2.05246941e-03, -4.28860774e-03,
       -3.16765090e-03, -2.40134913e-03, -2.64300732e-03,
       -1.09837586e-02, -1.70829799e-02, -2.88245385e-03,
       -1.64393813e-03, -3.17900255e-03, -8.58779415e-04,
       -1.01268222e-03, 2.42723245e-03, -5.07895090e-03, 1.29607012e-02,
       -1.23850140e-03, 5.08063380e-03, 1.32665364e-02, 3.25120869e-03,
       9.77241341e-03, 1.36053059e-02, -5.32708876e-03, -2.03405656e-02,
       -1.25942230e-02, -5.75911254e-02, -1.41919348e-02, 2.04735808e-02,
       2.87238751e-02, 6.16770936e-03, 2.53940746e-02, -1.32721504e-02,
       -3.59575637e-03, -4.33809198e-02, -5.09643108e-02,
       -1.98095459e-02, -4.71967179e-03, -5.08058164e-03, 8.15394148e-03,
       -7.54753221e-03, -1.16027920e-02, -1.35124270e-02,
       -3.24416943e-02, -3.20177078e-02, 1.59047765e-03, -1.12782116e-03,
       -6.95440220e-03, 3.70010827e-03, -5.50378114e-03, -6.65129686e-04,
       1.35735422e-02, 8.22694041e-03, -3.89691629e-03, 2.46787313e-02,
       3.41361165e-02, -1.67150272e-03, 1.94021072e-02, 1.59633290e-02,
       -7.33903516e-03, 2.98664123e-02, -1.39821246e-02, -3.41873169e-02,
       3.49696688e-02, 2.78809331e-02, 3.44036445e-02, 2.92215757e-02,
       5.53419143e-02, -1.05392868e-02, 6.17941143e-03, -6.31093308e-02,
       -4.63390797e-02, 1.37434248e-03, -1.46454237e-02, 1.18830632e-02,
       3.78186069e-03, 3.20190899e-02, -1.52619963e-03, -2.58756708e-02,
       -7.64309093e-02, -2.71046702e-02, -1.23958208e-03, 1.67432346e-03,
       -2.42548175e-02, -6.24037627e-03, 2.08613053e-02, -7.01167760e-03,
       8.34271591e-03, 1.04292121e-03, -9.69374887e-05, 2.23259162e-02,
       3.79024111e-02, 4.09002556e-03, 9.74904932e-03, 2.00492190e-03,
       5.22771664e-03, 2.15921458e-02, -1.33583155e-02, 4.20751330e-03,
       5.11028059e-02, 7.43555054e-02, 2.77482383e-02, 1.25376973e-02,
       2.18575560e-02, 3.22529711e-02, -9.44705214e-03, -3.26861590e-02,
       -8.64149444e-03, 2.09902637e-02, 4.37558293e-02, 2.37467140e-02,
       -2.75186803e-02, 3.52394357e-02, -5.20274183e-03, -1.86501238e-02,
       -4.76738364e-02, -1.15193622e-02, -2.36239377e-03, 5.09560516e-04,
       -6.77938852e-03, -1.13939065e-02, 2.91783269e-02, 1.46591861e-03,
       -6.56058954e-04, -6.11983053e-03, -8.90069641e-03, 1.27598387e-03,
       2.30929395e-03, -3.00231244e-04, 3.30911716e-04, 3.23659275e-04,
       1.35511230e-03, 6.87651802e-04, -4.95975546e-04, -8.48446786e-03,
       9.79379565e-03, -7.44713063e-04, -1.37977069e-02, 6.77561993e-03,
       -3.13282036e-03, 2.12760083e-03, -1.96951325e-03, 2.68086995e-04,
       -1.10449744e-02, 8.13792273e-03, 8.40598717e-03, 1.77473947e-03,
       1.39856711e-02, -5.45175606e-03, -3.04540945e-03, -5.18062199e-03,
       -3.49099445e-03, -2.93847406e-03, 1.17430626e-03, 4.06838395e-03,
       4.01888712e-04, -1.88003050e-03, -3.70994397e-03, -1.98718533e-03,
       5.62378671e-03, -8.45226925e-03, -2.15488374e-02, 1.59665011e-02,
       1.35864969e-02, -5.30996919e-03, 1.52877811e-03, -7.51430448e-03,
       1.36239314e-03, -1.32586248e-03, -1.80548150e-02, -9.55579337e-03,
       4.89192419e-02, 2.07815506e-02, 7.51946820e-03, 1.16419783e-02,
       -1.14154415e-02, 5.89788146e-03, -1.87464952e-02, -1.96647234e-02,
       -2.06677970e-02, 1.28164841e-02, -2.64506191e-02, 1.30553460e-02,
       2.42592227e-02, -3.83331836e-03, -3.67409503e-03, -7.78940599e-03,
       4.17675404e-03, -9.46688186e-03, 1.66843500e-04, -1.38173718e-03,
       3.40727950e-03, 2.76676449e-03, -8.15020874e-03, -1.66747365e-02,
       2.17009545e-03, -1.75556298e-02, 5.34084975e-04, 4.17990088e-02,
       2.25880183e-02, 1.78357568e-02, 5.81779983e-03, 1.67678073e-02,
       -2.70255795e-03, 7.54619483e-03, -3.55098397e-02, 3.54076363e-02,
       7.97955990e-02, 4.95318472e-02, -1.34759266e-02, -1.43001778e-02,
       7.11574219e-03, -2.17810236e-02, -1.32055860e-02, -3.92391644e-02,
       1.82006182e-03, 8.42498802e-03, -2.51063369e-02, 3.14141996e-02,
       -9.83627886e-03, -2.57202592e-02, -1.92764848e-02,
       -1.78279690e-02, -1.42264835e-04, 1.08537786e-02, -2.15228125e-02,
       -4.27714884e-02, 1.44176092e-02, -2.47292663e-03, -1.35839032e-02,
       -1.82719473e-02, 2.49906559e-04, 5.47334086e-03, 2.65739653e-02,
       3.06537393e-02, 2.67319009e-02, 1.22035882e-02, 5.46242297e-03,
       2.04515886e-02, -1.86396192e-03, 1.25853689e-02, -7.74191576e-04,
       5.84712997e-02, 4.79831733e-02, 4.32780609e-02, 3.80011206e-03,
       -7.08613964e-03, 1.94334630e-02, 4.00589313e-03, -1.13082370e-02,
       -3.41386572e-02, 1.49592571e-02, 4.01058197e-02, 2.16471590e-02,
       -8.75975657e-03, -7.05051562e-03, -1.01833586e-02, 6.56414637e-03,
       -1.17283808e-02, -6.53762836e-03, 1.15591548e-02, 3.58862872e-03,
       -1.33541822e-02, -9.88127012e-03, -1.22810975e-02,
       -1.01221474e-02, -9.99686890e-04, -5.71023813e-03, 3.21461703e-04,
       -5.78935351e-03, 4.14078590e-03, -6.58626622e-03, 6.75103534e-03,
       -7.26688327e-03, -1.07557971e-04, -1.21199049e-03,
       -1.74422562e-02, -4.17694496e-03, -6.81146514e-03,
       -4.93308122e-04, -7.30012031e-03, 2.89607588e-02, -1.84270367e-02,
       1.75927784e-02, -1.16663510e-02, -1.25372224e-02, 2.98080430e-03,
       -5.42514818e-03, 8.26638471e-03, -4.90929652e-03, 2.59686653e-02,
       -1.39382025e-02, -1.21616945e-02, -3.35605666e-02,
       -9.95324086e-03, -4.65924095e-04, -1.26684038e-03, 5.49593382e-03,
       -8.86414025e-04, 8.69535841e-03, -3.05044185e-03, -2.09488627e-02,
       -2.40526330e-02, -1.13782156e-02, -7.85867684e-03,
       -1.49804251e-02, 4.03776858e-03, -2.08017082e-04, 2.64472160e-02,
       -1.71306897e-02, 3.54528520e-03, 1.40940142e-03, -1.59603376e-02,
       -1.86933018e-02, -1.68703478e-02, 1.59253571e-02, -8.39251094e-03,
       6.31603599e-02, -4.16303910e-02, 3.79889458e-02, -8.96381401e-03,
       -7.39046792e-03, 9.01305862e-03, 7.98823591e-03, -7.55662378e-03,
       -7.47040939e-03, 4.95073944e-02, -1.04773073e-02, 4.01029410e-03,
       -8.67108069e-03, -1.73742957e-02, 1.20948134e-02, 1.24701473e-03,
       -1.05545269e-02, 6.00143056e-03, 1.10785905e-02, -8.22805520e-03,
       -2.22784188e-02, -8.37986451e-03, -1.67538598e-02,
       -3.16333317e-04, -9.88151785e-03, -2.71806866e-03, 1.33100236e-02,
       2.62890887e-02, -1.31054195e-02, -1.48737766e-02, -4.42520715e-03,
       -1.68021750e-02, -7.23189733e-04, -6.77930424e-04, 2.24899333e-02,
       -1.24959834e-02, 4.96476553e-02, -3.42498310e-02, 1.01868249e-02,
       1.95932738e-03, 1.10519025e-03, -1.88190490e-03, 3.67034748e-02,
       -2.68709357e-03, 2.16167979e-03, 2.42481362e-02, 9.73450299e-03,
       1.75729524e-02, 4.53399913e-03, -1.52175473e-02, 1.97770130e-02,
       2.62276046e-02, -3.39672491e-02, 7.69943651e-03, 8.80502444e-03,
       -1.33782588e-02, -2.60926085e-03, -7.17495149e-03, 4.40933509e-03,
       7.80142983e-03, -4.30180598e-03, -4.14241105e-03, 1.08580990e-02,
       5.50895231e-03, -3.84143507e-03, -1.35188736e-02, -3.26852169e-04,
       1.63059849e-02, -1.10776266e-02, 4.65155300e-03, 4.77589807e-03,
       1.72760878e-02, 1.75789762e-02, 7.66557455e-03, -2.31124256e-02,
       -5.97023824e-03, 2.04823026e-03, 1.38083647e-03, 1.67562515e-02,
       -1.11653944e-02, 3.55496816e-02, 1.82387512e-02, 1.35143865e-02,
       -1.13592064e-02, 5.07949665e-03, -1.31983859e-02, -4.54659836e-04,
       1.88223589e-02, 4.69995011e-03, 1.39178196e-02, 4.12721047e-03,
       -1.04171282e-03, -3.99021991e-03, -4.14386112e-03,
       -2.79769627e-03, 4.76951431e-03, -2.97467504e-03, 2.93736142e-04,
       2.66867341e-03, 4.45234356e-03, -1.82355870e-03, 2.48848344e-04,
       -3.38686421e-03, -1.40972063e-02, 5.85495618e-05, 1.98718742e-03,
       -6.00111252e-03, 1.23296715e-02, 8.80352501e-03, -6.32906565e-04,
       3.51512176e-03, -1.01276264e-02, -1.93979889e-02, 7.84229208e-03,
       -3.28093139e-03, -8.45127288e-05, 2.39032675e-02, -4.58991993e-03,
       -1.37626519e-02, 2.32810038e-03, -8.93198699e-03, -1.20558366e-02,
       1.25028822e-03, -7.02425092e-03, 1.81182683e-03, 7.69691216e-03,
       -2.56672036e-03, -8.69154185e-03, -5.98300481e-03,
       -1.48418164e-02, -3.77933006e-03, 1.15425726e-02, -1.01243507e-03,
       3.62583506e-03, 8.96171574e-03, 1.92656089e-02, 1.70182786e-03,
       1.21763581e-02, 8.41131806e-03, -1.74177065e-02, 2.81974468e-02,
       7.77054299e-03, -1.13964919e-02, 1.36034107e-02, 2.92884987e-02,
       -3.29637929e-04, 2.44950447e-02, 2.61421148e-02, -1.03004444e-02,
       8.80148914e-03, 1.10545857e-02, 2.14939993e-02, -4.35386831e-03,
       3.76167533e-04, -1.37622170e-02, 2.81912478e-04, -2.12741066e-02,
       -1.07348049e-02, 4.76353150e-03, -6.43682247e-03, -1.18057719e-02,
       3.51487286e-03, -1.18988510e-02, -9.08631366e-03, -1.82425906e-03,
       -2.77811531e-02, 6.68941066e-04, 4.56560589e-03, 1.06266839e-02,
       -2.62176851e-04, 1.09262234e-02, 1.11818817e-02, 1.67494975e-02,
       1.34158283e-04, 6.75037317e-03, -3.13596800e-02, 3.02334148e-02,
       1.12304455e-02, -1.45565011e-02, 1.54319592e-02, 1.87578332e-02,
       -1.68854964e-03, 5.32762036e-02, 3.84489596e-02, -2.33051996e-03,
       1.82069018e-02, 1.29347118e-02, 2.00638603e-02, 1.58197694e-02,
       1.61403045e-02, -6.32379623e-03, 3.22558768e-02, 1.36335911e-02,
       -2.84227636e-03, -2.07182369e-03, 1.74716506e-02, -7.29218032e-03,
       1.04497634e-02, 6.35304581e-03, -2.00926363e-02, -1.47938281e-02,
       5.81333367e-03, -6.13378128e-03, 5.65895764e-03, -7.68151775e-04,
       4.01520723e-04, 1.43098934e-02, -1.07198139e-03, 7.83468410e-03,
       -1.40876286e-02, -5.87100047e-04, -2.58168019e-02, 5.96193597e-03,
       2.03289315e-02, 1.68326683e-02, 1.59886889e-02, 2.47256854e-03,
       1.37785515e-02, -9.13625525e-04, 4.29072650e-03, 2.19303183e-03,
       5.18989237e-03, 1.05350846e-02, 6.74838899e-03, 1.82116404e-02,
       -1.44164369e-03, 7.99781550e-03, 4.00639810e-02, 3.66190113e-02,
       -5.53126307e-03, -7.58488255e-04, 1.21811749e-02, 7.99762644e-03,
       1.75263453e-02, -1.42924506e-02, -5.63868694e-03, 2.47684866e-03,
       6.93329517e-03, -7.90240522e-03, -7.97394488e-04, -6.61970815e-03,
       5.73815778e-03, 1.66719370e-02, -1.34735703e-04, -8.74227670e-04,
       1.04581183e-02, 5.62203722e-03, -1.17120165e-02, 3.39045003e-03,
       -6.84715249e-03, 9.65970755e-03, 4.25416902e-02, 1.09170135e-02,
       -1.21289436e-02, 1.02476915e-02, -6.24147616e-03, -1.64662935e-02,
       -3.03270179e-03, -1.05444882e-02, -1.20519130e-02, 3.83022018e-02,
       -5.86182252e-03, -1.68602366e-03, 1.21941008e-02, -1.81825515e-02,
       -6.85046054e-03, -6.17583049e-03, -1.15108900e-02, 1.03123712e-04,
       3.02009727e-03, -9.71868075e-03, -3.23948427e-03, -5.99689409e-03,
       -2.29171328e-02, -9.85540822e-03, -5.56449825e-03,
       -7.68004125e-03, 1.92237105e-02, 1.60436388e-02, 1.17642870e-02,
       2.01788507e-02, 3.45540084e-02, 3.18941777e-03, 9.73988965e-04,
       3.19223758e-03, 5.27992379e-03, 2.83170920e-02, 3.48303318e-02,
       -4.90496214e-03, 2.76724212e-02, 1.48483580e-02, -2.25429870e-02,
       -2.64345221e-02, -6.05645590e-03, 9.11060255e-03, -5.89863304e-03,
       1.08935777e-02, -2.34527588e-02, -7.04749720e-03, 1.74592398e-02,
       -4.11110446e-02, -2.08268277e-02, -8.28434713e-03,
       -1.63428579e-02, -2.13017799e-02, 5.18821320e-03, -3.51178013e-02,
       -1.53175741e-02, 2.13762540e-02, -1.02814557e-02, 5.79857035e-03,
       -1.55345234e-03, -1.38250347e-02, 8.69622268e-03, 2.71919109e-02,
       2.40796376e-02, 2.77268831e-02, 1.80230953e-03, 1.15281455e-02,
       1.02427388e-02, -3.31498752e-03, 2.79272981e-02, 2.78653577e-02,
       2.14122590e-02, 1.46691175e-02, 2.11319085e-02, 1.00569753e-02,
       3.72975320e-02, 2.40751095e-02, 3.34972292e-02, 3.28962132e-02,
       2.17022039e-02, 1.72306709e-02, -3.70851569e-02, -1.95315592e-02,
       1.70642454e-02, -1.52558731e-02, 2.98855407e-03, -3.41874035e-03,
       2.96132639e-03, -3.63724818e-03, 9.73291602e-03, -2.25970615e-02,
       -2.80798208e-02, 2.59713046e-02, 5.38074318e-03, 3.44084343e-03,
       -2.33985600e-03, -6.54072501e-03, -3.98865249e-03, 1.09295361e-02,
       4.60453937e-03, 1.85398348e-02, 1.36216544e-02, 1.32136196e-02,
       -7.88865902e-04, 2.39017084e-02, 2.20484473e-02, 2.56699547e-02,
       1.91205610e-02, -1.77215915e-02, 2.91892141e-02, -1.49528282e-02,
       -5.77771291e-03, 3.85089181e-02, 1.80762950e-02, 1.33556016e-02,
       2.22733710e-02, -3.31963820e-05, -3.61311398e-02, 1.62428729e-02,
       -6.46418706e-03, 7.06003187e-03, 1.46677038e-02, -1.43037885e-02,
       9.28407349e-03, 9.84092988e-03, 2.37424439e-03, -2.23414116e-02,
       -3.35684838e-03, 3.12319607e-03, 1.50523735e-02, -3.65885184e-03,
       -3.14887660e-03, -2.29345006e-03, 9.84153361e-04, 1.05505232e-02,
       2.14857631e-03, 2.17378652e-03, 7.56236352e-03, -6.52149902e-05,
       -5.26567746e-04, -7.88675901e-03, -1.51419174e-02, 1.00128353e-02,
       3.39319110e-02, -3.60634108e-03, -5.77533850e-03, 3.04511469e-03,
       -1.09013263e-02, -8.89053941e-03, 6.61059166e-04, -1.75178088e-02,
       1.15505457e-02, 4.82571982e-02, -2.59587113e-02, -1.96061917e-02,
       4.05041873e-03, -1.47249773e-02, -7.32531492e-03, -8.92039109e-03,
       -1.11870924e-02, 7.34535139e-03, 2.30637472e-02, -9.58838064e-05,
       -3.66529071e-04, 7.44700665e-04, -4.34337370e-03, -4.07511136e-03,
       -9.70831097e-05, 4.59826365e-03, 6.11094339e-03, 1.51863731e-02,
       -7.67215170e-05, -6.03694178e-04, 2.18534265e-02, 9.80698271e-04,
       8.95845797e-03, -1.10278977e-03, -1.18937744e-02, 9.54654720e-03,
       1.69730373e-02, -4.85134535e-02, -2.20201034e-02, 3.19880582e-02,
       3.29286568e-02, 1.11444509e-02, -2.64846534e-03, -1.49909835e-02,
       4.23588371e-03, 9.40638315e-03, -5.04270643e-02, -3.48661095e-02,
       -1.01973852e-02, 1.46227768e-02, -3.07742943e-04, -1.37600545e-02,
       -2.77585499e-02, -1.82630792e-02, 1.93912033e-02, -5.17251948e-03,
       -3.43751558e-03, 4.29682173e-02, 5.99436415e-03, 4.19784896e-03,
       2.53546145e-02, 1.81919727e-02, 1.78129394e-02, 1.25320377e-02,
       -1.37684075e-02, -1.75997033e-03, 2.61034817e-03, -3.25862281e-02,
       2.65682731e-02, 6.83523994e-03, -6.77459873e-03, 1.72063410e-02,
       3.35334837e-02, -2.14317255e-02, -2.09757220e-02, 2.20710039e-02,
       4.18794081e-02, 5.43948375e-02, 3.05557940e-02, -3.38794626e-02,
       -7.51458108e-03, 2.25167405e-02, -2.39302199e-02, -2.66238675e-02,
       1.02236145e-03, 1.55682731e-02, 3.20520699e-02, 1.46357594e-02,
       -3.77494656e-02, -7.67092407e-03, 1.01219015e-02, 1.04371402e-02,
       -1.83862969e-04, 5.11577390e-02, 1.15807191e-03, 7.01056467e-03,
       1.34038487e-02, 8.86114687e-03, 6.11485215e-03, 5.77810081e-03,
       -6.69141207e-03, 8.02545715e-03, -3.02404407e-02, -3.04363016e-02,
       3.58435772e-02, -5.58067462e-04, 1.41166057e-02, 3.32725383e-02,
       2.63883024e-02, -1.32072074e-02, -5.23836492e-03, -2.73655783e-02,
       -3.27804894e-03, 7.02008605e-02, 1.16696982e-02, 1.08593330e-03,
       2.02892534e-02, 1.76410284e-02, 1.84199661e-02, -1.06492185e-03,
       -1.15512274e-02, 1.52426427e-02, 3.15719992e-02, 1.02610316e-03,
       -1.16742868e-02, 5.24222758e-03, 1.10728675e-02, 2.62632649e-02,
       7.93644134e-03, 9.17328056e-03, 1.50252925e-02, -9.31924093e-04,
       -9.28896654e-04, -3.32230446e-03, 3.79943429e-03, 4.15312639e-03,
       -8.97376146e-03, -3.67609225e-03, -1.66186295e-03,
       -3.43016256e-03, -4.29518241e-03, -1.12536354e-02,
       -1.33803375e-02, 1.41627528e-03, 2.08754744e-02, 3.11192428e-03,
       -2.79400009e-03, -4.97825816e-03, -5.83834772e-04, 6.13598432e-03,
       -6.19450305e-03, -1.74313355e-02, 1.26474909e-02, 5.81356287e-02,
       -1.08486228e-02, -2.22823443e-03, 8.83400720e-03, -7.59670138e-03,
       -9.39311285e-04, -9.09885112e-03, -1.09902648e-02, 2.26030163e-02,
       2.95878537e-02, 1.90016383e-03, -5.28906472e-03, 9.17809457e-03,
       -1.22830151e-02, 3.49880336e-03, -2.94562313e-03, -5.61158685e-03,
       -9.14763776e-04, 1.20712706e-04, -1.22196460e-02, -8.45364761e-04,
       -3.43136303e-03, 1.12482347e-03, 2.03056540e-02, -6.74728444e-03,
       -4.18331586e-02, -1.13308113e-02, 3.01054269e-02, -7.56227784e-03,
       -1.58315692e-02, 2.78155468e-02, 3.50002060e-03, 8.27306882e-03,
       -2.54864600e-02, -4.43434604e-02, -1.49561306e-02, 2.96635460e-02,
       -1.20479325e-02, -1.16802426e-02, 3.14328931e-02, 7.92055298e-03,
       -7.01080961e-03, -2.88158376e-02, -3.03923786e-02,
       -7.51263974e-03, 1.69366486e-02, 4.62104660e-03, -4.55420651e-03,
       1.92936603e-02, 1.44965183e-02, 3.73748946e-03, 1.33563671e-02,
       -7.72993220e-03, 2.54294882e-03, 4.01816471e-03, -9.44597833e-03,
       -3.82318278e-03, -2.23509576e-02, -3.50968055e-02, 4.77179624e-02,
       2.03249883e-02, -4.69250828e-02, -1.46894818e-02, 1.36352452e-02,
       -2.42275884e-03, 2.89066415e-03, 4.98576984e-02, -2.95553380e-03,
       3.34486105e-02, 3.06312228e-03, -3.96314934e-02, -3.98944654e-02,
       1.35485334e-02, 1.07607469e-02, -1.18093556e-02, 4.51828651e-02,
       3.12690027e-02, -4.04205779e-03, -2.72783674e-02, -2.54617762e-02,
       -7.93466996e-03, 6.48544985e-04, 4.74178698e-03, -2.24893577e-02,
       4.07463647e-02, 2.78547909e-02, 1.11962045e-02, 5.91661129e-03,
       5.55558829e-03, 5.23308897e-03, 1.56472670e-03, 5.27189672e-03,
       -1.61567749e-03, -3.72686237e-02, -2.97967903e-02, 4.11821976e-02,
       -1.54373806e-03, -6.91193622e-03, 1.44501170e-02, 3.11770327e-02,
       1.47972591e-02, 5.38384425e-04, -2.00144276e-02, -2.99888500e-03,
       1.64773744e-02, -2.34641433e-02, -2.26537231e-02, 1.54488552e-02,
       3.93447913e-02, 2.96799410e-02, -1.16765592e-02, 3.28195505e-02,
       2.72566713e-02, -7.51241460e-04, -1.34802125e-02, -1.99332777e-02,
       1.70544703e-02, 1.12885041e-02, 2.27026569e-04, -1.73072163e-02,
       2.16527339e-02, 7.61176273e-03, 1.03400613e-03, 1.64384767e-03,
       -2.16849311e-03, 8.05852376e-03, 5.88305248e-03, -9.32407193e-03,
       -2.37627281e-03, -1.89240742e-03, -5.60079468e-03, 2.31019803e-03,
       -1.00439759e-02, -1.30474856e-02, 3.20230275e-02, 1.85517669e-02,
       -1.75429287e-03, -1.54063720e-02, -1.06297489e-02,
       -1.61433052e-02, -1.86353712e-03, -2.09385864e-02,
       -2.27342919e-02, 2.43988298e-02, 2.85796728e-02, 6.73075253e-03,
       -8.44492111e-03, 3.01408861e-03, -1.10933864e-02, -3.55717819e-03,
       -1.50063075e-02, -5.24709001e-03, 2.39917021e-02, 2.80839801e-02,
       -7.05777854e-03, -6.90985611e-03, 9.47413407e-03, -5.10959607e-03,
       -8.18457629e-04, 1.27648062e-03, -2.30285851e-03, 6.17445121e-03,
       4.63005528e-03, -1.66660417e-02, 8.10159254e-04, 3.70340096e-03,
       -5.27973427e-03, 5.21668885e-03, -2.31044013e-02, -2.24699471e-02,
       3.34908664e-02, 1.52417151e-02, 2.02630274e-03, -2.44070217e-02,
       -1.79746691e-02, -6.42417371e-03, -3.01493946e-02,
       -2.39049066e-02, -4.22112308e-02, 2.20978111e-02, 1.16852205e-02,
       1.00337462e-02, -5.00137061e-02, 1.69664230e-02, -5.25037795e-02,
       -2.16126963e-02, -2.86142863e-02, -2.26941705e-02, 4.17969655e-03,
       6.45414041e-03, -2.09806138e-03, -3.48800160e-02, 3.32819186e-02,
       -8.64620227e-03, -5.94589685e-04, 1.07361451e-02, 1.73109979e-03,
       9.08647198e-03, 1.27159609e-02, -1.23079121e-02, -2.95420573e-03,
       1.40048368e-02, 2.80124438e-03, 1.09144691e-02, -2.20326800e-03,
       -1.21744182e-02, 5.43737225e-02, 4.01756912e-03, 5.03612263e-03,
       1.43057061e-03, 4.41712923e-02, 1.73084270e-02, -1.00127393e-02,
       -4.21263790e-03, -1.09383631e-02, 4.67026047e-02, -7.36935344e-03,
       -7.41397438e-04, -4.36472706e-02, 5.51181361e-02, -6.53214287e-03,
       -2.76669301e-02, -2.65637916e-02, -7.97358155e-03,
       -1.41476991e-03, -2.43636742e-02, -1.33268051e-02,
       -3.97799313e-02, 4.56826240e-02, 2.49623391e-03, -3.75290168e-03,
       1.83348777e-03, 6.01949927e-04, 1.52107673e-02, 1.67752076e-02,
       2.15322198e-03, -5.49258548e-04, 8.46642908e-03, -6.48827292e-03,
       1.20596157e-03, -4.38302552e-04, 7.95046147e-03, 5.24569117e-02,
       1.55665595e-02, -2.76343455e-03, 4.18984098e-03, 4.14416604e-02,
       -2.09695823e-03, -1.39048195e-03, -1.17223868e-02, 1.45719480e-02,
       4.84368168e-02, -8.10702145e-03, -5.25938056e-04, -1.48947667e-02,
       4.56467532e-02, -1.08345307e-03, -1.21184858e-02, -2.06441209e-02,
       7.96731561e-03, 1.10677984e-02, -8.61507282e-03, -7.57981138e-03,
       -3.11486274e-02, 1.46459863e-02, -2.04918091e-03, -1.35280681e-03,
       -6.18298072e-03, -3.04063596e-03, 8.23044311e-03, 4.78848349e-03,
       -6.60593715e-03, -8.92263092e-03, -4.35282663e-03,
       -4.41156514e-03, -3.28087551e-03, -1.64511874e-02,
       -2.88788229e-03, 2.36883759e-02, 1.97084900e-02, -3.12926695e-02,
       -8.67624674e-03, -8.50908924e-03, -1.01985214e-02,
       -1.20383054e-02, -2.42669471e-02, -1.57710407e-02, 4.08364506e-03,
       4.02435008e-03, 1.64302718e-02, 2.01401138e-03, -1.03577031e-02,
       -8.38552509e-03, -4.17073444e-03, -1.08281488e-03,
       -4.01425967e-03, -6.77242130e-03, -8.92973412e-03, 8.79789144e-03,
       -4.53773141e-03, -5.38184633e-03, -4.95188730e-03,
       -6.10200968e-03, 7.31541484e-04, -3.50266532e-03, 1.81868430e-02,
       2.33717659e-03, -1.67816319e-02, -2.32319310e-02, 1.22592375e-02,
       -7.31670437e-03, -1.59882251e-02, -1.24205332e-02, 4.78108227e-03,
       3.56351621e-02, 1.62323341e-02, 2.39008642e-03, -3.41376476e-02,
       -4.23166854e-03, -3.08761466e-02, -4.75840531e-02,
       -1.95797775e-02, -2.15482637e-02, 9.74419620e-03, -1.53988022e-02,
       1.23283854e-02, -2.72117313e-02, -1.45981079e-02, -4.33754697e-02,
       -2.09563170e-02, 3.24377464e-03, -1.80705590e-03, -1.59798097e-02,
       -3.47688608e-02, -1.42168915e-02, -2.80592274e-02,
       -1.26303155e-02, -1.08795678e-02, -7.06634112e-03, 1.62303094e-02,
       1.85254198e-02, 4.71861884e-02, 1.78441629e-02, -2.47423281e-03,
       8.83707718e-04, 3.85196097e-02, -4.57311794e-03, -2.33910419e-02,
       3.33571471e-02, 4.13526259e-02, 5.61824292e-02, 9.38962866e-03,
       4.54751914e-03, -5.21733053e-03, 9.18121338e-02, -1.58526078e-02,
       -4.72090319e-02, 4.53516208e-02, 2.18341919e-03, 6.47410527e-02,
       -6.16493402e-03, -2.50358507e-02, -2.80700997e-02, 5.11049069e-02,
       -3.76074575e-02, -3.50950249e-02, 1.74209848e-02, 1.58658531e-02,
       5.60366223e-03, -2.14489494e-02, -1.85672734e-02, -3.25474888e-02,
       -2.87395576e-03, -3.89417261e-02, -2.69905175e-03, 7.15308916e-03,
       3.50243673e-02, 4.21375111e-02, 1.56721734e-02, 1.05453609e-03,
       6.71906630e-03, 1.97937414e-02, -9.20564309e-03, -7.80344289e-03,
       9.20625776e-03, 6.69445097e-02, 4.38158549e-02, 2.20209341e-02,
       4.41054144e-04, -9.12374072e-03, 3.88618149e-02, -6.32629637e-03,
       -9.99543536e-03, -1.58733781e-03, 2.26732679e-02, 2.95701846e-02,
       -1.07346603e-03, -7.60436989e-03, -8.61078594e-03, 4.10957448e-02,
       -1.04539134e-02, -1.50613468e-02, -1.20503874e-02, 1.87004637e-02,
       6.44315546e-03, -2.42890753e-02, -5.80755202e-03, -1.37786698e-02,
       8.81981221e-04, -1.35864411e-02, -2.12403899e-03, 2.37974874e-03,
       -3.54716438e-03, 5.75079001e-04, 8.87676235e-03, 1.02042304e-02,
       -1.31882878e-03, -3.32384650e-03, -1.08232744e-04,
       -6.19006518e-04, 1.17231894e-03, 9.15486598e-04, 4.02348582e-03,
       8.24553985e-03, 2.20101848e-02, 2.82660895e-03, 8.19799025e-04,
       2.13987567e-03, -3.63645353e-03, 2.92124460e-03, 8.14999081e-03,
       -2.15717102e-03, 1.44549040e-02, 1.52812842e-02, 7.85397366e-03,
       -1.85247289e-03, -9.52406204e-04, -8.18940252e-03, 3.52126849e-03,
       6.70076674e-03, -1.22983493e-02, 6.30856957e-04, 6.54288055e-03,
       -2.94576935e-03, -7.53840199e-03, -7.97512289e-03, 1.40371649e-02,
       1.87313203e-02, -7.14237988e-03, -4.93212976e-03, 9.96040180e-03,
       1.52486181e-02, 6.91718247e-04, -8.14884494e-04, 3.80218122e-03,
       1.05345063e-02, -3.19508836e-03, -2.78922985e-03, -5.35665499e-03,
       5.49891591e-03, 2.76088994e-02, 1.90471578e-02, 4.68411809e-03,
       -4.00329661e-03, -2.27943957e-02, 7.06621772e-03, -3.79564706e-04,
       -6.52837800e-03, 2.90876236e-02, 9.64092463e-03, 1.96731742e-02,
       2.09168182e-03, 8.04710551e-04, -2.68206522e-02, -8.83962028e-03,
       2.37039104e-02, 7.87758618e-04, 2.08130525e-03, 6.70751091e-03,
       2.43799342e-03, -2.24932027e-03, -1.11024082e-02, -5.95225487e-03,
       1.95090584e-02, 3.35300319e-05, -2.83862534e-03, 6.06617518e-03,
       2.59080832e-03, 1.81316806e-03, 6.95305923e-03, -1.67909227e-02,
       -1.50997397e-02, -4.36011283e-03, 1.26259951e-02, -2.36486476e-02,
       -3.26721556e-02, 2.52066664e-02, 7.50954300e-02, 1.13157220e-02,
       -2.00595688e-02, -4.06866744e-02, -1.43844923e-02, 1.48001062e-02,
       -2.26770388e-03, 2.24187486e-02, 9.35042929e-03, 2.33577620e-02,
       2.38487553e-02, -5.55208093e-03, -1.11290505e-02, -4.88159899e-03,
       2.37502977e-02, -2.43778173e-02, 1.45503590e-02, -1.04718069e-02,
       4.64315386e-03, 1.33299688e-02, 6.44858694e-03, -8.16656649e-03,
       7.16771837e-03, 5.94251091e-04, -1.52712909e-03, -1.97864603e-03,
       4.57544724e-04, -8.24914838e-04, -2.00491380e-02, -3.03044058e-02,
       -2.18237587e-03, -3.45515483e-03, -6.08324306e-03,
       -4.57868725e-03, -1.16290888e-02, 1.00579001e-02, 4.93647344e-02,
       1.19976350e-03, -4.32434790e-02, -1.20035950e-02, 5.96730097e-04,
       1.41982399e-02, -1.16661759e-02, -8.81939940e-03, 1.66817906e-03,
       -2.33142707e-03, 2.88498122e-02, -7.92693254e-03, -6.91374810e-03,
       1.83897410e-02, 1.43807391e-02, -3.78576969e-03, 1.62147009e-03,
       -6.81212824e-03, 1.66767165e-02, 2.95634707e-03, -4.18601371e-03,
       -4.61251708e-03, -1.51367357e-03, 6.32128271e-04, 1.78409892e-03,
       6.20060973e-03, 7.04562990e-03, 7.46328617e-03, 7.49370363e-03,
       1.91714789e-03, -2.24634130e-02, 1.92285317e-03, -1.17465935e-03,
       -7.66991032e-03, 7.84535334e-03, 2.02008691e-02, 5.51079493e-03,
       1.77626200e-02, -2.88582174e-03, -1.57702882e-02, 6.18036790e-03,
       3.81124252e-03, -8.69219005e-03, 1.30730132e-02, 1.64426100e-02,
       -2.20251456e-03, -1.01154214e-02, -1.52620794e-02,
       -9.54708084e-03, -2.32745823e-03, 6.40399707e-03, -5.06183496e-05,
       4.75216098e-03, 5.31827565e-04, -7.03964289e-03, -2.20849123e-02,
       -1.49668045e-02, -1.18368063e-02, -1.78048166e-03,
       -6.90552825e-03, 5.47437789e-03, 1.45461624e-02, -5.53553877e-03,
       1.91240888e-02, 2.39419676e-02, 8.73436965e-03, -3.51388045e-02,
       -8.85553099e-03, 1.83357075e-02, 1.35826655e-02, 8.76667164e-03,
       1.24556217e-02, 3.77140753e-02, 4.68306653e-02, 1.10927662e-02,
       -1.72471060e-04, 2.29687374e-02, 1.44359069e-02, -2.37940978e-02,
       -1.29906805e-02, -1.68542713e-02, -4.69319848e-03, 3.77073884e-02,
       1.45912748e-02, -1.36620421e-02, 1.21991921e-04, -2.72782776e-03,
       -1.59293991e-02, -4.53293603e-03, -2.20125597e-02, 1.10459898e-03,
       -7.24102370e-03, -1.14729814e-02, -1.48930084e-02,
       -3.93198803e-03, -6.13410585e-03, 1.77435321e-03, 1.59839913e-02,
       -3.62473633e-03, 2.05977522e-02, 2.08799914e-02, 2.70924764e-03,
       5.26982499e-03, 1.36679104e-02, 1.72197204e-02, 7.30847614e-03,
       5.55260293e-03, -1.56161934e-02, 5.50423898e-02, 5.33025637e-02,
       1.61221586e-02, 3.55778299e-02, 1.88653246e-02, 3.59026901e-02,
       3.42160314e-02, 3.68139497e-03, -1.46841789e-02, 1.63661297e-02,
       1.41549110e-02, -3.30223292e-02, -1.24142421e-02, -1.05654560e-02,
       4.01314907e-03, -1.26899872e-02, -7.58346682e-03, -5.96385077e-03,
       2.92528123e-02, 3.94996721e-03, -6.42400002e-03, -6.87120901e-03,
       7.12605147e-03, 1.48139661e-03, -4.75274492e-03, -3.14873084e-03,
       -3.46154626e-03, 8.41396768e-03, 1.14153316e-02, -8.29798821e-03,
       -1.10965287e-02, 2.54447553e-02, 4.27978951e-03, -1.69844041e-03,
       -9.25354660e-03, -1.19640743e-02, 5.43443337e-02, 1.38890548e-02,
       -2.15236843e-02, 6.18459936e-03, 4.39523300e-03, 1.12555465e-02,
       -3.84122343e-03, 7.96528533e-03, 1.31169066e-03, 4.48344462e-02,
       5.84907131e-03, -2.01477353e-02, -3.18315905e-03, -1.38484715e-02,
       5.65463258e-03, 8.55491962e-03, 7.87646137e-03, -3.15210968e-03,
       1.33272344e-02, -1.96314929e-03, -1.82700844e-03, -1.68766419e-03,
       -3.60360416e-03, -3.19497008e-03, 3.39787779e-03, 1.60807651e-02,
       1.56016657e-02, 9.38979909e-03, 8.66478868e-03, 5.26411319e-03,
       -1.15916999e-02, 1.69033883e-03, 1.29853617e-02, 1.25418985e-02,
       2.89922357e-02, 2.37308815e-03, 3.93797271e-03, -3.00147547e-03,
       1.80746231e-03, -3.49883898e-03, 1.12287970e-02, 2.92195636e-03,
       7.55540421e-03, 2.57187635e-02, -1.61045976e-02, -1.07316917e-03,
       -1.21254465e-02, -2.08693799e-02, -6.99757645e-03,
       -5.05046826e-03, -1.56123622e-03, 4.77221282e-03, 1.82073675e-02,
       -3.86935379e-03, -3.81492451e-03, -2.80772685e-03,
       -1.71434749e-02, 5.44437999e-03, 4.78247134e-03, -5.72163472e-03,
       5.07186400e-03, -4.72450949e-04, -3.61328915e-04, 3.38663571e-02,
       5.86591400e-02, 2.92131063e-02, 4.75942250e-03, 5.42668514e-02,
       2.58434322e-02, 3.12305819e-02, 1.02603883e-02, -4.59226072e-02,
       4.34482209e-02, 3.75300013e-02, 2.53521949e-02, 1.57705452e-02,
       5.51592261e-02, 1.55993951e-02, 2.57713422e-02, 4.42493195e-03,
       -6.72231838e-02, 1.62506904e-02, -3.42328218e-04, 3.21648805e-03,
       -2.71292077e-03, -1.04952967e-02, -8.72533862e-03,
       -7.47541850e-03, 1.03023667e-02, -3.75403203e-02, 5.87131688e-03,
       1.26197394e-02, 4.18888079e-03, 1.49800992e-02, 4.70510311e-03,
       -5.07498020e-03, 1.25825126e-02, 1.36130378e-02, 8.38044379e-03,
       5.49362153e-02, 1.71921700e-02, -4.59502218e-04, 4.09358833e-03,
       4.32962775e-02, 2.65706666e-02, 3.80311273e-02, 1.62157807e-02,
       -2.18235818e-03, 7.85117373e-02, 5.55381328e-02, 4.12669927e-02,
       2.50689629e-02, 6.49785176e-02, 6.26989603e-02, 5.32722473e-02,
       3.56670134e-02, -4.23884690e-02, 3.77371311e-02, 1.41293025e-02,
       5.80536900e-03, -4.66403691e-03, -1.78710017e-02, 5.25140378e-04,
       -1.40451295e-02, 7.69698154e-03, -4.34218608e-02, 2.59236861e-02,
       1.99785586e-02, -1.18875932e-02, 7.28798052e-03, -4.83096670e-03,
       -7.69233890e-03, 1.41934620e-03, 9.15219169e-03, 5.44157950e-03,
       3.63445207e-02, -1.94608979e-02, -1.09784640e-02, 2.05994640e-02,
       1.16890278e-02, 1.67265609e-02, 2.72759385e-02, 2.81037446e-02,
       -3.94778512e-03, 3.24494950e-02, -1.23924268e-02, 8.51879362e-03,
       8.38080328e-03, 3.62786534e-03, 4.46887799e-02, 3.35369892e-02,
       3.28270160e-02, -7.18540419e-03, 1.32568311e-02, -3.29367607e-03,
       4.86936234e-03, -8.02761968e-03, -3.12635526e-02, 1.13380216e-02,
       1.68783439e-03, -5.68722561e-03, -1.40358759e-02, 3.80199403e-03,
       1.03161838e-02, -4.76653641e-03, 1.79046928e-03, 1.62313110e-03,
       -2.14185263e-03, 4.84657008e-03, 7.95345940e-03, -6.91315532e-03,
       1.69358891e-03, 4.28136019e-03, -3.79215897e-04, 2.28547282e-03,
       -5.27827349e-03, -6.75209146e-03, 1.49524789e-02, 3.21145132e-02,
       -2.14554812e-03, -5.50994789e-03, -2.72941636e-03, 6.34691957e-03,
       1.88593345e-03, 9.35306947e-04, -1.83922704e-02, 8.24777503e-03,
       3.59038785e-02, -8.54705740e-03, -1.07274903e-02, -8.20747670e-03,
       -1.48170041e-02, 2.08294345e-03, -3.38338269e-03, -1.25098294e-02,
       7.89818354e-04, 1.38197411e-02, -2.19805352e-03, -2.55593099e-04,
       2.73227296e-03, -1.21826073e-02, 9.06384178e-03, 5.50169451e-03,
       -1.43357250e-03, 1.54298795e-02, 2.62909313e-03, -1.98210739e-02,
       1.80050302e-02, 2.27254890e-02, 1.70987397e-02, 3.81416418e-02,
       -6.91780960e-03, -1.01640429e-02, 4.30367328e-02, 1.55637227e-02,
       -3.99508849e-02, 8.30799900e-03, 1.56320017e-02, 7.09031001e-02,
       6.13189228e-02, 8.11540242e-03, -7.63782114e-03, 1.57071669e-02,
       -2.76132021e-03, 1.89942098e-03, -1.04984001e-03, 3.26482742e-03,
       3.23927142e-02, 2.46774033e-02, 6.93215232e-04, -7.04244198e-03,
       -6.58615818e-03, -1.03297224e-03, 1.67086646e-02, -2.29590479e-03,
       9.34675056e-03, 5.98031795e-03, 7.05551542e-03, 1.65993143e-02,
       2.07765326e-02, 2.38163471e-02, 9.15681571e-03, -9.60402843e-03,
       4.33180705e-02, -2.10803165e-03, -1.86572876e-02, 1.68069080e-02,
       -1.45438025e-02, 2.98308711e-02, 5.26659079e-02, 5.25353327e-02,
       -2.09673401e-02, 6.27684519e-02, 2.13718526e-02, 1.35679087e-02,
       6.53086975e-02, -5.47048077e-03, 4.11256552e-02, 2.38034613e-02,
       4.94426228e-02, 4.07903008e-02, 5.51620079e-03, 8.07851925e-03,
       1.54727912e-02, 2.52429917e-02, -2.10072994e-02, -3.37801012e-03,
       -1.90854110e-02, 2.72635967e-02, 4.60597612e-02, -2.03103833e-02,
       1.00703500e-02, 1.29922421e-03, 1.42134516e-03, 3.76899051e-03,
       1.39935566e-02, 5.32362983e-03, 1.01951361e-02, 2.13511102e-03,
       1.93283353e-02, -2.70797983e-02, -2.99924798e-02, 2.02471055e-02,
       -1.29173528e-02, 2.66999900e-02, 2.52600275e-02, 1.00393267e-02,
       8.43481999e-03, 4.54893112e-02, -2.86301523e-02, -2.04571113e-02,
       4.62510884e-02, -1.03122671e-03, 3.10357697e-02, 1.34076541e-02,
       2.95457058e-02, 3.29623818e-02, 8.44478328e-03, -2.07723938e-02,
       8.52573721e-04, 2.45368574e-02, -7.13731395e-03, -6.70827040e-03,
       -6.55820174e-03, 2.44305022e-02, 2.30008606e-02, -6.54316507e-03,
       2.96111032e-03, 3.44212027e-03, 8.27771495e-04, -9.79614997e-05,
       -4.51007904e-03, 2.80299038e-03, 5.10096457e-03, -1.74879916e-02,
       -8.68409313e-03, -1.95427961e-03, -4.29640524e-03, 6.86068647e-03,
       -3.38872359e-03, -1.80559326e-02, 8.84563196e-04, 2.10408047e-02,
       -1.84318516e-02, -9.98647697e-03, 3.31680453e-03, -2.32051662e-03,
       -6.42051594e-03, -1.02436251e-03, -1.51252914e-02,
       -1.31382572e-03, 2.30644252e-02, -7.94615969e-03, -1.60888657e-02,
       7.01584015e-03, -2.06165435e-03, -7.28142727e-03, -1.00061260e-02,
       -4.84067062e-03, 7.84734637e-03, 6.25733286e-03, -9.96845891e-04,
       -1.10875983e-02, 5.95212681e-03, 2.15681223e-03, 7.90050067e-03,
       -1.11813401e-03, 7.48753687e-03, 1.19152591e-02, -1.31776370e-02,
       -1.24319158e-02, -6.48377836e-03, 3.04735568e-03, 1.78849243e-03,
       3.80169339e-02, -2.82292580e-03, -1.78629719e-02, 5.94902085e-03,
       2.15910561e-02, 1.85546633e-02, -1.36389686e-02, 5.85606182e-03,
       2.01322455e-02, 2.33411752e-02, -3.91088659e-03, -3.83313335e-02,
       2.75792237e-02, 3.50837968e-02, 1.61750279e-02, -2.12033875e-02,
       3.72937992e-02, 3.72025408e-02, 2.78643402e-03, 6.46384840e-04,
       -1.29540414e-02, 1.78313460e-02, 7.65425758e-03, -6.68659341e-03,
       -1.45740146e-02, 3.78701985e-02, 8.28896835e-03, 3.44525534e-03,
       -8.68750643e-03, 1.15574375e-02, 7.79927382e-03, 2.91381963e-03,
       3.31459381e-03, 6.13169232e-03, -6.24882383e-03, -2.27258857e-02,
       3.17813978e-02, -1.50789628e-02, -4.43038484e-03, -7.36557413e-03,
       4.44307216e-02, 5.04351072e-02, -1.84763819e-02, -1.74753442e-02,
       -1.73376724e-02, 5.02140373e-02, -2.33938452e-03, -1.76657867e-02,
       1.18859799e-03, 5.87417260e-02, 4.62896861e-02, -2.01060250e-02,
       8.27710703e-03, 2.91881263e-02, 1.74560808e-02, 1.23780528e-02,
       -8.01348221e-03, -3.96630308e-03, 2.41681486e-02, 8.81682895e-03,
       1.09374495e-02, 5.54343406e-03, -1.92252640e-03, 7.86913838e-03,
       -3.48763831e-04, 8.50499142e-03, -1.99338654e-03, 1.02358703e-02,
       5.89574920e-03, 3.94812319e-03, -3.60313319e-02, -3.70181054e-02,
       3.08300760e-02, 2.02200445e-03, -5.09052770e-03, 5.67424344e-03,
       3.19599919e-02, 2.64209602e-02, -1.77412424e-02, -2.58728955e-02,
       -2.86771953e-02, 2.42488440e-02, 2.71675736e-03, 7.97296409e-03,
       -8.30277335e-03, 1.43535938e-02, 4.58021425e-02, -4.32904484e-03,
       -1.95179526e-02, -5.98875713e-03, 3.76890716e-03, 3.13543878e-03,
       -4.59343148e-03, -8.05182662e-03, 2.46028835e-03, 2.55321190e-02,
       1.24453148e-02, -1.10417483e-02, -5.87427290e-03, 2.50352372e-04,
       2.41399044e-03, -9.21223604e-04, 2.41236598e-03, 2.09719315e-03,
       -7.17088534e-03, -7.27828220e-03, 7.72853964e-04, 4.49724169e-03,
       2.10114429e-03, -4.85818740e-03, -9.55606904e-03, 1.12921949e-02,
       1.43206632e-03, -1.84502993e-02, -1.48305446e-02, 4.83613927e-03,
       1.24980342e-02, -7.83535093e-03, 1.51521133e-04, -9.91487410e-03,
       5.06709702e-03, -6.78855553e-03, -3.15203005e-03, -2.11586040e-02,
       1.96936857e-02, 4.99258144e-03, -1.03996135e-02, -5.86237386e-03,
       -9.51723848e-03, -7.64832739e-03, 3.38081550e-03, -6.79890218e-04,
       -9.60222259e-03, 1.33033963e-02, 6.38974714e-04, 3.72962304e-03,
       4.22911765e-03, -4.22126008e-03, 1.73444990e-02, 8.96483753e-03,
       -1.15167275e-02, -1.57485493e-02, 1.25629716e-02, 8.06399435e-03,
       7.80839054e-03, 6.53022784e-04, -3.81010538e-03, 3.99516709e-02,
       7.67479558e-03, -2.68688072e-02, -2.51509640e-02, 2.17697527e-02,
       2.03847755e-02, 3.73764243e-03, -7.26759993e-03, -5.75062213e-03,
       1.71924233e-02, -1.65428128e-02, 2.13140133e-03, -1.95884295e-02,
       4.21134755e-02, 1.12445941e-02, -1.17491838e-02, -1.53237693e-02,
       -1.04221571e-02, -1.21641960e-02, -6.73366431e-03,
       -4.38891677e-03, -2.93763820e-02, 2.33655088e-02, 2.89671426e-03,
       1.08280350e-02, 2.62142974e-03, 7.41378346e-04, 1.06307743e-02,
       1.43436501e-02, -1.45984311e-02, -7.51671661e-03, -1.01216445e-02,
       -7.55532994e-04, 2.64359987e-03, 1.16361165e-02, 1.22766905e-02,
       1.96048245e-02, 2.48241704e-02, 1.21544776e-02, 2.31910534e-02,
       -1.11610852e-02, -6.94984291e-03, -1.78984459e-02,
       -2.82763946e-03, 5.17749321e-03, 1.67405233e-03, 7.66493147e-03,
       2.83641890e-02, -1.71867684e-02, 6.50071446e-03, -3.31117064e-02,
       -1.61317065e-02, -9.94040724e-03, 2.78925960e-04, -1.71113983e-02,
       -8.17424525e-03, 3.35761975e-03, -2.54199728e-02, 1.74040701e-02,
       -1.36737730e-02, 1.26143368e-02, 2.85473652e-03, 4.12278157e-03,
       -3.05648660e-03, -3.81014962e-03, 7.32216472e-03, 5.59663214e-03,
       -2.91030072e-02, -8.79532006e-03, 8.56884813e-04, 8.38930346e-03,
       4.40560700e-03, -6.33767946e-03, -4.06462525e-04, 2.28934977e-02,
       3.15839052e-02, -3.20821404e-02, -1.19592734e-02, -9.54283588e-03,
       3.49924969e-03, 1.57414284e-02, -9.83577501e-03, -4.76804376e-03,
       1.99673604e-02, -1.27592934e-02, -5.94655937e-03, -3.98261882e-02,
       -2.81984895e-03, -6.49679743e-04, 2.94923724e-04, -6.49464224e-03,
       -6.20014034e-03, 8.24253447e-03, -1.25515042e-03, -1.17377937e-02,
       -1.63281541e-02, -6.61122939e-03, 8.79100524e-03, 4.35390510e-03,
       8.38327408e-03, 2.32180627e-03, 4.65938327e-04, -8.84057954e-03,
       3.02960444e-03, -5.12107566e-04, -1.41595025e-02, 5.99121163e-03,
       5.56228442e-05, 1.24593936e-02, 1.09835425e-02, 3.74946510e-04,
       -9.64767672e-03, 1.58647206e-02, -3.94631876e-03, -1.81379709e-02,
       4.19652462e-03, -1.07862689e-02, 1.86841302e-02, 1.56171983e-02,
       -5.40206023e-03, -1.42615044e-03, 2.53123529e-02, -1.31412782e-02,
       -1.27827711e-02, 1.55502104e-03, -4.35891049e-03, -2.75474711e-04,
       2.56622583e-03, 2.47533084e-03, -1.78639672e-03, 3.30589409e-03,
       -1.19351214e-02, 3.50062526e-03, 1.63715500e-02, 1.91688389e-02,
       1.98951121e-02, 2.52011698e-03, -1.65083481e-03, -1.58461109e-02,
       1.83575377e-02, 6.33609667e-03, -2.91413954e-03, 3.50982300e-03,
       1.64454933e-02, 2.67677456e-02, 6.66788267e-03, -7.44939130e-03,
       -2.66207736e-02, 1.96246412e-02, -4.62268200e-03, -4.02267370e-03,
       9.75246076e-03, -2.07312492e-04, -3.93137662e-03, -2.94972789e-02,
       -2.06898805e-02, 1.14018684e-02, 4.67330739e-02, -3.15112174e-02,
       -2.94392067e-03, 2.30314536e-03, 8.15308560e-03, -1.81527101e-02,
       -4.33923863e-02, -9.75153688e-03, -1.73618703e-03, 2.05654968e-02,
       -1.14082647e-02, -1.96380191e-03, 9.91969928e-03, 3.65753137e-02,
       3.13285477e-02, 2.36196117e-03, -3.10942181e-03, -5.65281278e-03,
       1.55669376e-02, -9.44289099e-03, 4.14375821e-03, 4.22761543e-03,
       4.29598242e-02, 2.11627260e-02, 1.29189482e-02, 8.02914787e-04,
       -6.37094164e-03, 2.01696400e-02, -2.59004775e-02, -2.62663141e-02,
       5.20469807e-02, 7.05530867e-02, -2.93702818e-02, -3.70702147e-02,
       -3.71054709e-02, -6.01626758e-04, 2.98914593e-02, -6.85227141e-02,
       -2.87281396e-03, 2.49159243e-02, 2.48364005e-02, -3.51454951e-02,
       -4.25251238e-02, -4.10879254e-02, -9.41151008e-03, 1.81097109e-02,
       -2.02369690e-02, -1.26514607e-03, 3.42723774e-03, 4.09160145e-02,
       1.49852578e-02, -1.68048136e-03, 1.35914329e-03, -5.41363377e-04,
       4.45715804e-03, -1.77326016e-02, -2.87505635e-03, 1.79743040e-02,
       4.39181179e-02, -1.62344455e-04, -9.60615277e-03, 3.32765235e-03,
       1.39033180e-02, -1.31568639e-02, -3.58163081e-02, -2.02784557e-02,
       4.02567945e-02, 5.22440374e-02, -3.12412018e-03, -3.06496788e-02,
       -3.24223116e-02, -1.45674553e-02, -2.02035974e-03,
       -3.78541574e-02, -6.87676342e-03, 1.63822118e-02, 2.35006399e-02,
       -1.20189423e-02, -2.33146437e-02, -1.81124993e-02,
       -2.72127916e-03, 8.09155218e-03, -8.43367167e-03, 3.73166287e-03,
       5.94334025e-03, 1.78439624e-03, -9.81547986e-04, 2.09011254e-03,
       4.59258357e-04, -1.87017384e-03, 4.75074211e-03, -3.12131108e-03,
       6.59193192e-03, -2.55220081e-03, 6.61511859e-03, -1.00763440e-02,
       -8.62164237e-03, 7.06766546e-03, 2.46056914e-02, -1.42433844e-03,
       -4.59561264e-03, -1.78878475e-03, -1.37718697e-03, 6.00341987e-03,
       -1.54244807e-02, 6.41392823e-03, 1.22531061e-03, 1.69537938e-03,
       4.76586632e-03, 9.17584356e-03, -1.39324192e-03, 6.72855787e-03,
       7.43714161e-03, -2.53841300e-02, 8.54566973e-03, -7.51123624e-03,
       -1.95336551e-03, 7.14454000e-05, 4.61666612e-03, 5.65538043e-03,
       1.87725928e-02, 1.56392239e-03, -2.96063419e-03, -1.09532662e-02,
       -3.85092455e-03, 1.05824303e-02, -8.76488775e-05, -1.44582596e-02,
       1.50713255e-03, 1.49876578e-02, -1.36288684e-02, 3.88570101e-04,
       -2.62496918e-02, -1.36709167e-02, 3.83365713e-02, 3.68507840e-02,
       -3.26596424e-02, -1.83862802e-02, 3.00264172e-02, 3.01086381e-02,
       -2.95569021e-02, -3.59233730e-02, -2.37290449e-02,
       -2.74237953e-02, 6.03063069e-02, 3.98077816e-03, -1.40658058e-02,
       2.97015943e-02, 2.79237777e-02, -3.38686332e-02, -1.19908368e-02,
       -3.34437774e-03, 4.04033773e-02, 2.37220502e-03, -9.43235401e-03,
       -1.42612355e-02, 9.61176585e-03, -8.07253353e-04, -1.97905372e-03,
       -1.38650099e-02, -7.09171733e-03, 2.66740546e-02, -2.44617611e-02,
       -3.98218594e-02, -3.26110050e-02, 2.96098720e-02, 1.48711419e-02,
       -8.64909589e-03, -1.82423834e-02, -3.93869765e-02, 3.43673192e-02,
       1.78495105e-02, -4.56223488e-02, -6.64387196e-02, -1.29820220e-02,
       5.38716838e-02, 9.16506629e-03, -8.20657704e-03, -3.63319479e-02,
       2.47481558e-02, 7.27910548e-02, -2.71371547e-02, -7.06428057e-03,
       -9.48571507e-03, 1.81067232e-02, 4.65377839e-03, 6.84015406e-03,
       9.46328230e-03, 3.66001874e-02, 2.98818555e-02, -1.97526067e-03,
       -1.01470100e-02, 5.37443208e-03, 1.08762376e-03, -3.54083022e-04,
       -7.76286609e-03, -2.14897492e-03, 8.05266853e-03, -2.10330132e-02,
       -2.34521050e-02, -2.03590579e-02, 7.60700973e-03, 2.09281733e-03,
       1.22429319e-02, -7.70370336e-03, -1.27028842e-02, 2.27572285e-02,
       -1.80926006e-02, -3.10072396e-02, -2.84621809e-02,
       -2.14442927e-02, 1.22191291e-02, -2.68329168e-03, -9.20419674e-03,
       -1.30503578e-02, 1.44095924e-02, 1.15578668e-02, -2.23911293e-02,
       -2.48309025e-05, -8.57516285e-03, 5.79296425e-03, 7.10758008e-03,
       1.60089992e-02, 4.22692997e-03, 8.59040022e-03, 2.93535050e-02,
       -6.49522850e-03, -4.83849272e-03, -9.92814545e-04,
       -1.45095540e-03, -1.73912896e-03, 5.52455988e-03, -9.17634636e-04,
       1.61076314e-03, 4.72815149e-03, 1.43792841e-03, 3.62568098e-04,
       1.15053933e-02, -5.60906855e-03, -1.09360619e-02, 8.42687150e-04,
       -1.44224362e-02, 1.80224646e-02, 1.41101405e-02, 3.47353541e-03,
       6.23915810e-03, 9.77491494e-03, -3.77641851e-03, -1.33778034e-02,
       -1.04369596e-04, -1.13028204e-02, 1.42987929e-02, -1.09217316e-02,
       -1.89265311e-02, -3.38732824e-03, 6.94780494e-04, -2.75528594e-03,
       -2.01944709e-02, -3.62203969e-03, -6.87022880e-03, 4.88277152e-03,
       -1.77570842e-02, -1.41280070e-02, -1.15387654e-02, 8.65672156e-03,
       3.12115625e-03, -5.12993708e-03, -1.51654631e-02, -8.23312066e-03,
       -1.40528637e-03, 2.45769378e-02, -8.34099948e-04, -3.00901178e-02,
       2.65527759e-02, 3.92407412e-04, -3.80456401e-03, -4.37130705e-02,
       -1.52867297e-02, 6.52051717e-02, 3.10607366e-02, -1.49548473e-02,
       -2.21798383e-02, 1.27040055e-02, 1.32939247e-02, -2.41314285e-02,
       -1.97702330e-02, -2.56308466e-02, 3.32220197e-02, 2.82754097e-02,
       -1.70226768e-02, -8.04759329e-04, -1.22110043e-02, 3.10117553e-04,
       -2.23179143e-02, -6.15170272e-03, -3.49030532e-02,
       -3.43000912e-03, -7.50406785e-03, -1.59868598e-02,
       -1.79348439e-02, -1.29991556e-02, -7.15181511e-03, 5.77093381e-03,
       -9.79840290e-03, -1.10510755e-02, 1.49552617e-03, 2.51327883e-02,
       -1.27948932e-02, -3.24320681e-02, -3.14240493e-02,
       -5.58708236e-03, 2.80033387e-02, -1.63652524e-02, -1.70251708e-02,
       4.69440781e-02, 6.64380863e-02, 6.27965201e-03, -3.93562764e-02,
       -6.07092725e-03, 3.30860354e-02, 5.52977324e-02, -2.58595236e-02,
       -3.49909961e-02, 4.96245362e-02, 2.35232692e-02, 2.35980074e-03,
       -2.26849597e-02, -3.54257086e-03, 3.25498395e-02, 5.46758436e-03,
       -9.70849302e-03, -4.50167991e-02, 2.28950735e-02, -4.37715137e-03,
       -2.18186602e-02, -7.53606949e-03, -6.38342323e-03,
       -3.49631230e-03, 4.56748239e-05, -3.98403266e-03, -6.05681725e-03,
       -3.64336418e-03, -1.76384784e-02, -2.29940023e-02,
       -1.64733909e-03, -1.29756583e-02, -4.67666332e-03, 9.58571036e-04,
       -1.51370547e-03, -1.16634369e-02, 1.17942877e-02, 3.76981422e-02,
       -1.83274643e-03, -2.70744297e-03, -1.93909593e-02, 8.23010970e-03,
       2.08686013e-02, -9.67848115e-03, -3.94020565e-02, 3.53131890e-02,
       2.11999156e-02, 2.40136459e-02, -1.80458575e-02, -1.17064482e-02,
       2.15008352e-02, 1.21874651e-02, 1.97777455e-03, -3.70028056e-02,
       2.39769630e-02, 7.66114332e-03, -6.84001576e-03, -8.68600735e-04,
       -2.62350938e-03, -4.06292675e-04, 5.51610533e-03, 4.58570337e-03,
       3.38209188e-03, 1.80076174e-02, 5.70411282e-03, -7.61573960e-04,
       -6.32247701e-03, 5.20210480e-03, 7.63888471e-03, 3.37857753e-03,
       -2.48472183e-03, -6.22949470e-03, 2.41303742e-02, 4.74761333e-03,
       5.15466509e-03, -5.28036908e-04, 1.02948118e-02, 1.13659007e-02,
       -1.46160889e-02, 8.24258430e-04, -1.79676171e-02, 7.02291727e-03,
       -1.31731480e-02, -1.93504523e-02, -9.16703418e-03,
       -6.28841296e-03, 1.97300990e-03, -1.69421546e-02, -5.62584586e-03,
       -1.31505411e-02, 1.04715396e-02, -1.11279376e-02, -2.55276375e-02,
       -1.51464634e-03, -3.67066381e-03, 2.51278654e-03, 1.08318981e-02,
       3.95552162e-03, 5.73464390e-03, 4.14877422e-02, 3.34689878e-02,
       8.86149239e-03, 3.63087989e-02, 1.01368781e-02, 2.85404790e-02,
       3.85197476e-02, 8.51472956e-04, -2.45122146e-02, 3.81779224e-02,
       2.79001445e-02, 2.79394854e-02, 1.32570779e-02, -9.54449549e-03,
       3.21753509e-02, 1.62134860e-02, -7.94170133e-04, -4.30202670e-02,
       9.56405699e-03, 6.62171980e-04, 8.05177912e-03, -9.92879178e-03,
       -1.70420799e-02, 1.30664725e-02, -2.75745243e-02, -2.54429858e-02,
       -2.63386201e-02, -1.23283574e-02, 1.91414671e-03, -2.18802746e-02,
       -3.39628593e-03, 6.77549094e-03, 1.57055501e-02, 1.62911527e-02,
       -3.80843505e-03, 4.45620017e-03, 5.22448346e-02, 2.04109158e-02,
       1.00139892e-02, 1.74384564e-02, 2.78040394e-02, 6.10769242e-02,
       4.79163788e-02, 4.86333389e-03, -3.69521789e-02, 8.12382475e-02,
       3.31230834e-02, 8.55356269e-03, 2.82357894e-02, -4.09560325e-03,
       3.05420812e-02, 5.57487682e-02, 1.19424742e-02, -8.01459029e-02,
       3.62305529e-02, 1.43466806e-02, 4.44355309e-02, 4.70431801e-03,
       -2.53057107e-02, 1.71801168e-02, -1.01406649e-02, -1.37155307e-02,
       -2.79162563e-02, -7.26134097e-03, -1.33258128e-03,
       -6.07424136e-03, 2.55517638e-03, -4.02904069e-03, 1.49089680e-03,
       5.77997044e-03, 3.16694006e-03, 9.54118241e-06, 2.38300450e-02,
       5.97130507e-03, 8.30535218e-03, -6.45558350e-03, 1.25197098e-02,
       5.30347936e-02, 2.23609768e-02, 2.48835348e-02, -1.62774697e-02,
       4.38685641e-02, 2.19700634e-02, -1.17687078e-03, -7.72528723e-03,
       2.62430273e-02, 5.99301904e-02, 1.92073062e-02, 1.43036982e-02,
       -2.95363683e-02, 3.88055034e-02, -2.78372690e-03, -1.81725190e-03,
       5.76461479e-03, -1.30640799e-02, 1.07515911e-02, 5.91078168e-03,
       -1.84281990e-02, -1.89543907e-02, 3.87689914e-03, 8.93542822e-03,
       -8.58420134e-03, -4.28726431e-03, -3.53710935e-03, 4.74576419e-03,
       2.86963908e-03, 2.41293688e-03, -1.38777066e-02, 5.07147470e-03,
       2.64032232e-03, -1.99892791e-03, -5.60193509e-03, -1.52559429e-02,
       4.99497633e-03, -2.96680140e-03, 1.29404701e-02, -2.14841794e-02,
       1.16772158e-02, 3.86283710e-03, 4.82259376e-04, 2.33505643e-03,
       -6.31097378e-03, 3.36506101e-03, -8.67680833e-03, 1.62397455e-02,
       4.52407170e-03, -1.01637868e-02, -6.73949579e-03, -3.68424761e-03,
       2.31428677e-03, -2.56789383e-03, -7.17092538e-03, -1.45090809e-02,
       1.23483185e-02, 1.07452944e-02, -1.50676602e-02, -1.38863558e-02,
       -1.17624197e-02, -1.90963410e-03, -8.52032285e-03, 1.08386325e-02,
       1.66103989e-02, 2.90993438e-03, -2.00986825e-02, 1.18149826e-02,
       1.43001955e-02, 1.14989374e-03, 4.23412165e-03, -1.11921262e-02,
       2.27060281e-02, 1.94708221e-02, -5.94932912e-03, -9.98430885e-03,
       1.75224636e-02, 1.97146349e-02, 1.60872806e-02, 2.39114743e-02,
       -4.02775919e-03, 8.27254541e-03, -8.69816449e-03, 1.41654499e-02,
       7.82626215e-03, -1.61078423e-02, 3.56249209e-03, 1.60796717e-02,
       9.19575524e-03, -2.81704334e-03, -7.73718720e-03, -4.22164313e-02,
       9.29647405e-03, 1.44257220e-02, -1.05119031e-02, -3.90637387e-03,
       -1.21126762e-02, 1.47605827e-02, -2.56046699e-03, -2.51890603e-03,
       1.20772282e-02, 2.14930344e-03, -1.94279030e-02, 3.38965096e-02,
       -3.37352743e-03, 9.32207424e-03, 3.98392342e-02, -9.19337757e-03,
       3.27212550e-02, 3.01870760e-02, -1.26191624e-03, -3.55759077e-03,
       3.69633473e-02, 2.58046743e-02, 2.45259851e-02, 5.88952750e-02,
       -3.19626071e-02, 2.01119222e-02, 4.75628525e-02, 2.23737601e-02,
       2.35935003e-02, 1.38062914e-03, 1.81458294e-02, 5.09556979e-02,
       2.30884254e-02, -2.71593407e-02, 3.72635610e-02, -1.29597746e-02,
       1.62514690e-02, 1.71845183e-02, -6.04159525e-03, -6.41963165e-03,
       2.32067574e-02, 9.29032359e-03, 6.81783166e-03, 5.38810343e-03,
       -4.25229548e-03, -2.65821186e-03, -9.97152878e-04, 2.20732931e-02,
       -3.21625173e-02, -7.59108551e-03, 3.82865295e-02, -8.25411920e-03,
       1.64443292e-02, 1.65372305e-02, -9.18919593e-03, 1.45138353e-02,
       3.37684005e-02, 1.61051797e-03, 8.92481208e-03, 4.54897210e-02,
       -1.08792854e-03, 1.89734567e-02, 2.79727094e-02, 2.10933182e-02,
       4.81019020e-02, 1.63188986e-02, 1.47538828e-02, 5.18275164e-02,
       1.67541169e-02, -3.59122781e-03, 2.68006455e-02, 2.34441343e-03,
       2.10788753e-02, 1.71848871e-02, -6.43812295e-04, 1.55040156e-02,
       3.13989148e-02, 6.57331897e-04, -2.21801735e-03, -2.32773391e-03,
       1.44665164e-03, 7.94644933e-03, -5.05100284e-03, -6.36607595e-03,
       -6.94241375e-04, -3.42010963e-03, 6.72202883e-03, -7.50855217e-03,
       -1.15656666e-02, -5.04900888e-03, 2.45879013e-02, 8.96399282e-03,
       -1.85290966e-02, -9.37954988e-03, 1.27823697e-03, 9.73386783e-03,
       -9.94201750e-03, -6.40404643e-03, -1.11162998e-02, 1.94926560e-02,
       1.92773361e-02, -7.14560738e-03, -5.83799323e-03, 1.24574564e-02,
       1.96547993e-03, -8.83075758e-04, -7.00476114e-03, -7.76342442e-03,
       9.19338595e-03, 1.04369475e-02, 1.25337988e-02, -4.05660411e-03,
       1.37195108e-03, 8.93986132e-03, 3.44655418e-04, 5.41328173e-03,
       2.65739800e-04, 1.68391429e-02, -1.69100687e-02, -1.48742218e-02,
       8.41115881e-03, -3.02369986e-03, 2.64052544e-02, 1.00707021e-02,
       -6.78162184e-03, -8.51346552e-03, 2.04428583e-02, -4.01781173e-03,
       -2.64363736e-02, 2.15519704e-02, 6.53134705e-03, 3.67427692e-02,
       9.72191524e-03, -4.98671690e-03, -4.42630537e-02, 9.08298098e-05,
       4.51173745e-02, 1.89669374e-02, 2.06422806e-03, 1.55560337e-02,
       6.35524560e-03, 7.44783133e-03, -5.96117461e-03, -2.99340896e-02,
       -8.20361730e-03, 2.01769471e-02, 3.26777138e-02, 8.77278391e-04,
       -8.68106633e-03, 2.03629304e-02, -8.69325362e-03, 1.59657802e-02,
       1.23666562e-02, 8.04474112e-03, -1.51356729e-02, -1.14636251e-03,
       -9.47991293e-03, 9.81269777e-03, 5.12870587e-02, -1.08412036e-03,
       6.35176897e-02, 1.89848058e-02, 2.51121297e-02, 2.56592724e-02,
       -5.54841990e-03, -2.37188092e-03, 5.06263487e-02, 6.00197241e-02,
       1.40178273e-03, -6.24196557e-03, -4.25514393e-02, 2.34447867e-02,
       3.73375677e-02, 4.92428839e-02, 2.12232638e-02, 2.97261644e-02,
       1.34140076e-02, 3.57397366e-04, -8.03886726e-03, -3.06197498e-02,
       -1.15786362e-02, 9.90949385e-03, 4.38240729e-02, 3.84940743e-03,
       -2.07319558e-02, 1.65413264e-02, -5.91096643e-04, 1.07601266e-02,
       2.38336553e-03, 6.59421505e-03, 8.17500148e-03, 5.74597437e-03,
       -2.73424871e-02, 3.10309930e-03, 2.68377550e-02, 3.29380948e-03,
       4.57318164e-02, 1.23471441e-02, 3.46582346e-02, 2.62777973e-02,
       1.69111956e-02, -9.01271868e-03, 4.91074696e-02, 4.41215336e-02,
       -4.97606397e-03, 1.32321138e-02, -4.93954960e-03, 3.16108279e-02,
       5.70424758e-02, 1.09339971e-02, 2.51732906e-03, 3.30107138e-02,
       3.23922560e-02, 8.92057084e-03, -1.14281774e-02, -2.73622125e-02,
       1.60274487e-02, 3.64277698e-02, 1.90437231e-02, -3.71608161e-03,
       -4.00829874e-03, 3.49160703e-03, 1.50634150e-03, 4.29277105e-04,
       4.23060870e-03, 4.44599474e-03, -4.62897820e-03, -6.40599942e-03,
       -2.69184727e-03, 3.78228538e-03, 9.39085963e-04, 8.39642528e-03,
       -6.47576933e-04, 1.34812947e-03, 7.69750820e-03, 4.56778519e-03,
       4.08650283e-03, -1.03475284e-02, -3.36668477e-03, -7.04084430e-03,
       -2.63052032e-04, -8.34299903e-03, -1.66817603e-03, 1.89326447e-03,
       1.27978483e-02, -7.81992543e-03, -1.33317208e-03, -1.64411440e-02,
       -2.34948797e-03, -5.42584457e-04, -6.43306458e-03,
       -7.73755461e-03, 3.75498831e-03, 6.61028549e-03, -6.45252876e-03,
       -1.39221631e-03, -8.97079241e-03, 1.28279570e-02, 1.18435267e-02,
       7.07735773e-03, 2.00561527e-03, -5.95498888e-04, -1.03599336e-02,
       -4.82097315e-03, -1.00036338e-03, 1.13873975e-03, 1.04652978e-02,
       2.27447096e-02, 9.34808794e-03, -3.17553170e-02, -1.16741909e-02,
       -7.24597974e-03, 1.34856431e-02, -1.65960696e-02, -2.94362195e-03,
       -1.13925952e-02, 2.58181640e-03, -1.82089990e-03, -5.42932414e-02,
       -1.49182910e-02, 1.18849566e-03, -3.12733985e-02, 9.68779251e-03,
       4.62722499e-04, 6.01038476e-03, 4.14539641e-03, -2.37213578e-02,
       -3.31553631e-02, 5.51432662e-04, 1.47222662e-02, 9.74271819e-03,
       -3.99835233e-04, -1.27542932e-02, 1.00632869e-02, 8.17704480e-03,
       2.39555771e-03, -4.99712676e-03, 4.52635624e-03, -1.76845081e-02,
       8.03583488e-03, 2.55492912e-03, -1.19239036e-02, 1.71054136e-02,
       -7.71318236e-03, 1.76897887e-02, -2.24186890e-02, -8.97561014e-03,
       -1.02711609e-02, 2.87491512e-02, -8.60573910e-03, -4.46156450e-02,
       6.17725728e-03, 9.36806668e-03, 1.20159891e-02, -4.87503260e-02,
       2.65552774e-02, 4.28467728e-02, 3.29470821e-02, -1.05291298e-02,
       -2.35987492e-02, 1.70492921e-02, 2.60896794e-02, 2.57258187e-03,
       -4.55606580e-02, 1.51095854e-03, 1.11111384e-02, 3.10801752e-02,
       -9.62694117e-04, -3.12498375e-03, 7.89688062e-03, 8.97670165e-04,
       6.11046143e-03, -3.55106057e-03, 4.81289951e-03, 6.57881331e-03,
       8.87327548e-03, -1.54167162e-02, -1.42891426e-02, 3.51413488e-02,
       1.05724465e-02, -1.78154162e-03, -2.66506020e-02, 2.18531638e-02,
       3.39580961e-02, 2.57984214e-02, -1.86040308e-02, -3.13461833e-02,
       4.76683564e-02, 3.78787704e-02, 2.31404416e-02, -1.20827081e-02,
       3.58717106e-02, 4.21280228e-02, 2.45776419e-02, -1.32386480e-02,
       3.98103008e-03, 1.73363239e-02, 3.12420540e-02, 2.70351209e-02,
       -7.18794530e-03, 1.26327761e-02, 1.70285888e-02, 8.63104779e-03,
       -9.61198844e-03, 2.16067396e-02, -3.40318047e-06, 7.59201823e-03,
       4.77413554e-03, 2.25929357e-03, -5.68127446e-03, -7.74992630e-03,
       -7.63098150e-03, 5.39301662e-04, -2.47628265e-03, -3.95380752e-03,
       1.12800235e-02, -1.25968351e-03, -8.55746772e-03, 1.32177339e-03,
       -9.77938436e-03, -1.49660902e-02, -1.35097224e-02,
       -1.50623312e-02, -1.58754904e-02, 1.09228101e-02, -4.39865328e-03,
       -3.15183625e-02, -7.66327186e-03, -8.88027530e-03,
       -7.95771019e-04, -7.02495920e-03, -3.02755255e-02,
       -9.45653580e-03, 3.64347291e-03, -4.02601669e-03, -2.08112448e-02,
       -1.50264427e-02, -9.07416455e-03, -4.39872820e-05, 8.49500857e-03,
       -1.67288203e-02, -2.67310487e-03, 1.28664300e-02, 2.08877772e-02,
       -1.87712733e-03, -1.05429338e-02, -1.27212899e-02,
       -1.72964912e-02, 7.32149696e-03, -3.53196519e-03, -6.92800526e-03,
       3.23937796e-02, -1.16487825e-02, -2.83338521e-02, -1.32903652e-02,
       -5.92402834e-03, -9.67894215e-03, -2.88748611e-02,
       -3.42918709e-02, -4.00776267e-02, 3.60749364e-02, -1.18187796e-02,
       -3.86590585e-02, -2.83789244e-02, -2.97005232e-02,
       -2.27997340e-02, -3.14018987e-02, -8.72015879e-02,
       -2.98916046e-02, -7.96163455e-04, 8.79739225e-03, -3.91347893e-02,
       -3.88197154e-02, -1.28606586e-02, 1.15467915e-02, 1.14939297e-02,
       -3.73384617e-02, -1.43275154e-03, 1.07818814e-02, 3.52803580e-02,
       -1.69553619e-03, -1.97530212e-03, 1.71818549e-03, 5.27822599e-03,
       -3.31422649e-02, -1.80888642e-02, -6.88452565e-04, 2.84257736e-02,
       3.95645127e-02, -2.86830720e-02, -2.23720986e-02, 6.53771311e-03,
       1.10444203e-02, -9.90387145e-03, -1.92770129e-03, -1.86856892e-02,
       4.53611948e-02, 3.22447009e-02, -1.76174752e-02, -3.57916318e-02,
       7.73930503e-03, 6.67901756e-03, -9.14281327e-03, -3.60422730e-02,
       -2.28989739e-02, 3.32554094e-02, 2.07376089e-02, -2.50057597e-02,
       -3.82951126e-02, 1.32479053e-02, 3.12221982e-02, -1.46982502e-02,
       -5.37635647e-02, 9.09613911e-03, 1.20011047e-02, 3.31486166e-02,
       4.38676856e-04, 5.62626263e-03, 3.31940548e-03, 5.23084454e-05,
       -4.36038896e-02, -6.13537943e-03, -5.54316118e-03, 1.66353490e-02,
       5.46879172e-02, -2.35926267e-03, 4.98519186e-03, 2.50233859e-02,
       -2.71615782e-03, -2.44825799e-02, 2.71186233e-02, -2.08052769e-02,
       1.58346966e-02, 2.52185203e-02, -1.08725410e-02, 1.89194933e-03,
       1.96144618e-02, 2.60761548e-02, 1.65143749e-03, 2.32513994e-02,
       -1.79255381e-02, 1.28274532e-02, 1.71806440e-02, -7.90699758e-03,
       -1.79083161e-02, 3.27431830e-03, 2.47599781e-02, 6.26292021e-04,
       -8.24176893e-03, -5.66450320e-03, 2.29593250e-03, -3.00139491e-03,
       -2.06740247e-03, -6.98306784e-03, -4.14098566e-03, 1.14679262e-02,
       -6.02702552e-04, -8.80757254e-03, -1.40286563e-02, 4.81357565e-03,
       2.68322858e-03, -3.48477741e-03, -1.06899021e-02, -1.51553415e-02,
       2.61735041e-02, 1.38431368e-02, -6.31635636e-03, -2.04029512e-02,
       -4.29371651e-03, 2.97571644e-02, 6.61306409e-03, -4.12966823e-03,
       -1.14154955e-02, 2.07673106e-02, 2.33510546e-02, -1.17687155e-02,
       -2.20716116e-03, -4.41222731e-03, 8.56802426e-03, 8.01559770e-04,
       7.99680036e-03, -3.28852475e-05, 1.21903643e-02, 1.53567540e-02,
       8.09091609e-04, -1.40869636e-02, 9.05587571e-04, -7.90279300e-04,
       1.78818207e-03, -1.89987458e-02, -5.35777258e-03, 2.55037192e-02,
       2.04311474e-03, -1.01434207e-02, -3.07418704e-02, 3.98978777e-03,
       4.33176616e-03, 2.38932278e-02, -1.17744152e-02, -2.18122955e-02,
       4.00568806e-02, 5.50730787e-02, 1.42360921e-03, -3.86064984e-02,
       -9.30285081e-03, 1.88952945e-02, 9.57627222e-03, -2.02920847e-02,
       -1.30838174e-02, 2.07389742e-02, 6.65489212e-02, -1.32553894e-02,
       -3.02183186e-03, -3.16062756e-03, 8.60638637e-03, 6.00354327e-03,
       1.54733928e-02, -5.37738902e-03, 1.79375540e-02, 5.06010577e-02,
       -1.28473993e-02, -7.75482459e-03, -8.72439996e-04, 2.06694473e-03,
       6.47003122e-04, -3.27575393e-02, 6.25334028e-03, 3.47802415e-02,
       1.59905255e-02, -9.61938594e-03, -3.14260833e-02, -1.18325325e-02,
       3.42347175e-02, 1.92268204e-03, -1.22303208e-02, -1.82436518e-02,
       3.94444317e-02, 5.84682450e-02, -9.81103536e-03, -4.22846898e-02,
       -2.85632834e-02, 9.54103842e-03, 1.43529410e-02, -2.58639827e-02,
       -9.92902927e-03, -3.77836847e-03, 6.75975680e-02, -8.12048279e-03,
       -2.24033240e-02, -5.29656652e-03, 1.45677440e-02, 1.94946548e-03,
       -1.53127657e-02, 6.11237669e-03, 2.69549210e-02, 4.17114347e-02,
       -1.51641862e-02, -1.18860453e-02, -7.96209369e-03,
       -6.41305698e-03, 7.03648897e-03, -6.11958746e-03, 1.57898117e-03,
       1.73576847e-02, 1.49838049e-02, -1.27479089e-02, -2.58961748e-02,
       -1.88045355e-03, -2.35646102e-03, 5.92811685e-03, -3.38898785e-02,
       -5.26977610e-03, 1.85312591e-02, 2.02281661e-02, -1.50752636e-02,
       -3.76482606e-02, -2.56251488e-02, 1.29954529e-03, -1.43634342e-02,
       -4.05154638e-02, 5.39300824e-03, 2.21909583e-03, 8.67644884e-03,
       -1.66962445e-02, -2.31351890e-02, -8.52357876e-03, 3.79534485e-03,
       -1.30896643e-03, -1.34943577e-03, -2.54479609e-03, 5.41376416e-04,
       2.24430934e-02, 2.80203676e-05, -3.42282886e-03, 1.42857476e-04,
       2.81088171e-03, 1.89227692e-03, -1.22428755e-03, 7.74415093e-05,
       4.31323564e-03, 6.67497935e-03, -2.14979588e-03, -3.27983662e-03,
       -3.55840079e-03, -2.00483250e-03, 5.38300071e-03, 6.75678859e-03,
       2.42968649e-03, 1.86301488e-02, 2.50618570e-02, 8.67979974e-03,
       -4.18700045e-03, -1.52887392e-03, 4.22851555e-03, 2.68211286e-03,
       4.36640484e-03, -8.46112613e-03, 3.10988259e-02, 4.44167852e-03,
       7.26638688e-03, -6.79852907e-03, 9.33623349e-04, 7.00203190e-03,
       -7.95330387e-03, 5.08440705e-03, -9.65374429e-03, 1.81258079e-02,
       -7.45042413e-03, -1.01816161e-02, -2.21775891e-03, 3.94504424e-03,
       -3.85766081e-03, 2.52091722e-03, -7.28080282e-03, -3.79466964e-03,
       -2.68094661e-03, 2.70148041e-03, -1.01884902e-02, 2.37940205e-03,
       -2.33236328e-03, -3.50294053e-03, -4.15605679e-03, 4.52713715e-03,
       2.92294729e-03, 3.91558520e-02, 6.80501908e-02, -5.13953576e-03,
       -7.17590656e-03, -1.67211220e-02, -2.40202469e-04,
       -3.10696987e-03, -2.60876701e-03, -2.13441644e-02, 5.64639755e-02,
       6.66889548e-02, 2.98803262e-02, -1.61946751e-02, -1.49431201e-02,
       1.48746632e-02, -2.22301707e-02, 2.79853214e-03, -2.85006650e-02,
       4.23559062e-02, 2.41812393e-02, 1.57849456e-03, -1.02843763e-02,
       -2.48563685e-03, -7.18923099e-03, -9.09434748e-04,
       -1.61780994e-02, 6.48941239e-03, -1.27972206e-02, -3.98821710e-03,
       -5.20954793e-03, -3.13679948e-02, -5.00834128e-03, 7.15441257e-03,
       -5.50145889e-03, -3.57899070e-02, 2.00321600e-02, 5.30742593e-02,
       2.33464036e-02, -2.97486894e-02, -1.69180874e-02, 1.15454746e-02,
       1.97697012e-03, -3.99516113e-02, -6.10729493e-02, -5.01522981e-03,
       3.23942378e-02, 2.97307353e-02, 1.37699908e-02, -9.92209278e-03,
       5.38963592e-04, 2.05722973e-02, -2.58273557e-02, -2.15888340e-02,
       -2.80962549e-02, 3.63659710e-02, 2.68890020e-02, 1.66756529e-02,
       -1.26873702e-02, -6.51023444e-03, -2.46339338e-03,
       -3.50535498e-03, -5.30973729e-03, 4.57502482e-03, -5.52369095e-03,
       -1.89694259e-02, -7.34748412e-03, -2.61132699e-02,
       -9.02555138e-03, 1.93132902e-03, 1.49673931e-02, -2.52021886e-02,
       2.23046564e-03, 2.58180429e-03, 7.40830228e-03, 1.25748999e-02,
       -7.46973499e-04, 4.69658896e-03, -7.64035387e-04, 4.05496126e-03,
       -4.12335508e-02, 6.62748609e-03, -1.49670597e-02, -5.63856307e-03,
       1.57294013e-02, 1.80259545e-03, -4.88524977e-03, -8.28590617e-03,
       -2.99019576e-03, -1.13204755e-02, -4.31325613e-03, 1.20058162e-02,
       2.07667034e-02, 4.73702233e-03, -1.68400898e-03, -1.67552862e-04,
       5.78839937e-03, 5.59832947e-03, -1.25583773e-03, -5.11211250e-03,
       1.59642659e-02, 5.54783735e-03, 4.40869480e-03, -5.62618393e-03,
       1.50258793e-03, 1.59488637e-02, 4.93286410e-03, 5.36166737e-03,
       -3.53719071e-02, 2.50000842e-02, 7.06979865e-03, -3.40402429e-03,
       8.67149327e-04, -2.19576503e-03, 8.15933477e-03, -1.24872783e-02,
       7.00313505e-03, -2.96931751e-02, 1.33697428e-02, 1.69352849e-03,
       4.70437156e-03, 1.92260498e-03, -3.08425562e-03, 3.70922987e-03,
       -1.66042782e-02, -3.15457885e-03, -5.50927222e-03, 5.08943060e-03,
       -8.46863817e-03, -7.54447421e-03, -1.26720581e-03,
       -9.33274720e-03, 3.13553936e-03, 1.04825106e-02, 1.66620023e-03,
       -1.27794147e-02, 2.40392312e-02, 2.57851072e-02, 1.59281064e-02,
       -6.92200428e-03, -6.05767826e-03, 6.15723878e-02, 2.59455871e-02,
       1.19845513e-02, -5.04081324e-02, 5.33795282e-02, 4.89692725e-02,
       1.32897729e-02, 1.40328926e-03, 3.18278931e-02, 6.78195804e-02,
       1.37975886e-02, 6.79676980e-03, -5.27907535e-02, 5.30666299e-02,
       -2.75926525e-03, -2.48210551e-03, 8.22659582e-03, -9.84217413e-03,
       -1.05189229e-03, -2.15489697e-02, -1.48354135e-02,
       -9.98574775e-03, 2.22300980e-02, -6.71928210e-05, -1.60274412e-02,
       2.99094990e-03, -7.22370532e-05, -2.64059659e-03, -1.96838249e-02,
       -2.09257733e-02, 1.50551263e-03, 2.41335593e-02, 1.08795688e-02,
       1.26322266e-02, 1.68695897e-02, 3.28593398e-03, 6.74772859e-02,
       1.75824855e-02, -1.85040347e-02, -2.59176046e-02, 6.25614747e-02,
       5.25639132e-02, 2.22415235e-02, 1.13383662e-02, -1.37991756e-02,
       4.28030938e-02, 6.72269985e-02, 1.21661611e-02, -6.12973645e-02,
       7.26363584e-02, 3.19967084e-02, 1.10292975e-02, 4.05684207e-03,
       -3.36936601e-02, 5.53697906e-03, 6.57636626e-03, -1.53860997e-03,
       -1.35982281e-03, 1.83146708e-02, -1.71699151e-02, -1.45385470e-02,
       9.64579172e-03, -1.22306077e-03, -1.04667274e-02, -9.41403396e-03,
       -9.65048466e-03, 1.34287039e-02, 4.80960682e-03, -1.57395694e-02,
       1.52816635e-03, 2.40402706e-02, 5.86661836e-03, -6.12410111e-03,
       1.94168580e-03, -1.83546892e-03, 2.04314236e-02, 3.83705050e-02,
       1.41438106e-02, -5.32929646e-03, 1.99170951e-02, -2.48800777e-02,
       7.15770246e-03, 2.33701244e-02, 3.75198480e-03, -2.54595708e-02,
       4.23108973e-02, 1.74773706e-03, 1.74843036e-02, 1.17827319e-02,
       -1.36822537e-02, 5.87487686e-03, 8.55562277e-03, -1.27139306e-02,
       -1.98400319e-02, 1.92746297e-02, -7.86731020e-03, -6.36658538e-03,
       2.62673898e-03, -1.45856501e-03, -2.48510600e-03, -2.99510884e-05,
       2.36749722e-04, -1.18611054e-02, 4.62300284e-03, 4.24749218e-03,
       2.27060495e-03, 6.16346952e-03, -2.17947271e-03, 1.53099489e-03,
       -8.57581478e-03, -8.40158574e-03, -5.15018171e-03,
       -3.79268487e-04, -3.53143521e-04, -4.48948704e-05, 1.30151771e-02,
       -9.76012368e-03, 4.60169191e-04, -2.02271100e-02, -2.64826231e-03,
       -1.94429373e-03, -4.53788787e-03, -5.77597413e-03, 6.44409936e-03,
       3.11604701e-03, -6.74536033e-03, 9.81483702e-03, -1.67650636e-02,
       8.01027345e-04, 3.60329566e-03, -4.55986708e-03, -1.24436226e-02,
       3.97647219e-03, 4.60217148e-03, 2.38941098e-03, 7.58262677e-03,
       5.97850792e-03, -2.02062936e-03, -1.73889473e-02, 1.21296262e-02,
       5.04966313e-03, 5.45240240e-04, 3.62770632e-02, -2.88433135e-02,
       5.67515288e-03, -3.09798238e-03, -1.42635554e-02, -1.12987682e-02,
       1.50740435e-02, 9.90066677e-03, 5.67786070e-03, 4.22658585e-02,
       -8.67367908e-03, 2.37028822e-02, -1.62795000e-02, 1.22757889e-02,
       -1.16094509e-02, 2.48482521e-03, 2.14245426e-03, 4.91587371e-02,
       1.12107992e-02, -8.62324797e-03, 1.77226570e-02, -2.24737674e-02,
       6.64422521e-03, -3.04218428e-03, 1.92256609e-03, 2.24956088e-02,
       2.13986915e-02, 5.64145762e-03, -1.76397264e-02, -4.60931193e-03,
       1.46661373e-02, 3.02326959e-03, -1.63901858e-02, 2.66404971e-02,
       -7.40222074e-03, -4.27422673e-03, 4.84062806e-02, -5.58021255e-02,
       1.01206908e-02, 3.48351039e-02, 3.25307506e-03, 8.55488516e-03,
       3.23084481e-02, -4.11851220e-02, 7.21188169e-03, 4.56355400e-02,
       -4.87947240e-02, 4.25262861e-02, 7.04835281e-02, 3.87935378e-02,
       -1.40116885e-04, 2.69430187e-02, -4.33018282e-02, 7.34782740e-02,
       1.86277535e-02, -1.43378368e-02, 5.06689958e-03, 3.17030819e-03,
       1.71576217e-02, 8.78161471e-03, 2.31423080e-02, 1.03748282e-02,
       1.37975952e-02, 1.08085442e-02, -1.31643070e-02, -7.25870021e-03,
       -2.74187129e-04, -1.97513215e-03, -2.95984023e-03, 2.08296068e-02,
       -2.00587753e-02, -2.51675816e-03, 4.86181565e-02, -1.67589877e-02,
       2.71316082e-03, 1.53762084e-02, -1.24394679e-02, -4.08423803e-05,
       3.69456783e-02, -4.67441715e-02, 3.59937106e-03, 6.60653189e-02,
       -2.21771579e-02, 2.17539836e-02, 2.04786211e-02, 1.61463872e-03,
       -1.45503832e-03, 3.81133929e-02, -3.53228562e-02, 2.98175588e-02,
       3.02690417e-02, -5.09381527e-03, 1.41048459e-02, -8.66520160e-04,
       -8.36086832e-03, -2.04813527e-03, -1.89889723e-03,
       -2.95470026e-03, 2.06818599e-02, 2.42303754e-03, -3.07922135e-03,
       1.51162370e-04, -9.31435905e-04, 3.92028317e-03, -1.31846424e-02,
       -8.62027425e-03, -2.25762534e-03, 2.20607454e-03, -7.55957517e-05,
       -6.29326049e-03, 1.50722852e-02, -9.91246849e-03, 4.34818352e-03,
       -5.32235578e-03, -1.81089323e-02, -1.88828669e-02, 7.30690453e-03,
       1.22853357e-03, -5.27516985e-03, -2.40292354e-03, -1.97604802e-02,
       -9.95304156e-03, -7.74865411e-03, 4.55821224e-04, -1.78760886e-02,
       -1.04753338e-02, 3.34140286e-03, -1.88563962e-03, -8.51891376e-03,
       -2.19335351e-02, -1.06438799e-02, -3.67999636e-03, 2.18712795e-03,
       -1.55240083e-02, -1.55487498e-02, 6.00267807e-03, -8.14718369e-04,
       8.55049398e-03, 3.00925662e-04, 3.28647112e-03, -2.59627122e-02,
       -9.11191013e-03, 8.37821607e-03, 1.45930313e-02, 2.04071179e-02,
       4.49498277e-03, 4.23302837e-02, -4.46804240e-03, 6.78772712e-03,
       -1.80227142e-02, -1.56466756e-02, 6.77924196e-04, 2.95775030e-02,
       3.81268002e-02, -7.60279363e-03, 1.78777054e-02, -2.76500359e-02,
       1.07919378e-02, 2.17099339e-02, -1.21348472e-02, -2.34710388e-02,
       2.63316073e-02, 2.06182059e-02, -2.45187490e-04, -1.92131661e-02,
       -4.43393439e-02, -4.01511556e-03, 2.27171704e-02, 2.04315968e-02,
       -2.91863903e-02, -1.67620778e-02, 8.70868098e-03, -5.45065897e-03,
       1.26816966e-02, 9.28328652e-03, -1.89435086e-03, -1.22030620e-02,
       1.50631433e-02, -2.31729411e-02, 1.26564587e-02, 3.76895815e-02,
       1.35891894e-02, 3.45365070e-02, 1.47153286e-03, 1.29426289e-02,
       7.78624369e-03, 1.56049905e-02, -4.34457185e-03, 1.38707301e-02,
       7.06880540e-02, 7.43782555e-04, 3.54212411e-02, -1.92722902e-02,
       5.19095873e-03, 6.99440166e-02, 1.59417223e-02, -2.03420706e-02,
       5.76134920e-02, 4.67504710e-02, 5.28841931e-03, 9.45248117e-04,
       -3.30352150e-02, -7.71651103e-04, 3.09875030e-02, 3.15716937e-02,
       -1.08136311e-02, -9.62372310e-03, 9.90198459e-03, -4.37311968e-03,
       6.09846599e-03, -4.56273323e-03, -4.74110339e-03, 4.18724120e-03,
       7.26578897e-03, -4.50510308e-02, -8.01071338e-03, 3.28772292e-02,
       9.24544875e-03, 1.91690419e-02, 5.07656601e-04, -1.44248456e-03,
       6.24184776e-03, -4.65716189e-03, -3.56454849e-02, -3.54267395e-04,
       6.47769719e-02, 9.27933026e-03, 4.59570950e-03, 5.40795363e-03,
       6.63302233e-03, 2.71061901e-02, -4.02581209e-04, -1.28127392e-02,
       2.73974854e-02, 4.35536727e-02, 9.07884724e-03, -1.15917544e-04,
       -1.67442039e-02, -8.29883944e-03, 1.58304423e-02, 5.28444024e-03,
       6.71147089e-03, 1.62916873e-02, 1.42443005e-03, 7.89414812e-03,
       2.79691583e-03, -2.19818274e-03, -3.57103156e-04, -1.09611973e-02,
       -2.82343291e-03, -3.08560347e-03, -5.14659658e-03, 3.17234546e-03,
       -3.98901012e-03, -4.32856986e-03, -1.56122297e-02,
       -8.90338141e-03, -1.17636258e-02, -7.95380771e-03,
       -1.19172717e-02, -2.40271725e-02, -1.19613605e-02,
       -1.07390042e-02, -1.57892648e-02, -2.65485402e-02, 3.32325441e-03,
       4.56142798e-03, -4.13389457e-03, -1.50597068e-02, -2.29124203e-02,
       -4.18996252e-03, 2.44123104e-04, -1.09973829e-02, -2.87265256e-02,
       -4.43650410e-03, 1.09992770e-03, -6.82285521e-03, -1.62585396e-02,
       -9.09000356e-03, 3.22789117e-03, 1.19245918e-02, 1.35192098e-02,
       -1.34748360e-03, 7.07336422e-03, -1.67472684e-03, -1.62135884e-02,
       -7.31881103e-03, -4.50261915e-03, 1.64882652e-02, 7.14655500e-03,
       -1.66007783e-02, -4.36371826e-02, 6.64924597e-03, 2.03026515e-02,
       -1.35233384e-02, -3.73981111e-02, -3.98565382e-02, 1.68249905e-02,
       2.64114253e-02, -2.63768639e-02, -6.64677396e-02, 2.78433156e-03,
       3.59366983e-02, 1.11710252e-02, -2.96947025e-02, -1.88855212e-02,
       -1.32912584e-02, 4.69378149e-03, 5.58722671e-03, -2.91996505e-02,
       -6.43078052e-03, 2.21655928e-02, 9.06871539e-03, -3.02993767e-02,
       -5.83030982e-03, 1.12013211e-02, 3.12001654e-03, 1.84317995e-02,
       -1.00448169e-02, -2.63529422e-04, 8.91544856e-03, -7.66630610e-03,
       -1.55458348e-02, 4.50636353e-03, 3.55622768e-02, 3.68909305e-03,
       9.22600552e-03, -1.68014150e-02, 1.74065139e-02, 2.48031784e-02,
       -2.42433213e-02, -2.30802130e-02, -3.92973945e-02, 2.37893760e-02,
       3.69203649e-02, -1.93630271e-02, -6.06170893e-02, 1.50608160e-02,
       1.03450343e-01, 2.90519297e-02, -4.78947163e-02, -8.13437533e-03,
       -3.55693744e-04, 1.37696154e-02, 2.26995219e-02, -1.86217055e-02,
       -3.92591057e-04, 4.86878082e-02, 4.37239595e-02, -2.56580301e-02,
       -1.18788714e-02, 1.21711968e-02, 3.18547740e-04, 2.72859237e-03,
       -4.99799429e-03, -2.67430965e-04, 3.30588780e-03, 1.74589001e-03,
       -3.62854823e-02, -1.64610408e-02, 2.45379489e-02, 3.49995354e-03,
       5.13133546e-03, -2.28590947e-02, -8.23251437e-03, 2.59089731e-02,
       2.20531947e-03, -3.99377942e-03, -1.19935898e-02, 2.02777442e-02,
       9.61001497e-03, 8.12229794e-03, -1.69028305e-02, -1.98256485e-02,
       6.56856820e-02, 2.22697016e-02, -1.21747302e-02, 5.63754002e-03,
       6.52490137e-03, 1.59306414e-02, 2.00604610e-02, -9.57744289e-03,
       -2.15613935e-02, 1.98218338e-02, 1.17638027e-02, -3.73699772e-03,
       9.70875099e-03, -3.30644706e-03, 1.60393007e-02, 5.91047993e-03,
       -3.23111378e-03, 2.29218625e-03, -4.97307768e-03, -7.16752931e-03,
       -1.20106265e-02, -8.69218446e-03, -1.73436850e-02, 1.29535934e-02,
       7.03259837e-04, -1.94524899e-02, -7.83883780e-03, -1.99745297e-02,
       -1.41121848e-02, -1.53535036e-02, -1.55937467e-02,
       -2.14246977e-02, -7.69611215e-03, -1.16650453e-02,
       -2.06629597e-02, -9.37187672e-03, 1.46340311e-03, 7.89669750e-04,
       -2.33654585e-02, -2.07067840e-02, -2.23281123e-02,
       -9.69442190e-05, -2.54655909e-03, -1.30229136e-02,
       -1.43745188e-02, 7.07954727e-03, 1.39741981e-02, -1.99450627e-02,
       -3.32009420e-02, 3.72538646e-03, 4.64051440e-02, 2.43356936e-02,
       -8.16756580e-03, 1.22893672e-03, -2.08381210e-02, -2.02850997e-02,
       -2.75681410e-02, -1.40280202e-02, -4.48764972e-02, 1.81006175e-02,
       2.89310180e-02, -1.77234653e-02, -2.19395477e-03, 4.60624974e-03,
       -2.49374751e-02, -3.25393043e-02, -2.39112489e-02,
       -6.86668828e-02, -1.62338838e-02, -2.20390465e-02,
       -5.03741764e-02, -1.79723615e-03, 2.53693610e-02, 4.04419117e-02,
       -1.42646534e-02, -4.65485491e-02, -4.36346121e-02,
       -5.64023480e-03, -2.46420037e-04, -1.84521284e-02,
       -2.25263666e-02, 1.62311061e-03, 3.64191681e-02, -7.97307398e-03,
       -4.16366495e-02, -5.88023919e-04, 4.09588106e-02, 2.86494866e-02,
       -1.83330774e-02, -5.75694442e-03, -3.75735719e-04,
       -2.27452791e-03, -3.52331027e-02, -7.27160694e-03,
       -3.85373347e-02, 1.07146399e-02, 4.54595834e-02, -4.09790128e-03,
       -5.86100481e-03, 1.52425310e-02, 2.03903336e-02, -2.40368471e-02,
       -3.36971320e-02, -8.11701715e-02, 2.17352863e-02, -1.07482783e-02,
       -2.96701025e-02, -3.66534591e-02, 1.03962654e-02, 7.07077384e-02,
       5.73324002e-02, -7.26590455e-02, -2.79250368e-02, 1.55674322e-02,
       1.61523279e-02, -2.25155130e-02, -3.67401130e-02, 2.08018138e-03,
       4.31355648e-02, 6.55839778e-03, -2.91535966e-02, -4.67689335e-03,
       8.17835983e-03, 1.81201305e-02, -5.89978602e-03, -9.55414400e-03,
       4.83532948e-03, 2.05430479e-04, -2.52300575e-02, -5.58338303e-04,
       -2.81535722e-02, 1.06001664e-02, 3.54255736e-02, -1.11076317e-03,
       -1.40442755e-02, 1.92545000e-02, 6.60982868e-03, 3.11781443e-03,
       3.96554731e-03, -1.55311925e-02, 3.29587199e-02, -2.43902635e-02,
       7.21981330e-03, -4.99911699e-03, 1.44994436e-02, 2.67517827e-02,
       1.33893313e-02, -3.40895429e-02, 9.23239533e-03, 3.74159776e-02,
       5.33867069e-03, -1.00494148e-02, -1.03200246e-02, -1.71029626e-03,
       1.83307547e-02, 3.19754588e-03, -1.23370462e-03, -2.10802769e-03,
       -1.66006747e-03, -2.98143039e-03, -1.70298619e-03,
       -1.12469485e-02, 2.66380003e-03, 1.17559172e-02, 8.36888049e-03,
       -1.14644849e-04, -7.01958593e-03, -4.20867791e-03, 2.96555273e-03,
       -4.97306092e-03, -1.03588942e-02, 4.42900287e-04, 1.42845577e-02,
       3.05685848e-02, 2.12111464e-03, -6.80971518e-03, -4.57037473e-03,
       1.24849193e-02, -4.98235878e-03, -1.61173232e-02, 2.67392932e-03,
       -1.58881990e-03, 3.25795449e-02, 8.46992433e-03, -4.91947215e-03,
       3.16641934e-04, 8.27050209e-03, -3.46129946e-03, -3.75230866e-03,
       2.39006151e-03, 9.20603890e-03, 2.39101201e-02, 1.33781927e-02,
       -1.32124471e-02, -1.86769217e-02, -7.39801396e-03, 1.20760780e-02,
       -4.89579339e-04, 7.66458747e-04, 2.03694254e-02, 4.45059389e-02,
       1.82999612e-03, -3.05948332e-02, -1.14410901e-02, 7.28678470e-03,
       1.06891291e-02, -4.09439020e-02, 1.02794811e-03, 3.29014137e-02,
       7.49323517e-02, 1.32181952e-02, -4.27230038e-02, -2.12127045e-02,
       2.57888492e-02, -1.92526188e-02, -6.32156804e-02, 8.27148184e-03,
       2.66853981e-02, 3.67339477e-02, 7.22420448e-03, -2.07790900e-02,
       -9.24920477e-03, 6.03218609e-03, -8.29900708e-03, 6.73834793e-03,
       3.10427835e-03, -1.08111324e-03, 6.08529821e-02, 2.50526592e-02,
       -1.65657513e-02, -2.16642115e-02, -2.08556671e-02, 1.81959402e-02,
       -2.29088347e-02, 6.48864591e-03, 1.83272455e-02, 5.90262488e-02,
       -4.19665640e-03, -3.78067754e-02, -2.28659920e-02, 4.31577750e-02,
       8.14415440e-02, -6.37388751e-02, -7.67884916e-03, 3.05610672e-02,
       9.09085944e-02, 2.59994417e-02, -4.93557304e-02, -3.78511213e-02,
       9.98004060e-03, 4.00280626e-03, -9.72178131e-02, -1.09750330e-02,
       4.83190604e-02, 7.16127530e-02, 3.26696932e-02, -1.32057574e-02,
       -7.72926956e-03, -9.10802837e-03, -7.17630703e-03,
       -2.82001421e-02, -4.26199939e-03, -1.91426429e-03, 4.38949764e-02,
       9.90788080e-03, -2.03557089e-02, -1.82477813e-02, -2.05436982e-02,
       4.52161860e-03, -2.13811249e-02, 3.35985329e-03, 1.22122292e-03,
       1.09086195e-02, -1.36042200e-02, -3.19651105e-02, -1.57869831e-02,
       1.69519503e-02, 3.05265225e-02, -4.28484567e-02, -1.58537161e-02,
       -1.31285647e-02, 2.78895404e-02, 3.16899605e-02, -3.08839884e-02,
       -3.63804586e-02, 5.44526149e-03, -1.11186726e-03, -4.17805649e-02,
       -1.19100679e-02, -2.02077739e-02, 3.33076604e-02, 5.70223257e-02,
       -1.49376122e-02, -1.93537418e-02, -3.03037697e-03, 3.07571748e-03,
       -3.13444287e-02, -4.57883626e-03, -1.15776444e-02, 1.94200147e-02,
       1.08174160e-02, -1.95028342e-03, 1.86863093e-04, 4.85744001e-03,
       -9.74940544e-04, -5.19377599e-03, 4.99351835e-03, -2.54016311e-04,
       2.04942725e-03, 1.89019495e-03, -1.09333266e-02, -3.28754191e-03,
       2.49462761e-03, -8.30723788e-04, -1.18211657e-02, 2.54138024e-03,
       1.10654505e-02, 1.50242876e-02, 8.70555453e-03, -1.72405015e-03,
       -2.11569699e-04, -3.08820955e-03, -1.92067008e-02,
       -2.49656904e-02, -6.29411917e-03, 1.25554176e-02, 1.57707985e-02,
       1.68492198e-02, 2.86330236e-03, -1.43462257e-03, 2.69261585e-03,
       -1.42566655e-02, -6.66757906e-03, -3.04766838e-03, 1.42890532e-02,
       1.85440537e-02, 1.48357255e-02, -1.36811370e-02, 6.51741168e-04,
       9.30111669e-03, 3.09603685e-03, -7.57667236e-03, 8.33578687e-03,
       6.08244678e-03, -7.69050000e-03, -4.90809279e-03, -3.05584352e-02,
       -1.06263738e-02, 6.58198958e-03, 9.06532072e-03, -5.09968493e-03,
       5.14038885e-03, -3.55029083e-03, 4.76557761e-02, 1.87380780e-02,
       -7.62421638e-03, -7.59592222e-04, -2.31216312e-03, 1.36859166e-02,
       -1.04944594e-02, 2.45985035e-02, -6.55571325e-03, 3.35868634e-02,
       1.00825159e-02, 1.71710383e-02, -6.13467582e-03, -2.54952386e-02,
       -1.15143554e-02, 6.94165879e-04, 1.89504996e-02, 2.84303017e-02,
       5.10650426e-02, 2.17419788e-02, -9.39549226e-03, -1.18714469e-02,
       5.70077170e-03, 1.70575790e-02, -1.97741818e-02, -4.25501494e-04,
       1.06551563e-02, -1.68920811e-02, -5.20113681e-04, -1.51302638e-02,
       -2.62921397e-02, 5.68163628e-03, 1.11686159e-02, -3.24354768e-02,
       -1.25065222e-02, -1.09353373e-02, 8.47302843e-03, 1.61555391e-02,
       -1.93142910e-02, -4.53855619e-02, 3.70093319e-03, 3.31044458e-02,
       -4.76665311e-02, -1.78994779e-02, -5.36090462e-03, 2.75991783e-02,
       1.18612191e-02, 1.78722069e-02, -2.68101487e-02, -2.38290615e-02,
       2.61480408e-03, -1.96741447e-02, 4.14907653e-03, -4.45227139e-03,
       2.88074780e-02, 4.27495204e-02, -6.40582526e-03, -1.50271673e-02,
       1.35484023e-03, 9.69366916e-03, -1.19622126e-02, 1.33417000e-03,
       -7.01819919e-03, -1.59239322e-02, 9.75233223e-03, -4.20546578e-03,
       -2.24320460e-02, 1.05328560e-02, 1.24261705e-02, -3.41732502e-02,
       -1.46590648e-02, -1.48246456e-02, -1.71028394e-02, 1.63711384e-02,
       1.99138876e-02, -2.04353966e-02, -1.95793882e-02, 8.92397948e-03,
       -4.14514951e-02, -2.52031963e-02, -4.42796201e-03,
       -6.58823131e-03, 7.30764261e-03, 1.54894004e-02, -1.72402114e-02,
       -1.19497003e-02, 5.78948017e-03, -1.22065805e-02, -2.09849775e-02,
       -1.46286990e-02, 5.29424287e-03, 1.39734056e-02, 4.19266551e-04,
       -1.98210333e-03, -1.65859307e-03, -5.86074870e-03,
       -1.03867874e-02, -1.32902442e-02, -8.91781121e-04, 1.98110752e-03,
       7.65926624e-03, 7.12930411e-03, 4.53077664e-05, 1.02669466e-02,
       -2.84387055e-03, -1.01516629e-02, -2.49913018e-02, 9.83838364e-03,
       1.70124285e-02, 1.19460365e-02, 2.06293818e-02, -9.48540680e-03,
       2.19662231e-03, -3.22022312e-03, 7.67292408e-03, -3.08476184e-02,
       1.67564079e-02, 1.29751703e-02, 1.29488390e-02, 1.08766034e-02,
       -5.27852541e-03, -5.95935096e-04, -9.99123137e-03, 3.01298779e-03,
       -3.34999384e-03, 2.37929635e-03, -1.02552352e-02, -6.43796520e-03,
       2.64925300e-03, -4.08247672e-03, -9.85714700e-03, 2.40257476e-03,
       -1.97727326e-03, 8.68381991e-04, -1.13946747e-03, 2.81973043e-03,
       8.68595613e-04, 2.71610487e-02, 9.57387686e-03, -1.70616545e-02,
       3.52512044e-03, 8.41548666e-03, 1.64237041e-02, 3.84521112e-02,
       3.04034092e-02, -6.40418474e-03, 3.69171612e-02, -2.50311848e-02,
       -1.25235496e-02, 2.71153469e-02, 1.10054342e-02, -1.05423583e-02,
       4.56297733e-02, -7.21541373e-03, 8.57332349e-03, 2.46250667e-02,
       -1.31296497e-02, 3.59597546e-03, -1.44272549e-02, -9.24249459e-03,
       -1.31378798e-02, 3.45064029e-02, -1.68517325e-02, -1.40757365e-02,
       -3.42870294e-03, -9.97308455e-03, -2.13490357e-03, 1.43055124e-02,
       -1.39294723e-02, 2.58809561e-03, -2.31079943e-03, -1.30400769e-02,
       -9.14819818e-03, 1.56979933e-02, -3.16007286e-02, -1.89071510e-03,
       1.58725623e-02, -2.76933406e-02, 2.92615825e-03, 3.03499401e-02,
       -7.58772809e-03, 3.65831889e-02, 1.29403565e-02, -4.11622711e-02,
       -1.55449808e-02, 2.87767090e-02, -4.01186831e-02, -1.07351448e-02,
       9.42415930e-03, -3.80135328e-02, 3.44010480e-02, 4.57430929e-02,
       -6.78584259e-03, -1.99878425e-03, -1.00386804e-02,
       -3.63023318e-02, -1.58064738e-02, 2.51089949e-02, -3.17051113e-02,
       1.62446201e-02, 4.79535339e-03, -6.34788861e-03, -6.29334897e-03,
       6.32382324e-03, -1.23189110e-02, -3.34247039e-03, -3.85527243e-03,
       -2.56057885e-02, -1.20103154e-02, 1.20032169e-02, -2.93545537e-02,
       -2.06348440e-03, 1.09854005e-02, -1.62601434e-02, -1.68110207e-02,
