%YAML:1.0
---
svmDetector_object2: !!opencv-object-detector-hog
   winSize: [ 32, 32 ]
   blockSize: [ 8, 8 ]
   blockStride: [ 4, 4 ]
   cellSize: [ 2, 2 ]
   nbins: 9
   derivAperture: 1
   winSigma: 2.
   histogramNormType: 0
   L2HysThreshold: 2.0000000000000001e-01
   gammaCorrection: 1
   nlevels: 64
   signedGradient: 1
   SVMDetector: [ -5.69661940e-03, -2.33670557e-03, -4.36566392e-04,
       -2.28403462e-03, 1.86603225e-03, 2.02397211e-03, -8.79638828e-03,
       -3.73981055e-03, -2.64397287e-03, -1.57890338e-02,
       -2.13335976e-02, -1.17685301e-02, -4.13026335e-03, 3.43962642e-03,
       -6.58197515e-03, -1.83217339e-02, -1.72359981e-02, 2.35159835e-03,
       -1.70942619e-02, -1.78213865e-02, 1.27038416e-02, 1.14537021e-02,
       -5.33971144e-03, -7.47330626e-03, -3.71261965e-03,
       -2.19250601e-02, -2.00465545e-02, -1.38042234e-02,
       -5.46147721e-03, 2.54899412e-02, 3.77033511e-03, -1.96426618e-03,
       -8.60289787e-04, 4.31039445e-02, 6.85577840e-03, -1.17762135e-02,
       -1.12190554e-02, 3.66928667e-04, 7.19464803e-03, 9.04602185e-03,
       -1.63868431e-03, 1.42381461e-02, -1.70761049e-02, -2.00348422e-02,
       -9.88717005e-03, 1.37178684e-02, -4.25182246e-02, 3.24297100e-02,
       4.36389819e-03, 2.06526220e-02, 9.64774005e-03, -4.53008860e-02,
       -1.90997068e-02, 1.34171518e-02, 5.91744855e-02, -1.85192423e-03,
       1.94307212e-02, 7.56212370e-03, -1.59886747e-03, 2.01962963e-02,
       1.24874422e-02, -3.16070169e-02, -1.26961088e-02, 3.99955129e-03,
       -5.85969025e-03, 4.45830487e-02, 1.80734657e-02, -6.36346266e-03,
       1.81856472e-02, 8.44962820e-02, 5.04702854e-04, -1.14925364e-02,
       9.07454453e-03, -4.30446671e-04, 1.55576495e-02, 2.65761017e-04,
       -1.00765433e-02, 5.26807876e-03, -3.92515883e-02, -1.39995990e-02,
       1.64822047e-03, 1.61493402e-02, -1.07234791e-02, 5.27515858e-02,
       4.92197275e-03, 1.20477397e-02, 1.29957413e-02, -7.10773543e-02,
       3.24194133e-02, 1.46447131e-02, 1.87064838e-02, 8.74351058e-03,
       5.34026027e-02, 1.43459765e-02, -4.50016558e-03, -8.56818166e-03,
       -1.57234054e-02, 2.73429081e-02, -6.17771223e-03, -9.00945533e-03,
       2.20995974e-02, 4.47166115e-02, 1.10331411e-02, -2.42440477e-02,
       5.75000420e-02, 1.08268350e-01, 2.89358366e-02, 1.84486411e-03,
       -7.03613879e-03, -6.58475282e-03, 1.94741637e-02, -3.08994413e-03,
       -4.45158919e-03, 2.02198210e-03, -2.22880002e-02, 1.90897845e-03,
       -7.13772140e-03, -6.76468713e-03, 1.12799471e-02, 2.31925510e-02,
       -1.22419149e-02, -3.78962569e-02, 2.22115852e-02, -1.64568145e-02,
       1.07733635e-02, 1.73864141e-03, 1.87897135e-03, 5.01737231e-04,
       5.71915954e-02, -8.58700741e-03, -4.69760969e-02, 3.76134738e-02,
       3.73014621e-02, 1.13936728e-02, -1.39698532e-04, 7.79455528e-03,
       6.94989576e-04, 2.89968140e-02, -8.97816964e-04, -1.71505790e-02,
       1.21033773e-01, 8.15077201e-02, 1.32807810e-02, -1.09260669e-02,
       -3.52882221e-03, -1.30388001e-02, -1.06218802e-02,
       -1.86662510e-04, 3.00999498e-03, 2.02760454e-02, 6.79823477e-03,
       -1.09662730e-02, -3.47817736e-03, -1.46604804e-02,
       -1.23381661e-02, 1.81841422e-02, 4.30766447e-03, 1.73802655e-02,
       4.62193415e-02, 3.97775248e-02, -1.10979965e-02, -1.28244450e-02,
       -7.83597864e-03, 2.73446483e-03, 5.87454252e-03, 1.78369470e-02,
       5.73131442e-03, 3.47579047e-02, 8.22419897e-02, 1.41833574e-02,
       -2.73312703e-02, -5.29722590e-03, 6.59562694e-03, 1.58628579e-02,
       1.15590207e-02, -1.37677398e-02, -6.75561000e-03, 7.38511384e-02,
       1.38591966e-02, -1.27358623e-02, 1.29345162e-02, -2.02017333e-02,
       -4.46928851e-02, -9.39431973e-03, 5.64729708e-05, 9.34782475e-02,
       2.18798108e-02, -3.21690477e-02, -1.76865549e-03, 6.51731249e-03,
       -3.60019654e-02, 2.56863842e-03, -3.56041617e-03, 3.78083549e-02,
       5.13097383e-02, 4.40047309e-02, -6.07824326e-02, 1.30732274e-02,
       -1.01619679e-02, -1.85050629e-02, 7.80207478e-03, 1.25458166e-02,
       1.30066061e-02, -2.03189403e-02, 1.06955402e-01, -1.50808599e-02,
       -1.04048513e-02, -6.95793983e-03, 1.90765737e-03, 2.64708567e-02,
       1.01253530e-02, -2.84340512e-02, -3.50666381e-02, 1.14777736e-01,
       5.11457911e-03, -7.87382480e-03, -1.16057065e-03, -2.97920089e-02,
       -4.34763506e-02, -8.53627361e-03, -7.46316509e-04, 8.52429047e-02,
       9.83006880e-03, -3.35551612e-02, -1.65331531e-02, -1.53811071e-02,
       -2.29344126e-02, 4.15571360e-03, 1.58929899e-02, -1.06384438e-02,
       -3.66046578e-02, -2.67230347e-02, -7.91664720e-02, 1.36537710e-02,
       2.58499533e-02, -3.72885391e-02, 1.15302554e-03, -2.23305374e-02,
       -1.87183674e-02, -6.64088875e-02, 6.29621968e-02, -1.09624406e-02,
       1.60390344e-02, -5.42130275e-03, -4.30178829e-03, 3.57871614e-02,
       -1.26828095e-02, -4.23748221e-04, -1.08490679e-02, 1.33292824e-01,
       -6.66008098e-03, -3.02223358e-02, 1.41540519e-03, -9.95445624e-03,
       -1.86130479e-02, -1.35052986e-02, -6.49107108e-03, 1.22081889e-02,
       -6.15403242e-03, -1.83765087e-02, -1.59699004e-02, 2.51438050e-03,
       -8.25749524e-03, 1.22443857e-02, -1.37036685e-02, -2.71258336e-02,
       -2.66032144e-02, -5.33167906e-02, -4.42270637e-02,
       -1.96522214e-02, -1.28394086e-02, -4.11939323e-02, 8.49722419e-03,
       -3.55864060e-03, -4.94871214e-02, -3.33829527e-03, 4.79124933e-02,
       -1.91585831e-02, -1.85817275e-02, 5.13887918e-03, -1.21684857e-02,
       4.88382252e-03, -9.22853779e-03, -4.63679759e-03, 4.00360376e-02,
       9.14377868e-02, -1.47108715e-02, -2.38045417e-02, -1.48263830e-03,
       -9.34996817e-04, -2.67355726e-03, 3.38166673e-03, 1.26953125e-02,
       2.61215940e-02, 1.71227567e-02, 1.86021079e-03, -5.74128609e-03,
       -5.44383284e-03, 1.02660609e-02, 3.10190972e-02, 4.73875692e-03,
       3.98902595e-02, 1.90687999e-02, 4.82797734e-02, 6.74952008e-03,
       -8.05347972e-03, 1.33180190e-02, 8.60799570e-03, 5.65268956e-02,
       -8.11614189e-03, 8.39730725e-02, 8.76678899e-03, 4.34798077e-02,
       -2.64966534e-03, -1.28678442e-03, 6.22016005e-03, -3.61818238e-03,
       2.13465430e-02, 7.60874804e-03, 5.05719483e-02, 7.49041978e-03,
       2.07753628e-02, -7.23340688e-03, -6.14824565e-03, -1.90590668e-04,
       -1.74803548e-02, -1.38848666e-02, -5.87804336e-03, 1.15128048e-02,
       1.09925857e-02, 6.84936345e-03, -1.23535255e-02, -2.02804827e-03,
       7.22756423e-03, 3.02848197e-03, -2.97875580e-04, 3.01642972e-03,
       5.54882661e-02, 6.95674028e-03, 4.54954989e-03, -3.07518784e-02,
       -3.46560893e-03, 2.46018562e-02, 6.58374606e-03, 2.02837624e-02,
       3.61759565e-03, 2.46581752e-02, 5.44265434e-02, 4.30182703e-02,
       -5.67751704e-03, 2.26584636e-02, 1.33559015e-02, -2.09325850e-02,
       1.81943513e-02, 4.51180190e-02, 4.18830253e-02, -4.18722676e-03,
       2.50619147e-02, 1.22760935e-02, 4.49002627e-03, 3.49603407e-03,
       -2.06711534e-02, -3.31546366e-02, -3.03129610e-02,
       -2.36051879e-03, 6.67027710e-03, 9.47545934e-03, -1.76485106e-02,
       -3.66749312e-03, 9.79712792e-03, -3.81147042e-02, -9.83230397e-03,
       -2.79627424e-02, 5.10621350e-03, 9.98956338e-03, -9.09659453e-03,
       -6.05518296e-02, -1.33018447e-02, -1.69231425e-04,
       -4.48144749e-02, 7.22437073e-03, 2.17556972e-02, -3.35661396e-02,
       3.25601436e-02, 3.24732251e-02, -3.99084091e-02, 4.15748730e-02,
       1.93198361e-02, 2.12240331e-02, 9.13960580e-03, 3.92191634e-02,
       -1.31101776e-02, -2.90869996e-02, 9.24404990e-03, -1.51267797e-02,
       1.98180899e-02, -6.22093352e-03, -1.54896630e-02, -2.74332557e-02,
       -7.84219708e-03, -1.47955455e-02, 2.72823684e-03, 4.69759898e-03,
       -2.31811870e-02, -1.34676751e-02, 6.41207723e-03, -2.82149427e-02,
       -1.81687698e-02, -2.53727995e-02, -1.66085884e-02, 1.31235132e-02,
       -3.31638171e-03, -6.40276223e-02, -2.26988047e-02, 8.98745097e-03,
       -3.68063780e-03, 1.06147593e-02, -1.22178765e-02, -4.43995371e-02,
       1.74923725e-02, -1.50411576e-02, -5.48403077e-02, 2.26099323e-02,
       8.46873689e-03, 3.50928493e-02, 1.47412317e-02, 1.19893602e-03,
       -1.35160340e-02, -7.98784662e-03, -1.38534298e-02,
       -1.68400332e-02, 1.02127464e-02, 1.28543924e-03, -1.74802015e-04,
       1.87755413e-02, -5.37857134e-03, 2.61790100e-02, -7.39483070e-03,
       4.16684104e-03, -5.30895498e-03, -6.18125731e-03, -1.19132949e-02,
       -1.07361078e-02, 1.02454182e-02, -1.47091961e-02, 5.79019077e-02,
       1.15536433e-02, 3.91885266e-02, -6.86318846e-03, -1.61288809e-02,
       -7.16624642e-03, 1.25511540e-02, 2.51456909e-02, 1.94785353e-02,
       9.02542621e-02, -1.26975903e-03, 6.90228678e-03, 1.89328298e-03,
       -1.19826104e-02, -4.52677850e-05, 1.24155516e-02, 1.72621626e-02,
       1.53080877e-02, 5.59976511e-02, -1.30766928e-02, -1.07242912e-02,
       1.89243013e-03, -6.71877805e-03, -3.61256627e-03, -2.33081775e-03,
       2.79523861e-02, -9.58832446e-03, 9.70854983e-03, 1.38270957e-02,
       1.04767401e-02, -3.47024691e-03, -1.91209535e-03, -2.23670192e-02,
       -1.42268343e-02, -8.66569404e-04, -2.56737825e-02, 8.25099647e-03,
       3.91757265e-02, 5.62558584e-02, -1.01543749e-02, -1.91966910e-02,
       7.07978569e-03, 7.12379515e-02, 4.05449495e-02, -3.15346867e-02,
       -4.88416478e-03, 1.85644217e-02, -1.19426297e-02, -3.01987939e-02,
       -2.71030273e-02, -2.24782596e-03, 1.78659167e-02, 1.12324897e-02,
       -1.70650310e-03, 4.71926630e-02, -9.97447036e-03, -3.69104259e-02,
       -2.30094846e-02, -9.68877506e-03, -8.42255540e-03,
       -3.56509420e-03, 1.89098082e-02, 5.27545856e-03, -1.33400299e-02,
       2.90547479e-02, 2.04194859e-02, -1.46905389e-02, 4.09269053e-03,
       -1.70265615e-03, 1.85726385e-03, -5.30741997e-02, -1.81070957e-02,
       -2.23880429e-02, 4.01453264e-02, 2.41968594e-02, -5.28002344e-02,
       -9.11916234e-03, -1.86897945e-02, 5.35678156e-02, -1.46906953e-02,
       -2.12392099e-02, -7.17567578e-02, 4.34902869e-02, -1.69907343e-02,
       -6.10778108e-02, -5.16090691e-02, -2.30072960e-02, 3.99591681e-03,
       -1.54841235e-02, 3.35676689e-03, -2.98785102e-02, 1.77282677e-03,
       -3.85356657e-02, -6.37017339e-02, -2.56557371e-02,
       -8.87828693e-03, 6.54724054e-03, 5.77723049e-03, 3.74124618e-03,
       5.76112419e-03, 2.12574415e-02, 2.02993024e-03, -1.18841706e-02,
       -2.28290516e-03, -1.66061725e-02, 8.42674356e-03, -2.35537556e-03,
       -1.42001291e-03, 2.33950596e-02, 4.01472077e-02, 5.02408855e-03,
       -3.45302671e-02, -3.07049509e-02, -3.44504789e-02, 2.99742538e-02,
       -8.48592818e-03, -7.69282749e-04, 1.77989192e-02, -8.88192095e-03,
       -1.03928195e-02, -3.51148769e-02, -4.58300598e-02,
       -2.49462705e-02, 1.35865575e-02, -2.07673907e-02, -9.93716065e-03,
       -2.00236551e-02, -3.51911858e-02, -3.11991014e-02,
       -3.02916765e-02, -2.48180721e-02, -2.86642625e-03, 4.92247846e-03,
       1.44410832e-02, 1.17415714e-03, 1.26093179e-02, -2.20363997e-02,
       -1.25549501e-02, 7.05888786e-04, -3.01536196e-03, -5.69610344e-03,
       1.65796559e-02, 3.54914553e-02, 1.52657367e-02, 3.12101375e-02,
       -3.60127874e-02, -1.42646413e-02, -1.44704040e-02,
       -5.15918480e-03, -1.89262554e-02, -1.34396432e-02, 3.04556135e-02,
       6.63434118e-02, 4.90149073e-02, -2.98880618e-02, -7.15812948e-03,
       -1.12031456e-02, -4.32080775e-03, -9.53776948e-03,
       -1.59846731e-02, 8.20554513e-03, 2.64761560e-02, 4.07524072e-02,
       -2.87203700e-04, -8.42166366e-04, 2.48526596e-03, -9.74383904e-04,
       4.21086885e-03, 3.26721258e-02, 2.90716533e-02, -1.10780401e-02,
       -1.23018874e-02, -2.56764740e-02, -1.53069561e-02,
       -6.72222767e-03, -4.91160573e-03, -3.91453039e-03, 2.75673717e-02,
       1.91183817e-02, -8.95026978e-03, 5.62318461e-03, -3.13323289e-02,
       -1.03414636e-02, -5.09954728e-02, -4.48443834e-03,
       -2.26380560e-03, 1.32516092e-02, -1.26637407e-02, 6.63579851e-02,
       4.36604396e-02, -2.23689526e-02, 3.84163335e-02, -6.78468570e-02,
       -8.79201398e-04, -1.10362234e-04, -6.99341344e-03, 1.42711087e-03,
       3.92272398e-02, 6.05314001e-02, 3.59861739e-02, 1.41978431e-02,
       -2.41021551e-02, 8.72048736e-03, 6.02839747e-04, 4.27067541e-02,
       1.37268119e-02, 4.03706916e-03, -1.16514303e-02, 4.84666275e-03,
       4.89448023e-04, -6.53500156e-03, -1.61815658e-02, -3.62099856e-02,
       2.27746051e-02, -1.29816849e-02, -1.66179636e-03, 1.13170175e-03,
       3.92580079e-03, -1.71229523e-02, -7.96951950e-02, -2.00832132e-02,
       -2.10914910e-02, 3.69166993e-02, -6.86777756e-02, 7.32940971e-04,
       7.92952348e-03, 2.03343425e-02, 2.57951226e-02, -1.06928900e-01,
       6.53080316e-03, -8.52639694e-03, -1.04109030e-02, -4.01104018e-02,
       1.81527697e-02, 7.13262055e-03, 5.75457364e-02, -1.62004512e-02,
       -3.10551506e-02, 3.20640653e-02, -1.00707728e-02, 1.89109258e-02,
       2.16195872e-03, 4.04661661e-03, 1.95755586e-02, 8.38507432e-03,
       -1.71583227e-03, 1.74599290e-02, 1.07798923e-03, -4.25497480e-02,
       2.22072527e-02, -2.47317534e-02, 1.03438897e-02, 1.49245188e-02,
       -8.80835485e-03, -1.70064028e-02, -2.48172451e-02,
       -3.44684906e-02, -4.36201729e-02, -2.49053672e-04,
       -4.31706421e-02, 7.81888142e-03, -1.52005628e-02, -2.24313159e-02,
       -2.20404108e-04, -5.57114072e-02, -2.82245576e-02,
       -6.10547466e-03, 1.69334328e-03, -2.71096118e-02, 9.99609940e-04,
       -1.57068968e-02, -1.72324143e-02, -1.26814414e-02,
       -1.13241663e-02, 3.24288337e-03, -1.04072122e-02, -1.40143530e-02,
       2.57489481e-03, 1.35063818e-02, 5.03838668e-03, -2.77741365e-02,
       -1.45620601e-02, 1.98321440e-03, -3.02362721e-04, -2.19534151e-02,
       -2.98731290e-02, 1.57284327e-02, 1.29479934e-02, 7.29460409e-03,
       -1.53733073e-02, 7.14026508e-04, 1.11487275e-02, -1.42926743e-04,
       -1.93536282e-02, -3.02556623e-02, 6.92092394e-03, 6.54966384e-03,
       1.88154611e-03, -2.99871061e-02, 1.98978353e-02, -5.60230855e-03,
       -8.61338992e-03, -1.14191473e-02, -2.04171333e-02,
       -1.89617407e-02, -8.99187871e-04, -1.57963987e-02,
       -1.46396011e-02, 2.82473979e-03, -1.59865078e-02, -1.13769975e-02,
       -1.29288072e-02, -1.10012321e-02, -2.16621044e-03, 2.25937162e-02,
       -2.47272692e-04, -3.64492685e-02, 1.07760038e-02, -5.07915532e-03,
       1.11983949e-03, -1.73003487e-02, -3.02283969e-02, 4.39555310e-02,
       2.70750541e-02, 3.58684584e-02, 3.84261757e-02, 2.11741291e-02,
       1.06364172e-02, 2.39249971e-02, -1.52501166e-02, -3.40848155e-02,
       2.30125431e-02, 3.08613013e-02, 2.47234460e-02, 1.79183017e-02,
       3.61729488e-02, -2.04681680e-02, 2.98063233e-02, -2.17960998e-02,
       -2.87282150e-02, -4.28319611e-02, 7.89650623e-03, 1.08965486e-02,
       -2.53538415e-02, 1.20444056e-02, -5.09507731e-02, -9.38637275e-03,
       -1.23856021e-02, -3.17644025e-03, -1.48639157e-02, 1.37961190e-02,
       -4.41154744e-03, -3.19265551e-03, 1.42357182e-02, -1.82216857e-02,
       3.53408023e-03, -6.27990114e-03, -1.26816267e-02, -1.09287584e-02,
       2.94491742e-02, -1.14383241e-02, 8.56432617e-02, -8.90447013e-03,
       -2.94359028e-02, 4.93113659e-02, 2.98291538e-02, 4.06486494e-03,
       -1.70899406e-02, -7.60756992e-03, 2.81503570e-04, 4.45484258e-02,
       1.27876671e-02, -3.32719535e-02, 2.10121199e-02, -3.30795790e-03,
       -1.98110342e-02, -4.78643104e-02, -3.04164663e-02,
       -2.27730814e-03, -9.61427577e-03, 5.11943037e-03, -2.81936843e-02,
       -1.50329089e-02, -1.16907684e-02, -4.00125096e-03,
       -1.07938340e-02, -3.34282825e-03, -2.68468144e-03, 4.77821194e-03,
       -1.41892768e-03, 5.24729583e-03, -5.24378428e-03, -2.51147756e-03,
       7.96032138e-03, -1.08784121e-02, 1.72777977e-02, -2.95060105e-04,
       2.01876406e-02, -5.13785612e-03, -2.02388391e-02, -1.58308409e-02,
       2.45758966e-02, -1.58571303e-02, -3.95670813e-03, 3.11904564e-03,
       -1.20226908e-02, 1.89125352e-02, -6.25897665e-03, -2.27200929e-02,
       -1.34513648e-02, -4.44987556e-03, -2.32496988e-02,
       -2.12215912e-02, -2.20556203e-02, -7.33042276e-03,
       -6.17402955e-04, -1.64242182e-03, -9.49871819e-03,
       -2.17153616e-02, -6.09861920e-03, -6.30716188e-03, 1.99449677e-02,
       2.31871544e-03, 1.20398495e-03, -3.69054861e-02, 1.30537869e-02,
       7.17444392e-03, 3.51897208e-04, -1.32921170e-02, -2.64032297e-02,
       1.44048408e-05, -1.24885701e-02, -3.87506373e-02, -4.41401862e-02,
       1.94185674e-02, 1.08161243e-02, -3.39456880e-03, -1.49153927e-02,
       -3.38929482e-02, 4.79995366e-03, -1.24716265e-02, -5.55083901e-02,
       -3.16386670e-02, 6.28278870e-03, 1.78221185e-02, -3.72437597e-03,
       -2.05704244e-03, -1.13989934e-02, -1.30072760e-03,
       -5.11832396e-03, -4.19771746e-02, -4.76569869e-03,
       -2.70933728e-03, 5.65410778e-03, -1.47464976e-03, 9.88720264e-03,
       2.96723470e-02, 9.15810838e-02, 2.68934052e-02, 4.01210114e-02,
       2.14046706e-03, 7.29370043e-02, 2.83078905e-02, 2.67850962e-02,
       -1.22190937e-02, -6.69261673e-03, 3.43597010e-02, 2.85752621e-02,
       2.22108252e-02, -4.22207005e-02, 5.78492209e-02, 2.37442069e-02,
       3.84356715e-02, -3.55942063e-02, -5.10597751e-02, 8.77752248e-03,
       -1.52598455e-04, -5.26495278e-02, -5.44198081e-02, 7.80305453e-03,
       4.10406776e-02, 2.08630729e-02, -1.31058097e-02, -5.55476500e-03,
       6.94585731e-03, 3.64038628e-03, -6.14712127e-02, -3.29997651e-02,
       3.97002092e-03, 1.26310997e-02, -7.94438994e-04, 7.38963112e-02,
       8.93489197e-02, 1.49365708e-01, 5.59890084e-02, 6.47377968e-02,
       6.61237836e-02, 7.46856779e-02, 1.70960557e-02, 2.64664162e-02,
       7.63491020e-02, 6.78951144e-02, 1.16791330e-01, 2.23883241e-02,
       2.63662990e-02, 4.85113300e-02, 5.41325547e-02, 8.64277631e-02,
       9.30114165e-02, -1.27418013e-02, -1.74422916e-02, -1.27663007e-02,
       -1.43575883e-02, -4.23102304e-02, -4.92525473e-02, 6.02674671e-03,
       7.29383826e-02, 3.89838964e-02, -1.20158037e-02, -3.10802069e-02,
       -4.84219054e-03, 1.55540230e-02, -3.40935029e-02, -3.53255495e-02,
       1.82467978e-02, 1.09456889e-02, -6.51160767e-03, 5.83516359e-02,
       4.68358621e-02, 9.83632356e-02, 3.56304310e-02, 1.39158266e-02,
       3.40378843e-02, 2.95351725e-02, -9.27560125e-03, 1.46157444e-02,
       4.48518060e-02, 4.34432104e-02, 1.11553602e-01, 2.26781853e-02,
       1.77175943e-02, 1.90674961e-02, 2.70368848e-02, 5.77014387e-02,
       2.95834728e-02, 3.15836025e-03, -8.65536463e-03, 1.00419242e-02,
       -3.21462341e-02, -3.19707990e-02, -5.77662066e-02,
       -3.24610039e-03, 4.61874530e-02, 1.99139882e-02, -3.26361088e-03,
       -2.27694828e-02, -1.54620428e-02, -1.86517313e-02,
       -5.05121127e-02, -8.22055154e-03, 1.33401584e-02, 2.21077306e-03,
       8.67170515e-04, 3.22275562e-03, -3.75275593e-03, 3.20160040e-03,
       -2.38592038e-04, 1.18866470e-03, 8.23638961e-03, -1.27590233e-02,
       2.37044282e-04, 2.76833563e-03, 3.37292091e-03, -1.19465974e-03,
       -3.30615719e-03, -4.06865217e-03, 1.27866818e-02, 5.53926155e-02,
       -1.02794105e-02, 1.16433743e-02, 1.64482735e-05, 2.97677354e-03,
       1.01118337e-03, 4.49348334e-03, -1.11956038e-02, -1.17470631e-02,
       5.51675558e-02, 9.74684488e-03, -9.98137239e-03, -1.38968253e-03,
       -7.86080584e-03, 1.36845326e-02, 3.27468663e-03, -9.36638005e-03,
       -9.34210047e-03, -2.13062769e-04, -1.32245487e-02,
       -8.48537032e-03, -4.86389082e-03, -6.37582270e-03,
       -1.83395576e-02, 1.58816464e-02, 7.70081673e-03, 1.34138409e-02,
       2.55574789e-02, -2.37123035e-02, 1.23304939e-02, -3.70859122e-03,
       -1.19152777e-02, 2.40593515e-02, 2.21275520e-02, 1.70895155e-03,
       -4.01803758e-03, 4.86502387e-02, 2.76209926e-03, 3.09174247e-02,
       6.85641356e-03, 1.59761533e-02, 1.15983738e-02, 3.80857326e-02,
       -1.59213450e-02, -1.46850497e-02, 1.35410903e-02, 5.09042526e-03,
       1.90289989e-02, -1.19544752e-02, 2.06873976e-02, 1.84917636e-02,
       3.85473333e-02, -3.44862719e-03, -9.82109457e-03, -4.71756607e-03,
       -2.72942847e-03, -1.19622769e-02, -2.45089531e-02,
       -1.63654163e-02, 4.37287893e-03, 8.55427887e-03, 3.07840463e-02,
       2.29974296e-02, -2.12886184e-03, -1.55383525e-02, -2.94104498e-03,
       -2.43124943e-02, -8.67344788e-04, 1.27613219e-02, 2.63123214e-02,
       1.40347723e-02, -1.44856479e-02, 4.83722389e-02, 1.22854412e-02,
       -1.67750828e-02, -2.64106113e-02, 3.89220007e-03, 2.16795038e-02,
       4.57086526e-02, -4.70102299e-03, -3.89623493e-02, 1.24827763e-02,
       -3.65289897e-02, -7.94167817e-03, -3.86392735e-02, 9.17122141e-03,
       9.85714700e-03, 5.10012396e-02, 6.54964382e-03, -3.27977426e-02,
       5.41439727e-02, 5.58594055e-02, -3.23298313e-02, -4.01690677e-02,
       -1.45760523e-02, 9.87826195e-03, 7.68332044e-03, 1.62316319e-02,
       1.22960163e-02, -1.11816451e-02, -1.32558364e-02, -1.44726774e-02,
       -3.02967634e-02, -7.19093578e-03, 2.44702343e-02, 3.16549763e-02,
       1.55236349e-02, -1.91691273e-03, 2.71838196e-02, 1.34913549e-02,
       -1.66393928e-02, -3.97580601e-02, -1.47109078e-02, 5.49993757e-03,
       1.52813355e-02, -9.36993863e-03, -9.10928193e-03, 6.36677966e-02,
       3.24221775e-02, -1.80628821e-02, -1.38149206e-02, -6.65376894e-03,
       1.93273451e-03, 1.70119945e-02, 3.77545157e-03, -9.21471231e-03,
       1.60766989e-01, 1.11183919e-01, -1.62910167e-02, -2.57821511e-02,
       -4.97333845e-03, -9.24081914e-03, -6.13540411e-03, 8.44337104e-04,
       2.13519717e-03, 5.28286397e-02, 2.85219457e-02, 2.47941527e-04,
       -5.62606892e-03, -2.42689122e-02, -2.61511886e-03,
       -6.11362839e-03, -3.27594904e-03, 5.99969178e-03, 5.95684536e-02,
       7.28959031e-03, -4.60765418e-03, -8.62701051e-03, -1.29459603e-02,
       -9.97384638e-03, -3.24216584e-04, -1.98326334e-02,
       -6.46346901e-03, 1.46094374e-02, -2.89262668e-03, -8.58721137e-03,
       -1.63495839e-02, -6.11767592e-03, -2.45967065e-03, 4.99537122e-03,
       -6.99155778e-03, -6.53974107e-03, -1.14859305e-02, 3.16325226e-03,
       -1.23462928e-02, -2.24053934e-02, 1.13096426e-03, -1.38018476e-02,
       -6.26099855e-03, 4.18950571e-03, 1.93796272e-03, 6.25889599e-02,
       5.56922816e-02, 5.02594654e-03, -1.13753863e-02, 7.37121329e-03,
       -2.12419350e-02, 4.04901663e-03, -1.15051046e-02, -1.34377070e-02,
       3.07358860e-04, 3.91087116e-04, -3.06981802e-03, -3.79879703e-03,
       -3.85177210e-02, -4.19980884e-02, 2.46309340e-02, 2.53677629e-02,
       -2.68645119e-02, -1.22969979e-02, -2.45465133e-02,
       -4.12823483e-02, -3.04135270e-02, 3.98757169e-03, -1.92895662e-02,
       4.64186026e-03, -8.14021565e-04, -2.75844261e-02, -1.20916264e-03,
       1.81145389e-02, -4.09248620e-02, -3.31653021e-02, -4.24935808e-03,
       -1.37571036e-03, -3.86665994e-03, 6.45396765e-03, -2.28049606e-03,
       3.67657617e-02, 2.50451565e-02, -8.44834000e-03, -1.59563273e-02,
       -1.24543449e-02, -3.58933397e-02, 2.13763267e-02, -4.26049754e-02,
       -6.06633238e-02, -3.79816703e-02, 1.37654580e-02, -2.72966679e-02,
       5.45361498e-03, 1.01004876e-02, -5.38397655e-02, 1.43458107e-02,
       -4.27182717e-03, -5.27920574e-02, -2.09222641e-02, 1.23551395e-02,
       -2.35389471e-02, 2.76362151e-02, 4.18843403e-02, 2.86183506e-02,
       2.58336272e-02, 2.76188552e-02, -2.57969052e-02, 2.67809313e-02,
       9.61585622e-03, -3.45556587e-02, 1.38456784e-02, -7.06786662e-03,
       2.02706992e-03, -8.31667858e-05, -1.07508954e-02, 3.57282604e-03,
       3.69724422e-03, -7.48436060e-03, -9.24004801e-03, -5.03555778e-03,
       -2.82380800e-03, -9.55757219e-03, 1.50771467e-02, 9.57385264e-03,
       -2.86863726e-02, -7.39308633e-03, -1.76340584e-02,
       -2.25105770e-02, -2.12238301e-02, 6.65724929e-03, -1.80717874e-02,
       3.17167416e-02, 1.49571393e-02, -5.18513881e-02, 3.85361761e-02,
       1.80389248e-02, 8.81048385e-03, 1.47334514e-02, 4.66044352e-04,
       5.21180630e-02, 1.60700120e-02, 2.89156064e-02, -1.92662235e-02,
       5.56199849e-02, 3.50483432e-02, -4.97504487e-04, -1.39452117e-02,
       5.28859347e-03, -6.50917040e-03, -6.26035267e-03, -1.19162016e-02,
       2.73382701e-02, 9.87943448e-03, 1.27942720e-02, 1.03096048e-04,
       1.01334322e-02, 1.09559251e-02, -1.21159852e-02, -2.27243087e-04,
       -1.84775535e-02, 5.29698245e-02, 2.21729074e-02, -1.61893829e-03,
       -2.21403837e-02, 1.41416658e-02, 6.17556553e-03, -2.24360190e-02,
       1.71034670e-04, -7.07275420e-03, 3.47333364e-02, 2.30432246e-02,
       -8.89055245e-03, -8.88318196e-03, 2.68920064e-02, 6.50477735e-03,
       2.44054734e-03, -6.39117556e-03, 9.62765608e-03, 2.46804170e-02,
       -8.38293694e-03, -7.01044779e-03, 4.16788645e-03, 6.20160112e-03,
       -2.99736299e-03, -2.05938909e-02, -2.09565330e-02,
       -5.70488954e-03, -3.43370228e-03, 3.37679461e-02, 2.23073643e-02,
       -1.29683586e-02, 5.92775969e-03, 2.21132068e-03, -5.26554622e-02,
       -3.93060520e-02, -2.94115022e-02, 2.29262114e-02, 3.14779505e-02,
       -1.16925035e-02, -4.07771468e-02, 5.37597165e-02, -7.91946775e-04,
       -3.30666266e-02, -3.40941250e-02, 3.61332181e-03, 7.86234066e-03,
       1.32499321e-03, -2.87260041e-02, -5.26834428e-02, 7.48267770e-02,
       6.67148177e-03, 1.51129765e-02, -1.19990837e-02, 1.71303358e-02,
       2.01898124e-02, 1.07449910e-03, -2.07040422e-02, -4.31451015e-03,
       2.78568212e-02, 2.12172512e-03, -1.57486629e-02, -6.53100666e-03,
       2.56436467e-02, -4.93683154e-03, 2.79177111e-02, 6.25431398e-03,
       -2.61158235e-02, 4.68920870e-03, 2.41091754e-02, -3.50643583e-02,
       -1.94184203e-02, -1.18797095e-02, -9.26428288e-03, 2.76856124e-02,
       -6.13738261e-02, 1.41903237e-02, 8.77751410e-02, 5.27459793e-02,
       -5.61492816e-02, -2.24961992e-02, 1.54663650e-02, 3.02406028e-02,
       3.51344943e-02, -5.47718182e-02, 2.69812644e-02, 6.93075582e-02,
       3.58059257e-02, 4.93670851e-02, -1.42312702e-03, 2.10984796e-02,
       8.37880839e-03, -3.60595435e-02, -2.65762005e-02, 2.54486371e-02,
       3.96418273e-02, -3.10978619e-03, -6.01125183e-03, 7.81687163e-03,
       2.32170541e-02, -1.14667751e-02, 4.29596286e-03, -4.54519829e-03,
       -1.15075409e-02, 2.45196023e-03, -8.19900725e-03, 1.34646548e-02,
       3.01139685e-03, 1.81989912e-02, -3.79000492e-02, 1.50573226e-02,
       -3.55765969e-03, 1.72969904e-02, -4.46510858e-05, 3.38298269e-03,
       3.33043821e-02, 3.75397168e-02, -1.74246673e-02, -1.88749786e-02,
       1.48744686e-02, -2.64108200e-02, 3.66654024e-02, 2.18792236e-03,
       1.98083296e-02, 5.58030158e-02, 2.63044983e-02, 7.81075703e-03,
       8.61382857e-03, -4.86684553e-02, -2.89370343e-02, 1.41249262e-02,
       4.92177345e-03, -1.58723071e-03, 2.22427817e-03, 1.17073860e-03,
       -3.81039013e-03, 9.60161630e-03, -2.23842841e-02, -7.41181429e-03,
       -5.30576287e-03, 4.22292715e-03, -2.85926950e-03, 2.38392446e-02,
       -1.51108624e-02, -1.83979049e-02, 4.50193249e-02, -1.99541040e-02,
       9.32773168e-04, -6.83504809e-03, -9.65125917e-04, -1.36764785e-02,
       3.04753482e-02, -1.44444164e-02, 2.37924904e-02, 6.62532747e-02,
       -8.98145139e-04, 1.20626613e-02, -2.25574884e-04, -1.52346222e-02,
       -7.09132571e-03, 4.89824197e-06, -1.62264258e-02, 5.18540479e-02,
       5.72060049e-02, 6.17226819e-03, -1.66633073e-03, -1.69590041e-02,
       -1.62771754e-02, -3.57555749e-04, 2.23151073e-02, -1.52309090e-02,
       -1.24047380e-02, 2.87823845e-03, 1.12075210e-02, -5.69537375e-03,
       -1.99245289e-02, 1.70764457e-02, -5.10625588e-03, 3.49182859e-02,
       -3.15875039e-02, -3.24999206e-02, 1.24184303e-02, 6.85128123e-02,
       -8.54261103e-04, -2.70679221e-02, -7.47147191e-04,
       -2.62487996e-02, 3.87356915e-02, -2.83637866e-02, -1.14323543e-02,
       -1.80393215e-02, 3.49253416e-02, 4.88347979e-03, 2.24207342e-02,
       2.33980678e-02, -2.70846002e-02, 6.68589678e-03, -4.36637737e-02,
       2.45284522e-03, -3.76459048e-03, -1.21420752e-02, -2.20229086e-02,
       -3.85082839e-03, 2.54952125e-02, 2.11801287e-02, 3.23872007e-02,
       -3.21053974e-02, -1.51815200e-02, 1.99914500e-02, 4.52734753e-02,
       -1.97496242e-03, -7.36613851e-03, 1.69776082e-02, 4.94628213e-02,
       5.78385126e-03, -7.50828236e-02, 1.63549110e-02, 3.33696455e-02,
       1.48160616e-02, -2.47472748e-02, 2.90974900e-02, 5.55961765e-02,
       -9.12596378e-03, -2.65208003e-03, -7.26798326e-02, 2.28235070e-02,
       -5.20474836e-03, -2.54535358e-02, -2.13315692e-02,
       -1.33704385e-02, 4.63721119e-02, -5.02290204e-02, -3.94721422e-03,
       -3.44250277e-02, -1.83749814e-02, 2.92567420e-03, -5.95237948e-02,
       -4.13246639e-02, 2.28861533e-03, 2.41892654e-02, 5.92211774e-03,
       1.45210503e-02, 3.27247428e-04, -5.54633094e-03, 1.03754355e-02,
       2.50550490e-02, -1.13575738e-02, -1.07301176e-02, -7.35292351e-03,
       8.78919475e-03, 3.37284198e-03, -2.70872340e-02, 9.43756383e-03,
       4.46382537e-02, 1.93894852e-03, -6.36383332e-03, 2.65453756e-02,
       1.08283684e-02, -3.31825949e-02, -2.22180411e-02, -3.21765170e-02,
       1.89966038e-02, 2.56714914e-02, -1.38314348e-02, 1.34560466e-02,
       -9.94607527e-03, 1.34213257e-03, -2.66710781e-02, 6.11615600e-03,
       -4.62645944e-03, 5.91616565e-03, 1.33968722e-02, -4.24063914e-02,
       -3.47519778e-02, -1.16611226e-02, -9.28747654e-03, 2.39178748e-03,
       2.26642359e-02, -5.40621113e-04, 8.74237798e-04, -8.11510719e-03,
       -2.66480092e-02, 9.86803570e-05, -1.67203019e-04, -2.64693564e-03,
       -3.84501345e-03, 1.54281147e-02, -1.83921885e-02, 1.91557445e-02,
       2.82740202e-02, -1.47958687e-02, 2.11633686e-02, -1.81460213e-02,
       5.02922432e-03, -2.81974464e-03, 6.14408217e-03, -3.19746733e-02,
       9.42721367e-02, 1.03284657e-01, 1.19009782e-02, 5.12919649e-02,
       -2.88790390e-02, 1.30862072e-02, -1.93843828e-03, -5.31473430e-03,
       -2.20281295e-02, 7.96118751e-02, 9.83857960e-02, 3.82244736e-02,
       5.23319654e-03, -3.05571011e-03, 1.74223892e-02, 2.30126083e-03,
       4.96160761e-02, 9.83957900e-04, -5.20903571e-03, -1.33380238e-02,
       -6.64832245e-04, -3.70490062e-03, 1.39180627e-02, 1.03624389e-02,
       -3.54257636e-02, 2.15625856e-02, -6.26159683e-02, -4.07654420e-02,
       -4.47384529e-02, -4.47100547e-06, 3.56470346e-02, 1.82198698e-03,
       5.77427559e-02, 3.47444508e-03, 2.25738832e-03, -7.65841231e-02,
       -2.58711986e-02, 7.67430756e-03, 1.05355550e-02, 5.00606485e-02,
       -2.06852201e-02, 9.74645242e-02, 3.40436362e-02, 6.25887699e-03,
       -7.08553791e-02, -1.43023087e-02, 3.97345535e-02, 4.07227650e-02,
       -5.52921277e-03, 1.06620584e-02, 7.35406652e-02, -1.51556861e-02,
       2.62557957e-02, -9.07479972e-03, 1.08340587e-02, 7.94693921e-03,
       8.52857064e-03, 1.06088873e-02, -1.13496156e-02, -5.92143973e-03,
       -7.13382363e-02, -1.17351497e-02, -4.10525538e-02,
       -4.25627679e-02, 7.78106786e-03, 2.53391481e-04, 5.71463779e-02,
       2.19821390e-02, 2.36146450e-02, -2.22081449e-02, 3.32320138e-04,
       -4.17932644e-02, -3.60762179e-02, 9.51907423e-04, -2.97762710e-03,
       4.30710874e-02, -5.88451745e-03, 4.65821661e-02, 1.98619552e-02,
       -6.55018445e-03, -7.31979012e-02, -3.54578793e-02, 2.52731517e-02,
       2.63627116e-02, 1.59711987e-02, 5.37063880e-03, 5.79366051e-02,
       -1.47199947e-02, -4.26719803e-03, -3.94688826e-03, 1.25466920e-02,
       1.00336820e-02, 1.70471873e-02, 1.07458821e-02, -2.87535577e-03,
       -1.19942445e-02, -4.46234196e-02, -1.26432404e-02, 6.38428330e-03,
       2.29403861e-02, 5.11129946e-02, 2.36159246e-02, -1.75573325e-04,
       -1.95175707e-02, -2.84703057e-02, -5.11270799e-02,
       -1.08567923e-02, -1.63243414e-04, -3.28589045e-03, 3.92101519e-02,
       6.96826354e-03, 4.84414212e-03, 2.07131319e-02, -1.16475904e-02,
       -1.06512092e-03, 1.14074564e-02, -1.67671945e-02, -5.67932939e-03,
       7.12919747e-04, 1.46430591e-02, -2.84581841e-03, -7.74951885e-03,
       -2.93452921e-03, -9.50179249e-03, -3.34040867e-03,
       -7.55835930e-03, 1.42780868e-02, 8.53275880e-03, -4.85643558e-02,
       -7.30500091e-03, -1.62590586e-03, -9.39532591e-04,
       -4.73059993e-03, 1.43465470e-03, -1.76157728e-02, 6.15886301e-02,
       7.02740923e-02, 7.11548422e-03, -2.52373237e-02, 7.50363385e-03,
       2.31508762e-02, 2.47607753e-02, 1.27035789e-02, -8.55757948e-03,
       3.94129455e-02, 9.12716687e-02, 6.14821017e-02, 2.57681832e-02,
       1.78391859e-02, 3.38995829e-02, 3.88738443e-03, -1.17540744e-03,
       -2.53186678e-03, 1.61412358e-02, 3.94290872e-02, 1.47812860e-02,
       1.44220106e-02, 1.07365297e-02, 8.57897755e-03, -7.25476397e-03,
       6.93159236e-04, -1.91322044e-02, -1.15977973e-02, -6.27487106e-03,
       -5.48113547e-02, -2.80674398e-02, -4.92279185e-03,
       -4.65549342e-03, 3.80979069e-02, 3.52837108e-02, -3.89159545e-02,
       5.49098291e-03, 2.34091021e-02, -1.67405070e-03, -3.60212149e-03,
       1.19377533e-02, 4.16067317e-02, 9.70639884e-02, -7.02802604e-03,
       -2.47675963e-02, -2.64599407e-03, 5.00265621e-02, 6.85987175e-02,
       5.48067270e-03, 3.10523249e-02, 1.09282278e-01, 2.69563906e-02,
       -2.53134556e-02, -3.29465382e-02, -3.39888819e-02, 3.26282270e-02,
       9.54921730e-03, 1.16094407e-02, 3.26448567e-02, 4.23323587e-02,
       -6.66720513e-03, 3.10100528e-04, -9.28272586e-03, 4.34669619e-03,
       9.16477758e-03, -2.48175319e-02, -1.67988818e-02, 1.39913429e-03,
       -1.49614932e-02, 1.74249299e-02, 3.64982486e-02, -2.60470901e-02,
       -3.09266653e-02, 7.89852347e-03, 4.03510779e-02, 1.13229454e-02,
       -3.02064531e-02, -6.12225942e-03, 2.61270497e-02, -3.23990472e-02,
       1.50310807e-03, -4.62527238e-02, 4.78420965e-03, 5.72445281e-02,
       -7.57818518e-04, -8.07712786e-03, 4.80938107e-02, 1.33265695e-02,
       -3.54486741e-02, -2.98623424e-02, -5.52087314e-02, 5.12084272e-03,
       1.09214522e-03, 1.97402015e-02, 1.33248614e-02, 2.30271146e-02,
       -6.09332789e-03, 4.25697444e-03, 2.51487875e-03, 3.98742501e-03,
       3.70385125e-03, 8.31529615e-04, -7.00031593e-03, 2.72025280e-02,
       -3.87707120e-03, 3.39324377e-03, 1.72242392e-02, -9.25323833e-03,
       -7.34847970e-03, -1.72439031e-02, 3.54782902e-02, -9.25467256e-03,
       -9.60561167e-03, -2.10956763e-02, -2.35947091e-02,
       -4.11307439e-02, -1.36303119e-02, -1.09946402e-02,
       -1.06619892e-03, 2.03054659e-02, -1.71021242e-02, -3.52158174e-02,
       -1.45130279e-02, -5.57709159e-03, -1.76374335e-02,
       -2.45893262e-02, -2.10692957e-02, 1.32440105e-02, 9.20861587e-03,
       -4.55488497e-03, -8.08320660e-03, -1.91257417e-03, 3.78190307e-04,
       4.56744293e-03, 8.06990266e-03, 1.44098410e-02, 1.60373580e-02,
       1.08211730e-02, 1.33831985e-02, 4.22052294e-03, -1.99218933e-03,
       -1.19656352e-02, -3.25572421e-03, 1.54525321e-02, 1.47003811e-02,
       1.79054923e-02, 1.38926636e-02, 2.54118796e-02, 2.42382418e-02,
       6.00491138e-03, -1.89323723e-02, -1.21524883e-02, 2.18319800e-02,
       4.49456275e-03, 1.09328749e-02, -1.40644489e-02, -8.52793630e-04,
       1.49520105e-02, -7.58737605e-03, -1.09796822e-02, -1.10587468e-02,
       1.54619841e-02, 6.91812858e-03, -4.83723450e-03, -1.26433996e-02,
       7.61258649e-03, -2.80369102e-04, -1.18399654e-02, 2.55819988e-02,
       -9.59659694e-04, 3.66241001e-02, 4.29655164e-02, 1.44112315e-02,
       1.83066856e-02, 1.10204658e-02, -7.59894494e-04, 3.83521826e-03,
       1.34416977e-02, -7.04585714e-03, 3.36933024e-02, 1.26486388e-03,
       3.93617935e-02, -3.25261094e-02, -8.48064592e-05, 5.18250987e-02,
       1.54291037e-02, -3.26254852e-02, -3.16468216e-02, 2.12008916e-02,
       -1.93753093e-02, -1.19560780e-02, -8.12994689e-02,
       -5.76720871e-02, 3.71950082e-02, 1.02055408e-02, -1.85057279e-02,
       -2.46270113e-02, 2.84148622e-02, -2.28488576e-02, -5.22774756e-02,
       -1.03356903e-02, 1.64201446e-02, -2.19559087e-03, -1.46278320e-02,
       1.04067056e-02, 8.50499049e-03, 1.14267692e-01, 3.65300104e-02,
       3.71236284e-03, 3.72201926e-03, -1.43469675e-04, 1.01157287e-02,
       5.46173519e-03, 2.98753884e-02, 3.04608624e-02, 7.60818124e-02,
       -1.73683241e-02, -8.19673482e-03, -5.31814434e-02, 4.70978506e-02,
       4.68960628e-02, 3.43126841e-02, -3.98081169e-02, -3.45119499e-02,
       4.02083583e-02, 2.42066551e-02, -3.94541956e-02, -3.35283913e-02,
       1.09404158e-02, 2.31089666e-02, 7.91670829e-02, -2.23030671e-02,
       -3.87151316e-02, 3.24688666e-02, 1.25270663e-02, -4.81922366e-02,
       7.84540921e-03, 1.26489289e-02, 7.41642943e-05, -9.94805479e-04,
       1.33395020e-03, 8.55747145e-03, 7.26814494e-02, 2.59502847e-02,
       3.42453714e-03, -6.33593509e-03, -1.65191442e-02, 2.29748059e-02,
       1.10906120e-02, 1.29973302e-02, 3.47304828e-02, 7.10561648e-02,
       -5.57299471e-03, 7.86979776e-03, 8.33063107e-03, -1.56773217e-02,
       3.39872204e-02, 2.38986667e-02, 5.26170537e-04, 4.54399269e-03,
       1.32079944e-02, -1.79422670e-03, -1.37442090e-02, -8.19339138e-03,
       7.68456329e-03, 3.96558046e-02, 4.51814383e-02, -1.06111821e-02,
       -2.30670795e-02, 4.80860937e-03, 1.34265376e-02, -2.32990906e-02,
       -7.18803843e-03, 4.09724470e-03, 3.02246977e-02, 1.78311709e-02,
       -1.89823692e-03, 1.26360706e-03, -2.30969023e-03, 9.27649438e-03,
       1.89020910e-04, -1.54611999e-02, -8.06698296e-03, 2.39781174e-03,
       -3.03611462e-03, 5.23634767e-03, 5.82437497e-04, -1.53406085e-02,
       -3.89888627e-03, -1.06518122e-03, 1.07271904e-02, 1.50867319e-02,
       6.12622639e-03, -4.46207868e-03, 1.05432859e-02, 6.24066219e-03,
       -1.75519399e-02, -1.35177812e-02, -2.46911426e-03, 1.07939495e-02,
       8.23087431e-03, 9.53803863e-03, 1.18789298e-03, 5.91351325e-03,
       1.33322487e-02, 1.45033784e-02, 8.00150330e-04, 3.59634054e-03,
       -1.43884989e-02, -1.76275428e-02, -1.75399203e-02,
       -1.07305311e-02, -6.69154571e-03, 9.66283493e-03, 6.04032585e-03,
       2.39583049e-02, 7.78211514e-03, -1.72612592e-04, -1.86176747e-02,
       8.43320601e-03, -1.32865971e-02, 1.33312866e-02, 3.76231293e-03,
       1.60113964e-02, 1.02855945e-02, 2.45202091e-02, 5.52211367e-02,
       6.78940210e-03, 2.36396436e-02, -1.68845486e-02, 3.08849458e-02,
       -1.19256498e-02, -2.17909878e-03, -7.28615001e-03, 4.35568877e-02,
       5.37785888e-03, -3.46091995e-03, -6.11726101e-03, 3.37340832e-02,
       1.57937612e-02, 1.33601828e-02, 3.66836563e-02, 2.56468710e-02,
       2.37481520e-02, 9.26979724e-03, -2.77559683e-02, -2.95384061e-02,
       3.49288597e-03, -7.43531762e-03, 2.28052735e-02, 9.53110307e-03,
       1.19819259e-02, -5.36826253e-03, 2.19678320e-02, -1.48762781e-02,
       -1.64066982e-02, -2.59910952e-02, 4.19666618e-02, 1.59340873e-02,
       4.16438542e-02, -2.46556732e-03, 3.17083932e-02, 9.67401713e-02,
       -4.61856499e-02, -2.36823484e-02, -1.40663013e-02, 5.70315681e-02,
       1.23987654e-02, 2.03379132e-02, 9.48300585e-03, 1.60191469e-02,
       -1.08370315e-02, -1.88898128e-02, -4.70100194e-02, 3.84351201e-02,
       -1.15438150e-02, 9.64729488e-03, 2.41291467e-02, 3.63040268e-02,
       -5.46900323e-03, 1.03534698e-01, 6.98127523e-02, -2.63186917e-02,
       2.03124136e-02, -7.73304189e-03, 6.69703307e-03, -9.00819339e-03,
       -8.90505593e-03, -2.48324759e-02, 2.20550993e-03, 5.38060674e-03,
       -2.68736910e-02, -1.95663050e-02, 3.81131051e-03, 1.63917169e-02,
       1.16838692e-02, -1.04557872e-02, -1.73623604e-03, 3.16563100e-02,
       2.59548426e-02, -4.08700965e-02, -3.16193663e-02, -1.21177593e-02,
       -1.58047136e-02, 3.19959410e-02, 1.57778757e-03, -1.63371805e-02,
       7.71769136e-02, 4.23266329e-02, -2.49508936e-02, -6.51407614e-03,
       -3.18635218e-02, -9.93433036e-03, 1.78367458e-02, 1.03695961e-02,
       -6.15565246e-03, 1.22914732e-01, 9.05715004e-02, -6.86862739e-03,
       -2.42044008e-03, -6.85804943e-03, -8.00359715e-03,
       -1.46634225e-02, -5.82441408e-03, 7.33686436e-04, 1.55327348e-02,
       4.11223210e-02, -3.51867732e-03, -7.91564025e-03, -1.39648356e-02,
       -1.45015847e-02, -2.33954526e-02, -3.60105671e-02, 6.57712482e-03,
       3.04891641e-04, 2.60667372e-02, -1.69517510e-02, -1.53393848e-02,
       -3.84866097e-03, -1.82425641e-02, -3.81206558e-03,
       -5.35733486e-03, -2.19014380e-03, -2.59687714e-02,
       -1.64887998e-02, -2.21135691e-02, -4.57938900e-03, 9.96647868e-04,
       -2.25112983e-03, 5.74005162e-03, 1.55077456e-02, -9.70211625e-03,
       -1.60318464e-02, -1.45200901e-02, -1.95571594e-02,
       -1.12680020e-02, -6.44246582e-03, -2.31338125e-02,
       -2.03102771e-02, -1.23025188e-02, 2.17495654e-02, 4.25983854e-02,
       4.33113910e-02, -1.35075506e-02, 4.50945878e-03, -4.26676404e-03,
       -4.54339311e-02, -2.39707585e-02, 3.66583397e-03, 1.03518898e-02,
       6.36349479e-03, -3.59297432e-02, -5.31456247e-02, 5.28776133e-03,
       -1.52725596e-02, -4.32819352e-02, 6.75849058e-03, 3.76072414e-02,
       -2.92949434e-02, -9.05644149e-03, -4.27919254e-02,
       -1.84579585e-02, 2.56681889e-02, -1.95386112e-02, 2.07117144e-02,
       2.23189313e-02, 6.55873492e-02, -6.57942519e-03, 2.95854930e-04,
       -1.28832469e-02, -3.43819410e-02, -2.52105407e-02,
       -2.45407876e-03, -9.47999954e-03, -1.32694561e-02,
       -3.54447798e-03, 8.00013822e-03, 2.65384465e-02, -3.87506676e-03,
       -2.55843028e-02, 1.50023736e-02, -4.22155187e-02, -1.08304841e-03,
       6.01742696e-03, 1.44495396e-03, -1.28215160e-02, -6.96396967e-03,
       -5.37215844e-02, -5.00767641e-02, 7.59420469e-02, 1.59399747e-03,
       -3.29155521e-03, -2.78173643e-03, -4.38297987e-02,
       -1.46697965e-02, 1.95241198e-02, -1.33143440e-02, -7.42113590e-03,
       5.81344031e-02, 2.64781737e-03, 3.29617448e-02, 3.28006260e-02,
       5.18521219e-02, -1.79073121e-02, -1.78082008e-02, -4.82105417e-03,
       -3.08553725e-02, -8.78330972e-03, -1.13419993e-02,
       -1.13919210e-02, 6.91671576e-03, -5.23201190e-04, -7.13150669e-03,
       3.46558937e-03, -1.63224656e-02, -2.64842473e-02, -1.85254018e-03,
       -3.61789614e-02, -1.36429640e-02, 1.64428279e-02, 1.33997407e-02,
       -1.84957832e-02, 1.66883152e-02, -2.83826143e-02, -3.24829370e-02,
       1.89939979e-02, -1.65663064e-02, 1.41686643e-03, -1.55207771e-03,
       9.17239301e-03, -3.26935984e-02, 1.34536438e-02, -2.74760127e-02,
       3.66950710e-03, 1.72788333e-02, -1.10572893e-02, 1.12884901e-02,
       3.80332320e-04, 2.52723228e-02, -1.96536966e-02, -2.40334719e-02,
       -1.04932152e-02, -1.63951684e-02, -8.55420437e-03,
       -5.81726385e-03, -5.81934210e-03, -4.37978189e-03,
       -2.00633425e-03, 6.92551583e-03, -1.32479593e-02, 1.64726377e-02,
       -2.82945833e-03, -1.41973153e-03, -1.18433414e-02, 7.39212846e-03,
       -9.34863091e-03, -1.10224225e-02, 1.44575965e-02, -1.02779679e-02,
       -1.43521570e-03, -7.55191362e-03, -1.62686277e-02,
       -2.67924671e-03, 9.48792510e-03, -1.68256424e-02, -1.66621841e-02,
       2.91745570e-02, 2.14978307e-02, -1.31632071e-02, -8.72715935e-03,
       -3.08594815e-02, 3.13898228e-04, 6.78139087e-03, -1.71003658e-02,
       1.54390919e-03, 1.38467504e-02, -8.76433775e-03, -1.55827624e-03,
       4.50232206e-03, -7.61410454e-03, -1.40699092e-02, 8.06712080e-04,
       7.60046067e-03, 1.25213936e-02, -1.32662486e-02, 3.35502699e-02,
       2.48042643e-02, -2.91268528e-03, 2.20002912e-04, -3.04627512e-02,
       2.25594118e-02, -2.83553675e-02, 7.26284506e-03, -1.51648268e-03,
       -8.33085645e-03, -1.34231597e-02, 8.24724033e-04, -1.53055908e-02,
       -1.02404980e-02, -2.06646919e-02, -9.85110272e-03,
       -1.92039534e-02, 1.11738807e-02, 1.71848778e-02, -2.34007407e-02,
       2.53422111e-02, -1.41079472e-02, -4.82401997e-03, 3.11413724e-02,
       -1.33520027e-03, -2.59114918e-03, 2.08509602e-02, -1.56314988e-02,
       -2.42954176e-02, -4.23366856e-03, -9.50015616e-03, 3.42230313e-03,
       2.63371971e-02, 2.05275659e-02, 2.84586940e-02, -2.99503235e-03,
       2.61756591e-02, 5.37685351e-03, -1.01703815e-02, 2.22117873e-03,
       -2.38013621e-02, -7.04123452e-03, -8.69613257e-04, 4.15349528e-02,
       -5.89618040e-03, -3.41200456e-02, -3.04014534e-02,
       -8.86814669e-03, 3.05612646e-02, -1.19530887e-03, -6.99109435e-02,
       -3.20127942e-02, 8.32692813e-03, 1.88587327e-02, 4.94702160e-03,
       -5.96601889e-02, 5.40474616e-02, 8.15007091e-02, -1.78245045e-02,
       7.79719874e-02, -1.94159579e-02, 1.17990291e-02, 2.00462135e-04,
       -3.44456807e-02, -3.65581699e-02, 2.75421087e-02, 1.20643517e-02,
       -8.44342541e-03, 1.03586831e-03, 1.84240807e-02, 3.75162698e-02,
       -1.07984280e-03, 5.04427543e-03, -1.70939453e-02, -1.15661258e-02,
       -5.63868845e-04, -1.60940289e-02, -9.50078294e-03, 1.76089369e-02,
       6.85387030e-02, -1.57087781e-02, -2.35272720e-02, -2.98324600e-02,
       -1.89585947e-02, 1.72135588e-02, -1.34007679e-02, 4.52244654e-02,
       1.69918593e-02, 8.52903537e-03, -3.23950015e-02, -1.85644701e-02,
       -3.79029214e-02, 1.53562948e-02, 4.07385975e-02, -2.60369014e-02,
       3.42812873e-02, 4.72987631e-05, -3.07259057e-03, -2.00257339e-02,
       -2.46565994e-02, -4.04004641e-02, 2.59914957e-02, 1.57444589e-02,
       1.24945361e-02, 3.62671949e-02, -2.51213904e-03, -7.95609970e-03,
       3.87178268e-03, -1.96328340e-03, -5.30145830e-03, 7.64231721e-04,
       9.24579101e-04, 1.86174158e-02, 5.83618246e-02, -7.47608999e-03,
       1.97993894e-03, 1.07436497e-02, -4.34732735e-02, -1.02090798e-02,
       1.53769301e-02, 1.78868026e-02, -1.25900041e-02, 3.78692965e-03,
       -1.75356008e-02, 8.91053025e-03, 1.85891502e-02, -5.08146398e-02,
       6.03687856e-03, 1.23004448e-02, 1.51346726e-02, -1.48978420e-02,
       -2.04113359e-03, -8.68760888e-03, 6.35695178e-03, 1.31827351e-02,
       -1.12584000e-02, -2.89321318e-03, 1.26221133e-02, 7.49993697e-03,
       2.37173382e-02, 6.99632913e-02, 1.58293769e-02, -1.43100591e-02,
       7.48788379e-03, 1.48273527e-03, -1.83276311e-02, 1.10551808e-02,
       1.89787261e-02, 1.70022491e-02, 5.35561889e-02, -1.85742695e-03,
       -1.16895617e-03, 4.42133658e-02, -4.20972379e-03, -1.11824265e-02,
       3.05034183e-02, 4.48722802e-02, -2.46064067e-02, -1.06935548e-02,
       -2.69212704e-02, 1.02078193e-03, -2.58110440e-03, 2.50001717e-03,
       5.15720807e-02, 1.65282805e-02, 4.16559242e-02, -2.65689250e-02,
       -1.45497278e-03, -2.21405458e-03, 4.52279020e-03, -1.70785673e-02,
       -2.50563007e-02, -3.07480944e-03, 1.49909984e-02, 1.62386801e-02,
       7.96686113e-03, 5.40727414e-02, 1.21075492e-02, 5.33057237e-03,
       3.98317305e-03, 8.91356543e-03, -2.46956535e-02, 2.61413734e-02,
       5.46106063e-02, -2.40740981e-02, 4.61805798e-02, -3.36808115e-02,
       2.92340927e-02, -8.65797140e-03, 5.84759042e-02, 2.12751105e-02,
       1.02819465e-01, 7.62639940e-02, -1.71766263e-02, 2.84787491e-02,
       -2.33259294e-02, 5.33394068e-02, 1.43296076e-02, 3.80472578e-02,
       5.00581190e-02, 4.10930663e-02, 2.36237943e-02, -1.51050054e-02,
       -1.20297996e-02, 1.81149901e-03, -8.54641572e-03, -1.45070208e-02,
       -6.08035102e-02, -7.70090241e-03, -7.49667082e-03, 6.91630831e-03,
       -9.11500584e-03, 1.54312402e-02, 2.81073526e-02, 2.54409667e-02,
       -9.83788259e-03, 8.92695505e-03, -1.71209816e-02, -1.80179290e-02,
       3.24330595e-03, -5.83758205e-02, -1.53827779e-02, -1.45449750e-02,
       2.34777131e-03, -2.11678129e-02, 4.41401601e-02, -6.41257921e-03,
       7.15260580e-02, 3.58795933e-02, -3.32175493e-02, -6.23515621e-03,
       -3.12637491e-03, 2.39258986e-02, -2.07794458e-02, -1.66117027e-02,
       1.91499069e-02, 3.83565389e-02, 1.61716957e-02, -1.48852635e-02,
       -1.68964509e-02, -8.75144091e-04, 6.33587176e-03, -1.16509534e-02,
       -3.51992287e-02, -1.11512775e-02, -1.03846071e-02,
       -3.24540818e-03, -1.93576398e-03, 7.53378775e-03, -2.35156715e-03,
       -1.40536355e-03, 2.07920186e-03, -3.97395566e-02, -9.95183829e-04,
       1.24339270e-03, 9.68964025e-03, -1.02052726e-02, 7.71806762e-03,
       -9.92371514e-03, -1.27530796e-02, 8.37382209e-03, -3.58529240e-02,
       1.43906884e-02, 2.03194283e-02, 3.85397077e-02, 1.26348101e-02,
       7.27059087e-03, -9.23838466e-03, 1.07561601e-02, 3.56904455e-02,
       -1.18089756e-02, 1.98872499e-02, 9.87159740e-03, 3.73749323e-02,
       1.72563437e-02, 1.04066217e-02, -1.71846505e-02, 1.80799495e-02,
       3.12942304e-02, 1.27288802e-02, 4.37697442e-03, 6.16839854e-03,
       2.23890971e-02, -1.34003512e-03, 1.30971232e-02, -5.56399859e-03,
       -2.39874190e-03, 5.36955718e-04, -1.53760109e-02, 7.37726782e-03,
       1.22445924e-02, 2.66315490e-02, -3.75840329e-02, -5.35302679e-04,
       1.36172678e-02, -1.75175909e-02, 1.44608011e-02, 5.42395636e-02,
       6.61777481e-02, 4.94204685e-02, 6.78980052e-02, 9.55445506e-03,
       2.92212181e-02, 2.25813556e-02, -1.90007705e-02, 1.54487053e-02,
       2.79090367e-02, 2.19577067e-02, 4.41276319e-02, 8.46958682e-02,
       3.37548070e-02, 4.29456979e-02, -1.02271298e-02, 4.66316519e-03,
       -1.64744374e-03, 3.52320895e-02, -1.23914648e-02, -1.16657618e-04,
       4.59445305e-02, 1.46551523e-03, 2.64378148e-03, -1.65369585e-02,
       7.63789378e-03, 2.16508228e-02, 5.20105213e-02, 1.84220765e-02,
       3.16184647e-02, 2.33141463e-02, -1.42431706e-02, -2.56990306e-02,
       1.39014311e-02, -1.89334224e-03, -6.85025845e-03, 8.16786289e-02,
       8.68291706e-02, 7.48109818e-03, 5.04591316e-02, 1.36745842e-02,
       3.10419332e-02, 3.72813568e-02, -5.52790333e-03, 4.81544100e-02,
       6.41492307e-02, 8.87504127e-03, 4.10450511e-02, 4.74066734e-02,
       1.87967205e-04, 1.41092082e-02, -1.73234157e-02, 1.45820705e-02,
       2.82365046e-02, 8.39437768e-02, -1.82288308e-02, 2.42462419e-02,
       2.91003417e-02, -3.98523966e-03, -7.01376889e-03, -1.36725884e-03,
       8.91889818e-03, 4.19195881e-03, 1.81481484e-02, 1.39707029e-02,
       2.13416722e-02, 1.03870844e-02, -1.46411741e-02, -1.30841322e-02,
       7.22769881e-03, 4.98998631e-03, -1.05285579e-02, 3.37026902e-02,
       1.73720885e-02, 1.15746893e-02, 1.75984576e-02, -9.29167774e-03,
       8.97405110e-03, 1.53626949e-02, -8.03200062e-03, 1.50643736e-02,
       2.49076840e-02, -4.55382420e-03, 1.46419285e-02, 1.44302323e-02,
       -2.69066542e-03, -8.90438969e-04, -7.63827888e-03, 3.71489837e-03,
       2.69176718e-02, 1.73872747e-02, -1.57705732e-02, 2.88457107e-02,
       3.60479690e-02, -2.03142269e-03, -2.07043864e-04, -3.30597651e-03,
       1.42115459e-03, 1.22308182e-02, -3.12241465e-02, -1.04372064e-02,
       -7.33335095e-04, -5.57861244e-03, 8.13573319e-03, 1.50259854e-02,
       -1.85039546e-02, -2.96209310e-03, 3.18472609e-02, 7.22765224e-03,
       5.14226779e-03, 7.28634070e-04, 1.71197616e-02, 1.42970821e-02,
       9.68519971e-03, 1.51782585e-02, -6.23003067e-03, 5.28380536e-02,
       2.27275882e-02, -5.41898003e-03, -1.41249096e-03, 4.04555872e-02,
       9.32800956e-03, 1.37229115e-02, 3.02282013e-02, -2.18534898e-02,
       2.90527567e-02, 1.06759053e-02, 2.27418030e-03, -1.47818644e-02,
       6.86888350e-03, 9.71609494e-04, 1.01259695e-02, 4.86718863e-03,
       -1.46002858e-03, 5.14140911e-03, -1.49552608e-02, -8.56033992e-03,
       7.83723034e-03, -7.41452165e-03, 2.20081117e-02, 5.32712452e-02,
       -2.91820560e-02, -1.47275962e-02, -1.14951255e-02, 6.30414709e-02,
       -1.69378798e-03, -4.37200814e-02, 1.54442815e-02, 1.59661416e-02,
       -1.45727787e-02, -5.72969243e-02, -1.95383392e-02,
       -1.35395140e-03, 2.55120900e-02, -1.85563695e-02, -2.10203677e-02,
       5.32477684e-02, 2.62135752e-02, 1.54216746e-02, 9.81732178e-03,
       -3.14242914e-02, 3.22745293e-02, 2.67046411e-02, -1.65475104e-02,
       -3.94087806e-02, 2.26848312e-02, 1.65651832e-03, 5.93212387e-03,
       1.27028916e-02, -3.61994421e-03, -2.82008387e-03, 1.83535982e-02,
       -4.39486606e-03, 1.76337045e-02, 8.78730265e-04, -4.34018299e-02,
       1.77629255e-02, -2.43264884e-02, 1.35535402e-02, 2.88961269e-03,
       6.90906644e-02, -5.41158207e-02, 6.83948817e-03, 1.59133337e-02,
       -4.80076857e-02, -3.12949009e-02, 8.49266723e-03, 4.58204411e-02,
       1.75424968e-03, 3.93756367e-02, -3.80767696e-03, -3.02984472e-03,
       -2.79354956e-02, -1.04657132e-02, 6.53204508e-03, 5.63176125e-02,
       -5.20160282e-03, 3.62882367e-03, 5.07665202e-02, 4.30801064e-02,
       7.52749341e-03, 5.93815604e-03, 1.07061867e-04, 2.93800794e-03,
       1.00350035e-02, -3.10913636e-03, -6.43147901e-03, -2.67065945e-03,
       -9.14200861e-03, 1.27891684e-03, 1.21824248e-02, -2.09997986e-02,
       -1.91775244e-02, -1.54114151e-02, 1.45600894e-02, -9.79392603e-03,
       -3.55781591e-03, -2.29509678e-02, 6.00110143e-02, 6.75219968e-02,
       -2.56963987e-02, -1.25957606e-02, 1.95199717e-02, 2.35574376e-02,
       1.24628479e-02, 4.60440181e-02, 2.36844867e-02, 4.73459847e-02,
       2.33431943e-02, -1.90491427e-03, 1.32596623e-02, 4.99711856e-02,
       2.41857283e-02, 1.92631630e-03, 8.68263096e-03, 4.90473071e-03,
       1.67424344e-02, 8.94866232e-03, -8.22986849e-03, -9.75461863e-03,
       8.94118659e-03, 2.28690892e-03, 9.86614730e-03, -2.72844220e-03,
       -5.51798940e-03, -8.60770140e-03, -6.65135588e-03,
       -9.66323167e-03, -9.79459262e-04, 5.46474615e-03, -1.56134423e-02,
       1.30010499e-02, -4.37795185e-03, 1.43207433e-02, -7.79426470e-03,
       -1.70964673e-02, -1.38867619e-02, 5.82728209e-03, 2.05396842e-02,
       -1.32373264e-02, -7.07833422e-03, -6.05663192e-03, 1.05942348e-02,
       -1.41285565e-02, -9.80861019e-03, -1.40151130e-02,
       -2.06095586e-03, 3.01056448e-02, 6.82442356e-03, -1.47228036e-02,
       -2.82895821e-03, -6.11222524e-04, -3.67885735e-03,
       -1.18163964e-02, -2.24036886e-03, -1.10759605e-02, 2.90200263e-02,
       8.75844434e-03, 9.80590819e-04, -2.04687063e-02, -3.80465463e-02,
       -2.77875233e-02, -1.00402432e-02, 9.32611804e-03, -1.43726096e-02,
       8.94107670e-03, -1.37007628e-02, 1.71399284e-02, 2.56520156e-02,
       -3.17579694e-02, -4.12219092e-02, -7.58077111e-03,
       -2.70703156e-02, 4.34029009e-03, 5.40331304e-02, -5.16458880e-03,
       -9.19963699e-04, 7.00701401e-03, -1.03574144e-02, 2.53020530e-03,
       1.45821157e-03, -2.95577049e-02, -2.57469271e-03, 6.62779734e-02,
       3.46772000e-02, -1.47863971e-02, -1.15632564e-02, 3.28046433e-03,
       1.91110745e-02, -1.15814237e-02, -3.08941817e-03, 6.03990816e-03,
       6.17833920e-02, 2.57462244e-02, -1.87460706e-02, -2.67728083e-02,
       -3.27341221e-02, 3.31140542e-03, -1.07364273e-02, -2.52671298e-02,
       -1.87478587e-02, 5.21758646e-02, 1.41174383e-02, 5.27745020e-03,
       6.28915895e-03, 4.29910375e-03, 3.71234007e-02, -6.41165441e-03,
       -3.90324444e-02, 1.28884967e-02, 6.69543222e-02, -3.58367641e-03,
       1.59838684e-02, 9.60954651e-03, -2.38043386e-02, 3.47782411e-02,
       4.70988266e-03, -1.95899680e-02, 3.44620235e-02, 8.10722485e-02,
       6.51211990e-03, 2.68362090e-02, 2.65498906e-02, 8.99777468e-03,
       3.61765213e-02, -8.26614269e-04, -3.57936765e-03, 1.15763322e-02,
       2.74528414e-02, 1.24252783e-02, -4.72835917e-03, -1.49203872e-03,
       -1.23144332e-02, 2.86656301e-02, 2.32455954e-02, -2.46266858e-03,
       1.86937135e-02, 5.09325936e-02, 2.50786897e-02, -1.25906123e-02,
       -2.67738514e-02, -8.45318753e-03, 5.48124164e-02, 3.05701010e-02,
       -1.51346428e-02, 1.89011917e-02, 6.26720637e-02, -5.87836094e-03,
       -1.64684001e-02, 1.73057690e-02, -1.23209809e-03, 6.18686192e-02,
       1.65909547e-02, 3.54150124e-03, 1.56015828e-02, 4.83752415e-02,
       4.47320938e-03, -6.79837633e-03, 2.59875562e-02, -3.87897831e-03,
       2.78620273e-02, 1.35986730e-02, -7.20489697e-05, 1.20133243e-03,
       -1.04939565e-03, -9.28611698e-05, -1.59489103e-02,
       -5.92947472e-03, 9.51396301e-04, -2.05303659e-03, 5.45911840e-04,
       1.17042679e-02, 1.27570494e-03, 1.90527155e-03, -5.72200259e-03,
       6.22932240e-03, 8.36559106e-03, 5.11464081e-04, 2.15800591e-02,
       4.39747097e-03, 1.47736855e-02, 1.14484876e-02, 2.77703890e-04,
       -9.53881163e-03, -4.47265245e-03, -2.88482493e-04,
       -7.33170984e-03, 1.97358448e-02, 1.51155563e-02, -8.12932558e-04,
       8.52833316e-03, 2.05254983e-02, 1.26663595e-02, -1.17130298e-02,
       7.82586285e-04, 2.52921716e-03, 2.39097490e-03, 8.40483885e-03,
       -6.20772690e-03, -2.77620787e-03, -1.38484547e-02,
       -4.20520129e-03, -3.52815092e-02, -2.39021908e-02, 3.95286866e-02,
       -3.94654693e-03, -2.82378925e-04, 6.01979555e-04, 2.33003125e-02,
       -9.77199897e-03, -3.07273446e-03, 7.31355883e-03, 1.27885174e-02,
       3.89693081e-02, 3.08911465e-02, 2.77970564e-02, 3.04570161e-02,
       1.76947676e-02, 2.80707348e-02, -1.86267018e-03, 8.52813628e-06,
       3.25285085e-02, -2.53274012e-02, 1.41575411e-02, 4.33516465e-02,
       -8.98018572e-03, 1.70985125e-02, 5.17879613e-02, 2.33985968e-02,
       -5.76156797e-03, 2.36140527e-02, 3.51595692e-02, 3.63255441e-02,
       7.83350971e-03, -2.35300120e-02, -1.23577584e-02, -3.61655024e-03,
       2.36458820e-03, 4.62876726e-03, -1.79301854e-02, 2.33696196e-02,
       1.85993258e-02, -1.96211282e-02, -5.16317878e-03, 3.63675831e-03,
       -2.40486325e-03, 4.60954569e-03, 1.30413445e-02, 2.24925950e-02,
       2.33476479e-02, 1.33954668e-02, 5.91060929e-02, -1.69362575e-02,
       3.80296484e-02, 2.00335588e-02, 1.15927206e-02, 2.92690396e-02,
       2.38832012e-02, -3.63954864e-02, -2.27472987e-02, 5.03801480e-02,
       2.10042205e-03, 5.17586134e-02, 5.94886281e-02, -1.26130050e-02,
       -1.08502097e-02, 2.57420707e-02, 2.04103012e-02, 6.67871684e-02,
       6.08556205e-03, -1.18540218e-02, -1.46489451e-03, 7.85231125e-03,
       1.13036977e-02, 5.87862032e-03, -4.84330393e-03, -1.21369527e-03,
       1.41390869e-02, -6.09081378e-03, -6.18028361e-03, -3.60272871e-03,
       1.19821765e-02, 1.83558296e-02, 2.34728828e-02, 3.40157598e-02,
       1.46098081e-02, 1.06406389e-02, 3.54689620e-02, -1.21678282e-02,
       -2.01819912e-02, 1.50721427e-02, 1.60420965e-02, 3.85152549e-02,
       3.43733281e-02, -4.83824965e-03, -1.91066391e-03, 1.92789193e-02,
       -9.90157947e-04, 4.20866981e-02, 2.85059288e-02, 8.48511700e-03,
       4.40165261e-03, 9.38903727e-03, -8.77349358e-03, 2.17003226e-02,
       -1.04974862e-02, -1.28823135e-03, -2.28252984e-03,
       -3.36098834e-03, -6.42199814e-03, 4.55139700e-04, 3.79613484e-03,
       5.33129927e-03, -1.06832851e-02, 8.62496323e-04, -8.81915726e-03,
       4.34053037e-03, 1.69320684e-03, -1.37941372e-02, -1.06212089e-03,
       5.50265005e-03, -1.14920065e-02, -1.96323283e-02, 5.50927175e-03,
       -1.00091519e-03, 1.27352709e-02, -9.53729788e-04, -1.42126372e-02,
       -8.03398620e-03, 1.78147852e-02, -1.33394692e-02, -1.12148216e-02,
       -7.18267495e-03, -8.09384417e-03, -8.83197121e-04, 3.19690853e-02,
       3.74201387e-02, -4.17581107e-03, -9.41750221e-03, -6.77212188e-03,
       -1.64062809e-02, -1.64657030e-02, 4.58414725e-04, -1.15997577e-02,
       5.75540913e-03, -6.54727733e-03, -7.01136980e-03, 2.50214208e-02,
       -9.68859997e-04, -1.44853154e-02, 2.67499196e-03, -1.37160076e-02,
       4.21438925e-03, 1.92501321e-02, 1.55445430e-02, 7.65203440e-04,
       1.76194962e-02, -6.24906272e-02, -5.29828146e-02, -2.16409261e-03,
       -1.53386490e-02, -1.83766317e-02, -2.34664902e-02,
       -2.15459988e-02, 2.44888235e-02, 6.23326749e-02, -4.40797806e-02,
       -2.73632277e-02, 2.08353270e-02, -2.29453146e-02, -4.55122581e-03,
       2.11231690e-02, 6.76534176e-02, 1.61532825e-03, 1.36373891e-02,
       -2.46751402e-02, -3.21373902e-02, -2.44092918e-03,
       -4.98900423e-03, -1.73344638e-03, 3.23496386e-03, -1.83723923e-02,
       -6.35118224e-04, 8.88420548e-03, -1.38830449e-02, 2.62781717e-02,
       -4.99742629e-04, -2.31510052e-03, 2.91506369e-02, 1.34198517e-02,
       -3.93382981e-02, -1.62054831e-03, -3.76787013e-03,
       -1.02160789e-01, -3.38824317e-02, -1.09207269e-03,
       -1.37405265e-02, -4.89791520e-02, -3.05289868e-02,
       -4.36309427e-02, 1.98700782e-02, 5.16642109e-02, -7.39258677e-02,
       -1.30159575e-02, 6.14857003e-02, 7.81334005e-03, 6.51410893e-02,
       -1.20657496e-02, 7.20889820e-03, -1.67829283e-02, 2.25300016e-03,
       -3.49351056e-02, -1.32173207e-02, 2.61855591e-02, -4.90687136e-03,
       -1.06072994e-02, -4.95590456e-03, -1.14815431e-02, 3.63323325e-03,
       -6.89707417e-03, -1.02947038e-02, 3.28398980e-02, 6.72569172e-03,
       -5.03247231e-03, -4.29714099e-03, 7.06666056e-03, -1.65670142e-02,
       4.34432365e-03, 5.04702283e-03, -5.45707755e-02, 1.17012886e-02,
       1.91871508e-03, -2.99775768e-02, -7.81867374e-03, -1.36123486e-02,
       2.43422799e-02, 1.72905333e-03, -1.88326091e-02, -3.19492891e-02,
       8.51702504e-03, 3.65647860e-02, 1.03191501e-02, 7.51814395e-02,
       3.11480166e-04, -1.46827940e-03, -3.88230127e-03, -3.39552388e-02,
       -1.32479649e-02, -1.05386367e-02, -3.66284722e-03, 7.44753459e-04,
       1.67973433e-02, -7.12079369e-03, -6.80225575e-03, 8.17147549e-03,
       -1.47047103e-03, -3.93130444e-03, -2.07326584e-03,
       -1.21445701e-04, -1.13819148e-02, 2.63123345e-02, -1.39818387e-02,
       -3.52454418e-03, 1.78614967e-02, -1.51762413e-02, -1.18013984e-02,
       -1.96191631e-02, -5.83300320e-03, -1.41518023e-02, 1.73411258e-02,
       -1.66926198e-02, 7.41639268e-03, 1.85818765e-02, 5.90721786e-04,
       -2.29223091e-02, -1.29820891e-02, 1.84568472e-03, -1.30533529e-02,
       1.69618018e-02, -1.03432182e-02, -5.33730432e-04, 5.79239044e-04,
       7.84424425e-04, -1.45657780e-02, 4.52940399e-03, -2.59815156e-03,
       -9.24381148e-03, 2.51240414e-02, 1.24981338e-02, 6.70465780e-03,
       1.16257509e-03, 1.02524115e-02, -2.41432954e-02, -1.06655275e-02,
       1.00310622e-02, -2.59844586e-02, 1.51172057e-02, -1.26671242e-02,
       1.10728368e-02, -5.49961813e-03, 1.41174626e-02, -5.87802194e-02,
       -4.39619683e-02, 2.77824160e-02, -2.80224327e-02, 3.15041505e-02,
       7.07164546e-03, -3.02374712e-03, -1.21210627e-02, 4.62385491e-02,
       -6.80065900e-02, -2.39489898e-02, 8.68266262e-03, -3.77477743e-02,
       -5.35245193e-03, -2.01926474e-02, -4.86244261e-03,
       -2.22056527e-02, 1.78275779e-02, -4.45524454e-02, 2.73505785e-03,
       -4.94833617e-03, 4.32739453e-03, 2.56612822e-02, 2.23436467e-02,
       8.84216372e-03, -1.27675720e-02, 7.74611160e-03, -3.72553319e-02,
       3.94102512e-03, 1.76746249e-02, -2.77293306e-02, 4.85198386e-03,
       -2.24384516e-02, -8.53679609e-03, -2.00797990e-02, 1.82429254e-02,
       -6.79749176e-02, -1.28329992e-02, 5.10308743e-02, -3.11657116e-02,
       2.39765681e-02, -1.31693333e-02, 2.13011764e-02, -1.50641929e-02,
       6.16357960e-02, -7.60920271e-02, 7.07301497e-03, 1.72809158e-02,
       -2.23329570e-02, 7.94778857e-03, -1.24572283e-02, -2.85900421e-02,
       -4.16645706e-02, 2.52894592e-02, -5.85021079e-02, -1.21308500e-02,
       -9.29120928e-03, -4.09566611e-03, -6.05666637e-03, 5.62083349e-03,
       2.07679514e-02, -1.14054268e-03, -4.16174065e-03, -3.97736579e-03,
       1.49374744e-02, 1.74357370e-02, 4.25242493e-03, 3.19119485e-04,
       -1.26043018e-02, 1.62413958e-02, -9.30697279e-05, -1.12661878e-02,
       -2.71874648e-02, -4.43370594e-03, 9.77293029e-03, 2.41600368e-02,
       -5.20868227e-03, -3.39060947e-02, 2.82365326e-02, -1.87476370e-02,
       3.29163410e-02, -5.21220304e-02, -9.06127784e-03, 2.78866831e-02,
       6.96971174e-03, -9.93387774e-03, 5.90066612e-03, 1.45223057e-02,
       -2.41868049e-02, 2.07653977e-02, -3.38201001e-02, -1.59784425e-02,
       -2.66778586e-03, 4.34830785e-03, 3.91498208e-02, 7.10479030e-03,
       -2.25993013e-03, -2.59639788e-03, -1.30873285e-02,
       -1.21727902e-02, 7.36181112e-03, 1.09338928e-02, -8.92979745e-03,
       5.43451533e-02, -8.55404593e-04, -1.42155870e-04, -6.06817007e-03,
       -7.43554253e-03, -2.53052637e-03, 3.11786626e-02, 1.11992275e-02,
       -9.74917784e-03, 1.43343909e-02, -1.03990994e-02, 1.42354323e-02,
       -2.80271372e-04, 5.62845357e-03, 2.21283399e-02, 1.33890100e-02,
       -9.50318109e-03, -2.85975821e-03, -2.87074130e-03, 3.56673403e-03,
       -6.91250461e-05, -1.00414769e-03, -5.10943634e-03,
       -1.28887390e-04, -1.79978367e-02, -7.89584219e-03, 7.49100279e-03,
       8.17078426e-02, 2.34434959e-02, 1.58510432e-02, -1.54772203e-03,
       1.14968596e-02, -2.78475974e-02, 5.59255667e-03, 2.39239968e-02,
       -5.00697084e-02, -4.28370869e-04, -2.16125101e-02,
       -3.04310936e-02, 4.08216193e-03, 1.00707367e-01, -8.67187139e-03,
       6.34252429e-02, 4.55542430e-02, -3.31154540e-02, 9.94009664e-04,
       4.59806668e-03, -2.39813216e-02, -3.52985039e-02, 7.58776814e-02,
       1.94369014e-02, 1.62901077e-02, 1.07599702e-02, -1.31777618e-02,
       -1.60573516e-02, 3.77834542e-04, -1.85061935e-02, -1.38305984e-02,
       -4.87904799e-05, -1.60538666e-02, -3.71275470e-02,
       -9.76896286e-03, -6.85657328e-03, 5.46260662e-02, 4.89234366e-02,
       6.96533024e-02, 6.77324273e-03, 4.09169458e-02, -3.29309739e-02,
       2.93662539e-03, 1.02717523e-02, -4.57809642e-02, -2.66796462e-02,
       1.54871056e-02, -5.65693118e-02, -3.42954434e-02, 1.14934646e-01,
       -2.21979506e-02, 8.43334794e-02, 6.30009621e-02, -2.94211805e-02,
       -9.87400021e-03, 3.50268148e-02, -5.01098223e-02, -3.02504301e-02,
       5.83652034e-02, 1.20162480e-02, 9.35617089e-02, 2.07061600e-02,
       -2.36694012e-02, -1.10587468e-02, 7.31889275e-04, -2.12355927e-02,
       -1.49116190e-02, -3.29661630e-02, -4.80066938e-03,
       -7.01800035e-03, -5.51973237e-03, -2.01791292e-03,
       -1.10779703e-03, 4.31468002e-02, 5.95232025e-02, -5.75296348e-03,
       3.09276376e-02, -1.57571230e-02, -1.34322550e-02, -1.20602306e-02,
       -6.91837166e-03, -1.38489576e-02, 4.61648330e-02, 3.33372615e-02,
       -2.81663034e-02, 8.12303424e-02, -3.65979061e-03, 1.15244901e-02,
       -2.25944463e-02, 1.13773961e-02, -8.21465347e-03, 6.35841722e-03,
       1.24231093e-02, -2.95261461e-02, 3.31676491e-02, 2.57531777e-02,
       3.44577916e-02, -3.33706141e-02, -1.32542923e-02, 9.83753148e-03,
       -8.24652705e-03, 7.05672754e-03, -5.70330443e-03, -3.69250700e-02,
       2.00441340e-03, -2.52271397e-03, -4.43931110e-03, 1.31904427e-03,
       8.16925336e-03, 9.40668222e-04, 2.00232281e-03, 8.57396808e-04,
       -3.38585190e-02, -6.50469866e-03, 3.21820914e-03, 2.60219211e-03,
       6.48728281e-04, -8.44715815e-03, -3.62635124e-03, -1.04300613e-02,
       -9.93097294e-03, -1.96932000e-03, 2.52925325e-02, 6.49300124e-03,
       1.03225634e-02, 8.50587245e-03, 4.06261720e-03, 2.55998899e-03,
       -5.12148486e-03, 8.96978099e-03, 2.91722212e-02, 1.28763425e-03,
       1.92168951e-02, 9.87847243e-03, 3.55937192e-03, 6.88490411e-03,
       3.42298253e-03, 1.90117173e-02, 4.83058998e-03, 1.52644962e-02,
       -1.86483935e-02, -3.04307742e-03, -1.31935359e-03,
       -5.52419107e-04, -1.75515399e-03, 3.31273396e-03, -1.94186089e-03,
       -5.10422792e-03, 2.58723181e-02, 5.02636423e-03, 1.37556922e-02,
       1.99579280e-02, -6.79235999e-03, -2.36779582e-02, -1.81407691e-03,
       -1.59986261e-02, -2.02277116e-03, 9.00816023e-02, 1.02802692e-02,
       1.91623084e-02, 6.87235221e-03, 4.61687217e-04, 3.48876952e-03,
       9.87914740e-04, -3.54539640e-02, -2.41069775e-02, 2.93112118e-02,
       -3.04016434e-02, 3.82575355e-02, 2.27377601e-02, -7.24699628e-03,
       3.50418239e-04, 1.52756507e-03, 2.10034903e-02, -5.02008421e-04,
       2.75509208e-02, -3.55546512e-02, 1.85559522e-02, 5.33112958e-02,
       -1.90389785e-03, -4.72268043e-03, 1.57364772e-03, -1.18307984e-02,
       -1.97100779e-03, 4.29858826e-02, 2.06983536e-02, 3.88461128e-02,
       2.58630514e-02, -1.59005653e-02, 3.26319458e-03, -1.56182172e-02,
       -1.42075606e-02, 1.79254729e-02, 1.71765741e-02, 1.55822197e-02,
       7.39904568e-02, 5.86147234e-02, -2.84875985e-02, 1.60358883e-02,
       1.06096948e-02, -3.77517007e-02, 2.98216641e-02, 3.91724370e-02,
       -2.21524592e-02, 1.26799075e-02, 2.26418283e-02, 8.65623727e-03,
       1.32394610e-02, -6.76067406e-03, -9.34743881e-03, 5.85217588e-03,
       6.77719712e-02, -1.11218058e-02, 8.72202870e-03, 1.04969703e-02,
       4.24443930e-03, -4.20093443e-03, 4.34089452e-03, 1.32847857e-02,
       -1.75106211e-03, 1.62318405e-02, 7.36669404e-03, -2.96137761e-02,
       -2.09719054e-02, -3.41800302e-02, 7.96578918e-03, -2.45806817e-02,
       5.63849090e-03, 2.17549279e-02, 1.59249902e-02, 2.31943522e-02,
       4.75714020e-02, 1.49454661e-02, -1.82387941e-02, 4.10122098e-03,
       1.01228356e-02, 9.25805327e-03, 2.58936062e-02, 4.95022871e-02,
       -3.31705349e-04, 2.64396463e-02, 5.28433509e-02, -1.33356114e-03,
       1.42238922e-02, 6.67844294e-03, 2.13644002e-02, -7.20732333e-03,
       3.09847784e-03, -1.04819741e-02, -1.98739185e-03, 2.99900603e-02,
       1.05086667e-03, 3.24228336e-03, 1.80023583e-03, -5.35971485e-03,
       -5.50266542e-03, 1.77805056e-03, 7.74746179e-04, -1.06035848e-03,
       -5.09260315e-03, -4.19376697e-03, 6.46609208e-03, -1.69587079e-02,
       -1.61634292e-03, -2.70729326e-02, -4.77916328e-03,
       -2.57647093e-02, -5.12116635e-03, 2.35098810e-03, -3.44387256e-03,
       1.69038982e-03, -2.93092011e-03, 5.92815597e-03, -2.23726481e-02,
       1.23069203e-03, -2.02792790e-03, -7.48578692e-03, -9.95416101e-03,
       -5.36309090e-03, 1.14892621e-03, 1.96533389e-02, -7.26054003e-03,
       4.74591448e-04, 1.30813606e-02, 3.45119857e-03, -1.19325882e-02,
       -5.68446610e-03, -4.06629499e-03, 5.23241842e-03, 1.22305052e-02,
       -1.46222776e-02, -2.06040684e-02, -1.13441907e-02,
       -1.35609563e-02, -1.25412680e-02, -1.06270360e-02,
       -1.94213260e-02, -1.86438989e-02, -3.01017128e-02, 1.36011140e-03,
       -1.42389145e-02, 2.40391418e-02, -3.80197354e-02, 4.33921209e-03,
       2.63726395e-02, -3.38206403e-02, -2.84689963e-02, -4.67637042e-03,
       2.07242463e-03, 7.68762780e-03, 8.84479657e-02, 8.15503951e-03,
       1.85926706e-02, 2.83013545e-02, -1.45513739e-03, 2.45931782e-02,
       6.44990876e-02, 2.16503013e-02, 2.49373284e-03, 2.16571204e-02,
       -1.62172168e-02, -9.83729493e-03, 1.00742970e-02, -2.01962069e-02,
       -6.71252783e-04, 1.79312173e-02, -1.02945045e-02, -3.50393052e-03,
       2.25360011e-04, -1.54949361e-02, -6.95874216e-03, -1.55260814e-02,
       -2.54242960e-02, -8.47778562e-03, -4.39812876e-02,
       -2.98327878e-02, -7.62269506e-03, 5.84741645e-02, -3.22044156e-02,
       -2.61678509e-02, -1.65134594e-02, -1.39995841e-02,
       -2.59516179e-03, -1.04789985e-02, -4.62378375e-02,
       -1.65103916e-02, 4.36920226e-02, -2.44560465e-02, 7.25794286e-02,
       3.76662388e-02, 1.58303268e-02, 5.81433736e-02, 7.90849254e-02,
       -3.64887249e-03, -1.77289415e-02, 1.83848832e-02, -1.08134588e-02,
       -1.64436474e-02, 5.34426048e-03, -9.31054447e-03, -6.75375108e-03,
       5.51222300e-04, 3.82936373e-03, -3.92325968e-03, -3.99493054e-03,
       -4.89499420e-03, 1.32950675e-02, 2.11681724e-02, -2.88529377e-02,
       -1.82957835e-02, -1.49921533e-02, 1.34752886e-02, -2.20412761e-02,
       4.13622288e-03, -4.58245128e-02, -2.18286235e-02, 9.45091899e-03,
       -3.24104982e-03, 1.92591567e-02, -1.21237254e-02, -7.57881254e-03,
       -2.60257907e-02, 8.23272020e-03, -3.76197062e-02, 7.92297069e-03,
       -1.79177672e-02, -2.54883640e-03, 8.98750406e-03, 3.95405143e-02,
       -1.38665214e-02, -1.55402645e-02, -2.74478132e-03,
       -1.07915625e-02, 2.19486803e-02, 7.08058523e-03, -1.05355727e-03,
       8.98215512e-04, 1.37587069e-02, 2.79047550e-03, -5.65339637e-04,
       1.37590608e-02, 6.13158848e-03, -8.22552852e-03, -8.32304638e-03,
       -1.02428161e-02, -9.31771845e-03, 1.01038429e-03, -5.17074252e-03,
       6.37320615e-03, 3.25342789e-02, 4.45750430e-02, -1.03325183e-02,
       -1.45930564e-02, -1.37914997e-02, 1.13453530e-02, 1.62646919e-02,
       -1.63197517e-02, 9.57106054e-03, 1.74535289e-02, 8.07569269e-03,
       -1.88686680e-02, -1.98808406e-02, -1.13302441e-02, 1.65219679e-02,
       1.82405710e-02, -5.05242031e-03, 1.35519952e-02, 1.20372614e-02,
       -7.50986801e-04, -4.25601087e-04, -7.50269787e-03,
       -1.00875543e-02, -2.66573532e-03, 1.20274276e-02, 3.63112264e-03,
       5.98604837e-03, 4.01229113e-02, -5.78309176e-03, -1.45737547e-02,
       5.26343705e-04, -4.89882892e-03, -3.32473335e-03, 2.43200641e-03,
       1.24277780e-02, 5.70653530e-04, 1.40526723e-02, 2.22554356e-02,
       -2.11828426e-02, -7.42590521e-03, -3.12218126e-02, 2.41861008e-02,
       4.03273515e-02, -4.52651046e-02, -8.73064506e-04, 5.45533933e-02,
       6.29606331e-03, 1.42426696e-02, -2.07630768e-02, -8.08753353e-03,
       3.85402441e-02, 6.93100542e-02, 6.36929134e-03, 1.17589217e-02,
       3.62415947e-02, -1.67533029e-02, 1.79923065e-02, 2.63137580e-03,
       -4.79468051e-03, 1.12477643e-02, 5.69056300e-03, -3.78251355e-03,
       -8.86514131e-03, -4.59691044e-03, -3.80573273e-02, 1.99219193e-02,
       1.50524732e-02, 1.89122166e-02, -8.45823810e-03, 6.63196808e-03,
       -1.89439636e-02, -1.59958415e-02, -2.26212349e-02,
       -4.44414932e-03, 1.60332695e-02, -2.15745959e-02, -2.67437682e-03,
       3.46118980e-03, 5.61551750e-02, -5.81933856e-02, -2.51614824e-02,
       1.82628781e-02, -2.84342133e-02, 7.47322515e-02, -9.90411639e-03,
       2.36251950e-02, 6.07603267e-02, 9.74872410e-02, -7.27379648e-03,
       -6.70204451e-03, 8.68017785e-03, -2.52853241e-02, 4.15903777e-02,
       1.71889514e-02, -4.74538509e-04, 1.92233063e-02, 3.33285308e-03,
       -3.76121583e-03, -1.29823619e-02, -1.55640114e-02,
       -1.44990776e-02, 8.63619801e-03, -6.54142175e-04, 1.59600703e-03,
       -1.71901695e-02, -7.59146083e-03, -2.52290014e-02,
       -2.55871490e-02, -5.65515039e-03, 3.02365143e-03, 6.91576079e-02,
       1.10488734e-03, 5.41837839e-03, 2.32185659e-04, 5.00441194e-02,
       -1.18389996e-02, -3.29198875e-02, -3.55077647e-02,
       -3.98026109e-02, 1.73341576e-02, -1.47064426e-03, 8.66851211e-03,
       1.14419712e-02, 5.65846078e-02, -5.25891257e-04, -3.31168920e-02,
       -3.68241244e-03, -4.65010386e-03, 7.88201857e-03, 9.54889227e-03,
       -1.19191641e-02, -6.70728134e-03, 2.74852943e-03, 2.26679957e-03,
       -1.29259592e-02, -2.92561036e-02, -1.14418995e-02,
       -1.78452162e-03, -9.28606559e-03, -1.36978310e-02,
       -4.37432248e-03, 7.51523813e-03, -1.87842944e-03, -8.68873764e-03,
       -4.65866700e-02, -8.63637403e-03, 7.54853664e-03, -2.40334007e-03,
       -2.08995678e-02, 3.48353270e-03, 6.95447298e-03, -2.61336379e-02,
       -7.49723706e-03, -1.89621039e-02, 5.04650176e-03, 7.44198933e-02,
       8.52652825e-03, -8.35949555e-03, 4.22284147e-03, 7.14595849e-03,
       -1.89176388e-02, -8.60257633e-03, -6.23697601e-03, 2.34569944e-02,
       1.36422202e-01, 3.30422744e-02, 1.41946611e-03, 2.65044975e-03,
       1.44104231e-02, 1.48896426e-02, -3.53665613e-02, -3.30797769e-02,
       -1.51883950e-02, 5.52241504e-03, 1.53004350e-02, -2.29157712e-02,
       1.57013163e-02, 1.90474279e-02, 1.25185689e-02, 1.31078111e-02,
       -1.31694293e-02, -3.83887328e-02, 2.31161201e-03, 5.21675907e-02,
       -1.19652571e-02, 1.97545607e-02, 1.35605549e-02, -1.69607159e-02,
       6.83140829e-02, -1.37445573e-02, -4.94209938e-02, -1.19329698e-03,
       8.13665893e-03, 1.64629370e-02, 2.71098260e-02, 1.12302192e-02,
       -1.97803061e-02, 2.67661712e-03, -3.43514985e-04, 8.60594446e-04,
       1.88061386e-01, 1.76969245e-02, 2.01839972e-02, 1.50494315e-02,
       4.20783274e-03, 1.34623060e-02, -2.11978350e-02, -2.93428567e-03,
       9.83159617e-03, -6.59470120e-03, 2.31966097e-02, 3.22415940e-02,
       3.44889462e-02, 1.54657653e-02, 8.94535147e-03, -9.43589769e-03,
       4.27266397e-03, 1.35761602e-02, 1.61876138e-02, 5.99397831e-02,
       1.67400539e-02, 1.71854198e-02, 4.87175211e-03, 1.17012374e-02,
       5.18314913e-02, -4.04686993e-03, -2.58731321e-02, -3.62204686e-02,
       2.40274724e-02, 2.21395530e-02, 3.81057039e-02, 2.82016322e-02,
       -3.06147872e-03, 1.98492017e-02, -7.36955274e-03, -3.85373905e-02,
       2.82282978e-02, -4.60999273e-03, 1.23231905e-02, 7.20960274e-03,
       -2.47963518e-03, 5.36317658e-03, -1.51512809e-02, -1.95676251e-03,
       4.36311681e-03, -1.38550112e-02, 1.03313886e-02, 6.75648171e-03,
       -1.02770552e-02, 8.42000078e-03, 4.46996558e-03, -6.45055482e-03,
       3.24048148e-03, 7.85729568e-03, 6.90558702e-02, 1.33209480e-02,
       -9.85225476e-03, -5.87614765e-03, 1.35400973e-03, 1.40954666e-02,
       2.20477837e-03, 1.39890769e-02, 6.18346035e-03, 4.75704893e-02,
       1.05249174e-02, 1.92121024e-05, 2.22264677e-02, 2.01107692e-02,
       1.01014376e-02, 5.69465058e-03, -1.99378897e-02, -1.39714740e-02,
       -2.30827220e-02, -1.06881075e-02, -5.18971542e-03, 4.17395029e-04,
       7.45208981e-03, -7.48781813e-03, 1.89818209e-03, -1.79237779e-02,
       -2.35997606e-02, -1.53324241e-03, -5.40984329e-03,
       -9.88856796e-03, 1.93569846e-02, 6.58380007e-03, -2.72901021e-02,
       1.52947335e-03, -3.27492948e-03, -3.06260176e-02, 7.18374737e-03,
       -1.16444901e-02, -1.36907399e-02, 5.09416079e-03, -1.44725088e-02,
       -3.55843455e-03, -2.68290052e-03, 1.84870921e-02, -9.23892297e-03,
       6.14054874e-03, -2.49555465e-02, -5.26357850e-04, 1.29851345e-02,
       3.22174933e-03, 7.63508258e-03, -5.56772342e-03, -1.46440032e-03,
       -7.07989046e-03, -9.08248313e-03, -3.14821079e-02, 5.44490945e-03,
       2.93008890e-03, 3.93975712e-03, -1.39948772e-02, 2.32123639e-02,
       -1.76666137e-02, -3.67153734e-02, 1.23094143e-02, 5.09199686e-03,
       -1.62748843e-02, 2.17003245e-02, 1.71715338e-02, -3.22354063e-02,
       3.99403237e-02, 4.35149893e-02, -7.46102408e-02, 8.98662210e-03,
       -2.65145656e-02, -6.01546541e-02, 1.34036755e-02, -1.45833958e-02,
       -4.52106469e-04, 3.80430408e-02, 3.73026282e-02, -3.03187855e-02,
       3.53735797e-02, 1.43313603e-02, -1.54387788e-03, 5.86485267e-02,
       1.77511424e-02, 3.42717655e-02, 6.03833748e-03, -2.51240805e-02,
       -9.61991027e-03, -2.19421647e-03, -2.63053067e-02, 4.81392723e-03,
       6.29365351e-03, -1.65898371e-02, -2.74997130e-02, 1.48195485e-02,
       -1.46896327e-02, -1.03378221e-02, 6.23257086e-02, 2.63027158e-02,
       1.12349319e-03, -3.16637638e-03, -4.58005965e-02, -5.38373776e-02,
       2.63397209e-02, -1.92188509e-02, -6.93061650e-02, -5.22373915e-02,
       -9.29914601e-03, -2.13580914e-02, 2.16635149e-02, -2.83836275e-02,
       -4.19458933e-02, 1.48388688e-02, 1.60989314e-02, -5.32962531e-02,
       -5.49671017e-02, -2.96785887e-02, 1.62301548e-02, 8.06251019e-02,
       -2.37665940e-02, 2.38467772e-02, -3.61494198e-02, -3.46794724e-02,
       -2.04309318e-02, 3.88468825e-03, -1.24522550e-02, -4.76275943e-03,
       -6.28229277e-03, -1.45669337e-02, -1.24765746e-02,
       -7.56413070e-03, -1.14681134e-02, 1.70333758e-02, 8.16496089e-02,
       1.86524112e-02, -2.34361216e-02, -2.62658335e-02, -3.48062590e-02,
       -2.74981484e-02, -5.69252949e-03, -3.44105698e-02,
       -2.86808627e-05, 3.03466804e-02, 1.71962436e-02, -6.18617050e-03,
       1.65256672e-02, -2.15482134e-02, -2.17252914e-02, 5.56091894e-04,
       -1.27719902e-02, -2.84699257e-02, -1.67946443e-02,
       -2.66708694e-02, -1.13551843e-03, 3.84674296e-02, -8.03831778e-03,
       4.42356104e-03, -4.65394882e-03, -2.29666773e-02, -2.58272700e-02,
       -1.63544584e-02, -2.31183767e-02, 8.24105181e-03, 1.82595234e-02,
       2.68260157e-03, -5.25210239e-03, 1.44663674e-03, -1.23203371e-03,
       -1.09465346e-02, -2.70298659e-03, 1.58657506e-03, 8.35990440e-03,
       6.23443127e-02, -8.05060193e-03, -1.22742373e-02, 6.14542048e-03,
       7.91860977e-04, -1.66558716e-02, -1.06058773e-02, -1.85071267e-02,
       -1.18515147e-02, 4.55373898e-02, 9.86221898e-03, 1.58154387e-02,
       1.41234498e-03, 3.86068895e-02, -9.90726892e-03, -8.46763328e-03,
       -3.02039459e-02, -2.14317325e-03, 8.97428021e-03, 2.53043622e-02,
       8.09036288e-03, -1.22780781e-02, 3.50941718e-02, -1.13884406e-02,
       -2.18503010e-02, -2.52775662e-02, -5.20971697e-03, 4.25430723e-02,
       8.93986411e-03, 1.16045633e-02, 7.87496194e-03, -6.57576509e-03,
       -1.53891137e-02, 2.32705418e-02, 1.09583316e-02, 6.74089789e-03,
       6.52583241e-02, -1.64122824e-02, 7.53756100e-03, 3.64209525e-02,
       2.07775421e-02, -1.88152976e-02, -3.02119050e-02, -3.14202309e-02,
       1.44539475e-02, -4.61888085e-05, -1.68388039e-02, 1.86015703e-02,
       3.43262590e-03, 1.37028158e-01, -2.64426935e-02, -2.10608356e-02,
       -4.66914062e-04, 1.46859232e-02, -6.52108865e-04, 6.44467175e-02,
       4.88105081e-02, -2.89355665e-02, 5.87007701e-02, -2.52729841e-02,
       -3.89700942e-02, -2.20132712e-02, -1.04490598e-03, 4.12999876e-02,
       -1.10935504e-02, 9.77682648e-04, -1.33068627e-02, 4.91936365e-03,
       -9.73371044e-03, 6.36560321e-02, 1.47919334e-03, -1.67815387e-02,
       3.55512509e-03, -4.35418747e-02, 1.15641383e-02, -3.06941234e-02,
       1.94590110e-02, -1.77930593e-02, -2.46715005e-02, -3.70689551e-03,
       -1.27096828e-02, -1.00240568e-02, -1.48779256e-02, 2.01017945e-03,
       -5.27305081e-02, 5.03116287e-02, -4.25640009e-02, -5.13066677e-03,
       1.91328507e-02, 1.16054518e-02, 1.57743751e-03, 3.50644290e-02,
       4.09051478e-02, -3.23874205e-02, 6.12054579e-03, -2.98855379e-02,
       -2.72458903e-02, 8.76069360e-04, 5.69543615e-03, 6.09816518e-04,
       -8.62562936e-03, -5.79266390e-03, -4.37282166e-03, 1.58876833e-03,
       1.13153365e-02, 2.29458455e-02, -8.82153399e-03, 9.40770726e-04,
       -6.76479936e-03, -1.68666225e-02, 7.47981190e-04, -1.39303524e-02,
       6.80415006e-03, -1.93453971e-02, -1.26798899e-04, -1.01633407e-02,
       1.42864592e-03, -2.65219491e-02, -2.25287881e-02, 1.23882908e-02,
       -8.09320062e-03, -5.42850886e-03, -4.34789211e-02, 1.16447103e-03,
       2.96015851e-02, 1.89994145e-02, -1.00822048e-02, -3.84509773e-03,
       2.06688978e-02, 9.20398906e-03, -4.27429331e-03, -1.22236246e-02,
       -1.03261229e-02, 2.15754379e-03, 9.26103734e-04, 2.68764142e-02,
       3.86104174e-03, 4.51326091e-03, -4.26005013e-03, -1.51667092e-02,
       -1.54677322e-02, 2.03165831e-03, -1.77927979e-03, -4.48907120e-03,
       1.70881990e-02, -4.60239919e-03, -2.85313502e-02, -1.48094315e-02,
       4.92514297e-02, 1.75524619e-03, 1.01911388e-02, -5.67107834e-03,
       1.05203930e-02, 8.53266660e-03, 7.96613342e-04, -1.41734630e-02,
       -2.87447590e-03, 4.00081389e-02, 1.75653696e-02, -6.26981072e-03,
       -2.40449645e-02, -1.02371746e-03, 6.66901295e-04, -2.47501465e-03,
       -4.62481845e-03, -2.29080417e-03, -2.91262288e-03, 2.10217340e-03,
       -2.47797798e-02, -1.37884980e-02, 2.76730210e-03, -1.04893162e-03,
       1.95764769e-02, 3.31552289e-02, -7.96152861e-04, 5.02987057e-02,
       -2.14036163e-02, -2.90902029e-03, 7.86132179e-03, 2.32333392e-02,
       -5.61589655e-03, 5.16486261e-03, 9.99465585e-03, -4.48901672e-03,
       1.41418844e-01, 2.88724294e-03, 2.70226095e-02, 4.48197732e-03,
       4.90218289e-02, 1.10323764e-02, 1.12029747e-03, 1.17503889e-02,
       -1.18670724e-02, 7.44803324e-02, 1.71160270e-02, 2.59887017e-02,
       -2.91527156e-02, -1.84324440e-02, 1.25402189e-03, -1.75369810e-02,
       3.21863475e-03, 2.91248248e-03, 3.77586880e-03, 8.48592725e-03,
       -4.38502692e-02, -2.16021724e-02, -5.19308308e-03,
       -1.95067897e-02, 5.67849539e-02, 6.63047805e-02, -6.61133695e-03,
       2.46212203e-02, -2.58546527e-02, 2.84812809e-03, 1.25654666e-02,
       3.69417183e-02, -3.80728692e-02, 2.17346218e-03, 4.60462347e-02,
       2.93424539e-03, 8.72079805e-02, -1.79329291e-02, 1.15590706e-03,
       2.28345469e-02, 3.69081609e-02, -1.67327709e-02, -4.62497249e-02,
       -3.13841291e-02, 1.29023120e-02, 7.72851333e-02, -2.93234154e-03,
       5.58622926e-02, -1.33508714e-02, -9.45143774e-03, -1.63453780e-02,
       -6.60544774e-03, -1.26206912e-02, -1.19270980e-02, 3.35665606e-02,
       -7.17726769e-04, -1.98902246e-02, -1.21039012e-02,
       -5.09005832e-03, -2.08719354e-02, 2.55176183e-02, 5.45756891e-02,
       7.63485627e-03, 5.93957910e-03, -9.92088672e-03, 4.27845586e-03,
       5.38959913e-03, 2.38058604e-02, -1.94046572e-02, 3.29116732e-02,
       7.89998919e-02, 2.83925366e-02, 4.32132855e-02, -1.09878071e-02,
       -2.06474457e-02, -1.86006818e-02, 4.37125899e-02, -1.47948228e-02,
       -3.61063331e-02, -6.43212628e-03, 3.23574385e-03, 3.65764461e-02,
       -1.21634798e-02, -1.75115671e-02, -4.16821018e-02, 1.37132183e-02,
       -8.89121555e-03, -1.73759758e-02, -1.06749879e-02, 2.98820611e-04,
       3.51336822e-02, -3.86064849e-03, -6.09462801e-03, 1.68633170e-03,
       6.86274096e-03, 4.57785558e-03, -5.52864920e-04, -5.00790426e-04,
       3.03269690e-03, 9.28449072e-03, 6.56015566e-03, 9.34398733e-03,
       5.06314496e-03, -3.15912114e-03, 7.55478535e-03, -1.15197792e-03,
       -1.20557733e-02, 6.79467432e-03, 2.06951541e-03, 1.33571159e-02,
       1.96779799e-02, 9.22154635e-03, 4.88341087e-03, 6.65802462e-03,
       1.99666489e-02, -1.75572727e-02, 1.01286601e-02, 9.34881810e-03,
       5.06472215e-03, 9.97031480e-03, 1.92380901e-02, 8.67936388e-03,
       1.42459234e-03, 1.61138654e-03, 5.09334868e-03, 5.85184805e-03,
       2.00381521e-02, 2.34017149e-03, -2.15746206e-03, 1.39311338e-02,
       1.65165383e-02, -7.02720426e-04, -5.67861553e-03, 1.33722099e-02,
       -4.13949805e-04, 3.52045447e-02, 4.59460123e-03, 3.00541073e-02,
       1.87465865e-02, -2.65167058e-02, 2.82957926e-02, -1.51850479e-02,
       -9.26458649e-03, 2.59573422e-02, 2.53262352e-02, 2.38628145e-02,
       7.06878528e-02, 1.59615315e-02, -9.47593246e-03, 2.70468146e-02,
       2.99257357e-02, 4.18631965e-03, 2.16135941e-02, 5.51353805e-02,
       9.98678990e-03, 2.05121431e-02, 5.42609803e-02, -9.72318836e-03,
       -9.03613959e-03, 7.60708994e-04, 3.53856422e-02, -1.31395552e-02,
       3.31852734e-02, -1.28352344e-02, 1.81010924e-02, 7.61943534e-02,
       1.94309298e-02, -2.14727130e-03, -5.18126274e-03, 8.76066647e-03,
       5.76355681e-03, 4.47407477e-02, -5.58809564e-03, 1.15015144e-04,
       -3.59464134e-03, 2.96589080e-03, -1.22588370e-02, 7.89635442e-03,
       -3.22302468e-02, 4.85715549e-03, 9.23387334e-02, 5.05039170e-02,
       8.57607126e-02, 2.24134941e-02, -1.94920972e-02, 2.95778876e-03,
       7.24514062e-03, 4.36856300e-02, 3.51434276e-02, 9.00434703e-02,
       2.44834647e-03, 4.10846248e-02, 1.60168614e-02, -1.55626275e-02,
       -1.19622033e-02, -1.07209338e-02, 8.67137387e-02, 1.14892479e-02,
       6.58261776e-02, -4.07671481e-02, 2.87380442e-02, 2.43389346e-02,
       1.22061353e-02, -5.08581568e-03, -2.86264438e-03, 5.66986203e-03,
       5.27897198e-03, 1.79436784e-02, -7.44466390e-03, -3.03038936e-02,
       -2.83566900e-02, -1.19071081e-02, -2.04427391e-02,
       -7.59700453e-03, 1.07110140e-03, 1.60351954e-02, 6.76515028e-02,
       2.74269059e-02, 6.65193098e-03, -1.12589858e-02, 1.89103372e-02,
       -7.07171811e-03, -1.92620233e-02, 4.20222245e-02, 2.71301419e-02,
       7.50349686e-02, 9.28181503e-03, 2.28869673e-02, -7.63961347e-03,
       4.12160754e-02, -1.79567244e-02, -1.07515855e-02, 4.38273102e-02,
       2.82814149e-02, 5.63285053e-02, -2.79900269e-03, 2.67193913e-02,
       1.86421871e-02, -6.34986034e-04, 1.65818317e-03, 6.90701511e-03,
       -2.65916483e-03, 8.43710173e-03, 1.41215827e-02, -3.56302247e-04,
       -3.26201133e-03, -5.75471844e-04, 3.03555583e-03, -1.92491279e-04,
       -1.34133743e-02, -1.52668562e-02, 1.49104707e-02, 5.29844202e-02,
       8.56516510e-03, -6.90971781e-03, -3.17473453e-03, 1.12713650e-02,
       1.08707333e-02, -5.73908119e-03, -1.34615405e-02, -2.48924340e-03,
       3.71382758e-02, 1.47173600e-02, 3.55115384e-02, 1.82485189e-02,
       6.16811728e-03, 1.85417738e-02, 1.80109609e-02, 3.18757491e-03,
       -4.46875952e-03, 1.15807792e-02, 7.85019062e-03, 3.78618320e-03,
       3.92981851e-03, -9.60879959e-03, 3.49759636e-03, 3.14466073e-03,
       9.44448635e-03, 5.19377063e-04, 1.69600938e-02, 7.30132079e-03,
       1.55065721e-03, 1.49342641e-02, -2.42812634e-02, -1.30380187e-02,
       -4.79754759e-03, 2.11561117e-02, -3.79056185e-02, 3.35020795e-02,
       -4.92769517e-02, 1.10000074e-02, 3.54381986e-02, 4.66277748e-02,
       3.92941795e-02, -2.86896434e-02, -3.56558636e-02, -4.52005938e-02,
       9.60107055e-03, -3.36266421e-02, 4.26641889e-02, 6.68972172e-03,
       1.82320885e-02, 1.15227541e-02, 1.69862062e-02, -6.31347438e-03,
       -1.59111675e-02, 1.73723605e-02, 7.63349980e-03, 5.58690950e-02,
       1.99374259e-02, -4.60723788e-03, 1.01592136e-03, -3.21727339e-03,
       2.41162274e-02, -1.56986564e-02, 9.54311155e-03, -3.97609919e-03,
       -9.48448014e-03, 7.65663013e-03, -3.10384464e-02, -1.64885540e-02,
       -6.17352501e-03, 1.08930051e-01, -1.91258453e-02, 3.57437273e-03,
       -6.73319921e-02, 7.72026852e-02, 2.15768982e-02, 1.31356725e-02,
       -2.00321786e-02, -5.36703765e-02, 4.61748168e-02, 1.06938612e-02,
       6.08959384e-02, -2.93349680e-02, 2.68708274e-04, 8.23831651e-03,
       4.13924083e-03, -2.95448583e-02, 1.69231240e-02, 2.38113366e-02,
       2.13669520e-02, 8.06058850e-03, -2.02612020e-02, 9.21936706e-03,
       1.97486989e-02, 6.95527252e-03, -2.57910811e-03, -6.06691185e-03,
       8.70156847e-03, -1.16130626e-02, 4.38698381e-03, 1.61850813e-03,
       -5.07332496e-02, -1.77421831e-02, 2.40011532e-02, -2.58771442e-02,
       5.59963612e-03, 6.04688041e-02, 4.60582599e-03, 3.57658491e-02,
       5.59397275e-03, 1.60435010e-02, 3.15522775e-02, 1.92091595e-02,
       -1.79063492e-02, 3.19212861e-02, 3.54445763e-02, 6.29989728e-02,
       8.30928162e-02, -1.34341307e-02, 1.48907779e-02, 6.40356019e-02,
       -1.69309452e-02, -1.48503622e-02, 4.93732989e-02, 1.41825620e-02,
       2.50689518e-02, 1.83699979e-03, -1.52745796e-02, 3.93476430e-03,
       2.00110823e-02, 2.86382530e-03, 1.82818957e-02, 2.26427969e-02,
       2.20000208e-03, -3.90800677e-04, 1.33324368e-02, -6.29309507e-04,
       -4.65276680e-04, -2.91492697e-03, 1.13426270e-02, 2.29883660e-02,
       3.93431373e-02, 4.17658268e-03, 1.53996819e-03, 3.26867700e-02,
       2.01221425e-02, -9.34005901e-03, -2.04185136e-02, 9.57984291e-03,
       1.38057508e-02, 2.75138337e-02, -7.47432048e-03, 3.20456573e-03,
       4.28108834e-02, 1.94090456e-02, 1.63187776e-02, -1.04115279e-02,
       8.27503484e-03, 1.82412956e-02, 1.83108971e-02, -3.17858858e-03,
       1.27871949e-02, 1.61862001e-02, 7.09664496e-03, 1.37547096e-02,
       4.52318415e-03, 4.34272923e-03, 5.44340052e-02, 3.86394076e-02,
       6.22759294e-03, -4.44223173e-03, -4.15335828e-03, -1.62055790e-02,
       -2.36993246e-02, -1.88085083e-02, 1.46381604e-02, 2.11344920e-02,
       5.00008650e-02, 4.68147686e-03, -2.22136844e-02, 4.03628051e-02,
       1.91960894e-02, 1.06434198e-02, -1.37058133e-02, 1.11588789e-02,
       4.89759557e-02, 5.10809161e-02, -8.79012793e-03, -2.49953158e-02,
       4.58781905e-02, 2.97228014e-03, -8.41202494e-03, -1.40992980e-02,
       1.67350471e-02, 4.15961370e-02, 4.07657512e-02, -3.18951858e-03,
       -1.66375469e-02, 3.79541256e-02, 2.86237299e-02, 6.57928549e-03,
       6.36723172e-03, 4.93688416e-03, 5.01201674e-02, 1.96719598e-02,
       4.04697517e-03, -9.92778875e-03, -1.72685385e-02, -1.86017919e-02,
       -3.05246692e-02, -8.84777028e-03, -1.91220909e-03, 9.00356192e-03,
       1.43375583e-02, 2.12590415e-02, -1.54516706e-03, -9.77330469e-03,
       -2.05984637e-02, 6.76199747e-03, 7.20211910e-03, -1.08339377e-02,
       1.79265775e-02, 4.87619601e-02, -1.04418304e-02, 6.14152290e-03,
       5.55878282e-02, -4.16192925e-03, 2.85036862e-03, -3.60543653e-02,
       -2.26836232e-03, 6.03149198e-02, 3.32214981e-02, -1.59991626e-02,
       -1.91534101e-03, 4.27445509e-02, 1.25178341e-02, -2.80615017e-02,
       -3.55831534e-02, 5.89339482e-03, 1.84882767e-02, -2.09644763e-03,
       -1.33561110e-02, -3.54110054e-03, -4.58223373e-03,
       -3.26978485e-03, 3.19085177e-03, 1.23528270e-02, -1.44675868e-02,
       -4.58294479e-03, 1.11576719e-02, -6.78131299e-04, -2.34010862e-03,
       -8.16586614e-03, 1.89305115e-02, 1.68969538e-02, -7.21001253e-03,
       -8.44522752e-03, -4.25576326e-03, 2.60910876e-02, -1.69004276e-02,
       -2.01366632e-03, 2.55025551e-03, -2.63543637e-03, 2.91784145e-02,
       -2.12484058e-02, -1.03716059e-02, 3.27043049e-02, 2.02730484e-02,
       -8.94624460e-03, -9.04234406e-03, 4.99650743e-03, -9.75486450e-03,
       2.46177689e-04, -1.78007297e-02, 4.44694888e-03, 4.49761981e-03,
       1.76860730e-03, 3.00892117e-03, -2.59207506e-02, -2.67708190e-02,
       -1.28424047e-02, -9.54458490e-03, -2.96536274e-03,
       -5.75079210e-03, 6.09918451e-03, 1.85270645e-02, -8.19411798e-05,
       -2.79884264e-02, -3.99204530e-02, -2.02444233e-02, 2.71212924e-02,
       -7.57355895e-03, -1.79599579e-02, 1.02157146e-02, 9.80526488e-03,
       -1.29593834e-02, -2.40137260e-02, -2.99835317e-02,
       -1.37960119e-02, 7.15197846e-02, 9.94868949e-03, -5.23295766e-03,
       5.16087981e-03, 3.62812541e-04, -1.73043087e-02, -7.24355876e-03,
       -1.65498126e-02, 1.19703477e-02, 1.37950182e-01, 3.49501446e-02,
       1.75149832e-02, 1.10574886e-02, -6.98519545e-03, 2.68934690e-03,
       -5.59839718e-02, -2.82766558e-02, -1.98243633e-02,
       -2.28662770e-02, 1.56653877e-02, -4.66810679e-03, 9.98309627e-03,
       1.87962633e-02, -1.89569704e-02, -3.94592546e-02, -3.94955277e-02,
       -5.89135699e-02, 5.30552901e-02, 1.58066470e-02, -3.98552008e-02,
       2.69478727e-02, 3.88132073e-02, -1.45374294e-02, -4.02397923e-02,
       -2.77445391e-02, -1.36557221e-02, -5.29518235e-04, 2.15846431e-02,
       -3.19890752e-02, 3.20496596e-02, 5.91865042e-03, -1.77538805e-02,
       4.23970632e-03, -4.48219590e-02, 2.26051770e-02, 1.09857567e-01,
       9.14910808e-03, 4.23577207e-04, 1.04171236e-03, 3.37532954e-03,
       -9.61938594e-03, -2.09301766e-02, 1.32932991e-03, -1.19170370e-02,
       -1.88503563e-02, 3.24543454e-02, -1.49070481e-02, -5.88237029e-03,
       4.38894443e-02, -7.14919204e-03, -1.29974121e-02, 2.66260151e-02,
       1.12359039e-02, 1.93177294e-02, 3.99063900e-02, -3.27084474e-02,
       -1.04968604e-02, 4.13962379e-02, -2.17713099e-02, 1.00464709e-02,
       1.30564710e-02, 3.12348343e-02, -4.93126996e-02, -1.61541514e-02,
       -2.13368982e-02, -1.77857024e-03, 4.24166173e-02, -5.91018749e-03,
       9.87040065e-03, -3.64207327e-02, 1.53005105e-02, 2.51265522e-02,
       -1.55505259e-02, 3.40058492e-03, 2.09693564e-03, -3.46478960e-03,
       1.07342389e-03, 5.59638441e-03, 7.01271556e-03, -1.38327507e-02,
       -3.19659594e-03, 1.44656254e-02, 1.92386024e-02, 7.47524435e-03,
       -4.33452055e-03, -9.16921347e-03, 1.49295619e-02, 3.07205617e-02,
       8.91229371e-04, 8.26566294e-03, 5.29240668e-02, -4.95212059e-03,
       -1.03877876e-02, 1.01257702e-02, -8.44367780e-03, 1.18813375e-02,
       1.31702134e-02, -1.19062038e-02, 5.96852787e-02, 3.18598114e-02,
       2.25162529e-03, -1.72139164e-02, 2.66986638e-02, -5.00734523e-03,
       -8.49442650e-03, -4.95932205e-03, -7.19845574e-03,
       -8.96878447e-03, -8.47264752e-03, -8.27609620e-04,
       -6.89272943e-04, 6.05758885e-03, -2.84514739e-03, -6.90657645e-03,
       -1.04626287e-02, -8.13196227e-03, -1.14553422e-03,
       -2.51358666e-04, -1.09092491e-02, 4.64096153e-03, 4.47516679e-04,
       -1.26976818e-02, -1.58912856e-02, -1.90881137e-02,
       -1.42896548e-02, -9.24818590e-03, -1.38828820e-02,
       -1.78245474e-02, 8.23950674e-03, -3.76275112e-03, -9.97748226e-03,
       -3.31158983e-03, -3.42597370e-03, 2.81634345e-03, 4.87349108e-02,
       -5.59818419e-03, -7.14720867e-04, 1.44784804e-02, 1.16028003e-02,
       2.12599672e-02, -1.29997656e-02, -8.34088493e-03, 8.21298826e-03,
       5.83578497e-02, 7.55480165e-03, -4.16029477e-03, 3.29605700e-03,
       8.03760160e-03, -4.04196978e-03, -3.15798563e-03, -8.54862574e-03,
       5.83131390e-04, 2.38782093e-02, 1.01885945e-02, -6.42673075e-02,
       6.77253399e-03, -5.25964797e-03, -3.49504650e-02, 2.73754746e-02,
       -2.76034400e-02, -5.07673109e-03, -8.05469323e-03,
       -3.57386619e-02, -4.78042513e-02, 1.03023378e-02, -2.05365755e-02,
       -4.35115136e-02, 1.58665255e-02, 2.16957298e-03, 1.49815604e-02,
       2.76544578e-02, -3.78050618e-02, -1.60655323e-02, 3.89021710e-02,
       1.68833937e-02, 2.64225379e-02, 2.01896206e-02, -1.03531098e-02,
       -1.27752293e-02, 6.92244247e-02, -7.36434991e-03, 6.62460166e-04,
       -7.87239615e-03, -1.42157159e-03, -1.22846561e-02, 5.27880853e-03,
       -5.96438767e-03, 2.51862872e-02, 7.95823261e-02, 2.21999381e-02,
       -1.01886205e-02, -8.74109287e-03, 1.13536920e-02, -1.89305507e-02,
       3.64735797e-02, -2.65056137e-02, -1.84436962e-02, -6.00976162e-02,
       -5.72276767e-03, -1.82849988e-02, 3.23955081e-02, -4.75772005e-03,
       -7.26218894e-02, -1.98398661e-02, -2.60030944e-02,
       -1.04623083e-02, -3.73268500e-02, -3.33218649e-02,
       -3.56438756e-02, 2.28919517e-02, -6.08169753e-03, -3.01656313e-02,
       -1.02869309e-02, -3.55137400e-02, -1.88155696e-02, 4.91134040e-02,
       -2.10927371e-02, 3.88552272e-03, -6.89911377e-03, -1.09875714e-02,
       -1.04219364e-02, -1.68051594e-03, -1.99528993e-03, 1.66353565e-02,
       1.10658951e-01, 5.37548624e-02, 1.75471641e-02, -7.86568411e-03,
       -5.80556225e-04, -1.91156324e-02, 7.65831349e-03, 4.98915277e-03,
       -1.45065328e-02, 5.19636013e-02, 4.26719747e-02, -2.07024477e-02,
       -6.65069325e-03, -9.47210845e-03, -2.81668492e-02, 1.07905976e-02,
       -4.44137119e-03, -7.68316351e-03, 6.74848957e-03, 1.56465732e-02,
       -1.90254599e-02, 8.78008921e-03, 1.56436884e-03, -1.64700914e-02,
       -1.61574893e-02, -1.68545805e-02, -1.44323912e-02,
       -1.35283699e-04, -8.79322924e-03, 3.39188124e-03, -1.75058783e-03,
       -4.76262113e-03, 1.10085402e-03, -1.34876778e-03, -1.33183748e-02,
       -9.19813942e-03, 4.52486705e-03, -2.15567346e-03, -1.22499894e-02,
       1.03981597e-02, -8.51029716e-03, 4.50513698e-03, -1.32505354e-02,
       -9.90179833e-03, -4.11270978e-03, 1.24425497e-02, 6.14088401e-03,
       -1.25054661e-02, 1.36640118e-02, 2.55643521e-02, 5.03558991e-03,
       -2.20933557e-02, 1.39495330e-02, -1.62754375e-02, 7.83485081e-03,
       5.61510958e-03, 1.10927513e-02, 8.36527534e-03, 3.81691046e-02,
       2.58153304e-02, -5.89825911e-03, 5.32387896e-03, -9.70739685e-03,
       -2.35111993e-02, -1.70170125e-02, 9.25224449e-04, -3.83933913e-03,
       -2.04378422e-02, -4.73824190e-03, -3.67331714e-03,
       -1.08148372e-02, -2.78476328e-02, 2.69220471e-02, 4.21029143e-03,
       -3.02009787e-02, -9.96440835e-03, -2.59160642e-02,
       -5.33871469e-04, 4.38825190e-02, 4.09153178e-02, -6.86933994e-02,
       -2.23730435e-03, 1.53319053e-02, 1.32278893e-02, 2.90243700e-03,
       -6.64211484e-03, 3.40594415e-04, 4.84209023e-02, 6.28303140e-02,
       -8.38832855e-02, -2.59299134e-03, 3.23376022e-02, 3.86684574e-02,
       5.00724651e-03, 4.96100113e-02, 4.54598963e-02, 4.69034277e-02,
       3.78486328e-02, -4.42241132e-02, -3.09528690e-02, -1.44790392e-02,
       -1.37586631e-02, -1.68436896e-02, -2.52442267e-02,
       -2.59702653e-02, 2.89356010e-03, -2.06471048e-03, -7.66522856e-03,
       5.79936877e-02, 1.50861274e-02, -2.61021629e-02, -2.40050331e-02,
       -5.34751303e-02, -5.44480421e-02, 4.38124128e-02, 2.96619236e-02,
       -6.96163103e-02, 8.30471423e-03, 4.15868349e-02, 1.90866534e-02,
       -1.08098257e-02, -5.08305840e-02, -1.63814314e-02, 6.63487911e-02,
       4.23877239e-02, -7.33976215e-02, -1.55498250e-03, 1.65824443e-02,
       2.33287551e-02, 6.84802374e-03, 6.48636604e-03, 4.01215553e-02,
       3.47603001e-02, 1.46087157e-02, -4.43538316e-02, 8.15444440e-03,
       -2.97325407e-03, -5.00641810e-03, -1.70501098e-02,
       -1.09683033e-02, -1.17310081e-02, 2.15906575e-02, 6.36135694e-03,
       1.36511978e-02, 2.44852006e-02, 3.95733453e-02, 1.61920562e-02,
       2.74511124e-03, -1.73034780e-02, -1.95617564e-02, 3.50402594e-02,
