%YAML:1.0
---
svmDetector_object0: !!opencv-object-detector-hog
   winSize: [ 32, 32 ]
   blockSize: [ 8, 8 ]
   blockStride: [ 4, 4 ]
   cellSize: [ 2, 2 ]
   nbins: 9
   derivAperture: 1
   winSigma: 2.
   histogramNormType: 0
   L2HysThreshold: 2.0000000000000001e-01
   gammaCorrection: 1
   nlevels: 64
   signedGradient: 1
   SVMDetector: [ -8.97097110e-04, -3.10213235e-03, -2.08356651e-03,
       1.14596776e-04, -7.48815667e-03, 6.89203502e-04, -6.55102404e-03,
       1.30255255e-04, -8.90877505e-04, -1.77403307e-03, -1.10722864e-02,
       -1.08428523e-02, -2.22580903e-03, -1.74706075e-02,
       -1.29984859e-02, -2.85799261e-02, 1.09243430e-02, 4.50302241e-03,
       -4.25577955e-03, 2.04052520e-03, -1.10394210e-02, 6.21176441e-04,
       -1.87850278e-02, -4.12719091e-03, -3.82261723e-02, 3.03924130e-03,
       4.49016225e-03, -5.77795412e-03, 1.71027461e-03, -3.64163332e-03,
       7.60637980e-04, -2.13707774e-03, 8.53336044e-03, -1.73473172e-02,
       -5.04955836e-03, 5.27362898e-03, -4.63474961e-03, -9.69562493e-03,
       -4.86781384e-04, -1.32675876e-03, -1.66531261e-02,
       -4.45117755e-03, -1.13720391e-02, -4.79671918e-03,
       -9.68815119e-04, -5.67134237e-03, -3.43925171e-02,
       -1.03300214e-02, 6.22774474e-04, -4.28137369e-02, -1.21462252e-02,
       -5.82632311e-02, 4.80607618e-03, -9.98020638e-03, -9.48010013e-03,
       -2.99728233e-02, -1.39807118e-02, 2.48863026e-02, -3.91963981e-02,
       1.39207328e-02, -2.83897351e-02, 9.58508998e-03, -4.31717373e-03,
       -1.61624756e-02, -3.78124625e-03, 6.26354522e-05, 1.80694722e-02,
       -9.41720139e-03, 3.57627906e-02, -8.84441752e-03, 6.27222052e-03,
       1.22309360e-03, -2.39164499e-03, -1.45567814e-02, -1.32250488e-02,
       4.41609137e-03, -2.09934805e-02, 7.68115558e-03, -2.22095195e-02,
       5.83867216e-03, 4.01069298e-02, 6.30557956e-03, -7.93270208e-03,
       -1.42528024e-03, 6.46708533e-03, -1.29208127e-02, 5.25106229e-02,
       -6.15010895e-02, 1.47262849e-02, 2.76320409e-02, 1.94103885e-02,
       -2.81875068e-03, -1.58419944e-02, 1.06287580e-02, 3.56492866e-03,
       4.67896610e-02, 1.84214525e-02, 3.80239002e-02, 1.58332083e-02,
       -6.83336519e-03, 1.70010291e-02, 2.40908507e-02, 2.82340366e-02,
       1.56954248e-02, 1.52869401e-02, 7.18700374e-03, 1.75619479e-02,
       4.79610695e-04, 1.56111121e-02, -6.15289342e-03, -1.12132933e-02,
       5.20801265e-03, 8.85844976e-03, 1.72412936e-02, -8.74579768e-04,
       3.21787484e-02, 3.93527225e-02, 4.47336361e-02, 3.75624634e-02,
       1.33407582e-02, 2.32218374e-02, 2.05157287e-02, 5.66294082e-02,
       1.61892492e-02, 4.06876914e-02, 3.58114056e-02, 4.12849225e-02,
       2.38592606e-02, -4.28950554e-03, 9.64171719e-03, 1.52333789e-02,
       4.46846299e-02, 7.20243454e-02, 2.22718287e-02, 2.85775866e-02,
       1.45176500e-02, 2.30477974e-02, 7.64952460e-03, 1.21182064e-02,
       1.66248493e-02, 6.91859238e-03, 1.74879935e-03, 6.79827249e-03,
       9.06979013e-03, -5.78362774e-03, -1.60302664e-03, -6.44726120e-03,
       -1.68877584e-03, -5.27417660e-03, -4.72903298e-03,
       -1.64450407e-02, -5.87892113e-03, 9.12139716e-04, -1.51508469e-02,
       1.62316574e-04, 4.65833023e-03, -4.84634936e-03, 9.25936643e-03,
       1.23057107e-03, -2.85620466e-02, -4.55135293e-03, 5.65080205e-03,
       -4.37594624e-03, 5.30397636e-04, 6.61778264e-03, -2.74823606e-03,
       2.58997455e-02, 3.08902515e-03, -2.26179697e-02, -6.96822396e-03,
       1.47676503e-04, -4.82844189e-03, -2.70349579e-03, 4.19455115e-03,
       5.51907485e-03, 1.33822775e-02, 1.15073929e-02, -4.21204465e-03,
       1.36437279e-03, 1.18130515e-03, -1.35452999e-02, -1.07520577e-02,
       -1.06005594e-02, 5.98885305e-03, -1.34513984e-02, 2.57338886e-03,
       -2.31910497e-02, -3.62724066e-03, 5.18160453e-03, -1.18065914e-02,
       1.06078926e-02, 2.46597491e-02, -8.73278175e-03, 3.19218473e-03,
       2.13420205e-02, -2.55105738e-02, 1.57894734e-02, 1.30455440e-03,
       -1.31388027e-02, 3.25692743e-02, 2.15449780e-02, -3.20004225e-02,
       5.05933724e-02, 6.04364183e-03, -3.90980914e-02, 8.78080912e-03,
       -5.15177334e-03, -1.06645366e-02, 3.46513320e-04, 1.63307146e-03,
       -2.02383585e-02, 3.36501338e-02, 2.08213050e-02, -1.34587297e-02,
       -1.57473125e-02, 1.13185523e-02, -2.13187700e-03, 5.02763176e-03,
       -4.59788926e-03, 7.88961817e-03, -4.82160086e-03, 1.20586520e-02,
       -1.05865449e-02, 3.90254706e-03, 7.79321091e-03, -3.09578748e-03,
       4.59204726e-02, 2.70843320e-02, 3.14980140e-03, 2.81853862e-02,
       6.28081383e-03, -9.75092966e-03, 3.45400348e-02, 1.25970291e-02,
       5.20110829e-03, 4.95122857e-02, -1.19583681e-02, -4.26074415e-02,
       4.89044487e-02, -2.15242058e-02, -1.44331558e-02, 5.25582880e-02,
       -7.56092509e-03, 2.40704301e-03, 7.49113038e-03, -9.92769934e-03,
       -1.91682056e-02, 4.65675071e-02, 7.61976116e-04, -2.32640132e-02,
       -5.51684899e-03, -1.09716982e-03, 7.34171132e-03, 1.52831459e-02,
       -8.64079501e-03, 2.27822945e-03, 9.58283991e-03, 1.77819505e-02,
       6.41702441e-03, -1.09215984e-02, 5.37640834e-03, 1.63933989e-02,
       3.64062265e-02, -2.18894938e-03, 1.63216442e-02, 4.87458557e-02,
       1.92662384e-02, 2.75102188e-03, 7.83999544e-03, 1.45510230e-02,
       1.21589899e-02, 3.27653810e-02, -7.91014638e-03, 1.19884769e-02,
       4.94338796e-02, 1.23279989e-02, 3.45993624e-03, 2.18620561e-02,
       1.49623659e-02, 1.33084180e-02, 8.40127934e-03, -1.26416434e-03,
       7.10282335e-03, 1.42133422e-02, -1.00333942e-03, -7.52475020e-03,
       1.86695438e-02, -5.57826413e-03, -2.05524382e-03, -2.36012321e-03,
       -2.05344823e-03, -1.59692497e-03, 1.30141135e-02, -5.12920273e-03,
       -1.78182926e-02, -2.17738585e-03, 9.05031804e-04, -9.14816838e-03,
       -1.44913755e-02, -1.08680548e-02, -7.36028363e-04, 4.62013967e-02,
       1.89402942e-02, -9.34720691e-03, -5.79114584e-03, 9.25625023e-03,
       -3.88687127e-03, -2.48974329e-03, -8.50836094e-03, 1.05373031e-02,
       5.70462123e-02, -4.16677818e-03, -1.05092842e-02, -3.46032903e-03,
       9.97832697e-03, -6.65589469e-03, -7.05361541e-04, -6.41957484e-03,
       2.07446031e-02, 2.54690889e-02, -6.35582209e-03, -1.41391568e-02,
       -7.28748413e-03, -1.36229431e-03, -6.65644230e-03, 1.30329160e-02,
       -2.17717444e-03, -1.35260690e-02, 3.34898420e-02, -4.49411292e-03,
       -2.00961661e-02, 8.34854227e-03, 9.57688875e-03, -5.59828803e-03,
       -5.88998571e-03, -6.99626654e-03, -3.89762409e-02, 4.59429361e-02,
       2.82093659e-02, -3.74561064e-02, -1.24348886e-02, 4.19627577e-02,
       2.50244886e-02, 1.52417962e-02, -2.76131816e-02, 1.56337093e-03,
       2.64551188e-03, -4.16820869e-02, -9.29557439e-03, 1.24419481e-02,
       3.65028642e-02, -6.08500279e-03, -1.71475243e-02, -2.88924892e-02,
       3.46822804e-03, 4.19275984e-02, -1.56862922e-02, -3.02036339e-03,
       1.52386716e-02, -1.03375250e-02, 3.13858292e-03, 2.70583853e-02,
       -1.08075505e-02, -1.41553646e-02, 7.26951193e-03, -1.15691554e-02,
       1.64724258e-03, 1.66663453e-02, 4.22212481e-03, -5.45271556e-04,
       2.31303573e-02, -2.56203040e-02, -3.20111215e-02, -4.68923105e-03,
       -1.46231139e-02, -2.50971690e-02, 2.19877884e-02, 2.80723851e-02,
       4.98712901e-03, -7.70098239e-04, -3.20670865e-02, -9.03076289e-05,
       9.38592292e-03, -7.19197924e-05, -2.05605086e-02, 5.36848791e-02,
       2.67054327e-03, 6.82983221e-03, -1.18773114e-02, -1.55561091e-02,
       -9.47160646e-03, 1.10210003e-02, -1.90891121e-02, -7.74947880e-03,
       3.74848135e-02, 2.93521304e-03, 5.55220619e-03, 1.34941628e-02,
       -2.76681222e-03, 2.97011811e-05, -1.18406129e-03, 6.79210480e-03,
       1.48045924e-02, -7.65100936e-04, -6.89697359e-03, 9.76776332e-03,
       1.08517967e-02, -4.67964122e-03, -7.46552506e-03, -1.01499138e-02,
       3.91101837e-03, 7.76411919e-03, 1.82760339e-02, -1.67205054e-02,
       8.78319901e-04, -9.79006509e-05, -1.22409090e-02, -2.01677438e-02,
       -7.91935157e-03, -2.84943124e-03, -1.72515437e-02, 3.48940343e-02,
       1.64576937e-02, 8.79945233e-03, 3.88999144e-03, -4.94633743e-04,
       -4.54187480e-04, 6.62897248e-03, -2.14981474e-02, -5.92174800e-03,
       2.16205642e-02, 2.05411157e-03, -1.05130661e-03, 2.63237813e-03,
       5.05202508e-04, 5.34933666e-03, 3.02069262e-03, -1.66913290e-02,
       -1.04290573e-02, 8.86908150e-04, -9.50367757e-05, -1.48812244e-02,
       -1.28577021e-03, -1.03568174e-02, 2.13816110e-02, 1.66439693e-02,
       -3.04517876e-02, -6.47910079e-03, 2.60282238e-03, -1.15128432e-03,
       -2.12505297e-03, 3.49454954e-03, -2.44232472e-02, 1.19184162e-02,
       1.34405633e-02, -2.16171704e-02, 1.25954626e-02, -1.64154191e-02,
       -2.10520346e-03, -3.43290810e-03, -4.45742859e-03,
       -1.53693091e-02, 9.66961682e-03, -1.21167274e-02, -7.27931876e-03,
       -2.79336772e-03, -7.99106807e-03, -2.18889490e-03, 9.09253862e-03,
       6.89043384e-03, -1.23176193e-02, -1.89827033e-03, -2.29452574e-03,
       -3.02409120e-02, -1.00210477e-02, 1.17618488e-02, 6.67058444e-03,
       7.51674920e-03, -8.00204463e-03, -1.75339468e-02, -8.73352867e-03,
       3.12847979e-02, -3.95580940e-02, -7.73275131e-03, 1.65128689e-02,
       -1.05856396e-02, 2.45540943e-02, 9.48757865e-03, -3.35274525e-02,
       -1.19117303e-02, -4.53216303e-03, -2.09689289e-02, 5.29848505e-03,
       -4.28577662e-02, 2.85852537e-03, 5.87725919e-03, -2.62362626e-03,
       -1.27346627e-02, -1.61148999e-02, 3.30565721e-02, -1.31238466e-02,
       5.18499082e-03, -1.01623661e-03, 1.16958451e-02, 5.80681441e-03,
       8.28026736e-04, -8.78153183e-03, 4.39875387e-03, 1.65379681e-02,
       6.26399601e-03, -1.84695553e-02, 3.68335657e-03, -1.84280388e-02,
       3.84294912e-02, 4.17610304e-03, -1.34003479e-02, -2.05358788e-02,
       1.06711909e-02, -5.87273808e-03, -5.46302088e-03, 3.85159403e-02,
       -1.02997040e-02, 3.90291736e-02, 1.85250156e-02, -3.96747142e-02,
       1.05253533e-02, 7.01051112e-03, 3.99859669e-03, -1.16837788e-02,
       -2.04351917e-02, -1.05202422e-02, 5.57302032e-04, -6.31064177e-03,
       1.17998570e-03, -1.20637100e-02, 2.32166257e-02, 8.13749246e-03,
       -5.07702585e-03, -9.54798982e-03, 2.45794058e-02, -2.84332596e-03,
       1.68288313e-03, 1.33272575e-03, 3.60205257e-03, 7.29825394e-03,
       -1.76881789e-03, -1.15429889e-02, -1.05238985e-02,
       -1.33421458e-02, 8.06853734e-03, 4.37021675e-03, -2.14761542e-03,
       6.90633943e-03, 2.87267305e-02, -1.07384566e-02, -2.82095349e-03,
       1.47351688e-02, -2.61154231e-02, 1.63469091e-02, 7.73899583e-03,
       -1.59437004e-02, -6.48949435e-03, 6.89235609e-03, -5.07883821e-03,
       1.39824394e-02, 1.06501682e-02, -9.21335816e-03, 3.29295377e-04,
       1.07503738e-02, 2.60344264e-03, -3.31599149e-03, 2.25963048e-03,
       5.44167031e-03, -4.05929284e-03, 1.28668407e-03, 1.01101911e-02,
       -1.84040645e-03, 2.62466318e-04, -6.09720452e-03, 9.02263448e-04,
       -6.36307942e-03, -7.56552909e-03, 3.12358048e-03, -4.23450954e-03,
       -3.18737607e-03, -4.64510405e-03, -8.50947341e-04,
       -1.82378963e-02, 2.57988786e-03, -2.65732259e-02, -1.54634435e-02,
       -1.01302294e-02, -1.14670210e-02, -6.02743868e-03,
       -1.21844923e-02, 3.50088766e-03, -8.66621267e-03, 4.66592843e-03,
       -1.24521349e-02, -8.38664547e-03, -2.00668350e-02,
       -1.21636633e-02, -5.05640684e-03, -3.81373684e-03,
       -4.90640244e-03, -8.52489751e-03, -4.99862572e-03, 3.87880253e-03,
       1.26743605e-02, -9.03908070e-03, -9.26714577e-03, 1.28156948e-03,
       1.86765892e-03, 5.11038862e-03, -9.01522301e-03, -9.69861355e-03,
       -2.43398547e-03, -1.35821057e-03, 3.15894629e-03, -1.40655199e-02,
       -3.46190343e-03, -3.88605287e-04, 2.06344528e-03, -1.08920243e-02,
       -2.66936049e-02, 9.39804222e-03, -2.12590229e-02, 7.03545054e-03,
       -8.76841974e-03, -1.05828224e-02, -8.28981306e-03, 1.62767842e-02,
       -8.13416764e-03, 1.65970288e-02, 3.24293524e-02, -8.83675832e-03,
       1.05024576e-02, -6.63038692e-04, -2.72191316e-03, -1.15014501e-02,
       -4.36220143e-04, -1.95488948e-02, -1.79093331e-02, 4.44832183e-02,
       3.50601599e-02, -3.91658774e-04, 1.35716842e-02, -8.47496279e-03,
       2.57208274e-04, 1.33723998e-03, -8.30627140e-03, 3.70194158e-03,
       1.15334960e-02, 4.62030806e-03, -6.57805102e-03, -1.28547084e-02,
       -1.09295920e-02, -1.33929523e-02, -1.26184449e-02,
       -2.46537873e-03, -3.31354477e-02, 1.28864851e-02, 1.53664090e-02,
       1.78757403e-02, -2.66519152e-02, -1.78472996e-02, -8.07315018e-03,
       -6.87615806e-03, -9.83869750e-03, -1.12348413e-02, 6.22473434e-02,
       -1.19655579e-02, 3.25785659e-04, 2.86657643e-02, 2.09280159e-02,
       -1.43513945e-03, -1.32646598e-02, -1.60070788e-02,
       -5.64763928e-03, 1.96450427e-02, 2.99630202e-02, 1.28332954e-02,
       5.99754117e-02, 9.66828968e-03, 1.54276204e-03, 7.35070789e-04,
       -2.44312803e-03, 1.20325910e-03, 5.93176344e-03, 2.90680444e-03,
       1.74231746e-03, -9.44592431e-03, -1.14675630e-02, -5.09785116e-03,
       1.34487972e-02, 3.58252274e-03, -7.08440226e-03, 9.13581438e-03,
       1.32574374e-02, 6.08885335e-03, -3.70722823e-03, -1.88100170e-02,
       -1.45465266e-02, -1.21360783e-04, -2.42520520e-03,
       -1.86768716e-06, 4.06621695e-02, -1.42653221e-02, 2.42997217e-03,
       3.51668312e-03, -2.99881138e-02, -1.13042900e-02, -4.80590807e-03,
       -9.53110517e-04, 1.47596020e-02, 1.94997806e-02, 1.22090280e-02,
       1.48751466e-02, 3.39760147e-02, -3.75184789e-03, -1.19564775e-03,
       3.90418014e-03, 1.02314574e-03, 2.37019872e-03, -9.72685125e-03,
       -2.98465276e-03, -5.39572258e-03, -3.35699087e-03,
       -1.26272696e-03, -6.65957690e-04, -2.39898311e-03,
       -6.43221289e-03, -5.23944385e-03, -1.00157447e-02, 2.06377618e-02,
       -8.57295375e-03, -1.72461476e-02, -6.48154179e-04,
       -1.86375587e-03, -4.93651768e-03, -1.40768746e-02,
       -1.74190011e-02, -1.12615954e-02, 2.79273856e-02, 1.12502752e-02,
       -2.12216973e-02, -8.61443859e-03, 5.14178246e-04, -1.02339629e-02,
       -1.97923705e-02, -7.37313041e-03, -5.62557345e-03, 2.64539593e-03,
       3.31921212e-04, -8.39212630e-03, -1.40551920e-03, 1.78565108e-03,
       1.34838382e-02, -5.27495140e-05, 1.34915509e-03, 1.57362185e-02,
       -2.72742752e-03, 9.53536015e-03, 4.87017125e-04, -4.06150101e-03,
       -1.85486600e-02, 1.56907719e-02, -1.73826013e-02, -1.85042992e-02,
       2.66489275e-02, 4.63187397e-02, -7.20337639e-03, -8.72075185e-03,
       -1.75240766e-02, -1.06195565e-02, -1.31470468e-02,
       -1.94074921e-02, -2.52426416e-02, 2.60545071e-02, 3.11857667e-02,
       2.81563750e-03, -3.55738290e-02, -2.67408602e-02, -4.37072897e-03,
       -2.41799597e-02, -2.96787545e-02, -1.08052902e-02,
       -4.47314698e-03, 4.21054568e-03, -6.30711718e-03, -2.12503243e-02,
       -1.14932368e-02, -5.61831228e-04, 2.60406872e-03, 5.52651705e-03,
       6.12690579e-04, 1.58646852e-02, -5.66976843e-03, 7.50593748e-03,
       -4.00499848e-04, -3.30718257e-03, -2.34114952e-04,
       -2.23698560e-03, -1.69118196e-02, -3.80001799e-03,
       -1.96177419e-02, 4.12064120e-02, 6.90942444e-03, 4.12786119e-02,
       -1.09715108e-02, -4.82868962e-03, -6.85579609e-03,
       -4.22909949e-03, 2.10091751e-02, -7.37869006e-04, 2.30600666e-02,
       1.33674135e-02, 2.11480586e-03, -2.35825535e-02, 1.75045582e-03,
       -2.33033057e-02, 5.33362431e-03, 1.34257628e-02, -8.22700560e-03,
       -1.87924635e-02, 1.42933959e-02, 3.17758531e-03, -1.01159990e-03,
       -4.53893328e-03, -8.50186276e-04, 7.63262901e-03, 6.81595365e-03,
       1.68646201e-02, -1.06732901e-02, 3.47171305e-03, -8.92870221e-03,
       -1.57731790e-02, -1.58519782e-02, -1.37886114e-03,
       -4.52485110e-04, 4.00493965e-02, 2.12673657e-02, 1.34183140e-02,
       9.21298377e-03, 2.84597073e-02, -8.75322521e-03, -2.54931394e-02,
       1.33031327e-02, -3.24226450e-03, 2.92927139e-02, -1.39827207e-02,
       6.76132319e-03, -8.25960375e-03, 3.03658657e-02, -1.14575941e-02,
       -4.88997344e-03, -1.77430846e-02, 4.75056376e-03, 7.22171273e-03,
       -6.85931416e-03, -1.48259327e-02, -4.99092566e-04, 5.62568486e-04,
       -5.95358759e-03, -4.54244931e-04, -3.18752602e-03,
       -4.36563836e-03, -1.27749809e-03, -7.17487279e-03, 4.63867607e-03,
       -2.24731193e-05, -5.33548323e-03, -3.07367649e-03, 8.43855087e-03,
       -8.09985213e-03, -1.99703425e-02, -5.18696569e-03,
       -2.13337354e-02, -3.24591366e-03, -3.78315826e-03,
       -8.57212115e-03, 1.18703488e-03, 6.96754595e-03, 6.49827020e-03,
       -1.27461469e-02, -3.88403540e-03, -1.78273022e-02,
       -7.29413296e-05, 5.84089011e-03, -1.20836822e-02, -1.61717809e-03,
       2.18403921e-03, 3.29365046e-03, -6.05965964e-03, -5.03974687e-03,
       -1.64182261e-02, 3.50191188e-03, 5.10441884e-03, -2.68066418e-03,
       -2.58184853e-03, 3.48843448e-03, -3.96371679e-03, -1.09577668e-03,
       8.12659971e-03, 4.89236321e-03, 2.59276421e-04, -1.35626541e-02,
       -1.47910789e-02, -1.11301336e-02, 6.15259807e-04, -2.24118326e-02,
       -2.51927543e-02, 1.62527803e-02, -3.64780426e-02, 1.50528010e-02,
       -1.23560466e-02, -1.99182183e-02, -9.39423405e-03, 2.59480416e-03,
       1.29863592e-02, -1.86899547e-02, 6.25079963e-03, -5.75344451e-02,
       1.98494941e-02, 2.57738749e-03, -1.94260199e-02, -1.15834810e-02,
       1.10341115e-02, 2.05091629e-02, -6.07167650e-03, -3.62245104e-04,
       -1.90442130e-02, 2.98967510e-02, 2.86486070e-03, -8.31722561e-03,
       -6.99051144e-03, 2.52512493e-03, 3.43609904e-03, 2.66169421e-02,
       4.43760082e-02, 1.54823493e-02, 5.43561624e-03, -5.01775695e-03,
       -1.71361268e-02, -1.68344602e-02, 6.55209366e-03, -3.87628633e-03,
       6.49915934e-02, 6.02077059e-02, -2.44437438e-02, -2.36384012e-03,
       -9.75391176e-03, -6.71092933e-03, 2.04386329e-03, 2.37668045e-02,
       2.68596169e-02, -2.92273071e-02, 1.26652187e-02, -3.83881815e-02,
       2.94274222e-02, -1.58289596e-02, 3.94907501e-03, 1.36545002e-02,
       1.85230449e-02, 2.55806036e-02, -9.76136141e-03, -9.84650664e-03,
       -1.80726722e-02, 4.39674519e-02, -3.06480913e-03, -3.43581196e-03,
       1.36451074e-03, -4.74202493e-03, 8.53225216e-03, 3.14808078e-02,
       4.89126332e-02, 1.04172509e-02, 5.97147690e-03, -8.62141547e-04,
       -1.22819049e-02, -1.32610369e-02, -3.17142368e-03,
       -7.35917687e-03, 8.14509392e-02, 7.13545159e-02, -1.00649428e-03,
       5.53162536e-03, -1.35628553e-02, -3.02409679e-02, -1.23620387e-02,
       1.28650442e-02, -8.55060946e-03, -2.18784832e-03, 3.52411680e-02,
       -2.13551633e-02, 2.76121888e-02, -2.08490435e-02, -1.53187821e-02,
       -4.25737025e-03, 6.44730916e-03, -3.08426353e-03, -6.18711207e-03,
       2.15215073e-03, -2.15270314e-02, 4.77701612e-03, -1.55559997e-03,
       -3.88177764e-03, 4.41862363e-03, -5.12018427e-03, -1.00563858e-02,
       -7.71486340e-03, -7.96424225e-04, -1.31870424e-02, 9.72190127e-03,
       -8.13272223e-03, -1.06020994e-03, 2.83127953e-03, -8.54435656e-03,
       -4.41537146e-03, -1.58542639e-03, 4.38101636e-03, -3.26703116e-02,
       1.17604733e-02, -2.09492389e-02, -3.42747383e-03, -1.04907788e-02,
       -9.73268691e-03, 9.96989431e-04, 1.38363408e-04, 9.48087778e-03,
       -4.58347760e-02, 5.23501309e-03, 1.54739330e-02, -1.93830498e-03,
       -2.03197524e-02, -9.09208041e-03, 2.31245812e-03, 4.96786693e-03,
       9.58800036e-03, -9.80172958e-03, -4.32624435e-03, -1.04934035e-03,
       -8.47614952e-04, -1.20281773e-02, 7.12330639e-03, -1.44732371e-02,
       -3.05291023e-02, 5.10620535e-04, 6.82936283e-03, 1.84827615e-02,
       -5.03926212e-03, 4.47056489e-03, 5.49472170e-03, 4.32789735e-02,
       3.19748186e-02, -1.35165546e-02, 2.18569040e-02, 8.76323879e-03,
       3.92857306e-02, -1.76933855e-02, -1.01779662e-02, -1.35145765e-02,
       8.33444018e-03, 8.27005506e-03, -2.79125534e-02, 1.69411115e-02,
       -2.20594741e-03, 2.46096849e-02, 2.66824793e-02, -5.34016872e-03,
       -8.61277524e-03, -4.44407668e-03, 5.83840953e-03, 7.58302573e-04,
       1.05114542e-02, 1.07293855e-02, 7.58822309e-03, -2.80829873e-02,
       -3.71118961e-03, 3.13395308e-03, 3.92143195e-03, 4.07729717e-03,
       -2.09533200e-02, -6.72749430e-03, -6.56570133e-04, 3.02558169e-02,
       8.36634822e-03, -1.00484909e-03, 1.21818706e-02, 9.43453889e-03,
       2.93340795e-02, 1.64691545e-02, 2.38328334e-02, 2.98689096e-03,
       9.87115651e-02, 1.76095255e-02, -4.07256819e-02, 1.30658941e-02,
       -1.82471946e-02, 4.62617464e-02, -1.99523252e-02, 2.43723448e-02,
       2.39348505e-02, 4.06119190e-02, -1.55430920e-02, 1.48169510e-03,
       -1.40899019e-02, 5.01330756e-03, 1.17115658e-02, -1.80204175e-02,
       -6.84120459e-04, 1.89866815e-02, -1.42829381e-02, -6.20229840e-02,
       -7.58471992e-03, -1.70130492e-03, 4.80337953e-03, 4.25871741e-03,
       -6.35995576e-03, -2.79916660e-03, 5.40479133e-03, 8.21554940e-03,
       1.64954588e-02, -1.13030034e-03, 2.23316159e-03, 1.33081647e-02,
       2.84242388e-02, 1.05193891e-02, 3.56527022e-03, -5.41321980e-03,
       2.36547925e-02, 6.59590587e-02, -8.45187716e-03, 1.53266657e-02,
       4.57447534e-03, 5.68299815e-02, 1.78308114e-02, 5.68649312e-03,
       1.07960543e-02, 2.60365438e-02, 1.23784915e-02, -5.00811776e-03,
       3.46182869e-03, 1.23605365e-02, 9.89650097e-03, -1.34527509e-03,
       4.69964277e-03, 1.15330452e-02, -2.81990808e-03, -2.30839346e-02,
       -1.41673302e-02, -3.01778526e-03, -5.44275949e-03, 1.55187561e-03,
       -3.63599509e-04, 3.82163539e-03, -2.06830399e-03, -1.27805760e-02,
       1.18501950e-02, 6.18428038e-03, -5.78388432e-03, -1.59546845e-02,
       5.72131528e-03, 4.56021028e-03, 6.02184422e-03, 1.82613470e-02,
       -2.24000979e-02, 1.32538769e-02, 2.95571201e-02, -1.30863832e-02,
       -1.91196948e-02, 1.32422205e-02, -1.21334223e-02, -6.35267142e-03,
       -1.28361639e-02, -1.29894195e-02, 1.55261401e-02, 2.41868328e-02,
       -2.80365143e-02, -7.58264679e-03, 1.05601188e-03, -7.43251294e-03,
       2.80281034e-04, -2.18758732e-02, -2.27947137e-03, 2.30497494e-03,
       -3.40729835e-03, -1.85530260e-02, 2.36914889e-03, 2.52165943e-02,
       -1.23147992e-02, 7.08190259e-03, 1.97480191e-02, 1.69898029e-02,
       5.83215570e-03, 1.35069154e-02, -2.79092905e-03, -4.72956244e-03,
       3.41738425e-02, 8.38032458e-03, 1.13615477e-02, 5.62188774e-02,
       3.62316743e-02, 2.68254429e-02, 5.43990247e-02, 1.17273806e-02,
       -1.23589383e-02, 1.70694310e-02, 8.24166369e-03, 1.67332124e-02,
       3.00931046e-03, 6.65671704e-03, 3.05526908e-02, 3.43131498e-02,
       -9.67298448e-03, 3.45856044e-03, 3.14169098e-04, -4.47137456e-04,
       1.18183829e-02, -2.50698607e-02, -2.11941656e-02, 3.21664149e-03,
       1.59461275e-02, -2.79571563e-02, 3.45819793e-03, 4.30128016e-02,
       -7.70611735e-03, 3.25543783e-03, 1.37130842e-02, 9.82568972e-03,
       8.02967791e-03, 2.87017561e-02, 4.31526499e-03, -3.20066442e-03,
       4.85825203e-02, -7.17462087e-03, -2.87796068e-03, 2.04805695e-02,
       1.01400148e-02, 2.95219310e-02, 5.98627590e-02, 2.15009209e-02,
       -6.18832977e-03, -1.17931953e-02, 2.19846182e-02, 4.88196034e-03,
       -2.04503145e-02, -9.81357787e-03, -9.82299540e-03, 1.73678324e-02,
       -1.43931410e-03, 6.50469121e-03, -1.23704299e-02, -4.36513266e-03,
       3.60142463e-03, -2.60782875e-02, -1.55430948e-02, -1.90615375e-02,
       -1.13253118e-02, -8.80112778e-03, 5.61870355e-03, 2.76840236e-02,
       3.53166577e-03, 1.05531979e-03, 4.40717954e-03, 6.54197671e-03,
       1.77069083e-02, 2.25196835e-02, 7.34177558e-03, 5.46980416e-03,
       4.54930542e-03, -4.35748044e-03, 5.99403586e-03, 1.18979327e-02,
       -4.95757442e-03, 3.14518139e-02, 3.47711146e-02, 5.42240497e-03,
       -1.10564241e-02, -1.46576539e-02, 9.72273573e-03, 7.19612464e-03,
       4.00029542e-03, -2.30043009e-02, 6.90082088e-03, 2.32329834e-02,
       4.90436843e-03, -1.02402959e-02, -1.17337117e-02, 9.27717425e-03,
       9.21093207e-03, -3.29547860e-02, -2.11588088e-02, -5.14494115e-03,
       -6.47119852e-03, -8.95959418e-03, -3.90186743e-03, 5.03871031e-03,
       -3.73096042e-03, 4.02114727e-03, 8.59144703e-03, -5.16189146e-04,
       6.78500813e-03, 1.88119672e-02, -2.21950887e-03, 2.96469952e-04,
       8.25161021e-03, -5.87816467e-04, 1.61817409e-02, 1.82893220e-02,
       1.50877582e-02, 1.40767591e-03, 1.83878746e-02, -9.79056582e-03,
       -7.05521880e-03, -1.74843019e-03, -2.56262557e-03, 1.99931357e-02,
       2.35948544e-02, 5.73137775e-03, -5.39747067e-04, 6.07696641e-03,
       -2.65074968e-02, -6.11987151e-03, 5.65891678e-04, 3.66047752e-05,
       1.63482931e-02, 1.48999784e-02, -6.59423182e-03, -5.96668245e-03,
       -2.03918293e-03, -1.68812219e-02, 3.32156615e-03, 8.42727162e-03,
       -3.56950099e-04, 1.57817826e-02, 4.74007241e-03, 8.22196063e-03,
       2.86514144e-02, 4.69078422e-02, 2.39975099e-03, 2.74113100e-02,
       3.40879448e-02, 1.87324509e-02, 3.21779400e-02, 5.35846036e-03,
       -2.09229868e-02, 4.08009477e-02, 6.93809912e-02, -2.00805515e-02,
       -4.44945088e-03, 3.91710326e-02, -3.58760380e-03, 3.42180673e-03,
       -1.71629265e-02, -3.70984003e-02, 1.49762277e-02, 7.62678385e-02,
       -2.34302264e-02, 3.57515644e-04, 1.67684769e-03, -9.10482369e-03,
       6.20882213e-03, -7.53117912e-03, -1.94162261e-02, -3.26916575e-03,
       1.40867243e-02, -2.02216897e-02, 8.63462035e-03, -5.12275333e-03,
       -6.09481521e-03, 2.75187124e-03, 8.95036384e-03, 1.25532141e-02,
       1.15116108e-02, 1.46635231e-02, 1.84508986e-04, 1.00694755e-02,
       1.78496819e-02, -2.15173652e-03, 3.38638611e-02, 2.41769049e-02,
       -1.06774131e-02, 3.19724828e-02, 4.22419608e-02, 2.05116998e-03,
       -1.36892470e-02, 4.51754704e-02, -1.62581354e-02, 4.79358733e-02,
       1.38951614e-02, -4.32019420e-02, 1.38723198e-02, 6.67552650e-02,
       -4.23852839e-02, -1.38304569e-02, -2.28162464e-02,
       -3.95760452e-03, 2.05430984e-02, -9.59910825e-03, -1.76893212e-02,
       3.07076913e-03, 3.45020890e-02, -1.58650931e-02, -3.07990098e-03,
       -7.36824842e-03, 3.13447835e-03, 2.23401212e-03, 2.57594045e-03,
       6.45463495e-03, 6.90646283e-03, 9.96712479e-04, 1.10050431e-03,
       -1.24055007e-02, 6.46813540e-03, 1.21368216e-02, 1.63647719e-02,
       -2.38048863e-02, -3.54958512e-03, 3.85849588e-02, 7.13587552e-03,
       -2.95149721e-02, 4.90676891e-03, 1.62440650e-02, 5.83398947e-03,
       1.93875842e-02, -3.47046182e-02, -1.13519989e-02, 2.22517550e-02,
       8.58984236e-03, -2.45606489e-02, 2.09468696e-03, -4.85154381e-03,
       -2.61746626e-03, 1.23339752e-02, -1.23550855e-02, -1.54588548e-02,
       6.96755340e-03, 1.98756214e-02, 4.11178498e-03, -6.39875070e-04,
       -6.59830344e-04, -6.72514143e-04, 6.67337794e-03, 1.50054991e-02,
       1.09612793e-02, -6.01998996e-03, 3.79116670e-03, -5.67593891e-03,
       -1.25407672e-03, 2.02430529e-03, -6.51621306e-03, 1.60380546e-02,
       3.79239507e-02, 8.74874555e-03, -7.70050194e-03, 1.51414787e-02,
       -1.12356944e-02, -2.15615588e-03, 2.15945975e-03, -2.22115461e-02,
       3.32568549e-02, 8.24460462e-02, 3.89270463e-05, -6.64359052e-03,
       -6.16906851e-04, -1.53094269e-02, -5.04769105e-03,
       -6.97693368e-03, 1.06359017e-03, 2.22989470e-02, 5.68003133e-02,
       6.79952232e-03, -3.39631201e-03, -6.15513418e-03, 2.46661948e-03,
       1.62906724e-03, 9.79980733e-03, -2.39887950e-03, 6.68194238e-03,
       9.66520235e-03, 6.15141122e-03, -9.70450323e-03, 2.36492306e-02,
       4.80463635e-03, 1.41187375e-02, 1.21266758e-02, -6.44348469e-03,
       1.62160080e-02, 2.80826446e-02, 3.53277475e-03, -1.87651999e-02,
       2.70340275e-02, -1.27264829e-02, 5.47468336e-03, 9.55754705e-03,
       -1.00737801e-02, -8.76966584e-03, 5.39632514e-03, -1.11114690e-02,
       -1.85800362e-02, 2.87308358e-02, -2.46105506e-03, -6.05923031e-03,
       1.52607507e-03, -7.24384235e-03, -1.40844360e-02, 3.62575427e-02,
       -3.15629528e-04, 1.04321921e-02, 2.60148365e-02, 1.97047256e-02,
       -1.26225443e-03, 7.26505788e-03, 9.99158365e-04, 1.31994803e-02,
       9.64963634e-04, -3.43703851e-03, 1.60758180e-04, 1.37757193e-02,
       -7.41152419e-03, 1.59475729e-02, -2.18676240e-03, 6.84707332e-03,
       2.51346566e-02, 1.47567866e-02, 7.61443935e-03, -1.87144568e-03,
       1.65369250e-02, -5.26071992e-03, 1.62313227e-02, 2.25081053e-02,
       7.73580372e-03, 2.41437089e-03, -1.63844656e-02, 1.22392806e-03,
       3.28866653e-02, -1.60911004e-03, -2.56398972e-02, -1.29711293e-02,
       -8.38696316e-04, -5.08494955e-03, -1.19001111e-02, 2.25979537e-02,
       1.80183910e-03, 2.51832157e-02, 1.23002352e-02, 1.95125900e-02,
       5.42662991e-03, 1.04709261e-03, 7.13796413e-04, -9.03108902e-03,
       -1.97982062e-02, -1.89693714e-03, 8.15813802e-03, -1.33028785e-02,
       -7.32595520e-03, 9.82329343e-03, 2.49297312e-03, -4.36023343e-03,
       2.63186023e-02, 1.15667935e-03, -5.79528231e-03, 4.79000853e-03,
       -2.63545569e-03, 1.55355781e-02, 2.38301493e-02, 2.16124896e-02,
       7.12122128e-04, 8.15191027e-03, -2.61638663e-03, 2.59499438e-02,
       1.35059422e-02, -1.43627496e-02, -1.79041259e-03, 1.85811426e-02,
       7.52664218e-03, -2.95503554e-03, -1.23700742e-02, -2.16091576e-04,
       2.76696794e-02, 2.73097958e-02, -3.80908395e-03, -3.91841959e-03,
       6.09613373e-04, -2.14628805e-03, -6.18284568e-03, 4.22219513e-03,
       6.32154383e-03, -5.17863606e-04, -5.08715864e-03, 7.62620650e-04,
       9.50963062e-04, -4.22936107e-04, -2.34912173e-03, -3.30578489e-03,
       2.30481010e-03, 2.77156904e-02, 1.67112250e-03, -6.26872992e-03,
       -3.12001142e-03, 1.97392069e-02, 8.99428688e-03, -1.65353948e-03,
       -7.94420578e-03, 7.28679961e-03, 6.09981120e-02, -9.00258869e-03,
       -1.37686990e-02, 8.29925109e-03, 2.92779617e-02, 4.38014977e-03,
       -6.15718588e-03, -1.00305341e-02, 9.78925824e-03, 1.41558340e-02,
       1.09011512e-02, -4.45603579e-03, 1.34007754e-02, 1.26721300e-02,
       -5.66298561e-03, -3.82971927e-03, -2.78061558e-03, 1.44461388e-04,
       -1.20500673e-03, -4.67506936e-03, -1.03452969e-02,
       -2.51447782e-04, -1.63024044e-04, -1.27566746e-02, 2.65794341e-02,
       -1.19798491e-02, -2.63103116e-02, 2.39379052e-02, 1.08236924e-03,
       -9.65580903e-03, 2.62419749e-02, 1.36368182e-02, -1.02141732e-02,
       6.65617362e-03, -5.92023460e-03, -3.62212248e-02, 4.74537425e-02,
       -3.36663611e-02, -1.56030459e-02, 1.78522076e-02, 1.12288110e-02,
       1.31428835e-03, -3.75776854e-03, -1.00017013e-02, -3.87594290e-03,
       2.50746906e-02, -6.65522588e-04, -2.24104097e-05, 3.65990475e-02,
       1.76817514e-02, -7.11215567e-03, 4.63723019e-03, 4.63549513e-03,
       2.79379333e-03, 2.32544015e-04, -1.29626952e-02, -1.54116927e-02,
       -3.72688770e-02, -2.18717456e-02, 3.16371606e-03, 1.70218665e-02,
       -8.65815114e-03, -7.06407009e-03, 2.54713576e-02, -9.23210010e-03,
       -1.39200371e-02, -1.24025606e-02, 1.30632957e-02, 1.59829408e-02,
       1.45331640e-02, -3.11473105e-02, -1.29600428e-02, 8.96456745e-03,
       -2.68953405e-02, -1.54244974e-02, 1.40706997e-03, 2.89820004e-02,
       -1.05758486e-02, 1.75119173e-02, 2.33701128e-03, -1.62124522e-02,
       -4.11326718e-03, 2.24895426e-03, 8.99755582e-03, 1.54497707e-02,
       9.57686733e-03, 9.33585688e-03, 5.17292507e-03, 3.92989302e-03,
       -1.37013628e-03, -6.56928821e-03, 4.49851854e-03, -1.34183103e-02,
       -2.90953554e-02, -1.56932734e-02, 9.74989310e-03, 9.48562170e-04,
       1.00685628e-02, -6.42176159e-03, 6.06254581e-03, 1.51050221e-02,
       1.30133322e-02, -3.63995768e-02, -1.28983678e-02, -8.89671221e-03,
       -1.26328552e-02, -3.40297166e-03, 1.86321847e-02, 2.88179964e-02,
       -3.28406901e-03, 1.69854925e-03, -2.05585025e-02, 6.62962999e-03,
       -2.24433071e-03, 6.43084198e-03, -5.81132830e-04, -9.43751715e-04,
       3.84165603e-03, 5.33176912e-03, 1.77612193e-02, -1.31075615e-02,
       3.29893106e-03, 3.81998764e-03, 1.04163704e-03, -1.54373515e-03,
       2.32887291e-03, 4.97655431e-03, -4.54898924e-03, -3.92370112e-03,
       8.46797368e-04, 7.04858685e-03, 4.76389611e-03, -4.03267378e-03,
       -8.42468999e-03, 1.98815744e-02, -1.51143521e-02, 7.16722943e-03,
       -1.06475698e-02, 1.09619573e-02, 1.64231751e-02, 1.70874351e-03,
       1.00834481e-03, -7.11988471e-03, 1.66569799e-02, -2.72751153e-02,
       9.95293912e-03, 5.83910150e-03, 8.89053661e-03, 9.24410485e-03,
       -8.28717661e-04, -2.44202279e-03, 1.13241524e-02, 2.43477747e-02,
       1.26649039e-02, -9.59119177e-04, 4.51965118e-03, -5.23083960e-04,
       2.95775174e-03, -6.38869079e-03, -4.74065077e-03, 2.16407119e-03,
       -6.35993248e-03, 9.60254297e-03, -2.22220868e-02, -3.08361463e-03,
       2.88027758e-03, -5.61939436e-04, -1.17909191e-02, -3.58736329e-03,
       -1.68597070e-03, 4.05063033e-02, 2.55211024e-03, -2.89983279e-03,
       -1.74191725e-02, 3.52620296e-02, 1.91237405e-02, -2.39418615e-02,
       4.10251599e-03, -2.21688598e-02, 3.37410346e-02, -1.99462734e-02,
       6.34674728e-03, -8.29921849e-03, 6.91479370e-02, 2.03943290e-02,
       4.77187685e-04, -1.77347232e-02, 3.10353911e-03, 1.20839253e-02,
       1.91946502e-03, -7.47610466e-04, 9.05336253e-03, 2.18243599e-02,
       1.13656949e-02, -7.15711573e-03, 4.86774696e-03, -1.36546860e-03,
       -8.06616899e-03, -9.45989322e-03, -1.91574153e-02, 9.00140218e-03,
       1.04456311e-02, 2.47259391e-03, -1.98300797e-02, 6.12580124e-03,
       1.01099638e-02, -2.48863846e-02, -3.35453115e-02, -1.91157404e-02,
       9.02000628e-03, 1.09183015e-02, 1.29646445e-02, -2.65986845e-02,
       -1.24372821e-02, -2.25774087e-02, -6.25196053e-03,
       -2.42271684e-02, 1.95224036e-03, -2.10247096e-03, 6.78287446e-02,
       1.24255836e-03, -4.01005754e-03, -1.08150057e-02, -5.23132645e-03,
       -4.13024006e-03, -2.02146024e-02, -5.65902051e-03,
       -2.12667044e-04, 2.87016127e-02, 3.48323002e-03, -5.37844282e-03,
       -1.39895151e-03, 2.07081251e-03, 1.14211813e-03, -2.66574323e-04,
       -4.58096294e-03, 9.71658062e-03, 1.76091795e-03, 1.32064190e-04,
       -1.33439424e-02, 5.52917039e-03, 1.12169003e-03, -1.01036048e-02,
       -1.21546676e-02, -4.97342786e-03, 1.84474532e-02, -6.82831742e-03,
       8.03408492e-03, -1.14016123e-02, -1.96579192e-03, -1.22446613e-02,
       -9.71471891e-03, -8.07299186e-03, -1.16713941e-02,
       -1.10174352e-02, 3.09339203e-02, -8.38636607e-03, -4.63938667e-03,
       4.44404490e-04, -6.95386901e-03, -1.39871258e-02, -1.14853792e-02,
       -1.00220544e-02, -1.12918159e-02, 1.07774725e-02, 2.46114476e-04,
       -1.67880353e-04, 1.28725648e-03, 1.96937728e-03, 4.95411875e-03,
       -1.25641394e-02, -9.16076172e-03, -7.58982031e-03,
       -5.71873132e-03, -4.52250894e-03, 1.26938021e-03, 6.15700963e-04,
       7.49796443e-03, 2.18248218e-02, -5.29222609e-03, -1.98256150e-02,
       -2.37203110e-03, -7.57136056e-03, -3.11494083e-03,
       -2.27371324e-03, 1.03294533e-02, -3.80589673e-03, 1.97946467e-02,
       -1.69520208e-03, 3.68020348e-02, 1.01133750e-03, -1.02523984e-02,
       -9.48733930e-03, 2.19800044e-03, 4.94792312e-03, 2.45432812e-03,
       8.29894969e-04, 2.96355458e-03, 3.39598022e-02, 2.86230282e-03,
       -4.64995904e-03, -2.65266583e-03, -5.05138189e-03, 3.72035452e-03,
       3.14989034e-03, 1.51632931e-02, -8.19805637e-03, -1.50344791e-02,
       -2.82122828e-02, -6.91614300e-03, -3.56762111e-03, 2.44333321e-04,
       -2.44609583e-02, 1.02008050e-02, 4.17477414e-02, 9.79843270e-03,
       -8.74505658e-03, -2.35492829e-02, -6.72292523e-03,
       -5.51708415e-03, 1.03517540e-03, -1.46622388e-02, -3.65398005e-02,
       7.91522563e-02, 2.57815775e-02, 5.53122424e-02, -1.45958588e-02,
       9.88797564e-03, -3.39305811e-02, -3.86780710e-03, -8.10823217e-03,
       -6.64542895e-03, 1.41619379e-02, 7.94167165e-03, 2.27419361e-02,
       2.43832730e-03, -1.02686067e-03, -6.73167408e-03, -5.13008563e-03,
       -4.14630704e-05, 1.08738896e-02, 2.06891894e-02, -1.52503382e-02,
       -8.98737647e-03, -2.21571680e-02, 3.51117388e-03, -8.93077347e-03,
       -1.00960489e-02, -4.23533749e-03, 1.12054134e-02, 7.77673488e-03,
       1.07770422e-02, -1.19239679e-02, -1.52419182e-02, 2.54384577e-02,
       -2.04780307e-02, -1.15448143e-02, -6.49850443e-03,
       -2.05833875e-02, 4.52154055e-02, -2.34713801e-03, -1.95116866e-02,
       -3.72230774e-03, 4.96206135e-02, -3.17777880e-02, -1.67101473e-02,
       -1.10478494e-02, 1.19329868e-02, 2.18683742e-02, -3.91510352e-02,
       -1.25773409e-02, -6.44983724e-03, 8.58523604e-03, -1.03027271e-02,
       -5.08449692e-03, 9.56512813e-04, 8.39925371e-03, 9.16350260e-03,
       1.33982103e-03, -2.75956932e-03, -8.68337881e-03, -5.70926676e-03,
       -9.26357508e-03, -1.09322704e-02, 7.12963380e-03, 2.28929967e-02,
       -1.08739622e-02, -7.39993108e-03, -2.15653405e-02,
       -1.70205254e-02, 7.12904800e-03, -1.24299880e-02, -1.57238683e-03,
       -5.40781347e-03, 6.34266122e-04, -3.00770570e-02, -3.68123762e-02,
       -1.68377738e-02, 4.95464541e-03, 1.55438231e-02, -1.06720096e-02,
       -8.28218181e-03, -1.02240201e-02, 1.17501598e-02, -1.08916825e-03,
       -3.66026461e-02, -1.67654082e-02, -1.03558097e-02, 3.32529377e-03,
       5.02447656e-04, 4.34013596e-03, 1.11122290e-03, -3.99282062e-03,
       -2.74383952e-03, -1.44737354e-02, -6.80548698e-03,
       -6.38541242e-04, 1.67125079e-03, 4.02664114e-03, 4.95433807e-03,
       1.26053402e-02, 1.08302291e-02, -1.00391408e-05, -1.31306155e-02,
       -2.98561342e-03, 1.00893723e-02, -1.65267158e-02, 6.95085060e-03,
       -5.27569838e-03, 2.32503787e-02, -1.16843991e-02, 5.40199969e-03,
       -4.64197155e-03, -1.19697466e-03, -2.93711456e-03,
       -1.17249386e-02, -7.47109996e-03, 1.41586969e-03, 6.46261440e-04,
       -9.85518284e-03, 8.02374911e-04, -3.59157752e-03, -6.26613479e-03,
       -1.48641020e-02, -1.52317034e-02, -7.86653161e-03, 1.43808806e-02,
       1.01601519e-02, -4.93012136e-03, -3.13733262e-03, -5.07850898e-03,
       -1.67826992e-02, 2.05694158e-02, 7.55321933e-03, 6.91006193e-04,
       3.19112130e-02, 5.49738072e-02, 3.57246511e-02, -1.38345477e-03,
       -3.22105885e-02, -2.32095793e-02, 6.60686344e-02, -6.51245285e-03,
       1.98646486e-02, 1.20443467e-03, 4.94049340e-02, 8.56284285e-04,
       -1.39247412e-02, -1.84702184e-02, 2.68966220e-02, 2.12403070e-02,
       1.43962959e-02, -5.82844997e-03, -1.55551673e-03, -2.10634200e-03,
       -7.27542490e-03, 9.31347255e-03, -7.48145569e-04, -1.97212752e-02,
       -1.30530214e-02, -3.52375507e-02, -2.12245081e-02, 5.59804437e-04,
       2.06944197e-02, 1.08895786e-02, -5.36418194e-03, -7.11770408e-05,
       -2.65642665e-02, 1.63054354e-02, 2.84125432e-02, -8.59017950e-03,
       -1.67506561e-02, 2.23401897e-02, 8.50711241e-02, -1.74251664e-02,
       -7.88149424e-03, -1.81843527e-02, 7.72045776e-02, 2.69901082e-02,
       -7.21454900e-03, -2.23518685e-02, 5.46314940e-03, 3.44932824e-02,
       -2.92905774e-02, -2.71191951e-02, 2.63145007e-03, 1.95214860e-02,
       5.06010503e-02, -2.56349556e-02, 7.47246493e-04, 5.48398728e-03,
       -4.35386226e-03, -9.73204966e-04, -8.29547923e-03,
       -3.63567621e-02, -1.68641899e-02, -3.12409792e-02,
       -6.43825065e-03, -1.28398789e-02, 3.01912567e-03, 1.13348234e-02,
       -9.14449163e-04, 3.59694147e-03, -1.08360406e-02, 6.51266892e-03,
       9.89166182e-03, -1.95340626e-02, -1.79118067e-02, -1.14205722e-02,
       2.88620591e-02, -1.63958650e-02, 4.38021583e-04, -4.19087801e-03,
       6.46625832e-02, 2.35241582e-03, -4.62873504e-02, -1.75728891e-02,
       -3.79656861e-03, 3.19750495e-02, -2.05593780e-02, -1.47094950e-02,
       -1.44658005e-02, 1.68091953e-02, -9.77455755e-04, -3.16244215e-02,
       -4.74072713e-03, -7.48640799e-04, 1.91465209e-04, -3.63694446e-04,
       -5.14017185e-03, -1.58741716e-02, -5.09951543e-03,
       -1.65167917e-02, -6.05399301e-03, 2.30686180e-03, 1.35671394e-02,
       -5.15245367e-03, -4.26020299e-04, 4.60929936e-03, 7.74687855e-03,
       1.44126522e-03, 1.18791324e-03, -8.97769933e-04, -3.57059389e-03,
       1.18784448e-02, -6.61322474e-03, -2.39886902e-03, 2.94053811e-03,
       7.14394869e-03, -1.07465242e-03, 6.35345886e-03, -7.86980242e-03,
       -1.51866069e-02, -1.10866092e-02, 1.32233673e-03, -3.66520742e-03,
       1.11667381e-03, -1.91308022e-03, -4.55883238e-03, -1.21763293e-02,
       -1.63854584e-02, -4.29758336e-03, -8.08645319e-03,
       -3.66656436e-03, -2.81971297e-03, -8.40028375e-03, 8.53455800e-04,
       -7.83213228e-03, -2.03649011e-02, -1.69694070e-02, 7.78687838e-03,
       3.31064574e-02, -9.46269557e-03, -3.84393916e-03, -1.41718122e-03,
       1.17423441e-02, 2.11685784e-02, 1.55865122e-02, -1.84979849e-03,
       -1.21675571e-02, 3.87451518e-03, -1.03232032e-02, 9.59867239e-03,
       9.54164099e-03, -3.55502702e-02, 2.35516597e-02, 4.95789573e-02,
       -1.27781462e-02, -2.02240758e-02, -1.99006032e-02,
       -8.02491792e-03, 6.62437454e-03, 5.47895215e-05, -4.87077571e-02,
       -2.15971582e-02, 4.35689352e-02, -6.78750174e-03, -1.50897894e-02,
       -1.24778152e-02, -1.07744895e-02, 6.19430328e-04, -2.33236942e-02,
       -1.14752883e-02, -2.27624364e-02, -2.19691861e-02,
       -2.04986669e-02, 4.10836888e-03, 1.67449471e-02, -7.99417123e-03,
       -9.54661798e-03, -1.05049694e-02, -2.40670214e-03, 2.90266797e-02,
       3.96231227e-02, -5.61272586e-03, -8.58898740e-03, 1.11199655e-02,
       -1.03280740e-02, -1.45925321e-02, 2.29218397e-02, -2.10979618e-02,
       3.98524255e-02, 4.41309214e-02, -8.87147803e-03, 5.41228708e-03,
       -1.86715182e-02, -4.57167402e-02, 1.83189362e-02, 1.97514761e-02,
       -2.90072169e-02, 1.07895946e-02, 2.96398103e-02, -2.13368405e-02,
       -1.28019694e-02, -4.91276151e-03, -2.47707684e-02, 6.61927625e-04,
       -5.78217208e-04, -1.48662762e-03, -5.78549737e-03,
       -1.79377180e-02, -2.48706732e-02, -8.66649300e-03,
       -4.83658304e-03, 1.82284333e-03, -3.68435611e-03, -3.89840017e-04,
       -2.93828460e-04, 2.30081584e-02, 1.45414993e-02, -1.00982795e-02,
       -1.28571978e-02, -7.90884811e-03, -1.27371997e-02, 3.98064172e-03,
       1.03174848e-02, 7.61878444e-03, 4.74186204e-02, -9.47237713e-04,
       -2.34750528e-02, 1.14435861e-02, -1.19397594e-02, -1.94579680e-02,
       8.28713924e-03, 8.23897123e-03, -1.62999833e-03, 3.06517631e-02,
       -1.33466348e-02, -2.55958014e-03, 5.08607784e-03, -1.41900172e-02,
       -7.63124973e-03, 4.29549208e-03, 1.60847860e-03, -1.16756102e-02,
       9.53792594e-03, -6.29861234e-03, -3.35700624e-03, -1.53132027e-03,
       -3.49380216e-03, 1.66861122e-04, 3.87020595e-03, 1.06140105e-02,
       6.20243326e-03, -8.08339741e-04, 6.29646843e-03, -7.19450298e-04,
       -3.27907992e-03, 2.09164736e-03, 1.72382907e-03, 1.49376309e-02,
       1.51068112e-02, 8.20077676e-03, 2.74670147e-03, 7.23163248e-04,
       -9.81263630e-03, -1.08151911e-02, 7.77772581e-03, -1.24373436e-02,
       5.60772792e-03, -4.87544900e-03, -3.85818630e-03, 1.28817139e-02,
       -6.18226593e-04, -2.83592697e-02, -5.24291024e-03,
       -8.46875086e-03, -9.34790634e-03, 1.92481698e-03, -3.71710164e-03,
       -4.36431635e-03, 1.69954519e-03, 1.79919065e-03, -1.85003262e-02,
       -3.21010652e-04, 2.70690373e-03, 3.02717160e-03, 1.09138479e-02,
       1.13393050e-02, 5.84117696e-03, 1.42726232e-03, 3.17726471e-02,
       1.13058910e-02, 1.28857130e-02, 3.33782770e-02, 1.82329062e-02,
       4.25409526e-02, -6.55726530e-03, -7.85179343e-03, 9.84292105e-03,
       1.00025004e-02, -1.28696002e-02, 9.35420301e-03, 3.07702310e-02,
       8.52492079e-03, 2.67778281e-02, -3.28765698e-02, -2.50168480e-02,
       3.21874470e-02, -5.05199132e-04, -3.42371203e-02, -6.02654321e-03,
       -1.19613027e-02, -1.71228051e-02, -1.37781277e-02,
       -1.81299485e-02, -3.00184973e-02, 1.10034617e-02, 2.27507800e-02,
       -4.72306088e-03, 1.84869058e-02, 5.48700895e-03, -2.10594479e-02,
       1.40523426e-02, 7.98335858e-03, 3.04160058e-03, 2.59102080e-02,
       2.00160835e-02, 8.34378321e-03, 3.33570279e-02, 2.86822580e-02,
       -1.89924217e-03, 3.09551787e-02, 3.20560671e-02, 1.56725645e-02,
       3.92866470e-02, -1.03676282e-02, 7.34769972e-03, 1.48228081e-02,
       4.16798750e-03, 3.76945585e-02, 4.71401513e-02, 2.46386118e-02,
       -4.25250530e-02, 3.87360454e-02, -4.63521853e-02, -2.39055231e-02,
       -1.92582943e-02, -1.39002800e-02, 2.24102214e-02, -2.40636896e-02,
       -1.10017993e-02, -3.70735526e-02, 2.74732281e-02, 1.27014434e-02,
       -1.85642354e-02, 1.15012974e-02, -3.00623523e-03, -8.94721225e-03,
       3.67239001e-03, 3.28286667e-03, 6.63244026e-03, 2.52466090e-02,
       1.11117242e-02, 9.23661608e-03, 4.09887433e-02, 1.00478036e-02,
       -2.40257499e-03, 9.33121890e-03, 1.97602529e-02, -6.39118301e-03,
       4.56663445e-02, -1.23137999e-02, 9.35363397e-03, 2.27678083e-02,
       1.28107704e-02, 2.48130783e-02, 1.39145665e-02, 1.41369477e-02,
       -4.79680439e-03, -3.62245901e-03, -2.05449983e-02, 9.01540369e-03,
       -2.37007509e-03, -4.39475337e-03, 2.90180780e-02, -7.18673645e-03,
       -6.73285453e-04, -2.00669467e-02, 8.39515775e-03, 2.84811365e-03,
       7.84543634e-04, -1.08295862e-05, -2.15303386e-03, -3.92318424e-03,
       2.49936269e-03, 2.18024012e-03, 1.16021268e-03, 8.07632634e-04,
       3.92881548e-03, -2.91370577e-03, 5.41589165e-04, -4.60390653e-03,
       -1.19331470e-02, 1.20812813e-02, 1.18586496e-02, 6.46800920e-03,
       -5.97375352e-03, 2.39073811e-03, -4.01727669e-03, -5.54938754e-03,
       4.01742465e-04, -1.04522854e-02, 9.73790605e-03, 2.27334034e-02,
       -8.39828979e-03, 2.65976344e-03, -8.22678022e-03, -1.55093791e-02,
       -7.48185348e-03, -1.55487808e-03, -4.98986105e-03,
       -3.73884034e-03, 2.38855425e-02, -6.50555070e-04, 9.13936761e-04,
       -8.79558641e-03, -9.38195456e-03, 7.17898272e-03, 1.24735350e-03,
       1.98059110e-03, 2.78123585e-03, -1.28035876e-03, 9.80726327e-04,
       7.49951461e-03, 8.19289312e-03, 2.17711972e-03, 1.75703187e-02,
       8.02643970e-03, -2.09626891e-02, 2.63295081e-02, 1.23541094e-02,
       -2.79686712e-02, 9.33966599e-03, 2.82053296e-02, 3.78831252e-02,
       3.76113504e-02, 2.50727255e-02, -3.10534406e-02, 1.88907739e-02,
       -1.87048819e-02, -5.70128392e-03, 2.11216044e-02, 1.07466662e-03,
       1.84487607e-02, 1.26645379e-02, 8.28159694e-03, -1.07057244e-02,
       -2.74240021e-02, -2.07823720e-02, 8.55697785e-03, 4.01803777e-02,
       -6.42179511e-03, 2.03171046e-03, 3.93535098e-04, 4.39581228e-03,
       1.07544502e-02, 1.01859821e-02, 4.86977026e-03, -1.30572347e-02,
       3.12496610e-02, -9.85816866e-03, -1.12376753e-02, 8.82243458e-03,
       1.06604295e-02, 4.25299369e-02, 3.08623835e-02, 3.71490009e-02,
       -3.81460227e-02, 4.14099172e-02, 1.71558093e-02, -1.82462670e-02,
       2.87990645e-02, -1.79723483e-02, 2.08347384e-03, 5.60864769e-02,
       -1.36373369e-02, -2.27646772e-02, 5.14550926e-03, 1.85570307e-02,
       1.60812736e-02, -3.21758538e-03, -5.04545635e-03, -1.82296820e-02,
       -2.05186270e-02, -1.10759605e-02, 1.56488474e-02, 2.83425394e-02,
       -1.26998769e-02, 8.04306846e-03, 5.12212887e-03, 5.71311405e-03,
       6.19594101e-03, 9.66687629e-04, 4.42236569e-03, 9.86872823e-04,
       1.70686357e-02, 1.17314737e-02, 5.19838324e-03, 1.56486519e-02,
       1.37152905e-02, 3.42030376e-02, 1.57633778e-02, 3.24678198e-02,
       -2.03720573e-02, 3.82581726e-02, -3.31890187e-03, 3.44530540e-03,
       1.58116855e-02, 5.26899099e-03, 1.55000649e-02, 1.17651336e-02,
       1.67041048e-02, 3.29196360e-03, 2.43626237e-02, -2.23220282e-04,
       1.48620200e-03, -1.82261036e-04, -6.37219287e-03, -1.32006500e-02,
       -1.31226880e-02, 1.44983428e-02, -3.05881118e-03, -1.12562545e-03,
       1.46602993e-04, 1.38468742e-02, 1.67445658e-04, 2.17694347e-03,
       9.58702876e-05, 6.96927495e-03, 1.09602427e-02, -1.31922765e-02,
       -1.12293633e-02, -3.52951791e-03, 9.25084634e-04, -4.14226623e-03,
       -5.04761748e-03, -5.61426347e-03, 1.42023517e-02, 4.85624969e-02,
       -4.19705687e-03, -2.23132148e-02, -5.85248321e-03, 1.91061795e-02,
       -3.25708487e-03, -6.02044538e-03, -1.39992973e-02, 1.21586155e-02,
       4.27957550e-02, -4.59915493e-03, -2.17563268e-02, 2.31316290e-03,
       2.55690850e-02, -2.16062856e-03, 1.34943123e-03, -4.10844758e-03,
       1.66444178e-03, 6.92568906e-03, 1.65991927e-03, -6.37541525e-03,
       -1.26815233e-02, 5.17639937e-03, 1.07466169e-02, 1.06470203e-02,
       2.19868892e-03, 8.45701247e-03, -1.80047750e-03, -5.95792138e-04,
       -1.80194601e-02, -4.50715749e-03, 7.96632282e-03, 2.40426753e-02,
       1.02566388e-02, -7.93005340e-03, 5.81688620e-03, 2.97874194e-02,
       9.52473748e-03, 1.10969534e-02, -7.76230008e-04, 3.70931663e-02,
       1.49139287e-02, -9.63455532e-03, -1.94281228e-02, 5.02726175e-02,
       6.96442723e-02, -2.48402618e-02, -1.94935706e-02, -3.03572975e-02,
       6.16397262e-02, -3.70560284e-03, 1.23170381e-02, -1.16325496e-03,
       4.24844306e-03, 1.71578079e-02, 1.22428313e-02, -1.31303549e-03,
       -1.40382499e-02, 2.60539539e-02, 9.28049348e-03, -4.41101938e-03,
       1.11303860e-02, 1.62318628e-02, -2.51167314e-03, 7.65255652e-03,
       -1.14461984e-02, -3.32861841e-02, 1.63273234e-03, 2.92871594e-02,
       1.91985723e-02, -1.38143329e-02, -1.33816842e-02, 7.14513706e-03,
       3.57476622e-02, 8.95071961e-03, -9.23000369e-03, 2.63749901e-02,
       1.33313863e-02, -2.10221671e-02, -2.73092389e-02, 2.31497437e-02,
       3.95725779e-02, 2.54882704e-02, -2.76595596e-02, -1.94396134e-02,
       4.85923737e-02, 1.24735087e-02, 2.63518677e-03, -1.24775907e-02,
       6.42028404e-03, 2.56090146e-02, 1.24812992e-02, -1.81161042e-03,
       -7.43286079e-03, 2.22802255e-02, 1.08283600e-02, 2.54894770e-03,
       6.12365315e-03, 1.92502164e-03, 2.79071159e-03, 7.27453222e-03,
       2.17394903e-03, -2.67710034e-02, -5.81972580e-03, 8.35588761e-03,
       8.88290815e-03, -5.50483540e-03, -9.62276850e-03, 2.76520792e-02,
       1.01421997e-02, -1.25470189e-02, -3.21189240e-02, 2.24619471e-02,
       -2.23060627e-03, 1.12270592e-02, -9.59604420e-03, -1.42733119e-02,
       1.85020845e-02, -7.38283852e-03, -2.18490162e-03, -1.96606684e-02,
       3.60379033e-02, 1.19398357e-02, 8.60142894e-03, -1.10782441e-02,
       -1.23960413e-02, 6.40688045e-03, 1.53089827e-02, -2.44081090e-03,
       -2.09214948e-02, 1.27221700e-02, 5.37236687e-04, 3.54054268e-04,
       -4.01901733e-03, 3.30920913e-03, 9.15444922e-03, -3.11340881e-03,
       -2.58751400e-03, 2.99215666e-03, 7.27910222e-03, 1.29977451e-03,
       -2.06649915e-04, -2.09361454e-03, 8.24762415e-03, 7.28495093e-03,
       -3.05301131e-04, -4.16416628e-03, -4.75476170e-03, 2.20937356e-02,
       -7.47473352e-03, -9.98430047e-03, -8.00695270e-03, 3.01823262e-02,
       1.96233578e-02, 6.33566640e-03, -9.71059408e-03, 1.00131407e-02,
       1.63759254e-02, -6.09140238e-03, -7.98881333e-03, -1.02148354e-02,
       1.10572744e-02, 2.74474826e-02, 2.29714555e-03, 3.53879295e-03,
       8.65835417e-03, 3.02274362e-03, 1.58353022e-03, -2.78968294e-03,
       -5.52636513e-04, 9.69951227e-03, 8.18973500e-03, -1.39893349e-02,
       5.18348347e-03, -3.76171991e-03, 1.27180340e-02, -7.20039196e-03,
       1.38636129e-02, 5.06775267e-03, 1.55161778e-02, 1.71648078e-02,
       -2.71256082e-03, 3.94004257e-03, -2.58228672e-03, 3.01715825e-02,
       -4.84734820e-03, -6.02585543e-03, -9.25200817e-04, 3.71066816e-02,
       1.57847460e-02, -3.12991976e-03, 2.43850242e-04, 5.29852472e-02,
       2.32217796e-02, -6.96386443e-03, -1.68964043e-02, -6.84239902e-03,
       -1.52207597e-03, 6.10440550e-03, -1.14956975e-03, 4.56755701e-03,
       1.99768152e-02, 1.24853496e-02, -5.41355880e-03, -8.05515517e-03,
       3.34365084e-03, 6.21662429e-03, 2.63204845e-03, -8.08742642e-03,
       4.91025811e-03, -1.10538080e-02, 5.47806593e-03, -3.65484739e-04,
       -4.62138467e-03, -7.18772970e-03, 1.12404563e-02, 4.23142463e-02,
       3.75287537e-03, -2.62585864e-03, -1.63436346e-02, 2.22428888e-02,
       -1.05916765e-02, -2.52866335e-02, -1.42731145e-03, 1.62240807e-02,
       6.35833479e-03, -2.75856350e-03, 3.13855745e-02, 1.53384991e-02,
       1.60059445e-02, -5.15180465e-04, -2.17642803e-02, -5.17929439e-03,
       2.13932377e-04, -5.53036341e-03, -7.84305669e-03, -8.38918984e-03,
       6.09053858e-03, -1.55190434e-02, -1.09432265e-03, 1.01441816e-04,
       3.64776491e-03, -3.92933423e-03, -2.48655374e-03, -1.09796794e-02,
       7.51555013e-03, -1.48066832e-02, 3.98662966e-03, -1.20705971e-02,
       -8.63664970e-03, -2.92620086e-03, -1.23140672e-02, 1.34601630e-02,
       -4.54707006e-05, 1.99950463e-03, -3.40647064e-02, 8.14221799e-03,
       -1.58248283e-02, -1.74271353e-02, -1.50357315e-03,
       -7.14875059e-03, 6.53314730e-03, -1.01206666e-02, -1.14111556e-02,
       1.16026821e-02, -7.90854625e-04, -9.33554024e-03, 6.60943706e-03,
       -9.74229630e-03, -2.88215280e-03, -1.28986333e-02,
       -1.17039364e-02, -6.52858522e-03, 1.32147344e-02, -1.51801240e-02,
       -1.24049210e-03, 2.47943541e-03, 2.98779691e-03, 1.14033604e-02,
       2.67284457e-03, -2.87858723e-03, -9.59271938e-03, 6.05930516e-04,
       4.05895431e-03, 1.40284619e-03, 4.46261652e-03, -5.20932768e-03,
       2.54535284e-02, 4.18867432e-02, -5.53389080e-03, 4.03212756e-03,
       2.29884777e-02, 8.50432087e-03, 5.02615562e-03, 1.00548537e-02,
       5.60434349e-03, 1.91462431e-02, 4.84687537e-02, 9.88895353e-03,
       1.76262371e-02, 3.24473195e-02, 2.85162055e-03, -8.99217383e-04,
       1.83323515e-03, 2.52609830e-02, 3.63302743e-03, 4.02890984e-03,
       7.24521047e-03, 5.60144382e-03, 9.75875277e-03, -1.01668003e-03,
       -9.11215728e-04, 7.05584278e-03, 1.51344370e-02, 1.78645197e-02,
       9.44170868e-04, -1.41957346e-02, -1.78964417e-02, -5.46569936e-03,
       1.12072760e-02, 3.62561783e-03, 1.88911632e-02, 8.40296037e-03,
       -2.70878337e-03, -4.49239369e-03, -2.47472301e-02, 1.62990135e-03,
       3.37424353e-02, 1.20120673e-02, 1.88488048e-02, 2.45208181e-02,
       3.72163057e-02, -4.68086191e-02, -4.52424511e-02, 1.20476708e-02,
       7.53664374e-02, 3.42200585e-02, -5.69081958e-03, 4.49523723e-05,
       1.82984676e-02, 4.54294235e-02, -8.95083975e-03, -3.98871899e-02,
       -3.62279895e-03, 5.21575287e-03, 9.90921259e-03, 1.04266405e-02,
       -1.28599454e-03, 3.13013652e-03, 2.69195903e-02, 1.44309578e-02,
       -7.39450054e-03, -1.25867333e-02, -3.38946073e-03,
       -5.69323543e-03, -1.34885137e-03, 7.57677015e-03, -1.23297200e-02,
       2.31715925e-02, -3.01453518e-03, 6.10632356e-03, -9.59548459e-04,
       -1.61149334e-02, -7.88268261e-03, -2.03004479e-02,
       -5.83182182e-03, 3.26650683e-04, 2.25899555e-02, -6.11470602e-02,
       -4.42652451e-03, 1.84807852e-02, 3.10576595e-02, -7.42842490e-03,
       -1.85121223e-02, -2.06686966e-02, 2.87943501e-02, 2.76575722e-02,
       -2.14356296e-02, -3.68753597e-02, -1.75206289e-02,
       -4.27790359e-03, -1.40219517e-02, -1.02738598e-02,
       -1.84180390e-03, -7.29686799e-05, 1.49299931e-02, 2.11164053e-03,
       -3.55960801e-03, -4.75255353e-03, -3.63803725e-03, 1.94136687e-02,
       -1.03737821e-03, -2.25174930e-02, -1.50316919e-03, 7.68244965e-04,
       9.47216526e-04, -2.15256633e-03, 5.08695329e-03, -4.27339000e-06,
       -2.62822025e-03, -2.06121802e-02, -1.78812612e-02, 1.15166465e-02,
       -4.45509050e-03, 3.42206471e-03, -1.54813356e-03, 1.28612912e-03,
       -3.22366226e-03, -2.67102234e-02, -2.61374190e-02,
       -1.35475527e-02, 8.30318499e-03, 1.01094740e-02, 3.80684598e-03,
       -1.53413089e-02, -1.71958096e-02, -7.96105247e-03, 1.40029821e-04,
       -2.71440903e-03, 1.27690507e-03, 4.78393678e-03, 4.59537469e-03,
       -1.98721289e-04, 3.37205990e-03, -7.62803899e-03, -5.26388781e-03,
       1.13284653e-02, -1.48582296e-03, -3.98960477e-03, -3.49521730e-03,
       2.99936719e-02, -7.48127326e-03, 9.23385751e-03, 6.25583867e-04,
       3.30065638e-02, 1.34403119e-02, 2.08084006e-03, 3.09423558e-05,
       -3.32386885e-03, 1.43679157e-02, -6.32655621e-03, 8.92906450e-03,
       1.49431685e-03, 7.00544519e-03, 1.49201071e-02, 5.40550519e-03,
       3.90629377e-03, 1.75524550e-03, 7.33683119e-04, 1.45505974e-03,
       4.77133272e-03, -7.18763890e-03, -8.55312590e-03, -6.63017668e-03,
       8.11514352e-03, -9.17020813e-03, 3.94375902e-03, 1.22123584e-02,
       -1.30449503e-03, -1.78312580e-03, -1.87230390e-02, 2.26680283e-03,
       1.29671274e-02, -1.89143550e-02, -1.44404192e-02, -1.70229450e-02,
       4.38790768e-02, -1.55576356e-02, -2.89149163e-03, -1.64447371e-02,
       7.83162415e-02, 4.42118524e-03, -4.28778864e-02, -1.95453856e-02,
       -6.44417619e-03, 5.69134317e-02, -2.82885730e-02, -2.52221171e-02,
       -1.85965411e-02, 1.77559480e-02, 1.09851696e-02, -2.32833195e-02,
       -1.31447464e-02, 2.18613399e-03, 9.17163584e-03, 6.45099580e-03,
       -1.06188450e-02, -1.15837669e-02, -1.51002733e-02,
       -1.13192080e-02, -1.93351917e-02, 2.17628153e-03, -6.46912493e-04,
       1.44406138e-02, -3.38928751e-03, -2.58033164e-02, 2.83041084e-03,
       3.26393056e-03, 1.71980076e-03, -1.85145885e-02, 1.72351615e-03,
       8.42836965e-03, 4.36939038e-02, -3.23528014e-02, -3.00148278e-02,
       -4.63530943e-02, 5.20645007e-02, 3.41372341e-02, -1.27654066e-02,
       -3.18026245e-02, -5.93215041e-03, 4.27246727e-02, -2.87000537e-02,
       -2.75346469e-02, -2.72218548e-02, 1.67905353e-02, 2.09147111e-02,
       -3.09478957e-02, 4.71878098e-03, -1.67820172e-03, 6.29991991e-03,
       -5.08876843e-03, -1.66589562e-02, -6.57915603e-03,
       -3.21525745e-02, 3.22949723e-03, -2.95261070e-02, 1.02001068e-03,
       3.24141374e-03, 7.96853192e-03, 7.20896665e-03, 2.45997845e-03,
       1.29929595e-02, 1.02977622e-02, -1.83107164e-02, -1.22636305e-02,
       -2.14034517e-04, 2.21649297e-02, 3.08803078e-02, -1.89154744e-02,
       7.68425269e-03, 1.39519116e-02, 4.79330048e-02, 1.27461497e-02,
       -7.61121744e-03, -5.55776199e-03, -9.05329827e-04, 1.23023642e-02,
       -1.79589670e-02, 8.70083459e-03, 5.37719810e-03, 4.01552990e-02,
       -2.68293568e-03, -4.60021896e-03, 3.93922674e-03, 5.93013770e-04,
       6.29890291e-03, 4.87167342e-03, 8.75182264e-03, -5.61122177e-03,
       -1.42481951e-02, -5.05068665e-03, -1.23943845e-02, 2.30582315e-03,
       1.62231619e-03, -2.04658788e-03, -5.11460612e-03, -7.18006340e-04,
       -1.65210769e-03, 4.13869880e-03, 8.24717060e-03, 1.15210447e-03,
       4.35310323e-03, 1.84399833e-03, -3.74278403e-03, -8.19541886e-03,
       7.61507917e-03, -4.46142443e-03, 1.43840350e-02, 1.27092469e-02,
       5.99292247e-03, 8.83284118e-03, -4.57801018e-03, -1.90441702e-02,
       7.04382081e-03, 1.11361891e-02, -1.42406123e-02, 5.08398190e-03,
       -5.98627422e-03, -2.70866998e-03, 6.17803656e-04, -2.48546503e-03,
       -5.77447424e-03, -2.78289965e-03, 3.05637997e-03, -4.57154587e-03,
       -8.59527965e-04, -2.55465042e-03, -7.29944417e-03,
       -1.25003411e-02, -4.17435635e-03, 4.47097979e-03, -4.97075962e-03,
       -8.83318018e-03, -1.00218669e-04, 1.54245514e-02, 1.23268878e-02,
       -1.22971581e-02, -1.39032267e-02, 1.08567311e-03, -5.00683673e-03,
       1.20197255e-02, -3.22913937e-02, 4.06859629e-03, 5.56112193e-02,
       2.69136913e-02, -3.15102339e-02, 7.04418216e-03, -8.53468571e-03,
       4.10616212e-03, 3.81672336e-03, -1.63918268e-02, -1.08355740e-02,
       2.32806318e-02, 9.11239069e-04, 3.57019424e-04, 4.83079022e-03,
       -1.44642163e-02, -3.62409395e-03, -1.33869774e-03, 2.47896044e-03,
       -3.37535776e-02, 1.94052383e-02, -1.79619286e-02, -2.05560457e-02,
       -9.71078500e-03, -4.41230717e-04, -8.58930591e-03,
       -6.78780861e-03, -1.90040916e-02, 6.28287112e-03, 1.51635706e-02,
       2.29553953e-02, -1.69211775e-02, 1.47945958e-03, 6.87678764e-03,
       -1.48122618e-03, -4.32139961e-03, -3.17604728e-02, 1.26661384e-03,
       3.66783105e-02, 5.52457310e-02, -3.51138711e-02, 5.38558513e-03,
       -1.95988774e-04, -8.50227312e-04, -6.28051395e-03, 1.24917319e-02,
       -2.24651024e-03, 1.56279951e-02, 2.55213734e-02, -1.03271576e-02,
       1.17866052e-02, -9.42462031e-03, -1.60197355e-02, -1.30129699e-03,
       4.65137232e-03, -3.69296111e-02, 2.58609857e-02, -1.49125895e-02,
       -2.44875848e-02, -4.93100146e-03, -2.87656370e-03,
       -6.95061171e-03, 7.47488532e-03, 1.77901878e-04, 5.74111659e-03,
       1.95232593e-02, -1.65693555e-03, -6.94685243e-03, 1.15332135e-03,
       -7.43319653e-03, 1.52239930e-02, 9.27659043e-04, 8.58802814e-03,
       1.19368099e-02, 1.68974437e-02, 1.51610347e-02, -1.30566647e-02,
       2.55232118e-02, -5.25104906e-03, -3.29638831e-02, -2.37526745e-03,
       1.01781255e-02, -3.25317588e-03, 8.04436859e-03, -3.88815184e-03,
       -1.62401050e-02, 5.90482773e-03, -6.37798104e-03, -1.40716396e-02,
       1.22857315e-03, -7.33097295e-06, -1.53958863e-02, 4.17779526e-03,
       -5.15504647e-03, -9.28148103e-04, 1.67200714e-03, -4.11709677e-03,
       -5.98319527e-03, 7.20276404e-03, 1.87662034e-03, -4.91798762e-03,
       1.95726985e-03, 3.69298412e-03, 2.07576458e-03, -3.47218942e-03,
       -8.18121899e-03, 1.73799112e-04, 1.08809257e-02, -2.98072887e-03,
       -3.04381410e-03, 1.04990778e-02, -3.31874401e-03, -5.31996973e-03,
       -5.14486805e-03, -9.24759638e-03, 1.05115138e-02, 1.51121372e-03,
       -1.20656015e-02, -1.09992232e-02, 9.46702808e-03, -2.35705227e-02,
       -1.12156691e-02, -6.64450089e-03, 1.85384054e-03, 5.70679130e-03,
       -2.19062530e-02, -7.56181916e-03, -9.66078881e-03, 1.07442541e-02,
       -9.80020966e-03, -1.09017305e-02, 1.21847319e-03, -1.11461030e-02,
       -3.58998775e-03, 8.43144394e-03, 4.47140494e-03, -3.23111052e-03,
       1.89476162e-02, 9.34588537e-03, 7.08277384e-03, 2.78398190e-02,
       -2.72829295e-03, 7.34282471e-03, 3.87477614e-02, 2.72227395e-02,
       -3.74730490e-02, 6.42299429e-02, 1.18102133e-02, -1.09412568e-02,
       2.12645084e-02, 2.10680347e-02, 1.26231823e-03, 3.58268246e-02,
       1.33520188e-02, -1.26748197e-02, 1.05578015e-02, -2.36657709e-02,
       -8.17095302e-03, -7.12756487e-03, 8.87310784e-03, 3.09430528e-02,
       -2.23101247e-02, -2.35211896e-03, -2.92890221e-02, 1.25503717e-02,
       -2.57096179e-02, -1.67848393e-02, 1.39203696e-02, -2.70929746e-03,
       -1.33701824e-02, 2.17536464e-03, 8.78733397e-03, 1.52333202e-02,
       1.96193326e-02, 1.44604556e-02, -8.31725774e-05, 6.03789613e-02,
       1.97823849e-02, -2.98159267e-03, 2.85890661e-02, 3.20574157e-02,
       -2.08998639e-02, 5.88999167e-02, 1.43379075e-02, -1.83167141e-02,
       2.55816467e-02, 1.83114503e-02, 5.15811285e-03, 4.58667949e-02,
       2.71189883e-02, -3.45745683e-02, -5.08502685e-03, -3.80475004e-03,
       1.12422043e-02, -6.97986316e-03, -2.87632784e-03, 3.34094130e-02,
       -1.47648780e-02, -1.90746284e-03, -2.81017479e-02, 1.65891554e-02,
       -3.76675725e-02, -7.59912375e-03, 1.23915551e-02, 1.30148407e-03,
       -1.36862500e-02, 2.55732471e-03, 7.88184255e-03, 7.52298906e-03,
       7.42004206e-03, -1.18367367e-04, -4.04250482e-03, 1.73665807e-02,
       1.01876799e-02, -9.93938278e-03, 1.07529957e-03, 6.36422029e-03,
       -7.05521600e-03, 2.81710667e-03, 1.88202281e-02, -5.56469196e-04,
       -2.31400281e-02, 1.54900849e-02, 7.76809780e-03, -6.54380582e-03,
       3.67798470e-03, -2.73814425e-02, -4.88572195e-03, -4.45499271e-03,
       -5.36560034e-03, -2.27690227e-02, -2.08228473e-02, 2.00744309e-02,
       -4.53467807e-03, -1.64866429e-02, -1.60543825e-02, 5.47265867e-03,
       -1.53692467e-02, -6.02238718e-03, -4.06535156e-03,
       -7.46010337e-04, 4.67584003e-03, 1.85679679e-03, -2.90569704e-04,
       -4.89136484e-03, 5.86579135e-03, -2.41293758e-03, -3.11579579e-03,
       -3.20270355e-03, 2.96161207e-03, 1.23051982e-02, -7.21782213e-03,
       9.35745053e-03, -1.06571680e-02, 1.63151957e-02, 7.36999884e-03,
       -6.76391134e-03, -4.13676770e-03, -8.95290729e-03,
       -5.26714791e-03, 5.49393008e-03, -7.12511875e-03, -4.97259293e-03,
       1.00309048e-02, 8.70060828e-03, 1.40012451e-03, -1.50015170e-03,
       8.43369489e-05, -6.18169084e-03, -1.78590626e-03, 1.57673936e-03,
       2.70863646e-03, 3.95462988e-03, -8.73673800e-03, -2.20841775e-03,
       6.37395633e-03, 8.17059446e-03, 4.35671164e-03, 1.23491073e-02,
       7.98526313e-03, -1.54894660e-04, 9.73298866e-03, 1.13085397e-02,
       -9.80417943e-04, 1.79102905e-02, 1.75834130e-02, 4.49037552e-02,
       2.19707265e-02, 5.07510863e-02, -3.66244763e-02, 6.40968233e-02,
       1.64063871e-02, 1.29396552e-02, 8.40996299e-03, -1.28419918e-03,
       1.92746855e-02, 2.53055780e-03, 1.32556092e-02, -2.00790120e-03,
       5.04066832e-02, 1.84548050e-02, 6.32457249e-03, -1.33094680e-03,
       -1.22744804e-02, -1.06668212e-02, -3.62040363e-02, 4.17663949e-03,
       -2.26062676e-03, -2.43506045e-03, -8.35086685e-03, 2.17906367e-02,
       9.92579386e-03, 1.08731734e-02, 8.87897040e-05, 1.59156080e-02,
       8.57057888e-03, 9.02116764e-04, 1.60280913e-02, 2.24804832e-03,
       6.93915412e-03, 5.02593592e-02, 3.01513597e-02, 3.66408527e-02,
       2.16767322e-02, 2.34341938e-02, 1.56768819e-03, 9.16335136e-02,
       -1.53570864e-02, 2.07315981e-02, 3.60866869e-03, 3.14496458e-02,
       2.27550101e-02, 1.65908644e-03, 1.46338651e-02, 1.22150062e-02,
       4.35680859e-02, 7.33400229e-03, 1.97578762e-02, -5.69153519e-04,
       -2.77942736e-02, -1.13571296e-03, -1.86401550e-02, 1.67995747e-02,
       -2.27963529e-03, -6.60629850e-03, -1.99912935e-02, 3.42624970e-02,
       -8.76094273e-04, 6.07562251e-03, 4.96190926e-03, -6.47009801e-05,
       -2.19459063e-03, -5.31424722e-03, 1.11052264e-02, -6.19311118e-03,
       -1.53182703e-03, 2.15050615e-02, -7.47897010e-03, 2.30206419e-02,
       7.47534819e-03, -1.40197976e-02, 3.23361461e-03, 3.46926749e-02,
       -1.62913669e-02, -1.65690877e-03, 1.92651246e-02, 1.34901805e-02,
       -1.22819543e-02, -4.52751294e-03, -7.44844740e-03, 2.03588698e-03,
       1.14434399e-02, -1.63974951e-03, -1.86468605e-02, -4.33042785e-03,
       -1.07079614e-02, -5.09656174e-03, 1.18917356e-04, 4.92768688e-03,
       -1.08094094e-02, 9.52180300e-04, 7.35629862e-03, 2.22987449e-03,
       1.42089103e-03, 2.19602254e-04, 1.42561062e-03, 9.28945467e-03,
       6.90300367e-05, -1.09213078e-03, -8.38521123e-03, -6.09914074e-03,
       1.68619154e-03, 4.88656573e-03, 6.53074123e-03, -4.07745922e-03,
       1.94281095e-03, 1.97733510e-02, 8.31753109e-03, -8.94938130e-03,
       -4.23739478e-03, 1.26329949e-02, -7.78976455e-03, -1.54094854e-02,
       -4.86632716e-03, 1.42010320e-02, 5.06549608e-03, 6.14975858e-03,
       -1.36627937e-02, -2.30314466e-03, 1.94373447e-02, -3.29816481e-03,
       -5.26761077e-03, -7.12913880e-03, 1.35362409e-02, 1.06424950e-02,
       2.42025126e-03, 8.89883784e-04, -5.32808481e-03, 6.52744807e-03,
       1.18295290e-02, 8.18166882e-03, 9.80549492e-03, 4.97940183e-03,
       2.59717926e-02, -5.11043007e-03, -1.71105284e-02, 4.93639731e-04,
       9.60908458e-03, -6.90419646e-03, -2.62830639e-03, -8.61060619e-03,
       3.73750506e-03, 7.34431297e-02, 4.04694583e-03, -3.15164477e-02,
       -1.01186242e-02, 4.18732986e-02, -6.53324788e-03, -1.66151840e-02,
       -2.48927083e-02, 2.76187994e-02, 5.72339073e-02, 1.42783066e-02,
       -2.05488764e-02, -3.90596278e-02, 5.02048992e-02, 1.76721194e-03,
       -4.42827772e-03, -1.70498975e-02, 7.96181615e-03, 2.34129522e-02,
       2.58559063e-02, -3.58187011e-03, -2.06153672e-02, 2.32349839e-02,
       1.02315256e-02, 1.11565590e-02, 1.61838494e-02, 6.09980617e-03,
       2.47140285e-02, -1.33042189e-03, -1.02829197e-02, -2.66520642e-02,
       2.18018088e-02, 3.97980586e-02, -1.97216589e-02, 1.27556501e-03,
       2.32444610e-03, 3.41695622e-02, 1.63613297e-02, -2.27776431e-02,
       -3.72450724e-02, 8.11559558e-02, 5.69641292e-02, -1.10116731e-02,
       -4.31597605e-02, 6.86021987e-04, 3.28080729e-02, 2.82048788e-02,
       -2.76795495e-02, -2.18892731e-02, 4.87462766e-02, 2.37752646e-02,
       -1.88845918e-02, -1.42456777e-02, 1.62707083e-02, 2.44458094e-02,
       9.79103986e-03, -1.49907377e-02, -5.76469162e-03, 3.72532122e-02,
       7.71729415e-03, 8.43483768e-03, 2.58817803e-03, -2.11879192e-03,
       9.46925394e-03, -3.39530245e-03, -2.37449817e-02, -6.91842940e-03,
       -8.61059129e-03, 5.07279346e-03, -1.88136790e-02, 3.99983814e-03,
       1.76065750e-02, 2.80353986e-02, 9.91818309e-03, -7.41760107e-03,
       -8.30981694e-03, 2.40287706e-02, 1.87354162e-02, -7.38330977e-03,
       -1.48690855e-02, -1.19894268e-02, 1.97971482e-02, 3.43385972e-02,
       -1.51709011e-02, -1.24162380e-02, 2.08998676e-02, 3.57322544e-02,
       -4.10670135e-03, -4.23631538e-03, -4.51085623e-03, 9.98029578e-03,
       9.70124360e-03, 2.79889768e-03, -1.08297104e-02, 1.13248033e-02,
       -8.48093419e-04, -1.23280857e-03, 2.21272605e-03, 4.87214327e-03,
       -6.77354168e-03, -1.50856934e-02, -2.91318865e-03,
       -8.46219889e-04, 3.76132713e-03, -1.31508789e-03, -4.15456481e-03,
       2.13707960e-03, 1.17709376e-02, 1.66516076e-03, -4.20694752e-03,
       1.09749555e-03, -7.73220928e-03, 8.77492223e-03, -5.98135870e-03,
       -1.46535961e-02, 3.68320406e-03, 1.31165748e-02, 1.43800396e-03,
       9.61792096e-03, 1.22363903e-02, 3.08268168e-03, 6.72558602e-03,
       -9.94457514e-04, -6.89719059e-03, 8.14519450e-03, 9.92305949e-03,
       1.01527777e-02, 4.63609258e-03, -2.64454470e-03, -1.01185953e-02,
       -1.16672441e-02, 4.18843282e-03, 5.85519057e-03, 7.84502923e-03,
       9.93226748e-03, 6.35915250e-03, -2.02352069e-02, 1.08080581e-02,
       -3.48434434e-03, 7.15893693e-03, -4.45049163e-03, -1.36676896e-02,
       9.78621840e-03, 4.35941620e-03, 2.35557333e-02, 9.20760818e-03,
       1.93337426e-02, -1.02955718e-02, 2.00237129e-02, -7.09970016e-03,
       -2.34923176e-02, -1.81872537e-03, 6.75225491e-03, 3.98882739e-02,
       9.82387224e-04, 2.16013473e-03, 2.27599274e-02, 3.33956964e-02,
       -7.97458831e-03, -2.58313539e-03, -2.38976181e-02,
       -2.62881280e-03, 6.64303638e-03, 1.77587960e-02, 6.72227331e-03,
       7.74805807e-03, -2.82017910e-03, 1.43696936e-02, -1.38819928e-03,
       4.64112544e-03, 9.02929995e-03, 1.11480104e-02, -6.52771583e-03,
       9.08755884e-03, -8.90971068e-03, -6.67561404e-03, 2.31931508e-02,
       -1.18594747e-02, -2.07736995e-03, -2.70733936e-03, 2.22035628e-02,
       -6.31307438e-03, 8.40727147e-03, 6.18967926e-03, 3.12813818e-02,
       1.77623313e-02, 9.96912085e-03, -1.40309362e-02, -2.52257213e-02,
       1.49570787e-02, 3.63521799e-02, 4.99755740e-02, -2.73582637e-02,
       3.02765649e-02, 1.41252461e-03, -1.17300376e-02, -2.02821717e-02,
       -9.81547963e-03, -6.22858433e-03, 1.51523212e-02, 9.52255819e-03,
       1.52357051e-03, 3.72506655e-03, 5.14340959e-03, -3.48294643e-03,
       2.54172063e-03, -3.97113618e-03, 2.57102284e-03, 2.24764086e-03,
       2.58307741e-03, -1.80550180e-02, -1.71956848e-02, 2.78571434e-02,
       -1.02026751e-02, 8.51990376e-03, -3.86732607e-03, 1.58698615e-02,
       7.68713607e-03, -3.35402437e-03, -1.09587796e-02, -1.42332760e-03,
       2.45369580e-02, -1.04294636e-03, -1.53952232e-02, -1.38930138e-02,
       1.44814337e-02, -2.96836300e-03, 2.77928542e-02, 1.61461793e-02,
       5.03623066e-03, 1.08894557e-02, 1.02223204e-02, -8.91993381e-03,
       -2.73336982e-03, 4.71012294e-03, -2.70575751e-02, -3.97694716e-03,
       -2.90202838e-03, 6.42904965e-03, -6.99406024e-04, 9.50261659e-04,
       7.99335912e-03, 5.49779320e-03, -2.34707212e-03, 4.90725180e-03,
       -2.42331275e-03, 3.95046268e-03, 2.59298133e-03, 1.76337291e-03,
       2.94772279e-03, 9.52387974e-03, -5.75065031e-04, 1.08604813e-02,
       1.69451535e-02, -1.49815681e-03, -4.75160265e-03, -3.65725113e-03,
       5.90098649e-03, 3.56868771e-03, 1.59413666e-02, -7.09016901e-03,
       9.57385171e-03, 2.18848828e-02, 1.81745905e-02, -1.53505784e-02,
       -1.23387370e-02, -9.80739575e-03, 4.59372764e-03, 2.07898952e-02,
       8.47394858e-03, 5.94797824e-03, -4.56286408e-03, -2.06636731e-03,
       -5.53330360e-03, -8.82479362e-03, -2.69707845e-04, 4.95566847e-03,
       1.57986395e-02, 7.75431003e-03, 1.03121449e-03, -6.76467409e-03,
       -4.66171536e-04, 1.44848144e-02, 5.37979370e-03, -2.40912139e-02,
       1.79115478e-02, -1.74749307e-02, 3.38756759e-03, 5.29798400e-03,
       4.58308533e-02, -3.82825918e-03, 2.26330403e-02, -2.31592450e-03,
       -2.93558743e-02, 2.12983824e-02, -6.91823079e-04, 1.32533461e-02,
       -2.04773825e-02, 3.43719870e-02, 7.05596805e-03, -1.91835128e-02,
       -3.28571312e-02, -3.87450531e-02, 4.82011400e-03, 1.27641670e-02,
       2.34106947e-02, 1.46433082e-03, -1.38055896e-02, 6.93601265e-04,
       -9.68772173e-03, -2.24903524e-02, 2.13963119e-03, 1.31875603e-02,
       1.74722709e-02, -2.23433296e-03, -2.81729898e-03, 1.30635155e-02,
       1.88437253e-02, -1.53833479e-02, -2.29459372e-03, -1.76896364e-03,
       1.08871926e-02, -1.01851225e-02, -9.43009555e-03, -3.15802805e-02,
       3.79496329e-02, -4.33726609e-03, 9.83981322e-03, 2.32942346e-02,
       -1.28139518e-02, 3.00195105e-02, 2.51332717e-03, -1.67074567e-03,
       -7.13563412e-02, -2.17250716e-02, -1.52390043e-03, 2.06642020e-02,
       2.46589687e-02, -1.13880010e-02, 3.87175642e-02, 3.64869647e-03,
       -2.51158476e-02, -4.90844697e-02, -5.68730710e-03, 5.78127103e-03,
       -1.49878673e-02, -1.23294361e-03, -8.98955681e-04, 5.10372082e-03,
       7.85466004e-03, -1.67156383e-03, 3.65902670e-03, 2.27674749e-03,
       3.84875899e-03, -2.61924835e-03, -5.51926764e-03, -8.41560028e-03,
       6.74611609e-03, 6.67862687e-03, 4.55324911e-03, 9.98570211e-03,
       -7.87811726e-03, -1.07627660e-02, -2.93334806e-03, 8.65303352e-03,
       -1.90604609e-02, 6.17712096e-04, 2.56825406e-02, -4.80302610e-03,
       6.09011902e-03, -1.28954547e-02, -5.31652942e-04, 1.14118895e-02,
       2.10574437e-02, -7.14673102e-03, 1.77836642e-02, 2.91885827e-02,
       -1.21289110e-02, -1.55181875e-02, -1.00197131e-02,
       -8.54791317e-04, -8.02957453e-03, -3.01893894e-03, 1.98939815e-03,
       8.33731028e-05, 2.91242311e-03, -1.57876231e-03, -1.25444215e-02,
       4.71175555e-03, 6.48522424e-03, 3.03795561e-03, -4.70214151e-03,
       -3.62670771e-03, -9.03258391e-04, 1.04200970e-02, -9.64546576e-03,
       -1.89929791e-02, -8.46107770e-03, 2.64702532e-02, 1.96433906e-02,
       -7.43585778e-03, -1.25041502e-02, -4.71170119e-04, 1.31212017e-02,
       -4.93689254e-03, -1.20233204e-02, -8.41015950e-03, 7.10617658e-03,
       4.68118768e-03, -2.16937959e-02, 2.63042678e-03, -6.87562628e-04,
       3.56739317e-03, 2.93874810e-03, 3.05733923e-03, -5.67790773e-03,
       -1.67298429e-02, -3.05088330e-03, -2.01514941e-02, 1.19812402e-03,
       1.51914300e-03, 1.23174256e-02, 9.71940532e-03, 1.86151083e-04,
       1.32721094e-02, 2.76119653e-02, 1.99302915e-03, -1.29150972e-02,
       -2.38310298e-04, 1.87416002e-02, 4.91219945e-02, -9.79198609e-03,
       -7.05724582e-03, 1.21979630e-02, 7.64642954e-02, 4.07674648e-02,
       -1.31202210e-02, -8.30547884e-03, -8.26137140e-03, 3.21841463e-02,
       -1.93468984e-02, -1.91628058e-02, -4.13694698e-03, 6.49074018e-02,
       2.40586558e-03, 1.64698157e-03, 8.10858794e-03, -1.87348400e-03,
       8.84626713e-03, 8.83015525e-03, -1.14620756e-03, -2.26458330e-02,
       -1.95984729e-02, -2.60114241e-02, -1.88574474e-02,
       -4.55853157e-03, -9.77779273e-03, 1.20760826e-02, 1.87708549e-02,
       1.21910917e-02, 5.46830054e-03, 2.09081136e-02, 8.48205574e-03,
       -7.78993452e-03, -4.35238518e-03, -8.13290384e-03, 6.92494810e-02,
       4.03771214e-02, 4.39134315e-02, 5.43275324e-04, 4.23732810e-02,
       3.20319049e-02, -2.19404027e-02, 1.86991859e-02, -3.21464986e-02,
       6.36394992e-02, 1.72136854e-02, -7.54936645e-03, 9.59502719e-03,
       2.54840869e-03, 1.67872794e-02, 6.02345914e-03, 1.46767450e-02,
       -5.12843858e-03, -9.57923662e-03, 5.16623864e-03, -6.14521466e-03,
       -3.15080471e-02, -1.48580465e-02, -2.15436686e-02,
       -5.45827346e-03, -1.45456251e-02, -9.24092997e-03,
       -5.81084925e-04, 5.40713966e-03, 5.04589034e-03, 2.70784902e-03,
       -1.73932849e-03, 1.11740083e-03, -1.26759103e-02, -7.36305723e-03,
       3.03465105e-03, 2.72222478e-02, 1.17246863e-02, 8.30821134e-03,
       -1.23704486e-02, -1.66484341e-02, 2.53635664e-02, -6.77939598e-03,
       7.88181275e-03, -1.09298741e-02, 2.16850452e-02, 7.07163243e-03,
       -5.26434043e-03, -1.26850940e-02, -7.80976890e-03,
       -2.88958079e-03, -5.63271530e-03, 2.16852874e-04, -3.97058064e-03,
       -1.32690556e-02, 6.39498234e-03, 3.60508013e-04, -1.09607335e-02,
       -1.18523445e-02, -2.39703339e-02, 6.37786638e-04, -1.22888491e-03,
       1.11586472e-03, -5.21758618e-03, -2.51129200e-03, -4.68913326e-03,
       6.15978939e-03, 1.36938030e-02, 8.76546279e-03, -1.58589636e-03,
       1.03693204e-02, -1.86982646e-03, -6.57450547e-03, -3.85724916e-03,
       -6.22921064e-03, -3.72726144e-03, 7.22607551e-03, 2.34568361e-02,
       3.18407809e-04, 8.42468161e-03, -1.61993492e-04, -1.34921763e-02,
       8.68909177e-04, 1.08312275e-02, -6.71117660e-03, -2.96185084e-04,
       7.94134662e-03, -7.15740374e-04, 4.29911772e-03, 1.54186774e-03,
       -8.75183847e-03, -1.33345043e-03, 5.05045941e-03, -6.90265931e-03,
       4.44868160e-03, -1.40749165e-04, -6.69515878e-03, -8.67267430e-04,
       -4.34638886e-03, -7.35055702e-03, 1.09021123e-02, -9.02621634e-03,
       1.55196004e-02, 4.42426540e-02, 8.03756248e-03, -1.21134952e-04,
       1.78206954e-02, -9.17949062e-03, 1.77946000e-03, -3.92820686e-03,
       -1.66755281e-02, 2.35293955e-02, 5.16695417e-02, 1.46612786e-02,
       -8.44779331e-03, 4.09544893e-02, -9.79563873e-03, -4.06681597e-02,
       9.76648647e-04, -4.13416140e-03, 6.12445734e-03, 2.36609783e-02,
       1.99715164e-03, -2.62891762e-02, 6.97485730e-03, -2.46239058e-03,
       -1.42576424e-02, 4.14965814e-03, -1.15214800e-02, -2.18697172e-02,
       -8.08926765e-03, -3.01421201e-03, -6.28319429e-03, 9.92320385e-03,
       -1.91553254e-02, 1.30085154e-02, 3.04477345e-02, -9.43950843e-03,
       2.51015015e-02, 1.86826568e-02, 1.64394919e-02, 4.52683866e-03,
       1.19205918e-02, -7.67145166e-03, -3.71449930e-03, -1.18313078e-02,
       -2.70926319e-02, 2.54141223e-02, 8.82304609e-02, -5.64808212e-03,
       -4.76956088e-03, 1.29708080e-02, 1.66330636e-02, -1.38894441e-02,
       -2.43177097e-02, -2.62932144e-02, 1.95375849e-02, 2.55134311e-02,
       -3.44094187e-02, -3.15375403e-02, 2.93549593e-03, 1.91699713e-02,
       -1.88831277e-02, -1.32053513e-02, -1.66618414e-02,
       -3.53225432e-02, -3.01666334e-02, -5.90049010e-03,
       -3.72299105e-02, 2.61986116e-03, -9.84595250e-03, 1.30440369e-02,
       1.52037796e-02, -1.97306811e-03, 6.02404168e-03, 3.13413166e-03,
       -1.77447055e-03, 6.57786243e-03, -9.30558331e-03, -1.76561605e-02,
       8.46723188e-03, 1.05334390e-02, -1.58346519e-02, 9.45674628e-03,
       2.33291630e-02, -8.10499303e-03, 2.42828764e-02, -3.31881712e-03,
       -9.32542316e-04, -3.94084724e-03, -1.11053167e-02,
       -2.81574968e-02, -1.59854665e-02, -8.79980624e-03,
       -1.97036285e-02, 1.23739731e-03, -5.41874021e-03, -1.53092190e-03,
       -1.15038780e-02, -8.37801583e-03, -1.03378864e-02,
       -3.76394205e-02, -2.00793855e-02, -1.37137035e-02,
       -1.30369440e-02, 3.34670348e-03, -1.18087640e-03, -5.86842140e-03,
       4.25218325e-03, 6.62295008e-03, 5.03415288e-03, 1.17840692e-02,
       1.16708027e-02, 1.36555545e-03, 1.69767886e-02, -5.38507476e-04,
       -7.31342472e-04, 1.62100699e-02, 2.38491260e-02, -1.50950216e-02,
       1.59143694e-02, 1.15147466e-02, -8.74862948e-04, 7.24923192e-03,
       9.17729829e-03, 1.61020365e-02, 4.78842156e-03, 2.00324412e-02,
       -1.30529096e-02, -1.09194051e-02, -1.33381761e-03, 6.38982328e-03,
       -1.46577644e-04, 2.43372959e-03, 9.87085234e-03, -1.35672968e-02,
       2.46759807e-03, -2.20450177e-03, 1.20580858e-02, -4.92543355e-03,
       2.73459184e-04, 1.63785610e-02, -3.29661020e-03, -1.57601237e-02,
       1.25308782e-02, 1.17854811e-02, 1.15185259e-02, 2.60240976e-02,
       1.70324575e-02, -2.80296011e-03, 3.61968055e-02, 1.31429350e-02,
       -2.03800458e-03, 4.21778262e-02, 2.18935125e-02, -9.01418645e-03,
       1.09830182e-02, 3.30282114e-02, 1.20692002e-02, 2.30358467e-02,
       4.74722050e-02, 1.69384293e-02, 1.83979589e-02, 1.25564430e-02,
       -3.64717729e-02, 3.18423333e-03, -1.65646784e-02, -2.46390118e-03,
       -1.23084569e-03, -3.33731342e-03, 9.54403356e-03, -1.18008647e-02,
       -1.93473268e-02, -2.59055500e-03, 2.52130665e-02, -2.36694235e-02,
       -1.05448999e-02, 1.58074051e-02, 7.84689374e-03, -9.30181053e-03,
       5.26221469e-04, 1.77926628e-03, 2.52396427e-02, 2.87537910e-02,
       9.49640200e-03, -9.64513922e-04, 3.51986289e-02, 5.39623573e-02,
       1.09018497e-02, 2.91253664e-02, 8.25372990e-03, -9.49823391e-03,
       2.79748570e-02, 1.63176674e-02, -3.88297513e-02, 9.87998210e-03,
       5.43894097e-02, 3.06805708e-02, 3.07233557e-02, 5.38212853e-03,
       -4.25802842e-02, 4.72639054e-02, -1.59582694e-03, -4.92913723e-02,
       -3.16659571e-03, 6.75378542e-04, -3.16075236e-02, 8.35528877e-03,
       -1.41070411e-02, 1.29292663e-02, 3.65474075e-02, -2.82892529e-02,
       -3.15656252e-02, 8.96502566e-03, 2.58990447e-03, -1.02046710e-02,
       -6.27094239e-04, -1.38566911e-03, 8.57441779e-03, 1.11088715e-02,
       3.66698299e-03, 1.17996819e-02, 3.69472951e-02, 1.36573184e-02,
       -2.87700933e-03, 2.10646394e-04, -5.83229819e-04, -1.39540213e-03,
       1.84279028e-02, -1.03486804e-02, 5.98242925e-03, 2.03356985e-02,
       2.38185329e-03, 7.61405891e-03, 9.47001111e-03, -3.20921540e-02,
       -2.11551860e-02, 2.12687608e-02, -3.96910449e-03, -1.17974421e-02,
       1.00668031e-03, -1.04044448e-04, -1.86898783e-02, -1.18201608e-02,
       -1.31706782e-02, -8.26755725e-03, 1.61061846e-02, -9.81820188e-03,
       -1.18122185e-02, -3.86219326e-04, 1.47024693e-03, 4.15039342e-03,
       2.10472592e-03, 4.59138490e-03, -1.61561230e-03, 9.03854799e-03,
       6.22425321e-03, 4.30324906e-03, 1.82383303e-02, 1.23457108e-02,
       1.24286339e-02, 3.06965667e-03, 7.71135651e-03, -5.73945511e-03,
       2.09068414e-02, 1.31357415e-03, 1.21411625e-02, 7.65713491e-03,
       1.20585207e-02, 4.99967253e-03, 1.23685563e-03, 9.09564737e-03,
       -7.93613493e-03, 8.90142936e-03, 2.28436687e-03, 1.46973226e-02,
       3.19512608e-03, -6.85854629e-03, -3.41602694e-03, -2.77126511e-03,
       7.85286166e-03, -1.75735808e-03, -1.05560757e-03, -5.93494624e-03,
       1.24991229e-02, 6.06515910e-03, 8.12327582e-03, 5.95185533e-03,
       5.69752231e-03, 4.00140230e-03, -1.19741177e-02, 1.10142482e-02,
       5.58017241e-03, -5.37233573e-05, 4.54330817e-02, 1.01515688e-02,
       2.71525979e-02, 1.15236230e-02, -8.01291689e-03, -3.35160736e-03,
       3.41786854e-02, -7.58141791e-03, 1.69885103e-02, 3.61439623e-02,
       2.61561666e-02, -9.16119292e-03, -8.83881375e-03, 2.70811077e-02,
       -8.79000966e-03, 2.07248144e-02, -1.80325713e-02, -4.11742367e-03,
       -1.50689669e-02, -2.01707669e-02, -9.99693293e-03,
       -6.74348371e-03, 9.52234492e-03, -1.76121236e-03, 1.44249005e-02,
       1.86940841e-02, 6.29941607e-03, 7.20037566e-03, 1.05560450e-02,
       -2.08584755e-03, 1.50200389e-02, 1.04515813e-02, -2.74118013e-03,
       1.15554128e-02, 1.71874277e-03, -8.10195506e-03, 3.71542796e-02,
       4.48917504e-03, -2.34991889e-02, 4.75480519e-02, 2.26388741e-02,
       5.07329367e-02, 3.41426916e-02, -1.99700315e-02, -1.71717070e-02,
       -9.66197532e-03, -2.30616033e-02, 2.56437389e-03, 5.28069884e-02,
       4.57385816e-02, 8.14836845e-03, 5.02521917e-02, -2.55184285e-02,
       7.09392456e-03, -3.29990946e-02, -2.20316760e-02, 3.09687876e-03,
       1.26433242e-02, 1.16563067e-02, -1.34190954e-02, 3.51840220e-02,
       2.25087106e-02, 5.65728080e-03, 6.83809817e-03, 3.95965204e-03,
       -5.01567265e-03, 6.79385802e-03, -2.18495121e-03, 1.32572663e-03,
       1.65853079e-03, 3.03780660e-03, 1.07975386e-03, 2.83384155e-02,
       -1.32835552e-03, -1.74750760e-02, -6.03318075e-03, 1.25451311e-02,
       1.28274187e-02, 6.61602430e-03, -9.07924201e-04, 2.00460013e-03,
       3.03577203e-02, -1.46485120e-02, -2.81109125e-03, 4.78308368e-03,
       -1.04984585e-02, -2.04545557e-02, 2.01182696e-03, -1.21427979e-02,
       6.09357934e-03, 1.78931039e-02, -9.97408200e-03, 1.02478429e-03,
       -5.95911359e-03, -1.08812973e-02, -6.89602178e-03,
       -2.02081254e-04, -8.03567749e-03, 1.80777293e-02, -6.91103865e-04,
       3.48222652e-03, 3.11170588e-03, 3.15459399e-03, 9.23524238e-03,
       -1.79189667e-02, -9.34206136e-03, 8.11568578e-04, 4.07401565e-03,
       1.60544994e-03, -6.19170070e-03, 1.67504279e-03, 1.20847877e-02,
       2.14797147e-02, -1.56729724e-02, -1.52677270e-02, -9.40309186e-03,
       1.91491526e-02, -3.75472009e-03, -1.21869538e-02, -1.26660930e-03,
       4.83270409e-03, 1.12553183e-02, 1.23649389e-02, -6.14520209e-03,
       -6.48601167e-03, 1.12029882e-02, -6.13209326e-04, -8.40123277e-03,
       -1.86647743e-03, 1.04127200e-02, 7.86950812e-03, 7.13618472e-04,
       -5.88958943e-03, 1.07787549e-03, 1.03469463e-02, 3.97873390e-03,
       1.23466188e-02, 5.19912830e-03, -5.64155029e-03, 1.51719889e-02,
       -3.18799503e-02, -2.35473756e-02, -4.43225401e-03,
       -3.54877237e-04, -9.09928698e-03, -2.59465463e-02,
       -2.26450316e-03, 3.45809832e-02, 3.29071023e-02, -3.94037785e-03,
       -1.12081720e-02, 6.22990448e-03, 1.47638246e-02, 2.31720302e-02,
       -2.37721745e-02, -2.33707950e-02, -2.33306759e-03, 4.93844263e-02,
       1.76070649e-02, -3.59795019e-02, -8.63525923e-03, 3.35526802e-02,
       1.28837638e-02, -1.12468004e-02, 6.12745015e-03, -1.18905120e-03,
       2.74579599e-02, 8.07778258e-03, 5.21623250e-03, -4.19308292e-03,
       1.50339594e-02, -6.16369925e-06, 2.11336627e-03, 1.35893095e-02,
       1.08495848e-02, 1.50934588e-02, -6.80851750e-03, -1.83588117e-02,
       -2.68710926e-02, 4.27175732e-03, 8.93839356e-03, -4.89419652e-03,
       1.04901567e-02, 1.65125411e-02, 3.30293365e-02, 6.42964756e-03,
       3.85151966e-03, -3.82104446e-03, 3.06845903e-02, 8.98004770e-02,
       -1.52413100e-02, -2.59311963e-02, -5.93450945e-03, 5.98155707e-02,
       2.47311965e-02, -4.21367362e-02, -1.86523199e-02, 1.31648015e-02,
       9.61311907e-03, -1.99064407e-02, 1.65014006e-02, -1.20715098e-02,
       2.59450637e-02, -9.78247146e-04, -9.20510571e-03, 2.06693839e-02,
       3.26752360e-03, 1.63508691e-02, 8.33264319e-04, 2.51778355e-03,
       6.09540846e-03, -3.98824504e-03, 1.96463385e-04, -1.52802877e-02,
       -2.06472240e-02, -6.05481071e-03, 3.35215926e-02, -2.03897012e-03,
       3.96653404e-03, -1.00345183e-02, 2.08522473e-02, 2.22189091e-02,
       -1.33484649e-02, -4.54576351e-02, 3.51888537e-02, 3.24901938e-02,
       -2.87857726e-02, -5.73101593e-03, -1.23444749e-02, 4.13116477e-02,
       2.38107052e-02, -1.01485336e-02, -4.46819030e-02, 2.81042028e-02,
       9.22579970e-03, -2.08053719e-02, 8.95920768e-03, -7.07336701e-03,
       1.47792511e-02, -3.02324537e-03, -1.20834643e-02, -3.15910927e-03,
       -1.89796847e-03, -2.29657511e-03, -2.88235350e-03, 4.14953887e-04,
       -1.58518390e-03, 4.17607930e-03, 5.01033268e-04, 2.93113058e-03,
       -1.01602671e-03, -2.99809291e-03, 1.14967837e-03, -9.07223113e-03,
       -3.63169494e-03, -2.40284996e-03, 1.17074477e-03, -1.08454854e-03,
       -4.88474499e-03, -5.60168817e-04, 6.57501584e-03, -4.05339478e-03,
       2.46217125e-04, -7.87343737e-03, -9.48548317e-03, -1.20007247e-02,
       1.07994359e-02, 2.07371148e-03, -7.79409613e-03, -1.65965687e-03,
       -3.82624404e-03, -3.76255577e-03, -3.49614141e-03,
       -3.59739875e-03, -1.07134087e-02, -7.46455102e-04,
       -4.40207776e-04, -4.50643199e-03, -9.69884079e-03, 4.13177395e-03,
       -1.84850651e-03, -4.65278077e-04, -1.17724296e-02, 7.46132713e-03,
       5.76982275e-04, -3.69658344e-04, -1.20002672e-03, -3.02537554e-03,
       2.03263909e-02, -1.73939597e-02, 1.51143642e-02, -1.27036227e-02,
       1.03022307e-02, 3.23012494e-03, -5.76786837e-03, -4.85799275e-03,
       1.21568441e-02, 2.57866140e-02, -1.28371241e-02, -1.18564051e-02,
       -2.14392580e-02, 3.29602393e-03, -1.40045779e-02, 2.12316811e-02,
       1.50278332e-02, -5.54166827e-03, -3.43939243e-03, -2.27416307e-03,
       -2.59784516e-02, -1.29131693e-02, -4.09698533e-03,
       -1.98808070e-02, 1.17957173e-02, -1.51690003e-02, -5.06490981e-03,
       2.06325501e-02, -4.50874912e-03, -4.50615818e-03, -1.07215466e-02,
       1.08750137e-02, -2.13252963e-04, -2.67218729e-03, -7.06334424e-04,
       -5.28935995e-03, 2.83887219e-02, -2.26381626e-02, 3.07503492e-02,
       -2.64415555e-02, 1.85666140e-02, -1.62745044e-02, -1.58273485e-02,
       2.26641670e-02, -5.66155743e-03, 3.98231447e-02, -1.42457252e-02,
       -2.67966883e-03, -2.62520704e-02, 5.88569976e-03, 2.39170399e-02,
       3.56530733e-02, -2.17100815e-03, -8.84318445e-03, -5.16206259e-03,
       -7.88759720e-03, -2.63177752e-02, -1.82779226e-02,
       -8.12486000e-03, 1.25681162e-02, 1.25254011e-02, -3.28815891e-03,
       -2.79819733e-03, 1.10120289e-02, -1.07004307e-02, -4.70770843e-04,
       -1.73267571e-03, 9.57520586e-03, 3.49131576e-03, -8.40491441e-04,
       -9.57514625e-03, -8.92579672e-04, 1.55122820e-02, -1.97619125e-02,
       8.76688026e-03, -1.49583742e-02, 2.47267708e-02, 6.67673536e-03,
       -1.35256944e-03, -7.24218553e-03, -1.56102972e-02, 4.21532579e-02,
       -6.25904603e-03, -2.30328292e-02, -1.38682798e-02,
       -1.04071980e-03, 1.42957456e-02, 1.40729332e-02, -9.03805159e-03,
       -8.14832468e-03, 3.09444312e-02, -1.96678266e-02, -2.54064668e-02,
       -4.78412816e-03, -9.79599636e-03, 1.35141509e-02, 5.96709317e-03,
       -2.37404704e-04, 1.30585665e-02, -2.82425852e-03, 5.54316258e-03,
       3.57726379e-03, -5.84292982e-04, -3.19774938e-03, 1.14263482e-02,
       6.03494421e-03, -1.73431868e-03, -2.85275746e-03, -8.86056852e-03,
       6.69657253e-03, -9.09791701e-03, -8.50337092e-03, -8.27904791e-03,
       7.06253515e-04, -8.58076010e-03, -2.95908493e-03, -3.32616013e-03,
       -4.05657152e-03, 2.42312602e-03, 6.72990747e-04, -1.13223549e-02,
       -1.59863830e-02, -1.38626117e-02, -1.30722607e-02,
       -1.49466638e-02, -8.22110195e-03, -1.08705154e-02, 6.74737967e-04,
       5.48483385e-03, -9.49894171e-03, -7.26147322e-03, -2.60702800e-04,
       -4.68324963e-03, -1.43483244e-02, -1.34696653e-02,
       -8.71400262e-05, 1.01139704e-02, 1.16960350e-02, -3.24739213e-03,
       1.85328827e-03, -9.37893614e-03, 1.80904346e-03, -1.65761026e-04,
       -1.13381324e-02, -1.59392282e-02, 2.07294077e-02, -1.99882369e-02,
       1.43692107e-03, -5.68581279e-03, -2.22525690e-02, -1.00034401e-02,
       -1.52937658e-02, 3.81430564e-03, -5.55410832e-02, -2.30438486e-02,
       8.29844922e-03, -1.99208707e-02, -8.60275887e-03, -1.48494020e-02,
       7.18070951e-04, -8.13000370e-03, -2.85399510e-05, -4.75475192e-02,
       -1.96823105e-02, 4.41243760e-02, -6.52742339e-03, -1.93842351e-02,
       -9.20496508e-03, -6.61652070e-03, -1.48527315e-02,
       -3.92792672e-02, 8.68962985e-03, 9.42715537e-03, 1.72737259e-02,
       -3.62678105e-03, 2.82572187e-03, -4.03117994e-03, -1.42956898e-02,
       -1.75775066e-02, -1.80869531e-02, -1.63740851e-02, 3.59602622e-03,
       1.56562752e-03, 1.02017429e-02, -9.37808491e-03, 1.06901266e-02,
       2.26932801e-02, -1.63947958e-02, -2.30239257e-02, -8.45824108e-02,
       -1.54030723e-02, 5.30914636e-03, 1.08416183e-02, 1.05208810e-02,
       -8.57363455e-03, 6.63929358e-02, 4.58639599e-02, -2.49173623e-02,
       -5.44019528e-02, 2.08703615e-02, 2.90300585e-02, -7.02077290e-03,
       1.68077066e-03, 1.66133773e-02, 1.03257615e-02, 3.89638502e-04,
       -2.95949038e-02, 7.55436532e-03, 5.22969384e-03, 3.62608023e-03,
       -5.02581999e-04, -1.43379183e-03, 4.19976236e-03, -1.01694465e-02,
       -1.60349011e-02, -1.25555759e-02, 6.03684485e-02, -1.21734822e-02,
       -8.66451859e-03, 2.40208604e-03, -7.41138792e-05, 2.34400500e-02,
       1.41153410e-02, -1.33962454e-02, 2.64325482e-03, 4.61376198e-02,
       9.83694289e-03, -5.41459909e-03, 9.33651347e-03, 9.94686130e-03,
       2.17627566e-02, 4.63149697e-02, 7.46056624e-03, 4.23123054e-02,
       -1.61240064e-02, 3.77545655e-02, 9.69570968e-03, -3.75270820e-03,
       -7.87420213e-05, 6.39957981e-03, 1.42466864e-02, 5.79104852e-03,
       9.20534600e-03, 2.16324651e-03, -5.43182809e-03, 4.79586190e-04,
       2.50031147e-03, 3.96317849e-03, 2.09852774e-03, 8.89142975e-04,
       6.81550615e-03, 6.01349492e-03, 4.22661891e-03, -2.70503061e-03,
       9.83417965e-03, 6.97547849e-03, 1.78215690e-02, 6.17315248e-03,
       1.37336906e-02, 3.14819179e-02, 1.08426996e-02, 1.17817828e-02,
       3.04792053e-03, 3.26785073e-02, 1.15807205e-02, 7.26273702e-03,
       5.02068968e-03, -3.39070102e-03, 8.91427323e-03, 1.49232512e-02,
       2.99221743e-03, 1.18442997e-03, 4.93335770e-03, 6.80290489e-03,
       8.00485257e-03, -3.43234092e-03, -9.97546595e-03, -1.21944584e-02,
       8.61873198e-03, -6.92672655e-03, -1.35407606e-02, -4.54793451e-03,
       -2.98183225e-03, 4.24785214e-03, 1.23979663e-02, -1.19790724e-02,
       2.05651969e-02, 1.17459735e-02, 5.44172013e-03, 4.84379148e-03,
       1.98492818e-02, 2.54765502e-03, 5.25325397e-03, 9.84846521e-03,
       -2.29530297e-02, 7.29406103e-02, 4.32544127e-02, 2.70737261e-02,
       -2.28295918e-03, 2.28886548e-02, -1.71175273e-03, -3.86835379e-03,
       1.14838302e-03, -2.06507603e-03, 2.37122755e-02, 3.18998545e-02,
       6.16021268e-03, -3.71013070e-03, 1.80485821e-03, 1.04872482e-02,
       1.07842591e-02, 3.48516577e-03, -2.45187171e-02, -3.64123993e-02,
       1.15540838e-02, -3.39689921e-03, -1.53422737e-02, -3.59163806e-02,
       -2.65053962e-03, 1.85600179e-03, 2.40627006e-02, -1.90328285e-02,
       7.91064464e-03, 1.37858419e-02, 2.77562859e-03, -1.36781679e-02,
       -3.96766001e-03, 4.61852811e-02, 5.04227588e-03, 6.49484433e-03,
       -3.57479639e-02, 6.29714830e-03, 4.05907743e-02, 1.08175268e-02,
       -1.49536803e-02, -8.20202380e-03, 1.84755288e-02, -9.77605861e-03,
       1.07389139e-02, 2.19619665e-02, 5.08633144e-02, 1.57725234e-02,
       1.12156207e-02, 1.55693358e-02, 1.24498159e-02, 3.91076878e-03,
       -5.70539432e-03, 8.57026875e-03, -2.93744784e-02, -1.43548017e-02,
       2.00916696e-02, -1.17360046e-02, -6.06240286e-03, -1.80292465e-02,
       -9.09374468e-03, -9.88806877e-03, 1.14620067e-02, -2.26735417e-02,
       7.78170442e-03, -2.80011096e-03, -1.96425859e-02, -3.35398247e-03,
       -4.49239137e-03, -1.36460327e-02, -3.12919281e-02, 7.25538703e-03,
       -5.13722189e-02, 9.64524224e-03, -1.48521122e-02, -2.30986066e-02,
       1.85657889e-02, -2.50676740e-03, 1.04864466e-03, -4.35051024e-02,
       -1.27259996e-02, -1.16438624e-02, 4.03166041e-02, -1.52946590e-02,
       3.13735893e-03, 1.90786645e-02, 5.83793502e-03, 2.43116193e-03,
       -3.22230943e-02, -1.75206398e-03, -3.33576044e-03,
       -5.00453264e-03, 3.13918851e-03, 4.55242209e-03, -8.60573840e-04,
       9.97087825e-03, 6.73807366e-03, -9.46388405e-04, 1.18977558e-02,
       5.43175917e-03, 3.68635915e-03, 4.01195651e-03, 3.99676571e-03,
       1.13187365e-04, 2.80992920e-03, 1.71880456e-04, 2.23084167e-03,
       3.36177321e-03, 2.20535323e-02, 8.40018387e-04, 6.76162075e-03,
       -1.66611467e-03, 5.10194106e-03, 2.94920150e-03, -2.83775199e-03,
       -2.84702936e-03, -3.98338633e-03, 1.08471485e-02, -8.28775857e-03,
       -8.51582922e-03, -9.43974219e-03, 7.87943695e-03, -2.85943126e-04,
       -2.46424228e-03, -1.96783058e-03, -7.46637629e-03,
       -1.12187199e-03, -2.77207210e-03, -2.76829824e-02, 9.27377585e-03,
       -3.11669242e-03, 1.62941553e-02, 1.66777745e-02, 3.09220119e-03,
       1.33724799e-02, 1.69109572e-02, 5.58174856e-04, 5.69076464e-03,
       -2.29163677e-03, -4.88502486e-03, 2.94960681e-02, 1.60132386e-02,
       8.01911857e-03, 2.45431345e-02, 4.38209623e-02, 8.57525785e-03,
       1.79646034e-02, -1.11735053e-02, 5.15971519e-03, 9.27988812e-03,
       5.70176682e-03, -1.34586892e-03, -1.92191615e-03, 1.55000109e-02,
       -1.26377931e-02, -1.02428403e-02, -5.39199868e-03,
       -5.72484126e-03, -6.55685412e-03, 6.40202407e-03, 7.91375712e-03,
       -8.06220993e-03, -9.44115780e-03, -1.60704888e-02,
       -2.55696587e-02, 1.15772486e-02, -5.97346993e-03, 1.05885277e-02,
       2.60641500e-02, -9.01215617e-03, 1.45431515e-02, 1.24468412e-02,
       1.15731573e-02, 2.76259668e-02, 2.82108635e-02, 7.51706585e-03,
       4.28128019e-02, 2.21183766e-02, -4.58660390e-04, 4.77039218e-02,
       3.86473089e-02, 1.04782814e-02, 5.12353666e-02, -1.20897479e-02,
       6.98696636e-03, 2.04083435e-02, 2.58848094e-03, -1.81147326e-02,
       2.17810571e-02, 5.87096214e-02, 6.99842116e-03, 4.44264757e-03,
       -1.29663125e-02, -2.96452723e-04, 7.55225215e-03, 1.96054429e-02,
       -1.55332312e-02, -1.14815161e-02, 5.86292520e-03, -1.59007944e-02,
       -1.67672578e-02, 9.41476377e-04, 3.80336656e-03, 2.58337962e-03,
       9.65609495e-03, -1.76536944e-02, 9.55404341e-03, 4.42326628e-03,
       1.65191141e-03, 6.11539418e-03, 2.04883534e-02, 7.21130846e-03,
       1.60336606e-02, 1.15367491e-02, -3.60542163e-02, 3.80821116e-02,
       3.61271389e-02, -1.96460448e-02, 3.15021127e-02, -1.56383682e-02,
       -2.67219003e-02, 1.13903238e-02, 8.05132557e-03, -4.03810665e-02,
       1.78064965e-02, 3.27490605e-02, -1.00082792e-02, 1.35610369e-03,
       -1.36190085e-02, -6.44365605e-03, 2.23423544e-04, -2.61463947e-03,
       -1.49358269e-02, -8.93542171e-03, -2.09959992e-03,
       -7.76288006e-03, -8.39715544e-03, -1.89105072e-03, 1.42204936e-03,
       -3.60006373e-03, -1.99887459e-03, -1.23536866e-03,
       -4.21412429e-03, 8.63769324e-04, 3.66722397e-03, -9.63720027e-04,
       -9.78198275e-03, 8.23276956e-03, 3.05353501e-03, -8.12967774e-04,
       -6.80813100e-03, -2.07729451e-02, 2.08700243e-02, 1.29075227e-02,
       -2.34670322e-02, -1.87422521e-02, 7.45083066e-03, 3.81384487e-03,
       4.79100784e-03, -1.70007255e-03, -1.92914475e-02, 2.16725841e-02,
       7.09741237e-03, -1.90699175e-02, 2.74866063e-04, 7.27774389e-03,
       -9.57284402e-03, 1.25271175e-03, 6.06248912e-04, 2.22347281e-03,
       1.32301105e-02, -4.31311224e-03, -1.03073567e-02, 3.80367390e-03,
       -8.61357152e-03, -1.16800480e-02, 8.44137277e-03, 7.03558885e-03,
       -4.91772825e-03, 1.46316011e-02, 1.14846602e-02, 8.68206006e-03,
       3.84857208e-02, -3.57335387e-03, 5.36744716e-03, 1.32553726e-02,
       1.80587377e-02, 2.62643676e-03, 3.68921459e-02, -6.17324375e-03,
       -7.11859902e-03, 4.42720763e-02, 8.81130714e-03, 1.13877170e-02,
       3.10248174e-02, -4.12953533e-02, 2.31599491e-02, 2.89236922e-02,
       -8.93925875e-03, -1.13666346e-02, 1.17394160e-02, 1.34338140e-02,
       -9.33737494e-03, -5.67303132e-03, -1.51970228e-02, 1.24605438e-02,
       2.30020992e-02, -5.33909479e-04, -1.00342762e-02, 3.25134816e-03,
       2.43956666e-03, 2.45191017e-03, 6.05210243e-03, -6.88857120e-03,
       2.26988550e-02, 5.49205244e-02, 2.31887754e-02, 1.04095973e-02,
       1.56201450e-02, 1.85703486e-02, 3.87249812e-02, 5.22622429e-02,
       -1.93414581e-03, 1.40746310e-02, 5.78943491e-02, 9.37180710e-04,
       -9.34636779e-03, 7.32715009e-03, -3.60878999e-04, 2.27257945e-02,
       3.75870541e-02, -3.41341607e-02, 5.80160469e-02, 5.28364740e-02,
       -2.55847517e-02, -4.01022471e-02, 1.00984760e-02, -4.69627837e-03,
       1.97907072e-03, 2.10119840e-02, -2.45629735e-02, 9.78379976e-03,
       1.56906173e-02, -2.12767310e-02, -2.04678904e-02, 8.28325562e-03,
       -6.13749446e-03, 5.55322273e-03, -4.55249479e-04, -5.77155361e-03,
       2.00316831e-02, 2.23487485e-02, -1.55124022e-03, 3.01771302e-04,
       1.90465227e-02, 5.59309637e-03, 1.04332799e-02, 1.19411051e-02,
       -2.81506684e-03, 1.49033051e-02, 2.98605934e-02, -1.37777282e-02,
