%YAML:1.0
---
svmDetector_object1: !!opencv-object-detector-hog
   winSize: [ 32, 32 ]
   blockSize: [ 8, 8 ]
   blockStride: [ 4, 4 ]
   cellSize: [ 2, 2 ]
   nbins: 9
   derivAperture: 1
   winSigma: 2.
   histogramNormType: 0
   L2HysThreshold: 2.0000000000000001e-01
   gammaCorrection: 1
   nlevels: 64
   signedGradient: 1
   SVMDetector: [ 3.67653277e-03, 7.03593483e-04, 1.43376249e-03,
       -4.13560279e-04, 7.39152869e-03, 3.26465582e-03, 9.22228862e-03,
       2.17024726e-03, 2.36181216e-03, 4.78514703e-03, -7.90444482e-03,
       -7.69724790e-03, -2.74673384e-03, 1.43020935e-02, 2.34167860e-03,
       2.15385649e-02, 1.01102907e-02, 1.24430619e-02, 9.03809257e-03,
       1.30674976e-03, -4.77383053e-03, 6.81822049e-03, 6.35751290e-03,
       -1.56766698e-02, 2.31198035e-02, 1.69979446e-02, 2.22766157e-02,
       1.04261544e-02, 1.47985539e-03, -2.05886108e-03, -3.78116791e-04,
       -3.02192406e-04, -4.98972181e-03, 6.26063533e-03, 5.28619997e-03,
       1.64115783e-02, 1.63121689e-02, -9.75661073e-03, -1.31746929e-03,
       5.57561114e-04, 1.87882725e-02, 8.62864591e-03, 2.75165848e-02,
       6.23704959e-03, 2.29443740e-02, 3.29681449e-02, -2.77571641e-02,
       -1.29131004e-02, -8.98513570e-03, 2.81759445e-02, 7.89168477e-03,
       1.55584225e-02, 1.62924975e-02, 4.75224704e-02, 3.98099497e-02,
       4.78623231e-04, -8.63117725e-03, 1.34222610e-02, 5.50776022e-03,
       -6.37473986e-02, 4.79517132e-02, 1.83827337e-02, 3.58364359e-02,
       1.00002550e-02, -1.54959026e-03, -1.46418074e-02, 7.65246165e-04,
       1.18851960e-02, -3.24011035e-02, 1.34713426e-02, 6.81921886e-03,
       2.99500432e-02, 1.09120235e-02, -1.30531257e-02, -1.12448921e-02,
       -1.14949830e-02, 7.52790365e-03, 7.43454741e-03, 3.46040353e-02,
       4.37417068e-03, 1.74604133e-02, 2.64671054e-02, -2.58800555e-02,
       -1.46932043e-02, -1.42843043e-02, 5.79026807e-03, -4.94587561e-03,
       8.09129234e-03, -1.69969406e-02, 3.69449966e-02, 1.40482150e-02,
       -6.58874167e-03, -1.43416999e-02, 1.08562345e-02, -4.44461498e-03,
       -5.34022748e-02, 4.72115614e-02, 2.12626196e-02, 7.55046960e-03,
       3.16108600e-03, -9.16794594e-03, -1.34179350e-02, 1.26218023e-02,
       9.24145337e-03, -2.91433185e-02, 1.73221808e-02, -4.52299649e-03,
       9.83145204e-04, 4.22052713e-03, -5.82625717e-03, -1.49987619e-02,
       -1.47628849e-02, 2.74772337e-03, 4.67692455e-03, 1.92537550e-02,
       3.30483727e-03, 4.27241437e-03, 2.14367430e-03, -1.58356149e-02,
       -1.48766767e-02, -1.58491954e-02, -2.75443424e-04, 1.48154413e-02,
       -1.01708202e-02, -1.93311889e-02, 5.67229651e-03, -2.53497926e-03,
       -9.27496050e-03, -1.65072419e-02, -1.34984367e-02,
       -1.28325738e-03, -5.43189561e-03, 3.37408595e-02, -3.35498713e-03,
       -2.81413947e-03, 4.29112045e-03, -1.89770840e-03, -5.78024937e-03,
       -2.32353559e-04, -8.32943805e-03, -3.71757559e-02, 3.92238563e-03,
       -1.75290508e-03, -2.63085216e-03, 6.52405433e-03, 4.55820421e-03,
       3.02993855e-03, 1.38960604e-03, 3.46259476e-04, -5.81548270e-03,
       5.45425806e-03, 3.86626669e-03, 6.79179514e-03, 2.37094034e-02,
       7.19747087e-03, 1.10936696e-02, -4.04437073e-03, 3.15686385e-03,
       -9.21485480e-03, 7.75302062e-03, 1.14361511e-03, 1.89553164e-02,
       1.89355835e-02, 3.25386832e-03, 2.12652958e-03, -5.20043587e-03,
       3.40614305e-03, -9.73624922e-03, -1.02920074e-03, -9.82246920e-03,
       1.54883862e-02, 3.91874136e-03, -2.11228873e-03, -1.00309448e-03,
       -1.53547886e-03, -1.03922840e-03, -6.02237554e-03,
       -2.01329516e-04, -9.16625187e-03, 1.05730118e-02, 1.17773116e-02,
       3.33201583e-03, -1.59287767e-03, 6.30203495e-03, 3.80861014e-03,
       -2.69313492e-02, 1.72858518e-02, 1.06461793e-02, 1.19806584e-02,
       1.60542466e-02, 8.19888059e-03, 1.03848334e-02, -9.45264753e-03,
       2.63199937e-02, -4.28677276e-02, 2.19889153e-02, 9.88317840e-03,
       3.30832526e-02, 1.77315399e-02, -5.03547443e-03, -5.52285055e-04,
       -2.24657934e-02, -2.03575776e-03, -3.39824967e-02,
       -1.05607249e-02, -2.18771715e-02, 3.38842720e-02, -7.65291695e-03,
       -1.11386785e-02, -4.32681339e-03, -9.83483344e-03,
       -8.77932087e-03, -9.64628998e-03, -1.06359329e-02,
       -1.47362668e-02, 2.48965248e-02, 6.08943217e-03, 2.17546732e-03,
       -1.35826310e-02, 4.07948159e-03, 1.19397780e-02, -2.20580120e-02,
       3.30799110e-02, 1.14017846e-02, 2.68265605e-04, 1.01741059e-02,
       2.10967800e-03, 1.79684279e-03, 1.10601550e-02, 2.47086696e-02,
       -3.09336726e-02, 4.19976041e-02, -1.09023061e-02, 3.16036330e-03,
       -5.55221550e-03, -1.64924748e-02, -1.97069813e-02,
       -1.53170973e-02, -2.85547320e-03, -3.97971608e-02,
       -2.20554136e-02, -2.42529735e-02, 2.27820734e-03, -1.66546665e-02,
       -1.32917305e-02, -4.63169068e-03, -8.74599908e-03,
       -2.14654952e-02, 5.36677847e-03, -1.68535262e-02, -1.61073133e-02,
       1.59831978e-02, -3.37370206e-04, -1.67618867e-03, -1.03609199e-02,
       -5.56328055e-03, 2.33197883e-02, 6.62173936e-03, 2.36413963e-02,
       -3.54448962e-03, -1.03770668e-04, 5.64760715e-03, 1.75792212e-03,
       6.37581106e-03, 3.33261788e-02, 2.92752441e-02, -1.26939872e-02,
       2.65510511e-02, -1.64899509e-02, -1.12372404e-02, 9.87295061e-04,
       -6.48498163e-03, -2.08593551e-02, 3.84249240e-02, -2.79258541e-03,
       -3.33273523e-02, 6.56661112e-03, -2.01695189e-02, -1.78355724e-02,
       -3.46487202e-03, -2.78456486e-03, -4.72085271e-03, 5.48866345e-03,
       -2.34837048e-02, 4.39283764e-03, -1.06672607e-02, -1.86775532e-02,
       -6.86855381e-03, 4.36035777e-03, 2.74209143e-03, 2.39524571e-03,
       -1.66215445e-03, 8.19890047e-05, -1.48218148e-03, 5.94462268e-03,
       -2.69373017e-03, 2.73185759e-03, -3.22548120e-04, -3.82339302e-03,
       -6.51406497e-03, -5.01601771e-03, -1.08836556e-03,
       -7.94982910e-03, 1.70147568e-02, -6.99546887e-03, 5.35295624e-03,
       -2.81078217e-04, -5.40311588e-03, -8.93999171e-03,
       -1.69774275e-02, -9.85662360e-03, -2.70455098e-03, 6.42053643e-03,
       -9.42247454e-03, 2.15947675e-03, -4.84716892e-03, -3.75920860e-03,
       1.58688228e-03, -7.74700381e-03, -7.04550510e-03, 1.18919963e-03,
       -4.96344035e-03, -1.00728846e-03, 5.57016442e-03, 6.36961265e-03,
       9.71270783e-04, 4.86421544e-04, -7.41864135e-03, 5.37391752e-03,
       -4.53314837e-03, 2.03987155e-02, -2.44854135e-03, 1.11998236e-02,
       -1.15971724e-02, 5.12109464e-03, -1.50598148e-02, -1.33381942e-02,
       -4.69448371e-03, 1.05720358e-02, 4.08226810e-02, -3.28355562e-03,
       1.87452827e-02, -6.34614471e-03, -4.81217913e-03, -1.98618770e-02,
       -3.41445021e-02, -1.81244835e-02, -3.09484336e-03, 1.49510810e-02,
       -1.82887167e-02, -2.03671381e-02, -6.80050999e-03,
       -1.50472540e-02, 2.37536486e-04, -2.15598624e-02, -9.69541352e-03,
       1.63812132e-03, -1.03394473e-02, -7.59150134e-03, -3.39788501e-03,
       1.21625292e-03, -3.54449963e-03, -4.25630482e-03, -5.57517109e-04,
       5.98182017e-03, 4.53785673e-04, 1.93314478e-02, -2.60706729e-04,
       4.50602174e-03, 4.51439817e-04, 2.86005205e-03, 3.73910856e-03,
       -1.70276277e-02, -2.21919697e-02, 4.64946851e-02, 4.81074452e-02,
       9.26517323e-03, 3.60868797e-02, 8.18163250e-03, -2.20394526e-02,
       -1.51607732e-03, -3.81146111e-02, -2.98424922e-02, 1.83116775e-02,
       2.53381231e-03, -7.41948839e-03, 1.08635174e-02, 2.10165232e-03,
       -1.80961769e-02, -1.73654631e-02, -1.56931449e-02,
       -1.49096374e-03, 1.45284915e-02, -3.75063042e-03, 3.55957355e-03,
       -1.73590123e-03, 5.78398118e-03, 2.81802355e-03, -5.93213411e-03,
       5.28609147e-03, -2.14614643e-04, 3.82124097e-03, 1.26317535e-02,
       -1.75086444e-03, -1.29583781e-03, 1.78866629e-02, 1.13052977e-02,
       1.92250013e-02, -6.36703754e-03, -2.19019037e-02, 3.14231440e-02,
       2.16362197e-02, 4.49063582e-03, 7.14939926e-03, 1.39118759e-02,
       -3.54561326e-03, -3.35748727e-03, -2.75719818e-02, 5.84985269e-03,
       3.48170921e-02, 1.21217044e-02, -6.30626176e-03, 3.11566703e-03,
       1.25938805e-03, 6.32010493e-03, -9.53289587e-03, -1.10071350e-03,
       2.17245892e-02, 6.15436491e-03, 4.73465398e-03, -9.64137216e-05,
       -4.81638266e-03, -7.32901797e-04, -4.80396906e-03,
       -2.93905661e-03, -2.71825935e-03, -2.28108349e-03,
       -1.22198893e-03, -3.63763334e-04, -2.85847834e-03,
       -4.20845463e-04, -1.26990052e-02, -1.12385694e-02,
       -2.34318781e-04, -6.70468481e-03, -6.21449249e-03,
       -4.21760371e-03, -1.70829217e-03, 3.93405603e-03, 2.39186152e-03,
       -3.95045895e-03, -6.03152718e-03, -3.20049981e-03,
       -3.15445289e-03, -1.97056239e-03, -1.61151793e-02,
       -8.68587941e-03, 3.23994574e-03, -7.53134349e-03, 3.71124805e-03,
       3.43767519e-04, -8.95507447e-03, -8.27781577e-03, -5.24017634e-03,
       -5.89707261e-03, 5.43987425e-03, 2.08866876e-03, -1.56905677e-03,
       -4.73608170e-03, -1.53836636e-02, -5.28044347e-03,
       -1.08134393e-02, -4.15151101e-03, -7.39964563e-03, 4.50088177e-03,
       1.23835762e-03, -7.68999476e-03, -2.55422983e-02, -3.14371325e-02,
       1.08161829e-02, -2.02101860e-02, 3.34071717e-03, -8.21867492e-03,
       -6.65615406e-03, 1.33656841e-02, -6.16807677e-03, -5.16459905e-03,
       1.83008108e-02, 1.66204236e-02, 2.60642990e-02, 1.81791969e-02,
       -4.21105400e-02, -5.66079840e-03, 1.03710601e-02, -1.17888236e-02,
       2.70762527e-03, 3.03846644e-03, -9.12698731e-03, 9.96666867e-03,
       -2.20574019e-03, -1.24588469e-02, 2.44349577e-02, 2.38753203e-03,
       -3.76077322e-03, -5.71015477e-03, -1.64488461e-02,
       -6.32067118e-03, -1.99370869e-02, -7.72788841e-03,
       -4.62475372e-03, 6.39074575e-03, 6.29001250e-03, 1.15145731e-03,
       -6.61790930e-03, -3.85097377e-02, 1.86673645e-03, -1.97786875e-02,
       2.17149802e-03, -1.54784357e-04, 5.32651739e-03, 3.09423190e-02,
       8.87523964e-03, -6.82921521e-03, -1.53290608e-03, -7.88167119e-03,
       3.66584398e-02, 4.23865728e-02, -2.95780692e-02, -2.94315591e-02,
       5.60770649e-03, -1.65613892e-03, -5.92102017e-03, -1.03977630e-02,
       -1.19099580e-02, 3.50436941e-02, 1.99553370e-02, 3.48839606e-03,
       5.58502926e-03, -6.66879525e-04, -1.54696812e-03, -1.04760437e-03,
       -4.10380866e-03, -4.00141580e-03, -1.14750536e-02, 6.38877042e-03,
       8.60040542e-03, 1.69006700e-03, -1.33126846e-03, -1.02806650e-03,
       -2.29031802e-03, -9.97252949e-03, -8.82828142e-03,
       -4.26531117e-03, 3.53451967e-02, 2.03680582e-02, 1.92013476e-02,
       1.56048192e-02, 2.83630006e-03, -1.33599397e-02, -1.27678746e-02,
       -1.38849048e-02, 4.38454896e-02, 5.05060367e-02, -1.26692643e-02,
       -3.97410570e-03, 5.91982668e-03, 2.57588383e-02, -7.24791037e-03,
       -7.98560679e-03, -1.29851541e-02, 1.36832269e-02, 7.57351518e-03,
       2.29723118e-02, 2.21085362e-02, 9.25811008e-04, 3.04636569e-03,
       9.93999070e-04, -1.45942403e-03, -4.64998279e-03, -3.57643468e-04,
       -1.72783912e-05, -5.52466186e-03, -6.08533097e-04, 8.78205174e-04,
       -1.66902889e-03, 5.70098916e-03, -2.62169633e-03, -1.60323773e-02,
       -1.53880538e-02, -1.07544716e-02, 2.23869982e-04, 1.78500675e-02,
       -7.07367784e-04, -5.66756865e-03, 2.68716738e-03, -4.50605806e-03,
       -1.96084697e-02, -1.60314385e-02, -1.04490910e-02, 9.00196098e-03,
       9.42938775e-03, -1.23533178e-02, -6.36529876e-03, -2.47981958e-03,
       -4.24101483e-03, -7.86393473e-04, 6.00270554e-03, 6.98839547e-03,
       -1.11562042e-02, -1.26848808e-02, -1.61949708e-03, 1.74319048e-05,
       4.93164989e-04, 4.71975916e-04, -1.20276387e-03, 2.43305881e-02,
       1.06665166e-02, -1.25538018e-02, 8.19668360e-03, 8.11474584e-03,
       1.58285699e-03, 7.29686581e-03, -1.86398197e-02, -2.33663823e-02,
       -4.21106163e-03, -1.41155031e-02, 2.32996512e-02, 7.87913054e-02,
       3.62010230e-03, -8.15738272e-03, 1.04419952e-02, -2.03254279e-02,
       -4.25227582e-02, -4.98765707e-02, -3.80351320e-02, 4.20230441e-02,
       3.33477370e-02, -1.62479896e-02, -8.01987667e-03, -1.12804759e-03,
       -1.63092148e-02, -1.80078633e-02, -9.48132016e-03, 1.86971258e-02,
       -1.06540427e-03, -5.17310668e-03, -1.14816139e-02,
       -5.83055010e-03, -1.06885494e-03, -3.84363299e-03,
       -5.04985731e-03, 2.78619137e-02, 3.43559012e-02, -2.68160831e-03,
       -5.19094011e-03, 2.32783891e-03, -1.80684903e-03, -7.75921484e-03,
       -2.15472784e-02, -4.91686957e-03, 6.54795095e-02, -3.83702666e-03,
       3.56436707e-02, 3.60966511e-02, 1.69916768e-02, -5.57693595e-04,
       -1.69992994e-03, -2.06237659e-02, -3.12553123e-02,
       -3.61095518e-02, -4.24162708e-02, 5.53246550e-02, 1.92248821e-02,
       7.33970199e-03, -1.41479727e-02, -6.54903008e-03, -1.55978538e-02,
       -3.12541798e-02, -3.72986607e-02, -2.04048236e-03, 4.85974438e-02,
       -6.11362047e-04, -1.39602115e-02, 5.01609407e-04, -1.91868190e-03,
       -3.48983100e-03, -1.21643785e-02, 1.06415013e-02, 5.88782830e-03,
       -3.04538617e-03, -8.35636258e-03, 4.60196985e-04, 8.81092716e-03,
       -1.01940483e-02, -5.77205652e-03, 1.26928068e-03, 2.90952604e-02,
       -5.04062185e-03, 1.10681877e-02, 6.43199217e-03, 5.75155998e-03,
       3.17865377e-03, -1.12751992e-02, -1.48739088e-02, -3.88887594e-03,
       2.02214485e-03, -3.74525203e-03, 5.23138046e-02, 1.91811454e-02,
       -9.20871086e-03, -6.29011169e-03, -8.29182193e-03,
       -5.45962201e-03, -1.94915812e-02, -2.11182758e-02, 9.49569419e-03,
       3.36680152e-02, 1.12644723e-03, -9.82681103e-03, -2.64114328e-03,
       -5.21938840e-04, -2.59134267e-03, -5.74466307e-03,
       -2.74971384e-03, -1.80189358e-03, -8.03581253e-03,
       -2.00621173e-04, -2.09277612e-03, 2.50892423e-04, -7.24485796e-03,
       -1.46987047e-02, -9.51897632e-03, 1.42233772e-02, 2.34642532e-02,
       -2.96217650e-02, -2.32188050e-02, 2.51482148e-03, 4.48425068e-03,
       -9.31729004e-03, -1.86776165e-02, -1.78856812e-02, 2.13825069e-02,
       2.32972857e-02, -1.16062416e-02, -2.23803166e-02, -1.15259578e-02,
       -1.63593236e-03, -1.56472134e-03, -7.70974904e-03,
       -1.07036615e-02, 7.98705034e-03, 1.07754869e-02, 6.19074446e-04,
       -6.58191973e-04, -1.20260855e-02, -7.11677969e-03, 2.32762704e-03,
       -7.19009247e-03, -1.04707535e-02, -1.59282610e-02,
       -1.16554154e-02, -1.11871539e-02, 5.69247780e-03, -5.19211823e-03,
       4.08668217e-04, 3.65556916e-03, -3.75233404e-02, -3.22682075e-02,
       7.44497217e-03, 4.94692624e-02, -2.78826300e-02, 1.42350420e-02,
       1.48628261e-02, 1.89931132e-02, 2.01151735e-04, -4.94218059e-02,
       -2.71721650e-02, 6.82680532e-02, 6.80398494e-02, -3.03693698e-03,
       -3.75140388e-03, -7.55622797e-03, 2.46092137e-02, -1.02206329e-02,
       -1.98050011e-02, -1.22267278e-02, 4.16622646e-02, 1.62098296e-02,
       2.45857332e-02, 1.64301731e-02, -1.51704876e-02, -3.15048057e-03,
       2.62670888e-04, -5.83290448e-03, -9.16912220e-03, -2.27635410e-02,
       -1.17107471e-02, 2.23705359e-02, 8.59361171e-05, -8.49633105e-03,
       -4.28526243e-03, -4.61674901e-03, -2.58833710e-02,
       -5.95172308e-02, -3.14374417e-02, 5.52734779e-03, 4.73170988e-02,
       1.35921622e-02, 9.24075302e-03, 8.25328380e-03, -9.56359785e-04,
       -3.73994261e-02, -4.62457463e-02, 1.38331680e-02, 2.63638068e-02,
       4.50168587e-02, -2.54324084e-04, 1.72969177e-02, 3.26065049e-02,
       -1.57031193e-02, -3.43761593e-02, -7.52368383e-03, 3.76157910e-02,
       2.41130479e-02, 2.94445716e-02, 2.00468339e-02, 9.20760632e-03,
       2.16461029e-02, -3.44643858e-03, -3.78009607e-03, -3.41489189e-03,
       -3.40086338e-03, 1.95957487e-03, 1.87924542e-02, 1.92891061e-03,
       -7.85281230e-03, -3.30497860e-03, -1.46270236e-02,
       -1.00572146e-02, -2.61661988e-02, -2.83536408e-02, 1.19799078e-02,
       5.08895256e-02, -6.93378830e-03, -1.19425729e-02, -5.18197007e-03,
       -9.83752217e-03, -1.78675111e-02, -2.02980526e-02,
       -1.05268983e-02, 1.31750582e-02, 5.62349260e-02, -3.66783980e-03,
       3.24559072e-03, 8.18887819e-03, -7.01478170e-03, -1.70003846e-02,
       5.30692050e-03, 3.26189125e-04, 1.50308544e-02, 1.96188409e-02,
       9.97639820e-03, -2.29954510e-03, 1.16684334e-02, -2.64754752e-03,
       -5.57120191e-03, -3.21270991e-03, 7.42444955e-03, 5.87906409e-03,
       -1.16544431e-02, -1.27610769e-02, -5.58998855e-03,
       -1.35848392e-03, -3.03290691e-03, -1.24704111e-02,
       -1.40671972e-02, 1.03260614e-02, 2.84959795e-03, 3.88096669e-03,
       1.31867966e-02, -1.30665377e-02, -7.91525934e-03, -6.07004808e-03,
       -1.72036830e-02, -2.95551699e-02, -4.66287415e-03,
       -3.04517150e-03, 2.44736634e-02, 1.90175343e-02, -1.45456791e-02,
       -8.34428146e-03, -6.20973809e-03, -1.18204663e-02,
       -1.36643089e-02, -1.23570040e-02, -3.28268018e-03, 6.97034132e-03,
       6.67307433e-03, -1.43593049e-03, -1.82444276e-03, -5.52112935e-03,
       -9.04739369e-03, 1.18980613e-02, 2.97804642e-02, 2.24240776e-02,
       -7.30969943e-03, -8.86893366e-03, -5.34562906e-03, 1.10843184e-03,
       -2.70386953e-02, -2.69006863e-02, 1.41263136e-03, 5.72732463e-02,
       2.38108696e-04, 3.70832756e-02, 6.33265376e-02, -1.98500622e-02,
       -1.72994472e-02, -4.10447791e-02, -4.35785167e-02,
       -3.73065695e-02, 7.21076922e-03, -8.72743689e-03, 2.59750523e-02,
       4.02714014e-02, -2.86084004e-02, -3.31647396e-02, -1.52472965e-02,
       -1.29624018e-02, -2.44322009e-02, -2.73985974e-02,
       -3.39244977e-02, 7.58224353e-03, 9.17354599e-03, -3.63383722e-03,
       -1.12669664e-02, -3.16011347e-03, -6.96591893e-03, 8.78186896e-03,
       6.33281795e-03, 1.76008139e-02, 1.46163236e-02, -4.28634230e-03,
       6.00541895e-03, 8.91176518e-03, -2.89054010e-02, -4.15285267e-02,
       5.70140854e-02, 5.44384494e-02, 1.43984389e-02, 2.30139159e-02,
       3.43813673e-02, 6.81399321e-03, 8.53854138e-03, -5.29022627e-02,
       -1.49940820e-02, 2.44400091e-02, 5.01667149e-03, -3.61521207e-02,
       -2.44239457e-02, 2.17988137e-02, -1.16995990e-03, -3.25692520e-02,
       -3.53613235e-02, 1.90962926e-02, -1.30629372e-02, -2.47241221e-02,
       -4.39764112e-02, 4.27177554e-04, 2.82428088e-03, -1.85241736e-02,
       -2.50976477e-02, -1.62955461e-04, -3.52241704e-03,
       -4.84488998e-03, -8.92319158e-03, 3.52631719e-03, 1.32782115e-02,
       1.40746182e-03, 3.21378559e-03, 4.46715485e-03, -1.38954027e-02,
       -1.37113854e-02, 5.67092858e-02, -7.96392839e-03, 8.23618658e-03,
       6.18659705e-03, 5.43115661e-03, -2.27665034e-04, 7.63352681e-03,
       -2.45227534e-02, 3.91201489e-03, 4.16412689e-02, -2.49830913e-02,
       -2.85297427e-02, -1.18500022e-02, -1.44080829e-03, 4.98842960e-03,
       -5.83649380e-03, -4.96919174e-03, 5.19393943e-03, -5.06272074e-03,
       -2.10765563e-02, -2.86420006e-02, -4.59430600e-03,
       -4.78211138e-03, -1.17419614e-02, -4.26410651e-03, 4.94052796e-03,
       -9.80684184e-04, -2.07655178e-03, -3.99028603e-03, 7.93780026e-04,
       2.22642301e-03, 3.40149552e-03, 8.26126779e-04, 8.30601528e-03,
       1.00605069e-02, 2.32635462e-03, -4.73459892e-04, -4.13528178e-03,
       7.21203629e-04, -8.47153948e-04, -6.44888077e-03, -5.07679023e-03,
       1.73809957e-02, 8.79772473e-03, 5.75785199e-03, -4.24844865e-03,
       4.83356323e-03, 2.02092761e-03, -9.20410361e-03, 1.89644247e-02,
       1.16077985e-03, 1.05626024e-02, 2.63824640e-03, 1.62648200e-03,
       -1.48919283e-03, 8.56851786e-03, 9.25314520e-03, -1.80559477e-03,
       6.55304175e-03, -2.05316977e-03, -1.88516453e-03, 1.13657061e-02,
       -3.24683241e-03, -1.54511640e-02, -1.03980284e-02, 1.30942939e-02,
       6.05847361e-03, 1.94289591e-02, 7.71862129e-03, 9.72924475e-03,
       1.69646423e-02, -1.24458624e-02, -1.08442260e-02, -1.15066590e-02,
       3.04636043e-02, 2.92752627e-02, -2.18088869e-02, -2.10764185e-02,
       1.87923517e-02, 3.17057152e-03, 1.73188583e-03, -1.47091160e-02,
       -9.73378029e-03, 1.90986823e-02, 3.26437578e-02, 2.80157048e-02,
       -3.86101846e-03, 7.20139407e-03, 7.61934184e-03, 1.17373960e-02,
       -1.30230049e-02, -6.69180299e-04, 1.99723672e-02, -5.11349086e-03,
       2.52970383e-02, 9.39699728e-03, -1.66176679e-03, 9.83253587e-03,
       -6.75925985e-04, -1.03009371e-02, -3.18382285e-03, 1.11059751e-02,
       1.51614156e-02, 3.05519495e-02, 1.77126750e-02, 4.12120949e-03,
       9.56052542e-03, -1.28402896e-02, -1.98365580e-02, -1.68257654e-02,
       2.75930855e-02, 2.37311050e-02, 1.46480734e-02, -9.54418536e-03,
       8.68620444e-03, -2.05825246e-03, 2.17192098e-02, -2.57044332e-03,
       -7.85814226e-03, 3.46899182e-02, -1.13774929e-03, -2.96029150e-02,
       2.57428945e-03, 6.54495694e-03, 3.28954891e-03, 1.80034414e-02,
       -2.28872467e-02, -6.29383465e-03, 2.80859750e-02, -2.82351170e-02,
       1.40551673e-02, 1.24657461e-02, 8.74577090e-03, 2.96033360e-03,
       -5.20070607e-04, -1.92229555e-03, -2.38881377e-03, 2.76965648e-03,
       -1.84332987e-03, 2.66524013e-02, 4.61150147e-03, 5.30827558e-04,
       3.36881587e-03, -4.67088888e-04, -1.32706380e-02, -9.15555935e-03,
       -1.20768575e-02, 6.42303890e-03, 2.61713769e-02, -7.55875255e-04,
       7.53246434e-03, -4.81278496e-03, 1.84202977e-02, 1.62538718e-02,
       -2.49824603e-03, -7.71869766e-03, -1.27887237e-04, 1.97845101e-02,
       -9.47551709e-03, 8.74399114e-03, -2.75247823e-03, 2.39623128e-03,
       1.07832276e-03, -3.41308233e-03, 1.62848495e-02, -2.06535961e-03,
       6.95311325e-03, -1.04344101e-03, -5.19630639e-03, 1.53894012e-03,
       -8.13369479e-05, -5.35452878e-03, 4.67966660e-04, 1.24502974e-03,
       -7.98655301e-03, 2.58497754e-03, 7.17085713e-05, 2.35087500e-04,
       2.69639655e-03, 4.60391864e-04, -3.51345097e-03, 1.24845477e-02,
       4.91993921e-03, -1.02662509e-02, 5.35529200e-03, -3.99872800e-03,
       -4.00006678e-03, -3.76597326e-03, -5.77643979e-03,
       -3.92173184e-03, 1.79795269e-02, -2.61495006e-03, -1.50675420e-02,
       -8.95327423e-03, -6.52503734e-03, -3.43956426e-03,
       -4.10075393e-03, -4.24259808e-03, -2.16638437e-03, 5.13055408e-03,
       -9.95508162e-04, 3.83059232e-04, -5.17198211e-03, -3.08398297e-03,
       2.80936365e-03, 3.17115779e-03, -1.83709187e-03, -1.64992772e-02,
       -1.09075001e-02, 7.18064792e-03, 3.79356183e-03, 8.20756890e-03,
       -5.06402180e-03, 4.21634613e-04, 9.19144042e-03, 1.53756859e-02,
       -1.41166924e-02, 2.55381260e-02, 4.24145861e-03, -1.13482224e-02,
       2.70807501e-02, -1.45094106e-02, -7.29004294e-03, 4.51602464e-05,
       9.88206477e-04, -3.20748575e-02, 6.17728457e-02, 1.07823331e-02,
       -3.26761641e-02, -2.57865130e-03, -2.45003775e-02,
       -1.75198056e-02, -3.03468714e-03, -9.61154420e-03,
       -4.54061385e-03, 3.38932984e-02, 2.46358407e-03, 1.62791729e-03,
       -1.18001699e-02, -2.07256079e-02, -5.68997348e-03, 3.89167736e-03,
       9.68716014e-03, -1.74628738e-02, -1.08551495e-02, 2.44969763e-02,
       -1.39816198e-02, -4.52390965e-03, 5.58836246e-03, 6.89068250e-03,
       6.83747837e-03, 1.97352190e-02, -3.55259217e-02, -1.24434503e-02,
       9.45165567e-03, -1.07624233e-02, 3.67976502e-02, -5.32082224e-04,
       2.56735031e-02, -1.86467022e-02, -5.61912032e-03, -3.23763229e-02,
       4.50805388e-02, -5.67613449e-03, -1.87827535e-02, 2.27732044e-02,
       -9.80377849e-03, -9.21064243e-03, -8.70929938e-03,
       -1.63383521e-02, 3.71810119e-03, 2.77223047e-02, -1.77952554e-02,
       3.92729696e-03, -1.31647696e-03, -2.56096162e-02, -2.01358013e-02,
       -3.04762943e-04, 4.55178553e-03, -1.12274149e-03, -1.07951406e-02,
       1.62387884e-03, 3.34755448e-03, 1.35627612e-02, 6.08932925e-04,
       4.03639348e-03, 1.64802407e-03, 1.96180074e-03, -1.17329564e-02,
       1.42148824e-03, 2.29370706e-02, 1.31244082e-02, 2.17938982e-02,
       -2.71487376e-03, 8.36652145e-03, 8.15951847e-04, 2.73778592e-03,
       -1.14941392e-02, 4.64925319e-02, -7.95192737e-03, -3.54827452e-03,
       1.76596753e-02, 8.82171746e-03, 1.26045439e-02, 6.11707009e-03,
       -4.23149811e-03, -2.51772441e-03, 3.36841494e-03, -1.19194873e-02,
       -8.99839029e-03, 1.14617427e-03, -4.04876284e-03, -1.33787713e-03,
       -1.44824211e-03, -1.52408867e-03, -2.13092752e-03, 5.13655739e-03,
       -7.42075150e-04, -3.91992275e-03, 2.74084602e-03, 7.19921809e-05,
       -1.41684688e-03, -5.22436714e-03, -4.24722582e-03,
       -6.98077539e-03, -6.96868729e-03, -1.15502402e-02, 2.23216321e-02,
       1.73588172e-02, 6.07297104e-03, 3.60154919e-03, -2.89238780e-03,
       -1.24835148e-02, -5.44276647e-03, -1.39480270e-02,
       -1.72270481e-02, 2.53757648e-02, 3.68835847e-03, 7.21279811e-03,
       5.27249184e-03, 2.40717735e-03, -6.83278264e-03, -7.59611838e-03,
       -6.20704435e-04, -6.51247986e-03, 9.33792349e-03, 2.90196505e-03,
       5.33669395e-03, 6.19748933e-03, 1.14325539e-03, 1.44870905e-03,
       -1.10137444e-02, 3.44740227e-02, 4.63755848e-03, -2.98067252e-03,
       1.37525573e-02, -1.29040366e-03, -5.71239553e-03, -3.34937568e-03,
       -1.02395099e-02, -2.41337530e-03, 1.18657127e-02, -1.98868737e-02,
       5.08355051e-02, 6.14115521e-02, 1.36937462e-02, 3.33318370e-04,
       -8.07590876e-03, -1.14500578e-02, -1.80829726e-02,
       -4.25463840e-02, -2.89873406e-02, 5.56480773e-02, 2.83572320e-02,
       7.16250017e-03, 5.12233423e-03, -1.05200929e-03, -6.33824989e-03,
       -1.15889823e-02, -1.40830697e-02, -1.01613044e-03, 9.23062488e-03,
       -1.14195584e-03, 7.75886700e-03, 6.77687256e-03, -4.57079895e-03,
       8.49685341e-04, -1.08307751e-03, 3.23796906e-02, 1.29917485e-03,
       9.05875582e-03, 2.57954448e-02, -3.82903754e-03, -1.21513586e-02,
       -1.17690191e-02, -2.64934693e-02, 3.30360793e-02, 4.43810262e-02,
       -2.68584844e-02, 4.96801920e-02, 6.92278370e-02, -1.81079004e-02,
       -2.16116514e-02, -2.85651907e-02, -2.07868498e-02,
       -1.46274986e-02, -2.56954189e-02, -2.48135310e-02, 5.93180843e-02,
       3.59290093e-02, -1.91801060e-02, -1.39375748e-02, -1.85140222e-02,
       -6.34076959e-03, -1.88293718e-02, -2.01441813e-02,
       -1.57093245e-03, 2.89965421e-02, -1.28319785e-02, -3.11429263e-03,
       -1.65938102e-02, 8.68252027e-05, -1.31379158e-04, 1.00305183e-02,
       1.46582471e-02, -5.20962849e-03, 2.89102877e-03, 1.84290186e-02,
       4.05728584e-03, 5.63005568e-04, -1.14855729e-03, -3.92121589e-03,
       1.12230582e-02, 1.16352011e-02, -2.31298320e-02, 1.29794003e-02,
       4.04402390e-02, -1.66833103e-02, -2.65582907e-03, -1.10442471e-02,
       -4.45151702e-03, -1.06261214e-02, -4.68123984e-03,
       -3.97511646e-02, 2.18702536e-02, 2.05075797e-02, -1.82108209e-02,
       -4.94789891e-03, -9.66523122e-03, 1.94807560e-03, -8.79907701e-03,
       -1.14509221e-02, -2.20922083e-02, 9.64526460e-03, -4.84203920e-03,
       -3.58728971e-03, -4.65223333e-03, -8.47952208e-04,
       -5.51511068e-03, -1.95656088e-03, -3.59006226e-03,
       -2.73543410e-03, 8.94109905e-03, 3.25954217e-03, 4.62562079e-04,
       -3.05729482e-05, 9.04574932e-04, -1.11171305e-02, 4.64048004e-03,
       2.48486339e-03, -2.25779391e-03, 1.74129549e-02, 1.31859947e-02,
       1.03995455e-02, 5.74221089e-03, -3.29383579e-03, -7.25435978e-03,
       -5.26415138e-03, 2.84034349e-02, 3.45320180e-02, -4.44319379e-03,
       -5.53920912e-03, 3.79867759e-03, 1.21892439e-02, -8.32010293e-04,
       -3.17017385e-03, -6.17025094e-03, 1.58451144e-02, 1.56105058e-02,
       9.89869703e-03, 4.64602548e-04, -1.30595814e-03, 1.19554275e-03,
       -4.85642301e-03, -5.57071622e-03, -8.42362922e-03,
       -1.33258067e-02, 1.14356179e-03, 2.00265553e-02, 1.27933407e-02,
       3.63127515e-03, -1.21587177e-03, -9.92316287e-03, -7.90013652e-03,
       1.96597329e-03, -2.22256910e-02, 1.37263676e-03, 2.52785832e-02,
       4.15200144e-02, 1.78994667e-02, 1.19658886e-02, -2.43092105e-02,
       -2.89629549e-02, -2.24726386e-02, 3.88672575e-02, 3.85848992e-02,
       -9.44848824e-03, -2.77807144e-03, 3.11399251e-02, 7.80899301e-02,
       -1.42853074e-02, -8.38200375e-03, -6.74170209e-03, 3.08086518e-02,
       1.26998536e-02, 1.31482165e-02, 4.48469212e-03, 1.57410149e-02,
       1.85166467e-02, -1.27993599e-02, -7.94567354e-03, -1.42216301e-02,
       -1.21020898e-02, 1.90380763e-03, 3.06336284e-02, 1.15945172e-02,
       -1.23485853e-03, -7.20463879e-03, -2.72384509e-02,
       -2.32775812e-03, -1.74961369e-02, -1.67829618e-02,
       -1.23412637e-02, 1.29270172e-02, 1.10696377e-02, 2.64960830e-03,
       -1.38586955e-02, -2.79279556e-02, -4.15633135e-02,
       -3.55110466e-02, 4.29706648e-03, 7.41723552e-03, -4.04580012e-02,
       1.67849183e-03, 1.04347290e-02, 4.87634242e-02, -8.26695748e-03,
       -1.38769392e-02, -7.91905727e-03, 9.74525884e-03, 6.23724889e-04,
       8.87747202e-03, 7.22602010e-03, 3.99766862e-02, 4.08571847e-02,
       -1.79779110e-03, -5.46143972e-04, -3.85688990e-03,
       -2.60573486e-03, -1.09517481e-02, 7.36660324e-03, 1.80481956e-03,
       -4.73116245e-03, 1.15595036e-03, -5.11922222e-03, 2.62104953e-03,
       -1.17327161e-02, -1.39210299e-02, -3.56475674e-02, 2.85783852e-03,
       -9.65814199e-03, -5.68538345e-03, -8.61220935e-04,
       -9.35402513e-03, -1.85239669e-02, -2.13279016e-02,
       -9.19458922e-03, -2.87911147e-02, -1.07218418e-02, 6.39505405e-03,
       -1.14299664e-02, -6.76912628e-03, 3.16223316e-03, 6.38655107e-03,
       -2.59608054e-03, -5.08300122e-03, -6.81615854e-03, 6.24544220e-03,
       1.29559925e-02, 9.12012300e-04, -4.50799358e-04, -1.29903224e-03,
       -2.49012397e-03, -4.22392599e-03, 1.18282763e-02, 1.13927601e-02,
       -1.55967940e-02, -9.58944485e-03, -2.00828444e-03, 9.88926622e-04,
       -5.57692628e-03, -4.02793149e-03, 4.59883502e-03, 3.06334700e-02,
       2.02554697e-03, 4.65680566e-03, -5.53788617e-03, -5.66891767e-03,
       -2.34269677e-03, -1.72597985e-03, -5.03960112e-03,
       -4.05371888e-03, -1.01475799e-02, -1.43230213e-02, 2.83497721e-02,
       -1.21302658e-03, -7.73778977e-03, -6.38282858e-03,
       -1.97266485e-03, -4.24635364e-03, -9.87034943e-03,
       -1.72573924e-02, -7.53687927e-03, 1.00259781e-02, -2.58072582e-03,
       -4.11714055e-03, 1.12215616e-03, -7.45813875e-03, -9.23209917e-03,
       -8.36637616e-03, 3.05371433e-02, 1.28098903e-02, -1.87431797e-02,
       -2.32479330e-02, 6.93895890e-06, 1.54384132e-02, -2.54241712e-02,
       3.56669980e-03, 3.80437858e-02, 5.61191440e-02, -1.41507620e-02,
       2.31989678e-02, -3.15657421e-03, -8.00217409e-03, -2.99124559e-03,
       -2.81970408e-02, -1.68533102e-02, 3.20782885e-02, 1.20557249e-02,
       -1.00794118e-02, 3.67409065e-02, 1.45920068e-02, -3.57344560e-02,
       -2.45160926e-02, -1.59068666e-02, -9.35085211e-03,
       -2.32773572e-02, -3.19476128e-02, -6.56510191e-03, 1.09035186e-02,
       -9.24856402e-03, -2.08584219e-02, -1.30450316e-02,
       -6.49596564e-03, -1.66532397e-02, -8.15783720e-03, 5.45063289e-03,
       4.52476786e-03, -1.26276230e-02, -2.58865487e-02, 3.92016862e-03,
       2.06868518e-02, -1.35038756e-02, 5.23208734e-03, 2.28768382e-02,
       3.42079513e-02, -2.24875263e-03, 2.52790377e-02, -1.18590090e-02,
       1.36338938e-02, 3.36860493e-02, -7.38148519e-04, -1.53307905e-02,
       3.09753604e-02, 3.19244936e-02, 1.96500123e-02, 2.85049826e-02,
       -3.00475955e-03, -2.51670517e-02, 1.61253307e-02, 8.43372662e-03,
       -8.76997132e-03, -6.52357144e-03, -1.95326786e-02, 1.41328186e-04,
       1.86341943e-03, -1.62022654e-02, -2.70931292e-02, -9.62448027e-03,
       -3.34355095e-03, -4.38871374e-03, -6.86440617e-03,
       -8.99073109e-03, -7.94375036e-03, -5.79290930e-03,
       -5.94299193e-03, 2.45709001e-04, -5.25826821e-04, 7.10743526e-03,
       1.89470034e-02, -2.22358759e-03, -6.45641610e-03, -8.83716345e-03,
       4.55181301e-03, 8.75353906e-03, 4.25490364e-03, 4.97877016e-04,
       3.15091833e-02, 2.74306294e-02, -8.08514748e-03, 8.36508721e-03,
       -1.40775209e-02, 1.00729438e-02, -8.10537767e-03, -1.89616834e-03,
       2.15551071e-02, 1.84032582e-02, 3.37519776e-03, -6.96534244e-03,
       -6.23995729e-04, -6.86057657e-03, -5.20816259e-03,
       -4.84255003e-03, -8.59369524e-03, -3.47444555e-03, 5.97964856e-04,
       -7.32772809e-04, -1.19165867e-03, -4.43134084e-03, 4.48136212e-04,
       2.14387793e-02, 1.48684543e-03, -2.55038799e-03, 1.17016039e-04,
       3.10700852e-03, -4.07827459e-03, -1.58458184e-02, 1.18176162e-03,
       1.63453799e-02, 3.10876425e-02, -8.81891791e-03, 3.86733166e-03,
       1.55867655e-02, 1.26156760e-02, -6.70240773e-03, -1.37101468e-02,
       3.51907089e-02, 4.41752076e-02, 8.48398264e-03, -2.14662608e-02,
       1.77432280e-02, 3.66697423e-02, 8.86893540e-04, -1.09246327e-02,
       -1.80666510e-03, 2.12604962e-02, 1.86982807e-02, 8.33301339e-03,
       4.51150304e-03, 9.07735620e-03, 1.90604199e-02, -7.52696348e-03,
       -1.01553614e-03, 8.38647876e-03, 3.74690420e-03, -4.91384976e-03,
       2.96137370e-02, 2.49315817e-02, -9.14902799e-03, -6.90135057e-04,
       -7.38913426e-03, -2.44808663e-03, -2.83917449e-02,
       -3.42439897e-02, -1.11610023e-02, 4.04371545e-02, -4.33884412e-02,
       -2.57979054e-02, 1.25468429e-02, 4.95740958e-03, -8.55487864e-03,
       -3.26526389e-02, 4.67458926e-03, 4.12990077e-04, 1.11877797e-02,
       -5.80026843e-02, 2.11950447e-02, 5.17886393e-02, -7.13740103e-03,
       -2.47526169e-02, -9.03696474e-03, 9.89975315e-03, 1.31724412e-02,
       1.65417080e-03, 8.84917844e-03, 2.02590730e-02, 3.69858406e-02,
       3.28296353e-03, -2.91318516e-03, 1.33042755e-02, 1.19125107e-02,
       -4.12121601e-03, 1.04258182e-02, 1.47254607e-02, -1.56056916e-03,
       6.53397292e-03, 2.59446185e-02, 9.13904235e-03, -1.72741467e-03,
       -3.13850306e-02, -2.57820934e-02, 7.21113477e-03, -4.24204879e-02,
       -4.22510952e-02, 3.42880638e-04, 1.82316843e-02, -1.25494841e-02,
       -3.52756828e-02, -4.22416143e-02, -2.17610877e-02, 2.34453902e-02,
       -3.04137710e-02, -2.13086460e-04, 2.06682663e-02, -1.26700317e-02,
       -2.03285515e-02, -1.37884039e-02, -3.69799184e-03,
       -1.07524171e-02, 2.19114609e-02, 1.75821483e-02, 2.81194467e-02,
       2.52313297e-02, 1.05942450e-02, 7.20026810e-03, -2.11987388e-03,
       4.36040480e-03, -9.62070073e-04, 4.87722177e-03, -1.96804365e-04,
       6.60905149e-03, 8.41528643e-03, 2.21891440e-02, 8.77112895e-03,
       -2.09516310e-03, 2.68406211e-03, 5.41700888e-03, -3.93467461e-04,
       -1.56486984e-02, -1.44134723e-02, -8.47229082e-03, 5.74619696e-03,
       -1.50122168e-02, -1.62836555e-02, -5.31229796e-03, 1.14547266e-02,
       1.67305004e-02, -1.04141207e-02, 8.50508083e-03, 3.22421566e-02,
       2.53985310e-03, 4.51689539e-03, 3.06239491e-03, 1.17671126e-02,
       -1.97149999e-03, 2.13245507e-02, -7.14483159e-03, 1.99009944e-02,
       3.39993723e-02, 1.62926188e-03, -2.83031329e-03, -4.45686543e-04,
       7.69476965e-03, 1.24545014e-02, 4.01644036e-03, -2.24308553e-03,
       2.10916810e-03, 6.49148319e-03, -6.75333245e-03, -1.67976674e-02,
       6.30586082e-03, 2.33860593e-02, 1.30334543e-02, 7.94383790e-03,
       1.48318466e-02, 1.11007197e-02, 1.54333469e-02, -2.02483293e-02,
       -7.15078460e-03, -1.45043610e-02, -1.76170655e-03,
       -4.35831537e-03, 1.90619467e-04, 1.73119809e-02, 2.13021617e-02,
       3.20443604e-03, -1.25146983e-02, 8.26925319e-03, -4.49115410e-03,
       -8.83772969e-03, -1.10700764e-02, 3.22143990e-03, 3.91762296e-04,
       -1.64926006e-03, -5.87047869e-03, 5.71315177e-04, -7.07446644e-03,
       -8.64020083e-03, 1.20647671e-03, 7.08601577e-03, 7.38260243e-03,
       -6.58229180e-03, 1.31591444e-03, 1.14562390e-02, -2.37844270e-02,
       -2.07847878e-02, 3.03405467e-02, -1.40889105e-03, 7.67262839e-03,
       -1.58864376e-03, 1.14126420e-02, 1.76626276e-02, 2.26886664e-02,
       -4.06112894e-02, -5.60649810e-03, 1.36243282e-02, -3.02594248e-02,
       -3.37811373e-02, -1.01258922e-02, 2.16293167e-02, 5.53736016e-02,
       5.91250975e-03, -3.54623375e-03, 2.30549090e-02, -7.45001715e-03,
       -2.85750609e-02, -4.23910357e-02, -1.88441493e-03,
       -6.76600635e-03, 1.83113955e-03, 1.49023824e-03, 7.08380074e-04,
       -6.76667830e-03, -1.43667702e-02, -1.48325879e-02,
       -7.26618199e-03, 8.14832840e-03, -2.28121644e-03, 5.32337185e-03,
       5.86864678e-03, -1.76855586e-02, 2.92256731e-03, 3.45979705e-02,
       -2.10112240e-02, -2.23264545e-02, 2.46029235e-02, -1.24410656e-03,
       2.33385637e-02, 2.90579479e-02, -4.25101519e-02, 6.87946891e-03,
       5.37758917e-02, -5.80474138e-02, -3.06873135e-02, 2.24273540e-02,
       -7.64529977e-04, 2.32179910e-02, 2.26862021e-02, -1.71907376e-02,
       3.20351124e-02, 1.20868618e-02, -1.87744778e-02, -3.27645242e-02,
       -2.78210733e-03, -1.22105991e-02, -1.85290072e-02, 1.99268135e-04,
       2.91569065e-03, -2.99830339e-04, -7.77180586e-03, -9.26960353e-03,
       -2.54209177e-03, 4.55150614e-03, 4.57452770e-05, 6.84983749e-03,
       1.28215151e-02, 7.66334822e-03, 1.89785510e-02, 1.48731191e-02,
       -6.27859728e-03, -1.00850863e-02, 2.36552171e-02, -2.56063160e-03,
       1.93343181e-02, 2.95494981e-02, -5.03052585e-03, -2.17819586e-03,
       8.60202685e-03, -2.84500644e-02, -2.15164013e-02, 1.56533401e-02,
       8.40612687e-03, 2.12943517e-02, 4.37147319e-02, -3.63098015e-03,
       2.26046201e-02, 2.10588370e-02, -8.46344978e-03, -1.44812725e-02,
       3.11586802e-04, -5.03436616e-03, -5.80070820e-03, 1.13984421e-02,
       2.40510772e-03, -1.03766033e-04, -2.39445199e-03, -1.68842671e-03,
       -3.84760625e-03, 9.79533233e-03, 1.68395489e-02, 3.99325788e-03,
       1.78502477e-03, 7.26505532e-04, 4.06879437e-04, -5.02830464e-03,
       -8.76002479e-03, -4.16222261e-03, 1.86535902e-02, 2.42801644e-02,
       5.02603455e-03, 3.27732717e-03, -2.25324766e-03, 1.43798022e-02,
       7.03085493e-03, -1.50334919e-04, 1.14369961e-02, -4.62540006e-03,
       -4.07219911e-03, 3.92658915e-03, 1.21059148e-02, -4.69832157e-05,
       5.39914519e-03, -3.85490916e-04, 4.18193312e-03, 6.42396836e-03,
       -2.34468095e-03, 5.78007777e-04, 3.26760602e-03, 1.20272078e-02,
       -3.76110838e-04, -3.65577964e-03, -5.74775878e-03,
       -2.77033891e-03, 8.22501630e-03, -3.67955910e-03, 5.24654202e-02,
       6.54153246e-03, -4.48498735e-03, 9.25414544e-03, -2.15449324e-03,
       -3.11321951e-02, -1.36892824e-02, -1.86006557e-02,
       -3.33120162e-03, 4.76805270e-02, 1.99395251e-02, 1.93858091e-02,
       8.84766318e-03, 2.59049907e-02, 2.14615446e-02, 9.43178497e-03,
       -2.60020532e-02, 7.49633182e-04, 1.54389022e-02, -7.33060110e-03,
       4.12332565e-02, 7.06108287e-03, 5.29975863e-03, 7.92249851e-03,
       -3.05312569e-03, 3.03354836e-03, 1.10908272e-02, 1.25322482e-02,
       9.50815214e-04, 1.66159365e-02, -3.62827233e-03, -6.82998169e-03,
       -3.07156076e-03, 5.55864861e-03, 1.40726175e-02, -8.19678418e-03,
       2.29337588e-02, 1.85634419e-02, -8.00091773e-03, -2.70498218e-03,
       -1.79852881e-02, -3.00424248e-02, 3.64365079e-03, -5.37755806e-03,
       2.55657043e-02, -1.34153822e-02, 1.80488192e-02, 1.32226516e-02,
       1.07282354e-03, 4.73635737e-03, -2.86495290e-03, 2.36030277e-02,
       -2.91956998e-02, 3.37954424e-02, -3.56373303e-02, -9.93451755e-03,
       2.74283509e-03, -1.85666583e-03, 6.33926643e-03, 1.14636533e-02,
       -3.89943598e-03, -1.50047056e-02, -9.32117645e-03,
       -1.88739561e-02, -8.74186773e-03, -5.71482163e-03,
       -3.91445775e-03, -4.58844146e-03, -1.37570768e-03, 5.29725291e-03,
       6.21912186e-05, -7.57817354e-04, -4.62611718e-03, 2.14560777e-02,
       -3.84532090e-04, -8.65835790e-03, -1.47678172e-02,
       -9.65662301e-03, 1.14161111e-02, -1.78981014e-02, 3.56299728e-02,
       -3.53959436e-03, 2.61396859e-02, 1.18293902e-02, -4.13820287e-03,
       -6.76230341e-03, -1.84423607e-02, 8.18126556e-03, -2.25042105e-02,
       1.38666695e-02, -2.96252016e-02, -2.61656996e-02, -4.64955764e-03,
       -9.32635088e-03, -2.00359779e-03, -7.93560129e-03, 2.88684882e-04,
       -2.46870052e-03, -1.23748304e-02, -2.37552039e-02,
       -1.42536815e-02, -1.00026932e-02, 5.41242014e-04, 3.47846886e-03,
       7.41977245e-04, 1.64312986e-03, 5.45320846e-03, -1.34060634e-02,
       -1.40712680e-02, 1.23409642e-04, 4.52736206e-03, -3.80315189e-03,
       -6.83298276e-04, -5.27924998e-03, 2.26161117e-03, 5.44892531e-03,
       -4.06832807e-03, 5.66814281e-03, 5.42174606e-03, 2.10665427e-02,
       -1.27190286e-02, -8.06636084e-03, -6.00497564e-03, 3.43251713e-02,
       1.71939330e-03, -6.85844524e-03, 1.12058576e-02, 1.03901047e-02,
       6.04821090e-03, -5.88806765e-03, -4.09037573e-03, 7.75574986e-03,
       1.61461215e-02, -2.65464233e-03, 5.22731745e-04, 2.25464907e-03,
       -3.09194485e-03, -1.02212857e-02, 2.20072005e-04, 4.37460560e-03,
       7.02787656e-03, 4.38858202e-04, -1.80317834e-03, 5.28226979e-03,
       -1.39963236e-02, -8.13044142e-03, 7.88329355e-03, 2.02745968e-03,
       -1.13450075e-02, -1.79435257e-02, 4.31370828e-03, 1.71032790e-02,
       1.52819538e-02, 1.89526919e-02, 8.63179937e-03, 2.43626144e-02,
       -1.26438718e-02, -1.60578191e-02, -1.31851342e-02, 4.85040359e-02,
       -5.59930969e-03, 1.05329016e-02, 1.57846995e-02, 5.37295826e-02,
       5.35819903e-02, -6.52888324e-03, -6.38105441e-03, 1.44715104e-02,
       2.94641592e-02, 7.13434350e-03, -1.10579040e-02, -2.48284661e-03,
       2.36934912e-03, 1.33327749e-02, -1.81830209e-03, -1.67656632e-03,
       -5.73528931e-03, 4.58577974e-03, -1.18594645e-02, 1.58290006e-02,
       -2.08119005e-02, 2.78089684e-03, -5.80604933e-03, -1.07992161e-02,
       -2.31957603e-02, -1.81098804e-02, -6.50513219e-03,
       -1.34617100e-02, -1.59133843e-03, -6.19980786e-03,
       -9.14310478e-03, -9.01054684e-03, 3.72929662e-03, -1.40759358e-02,
       -3.67515348e-02, 7.17532588e-03, -3.54055613e-02, 1.33065125e-02,
       -7.11804070e-03, 3.51498835e-02, 1.74870603e-02, 1.55449081e-02,
       1.42833618e-02, 5.59096644e-03, 1.05672721e-02, 7.46659702e-03,
       -2.48514488e-02, -2.00548563e-02, 1.70148984e-02, 3.00227441e-02,
       -6.84055313e-03, -5.72913093e-03, -1.28882490e-02,
       -3.58699844e-03, -8.84253904e-03, 2.87495856e-03, -1.35860834e-02,
       -5.26442612e-03, -6.87405374e-03, -2.54022218e-02,
       -1.51027692e-02, -2.47783568e-02, -7.86688831e-03,
       -1.20460643e-02, -6.61900640e-03, -1.98343825e-02,
       -1.15034627e-02, -1.63191259e-02, -1.60700195e-02,
       -2.08575688e-02, -3.51306424e-02, 1.37821836e-02, -1.50632719e-02,
       -1.13507723e-02, -2.61523016e-02, -1.12533644e-02,
       -2.12350376e-02, 1.21512096e-02, 1.23152779e-02, 1.04709389e-02,
       1.73190050e-02, 1.17299054e-03, -2.12545730e-02, -3.18493731e-02,
       -3.16814869e-03, -5.10041486e-04, -3.64331063e-03,
       -3.82934639e-04, -8.35927145e-04, 1.45831853e-02, 9.58438730e-04,
       -8.07245553e-04, 9.15437471e-03, 1.03787379e-03, -3.61146196e-03,
       -1.57056861e-02, -7.53460126e-03, 1.24436580e-02, 2.66063027e-02,
       -9.69870202e-03, 1.61505193e-02, 2.63836738e-02, -4.02321573e-03,
       -1.19141852e-02, -2.31989920e-02, -8.09957180e-03, 2.62346538e-03,
       1.07745752e-02, -1.72147471e-02, 2.41142251e-02, 7.43635884e-03,
       -1.13029778e-02, -1.01777660e-02, -9.08255298e-03,
       -3.32823233e-03, -7.44920503e-03, -5.51717402e-03,
       -8.94928258e-03, 5.99570246e-03, -2.83636176e-03, -1.17412128e-03,
       -5.26612718e-03, -6.72052847e-03, -5.22154244e-03, 8.87000374e-03,
       4.43060063e-02, 1.45008788e-02, 1.56607537e-03, 1.28137683e-02,
       7.38249859e-03, 8.05174373e-03, -2.30327044e-02, -4.05992940e-03,
       2.51669232e-02, 5.24945967e-02, 9.50497855e-03, 6.87571242e-03,
       4.60230969e-02, -1.38140060e-02, -2.58041546e-03, -3.69907245e-02,
       -1.34194745e-02, 6.82282867e-03, 1.76802054e-02, -4.31211293e-02,
       2.14203093e-02, -2.72278721e-03, -2.71670558e-02, -2.49236766e-02,
       -3.04845478e-02, -5.53082209e-03, -1.24662109e-02,
       -1.28662605e-02, -1.88153405e-02, 7.38191139e-03, -1.27407340e-02,
       -6.44049793e-03, -2.13062856e-02, -1.27951172e-03,
       -3.11995274e-03, 9.00128041e-04, 2.87931412e-02, 5.53151313e-03,
       2.50076945e-03, -3.89510626e-03, 1.41288508e-02, 9.89269465e-03,
       9.46882647e-03, 1.86485760e-02, 2.22116783e-02, 4.70159277e-02,
       2.79652216e-02, 4.09705937e-03, 1.07051805e-02, 1.09497970e-03,
       3.32314223e-02, 5.82255377e-03, 1.43289911e-02, -1.68798119e-02,
       3.25129814e-02, 9.09906626e-03, 3.85181867e-02, -2.78825816e-02,
       -6.45549735e-03, 4.27515199e-03, 3.64967482e-03, -1.20613840e-03,
       -2.35372037e-02, -4.15431568e-03, -5.17859496e-03, 8.74765310e-03,
       -1.66013911e-02, -1.55773200e-02, -1.01129515e-02,
       -6.42861938e-03, -7.60109024e-03, -1.08243385e-02, 1.44272512e-02,
       2.92137498e-03, -2.93665566e-03, -5.60140191e-03, 1.94802717e-03,
       -8.38281121e-03, 2.51446366e-02, 1.31592648e-02, 1.22377053e-02,
       2.33988129e-02, 8.70006718e-03, -2.48760614e-03, -1.27861956e-02,
       -4.04858263e-03, 7.35429488e-03, 3.56657282e-02, 2.64785383e-02,
       -1.76746473e-02, -4.31176694e-03, 1.07417314e-03, 8.96934047e-03,
       -5.52087743e-03, 7.38166692e-03, 1.90167818e-02, 9.74330027e-03,
       3.01421649e-04, -1.48674110e-02, 2.89955339e-03, -7.06168171e-03,
       9.75355227e-03, -1.54494494e-02, -2.48525990e-03, 2.34448118e-03,
       -4.37548151e-03, -5.97913750e-04, 3.67970060e-05, 2.29580328e-03,
       -2.61474110e-04, 2.14636680e-02, 7.37468619e-03, -3.96768237e-03,
       -3.46459704e-03, -3.69038130e-03, -1.80760137e-04,
       -4.04742220e-03, 6.77093631e-03, -1.65051816e-03, 1.99659374e-02,
       5.58826560e-03, 2.35362886e-03, 1.42984162e-03, -4.31167288e-03,
       -6.94912020e-03, -1.10208876e-02, 2.34990977e-02, 2.04245709e-02,
       -1.30047631e-02, -9.05308034e-03, 2.13734098e-02, 3.06736622e-02,
       -1.38729357e-03, 9.63542436e-04, 1.48241792e-03, 1.00448597e-02,
       1.65618286e-02, 8.43471382e-03, -4.19330172e-06, 2.40362696e-02,
       2.21062880e-02, -5.92485350e-03, -6.94552873e-05, 9.12203081e-03,
       1.40711488e-02, -5.62495831e-03, 3.22918445e-02, -6.99481810e-04,
       -1.30869495e-02, -6.27016928e-03, -1.98302139e-02, 5.43387327e-03,
       -1.77175924e-03, -1.27478398e-03, -3.62991169e-02, 2.69502401e-02,
       -2.79388465e-02, -2.69438997e-02, -1.60976183e-02,
       -3.10337022e-02, -2.17072833e-02, -4.60333265e-02, 2.27944041e-03,
       -2.53189038e-02, -1.21622216e-02, -1.11867217e-02,
       -4.69276495e-03, -2.06169635e-02, -4.60060220e-03, 1.38975112e-02,
       -7.21752131e-03, 6.12333883e-04, -1.14232465e-03, 1.54384430e-02,
       2.03199238e-02, 1.54660596e-02, 4.07257117e-03, 9.43809655e-03,
       1.26131801e-02, 1.55703316e-03, 2.67056916e-02, 9.82102100e-03,
       2.23251227e-02, -1.69652440e-02, -2.67125317e-03, 4.44463687e-04,
       9.35126189e-03, -2.69483798e-03, -3.32437269e-03, 3.76659818e-02,
       3.05513362e-03, 2.83626094e-02, -3.63877304e-02, -4.77774628e-02,
       -1.45698292e-02, -2.22931802e-02, -4.68514953e-03,
       -4.57798019e-02, 1.12932606e-03, -9.42163635e-03, 7.99638480e-02,
       7.83169456e-03, -4.89599518e-02, -2.66397838e-02, -8.28963704e-03,
       2.61321738e-02, 3.79327312e-03, 5.09595824e-03, -1.02864625e-02,
       5.08738458e-02, 1.40077882e-02, -2.66293865e-02, -2.60448456e-03,
       9.74107068e-03, 1.08081847e-02, -7.51839345e-03, 4.84404340e-03,
       8.30400176e-03, 1.08925197e-02, -6.44494966e-03, 9.59767681e-03,
       3.96425789e-03, 8.26943014e-03, -3.75305559e-03, -4.56228573e-03,
       4.07079570e-02, 1.82458628e-02, 4.35765162e-02, -1.24350758e-02,
       -7.18871923e-03, 2.02652719e-03, 2.57107820e-02, 1.36975879e-02,
       -7.44732749e-03, 2.27043834e-02, -8.83539324e-04, 4.63963859e-02,
       1.72868352e-02, -1.12168435e-02, 1.03374943e-02, 3.60264909e-03,
       1.91425439e-02, 1.73577364e-03, 3.48095037e-03, -1.11147288e-04,
       4.21812665e-03, 3.30136251e-03, -3.23646003e-03, 6.20636996e-03,
       -8.59843800e-04, -1.78222905e-03, -1.61731534e-03, 9.83362924e-03,
       1.76222697e-02, 5.70445880e-03, -3.48628382e-03, 2.93171313e-03,
       6.22442411e-03, 7.98408035e-03, 1.30727701e-02, 8.09487235e-03,
       1.87915638e-02, 2.69349925e-02, 3.18737738e-02, 1.32257482e-02,
       1.76859405e-02, 2.17031538e-02, 2.82452423e-02, 1.36961909e-02,
       2.35381890e-02, 8.38081259e-03, -3.44342901e-03, 1.69595703e-02,
       3.65076680e-03, 3.92719638e-03, 2.93402281e-02, 1.64776035e-02,
       4.59019374e-03, 8.04565381e-03, -1.28718801e-02, -1.36626596e-02,
       -5.55915060e-03, -5.64132677e-03, -1.56910450e-03, 7.76318135e-03,
       -4.60853288e-03, 5.85414516e-03, -1.07880561e-02, 1.48170453e-03,
       2.23456882e-03, 6.91938912e-03, -3.69343930e-03, 2.04105815e-03,
       -2.29756464e-03, 3.53391394e-02, 7.37161785e-02, 1.84694976e-02,
       2.56866161e-02, 6.71439571e-03, 1.44175114e-02, 7.55413575e-03,
       1.83786470e-02, 1.09167146e-02, 4.90498058e-02, 8.17732289e-02,
       1.78027954e-02, 5.58858402e-02, 1.52145536e-03, 1.22715179e-02,
       -1.19890077e-02, 1.02879051e-02, 1.82870887e-02, 2.08139699e-02,
       2.33140774e-02, 1.35011179e-03, 1.70983821e-02, -4.92360862e-03,
       2.05778597e-05, -9.18848068e-03, -1.44830449e-02, -1.57550361e-03,
       -1.09364933e-04, 2.95164846e-02, -5.56785520e-03, -3.02763004e-03,
       -7.96644855e-03, 2.19084211e-02, 8.22825707e-04, -8.61447211e-03,
       -5.21186646e-03, -5.86854201e-03, 7.82396048e-02, 1.35463001e-02,
       1.17959520e-02, -1.48822339e-02, 3.05423625e-02, -4.64976951e-03,
       -3.37921060e-03, 9.94591601e-03, -2.19840221e-02, 5.97103350e-02,
       -1.72980595e-02, 3.60952727e-02, 1.57094114e-02, 1.26243262e-02,
       2.85796672e-02, 5.09132724e-03, -1.42319929e-02, -1.53784165e-02,
       2.12098304e-02, 1.29484357e-02, 2.45056339e-02, -2.71740952e-04,
       1.29161524e-02, -1.19533557e-02, -3.51223238e-02, -1.24726128e-02,
       5.79174422e-03, 1.02295317e-02, -1.73837924e-03, 5.27325179e-03,
       9.20239952e-04, 5.49042784e-03, 5.48947370e-03, -3.71561782e-03,
       -4.35235124e-04, -2.15641558e-02, 2.47103926e-02, 1.42925493e-02,
       3.85002769e-03, 1.16555272e-02, 7.77803268e-03, -1.88006237e-02,
       1.99215417e-03, -6.67497562e-03, -2.96318252e-03, 1.37229627e-02,
       -9.85611044e-03, -1.07785100e-02, 5.04001882e-03, -5.65626612e-03,
       -1.16678281e-02, -3.04543297e-03, 2.79630045e-03, -5.43107977e-03,
       -2.94216746e-03, 4.03049547e-04, 2.21041893e-03, -1.26473547e-03,
       5.79543877e-03, -8.33634287e-03, -1.00138150e-02, 2.51397863e-03,
       9.33172274e-03, 7.75388908e-04, 2.36765156e-03, 2.20727548e-03,
       -2.10105698e-03, 2.80560716e-03, 1.19855907e-03, -2.75269803e-03,
       6.73023984e-03, 2.97260620e-02, 6.33457676e-03, 1.78325619e-03,
       -1.28814178e-02, -1.59485582e-02, -6.76203053e-03,
       -1.60300583e-02, -1.06683020e-02, 8.38003028e-03, 2.05081813e-02,
       1.52615306e-04, -1.26105938e-02, -2.08325870e-02, -1.48174493e-02,
       -4.65651974e-03, -7.69847911e-03, 1.10147242e-02, 2.31796484e-02,
       2.99180835e-03, 2.47871946e-03, -6.63403748e-03, -5.51491138e-03,
       -9.30524152e-03, 8.58965155e-04, 9.73628834e-04, 1.49117038e-02,
       1.81428753e-02, 1.72259547e-02, 2.57004667e-02, -8.02752655e-03,
       1.20399659e-02, -9.91099980e-04, 4.37793927e-03, -9.64447111e-03,
       -1.19831297e-03, 5.27148787e-03, 4.26752754e-02, 1.69689264e-02,
       -1.18129440e-02, 1.28981881e-02, -1.04730316e-02, 1.34346669e-03,
       -2.66837496e-02, -3.36774811e-02, -4.74094879e-03, 6.36763638e-03,
       -3.08922064e-02, -1.35468626e-02, 1.69350728e-02, 1.48072653e-02,
       2.12741224e-03, -2.32716501e-02, 1.97340865e-02, 8.10033605e-02,
       -5.79363853e-03, 4.16739471e-03, 7.72622833e-03, 3.55550908e-02,
       3.02020297e-03, 2.03299075e-02, -1.20482305e-02, 6.22491576e-02,
       7.69892260e-02, -8.34750477e-03, 1.83589850e-02, -1.25995362e-02,
       -1.28537591e-03, 5.69650112e-03, 6.99872524e-03, 6.08979026e-03,
       -4.11522761e-03, -9.91350506e-03, -1.31855020e-02, 1.03392722e-02,
       -7.25246454e-03, 3.49485390e-02, 4.20514867e-03, 2.00454667e-02,
       -2.54405178e-02, -6.48159832e-02, -2.93057971e-02,
       -1.21866828e-02, -1.82000585e-02, 1.06391450e-03, 4.17254455e-02,
       3.06517538e-02, 1.86519716e-02, -1.57911815e-02, -2.42454167e-02,
       1.08007137e-02, -8.87646060e-03, -1.12213958e-04, 1.46695580e-02,
       3.75511684e-02, 1.84486285e-02, 2.15683579e-02, 8.23016092e-03,
       5.39554097e-02, 3.14069986e-02, 3.17272730e-04, -1.52154663e-03,
       -1.12863583e-02, -6.87995087e-03, 1.67345803e-03, -3.42206651e-04,
       -1.18410925e-03, -7.87329918e-04, 5.17853629e-03, -1.15697458e-02,
       -4.57616476e-03, -3.02682072e-03, 1.09979289e-03, 1.63029297e-03,
       1.15921944e-02, -1.71426442e-02, -2.02290025e-02, 1.12428982e-03,
       -2.91555896e-02, -8.71498976e-03, 1.29991379e-02, 2.41564661e-02,
       1.26122981e-02, 5.16858771e-02, -1.38326045e-02, -2.59187613e-02,
       1.38873039e-02, -6.95588812e-03, 1.92513294e-03, 3.85728595e-03,
       1.61319971e-02, 7.39750685e-03, 3.39852013e-02, 1.77967572e-03,
       -1.19498954e-03, 1.20707918e-02, -4.68769664e-04, -4.82629007e-03,
       -6.94744894e-03, -4.30455059e-03, -4.15074732e-03, 8.64246103e-04,
       -7.62092299e-04, 2.55865464e-03, 2.23824778e-03, -5.76775288e-04,
       -3.30704101e-03, -7.51303416e-03, -9.71591938e-03,
       -1.22167487e-02, 4.93930886e-03, -3.42115527e-03, 6.50498131e-03,
       1.18431402e-02, -5.76817850e-03, -4.34049452e-03, -1.04793217e-02,
       -2.64486540e-02, -1.46800876e-02, 3.02978116e-03, -1.60440372e-03,
       3.78446141e-03, 1.17444303e-02, -4.73771663e-03, 6.21460797e-03,
       -3.51711386e-03, -7.25289760e-03, -1.01443483e-02,
       -1.43493549e-03, -6.14320394e-03, -7.69661320e-03,
       -2.68109667e-04, -8.56029708e-03, -1.34696495e-02,
       -1.62880942e-02, -7.89799262e-03, 6.91854148e-05, 4.29811794e-03,
       -5.38935699e-03, 1.01545434e-02, 1.73217133e-02, -1.42596215e-02,
       -7.68709229e-03, -9.35137272e-03, 1.22773042e-02, -7.53669208e-03,
       2.40208860e-02, -5.69584174e-03, 3.36260237e-02, 3.74826640e-02,
       -1.53970011e-02, -2.35688947e-02, -1.33867580e-02,
       -1.94717664e-02, -2.39851829e-02, 8.74072593e-03, 3.06047685e-03,
       2.88321823e-02, 5.19370399e-02, -1.29530521e-03, 2.24289894e-02,
       3.16701923e-03, -2.25272588e-02, -2.49516238e-02, 1.18656014e-03,
       -1.28975119e-02, -7.60360295e-03, 1.47998463e-02, -1.64731313e-02,
       -1.62367262e-02, -1.28214601e-02, -3.82816186e-03, 1.12255299e-02,
       7.55110942e-03, 1.12717936e-03, 2.05942575e-04, -3.44633171e-03,
       -2.89991554e-02, -2.23639905e-02, -2.11885944e-03, 3.27196978e-02,
       1.68514401e-02, 1.21140731e-02, 9.09877941e-03, 4.19760570e-02,
       2.69838236e-02, -5.31407015e-04, -2.46637687e-02, 3.84742115e-03,
       6.19280376e-02, 2.13081557e-02, 1.93743389e-02, -1.92246947e-03,
       2.81702094e-02, 5.49471453e-02, 1.11294379e-02, 5.18290102e-02,
       2.14019008e-02, -7.72532122e-03, -2.01824252e-02, 4.32579173e-03,
       -9.21463128e-03, 4.51499509e-04, 3.00015919e-02, -9.85562149e-03,
       -5.47800073e-03, -2.32526963e-03, -1.03278924e-03, 1.20745180e-03,
       7.83730578e-03, -1.69384701e-03, -4.95417928e-03, 3.29547538e-03,
       -1.35461204e-02, 1.34023838e-03, 2.42685643e-03, 1.47218788e-02,
       1.76567712e-03, 1.56922173e-02, 5.46290213e-03, 7.28600705e-03,
       4.84971935e-03, 8.56600143e-03, 5.81358187e-02, 7.66415196e-03,
       5.29386550e-02, 1.79785455e-03, 1.09980972e-02, -3.98158300e-04,
       1.40737807e-02, 2.49723103e-02, 3.40241194e-02, 8.00701454e-02,
       1.42111219e-02, 2.15443764e-02, -3.64150852e-03, 2.54326529e-04,
       -5.45775471e-03, 2.14776606e-03, 5.07541783e-02, -1.48036412e-03,
       -2.28910544e-03, -1.82490901e-03, 2.73000309e-03, 5.00538060e-03,
       8.16389093e-06, -1.58317926e-04, 6.41213078e-03, 5.30915800e-04,
       -4.25235182e-03, -4.38663783e-03, -6.79830229e-03, 4.82468773e-03,
       -6.10651262e-03, 3.70223634e-02, 1.35468105e-02, 1.43780224e-02,
       6.79915072e-03, -2.77911546e-03, 4.01014136e-03, -7.97491346e-04,
       7.13859545e-03, -7.28091411e-03, 2.59632282e-02, -7.10546039e-04,
       1.07662019e-03, -5.07372257e-04, -2.08745105e-03, 5.08748600e-03,
       5.67855639e-03, 1.74305926e-03, 1.46983145e-03, -2.96780514e-03,
       -7.02444185e-03, 4.03166137e-04, -1.90442428e-03, -2.53950385e-03,
       -3.95382335e-03, -1.06767670e-03, 5.53256972e-03, 2.93426169e-03,
       1.42096216e-02, -9.38889477e-03, 1.55546125e-02, -1.65174971e-03,
       -1.09794457e-02, -1.33304745e-02, -8.92856531e-03, 9.96050984e-03,
       -2.95814630e-02, 5.61061800e-02, 1.75963137e-02, 5.76133765e-02,
       1.44968117e-02, 1.77308673e-03, -1.05638038e-02, -3.27494070e-02,
       6.93402579e-03, -3.73161770e-02, 1.78373493e-02, -1.69507824e-02,
       -7.52473297e-03, -1.37407323e-02, -5.78185078e-03,
       -2.46340130e-03, -1.47311771e-02, 1.77829200e-03, -7.06487102e-03,
       -1.22969765e-02, -3.57269980e-02, -2.23344639e-02,
       -1.47716161e-02, 7.84524996e-03, 3.26538808e-03, -4.53933235e-03,
       -3.60005186e-03, -9.14810132e-03, 2.18777005e-02, 3.50807328e-03,
       8.27702228e-03, 3.74403922e-03, -3.22807790e-03, 6.66954042e-03,
       -1.83195379e-02, -9.08327289e-03, -9.01373848e-03, 7.61962608e-02,
       2.95597091e-02, 5.57134375e-02, 7.63361575e-04, -5.82119729e-03,
       -1.69861247e-03, -3.61302793e-02, -2.43716338e-03,
       -1.42660178e-02, 8.21895991e-03, -4.08029035e-02, 2.69673709e-02,
       -2.98505723e-02, -5.73328056e-04, -2.97276489e-03,
       -1.80721544e-02, -4.17290209e-03, -1.58090033e-02,
       -2.00674627e-02, -4.12746519e-02, -2.48605143e-02,
       -1.43162608e-02, 2.50652921e-03, 3.50619294e-03, -4.59004147e-03,
       -4.09468217e-03, -2.39141867e-03, 9.46018938e-03, 1.31972888e-02,
       -6.69676624e-03, 1.26555364e-03, -5.05085755e-03, 6.23121625e-03,
       -1.38825821e-02, -7.20116263e-03, -4.48155391e-04, 3.21797095e-02,
       1.37308957e-02, 4.38778363e-02, 1.20506538e-02, -1.99597236e-03,
       1.11099323e-02, -2.88855424e-03, 3.33493040e-03, -7.25209434e-03,
       1.13842310e-02, -1.36998771e-02, 2.58360151e-02, 3.95728881e-03,
       -2.31706374e-03, 5.02639357e-03, 6.93673687e-03, 1.87278376e-03,
       -4.66733659e-03, -4.16126451e-04, -3.41654941e-03,
       -1.55858668e-02, -1.56801415e-03, -9.44305270e-04, 1.93466758e-03,
       -4.66772108e-05, 3.79559421e-03, -1.41324781e-04, 1.78668313e-02,
       -4.34992020e-04, -1.85345393e-03, -2.09781621e-03,
       -6.08881703e-03, 2.07305490e-03, 5.73809724e-03, 1.05227390e-02,
       8.72833747e-03, 1.98049080e-02, 4.55388566e-03, 3.17446887e-03,
       4.83240653e-03, 1.31664274e-03, 8.43440866e-05, 9.13738739e-03,
       3.83629128e-02, 8.43008049e-03, 1.70205291e-02, 9.17520025e-04,
       2.72960830e-02, 1.52169839e-02, 3.24410177e-03, 3.42584797e-03,
       1.30168581e-02, 2.65561491e-02, 2.03108881e-02, 6.45322306e-03,
       -9.95053095e-04, 1.47090629e-02, 8.48424155e-03, -2.59012775e-03,
       -6.60837162e-03, -1.63955316e-02, 3.51408287e-03, -8.97010416e-03,
       2.29148269e-02, -1.13607068e-02, -1.03609543e-03, -4.29361174e-03,
       -2.78360173e-02, -8.06542393e-03, -2.38994919e-02, 2.37414241e-03,
       -1.15833934e-02, 1.02467379e-02, -3.56449820e-02, -2.28226501e-02,
       -2.21103821e-02, -3.00105233e-02, -3.52729708e-02,
       -4.18762192e-02, 1.72146671e-02, -4.32225456e-03, 4.40072094e-04,
       -1.58602670e-02, 1.71099696e-02, -1.64354928e-02, 1.17182992e-02,
       5.61750727e-03, 2.11482234e-02, 5.08824661e-02, 3.33948620e-02,
       -4.87162918e-03, -2.69327480e-02, 6.15294650e-03, 2.79294769e-03,
       3.96795658e-04, -3.24036321e-03, -2.05726027e-02, -3.60735855e-03,
       -1.02926306e-02, 7.49082444e-03, -2.04913542e-02, 2.25316025e-02,
       -1.50338921e-03, -1.46502675e-03, -1.65944975e-02,
       -2.32584216e-02, -2.50153523e-02, -3.57814245e-02,
       -1.23027237e-02, -4.48842905e-02, -8.78933538e-03,
       -1.35789877e-02, 7.08577270e-03, -2.08476577e-02, -4.90268283e-02,
       -4.07519788e-02, -3.00349630e-02, 7.56418053e-03, 3.74836265e-04,
       -1.26070185e-02, -2.23762710e-02, 3.96174714e-02, 3.55493724e-02,
       8.17304384e-03, 1.61197484e-02, 1.64560489e-02, 9.05848667e-03,
       -4.78387438e-03, -2.42735036e-02, 1.03413099e-02, 2.52697337e-03,
       5.02401171e-03, -3.52174160e-04, 3.87424580e-03, -3.51835461e-03,
       7.19962467e-04, -1.15089957e-02, 2.82538831e-02, 9.17526893e-03,
       8.25706404e-03, 9.99616459e-03, -5.07231744e-04, -5.67870587e-03,
       -2.80967960e-03, 7.62964925e-03, 6.05718978e-03, 1.51232183e-02,
       2.12079268e-02, 2.06119306e-02, 2.21335664e-02, 4.31182503e-04,
       -1.14311837e-03, 1.66980475e-02, 5.31717129e-02, 2.54579280e-02,
       9.14734509e-03, 1.58078764e-02, 2.62878444e-02, 2.58652922e-02,
       8.76767375e-03, 6.57739025e-03, 1.14556327e-02, 3.96698304e-02,
       1.39457099e-02, -6.26666006e-03, 2.15114430e-02, 6.10449817e-04,
       -1.85880077e-03, -2.49056704e-03, 8.24697688e-03, 2.80762860e-03,
       1.53239130e-03, 9.36841752e-05, 3.86711676e-03, 1.48093200e-03,
       5.13305888e-03, 6.20356575e-03, 8.90532415e-03, 2.21214257e-02,
       1.95290614e-02, 1.33239841e-02, 2.64517494e-05, 9.92106926e-03,
       1.01797543e-02, 8.06616154e-03, 9.89957992e-03, -1.28338696e-03,
       1.31001398e-02, 1.73627287e-02, 2.85997111e-02, 1.52420354e-04,
       1.04205143e-02, 4.18432616e-03, 2.58406345e-03, -4.62444179e-04,
       -4.20593517e-03, 1.93766248e-03, -1.84505910e-03, 8.35636072e-03,
       3.10948328e-03, -2.77896086e-03, 1.57882328e-04, -7.16341054e-03,
       -1.54259242e-02, -2.05628108e-02, 8.62313062e-03, 1.43175758e-03,
       -3.10885371e-03, -1.25867808e-02, -2.94722756e-03,
       -9.95226111e-03, 2.72676889e-02, 1.21837463e-02, 1.91526059e-02,
       3.75232808e-02, 2.47481167e-02, -1.42174065e-02, -4.54333015e-02,
       -1.27010401e-02, 7.81195657e-03, 4.00790237e-02, 1.41474390e-02,
       -1.74133871e-02, 4.30234522e-03, 3.08775455e-02, 4.28834446e-02,
       -1.42441934e-03, 3.26902159e-02, 4.14598137e-02, 1.34181911e-02,
       -7.86904991e-03, -1.61690768e-02, 1.61116887e-02, 7.38703413e-03,
       3.50875966e-02, -1.27020068e-02, 8.62740073e-03, 2.04458479e-02,
       1.58441160e-02, -1.64066534e-03, -2.83043105e-02, -1.29852118e-02,
       -1.53163671e-02, -3.19905509e-03, -9.46714543e-03,
       -8.95299204e-03, -6.64857216e-03, 3.42697576e-02, 3.00471596e-02,
       7.62353232e-03, 2.40300372e-02, 3.02671716e-02, -1.27350434e-03,
       -3.03001348e-02, -3.71799618e-02, 1.42454933e-02, 1.54406438e-02,
       -2.87076235e-02, 1.70715572e-03, 4.35606018e-02, 4.72001620e-02,
       5.77345639e-02, 1.75852235e-02, 2.58777291e-02, 3.32938693e-02,
       1.23112798e-02, -1.89146784e-03, -2.24151257e-02, 1.44940428e-02,
       1.46465013e-02, 2.51036398e-02, -1.84671655e-02, 1.22457370e-02,
       2.50845682e-02, 8.51327367e-03, 5.75851742e-03, -6.76399283e-03,
       2.43341347e-04, 2.28355709e-03, 9.73100401e-03, 5.08232042e-03,
       1.85292432e-04, 4.71080607e-03, 2.43987180e-02, 2.94161178e-02,
       4.67125885e-03, 9.13269073e-03, 1.23782279e-02, 3.08380537e-02,
       4.59607178e-03, -5.20941336e-03, 4.51379567e-02, 2.77680997e-02,
       9.45775583e-03, -6.50779170e-04, 1.55650880e-02, 9.94968810e-04,
       2.10545789e-02, 4.25792066e-03, 1.04440879e-02, 4.73200381e-02,
       3.98358842e-03, -1.29443489e-03, -9.94886179e-03, 3.51782888e-03,
       -1.13918993e-03, -4.68966784e-04, -7.81727303e-03, 4.62785596e-03,
       5.55913663e-03, 4.94526932e-03, 3.39257624e-03, -2.32207682e-03,
       2.47736671e-03, 3.27196717e-03, 1.25478990e-02, -1.14344410e-03,
       -9.00914674e-05, 2.77562882e-04, 6.43321406e-03, -3.06953932e-03,
       -4.15496901e-03, 9.61121917e-03, -6.24451227e-03, 1.19054811e-02,
       -3.47473146e-03, -1.15235206e-02, 1.78340462e-03, 4.09591384e-03,
       1.91239882e-02, -9.61332303e-03, -6.61384722e-04, -1.18650794e-02,
       1.09251421e-02, -6.69098459e-03, -1.13254283e-02, -6.75332500e-03,
       -4.31847619e-03, 7.92003702e-03, 3.60465579e-04, -1.72623410e-03,
       -5.60036115e-03, 3.95175209e-03, -3.40647437e-03, -3.25346412e-03,
       -1.51160872e-03, 1.73384696e-02, 3.22336238e-03, -1.10381739e-02,
       5.83800953e-04, 1.03387386e-02, 2.87814308e-02, -1.43926404e-02,
       3.90786538e-03, 1.46080665e-02, 3.88361365e-02, -1.16332714e-03,
       -1.31724691e-02, 4.34591994e-02, -4.57975036e-03, 3.26913074e-02,
       -3.55732143e-02, -7.13712629e-03, 2.98448391e-02, 5.99261671e-02,
       2.55544316e-02, -2.06037946e-02, 3.15357558e-02, -6.46691478e-04,
       5.40326443e-03, -1.75720006e-02, -1.74960308e-02, 1.17347576e-02,
       4.96665854e-03, -7.15132523e-03, -2.54553035e-02, 6.11246144e-03,
       1.33157745e-02, -4.32557717e-04, 2.58209486e-03, -3.79370898e-03,
       8.18611216e-03, 1.01148123e-02, -8.58104695e-03, -3.86196934e-03,
       1.50725543e-02, 1.43022463e-02, 1.91804375e-02, -1.70893688e-02,
       1.04610063e-02, 1.55033665e-02, 3.30595039e-02, 2.68184636e-02,
       -2.47525759e-02, 3.49110365e-02, 1.28756296e-02, 2.03559343e-02,
       -4.61353101e-02, -1.65245659e-03, 1.93479434e-02, 4.39024791e-02,
       6.18598657e-03, -2.01607030e-02, 5.70831262e-02, 2.79918239e-02,
       -8.20542779e-03, -2.46330015e-02, -1.34465145e-03,
       -7.30811851e-03, 1.62615906e-02, -5.77853760e-03, -3.49898897e-02,
       1.45815848e-03, 7.78054586e-03, 1.36873615e-03, 2.82639824e-03,
       -8.32632743e-03, 1.17044095e-02, 6.08236622e-03, 1.11757161e-03,
       -7.45014055e-04, 9.12364945e-03, -5.98229017e-05, 3.46029317e-03,
       -5.35667315e-03, 3.99558526e-03, 1.03296023e-02, 1.97555940e-03,
       1.19748227e-02, -1.22295888e-02, 5.37090935e-03, 1.31304539e-03,
       -3.78599553e-03, -3.05992588e-02, 2.84605869e-03, -3.28788511e-03,
       -1.61311030e-02, -1.43138496e-02, 1.70241680e-03, 1.94851495e-02,
       -1.08341882e-02, -1.82050951e-02, -1.74741428e-02, 1.32286199e-03,
       3.60389496e-03, -8.25052336e-03, 1.44054275e-03, -2.71993456e-03,
       1.36398869e-02, -1.16420435e-02, -6.17414655e-04, -1.04189552e-02,
       5.57047455e-03, -4.73128678e-03, 8.29669239e-04, 7.74111738e-03,
       -3.65705346e-04, -5.66234172e-04, -1.32523128e-03, 8.47677514e-03,
       3.68053629e-03, -3.08816307e-05, -2.72536854e-04, -3.20060435e-03,
       2.84556150e-02, 1.17415022e-02, 5.07517299e-03, -4.44675889e-03,
       5.67651168e-03, -3.69689614e-03, 5.65320114e-03, 5.87657606e-03,
       1.74549583e-03, 2.60477215e-02, -4.63844789e-03, 2.82485998e-04,
       -3.18689446e-04, 1.83904462e-03, 8.04295018e-03, 9.28157289e-03,
       2.46727141e-03, 2.95427185e-03, 7.74873653e-03, 5.68149704e-03,
       2.28271494e-03, -3.42520489e-03, 3.61187127e-03, -5.13018435e-03,
       -6.41288701e-03, 2.08105659e-03, 2.49141064e-02, 1.26215741e-02,
       -4.00459068e-03, 1.38045773e-02, 8.47847108e-03, 3.31472675e-03,
       7.50330929e-03, 2.12076679e-03, 1.07682524e-02, 7.23447744e-03,
       6.55369610e-02, 3.89703773e-02, 1.83064491e-02, 2.84447279e-02,
       1.89911202e-03, -1.99102852e-02, 1.25831664e-02, 2.27079242e-02,
       2.17045490e-02, 2.72737704e-02, 5.26048336e-03, -6.85545662e-03,
       2.26894394e-02, 5.79597009e-03, -2.83797812e-02, 3.71623202e-03,
       3.78426015e-02, 1.60600767e-02, -6.45488093e-04, -3.16543481e-03,
       1.91162911e-03, 1.31062763e-02, 1.54545167e-02, -2.34909207e-02,
       -1.35376062e-02, 2.61258408e-02, 2.16211677e-02, 1.04209045e-02,
       -1.53129586e-04, 2.98807099e-02, 2.00054664e-02, 2.32194504e-03,
       9.69733484e-03, 1.44294475e-03, 5.52738027e-04, 2.54432578e-02,
       4.06366326e-02, 5.35396673e-02, 3.65622863e-02, 6.31091092e-03,
       2.62996946e-02, -1.02803996e-02, -2.13973820e-02, 3.24732587e-02,
       5.85049577e-03, -6.76206267e-03, 1.63830668e-02, 3.78763229e-02,
       2.69885231e-02, 3.86009999e-02, -1.76358670e-02, -1.24638118e-02,
       2.29619350e-02, 1.10555943e-02, -5.39253326e-03, 4.38071089e-03,
       9.75865219e-03, 1.35758873e-02, 1.72391906e-02, -2.37264093e-02,
       -9.56032798e-03, 1.72007028e-02, -3.81473545e-03, -3.36358952e-03,
       9.38426703e-03, 1.65859982e-02, -2.00714078e-03, -5.61726338e-04,
       3.95576796e-03, 6.86234422e-03, 4.23497986e-03, -9.40658990e-03,
       1.91003792e-02, 2.66623385e-02, 4.81449477e-02, -6.21581497e-03,
       1.90352928e-02, -5.13850711e-03, 3.03898472e-03, -9.06775985e-03,
       -4.63075377e-03, 6.89937733e-03, 7.93609675e-03, 4.86744866e-02,
       -1.87590010e-02, 2.21019704e-02, 1.36592500e-02, 1.75825916e-02,
       2.80237268e-03, -5.78617165e-03, 1.41030736e-02, 1.14957197e-02,
       1.67720933e-02, -4.63485112e-03, 1.85903383e-03, -1.68026611e-02,
       -1.58302464e-05, 2.73283664e-03, -1.38630404e-03, 2.88759917e-03,
       -4.54770261e-03, -2.76988233e-03, 8.03481031e-04, 1.64994504e-03,
       -1.06381660e-04, -1.13670749e-03, 2.16702392e-04, -3.36216972e-03,
       -1.47439260e-03, 2.60235649e-03, 5.34151029e-03, -6.36581704e-03,
       -6.02475739e-05, -4.71136998e-03, -1.23592876e-02,
       -1.05802354e-03, -5.27606253e-03, -2.16769846e-03, 1.12798912e-02,
       1.69559121e-02, -3.60870222e-03, -3.01839621e-03, -2.51722592e-03,
       -5.05973166e-03, 7.42327143e-03, -8.30170000e-04, -2.98250030e-04,
       1.05076013e-02, 2.27385797e-02, 3.31983506e-03, 3.72540602e-03,
       -1.81909697e-03, 1.23778572e-02, 1.41991200e-02, -1.17683201e-03,
       -9.44558438e-03, -1.68676879e-02, -7.56879337e-03, 4.74018557e-03,
       2.23663799e-03, -2.67749978e-03, -3.16216704e-03, 4.50759614e-03,
       -9.25199874e-03, -7.90082850e-04, -2.53217551e-03,
       -4.87661047e-04, -9.13150376e-04, 9.98670049e-03, -4.47500534e-02,
       -3.05485707e-02, 2.22390629e-02, -2.90850140e-02, 1.01721566e-02,
       6.90516178e-03, 1.99538916e-02, -1.11680990e-03, 5.50438799e-02,
       -6.15525134e-02, -2.32878793e-02, 7.79879168e-02, -2.39357050e-03,
       -1.90082483e-03, 3.76642740e-04, 3.40649672e-02, 1.50045687e-02,
       3.25983055e-02, -8.43000691e-03, 1.54238101e-02, 4.51267064e-02,
       -2.12064316e-03, -1.96542013e-02, -1.52774546e-02, 6.84235943e-04,
       -1.97471422e-03, 3.00787762e-03, -1.60998758e-03, -1.79892336e-03,
       2.97273393e-03, -3.73431412e-03, 7.50805077e-04, 8.59109592e-03,
       -1.04088746e-02, -1.13858320e-02, 5.46003785e-03, -5.83326854e-02,
       -2.15219632e-02, 3.40903038e-03, -3.39614577e-03, 1.87291447e-02,
       1.36779035e-02, -6.06415793e-03, 4.84292832e-06, 5.35385720e-02,
       -7.39195272e-02, 1.38239469e-03, 4.15433235e-02, 1.56424120e-02,
       2.23028343e-02, -1.02617061e-02, 3.84013681e-03, 1.45468861e-02,
       4.80343252e-02, -4.71144216e-03, 1.51928021e-02, 3.25470641e-02,
       -5.29347593e-03, -4.79874155e-03, -3.02212010e-03, 1.01733012e-02,
       -8.19036085e-03, 5.57327236e-04, -3.80499568e-03, 3.41003388e-03,
       3.72587051e-03, -8.93706363e-03, 1.12342983e-02, -2.13347818e-03,
       4.63117845e-03, -8.99148453e-03, -1.53637836e-02, -2.36722603e-02,
       -4.88836737e-03, -6.73044613e-03, -2.37273704e-03, 1.37879476e-02,
       3.45467543e-03, -7.63747143e-03, 2.69235903e-03, -2.96107144e-04,
       -4.90866601e-03, -3.06332344e-03, -7.68130412e-03, 9.75068100e-03,
       2.68514454e-02, -5.01660490e-03, 7.97449052e-03, 9.13162599e-04,
       3.88531312e-02, 1.11771217e-02, 2.11825338e-03, 2.62955436e-03,
       -7.94568844e-03, -6.99983863e-03, -4.03915951e-03,
       -1.03068957e-03, 8.05129821e-05, 1.43939909e-03, -8.75578495e-04,
       -3.83491768e-03, -5.03790239e-03, -1.73617769e-02,
       -9.90524422e-03, -8.82148370e-03, 9.01157595e-03, 1.37627672e-03,
       1.21602206e-03, -3.30571667e-03, 9.89998225e-04, -3.95510392e-03,
       -1.12661086e-02, -6.98262267e-03, -1.26539087e-02, 2.85292380e-02,
       6.32519508e-03, 1.38836377e-03, -4.43107076e-03, 2.58109649e-03,
       8.43006838e-03, 4.64269938e-03, 1.39082139e-02, 3.74882948e-03,
       1.10166976e-02, -4.33866726e-03, -1.19094376e-03, -3.21894535e-03,
       9.62915889e-04, 1.14308232e-02, -1.74625777e-02, -8.29002261e-03,
       -9.88725387e-03, -5.67308767e-03, -1.39242457e-03, 1.06740864e-02,
       -1.58647466e-02, -1.39410533e-02, 3.45693249e-03, -2.99522374e-02,
       -1.17841857e-02, -1.83768105e-02, 7.78716803e-03, -9.43769049e-03,
       1.45541513e-02, -1.46845728e-02, -6.83130231e-03, -6.50518667e-03,
       -5.29354252e-03, 4.97339442e-02, -2.69058943e-02, 9.66862142e-02,
       -1.93538889e-02, -1.18214590e-03, -2.14891545e-02, 1.34642317e-03,
       9.19429760e-04, 2.80967504e-02, 8.09026510e-02, 1.35566480e-02,
       6.09408244e-02, 2.13575922e-02, -3.03660607e-04, -2.06456929e-02,
       -4.15147142e-03, 4.56685647e-02, -6.96191471e-03, -1.03785601e-02,
       -1.22699831e-02, -1.82059482e-02, -1.20276380e-02,
       -3.82570695e-04, -2.05583554e-02, -2.90267263e-03, 9.07922443e-03,
       -1.33370999e-02, -1.19374990e-02, -2.79176626e-02,
       -1.87272634e-02, -2.87444349e-02, 9.97865386e-03, -1.09195039e-02,
       -8.70308001e-03, 6.91210479e-03, 1.99667569e-02, 2.10097991e-02,
       -2.51268018e-02, 6.56593964e-02, -1.60497241e-02, 1.92075837e-02,
       -1.16799073e-02, -2.36005597e-02, -1.51612340e-02, 1.66080650e-02,
       4.90477681e-02, 3.72924469e-02, 7.59777576e-02, 7.08827302e-02,
       2.14823019e-02, -2.67932564e-02, -1.36251375e-02, 7.82772247e-03,
       -2.85313465e-03, -6.72531594e-03, -1.13285650e-02,
       -1.40411425e-02, -1.25835789e-02, -7.73449428e-03,
       -2.50385678e-03, 1.18054962e-03, 2.13879533e-03, 5.12740109e-03,
       -1.16050872e-03, -2.39053983e-02, -2.21237000e-02,
       -2.80860420e-02, 8.97042919e-03, 1.58664805e-03, -1.74274226e-03,
       5.88059309e-04, 1.81246810e-02, 1.38600497e-02, -3.19942683e-02,
       -1.02756163e-02, -1.33674713e-02, 2.42556799e-02, -9.64650325e-03,
       -4.81786393e-03, 1.30321109e-03, -7.11604347e-03, 1.23072136e-02,
       4.71912883e-03, 1.44627495e-02, 1.58522036e-02, 1.32608656e-02,
       -1.27212415e-02, -2.05996027e-03, -7.02869613e-03, 1.70270517e-03,
       1.64933002e-03, -1.92568952e-03, -1.98305328e-03, -4.83989995e-03,
       6.99212914e-03, 3.57625145e-03, -5.98668063e-04, -1.06330181e-03,
       -2.11140746e-03, 3.09837121e-03, -8.95145442e-03, -4.83909948e-03,
       -1.13550248e-03, 1.43827014e-02, -5.12477243e-03, 1.61946137e-02,
       -2.88366806e-03, -6.54056156e-03, -2.82601430e-03,
       -1.21001452e-02, -4.12151967e-05, -3.22386273e-03,
       -4.01539216e-03, -2.45259292e-02, 3.86886578e-03, -9.41131916e-03,
       -1.14340370e-03, -2.24587554e-03, -3.39857186e-03,
       -1.39150955e-03, -4.64129960e-03, -7.17202481e-03,
       -1.20850131e-02, -1.21331261e-02, -6.84391102e-03, 6.27440214e-03,
       1.49237749e-03, -3.43373860e-03, -8.82711913e-03, -7.47216865e-03,
       -8.90410854e-04, 2.25434080e-02, 5.89885563e-03, 5.07585891e-03,
       -3.98215558e-03, -6.44820789e-03, -2.80408114e-02,
       -1.16602350e-02, 2.08577397e-03, 2.07958743e-02, -1.92264039e-02,
       4.10253629e-02, 1.01666991e-02, -4.59413789e-03, 6.81956485e-03,
       -6.60772948e-03, 2.76209973e-03, -1.16044292e-02, 2.37718620e-03,
       -3.47937718e-02, 8.83699395e-03, 6.49620080e-03, -1.46478517e-02,
       2.08559888e-03, 6.70093531e-03, 2.09305855e-03, -6.76823454e-03,
       -1.44273574e-02, -7.44519196e-03, -1.29138399e-02,
       -7.39395153e-03, 2.62304489e-03, -1.10166548e-02, -5.71598252e-03,
       -7.71563221e-03, 1.25637429e-03, -7.20215205e-04, 3.63372974e-02,
       3.79042327e-02, -9.86632612e-03, -1.65463202e-02, -2.10518129e-02,
       -3.10547631e-02, 7.06228800e-03, 1.71064418e-02, 2.33922396e-02,
       1.92628745e-02, 3.72613184e-02, -3.16045396e-02, -1.18755996e-02,
       2.71718223e-02, 2.38366928e-02, 2.44989265e-02, 1.51526816e-02,
       1.16545195e-02, 5.12840273e-03, 6.09495910e-03, -2.82702353e-02,
       -5.19704772e-03, -7.18471268e-03, 6.43555773e-03, 5.38631203e-03,
       8.27747025e-03, -2.25995947e-03, 1.20048942e-02, 6.54549804e-03,
       2.23029349e-02, -2.98033911e-03, -4.81245993e-03, -3.35448072e-03,
       7.88626203e-04, 5.90726780e-03, 3.07025411e-03, 1.62402317e-02,
       2.89204568e-02, -3.82063026e-03, -1.46739455e-02, -9.37558245e-03,
       -5.74554829e-03, 6.02647197e-05, 7.86752254e-03, 2.74557364e-03,
       1.95607375e-02, 3.56406048e-02, 5.24523249e-03, 2.21968070e-03,
       1.00679742e-02, 2.00836509e-02, 1.05392365e-02, 4.74400027e-03,
       7.66791170e-03, 1.79040083e-03, -8.71807709e-03, 5.70314843e-03,
       1.24089038e-02, -7.76258390e-03, 4.47374815e-03, 3.09028453e-03,
       5.51826693e-03, 9.00812913e-03, 7.42086954e-03, -8.88915081e-03,
       3.43363383e-03, -3.94826336e-03, -4.17620502e-03, -6.26949314e-03,
       -1.89350173e-03, -3.31391930e-03, -1.95050729e-03,
       -6.62475498e-03, 3.98166914e-04, -3.12189711e-03, -4.80339723e-03,
       -9.77967680e-03, -1.18297627e-02, -9.31503158e-03,
       -7.90595263e-03, -4.86931624e-03, -7.77918892e-03,
       -8.41517467e-03, -7.02893734e-03, 4.87355096e-03, -6.48570107e-03,
       -1.89759936e-02, -4.92138043e-03, -6.34095818e-03,
       -5.83155174e-03, -1.38782589e-02, -1.35793136e-02,
       -1.03204949e-02, 3.60769522e-03, 5.14924014e-03, 9.25937481e-03,
       8.95766728e-03, 6.01686910e-03, 8.77789571e-04, -1.17637161e-02,
       -2.12460328e-02, -6.70314394e-03, -5.24931494e-03,
       -7.82669871e-04, -6.15005614e-03, 2.33190740e-03, -5.89343160e-03,
       5.99658024e-03, -1.24911927e-02, 8.62320513e-03, 4.44597419e-04,
       -1.94443241e-02, -1.20571619e-02, -1.78260449e-02,
       -6.76656375e-03, -8.38533975e-03, -1.12889288e-02,
       -5.90507779e-03, -2.39867438e-03, 1.99464666e-05, -1.10830097e-02,
       -1.59730967e-02, -1.91715416e-02, 1.47654046e-03, 2.94328667e-03,
       2.82451306e-02, 3.52583616e-03, 3.26828170e-03, -8.25260580e-03,
       3.77696101e-03, 1.71394902e-04, 6.72915112e-03, 1.07296109e-02,
       1.57055818e-02, 2.76320316e-02, -1.04587926e-02, -2.55637821e-02,
       -5.66635141e-03, -6.03625551e-03, 4.23861900e-03, 8.81360564e-03,
       3.97734251e-03, 5.73085109e-03, 5.11552906e-03, -1.30683519e-02,
       -9.55829397e-03, -6.93193520e-04, 1.08336164e-02, -1.84634533e-02,
       -9.53274500e-03, 1.91143423e-03, 1.74767170e-02, 1.24023920e-02,
       1.68492943e-02, 6.10825745e-03, 2.08901633e-02, 1.69636682e-02,
       3.14937010e-02, -1.33469477e-02, -6.56198803e-03, 8.05480871e-03,
       7.25602061e-02, 3.81714031e-02, 1.10653555e-02, -6.67003077e-03,
       2.44717747e-02, 3.07090078e-02, -3.37203988e-03, -4.82990732e-03,
       -2.96356203e-03, 1.49167366e-02, -1.02465730e-02, -3.76746384e-03,
       -6.37188321e-03, 6.35907846e-03, 6.51479175e-04, 4.42340178e-03,
       3.78280762e-03, 4.76457365e-03, 2.93906080e-03, -9.85426269e-03,
       -3.17517556e-02, -3.83726461e-03, 1.25553217e-02, -1.51586132e-02,
       6.37968350e-03, -4.17015096e-03, 1.21208588e-02, 1.82863008e-02,
       1.68079920e-02, -3.33858165e-03, -1.07227387e-02, 2.85873935e-02,
       2.25257277e-02, -3.32189817e-03, -1.39691755e-02, -1.13331703e-02,
       1.00208633e-02, 2.24508606e-02, 2.39368062e-04, -1.01205474e-02,
       1.79992095e-02, 2.62814201e-02, 3.39749153e-03, -5.09026367e-03,
       -1.61868706e-02, -1.00258254e-02, -8.21300037e-03, 9.87596158e-03,
       -4.73821390e-04, 5.53283049e-03, 2.82959756e-03, -5.75011224e-03,
       -2.01647123e-03, -3.37708485e-03, 1.85541378e-03, 1.04262575e-03,
       -2.58235796e-03, -8.15173727e-04, 4.05184738e-03, 9.74693149e-03,
       1.02194678e-02, 1.19172437e-02, 1.82064250e-02, 2.88075837e-03,
       4.96775203e-04, -5.73932705e-03, 3.75846727e-03, 4.07969434e-04,
       -8.25085957e-03, 3.48942657e-03, 2.49732025e-02, 1.42606581e-02,
       1.11908540e-02, 2.81792111e-03, 1.79981627e-03, 4.41264972e-04,
       -2.10474944e-03, -2.79164407e-03, -6.61106408e-03, 9.82979126e-03,
       4.05457942e-03, 3.63288354e-03, -7.08613312e-03, -1.30008929e-03,
       1.28537032e-03, 1.66672133e-02, 1.68780144e-02, -2.11718259e-03,
       -1.92145817e-03, 1.09157350e-03, 2.13729125e-02, 7.29907770e-03,
       7.80718401e-03, 2.06261151e-03, 2.88747661e-02, 3.55496630e-02,
       1.73331574e-02, 9.40108672e-03, 1.50690079e-02, 2.60787103e-02,
       -7.72015005e-03, 3.19051952e-03, 1.68836527e-02, 1.58280991e-02,
       9.51943081e-03, -6.11153152e-03, 1.38224019e-02, 7.42406119e-04,
       9.68750101e-03, -3.13494317e-02, 7.35632610e-03, 2.22771112e-02,
       -6.14417950e-03, -1.35698756e-02, -1.17562413e-02, 4.34804847e-03,
       -6.61321729e-03, -6.77065284e-04, -1.86641812e-02,
       -1.01018162e-03, 4.46749246e-03, 3.59795392e-02, 3.87793891e-02,
       -7.80521659e-04, -4.04177886e-03, -1.68484601e-03, 1.90829560e-02,
       2.12474037e-02, 2.32742336e-02, -3.62470688e-04, 5.09595238e-02,
       5.79705164e-02, 1.24154026e-02, -8.70785490e-03, -1.35482987e-02,
       -5.06720680e-04, 1.26883816e-02, 5.35511449e-02, -1.23032853e-02,
       -9.66419652e-03, 4.45133308e-03, 9.13699623e-03, -2.49780193e-02,
       -3.90049890e-02, -1.17492173e-02, -4.62456644e-02, 4.32612784e-02,
       -3.54478508e-02, -2.09117010e-02, -2.18852125e-02,
       -2.31648749e-03, -1.86485890e-02, -4.26347442e-02,
       -6.65308209e-04, -1.98635757e-02, 1.37687391e-02, -1.56630781e-02,
       1.61900204e-02, 1.37881190e-02, 1.89402141e-03, -8.68607545e-04,
       -7.47291651e-03, -1.78394956e-03, 1.58458445e-02, 1.18536353e-02,
       -3.51324910e-03, 2.36824788e-02, 4.47698310e-02, 8.63853190e-03,
       -1.47128496e-02, -2.22885013e-02, -6.39044214e-03, 1.36180473e-02,
       5.70841320e-02, -4.17671911e-03, -4.85770358e-03, 1.09114405e-02,
       -4.10377979e-03, -2.27444563e-02, -2.39544977e-02,
       -1.67895108e-03, -1.90116782e-02, 4.25346456e-02, -4.12283058e-04,
       -1.32683022e-02, -9.52184200e-03, -9.21088737e-03,
       -8.37036408e-03, -1.22715421e-02, -2.10041483e-03,
       -6.26990106e-03, 9.90298763e-03, -6.37621526e-03, 5.74796321e-03,
       -2.48384592e-03, -2.46769021e-04, 8.48555192e-03, 2.83638743e-04,
       7.15636788e-03, -7.66203855e-04, 2.22734106e-03, 3.65994126e-03,
       1.33207180e-02, 9.27084405e-03, -8.17807671e-03, 8.63575563e-03,
       -8.94571072e-04, 3.09938192e-03, -9.28064901e-03, 1.05955014e-02,
       2.49195695e-02, 4.43552574e-03, 1.91721390e-03, 3.66286864e-03,
       2.28731968e-02, 1.36438124e-02, 2.25813084e-04, 1.68012688e-03,
       2.54616886e-02, 1.02284653e-02, -1.42012083e-04, 2.68884469e-03,
       9.14520025e-03, 1.72844827e-02, 4.72540781e-03, 3.07161361e-04,
       -1.60452980e-03, 2.93148798e-03, -3.59118497e-03, 1.54769579e-02,
       1.00631667e-02, 2.44484021e-04, 1.13514215e-02, -1.20639999e-03,
       6.58483151e-03, -1.63664222e-02, 9.74274590e-04, 1.16018830e-02,
       9.83619597e-03, 1.82025798e-03, -9.72753577e-03, 4.21180902e-03,
       -9.07258876e-03, -9.13481601e-03, -4.66493256e-02, 3.30693834e-03,
       1.73491240e-02, -1.97359752e-02, -3.38551141e-02, -2.01738011e-02,
       -5.32773207e-04, -2.60741636e-02, -3.74890864e-02,
       -1.07138408e-02, 6.20112680e-02, 3.87082696e-02, -1.01315202e-02,
       1.15906261e-02, 8.17090552e-03, 4.08263132e-02, -1.44633660e-02,
       -1.24909133e-02, -1.99259464e-02, 5.02432287e-02, 8.79132841e-03,
       1.79769075e-03, 6.49408111e-03, 4.99975961e-03, -6.07409142e-03,
       -1.06449611e-02, 1.67477166e-03, -2.50391811e-02, 3.63540389e-02,
       -3.07052722e-03, -3.48808765e-02, -1.19681824e-02, 6.51647942e-03,
       -2.80900090e-03, -3.31533700e-02, -2.53406633e-03,
       -5.57644553e-02, 2.28279363e-02, -4.01613712e-02, -1.99830532e-02,
       -3.08213774e-02, -4.99951541e-02, -1.72518324e-02,
       -4.11014296e-02, 2.97028018e-04, -2.01385375e-02, 1.26150092e-02,
       -4.12221774e-02, -5.36187924e-03, 2.70942994e-03, 5.04362211e-03,
       2.27030888e-02, -1.78880040e-02, 2.77669989e-02, 2.41048299e-04,
       4.35172543e-02, 3.73482401e-03, -1.36099558e-03, 1.02530990e-03,
       -4.55108378e-03, -5.85599430e-03, -6.09821174e-03, 1.08254910e-03,
       -6.68808306e-03, 3.33270580e-02, 8.36955104e-03, 6.39129849e-03,
       7.01189623e-04, -3.31984065e-03, 1.10452391e-04, -7.75690004e-03,
       8.71635787e-03, 4.58519818e-04, 3.41169797e-02, -1.91483237e-02,
       3.39319743e-02, -4.11175285e-03, -1.56566519e-02, -1.15526654e-02,
       1.02251368e-02, 6.64795414e-02, 2.25910381e-03, -1.66302565e-02,
       -1.60854012e-02, 1.47050619e-02, 8.55799858e-03, 4.02177358e-03,
       4.21651220e-03, 9.89740249e-03, 6.37304559e-02, 9.01211333e-03,
       4.14814195e-03, 7.24031124e-03, 1.45714963e-03, -1.03074149e-03,
       -9.29002534e-04, 5.66216791e-03, -2.71963072e-05, -1.97830284e-03,
       3.17925611e-03, 1.85216626e-03, -1.03536164e-04, -5.07856486e-04,
       1.75758696e-03, 2.57787178e-03, 2.68274249e-04, -1.19007630e-02,
       2.71262717e-03, -6.47620996e-03, -4.06958209e-03, 5.41022420e-03,
       -7.42606400e-03, -6.90895552e-03, -3.20314220e-03, 4.86127147e-03,
       -7.99922552e-03, 1.53163506e-03, -6.69213710e-03, -3.40735470e-03,
       1.26700033e-03, -1.25333690e-03, 2.70082150e-04, 1.20818673e-04,
       -3.00247665e-03, -4.13645944e-03, -5.08823083e-04,
       -6.56619482e-03, -1.76492473e-03, -2.45575584e-03,
       -1.01531707e-02, -8.82585626e-03, 3.69384792e-03, 1.41804749e-02,
       -8.70372169e-03, -6.66860817e-03, 2.36867330e-04, 7.70505797e-03,
       1.19926233e-03, -1.46899885e-02, 1.24166803e-02, 1.28057003e-02,
       4.97707911e-02, -2.33006645e-02, 7.33925635e-03, -2.10774820e-02,
       1.92612540e-02, -1.08535122e-02, 1.37495408e-02, 1.44892512e-02,
       -5.64317219e-03, 3.91194597e-02, -5.64508848e-02, 3.65077960e-03,
       3.28621198e-03, 2.28047017e-02, 5.82927139e-03, 4.72491287e-04,
       1.85426921e-02, 4.07474721e-03, 3.94717650e-03, -2.54281666e-02,
       -1.21357664e-02, -2.31093597e-02, -3.68985377e-04, 1.01340888e-02,
       -1.75106502e-03, -1.06829964e-02, -8.68876651e-03, 5.83625492e-03,
       -1.24874795e-02, 8.93551018e-03, -1.04987696e-02, 5.34034614e-03,
       -1.38169166e-03, 2.16414133e-04, 2.09434871e-02, 3.89490612e-02,
       7.77209178e-02, -6.02415018e-03, 3.71907763e-02, -1.39652602e-02,
       1.55114578e-02, 2.53487204e-04, 9.04870313e-03, 4.08543758e-02,
       3.86243984e-02, 9.18440744e-02, 2.41547003e-02, 1.66399181e-02,
       -1.23768067e-02, -1.20029114e-02, 1.10115740e-03, -8.82824592e-04,
       4.05267067e-03, 8.38809926e-03, 2.84133889e-02, 8.21562391e-03,
       -9.45227500e-03, -5.18455729e-03, -1.02366805e-02,
       -8.57827161e-03, 2.15297043e-02, 1.69478590e-03, -5.69691556e-03,
       -2.32044980e-03, 2.07655621e-03, 1.64328702e-02, -8.40076432e-03,
       4.60803928e-03, 1.28510240e-02, 2.56159808e-02, 1.76853370e-02,
       1.78595241e-02, 2.34778747e-02, 7.68012786e-03, 5.11530265e-02,
       -1.95666729e-03, 3.62834185e-02, 3.07789147e-02, -1.54434685e-02,
       3.55771482e-02, 3.00016329e-02, 2.25120950e-02, 3.23839784e-02,
       3.05907670e-02, -1.29167773e-02, 1.44850509e-02, 8.32911115e-03,
       -2.62676030e-02, 2.00065039e-03, 6.93722116e-03, 1.11074075e-02,
       1.68442056e-02, -2.04832439e-04, -6.11047354e-03, -8.20604246e-03,
       -1.32787786e-02, -1.67157128e-03, -6.17890991e-03,
       -4.51205159e-03, 1.53887225e-03, 5.26822812e-04, 3.81864398e-03,
       -6.64509949e-04, -3.36845027e-04, 8.20703921e-04, 1.65381620e-03,
       5.18968329e-04, -2.39746459e-03, -5.45685133e-03, -6.26956765e-03,
       2.02595443e-03, -1.34659465e-02, 1.44922684e-04, 1.87946600e-03,
       5.57239959e-03, 1.89615358e-02, 3.82152386e-03, -9.70988069e-03,
       -9.94510856e-03, 1.24428864e-03, -1.22464877e-02, 1.22844102e-02,
       1.95513908e-02, 4.03645961e-03, 9.44686402e-03, 1.79765315e-03,
       9.57057404e-04, -1.45310874e-03, 5.59791131e-03, 1.49169855e-03,
       8.26070830e-03, 9.39488504e-03, 1.84157689e-03, -8.53901380e-04,
       -3.02323955e-03, 1.28726698e-02, -1.96848419e-02, 2.67874246e-04,
       2.78034643e-03, 1.92233094e-03, 1.01634599e-02, 1.76710580e-02,
       1.98003128e-02, -1.02383727e-02, 8.91404779e-05, -2.35310346e-02,
       -3.32597345e-02, -4.28851247e-02, -2.77976133e-03, 2.51272097e-02,
       3.05324495e-02, 1.55454325e-02, -1.13255251e-02, -2.11569164e-02,
       5.58428327e-03, -1.06905885e-02, -2.15772483e-02, -9.84831131e-04,
       4.72845621e-02, 2.00605206e-02, 3.19665819e-02, -1.00064203e-02,
       5.72905224e-03, -7.32312165e-03, 3.93498726e-02, 2.20481027e-02,
       1.18330298e-02, 2.04012040e-02, 2.08306895e-03, 8.58672615e-03,
       9.49800294e-03, 2.73402315e-02, 9.71461926e-03, 3.18221544e-04,
       -4.65458771e-03, -1.06280902e-02, 5.12423320e-03, 2.06360128e-03,
       3.77984019e-03, 5.01610525e-03, 3.49543393e-02, 1.90003254e-02,
       -3.48912664e-02, -3.11837960e-02, -1.46964397e-02,
       -1.17760701e-02, 2.68460289e-02, -2.56122788e-04, -2.51550246e-02,
       -2.15249881e-02, 4.66065370e-02, 5.70187010e-02, -1.94834527e-02,
       -3.28427064e-03, 1.40620815e-02, 1.73391588e-02, 3.18854861e-02,
       -1.82955340e-02, 4.84912191e-03, 1.45624233e-02, 8.72970000e-02,
       1.07034845e-02, 7.66948843e-03, 1.79991070e-02, -5.33093372e-03,
       1.09458864e-02, 4.69543040e-03, 4.04379750e-03, 1.29950959e-02,
       1.62960333e-03, -5.50832553e-03, 1.23229846e-02, -5.86366374e-03,
       -2.77831983e-02, 1.39734626e-03, -1.42575242e-04, 2.78130751e-02,
       2.78152078e-02, -1.05487695e-02, -3.22737843e-02, -1.15454383e-02,
       -2.76426077e-02, -2.61002500e-02, -3.24499160e-02,
       -1.11392802e-02, 1.87506061e-02, 2.58693341e-02, 1.10683441e-02,
       -2.31700949e-03, -5.23079233e-03, -2.32054871e-02,
       -1.34797953e-02, -1.27351601e-02, -6.81199366e-03,
       -2.99281650e-03, 1.13344891e-02, 2.60750521e-02, 1.43843135e-02,
       3.84832988e-03, -7.35968538e-03, -1.50659506e-03, -2.07132078e-03,
       -1.60755520e-03, -4.07041609e-03, -2.39832303e-03, 1.05636928e-03,
       -8.52573779e-04, 3.52187362e-03, 2.30855634e-03, 1.38504943e-03,
       7.12756068e-03, 6.32196944e-03, -2.76982272e-03, -2.99456134e-03,
       8.73535033e-03, 7.02447444e-03, 4.14529582e-03, 4.31015436e-03,
       1.16050029e-02, 2.47147139e-02, 2.30882969e-02, 2.13040169e-02,
       6.64933864e-03, 1.89988781e-02, 5.65765239e-03, 2.19418923e-03,
       2.86428607e-03, 2.34156894e-03, 1.29697863e-02, 2.99984775e-02,
       3.04297507e-02, 3.53450924e-02, 1.32380715e-02, -5.52040944e-03,
       1.24973958e-04, 2.88542971e-04, 2.85495259e-03, -9.59489495e-03,
       -1.10399500e-02, -1.21237990e-02, -7.29043456e-03, 1.16643216e-03,
       4.24603187e-03, 4.22931882e-03, 1.09403394e-02, 1.59132574e-02,
       2.42956486e-02, -1.37521224e-02, -1.31554045e-02, -1.39368344e-02,
       4.61917929e-02, 2.26335060e-02, 1.33518549e-02, 1.61249973e-02,
       1.86615530e-02, 4.34983708e-02, -1.70105901e-02, -3.34963831e-03,
       9.07175615e-03, 6.27520606e-02, -2.36025359e-03, 8.34165234e-03,
       1.46984067e-02, -1.71869788e-02, 1.10359555e-02, 4.28044945e-02,
       2.01387703e-02, 2.39234772e-02, 2.55106445e-02, -1.76142082e-02,
       4.10339050e-03, -3.76629108e-03, -2.91004498e-03, -1.48622980e-02,
       -1.81001481e-02, -1.21843386e-02, 5.16768778e-03, 2.37939171e-02,
       2.40986119e-03, 1.79318734e-03, 3.68379359e-03, -6.19722391e-03,
       5.99594554e-03, -7.03201443e-03, -4.42059105e-03, -1.89516344e-03,
       6.13688380e-02, 8.57585948e-03, 1.73340924e-02, 1.92662105e-02,
       -4.78754416e-02, -1.27998441e-02, -2.40639709e-02,
       -3.60259302e-02, 1.66161936e-02, 6.74714223e-02, 1.61382556e-02,
       1.06032770e-02, 2.31281272e-03, -3.57110873e-02, -1.16464710e-02,
       4.16917130e-02, -8.32931779e-04, 1.15936892e-02, 1.39914807e-02,
       -2.39268597e-02, -2.68521486e-03, -9.01630986e-03,
       -6.54580072e-03, -1.04100499e-02, -1.09828664e-02,
       -5.36872726e-03, -3.87125561e-04, 2.62951362e-03, 3.25090787e-03,
       2.40503438e-03, -3.03232297e-03, -2.09065825e-02, -1.77133922e-02,
       4.99306130e-04, -1.30549222e-02, 1.65915792e-03, 1.90730542e-02,
       7.92370923e-03, 3.73867108e-03, -1.88810518e-03, -3.69813181e-02,
       -4.49664742e-02, 2.32627001e-02, -2.65367571e-02, 2.67582759e-03,
       1.78472847e-02, 1.04142996e-02, 1.22843531e-03, -3.78335384e-03,
       -1.83834899e-02, -1.02924192e-02, 1.54990917e-02, -4.69143502e-03,
       -1.12106802e-03, -6.14017295e-03, -1.34315519e-02,
       -4.04590834e-03, -1.06048081e-02, 1.27165683e-03, -2.96069798e-03,
       -1.14785705e-03, -9.60330304e-04, 2.28867657e-03, -1.33004191e-03,
       1.05864080e-02, 9.86673590e-03, -3.12592043e-03, -3.92688997e-03,
       -3.45440116e-03, -6.03276910e-03, 1.16028718e-03, 3.19396751e-03,
       -3.02557158e-03, 3.65516474e-03, 1.98930763e-02, -4.64646379e-03,
       -5.81099279e-03, 4.73832386e-03, 1.07737519e-02, 6.03105687e-03,
       -2.26849457e-03, -1.86624110e-03, 1.24415179e-04, 6.71326369e-03,
       4.16287920e-03, 3.79050034e-03, -3.51419416e-03, 1.29365851e-03,
       1.11476344e-03, -3.25726229e-03, -4.83708689e-03, 3.62810516e-03,
       -8.36463831e-03, 1.02546876e-02, 4.40386590e-03, -8.54811724e-03,
       -5.85794728e-03, 1.55414559e-03, 5.56252757e-03, 4.39568004e-03,
       2.19937228e-02, 1.99418738e-02, 8.67579039e-03, -4.29540360e-03,
       -1.29424194e-02, -1.61371585e-02, -6.37207041e-03, 1.14131588e-02,
       -5.67273796e-03, 3.14915809e-03, 1.78798772e-02, 3.43950316e-02,
       1.01025281e-02, -1.55163242e-03, 1.37594268e-02, 5.97403198e-03,
       -5.76415192e-03, -5.25315618e-03, 2.74822924e-05, -2.30552033e-02,
       3.09574679e-02, 2.01231875e-02, -2.45920494e-02, -2.07862910e-03,
       9.25704837e-03, -1.79849076e-03, 3.98142077e-03, 2.27906108e-02,
       -2.57372875e-02, -7.56854017e-04, -1.61254880e-04,
       -2.51492430e-02, -1.22371046e-02, 2.23108474e-03, 1.86430588e-02,
       9.96713247e-03, 1.84344873e-02, 1.41179319e-02, 1.83497835e-02,
       -8.52392148e-03, -1.19131552e-02, -1.77517291e-02, 4.17907117e-03,
       2.99964249e-02, 4.36758995e-03, -2.82002799e-02, -1.27654923e-02,
       5.91612943e-02, 6.47165021e-03, -7.28083961e-03, 1.04182502e-04,
       4.82355151e-03, 1.88651327e-02, -1.64541285e-02, 2.55939327e-02,
       1.26584815e-02, 4.27299403e-02, 1.41121009e-02, -1.56764388e-02,
       -1.24500389e-03, 1.44367041e-02, 4.98210872e-03, -1.33489063e-02,
       4.64831404e-02, -5.16032381e-03, 9.70974099e-03, -3.28981481e-03,
       -9.77756642e-03, -1.38666516e-03, -1.00074231e-03, 2.26125754e-02,
       3.52236093e-03, 7.39292381e-03, 5.24479104e-03, 4.46283817e-03,
       -1.41021935e-02, -1.59688678e-03, 5.49989380e-03, 1.26355318e-02,
       3.83981653e-02, 2.69677700e-03, -3.89059517e-03, -1.47495689e-02,
       1.58825815e-02, 5.92677947e-03, 8.20400892e-04, 1.11726057e-02,
       1.91792343e-02, 2.95849796e-02, -4.68206825e-03, 3.82595509e-02,
       -5.68159483e-03, 1.42099930e-03, 1.90058928e-02, -4.49586380e-03,
       1.12667575e-03, 5.72703546e-03, 7.19280355e-03, -1.45448372e-02,
       1.45547865e-02, 7.89328886e-04, 7.58100953e-03, -4.55473876e-03,
       -7.08427047e-03, 1.38207816e-03, 1.89202640e-03, 1.31670025e-03,
       2.48880620e-04, 4.66181058e-03, 5.97612839e-03, 5.73750865e-03,
       1.55571746e-02, -1.08047584e-02, -1.89004152e-03, 9.13269003e-04,
       4.80336323e-03, -1.89426541e-03, 5.33745904e-03, 8.47266801e-03,
       2.07432359e-02, 2.00584400e-02, 2.08737478e-02, -7.27691408e-03,
       3.80432350e-03, 2.50050053e-03, 4.88799252e-03, 6.43268041e-03,
       1.83310790e-03, -6.81533199e-03, 4.94978682e-04, 2.97126942e-03,
       -4.83437814e-03, -4.55842877e-04, 2.23108125e-03, -1.34165678e-03,
       -3.96346673e-03, 3.68518010e-03, -8.17968603e-03, 1.04299104e-02,
       -1.98952500e-02, -1.17317040e-03, 7.40614673e-03, 3.67147732e-03,
       -1.90246603e-04, 8.85293353e-03, -1.30180325e-02, 1.68227926e-02,
       3.78223062e-02, -3.23160291e-02, -3.55803547e-03, 1.03470366e-02,
       7.11976737e-03, 9.20024817e-04, 3.12970653e-02, 1.39955152e-02,
       8.03973089e-05, 4.62255739e-02, 1.41674979e-02, -2.05784701e-02,
       -5.99106960e-03, -2.21685730e-02, -1.90637466e-02, 7.45595712e-03,
       -1.21062365e-03, -1.93399563e-02, 1.21666696e-02, 1.39573952e-02,
       -1.15660457e-02, -7.40861660e-03, -1.71067566e-02,
       -1.75966565e-02, -2.51501519e-02, 1.78784262e-02, -1.03334151e-02,
       1.76927750e-03, -1.77660845e-02, -9.15568136e-03, 5.44708734e-03,
       7.74382334e-03, -1.17468433e-02, 1.53167192e-02, 9.76476367e-05,
       1.60201080e-02, 2.45782919e-02, 5.05871139e-03, 1.35160401e-03,
       2.21481025e-02, 4.13082261e-03, -3.81613187e-02, 3.62697616e-02,
       1.20646078e-02, 3.06885340e-04, 5.25110587e-02, 1.40181566e-02,
       -2.35159993e-02, 5.96371572e-03, -4.54349769e-03, -4.49790992e-02,
       2.46729585e-03, -2.60694958e-02, -2.95318812e-02, 2.34290138e-02,
       8.09750985e-03, -1.18335439e-02, -3.60715482e-03, -1.24945829e-03,
       -2.05073673e-02, -3.41060609e-02, 4.13460284e-03, -1.20881703e-02,
       4.13566455e-03, -5.94232464e-03, -1.44745607e-03, 6.39930228e-03,
       5.93713066e-03, -7.45260576e-03, 1.29607189e-02, -1.13322688e-02,
       -5.89228177e-04, 1.67479459e-02, -1.59932370e-03, 4.97616921e-03,
       7.16887508e-03, 8.41456372e-03, -2.10617334e-02, 2.12915204e-02,
       -1.08764891e-03, -1.59578957e-03, 1.57461222e-02, 4.06850455e-03,
       -2.83974106e-03, -1.53320376e-02, 2.01615738e-03, -1.05286650e-02,
       1.96260354e-03, -2.60384735e-02, -1.97920296e-02, 2.13376456e-03,
       1.79237116e-03, -4.10856958e-03, -9.02045611e-03, 3.10480339e-03,
       2.42689438e-03, -1.34884035e-02, -4.97805700e-03, -4.73442068e-03,
       2.58734566e-04, 8.58788658e-03, 4.69648599e-04, 1.54962786e-03,
       -2.40468085e-04, 5.02195850e-04, 6.61944691e-03, 7.02005392e-03,
       -2.81981728e-03, -2.87424889e-03, 7.38186250e-03, 2.02443311e-03,
       9.79738077e-04, 2.99563119e-03, -7.16801779e-03, -1.53163623e-03,
       2.81713568e-02, -5.73953008e-03, -1.34960189e-02, -8.58204998e-03,
       -4.38966462e-03, -2.78712460e-03, -2.30730954e-03,
       -2.95440387e-03, -1.26934582e-02, 3.39689627e-02, -5.99726895e-03,
       -9.46307648e-03, -7.97115639e-03, -2.87342235e-03,
       -1.14627706e-03, -4.56091017e-03, 1.00324128e-03, -8.67506955e-03,
       1.02521321e-02, -4.37374646e-03, 1.54621257e-02, 1.25557054e-02,
       -2.29100953e-03, 4.43912204e-03, -8.62136763e-03, -8.73935129e-03,
       7.20131164e-03, 1.20963482e-02, -1.34384923e-03, 1.07353842e-02,
       2.81534735e-02, 9.52001952e-04, -6.47679064e-03, -1.23133715e-02,
       -1.71588808e-02, -1.33377512e-03, 7.90997818e-02, 3.38425091e-03,
       -2.65212171e-02, -2.38065161e-02, -2.04564277e-02,
       -1.35818413e-02, -2.00903527e-02, 3.77197401e-03, -2.59343181e-02,
       7.24276975e-02, 2.67020874e-02, -5.21740736e-03, -1.55945495e-02,
       -1.56181417e-02, -4.61011892e-03, -2.09214278e-02,
       -4.21867007e-03, -1.61554143e-02, 1.69289224e-02, 2.10665632e-02,
       2.63238829e-02, 3.16733518e-03, -6.69025397e-03, 6.42638700e-03,
       -4.76068933e-04, -1.10418908e-02, 8.84923153e-03, 5.97454561e-03,
       -6.27029873e-03, -9.77346208e-03, -9.29610338e-03,
       -1.66461023e-03, -5.47147868e-03, 2.77966075e-03, 1.84268376e-03,
       1.47176348e-02, 8.89794901e-02, -6.85008848e-03, -5.17468713e-02,
       -3.92164476e-02, -2.55728234e-02, -7.82757532e-03,
       -6.28838222e-03, 1.47874737e-02, -1.74799003e-02, 6.05786107e-02,
       1.29762245e-02, -4.80305636e-03, -2.15961076e-02, -1.68129597e-02,
       1.95792550e-03, -5.48689859e-03, 1.01960404e-02, -3.37155652e-03,
       9.64429695e-03, 9.57605988e-03, 6.83205714e-03, -1.50950952e-03,
       -2.77162553e-03, -5.15297567e-03, 7.53363653e-04, -3.96631751e-03,
       6.23857556e-03, 1.43429637e-03, -3.57068493e-03, -1.68683417e-02,
