<?xml version="1.0"?>
<opencv_storage>
<opencv_ml_svm>
  <format>3</format>
  <svmType>C_SVC</svmType>
  <kernel>
    <type>LINEAR</type></kernel>
  <C>5.0000000000000000e-01</C>
  <term_criteria><epsilon>1.1920928955078125e-07</epsilon>
    <iterations>1000</iterations></term_criteria>
  <var_count>441</var_count>
  <class_count>3</class_count>
  <class_labels type_id="opencv-matrix">
    <rows>3</rows>
    <cols>1</cols>
    <dt>i</dt>
    <data>
      0 1 2</data></class_labels>
  <sv_total>3</sv_total>
  <support_vectors>
    <_>
      -1.15116075e-01 -1.65848657e-01 -2.63077393e-02 -3.60580236e-02
      5.99728711e-02 1.84710454e-02 -2.27414936e-01 4.19696281e-03
      3.32028419e-01 -4.05915946e-01 -2.32131422e-01 4.22502816e-01
      -5.00235975e-01 5.72159924e-02 3.79436493e-01 2.51360033e-02
      -4.21837419e-01 1.20917104e-01 -5.88103794e-02 -3.19468230e-01
      5.28515220e-01 4.01457310e-01 -1.18071087e-01 -1.58388764e-01
      2.33119279e-01 3.84813994e-01 3.33081111e-02 5.20005748e-02
      -1.12587795e-01 3.31952393e-01 1.79206908e-01 -4.43057828e-02
      -2.26446107e-01 1.92148104e-01 -1.89357791e-02 -2.15940192e-01
      1.18957371e-01 -3.46483923e-02 -3.85732174e-01 1.99992001e-01
      -4.11347687e-01 2.77375758e-01 -2.01844741e-02 2.74350494e-01
      -4.68420237e-01 1.45239875e-01 5.91324605e-02 2.11777627e-01
      -4.19304997e-01 -2.39372268e-01 9.45387706e-02 -1.83846533e-01
      -1.85087815e-01 5.88831119e-03 2.39172727e-02 -1.62911460e-01
      -5.50439395e-02 -3.75183910e-01 -9.12125856e-02 2.58056462e-01
      -3.42055969e-02 1.58989862e-01 -2.16355532e-01 9.35992301e-02
      -7.22730160e-02 -2.62101531e-01 5.74522838e-02 2.51876563e-01
      -3.89771789e-01 2.20120251e-01 -1.42352849e-01 4.33110535e-01
      -3.71415824e-01 -4.11540329e-01 5.06597281e-01 2.99658608e-02
      4.86684591e-01 -5.16376615e-01 -2.89980531e-01 3.84438783e-01
      1.30388185e-01 -1.65299878e-01 -6.19401217e-01 7.53844619e-01
      4.87523079e-02 -1.94381237e-01 -1.33916602e-01 2.42678657e-01
      -6.88590258e-02 1.70574598e-02 2.54792184e-01 -2.60454834e-01
      3.31020743e-01 2.89331108e-01 -3.05272400e-01 5.17697558e-02
      -1.64634418e-02 -4.41387445e-01 -2.34941185e-01 -1.91514805e-01
      -4.17335898e-01 -4.08472717e-01 -1.90688848e-01 -5.27743518e-01
      3.43749635e-02 2.48118043e-01 -4.51804921e-02 2.35849828e-01
      3.96051228e-01 -6.06592335e-02 -3.37949365e-01 -2.33944342e-01
      -9.66741666e-02 9.86590907e-02 1.30379543e-01 -2.99960136e-01
      -2.48886928e-01 -7.28339702e-02 -2.18840882e-01 -4.72800853e-03
      -3.01063150e-01 -6.63475171e-02 -2.30533779e-02 -4.86799568e-01
      -1.65547073e-01 -1.28423989e-01 1.92013264e-01 2.42564082e-03
      -1.47904709e-01 -3.01078349e-01 -4.59051698e-01 -6.91119954e-02
      3.98398042e-01 -5.53445101e-01 -1.85464934e-01 -5.51538169e-01
      -1.58929527e-01 -4.33839530e-01 1.61007762e-01 -4.37705100e-01
      -3.17428827e-01 -1.42050669e-01 3.26863527e-01 4.96898949e-01
      4.95579466e-02 -7.07907617e-01 1.46027878e-01 -9.79485512e-02
      -6.49470568e-01 -5.13444304e-01 -1.87399134e-01 -2.56323516e-01
      8.14886689e-01 5.51632464e-01 -2.44626775e-01 3.17756653e-01
      -1.06378824e-01 1.18771695e-01 4.34394851e-02 -6.00506485e-01
      -1.34042308e-01 3.71832460e-01 -5.87707572e-02 5.24958193e-01
      -1.10307761e-01 8.91992450e-02 1.54404059e-01 3.92848730e-01
      -1.36011124e-01 4.37539548e-01 -2.54356891e-01 -1.58007100e-01
      9.55473855e-02 -2.75787741e-01 2.22159654e-01 1.78147793e-01
      7.03466162e-02 1.63039014e-01 -1.43575132e-01 -2.70341367e-01
      -2.50471979e-01 2.24515170e-01 -2.85438627e-01 -1.87951684e-01
      -2.78760102e-02 -6.53612465e-02 -7.68797398e-02 -2.39942268e-01
      -1.12384684e-01 -2.26830006e-01 1.15642755e-03 -2.83270568e-01
      2.19040245e-01 2.78974120e-02 -3.29752445e-01 5.68285622e-02
      2.87059516e-01 -2.02102423e-01 5.71841300e-01 -4.35105979e-01
      -5.87457240e-01 1.49611518e-01 -2.70619333e-01 -2.54799705e-02
      -7.63009489e-01 -4.27015394e-01 -1.68593019e-01 -7.91410953e-02
      -5.20845354e-02 -4.41061914e-01 -6.47106469e-02 4.20553595e-01
      1.53270781e-01 -9.15478110e-01 -3.33826989e-01 -8.04420039e-02
      -1.42794102e-02 5.41435242e-01 -1.42894715e-01 1.50147930e-01
      -4.38039005e-01 -1.08843163e-01 -4.73878868e-02 4.78310287e-01
      3.18617851e-01 -1.47226423e-01 6.84559762e-01 1.45894945e-01
      7.13104308e-01 -5.39284199e-02 -1.56376094e-01 2.71400660e-01
      5.21721959e-01 1.30270573e-03 -4.48860288e-01 1.82129115e-01
      -3.09107214e-01 -4.68625575e-02 4.59717631e-01 -2.34090090e-01
      -5.88106997e-02 -1.11680083e-01 -1.82205439e-01 -3.20702225e-01
      2.87287921e-01 -3.92261118e-01 1.64315641e-01 -2.43025035e-01
      2.19472516e-02 2.12319661e-02 -5.51677532e-02 -1.74539402e-01
      1.77138224e-01 -7.45161831e-01 -8.89849067e-02 1.41463131e-01
      -1.78504378e-01 -7.56004974e-02 -4.96800691e-02 -7.20994920e-03
      1.42350510e-01 5.34736395e-01 -2.29495794e-01 -6.04829192e-01
      -3.00585330e-01 -1.48962393e-01 3.35256159e-01 1.53836384e-01
      -4.11618024e-01 2.31530011e-01 1.69307724e-01 3.02110881e-01
      -6.47530496e-01 2.12808281e-01 2.05800477e-02 2.01912835e-01
      2.38692731e-01 -2.08811522e-01 8.25091302e-02 -1.99967027e-02
      1.16850948e+00 -1.31953388e-01 2.10329100e-01 -2.72154361e-01
      -1.28556445e-01 6.96468651e-01 2.41942685e-02 -1.63014978e-01
      -1.30324125e-01 4.89615381e-01 8.65173861e-02 1.79610401e-01
      -3.44933063e-01 1.62390575e-01 2.44210854e-01 3.77373010e-01
      -2.77492285e-01 -4.57490385e-01 3.24476182e-01 -6.96480274e-02
      3.54376704e-01 -1.02649108e-01 -3.65593523e-01 -9.61349234e-02
      -3.56687814e-01 1.63958028e-01 -1.13000736e-01 -3.93596999e-02
      -3.94723713e-02 1.87444091e-01 -9.56051275e-02 1.31477267e-01
      -1.93060994e-01 1.01223387e-01 1.48247574e-02 -3.69788110e-01
      -2.19197392e-01 3.66461128e-01 -2.31810793e-01 -1.29362466e-02
      -4.74430360e-02 -3.79344672e-01 1.29293678e-02 9.55334902e-02
      -5.12810657e-03 1.21788736e-02 -2.06205808e-03 -2.08775669e-01
      -2.42760740e-02 3.28927726e-01 2.43019745e-01 -4.61934388e-01
      -4.26188558e-01 3.18964779e-01 2.62630850e-01 6.06455952e-02
      -1.15932584e-01 -2.17855498e-01 1.56844351e-02 3.44389290e-01
      -1.93916857e-01 -8.47856104e-02 9.74800363e-02 2.64394462e-01
      3.20093155e-01 -2.52304137e-01 2.96359181e-01 7.44646341e-02
      3.27952683e-01 -2.96838522e-01 -4.83056277e-01 -3.32889438e-01
      8.53772461e-01 9.02536809e-02 -1.69886678e-01 -3.44235808e-01
      8.57177153e-02 2.92956799e-01 1.49429440e-01 -2.82260209e-01
      2.00809270e-01 2.93035388e-01 -9.85992490e-04 -2.91170269e-01
      -3.42600048e-02 -7.16578886e-02 1.11672647e-01 -2.01971516e-01
      -3.49547118e-01 2.33582519e-02 9.15135369e-02 -2.75095522e-01
      -5.43208420e-02 9.54221413e-02 -8.41706097e-02 2.23146468e-01
      -4.33572769e-01 7.18372837e-02 7.94241875e-02 -2.93334216e-01
      1.69462726e-01 3.10082138e-01 -6.53977692e-02 -6.86075613e-02
      3.09325874e-01 -1.67886361e-01 2.12850451e-01 -7.05121225e-03
      1.26738548e-01 -2.88596302e-01 -1.28236949e-01 -1.36593329e-02
      -1.91495359e-01 -1.46539718e-01 -1.41586751e-01 -4.47758704e-01
      3.76335941e-02 1.89841092e-01 2.54886895e-01 6.10164590e-02
      -2.30942428e-01 -9.10343379e-02 7.09008798e-02 9.18572098e-02
      -1.00774281e-01 -5.14272340e-02 2.27398127e-02 -1.22230472e-02
      -6.41879961e-02 -1.01918906e-01 4.60067719e-01 -6.48652241e-02
      2.13446878e-02 1.94588184e-01 1.02704860e-01 -5.66140041e-02
      9.46324989e-02 -2.84188032e-01 -1.55609576e-02 4.88517255e-01
      4.05453622e-01 1.49664164e-01 -1.44663617e-01 -2.42493361e-01
      -7.97781497e-02 3.46973568e-01 6.52201846e-02 -2.82748848e-01
      1.41221642e-01 -8.75236467e-04 2.89918512e-01 4.93949711e-01
      -9.22234505e-02 -1.97825715e-01 3.56020093e-01 2.05902889e-01
      3.16238105e-01 -2.29362577e-01 -6.16845489e-02 1.94375634e-01
      4.84511890e-02</_>
    <_>
      -3.97821851e-02 1.81331620e-01 -1.70745831e-02 -1.39156342e-01
      8.88594687e-02 -1.47755727e-01 -1.26677960e-01 3.03640932e-01
      1.12804160e-01 1.21948332e-01 -4.81015414e-01 -1.26944214e-01
      4.49649133e-02 4.70680028e-01 -2.84997404e-01 -4.07403320e-01
      1.81193054e-01 -1.56536937e-01 -3.95262510e-01 -2.24024683e-01
      2.06909105e-01 2.10264876e-01 -3.20170820e-01 -8.30407590e-02
      -7.61914393e-03 4.80450630e-01 -1.48286536e-01 -2.92313725e-01
      1.33269832e-01 2.46629685e-01 1.78500801e-01 -5.85992813e-01
      -4.80787098e-01 -4.26354222e-02 2.21643850e-01 -2.05338612e-01
      2.36552022e-02 1.40645176e-01 1.79131612e-01 4.89004850e-02
      -2.50092834e-01 -3.02993238e-01 2.53513515e-01 4.70272340e-02
      -4.08216156e-02 -1.72221090e-03 3.47983330e-01 7.84273222e-02
      -3.09005708e-01 -9.60441865e-03 3.56541902e-01 -1.59312353e-01
      -1.66758075e-01 4.67558317e-02 -3.27147283e-02 -1.09505832e-01
      -1.06846496e-01 -4.97408956e-01 -1.49508700e-01 2.57408410e-01
      -3.02270725e-02 -3.28519315e-01 -4.91599664e-02 1.08261034e-01
      7.67290145e-02 -5.99399954e-02 -2.67067939e-01 -2.85059035e-01
      1.01888642e-01 -3.68811227e-02 -1.80787537e-02 -1.44534353e-02
      -1.30864859e-01 -3.17115694e-01 1.96696386e-01 2.04842329e-01
      6.17468774e-01 -6.12372100e-01 -2.72458732e-01 2.53534019e-01
      9.27063823e-02 -5.74052691e-01 -1.68224707e-01 1.10332742e-01
      7.99809620e-02 -1.21255204e-01 -5.45334697e-01 -3.85707974e-01
      6.84626400e-01 -2.46688649e-01 -4.55634028e-01 3.36335033e-01
      1.72154680e-01 -1.29843965e-01 -3.38249654e-01 -9.36327949e-02
      3.27683419e-01 4.70968604e-01 -2.78814316e-01 -6.42983198e-01
      -1.53092757e-01 3.87877080e-04 1.46778345e-01 -4.53320481e-02
      -2.06175432e-01 4.48863864e-01 2.33473897e-01 6.99380040e-02
      -3.19677800e-01 3.26098315e-02 8.54199603e-02 1.37785375e-01
      5.63210733e-02 1.10420167e-01 2.22273409e-01 5.59583724e-01
      8.85019600e-02 -1.70891229e-02 6.98970407e-02 1.09058864e-01
      -1.26626953e-01 -6.86689168e-02 -4.38547768e-02 -6.22322084e-03
      3.00378740e-01 -2.33775571e-01 -2.52677836e-02 -6.23151138e-02
      -1.25207648e-01 1.73132285e-01 -2.28766613e-02 2.85308897e-01
      1.68404743e-01 -1.57577127e-01 1.52724877e-01 2.04285353e-01
      -8.79986212e-02 -5.49623251e-01 1.35663867e-01 1.74573809e-01
      -5.40986240e-01 -4.54555660e-01 2.69032896e-01 1.37709931e-01
      -1.88328445e-01 -3.16909522e-01 -3.90054077e-01 6.29508495e-01
      1.38328686e-01 4.89627980e-02 -6.65255904e-01 2.61457831e-01
      2.68918779e-02 -6.51360571e-01 2.73476958e-01 1.04484849e-01
      5.80282032e-01 -4.00076956e-01 2.92245537e-01 1.58312306e-01
      5.94321787e-01 -6.04376197e-02 -1.43573955e-01 3.83270174e-01
      9.62077677e-02 5.98981977e-01 -5.64775527e-01 4.43916023e-02
      2.77320743e-01 7.62220442e-01 -4.19115275e-02 -1.28123924e-01
      1.26452655e-01 1.67755842e-01 2.29167268e-01 -4.68541175e-01
      -3.60275358e-01 -4.62469608e-01 1.33663416e-01 9.69162434e-02
      1.14012636e-01 6.01403601e-02 8.28581527e-02 9.75913927e-02
      -2.33466834e-01 1.73485149e-02 4.60268296e-02 -2.75426954e-01
      1.23268180e-02 -2.25481629e-01 -1.40976056e-01 -3.12087059e-01
      1.67826474e-01 -4.55836393e-03 6.51763454e-02 -1.22610919e-01
      7.18462691e-02 -4.76474345e-01 1.77021787e-01 2.58912928e-02
      -7.10908234e-01 4.06559527e-01 6.67217448e-02 2.49594897e-01
      -7.53854573e-01 1.53815269e-01 -1.24339476e-01 2.55633026e-01
      -3.50725144e-01 -3.09083045e-01 2.87581325e-01 2.45113313e-01
      -2.42348939e-01 -5.06678641e-01 -3.85971487e-01 -6.84012920e-02
      3.19580436e-02 -1.73763502e-02 1.40161201e-01 1.04511097e-01
      -7.10499997e-04 4.39478010e-01 3.89770120e-01 -3.81693877e-02
      1.12835439e-02 1.97188437e-01 -6.03857823e-02 6.27768338e-01
      -6.54527098e-02 -2.27061406e-01 2.98776299e-01 3.18951398e-01
      4.55437154e-02 -3.52990925e-01 2.66814291e-01 2.67133713e-01
      -1.95338205e-02 8.12409595e-02 -1.58206597e-01 2.15782344e-01
      3.68421264e-02 -9.96784121e-02 -3.35098207e-01 -9.04120877e-02
      -3.94465998e-02 -3.64085287e-01 -1.94371939e-01 -1.08954445e-01
      -2.01623484e-01 -3.30683142e-01 -3.26298177e-01 -3.17482084e-01
      1.62895575e-01 -4.76071686e-01 -4.33714449e-01 -4.51782733e-01
      -8.75650793e-02 6.06842674e-02 -2.01597542e-01 -1.15258098e-01
      -1.50833800e-01 -2.03040734e-01 -2.40298659e-01 -3.99288327e-01
      -3.01235318e-01 1.99385211e-01 2.80121624e-01 -1.06278241e-01
      -1.14945002e-01 -6.05443835e-01 -6.34070873e-01 4.06095803e-01
      -1.62399650e-01 -1.12906620e-01 8.01052153e-01 -1.78135112e-01
      -5.34811877e-02 -1.39529780e-02 -1.88901782e-01 -3.70169401e-01
      1.78156495e-01 2.60851681e-01 -4.12429720e-01 4.67380136e-01
      -5.90261519e-02 -3.23523343e-01 -4.58670825e-01 -9.03470740e-02
      2.91534454e-01 6.79422617e-02 9.96990949e-02 -2.54385084e-01
      2.33238056e-01 -6.42786175e-02 -3.55736047e-01 2.55252033e-01
      3.08933079e-01 3.46353978e-01 -2.38990448e-02 1.10857710e-02
      -2.12869510e-01 -2.97964606e-02 -3.30488622e-01 -1.30250007e-01
      4.44686338e-02 2.26322353e-01 -2.82555252e-01 -2.46244356e-01
      -2.91055053e-01 4.10864204e-02 -1.83160126e-01 -6.51841089e-02
      -3.11723500e-01 1.83280528e-01 4.74736132e-02 1.38767898e-01
      1.89024359e-01 2.94282585e-01 -8.79096910e-02 -2.00160476e-03
      9.52315517e-03 4.22476279e-03 1.37859330e-01 -1.27525538e-01
      2.14697644e-01 2.06399664e-01 -5.54070110e-03 -1.49913803e-01
      1.92962244e-01 -1.02924541e-01 2.33472697e-02 1.13124646e-01
      -7.13536218e-02 -4.76019196e-02 6.73457563e-01 -5.26861809e-02
      -2.93377936e-01 2.82714248e-01 -1.96202368e-01 2.52433509e-01
      3.19616228e-01 -1.52158082e-01 3.12320650e-01 -8.76044855e-02
      1.30272433e-01 -1.23014100e-01 6.39739215e-01 1.82916559e-02
      2.76693225e-01 -3.00350487e-01 1.42376453e-01 7.40536768e-03
      1.22617790e-02 3.75819616e-02 -8.83035138e-02 -4.16850634e-02
      -1.57194182e-01 1.55751184e-01 3.28010730e-02 -3.89809579e-01
      -7.14618042e-02 -3.34293902e-01 -2.03105703e-01 -1.53582945e-01
      1.11331016e-01 -1.83565170e-01 3.21897537e-01 3.63810539e-01
      -3.35017025e-01 -1.02087423e-01 -2.52173245e-01 5.03321141e-02
      1.68916866e-01 -3.56275961e-02 -2.42251810e-02 -3.51813614e-01
      2.34510213e-01 -3.96815874e-02 -4.32553999e-02 -1.44468442e-01
      -2.04123966e-02 -4.16949950e-02 -1.74228936e-01 1.52090579e-01
      -2.85181612e-01 7.95263797e-02 -1.45522669e-01 1.88036948e-01
      9.78968069e-02 -1.89730287e-01 -2.97003120e-01 2.24729359e-01
      -1.82873741e-01 -3.78443152e-02 1.63519561e-01 -1.15403987e-01
      6.22767694e-02 6.88985398e-04 -5.23566678e-02 -1.91802189e-01
      1.90484688e-01 1.33564740e-01 1.76185891e-01 -1.34863034e-01
      -1.03525609e-01 9.64415520e-02 -1.26999944e-01 -9.49122570e-03
      -1.93457857e-01 2.03681625e-02 -1.97895855e-01 1.61420032e-01
      -1.82839841e-01 -2.12098777e-01 -1.66660957e-02 1.91027105e-01
      -3.18632334e-01 1.56249702e-01 2.26827696e-01 -2.40032554e-01
      -3.90805304e-01 4.33264881e-01 -2.44647533e-01 -1.45070091e-01
      2.50195324e-01 -1.80507556e-01 8.25320482e-02 -2.35129707e-02
      1.52043939e-01 -2.23916546e-02 1.89291894e-01 3.95426005e-02
      -1.19745292e-01 6.15589023e-02 7.30013624e-02 1.31277114e-01
      2.32868105e-01 2.08825976e-01 1.62380785e-01 1.61755219e-01
      -9.64056253e-02</_>
    <_>
      -4.73834500e-02 6.13659248e-02 -1.57561080e-04 6.57183677e-02
      8.38996544e-02 4.82732691e-02 -1.38760963e-02 -3.10279825e-03
      -7.04954267e-02 6.44392427e-03 -5.57882786e-02 -1.35935396e-02
      4.73257080e-02 2.82234922e-02 -1.32028565e-01 -6.70328438e-02
      4.94215339e-02 -5.92028499e-02 -1.54876709e-01 3.19192968e-02
      -3.50746773e-02 3.50684226e-02 -5.09865582e-02 -1.65886939e-01
      -7.13037252e-02 1.32148400e-01 4.06868830e-02 -6.02245070e-02
      3.43358330e-02 -8.52742568e-02 -1.05018169e-01 -1.70226425e-01
      -1.31885767e-01 2.71948837e-02 1.19767010e-01 8.25204328e-02
      -2.84641404e-02 7.92266056e-02 5.21104075e-02 -3.03584691e-02
      -1.20851494e-01 -1.44606546e-01 3.23032103e-02 6.55345842e-02
      -1.48525517e-02 -1.40999645e-01 4.68030921e-04 -2.11661253e-02
      1.29044959e-02 -1.50679052e-01 -7.48559879e-03 3.33709009e-02
      7.64943510e-02 -3.63982096e-02 -9.36818644e-02 4.92977165e-03
      -3.47068235e-02 -1.64414532e-02 -1.10534476e-02 -9.42734070e-03
      1.18786976e-01 -2.46175937e-02 -4.94183265e-02 1.06871864e-02
      6.29464835e-02 4.46559973e-02 7.70058706e-02 -9.66349915e-02
      -8.06130320e-02 -2.04205848e-02 -4.99733761e-02 -1.13677748e-01
      4.21837009e-02 2.78259963e-02 -1.85736436e-02 4.59252223e-02
      1.12634888e-02 -3.45172407e-03 2.19714344e-02 1.02152787e-02
      -7.30805919e-02 -9.57230181e-02 1.75104871e-01 9.35377367e-03
      6.87086061e-02 -1.64551381e-02 -5.82290627e-02 2.79793609e-02
      2.35621050e-01 -1.16667628e-01 -1.81249917e-01 1.44409165e-01
      5.10559930e-03 -1.12679504e-01 -9.65511277e-02 -3.02900691e-02
      1.80341750e-01 4.18628991e-01 -1.22598493e-02 -1.81526616e-01
      3.47238593e-02 7.48215988e-02 6.94341287e-02 6.89653307e-02
      -1.38557088e-02 1.48881152e-01 2.72032440e-01 -2.74047460e-02
      -3.64893645e-01 -1.22895641e-02 1.60098612e-01 1.45946160e-01
      6.24297261e-02 -3.32100689e-02 8.99433717e-02 3.04920018e-01
      -9.82558504e-02 -2.07474485e-01 -3.44669595e-02 6.35601953e-02
      1.65506631e-01 4.76750582e-02 -2.75193471e-02 1.21431470e-01
      1.42475784e-01 -9.57821906e-02 4.82952818e-02 -3.94095667e-02
      5.83656393e-02 7.12825581e-02 2.58031245e-02 -5.82086816e-02
      -1.45038992e-01 5.28547205e-02 3.21195461e-02 3.73373516e-02
      -6.38098046e-02 -9.83275101e-02 1.05664589e-01 1.96952716e-01
      5.56233004e-02 -5.87565526e-02 -5.12832776e-02 8.55229795e-03
      -1.33763641e-01 6.08078316e-02 -1.12605594e-01 1.45302117e-01
      6.82739392e-02 1.47898078e-01 9.02812742e-03 5.41031957e-02
      -2.79588938e-01 -3.70565206e-01 3.53863463e-03 -2.58959178e-02
      1.20269798e-01 -4.78412770e-02 2.01460406e-01 3.45898777e-01
      3.83504868e-01 -1.92311436e-01 -1.79992646e-01 2.25237347e-02
      3.75065282e-02 1.65719956e-01 -1.44245490e-01 -1.15467034e-01
      2.04706550e-01 3.08542550e-01 3.51120792e-02 -1.60674363e-01
      8.07894245e-02 8.30689818e-02 4.48829681e-02 -1.37082979e-01
      -8.67181048e-02 -1.57126915e-02 1.40469983e-01 6.79882336e-03
      -7.46225193e-02 -1.28749646e-02 3.79117839e-02 1.38997927e-01
      -5.17050326e-02 -2.37360857e-02 -4.18509468e-02 -5.85313141e-03
      3.39615680e-02 -1.28375560e-01 1.93719957e-02 3.82568464e-02
      -6.47105873e-02 5.23286648e-02 6.12980910e-02 -1.28717599e-02
      -2.26132292e-02 -3.72512452e-02 -1.59675881e-01 3.50777358e-02
      -3.82418074e-02 1.19769737e-01 2.57207036e-01 1.10539496e-01
      1.55987404e-02 2.74644722e-03 -9.91204008e-02 -9.51927900e-02
      -4.89932746e-02 -4.65199873e-02 2.43947674e-02 1.28322318e-01
      1.62761718e-01 1.56490192e-01 -8.78929198e-02 -1.91618070e-01
      -1.69976607e-01 -3.30855548e-02 2.21985672e-02 -5.02690226e-02
      2.09831581e-01 2.88634956e-01 1.08610623e-01 -1.15326539e-01
      -1.84202880e-01 1.04106359e-01 -2.06937529e-02 2.86859144e-02
      -9.42151621e-02 -3.34623978e-02 9.25585777e-02 -5.25257401e-02
      1.77698527e-02 -6.76197484e-02 1.43728703e-01 -1.54137285e-03
      -8.73041973e-02 -2.92956084e-03 -1.09351613e-01 -1.16916806e-01
      -1.01286121e-01 1.54475003e-01 1.64558858e-01 4.19255942e-02
      -6.31922530e-03 -1.14643266e-02 -6.63352832e-02 2.23561563e-02
      -1.72725394e-01 -3.07735633e-02 -2.99783237e-02 2.25468371e-02
      -2.22957417e-01 -8.36454853e-02 -6.36024922e-02 7.46979639e-02
      7.44522065e-02 2.25789603e-02 7.42601976e-02 3.83362733e-02
      -8.97753835e-02 -1.38650939e-01 -4.24623676e-02 2.96639390e-02
      8.55322853e-02 2.25264400e-01 7.52911717e-02 -4.82194051e-02
      -5.78449704e-02 -1.26812413e-01 -1.54013678e-01 -3.79803255e-02
      1.95848141e-02 4.34617326e-02 2.88963169e-01 2.73348652e-02
      -1.05660290e-01 8.68870877e-03 -1.63534075e-01 -7.31457472e-02
      -9.15403366e-02 7.92944431e-02 -4.61704656e-02 2.77941227e-01
      6.01440743e-02 -2.30065390e-01 -1.47046685e-01 -6.58999532e-02
      6.94461614e-02 -1.40860274e-01 3.22019793e-02 -4.50900581e-04
      2.49391437e-01 -1.03649780e-01 -2.36496538e-01 1.56748686e-02
      1.29247189e-01 8.45421478e-02 -1.30322531e-01 -5.95063344e-02
      -2.89891437e-02 1.88554928e-01 -1.11556843e-01 -9.26801562e-02
      6.94416016e-02 1.37712523e-01 1.10294588e-01 -3.79758850e-02
      -6.42092675e-02 -3.67552638e-02 9.24979076e-02 -7.95080736e-02
      -1.35236755e-01 5.37231527e-02 5.00639156e-02 -4.67980397e-04
      -4.78596464e-02 -4.82263304e-02 1.48328952e-02 2.02108324e-02
      3.48292990e-03 -7.19265256e-04 7.53883272e-02 -1.32085299e-02
      1.16915032e-01 3.38121392e-02 -6.46803975e-02 -1.10728189e-01
      9.93468687e-02 9.89645720e-03 -1.47021145e-01 2.33479198e-02
      1.09463759e-01 7.85609987e-03 4.82485592e-02 2.16461830e-02
      -2.56899968e-02 9.74957719e-02 -9.26132724e-02 -3.68113481e-02
      8.46581385e-02 5.34962341e-02 3.19719315e-02 -4.37690318e-02
      1.24798445e-02 3.22502330e-02 1.09939300e-01 -1.43988386e-01
      -1.48451582e-01 1.12880291e-02 2.22608745e-01 3.21085639e-02
      -1.58609211e-01 5.52240983e-02 1.43437549e-01 8.57585594e-02
      -1.26524568e-01 -1.36247545e-01 -4.81977202e-02 2.16418523e-02
      -4.86327894e-02 -1.35345623e-01 -6.09595403e-02 7.79297501e-02
      6.64136708e-02 -6.85723871e-02 3.26411687e-02 1.16856799e-01
      5.21761971e-03 3.21323015e-02 -1.60348180e-04 -8.05646405e-02
      1.16565607e-01 5.00600226e-03 1.01021742e-02 -8.18402097e-02
      3.47588323e-02 3.82615440e-03 5.55567853e-02 2.93604564e-02
      2.59085838e-02 -1.51352003e-01 -1.06969604e-03 5.92015162e-02
      -2.87235472e-02 9.05590132e-04 3.04112360e-02 -5.64539060e-02
      2.07969639e-02 -7.06207231e-02 -1.57065928e-01 6.71527237e-02
      1.46207467e-01 1.15470858e-02 6.28698096e-02 1.02759562e-01
      1.23812864e-02 1.09114587e-01 -3.34747583e-02 -8.93790126e-02
      6.60322830e-02 5.15583493e-02 1.11956401e-02 1.70084350e-02
      1.08439378e-01 -4.89174947e-02 5.34150824e-02 -3.39789726e-02
      -8.93780123e-03 4.44841869e-02 -2.64218934e-02 -3.31837055e-03
      8.06056708e-02 3.30524705e-02 -4.95517552e-02 -8.26141760e-02
      -1.27568722e-01 1.05843499e-01 5.99138997e-02 -2.93881278e-02
      -3.62445414e-02 1.55579090e-01 3.12273391e-02 -1.23160789e-02
      -1.10437982e-02 -4.98902500e-02 1.31642088e-01 1.06770247e-01
      1.94652770e-02 -5.69317937e-02 -7.60822669e-02 -4.78525460e-02
      3.94626372e-02 9.52627212e-02 -1.09259792e-01 1.24090556e-02
      3.46702337e-02 -3.22251320e-02 -1.15208207e-02 -6.08616658e-02
      -9.00116339e-02</_></support_vectors>
  <uncompressed_sv_total>562</uncompressed_sv_total>
  <uncompressed_support_vectors>
    <_>
      1.47411197e-01 1.63659692e-01 3.18799883e-01 3.24389458e-01
      4.38290656e-01 4.38290656e-01 4.38290656e-01 1.68369234e-01
      3.68240774e-01 5.48188627e-01 5.48188627e-01 1.70973018e-01
      1.16529018e-01 1.02552779e-01 5.48188627e-01 1.31756753e-01
      5.16042486e-02 1.40152037e-01 5.09429872e-01 5.09429872e-01
      3.10091436e-01 1.28828928e-01 2.28305086e-01 5.09429872e-01
      2.18901739e-01 7.26143923e-03 5.92312217e-02 3.50616574e-01
      4.80878592e-01 4.80878592e-01 4.41499203e-02 2.40437299e-01
      3.93485636e-01 3.16952735e-01 1.33424059e-01 2.77354240e-01
      2.16686428e-01 2.33022869e-01 1.10706866e-01 4.27575916e-01
      1.60750225e-01 2.42247239e-01 4.52631086e-01 4.52631086e-01
      4.52631086e-01 7.55075887e-02 5.45030534e-02 4.16458011e-01
      4.89864916e-01 1.19693369e-01 3.51762958e-02 2.78444320e-01
      4.89864916e-01 4.89864916e-01 6.65092468e-02 6.98032901e-02
      4.31721896e-01 4.31721896e-01 3.01317722e-01 2.53774762e-01
      4.31721896e-01 4.31721896e-01 2.92681277e-01 4.76106405e-01
      4.76106405e-01 2.73928076e-01 1.76160894e-02 1.21880978e-01
      3.69952530e-01 1.17113575e-01 2.72819102e-01 4.76106405e-01
      5.11704743e-01 5.11704743e-01 8.44054669e-02 6.62707165e-03
      6.80491999e-02 5.11704743e-01 4.44372058e-01 2.72469386e-03
      9.55928024e-03 1.13044538e-01 5.47847509e-01 5.47847509e-01
      9.95060036e-05 6.57617450e-02 5.47847509e-01 2.77515203e-01
      1.78004862e-04 0. 3.13103781e-03 5.70037723e-01 5.70037723e-01 0.
      5.71322814e-03 1.25002071e-01 5.70037723e-01 6.13547154e-02
      6.81124674e-03 2.25286675e-03 1.29455328e-01 1.28026679e-01
      1.32697225e-02 2.70806393e-03 5.03497303e-01 7.96673477e-01
      2.65270114e-01 1.20303920e-02 2.63346289e-03 1.59485087e-01
      6.02534533e-01 6.02534533e-01 8.51949304e-03 1.01472810e-03
      2.11589560e-01 3.68071467e-01 2.49249279e-01 3.92752171e-01
      2.54752845e-01 3.92752171e-01 3.92752171e-01 6.52408600e-02
      3.73541117e-02 3.92752171e-01 3.92752171e-01 3.92752171e-01
      4.06052887e-01 4.06052887e-01 3.79053578e-02 3.02749127e-02
      6.56993687e-02 4.06052887e-01 4.06052887e-01 4.06052887e-01
      4.06052887e-01 4.38654780e-01 4.72907096e-01 1.89192723e-02 0.
      3.91337574e-02 5.31995118e-01 5.31995118e-01 8.67552832e-02
      5.63428216e-02 1.12212822e-03 7.04119980e-01 7.04119980e-01 0.
      4.72952583e-04 2.56447699e-02 2.72110328e-02 6.94877992e-04
      1.12212822e-03 0. 5.58642805e-01 5.58642805e-01 0. 0.
      2.15652660e-01 5.58642805e-01 1.08027458e-01 0. 8.62103188e-04
      1.99446082e-02 4.07275520e-02 0. 0. 4.96691972e-01 8.09216022e-01
      2.97208071e-01 8.62103188e-04 2.54857028e-03 6.82719827e-01
      6.82719827e-01 2.12380186e-01 8.76806118e-03 7.79393166e-02
      9.25348550e-02 1.01021454e-02 3.23093049e-02 1.56713337e-01
      4.07309264e-01 4.07309264e-01 4.07309264e-01 3.78959268e-01
      3.36039037e-01 4.07309264e-01 2.14086413e-01 7.35072494e-02
      1.35322094e-01 9.05855224e-02 3.05930763e-01 4.11239624e-01
      3.73467028e-01 4.11239624e-01 4.11239624e-01 4.11239624e-01
      2.44603172e-01 3.98563594e-01 3.98563594e-01 3.98563594e-01 0. 0.
      3.89234960e-01 3.98563594e-01 2.24164516e-01 3.98563594e-01
      3.41366380e-01 5.36078155e-01 5.36078155e-01 0. 0. 0.
      9.23670828e-03 1.26058593e-01 5.36078155e-01 2.11743638e-01
      5.24988055e-01 5.24988055e-01 0. 0. 2.75611103e-01 5.24988055e-01
      1.95161566e-01 9.50516686e-02 5.08888721e-01 9.26222056e-02
      3.43671447e-04 0. 0. 1.89690217e-01 5.08888721e-01 4.16477084e-01
      5.08888721e-01 2.64210224e-01 5.93350172e-01 5.93350172e-01
      5.26080504e-02 1.16161443e-02 2.89759487e-01 3.58752012e-01
      6.57455698e-02 1.58386528e-02 4.02197927e-01 4.02197927e-01
      3.43141824e-01 8.71680751e-02 5.68093657e-02 4.02197927e-01
      4.02197927e-01 4.02197927e-01 2.42062733e-01 1.08062252e-01
      4.91588086e-01 4.91588086e-01 1.21079311e-01 3.61856520e-02
      1.93437636e-02 4.91588086e-01 4.91588086e-01 2.08211001e-02
      7.78417513e-02 6.13380015e-01 6.13380015e-01 5.17966934e-02 0.
      3.32729472e-03 3.95462900e-01 2.43717700e-01 1.29857719e-01
      4.88770068e-01 4.88770068e-01 4.88770068e-01 3.58946025e-02 0. 0.
      4.09220010e-02 1.91234648e-01 4.88770068e-01 4.35528129e-01
      4.07375872e-01 2.76392877e-01 0. 0. 3.17332387e-01 4.35528129e-01
      2.89045572e-01 4.35528129e-01 5.20338893e-01 1.70341194e-01
      1.45982336e-02 0. 0. 4.79404777e-01 5.75391948e-01 3.07498395e-01
      1.97008938e-01 4.56708729e-01 4.56708729e-01 3.91156465e-01
      4.09870744e-02 1.52888313e-01 4.34452504e-01 4.56708729e-01
      4.84358557e-02 2.31614206e-02 4.82010603e-01 4.82010603e-01
      1.89268678e-01 4.53260988e-02 8.99309739e-02 4.82010603e-01
      4.82010603e-01 5.60537502e-02 1.29391372e-01 9.51352194e-02
      4.62477177e-01 4.62477177e-01 2.49378845e-01 1.08232334e-01
      5.56944683e-02 4.62477177e-01 4.62477177e-01 2.31912717e-01
      4.72330069e-03 3.15721691e-01 4.98395354e-01 4.98395354e-01
      3.71963829e-02 7.68146059e-03 2.65184432e-01 4.98395354e-01
      2.79929638e-01 4.66178171e-02 2.02327818e-01 6.30888522e-01
      6.30888522e-01 6.04802519e-02 3.77144873e-01 5.39121106e-02
      6.41524279e-03 7.55448416e-02 1.23391487e-01 3.45790461e-02
      2.95542013e-02 2.23087482e-02 1.38845686e-02 6.97356641e-01
      6.97356641e-01 1.78089496e-02 4.60839532e-02 4.98012304e-01
      4.98012304e-01 9.72620398e-03 0. 6.81548472e-03 4.98012304e-01
      4.98012304e-01 5.25436960e-02 7.68212276e-03 5.44506490e-01
      5.44506490e-01 6.21846691e-02 1.59548726e-02 8.52192193e-02
      5.44506490e-01 2.96797067e-01 1.65187307e-02 7.31796399e-02
      6.56272590e-01 6.56272590e-01 3.00664067e-01 2.34611961e-03
      3.38501483e-02 1.41092256e-01 1.00613713e-01 2.67695449e-02
      9.88116637e-02 2.59682775e-01 3.40682149e-01 3.75999004e-01
      3.75999004e-01 3.75999004e-01 3.75999004e-01 2.22714365e-01
      3.52100372e-01 2.71416008e-01 1.14346758e-01 6.67837262e-02
      4.29155767e-01 4.53164577e-01 4.12802041e-01 7.46743456e-02
      4.13218178e-02 4.53164577e-01 4.53164577e-01 3.10403585e-01
      7.06000850e-02 4.11100775e-01 4.11100775e-01 4.11100775e-01
      4.11100775e-01 1.60058439e-01 1.54662862e-01 4.11100775e-01
      4.94341671e-01 4.34708536e-01 6.21259138e-02 8.39705542e-02
      1.88100591e-01 4.94341671e-01 4.94341671e-01 4.89682294e-02
      1.55819833e-01 5.29570937e-01 5.29570937e-01 8.91756490e-02
      7.49996752e-02 9.78152752e-02 5.29570937e-01 3.60514045e-01
      7.25554070e-03 1.43892933e-02 6.30775928e-01 6.30775928e-01
      8.71385708e-02 3.16831656e-02 2.50405185e-02 4.21360433e-01
      1.05017051e-01 1.02366433e-02 6.61250064e-03 5.72304666e-01
      5.72304666e-01 9.18042734e-02 4.37647216e-02 4.22303192e-02
      2.38882862e-02 3.36105943e-01 3.19800854e-01 3.33590597e-01</_>
    <_>
      1.24181665e-01 7.14306161e-02 9.01094824e-02 4.79793996e-01
      4.79793996e-01 2.52966821e-01 1.66354865e-01 4.69382048e-01
      4.40652370e-01 4.20964241e-01 4.20964241e-01 4.46275137e-02
      4.20964241e-01 4.20964241e-01 4.07885522e-01 2.10192502e-01
      2.16090292e-01 1.66472152e-01 4.89253908e-01 4.89253908e-01
      1.49687901e-01 7.97102880e-03 2.67480373e-01 4.89253908e-01
      3.59901160e-01 8.93786997e-02 2.13242084e-01 4.62717772e-01
      4.62717772e-01 4.62717772e-01 2.16373499e-03 1.96071476e-01
      2.56765544e-01 3.44006985e-01 1.79889813e-01 3.13012183e-01
      2.59141833e-01 2.92704642e-01 2.17668667e-01 2.91256666e-01
      1.79164454e-01 3.02452385e-01 4.42328602e-01 4.42328602e-01
      4.42328602e-01 3.62692438e-02 1.17064631e-02 3.30281615e-01
      5.21889150e-01 1.14183657e-01 4.50081415e-02 2.28212833e-01
      5.21889150e-01 5.21889150e-01 2.76789874e-01 4.27862816e-02
      9.63425115e-02 3.86339068e-01 6.44311011e-02 3.49906310e-02
      3.07065964e-01 5.73422015e-01 5.73422015e-01 4.61750835e-01
      4.61750835e-01 2.04507276e-01 1.32824942e-01 1.55841202e-01
      2.12947354e-01 1.15903690e-01 4.61750835e-01 4.61750835e-01
      5.02153337e-01 5.02153337e-01 4.45366092e-02 1.43263161e-01
      2.27007136e-01 5.02153337e-01 3.78284097e-01 4.93523404e-02
      1.37608916e-01 1.49728328e-01 5.36808491e-01 5.36808491e-01
      5.93280466e-03 1.29048377e-01 5.36808491e-01 3.01726520e-01
      1.75033626e-03 0. 2.27498612e-03 5.66551149e-01 5.66551149e-01 0.
      5.49754221e-03 1.47797793e-01 5.66551149e-01 9.73599181e-02
      6.57401280e-03 2.27773446e-03 1.28352225e-01 1.29635498e-01
      7.53634190e-03 2.44359835e-03 5.79527915e-01 7.06817806e-01
      3.52173030e-01 1.12675065e-02 7.14836817e-04 1.54433548e-01
      4.80459839e-01 4.80459839e-01 1.86643854e-01 9.04403031e-02
      2.00291023e-01 4.80459839e-01 4.42373395e-01 1.24105878e-01
      2.19568089e-01 3.84364098e-01 4.00801659e-01 1.02125585e-01
      5.42538315e-02 4.50973809e-01 4.50973809e-01 4.50973809e-01
      4.36611384e-01 4.36611384e-01 4.36611384e-01 2.64871716e-02
      2.13872731e-01 4.36611384e-01 3.61193895e-01 9.56520140e-02
      2.16949672e-01 4.69258606e-01 4.67756867e-01 1.37539446e-01
      3.95628810e-02 2.82928944e-01 4.69258606e-01 4.69258606e-01
      1.15482919e-01 4.51456532e-02 0. 7.04385579e-01 7.04385579e-01 0.
      1.64224568e-03 1.77955646e-02 1.81093961e-02 1.76677073e-03 0. 0.
      5.46615660e-01 5.46615660e-01 0. 0. 2.62787163e-01 5.46615660e-01
      1.70640811e-01 0. 0. 1.70001723e-02 4.29837890e-02 0. 0.
      5.78374743e-01 7.10739136e-01 3.88717383e-01 0. 2.20392030e-02
      6.18344247e-01 6.18344247e-01 2.05891415e-01 2.70169787e-02
      8.07575509e-02 3.94352257e-01 1.44975990e-01 4.96646613e-02
      9.31790099e-03 3.56364340e-01 5.49651563e-01 1.78092077e-01
      1.95924453e-02 8.96011442e-02 5.49651563e-01 4.68855023e-01
      5.69287948e-02 4.13528353e-01 4.13528353e-01 4.13528353e-01
      5.12005808e-03 1.17843390e-01 4.13528353e-01 4.13528353e-01
      2.30813384e-01 2.71389782e-01 3.98809791e-01 3.98809791e-01
      3.98809791e-01 0. 7.55915195e-02 3.88972610e-01 3.98809791e-01
      2.09178984e-01 3.98809791e-01 3.34074229e-01 5.26548028e-01
      5.26548028e-01 0. 0. 0. 4.43705916e-02 2.22280622e-01
      5.26548028e-01 1.99107334e-01 5.04047096e-01 5.04047096e-01 0. 0.
      3.52955252e-01 5.04047096e-01 2.49765992e-01 7.85579756e-02
      5.01626492e-01 1.56497270e-01 3.42615036e-04 0. 0. 2.72859782e-01
      5.01626492e-01 3.75710964e-01 5.01626492e-01 4.40196186e-01
      4.40196186e-01 4.40196186e-01 0. 3.66139449e-02 4.40196186e-01
      4.40196186e-01 1.20814316e-01 1.03937045e-01 2.29378074e-01
      3.34554374e-01 4.49613094e-01 1.21206097e-01 6.31239116e-02
      4.49613094e-01 4.49613094e-01 4.49613094e-01 6.07012063e-02
      7.09341317e-02 4.71339911e-01 4.71339911e-01 1.97617769e-01
      1.63542390e-01 3.06061450e-02 4.71339911e-01 4.71339911e-01
      1.86761126e-01 7.46290237e-02 6.32670581e-01 6.32670581e-01
      7.73927122e-02 6.02998631e-03 1.59950915e-03 3.56412619e-01
      1.80029929e-01 1.48662060e-01 4.55288708e-01 4.81722206e-01
      4.81722206e-01 4.26523797e-02 0. 0. 5.10135256e-02 2.95483351e-01
      4.81722206e-01 4.34623331e-01 4.28174317e-01 2.95861632e-01 0. 0.
      3.45226109e-01 4.34623331e-01 2.28846580e-01 4.18861002e-01
      5.16377747e-01 2.02603236e-01 1.26318522e-02 0. 0. 5.18950164e-01
      5.18950164e-01 3.26942146e-01 2.03602090e-01 4.40040797e-01
      4.40040797e-01 4.13326234e-01 0. 1.22142591e-01 4.40040797e-01
      4.40040797e-01 1.83107778e-01 4.21321616e-02 4.49973017e-01
      2.15023786e-01 8.00983980e-02 1.37196695e-02 1.19650863e-01
      4.49973017e-01 4.49973017e-01 3.53190452e-01 4.42921162e-01
      1.21422961e-01 3.56349200e-01 3.95816028e-01 3.95816028e-01
      3.56601685e-01 3.14594107e-03 3.16956609e-01 3.95816028e-01
      3.95816028e-01 1.79999508e-02 3.84601235e-01 4.62823123e-01
      4.62823123e-01 5.82475141e-02 2.19046473e-04 2.20503911e-01
      4.62823123e-01 3.90518367e-01 4.35773768e-02 2.47492477e-01
      6.22880340e-01 6.22880340e-01 5.55410683e-02 3.78497362e-01
      5.50777391e-02 5.27083687e-03 7.25486130e-02 1.04994833e-01
      2.96506807e-02 3.33172865e-02 1.85384862e-02 1.52864465e-02
      6.98756278e-01 6.98756278e-01 1.30499676e-02 5.23771755e-02
      4.98064280e-01 4.98064280e-01 1.44521445e-02 0. 8.08117632e-03
      4.98064280e-01 4.98064280e-01 4.60658707e-02 1.88960880e-02
      4.70044196e-01 4.70044196e-01 5.25071546e-02 1.33436248e-01
      2.36009151e-01 4.70044196e-01 4.70044196e-01 5.97517081e-02
      1.78061813e-01 4.10494149e-01 9.62299705e-02 9.40169320e-02
      4.10494149e-01 4.10494149e-01 4.10494149e-01 2.74014294e-01
      2.45333880e-01 4.10494149e-01 7.89416358e-02 3.20787095e-02
      4.54630405e-01 4.57443953e-01 4.57443953e-01 3.08337808e-01
      2.46826857e-01 3.02626580e-01 3.39694977e-01 1.02612726e-01
      1.74037926e-02 4.63858902e-01 4.63858902e-01 3.42128307e-01
      3.55789699e-02 7.45425969e-02 4.63858902e-01 4.63858902e-01
      2.43897200e-01 9.55874920e-02 4.11089391e-01 4.11089391e-01
      4.11089391e-01 4.11089391e-01 1.72099501e-01 2.29520932e-01
      4.11089391e-01 4.63992655e-01 4.63992655e-01 7.58158788e-02
      8.36866498e-02 3.16805929e-01 4.63992655e-01 4.63992655e-01
      4.23878012e-03 1.45166233e-01 4.75988925e-01 4.75988925e-01
      1.42116636e-01 7.90783465e-02 2.41564512e-01 4.75988925e-01
      4.75988925e-01 6.41846890e-03 6.43344671e-02 5.10918677e-01
      2.34068468e-01 4.51914854e-02 4.98861261e-02 3.81605811e-02
      5.10918677e-01 3.28762770e-01 2.07180128e-01 5.10918677e-01
      5.52885711e-01 1.27939329e-01 1.50719285e-02 7.66532794e-02
      1.82444006e-01 8.43733102e-02 1.20644443e-01 5.52885711e-01
      5.52885711e-01</_>
    <_>
      5.57422698e-01 2.37913087e-01 1.71905845e-01 0. 0. 0.
      2.06651449e-01 3.14565063e-01 6.71682894e-01 4.94682491e-01
      2.62434661e-01 4.65161711e-01 0. 0. 0. 2.00990736e-01
      2.64118910e-01 5.88442981e-01 4.22548652e-01 7.20489085e-01
      4.97874796e-01 5.85628226e-02 1.37129128e-02 0. 4.84622316e-03
      4.68365289e-02 2.00338006e-01 5.90529025e-01 3.93771499e-01
      2.06716239e-01 2.95837700e-01 3.24339807e-01 1.65904284e-01
      8.06610957e-02 1.53197676e-01 4.38505352e-01 5.12169242e-01
      3.08753341e-03 1.85937202e-03 4.92325500e-02 2.84029067e-01
      1.13926046e-01 3.02466094e-01 3.33586335e-01 6.53545499e-01
      4.98154312e-01 3.60374600e-01 1.06459195e-02 2.38158293e-02
      2.48008728e-01 1.22560151e-01 3.20438415e-01 4.32374388e-01
      4.93980557e-01 1.43473580e-01 3.97517011e-02 8.72251019e-03
      5.31020500e-02 8.37265551e-02 5.61881810e-02 4.71683770e-01
      6.94650233e-01 5.02805293e-01 2.81365961e-01 3.92240882e-01
      4.03730035e-01 0. 0. 1.64440811e-01 6.26796067e-01 2.98445314e-01
      2.85548687e-01 3.83816510e-02 1.68404639e-01 4.76955891e-01 0. 0.
      2.33246028e-01 7.44794369e-01 3.35342437e-01 9.13707390e-02
      1.27481995e-02 1.96581587e-01 6.25801563e-01 5.37383080e-01
      4.59731817e-01 2.15129107e-01 9.01851207e-02 1.97917148e-02
      4.57318686e-03 3.23941633e-02 5.58263063e-03 4.17687893e-02
      3.69992465e-01 8.08764935e-01 4.04150903e-01 1.75156131e-01
      5.25490940e-02 3.64609808e-02 4.17242795e-02 0. 3.41453105e-02
      5.64232588e-01 8.01506162e-01 1.31398872e-01 8.18530321e-02
      3.97810228e-02 5.26831523e-02 3.39480676e-02 1.30010201e-02
      1.04675777e-02 8.53876546e-02 8.54735196e-01 3.83188277e-01
      3.05412978e-01 1.03967898e-01 3.54510285e-02 1.52404876e-02
      2.01124744e-03 1.94731448e-02 1.34947434e-01 7.36713111e-01
      5.33887744e-01 3.56383294e-01 1.36789426e-01 1.78159624e-02
      4.34919409e-02 7.26695210e-02 1.96083412e-01 4.97899801e-02
      1.27927691e-01 3.12549949e-01 8.57302845e-01 3.01184297e-01
      3.85086462e-02 0. 2.20601171e-01 5.27410567e-01 2.92408764e-01
      2.14095622e-01 4.59951788e-01 5.20818830e-01 2.15100765e-01
      1.61928684e-02 0. 8.23680907e-02 2.46568665e-01 7.44687766e-02
      1.93051085e-01 2.41850108e-01 8.58574450e-01 2.74694830e-01 0.
      2.01404234e-03 0. 9.87073989e-04 2.23370381e-02 3.22606981e-01
      6.19012654e-01 6.66290104e-01 2.43025586e-01 3.18912640e-02
      9.41717625e-03 0. 1.35797178e-02 1.18428119e-01 9.36125755e-01
      2.95662075e-01 1.03941537e-01 3.77398804e-02 1.96614154e-02
      1.97380339e-03 3.88432387e-03 7.79365897e-02 4.66011196e-01
      8.59236240e-01 1.61969125e-01 5.16474769e-02 2.91139334e-02
      1.14210648e-02 8.71407315e-02 8.59654173e-02 1.49013862e-01
      7.04026818e-02 6.27766669e-01 6.09034956e-01 4.07612622e-01
      1.13807715e-01 6.33329302e-02 1.00651897e-01 1.47651315e-01
      6.09387815e-01 8.24169517e-02 3.68264318e-02 2.12930050e-02
      4.13219929e-01 5.70469201e-01 2.92988628e-01 9.83635262e-02
      2.57181674e-01 3.12343806e-01 1.70500442e-01 1.59863517e-01
      2.65828758e-01 2.95425922e-01 4.82085019e-01 6.10953689e-01
      1.45651186e-02 6.59134388e-02 1.83269590e-01 7.06506744e-02
      7.68692553e-01 1.83439553e-01 5.39393246e-01 1.73226207e-01
      3.55101377e-02 2.53746182e-01 4.89928527e-03 1.50723970e-02
      2.57569156e-03 1.48120552e-01 7.32121766e-02 7.50580907e-01
      4.43436354e-01 3.71899337e-01 3.21618915e-01 1.20106548e-01
      3.17533687e-02 9.48846620e-03 2.56280284e-02 4.35046144e-02
      1.96684644e-01 6.68308616e-01 6.18705750e-01 5.18510461e-01
      3.27445239e-01 1.26544669e-01 1.86823770e-01 1.34757489e-01
      2.42411084e-02 4.42908928e-02 2.41640180e-01 6.95841849e-01
      4.63856936e-01 4.35009718e-01 4.08478469e-01 6.30244389e-02
      6.45129681e-02 1.44392893e-01 1.07612170e-01 3.53806078e-01
      5.00867367e-01 5.97756654e-02 3.09856981e-01 6.58371806e-01
      1.59341931e-01 5.35836928e-02 4.96347457e-01 3.87208074e-01
      1.76972374e-01 6.72163963e-02 3.04535061e-01 4.66835052e-02
      2.64292564e-02 0. 1.06864564e-01 5.09798706e-01 5.20637035e-01
      3.86746973e-01 4.53305006e-01 7.04146504e-01 2.72956014e-01
      8.59757513e-02 9.42115486e-02 4.19962406e-01 1.29573539e-01
      1.03200227e-01 1.10502519e-01 4.36299354e-01 5.63234627e-01
      3.62816118e-02 5.34062274e-02 1.10676745e-02 3.63366827e-02
      4.36305581e-03 1.03930555e-01 3.30975413e-01 7.40788221e-01
      2.39747465e-01 1.17587917e-01 6.36005551e-02 2.70611364e-02 0. 0.
      4.06758010e-01 7.21852303e-01 4.77411777e-01 4.99731600e-01
      3.01349044e-01 3.11495334e-01 3.64543438e-01 2.74207383e-01
      5.54120168e-02 2.05432475e-01 2.32225165e-01 4.93377924e-01
      2.92680115e-01 1.02654859e-01 2.06975862e-01 1.12384073e-01
      3.72410506e-01 2.63256818e-01 2.54137278e-01 5.21940768e-01
      5.38589120e-01 8.65291283e-02 2.67374337e-01 6.34895265e-01
      8.04808661e-02 1.58596113e-01 4.25090522e-01 5.18926620e-01
      1.52710825e-01 5.37143722e-02 5.71222663e-01 3.82553458e-01
      4.08993334e-01 1.10143445e-01 3.06586832e-01 2.98229903e-02
      4.83668447e-02 5.52999452e-02 4.88653779e-01 6.01945341e-01
      2.82577217e-01 7.58849457e-02 1.07593372e-01 6.22363985e-01
      2.10588738e-01 1.66454345e-01 7.72298425e-02 2.62217462e-01
      4.13524836e-01 2.56789982e-01 3.02642196e-01 1.84383348e-01
      1.14107765e-01 2.35937163e-01 3.43859434e-01 3.94941181e-01
      5.36091924e-01 2.23041445e-01 7.33180344e-02 2.66035777e-02
      8.05031601e-03 1.06136888e-01 2.46340513e-01 4.96937454e-01
      6.50703549e-01 4.41924632e-01 1.71418622e-01 1.06820419e-01
      2.55794097e-02 1.30192535e-02 3.05324584e-01 4.40914214e-01
      7.61913002e-01 2.33919859e-01 1.60974488e-01 2.33350426e-01
      7.06305653e-02 2.12178484e-01 2.01183581e-03 5.90362728e-01
      5.87662220e-01 3.27744573e-01 1.16615653e-01 2.53346562e-01
      9.71601717e-03 2.86407679e-01 8.63825262e-01 3.22854482e-02
      3.80499333e-01 5.42019941e-02 8.83986652e-02 2.68908106e-02
      9.71601717e-03 8.92147347e-02 2.31889471e-01 5.96269190e-01
      5.14722764e-02 7.05723822e-01 9.63944271e-02 1.94394827e-01
      1.12844594e-01 9.94537994e-02 2.53604293e-01 2.06220254e-01
      8.61073881e-02 2.91363429e-02 8.15200984e-01 3.72561008e-01
      1.01191610e-01 1.26251042e-01 2.12366104e-01 2.11406171e-01
      1.80375636e-01 6.41484261e-01 4.59001154e-01 2.14174762e-01
      3.09840351e-01 2.39826530e-01 1.74752682e-01 2.49529198e-01
      6.56974092e-02 2.33101938e-02 4.30930667e-02 3.54380421e-02
      1.72434688e-01 2.82358021e-01 5.68030357e-01 6.18573189e-01
      4.13642824e-01 4.22869980e-01 8.94406810e-03 2.68322043e-02 0.
      2.43444294e-01 3.67770493e-01 4.03191060e-01 3.10463339e-01
      5.96570790e-01 6.81345344e-01 6.38991520e-02 1.91697463e-01 0.
      9.50516462e-02 0. 8.31068307e-02 2.77022757e-02 6.81345344e-01</_>
    <_>
      1.97979242e-01 2.46645547e-02 6.96772709e-03 7.19759846e-03
      9.30491183e-03 2.87207186e-01 5.93302011e-01 5.93302011e-01
      4.09367979e-01 4.89207089e-01 1.12187922e-01 4.11207117e-02
      1.75013579e-02 4.49725278e-02 1.45649433e-01 4.89207089e-01
      4.89207089e-01 4.89207089e-01 6.54352009e-01 1.43839478e-01
      1.84480295e-01 6.14068396e-02 1.14615459e-03 1.67504027e-02
      1.53239667e-01 2.34214112e-01 6.54352009e-01 1.96295828e-01
      1.11482479e-01 1.94826499e-01 1.11909688e-01 3.74651775e-02
      1.97852805e-01 5.33130646e-01 5.33130646e-01 5.33130646e-01
      3.31100106e-01 4.31533813e-01 4.31533813e-01 2.81607509e-01
      1.33436620e-01 1.42678261e-01 4.31533813e-01 2.70805985e-01
      3.69589746e-01 1.50786325e-01 4.21215773e-01 4.21215773e-01
      2.13126615e-01 1.95109360e-02 2.00346068e-01 4.21215773e-01
      4.21215773e-01 4.21215773e-01 2.61070151e-02 5.81324697e-01
      5.81324697e-01 5.28686821e-01 1.19807884e-01 7.38088489e-02
      1.12773925e-01 4.49947119e-02 5.98579645e-02 5.84615506e-02
      6.52621090e-02 8.53005722e-02 9.28296149e-02 4.14444268e-01
      5.82104385e-01 5.82104385e-01 3.47251534e-01 2.40469091e-02
      4.85270411e-01 5.74479759e-01 2.95441091e-01 2.25599244e-01
      1.61345288e-01 3.63546729e-01 2.46643901e-01 2.17566416e-01
      1.55569598e-01 6.06169760e-01 4.71011013e-01 2.60082304e-01
      4.62174229e-02 4.75750444e-03 1.45491380e-02 5.29215075e-02
      2.98719794e-01 4.90459651e-01 4.90907997e-01 7.15134889e-02
      7.34698921e-02 2.55072992e-02 3.98678426e-03 1.41264796e-01
      4.90907997e-01 4.90907997e-01 4.90907997e-01 4.71031427e-01
      4.71031427e-01 3.94718945e-01 1.24220466e-02 3.35734561e-02
      5.46393953e-02 2.59929836e-01 3.19452524e-01 4.71031427e-01
      2.00548679e-01 3.41788143e-01 2.54049897e-01 9.30409413e-03
      1.97251569e-02 1.07140444e-01 4.44122940e-01 5.30997694e-01
      5.30997694e-01 1.59043565e-01 5.40393472e-01 5.50155282e-01
      5.50155282e-01 1.49667487e-01 7.24822953e-02 4.23198231e-02
      1.16617233e-01 1.69704944e-01 2.86816418e-01 3.88923019e-01
      3.88923019e-01 7.53694698e-02 2.04167858e-01 3.88923019e-01
      3.88923019e-01 3.88923019e-01 3.31933975e-01 4.88563120e-01
      4.88563120e-01 4.88563120e-01 6.35340065e-02 4.54786867e-02
      6.16483279e-02 4.95748073e-02 1.67276710e-01 4.88563120e-01
      6.51988864e-01 3.82680923e-01 3.33828032e-02 0. 1.43187717e-01
      5.96274659e-02 5.50989881e-02 1.21908210e-01 6.14854157e-01
      7.36303091e-01 1.62566960e-01 4.70440499e-02 2.14043073e-02
      3.52402478e-01 1.69866115e-01 2.57360879e-02 3.19766290e-02
      5.16412795e-01 2.09087595e-01 1.14597827e-01 7.43009448e-02
      5.41914860e-03 1.69918224e-01 6.50439441e-01 6.50439441e-01
      2.02781618e-01 1.22353226e-01 1.92639418e-02 1.35901393e-02
      4.74232249e-02 4.97478880e-02 7.40164742e-02 4.84535456e-01
      6.09346449e-01 6.09346449e-01 7.60068148e-02 4.09748144e-02
      5.23032188e-01 5.93686044e-01 4.15238261e-01 2.06241384e-01
      2.36265555e-01 2.59407014e-01 1.65291756e-01 3.12126670e-02
      3.65154147e-01 5.01513422e-01 5.01513422e-01 8.60616863e-02
      7.25431368e-02 2.24320471e-01 1.94387928e-01 2.02642962e-01
      4.65599328e-01 2.06458777e-01 3.25467259e-01 3.76531124e-01
      5.79724535e-02 7.68238902e-02 1.52209237e-01 4.72088754e-01
      4.77509528e-01 4.69530463e-01 1.28130689e-01 1.57273356e-02
      1.08601963e-02 2.36873496e-02 3.43816340e-01 2.48379037e-01
      4.65750068e-01 5.79609036e-01 4.92397100e-01 2.83612330e-02
      4.87010786e-03 3.33748125e-02 3.13770324e-01 5.54766715e-01
      5.92119277e-01 3.61259729e-01 2.89802253e-01 1.41047642e-01
      1.38060167e-01 2.59608507e-01 2.21170723e-01 3.53541702e-01
      5.98460615e-01 5.16516268e-01 2.52681345e-01 2.02134430e-01
      4.94758748e-02 1.07203752e-01 1.11845575e-01 6.21867813e-02
      3.98472697e-03 2.44803429e-02 1.95131488e-02 5.74085832e-01
      6.99053288e-01 3.81977171e-01 7.72617757e-02 4.24410909e-01
      5.90962410e-01 1.86555728e-01 1.16450256e-02 7.06802122e-03
      1.60485372e-01 5.90962410e-01 2.20879897e-01 6.89430162e-03
      6.34835601e-01 6.34835601e-01 1.15645081e-01 8.71472582e-02
      3.73018026e-01 1.62093133e-01 2.32834071e-02 2.55855024e-02
      1.57166094e-01 2.97394305e-01 2.83578932e-01 1.02312386e-01
      4.31344509e-02 6.70212626e-01 4.51080501e-01 1.88931704e-01
      3.14746708e-01 1.34221226e-01 9.59523320e-02 9.70551893e-02
      1.08774835e-02 5.95123915e-04 1.01934532e-02 5.30168653e-01
      7.17846513e-01 3.99484307e-01 1.68972731e-01 1.24308290e-02
      2.52230130e-02 3.17971744e-02 2.19795872e-02 7.04016611e-02
      6.47496283e-01 6.67761683e-01 3.03946286e-01 1.56683266e-01
      2.61252671e-01 5.57021439e-01 5.57021439e-01 1.37076750e-01
      9.24920961e-02 2.90159285e-01 3.97356659e-01 1.07979976e-01
      2.39803955e-01 2.26073071e-01 4.20926869e-01 1.64271712e-01
      7.01479847e-03 4.68766608e-04 4.60026771e-01 6.48924053e-01
      2.19009534e-01 1.38762034e-03 1.98734440e-02 5.04208803e-01
      4.58150506e-01 1.34252906e-01 5.47270142e-02 5.04208803e-01
      5.04208803e-01 3.10986154e-02 1.12657892e-02 5.62915862e-01
      5.62915862e-01 5.59174299e-01 1.43850416e-01 1.07737780e-01
      8.42975080e-02 7.85049573e-02 4.75182086e-02 2.79325008e-01
      2.24470213e-01 5.23440897e-01 1.69721931e-01 2.45418057e-01
      2.43779436e-01 2.50381440e-01 3.27629328e-01 5.20422697e-01
      6.57852069e-02 7.79975429e-02 1.54463751e-02 1.23674690e-03
      2.79275198e-02 1.15868375e-02 2.86198169e-01 8.71808589e-01
      3.68861347e-01 3.65658015e-01 8.24981481e-02 4.19678837e-02 0.
      6.32353127e-02 3.26549192e-03 3.61332983e-01 7.35090673e-01
      4.18880194e-01 4.58294779e-01 4.58294779e-01 3.28183204e-01
      1.23837300e-01 1.77555308e-02 7.46283121e-03 2.32519776e-01
      4.33409393e-01 4.58294779e-01 2.94647157e-01 4.75309372e-01
      3.79950851e-01 9.80922654e-02 8.63143650e-04 1.69830006e-02
      4.91678447e-01 5.22392154e-01 1.14594579e-01 3.04670073e-02
      2.02755183e-01 2.10731685e-01 5.33020124e-02 7.56785721e-02
      1.01115532e-01 6.63594544e-01 6.63594544e-01 8.61463398e-02
      2.01329738e-02 1.71431437e-01 6.79099083e-01 6.79099083e-01
      2.02127382e-01 8.35581310e-03 3.87755851e-03 6.52921526e-03
      9.61101428e-03 7.25019537e-03 1.47602901e-01 6.04801536e-01
      4.76384372e-01 6.04801536e-01 1.12118796e-01 2.86153480e-02
      1.02143725e-02 1.07914833e-02 5.23608294e-04 1.87586192e-02
      1.53739676e-01 6.83391988e-01 6.93965733e-01 5.07281385e-02
      6.46733195e-02 9.70071331e-02 1.91130973e-02 3.62229884e-01
      3.39699715e-01 8.55122805e-02 1.15985878e-01 4.78233576e-01 0.
      2.58192658e-01 5.49296021e-01 3.52991521e-01 6.72510743e-01
      4.54066247e-01 1.20967850e-01 1.81161035e-02 2.28648428e-02 0.
      7.60253519e-03 3.43808867e-02 5.63442051e-01 1.94049492e-01
      1.30391300e-01 5.79136983e-02 1.99992880e-02 0. 5.98255843e-02
      6.65861368e-01 6.65861368e-01 2.11233810e-01 3.40140015e-02
      3.12640145e-02 3.08973971e-03 9.90256295e-03 1.56793267e-01
      3.18027824e-01 6.55577421e-01 6.55577421e-01 7.69650862e-02</_>
    <_>
      5.47733665e-01 6.58723354e-01 4.38203096e-01 0. 2.58042272e-02
      9.67272092e-03 3.57080176e-02 2.43733972e-02 2.47593239e-01
      6.59062386e-01 5.30088425e-01 3.26019853e-01 4.33089212e-02
      4.58063483e-02 3.55066583e-02 4.69369441e-02 5.09147421e-02
      4.00975466e-01 4.84180212e-01 3.03135663e-01 2.20443010e-01
      2.67479066e-02 1.50368422e-01 1.78630263e-01 3.26390356e-01
      2.84816563e-01 6.10687256e-01 4.25710499e-01 1.34390175e-01
      8.23902804e-03 1.11503331e-02 4.23303153e-03 1.12536848e-01
      3.77078712e-01 5.46453476e-01 5.82779765e-01 2.27880493e-01
      7.95520693e-02 1.33707037e-03 9.37995501e-03 0. 1.57474130e-02
      2.09381327e-01 6.67420626e-01 6.67420626e-01 1.20907925e-01
      1.23303793e-01 2.48235181e-01 1.81020666e-02 0. 0. 4.96917486e-01
      6.60184741e-01 4.67832595e-01 1.30115151e-01 2.54814982e-01
      5.52301109e-01 3.29893887e-01 0. 7.06901476e-02 5.52301109e-01
      4.18534100e-01 1.16418436e-01 1.35718837e-01 4.45503414e-01
      8.62128913e-01 1.27096549e-01 8.57755244e-02 1.71276964e-02
      7.12064952e-02 2.29216758e-02 4.28697616e-02 1.91856831e-01
      1.25488818e-01 3.00748408e-01 1.69145539e-01 8.16103578e-01
      2.83142149e-01 2.39544049e-01 7.57950544e-02 1.04491986e-01
      1.09647371e-01 8.83519500e-02 2.77198702e-01 3.86596680e-01
      8.24711263e-01 1.44018769e-01 1.80230737e-01 6.15092143e-02
      9.21339169e-02 1.10077128e-01 7.41988197e-02 1.20354958e-01
      1.49847478e-01 5.41288674e-01 4.67392683e-01 3.55866224e-01
      4.99836832e-01 2.18311921e-01 1.08499482e-01 7.74771944e-02
      1.16656795e-01 1.44271880e-01 4.36729223e-01 5.07260203e-01
      6.19657397e-01 3.07972223e-01 1.06636725e-01 7.83576444e-02
      1.34578897e-02 1.88995637e-02 3.38090234e-03 9.09560248e-02
      9.64929387e-02 6.27254426e-01 6.27254426e-01 4.27279264e-01
      2.53862321e-01 6.04684167e-02 1.00198507e-01 4.12823446e-02
      2.48023029e-03 1.53159618e-01 5.98566473e-01 5.34160674e-01
      4.96464819e-01 7.32080862e-02 3.36766273e-01 6.91785991e-01
      2.38989532e-01 3.54361057e-01 1.92277774e-01 3.83944482e-01
      1.18845381e-01 2.62035197e-03 0. 1.85512856e-03 1.41647179e-02
      6.03269152e-02 6.44842505e-01 5.33447981e-01 5.15306592e-01
      1.46422043e-01 0. 0. 3.64167645e-04 7.49859586e-02 5.18384993e-01
      8.10151696e-01 2.02099726e-01 1.38033375e-01 3.64083387e-02 0. 0.
      1.18413335e-02 6.15708679e-02 1.82726651e-01 9.17743981e-01
      3.25327426e-01 7.10066631e-02 1.97352860e-02 0. 1.68987946e-03
      7.95913488e-03 2.52857581e-02 6.90948218e-02 6.98898733e-01
      6.89539611e-01 1.51424572e-01 2.62671169e-02 0. 8.35912153e-02
      3.57977189e-02 1.36368664e-03 5.78019209e-03 6.52631640e-01
      6.72818065e-01 2.70992875e-01 1.12904839e-01 1.35847643e-01
      4.43933219e-01 2.60258070e-03 0. 0. 2.01798722e-01 3.63645464e-01
      3.96822244e-01 3.40259373e-01 5.86349010e-01 1.71218306e-01
      2.02455521e-01 5.49954474e-01 0. 4.37876344e-01 2.59398948e-02
      5.96827149e-01 1.97709888e-01 1.59724191e-01 3.76545312e-03
      7.21738394e-03 2.19913758e-02 2.37975782e-03 2.37906836e-02
      3.15582827e-02 9.26463306e-01 3.60141277e-01 2.45627481e-02
      1.16888620e-01 1.09397164e-02 3.84488655e-03 2.69730445e-02
      2.24577442e-01 3.27731043e-01 7.38398492e-01 4.59064454e-01
      2.47560173e-01 3.64080608e-01 4.98212874e-01 4.51827943e-01
      1.85440078e-01 5.45936346e-01 5.06674387e-02 1.47247583e-01
      1.08966820e-01 1.87427163e-01 2.36202046e-01 3.25454861e-01
      2.60199010e-01 3.68521139e-02 2.32106194e-01 2.15613410e-01
      6.53748512e-01 4.24142420e-01 2.21786529e-01 6.52143478e-01
      5.68586528e-01 1.85315192e-01 0. 7.30941221e-02 7.25730956e-02
      2.29977533e-01 1.55444205e-01 3.44190657e-01 2.55767107e-01
      5.83074205e-02 3.64687294e-02 0. 5.62560111e-02 1.90641329e-01
      2.42730036e-01 6.93574071e-01 5.85761428e-01 4.79676872e-01
      1.85006604e-01 6.79119378e-02 1.37685403e-01 7.06311345e-01
      2.93601841e-01 2.27354825e-01 9.62703675e-02 2.42954135e-01
      5.65589130e-01 3.79258871e-01 3.71426679e-02 1.26735374e-01
      2.53339499e-01 8.80104229e-02 2.97489941e-01 3.74821454e-01
      4.56542581e-01 2.66318053e-01 3.92534956e-02 4.26345952e-02 0. 0.
      0. 2.17057064e-01 6.89226866e-01 6.28229797e-01 5.44542432e-01
      5.47012269e-01 4.35593426e-01 0. 0. 0. 1.14407994e-01
      1.88536853e-01 3.93540770e-01 3.56584489e-01 1.25941589e-01
      1.54544309e-01 0. 0. 0. 1.65483221e-01 6.13058865e-01
      6.46962881e-01 3.31009954e-01 4.34441566e-01 7.47608840e-01
      1.20227091e-01 2.07344666e-01 1.32666482e-02 8.91050324e-02
      1.45939305e-01 2.15953454e-01 2.68534452e-01 1.61852404e-01
      1.11026704e-01 5.00916243e-02 4.07893151e-01 1.13111012e-01
      6.22077346e-01 4.44016993e-01 3.42554539e-01 7.36059308e-01
      4.01341558e-01 1.81222796e-01 4.83521558e-02 1.58386245e-01
      1.35616958e-01 6.71987608e-02 1.05580658e-01 4.42124426e-01
      5.84295452e-01 1.91133559e-01 4.16760072e-02 1.58266742e-02
      7.44839311e-02 1.79473832e-01 2.33020797e-01 5.67128241e-01
      4.47622418e-01 1.51532859e-01 7.77647197e-02 2.77865678e-02
      9.30812396e-03 6.40865695e-03 7.70326182e-02 2.65590698e-01
      6.65946662e-01 6.65946662e-01 1.97335929e-01 2.68019140e-01
      4.42610890e-01 0. 2.82393545e-01 2.87394255e-01 3.19480449e-01
      5.21001995e-01 3.83608639e-01 5.38610220e-02 1.50740873e-02
      4.26058173e-02 0. 9.47189331e-01 4.52495962e-02 2.06984326e-01
      1.70023307e-01 1.15316473e-01 8.74397531e-02 6.82989582e-02
      1.87569454e-01 1.31870553e-01 8.62033904e-01 8.18879902e-02
      3.43421817e-01 1.91991821e-01 1.36381894e-01 9.30380002e-02
      1.42302439e-02 1.44818023e-01 1.11845873e-01 5.72945833e-01
      4.01638478e-01 6.43484533e-01 1.92179993e-01 9.30380002e-02
      7.81858712e-02 1.10945210e-01 1.51219651e-01 2.35647067e-01
      7.45137930e-01 5.67648768e-01 1.31220326e-01 2.53481716e-02
      6.04170794e-03 6.20965436e-02 2.54574865e-01 3.82669210e-01
      3.16340536e-01 6.29718363e-01 4.96807665e-01 1.52268469e-01
      8.48050341e-02 4.62773405e-02 3.93526331e-02 6.20836690e-02
      6.79472536e-02 8.56618658e-02 2.46857733e-01 6.47762179e-01
      4.73601550e-01 4.31830168e-01 2.91315943e-01 1.06987610e-01
      6.96740001e-02 3.76936905e-02 9.65737551e-02 4.09442484e-01
      4.12146002e-01 4.16329801e-01 5.94850659e-01 3.15395653e-01
      3.04415226e-01 2.90273249e-01 3.30581963e-01 0. 2.76416242e-01
      9.07117799e-02 5.48569560e-01 4.35470283e-01 3.50573301e-01
      9.95011926e-02 6.53536012e-03 7.62298983e-03 0. 7.68344104e-01
      1.86337262e-01 4.74839151e-01 2.59887516e-01 2.50113368e-01
      1.42477602e-01 0. 0. 0. 7.85179377e-01 4.88458723e-01
      1.93170428e-01 5.93843237e-02 2.75126129e-01</_>
    <_>
      4.22644675e-01 4.46471274e-01 3.55494052e-01 7.61639848e-02
      2.14548051e-01 4.46471274e-01 4.46471274e-01 1.92668140e-01
      5.97760454e-02 4.65918928e-01 4.65918928e-01 1.55540720e-01
      3.14095952e-02 6.22727163e-02 2.62038261e-01 4.65918928e-01
      4.65918928e-01 1.71181336e-01 6.83919549e-01 6.83919549e-01
      2.38885760e-01 1.42205218e-02 0. 0. 1.78526982e-03 5.95089979e-04
      2.02126969e-02 4.50310767e-01 8.11643422e-01 3.56363118e-01
      6.15341356e-03 0. 0. 0. 0. 5.76415733e-02 6.50874019e-01
      6.50874019e-01 2.84026444e-01 1.75985731e-02 0. 0. 0. 0.
      2.55435258e-01 6.78020895e-01 6.78020895e-01 1.07696876e-01
      3.13066915e-02 5.61472289e-02 4.32801768e-02 9.88136083e-02
      8.42519924e-02 1.98342755e-01 4.35034275e-01 6.02685809e-01
      2.09060997e-01 2.05419332e-01 3.16445559e-01 1.70591444e-01
      4.28429425e-01 1.89840823e-01 8.22381899e-02 2.58862466e-01
      4.27132040e-01 3.36185992e-01 3.21220785e-01 3.99140745e-01
      4.27132040e-01 4.27132040e-01 2.98386700e-02 7.06440061e-02
      6.37303770e-01 6.37303770e-01 3.71607602e-01 4.71371040e-02
      6.06179312e-02 1.57628164e-01 8.30303878e-02 3.05108745e-02
      6.82981238e-02 6.88895702e-01 6.88895702e-01 1.32826149e-01
      2.04472654e-02 0. 0. 5.19214477e-03 1.73071469e-03 1.60864517e-01
      6.49343908e-01 7.17628419e-01 1.98671505e-01 7.62736648e-02
      2.85087451e-02 0. 2.81184092e-02 5.40565029e-02 7.99064487e-02
      1.06874809e-01 6.15367472e-01 6.15367472e-01 4.72146869e-01
      3.80354784e-02 0. 1.44324442e-02 9.72414669e-03 2.01771893e-02
      2.48879254e-01 4.96261090e-01 5.16120672e-01 1.90272614e-01
      1.86272725e-01 7.05610216e-02 3.83818835e-01 3.59557152e-01
      2.57364392e-01 6.08285367e-01 5.07261515e-01 1.41383305e-01
      2.15130910e-01 2.41374478e-01 8.87066945e-02 1.76831797e-01
      1.61243647e-01 4.20631737e-01 3.65165144e-01 5.90326011e-01
      5.90326011e-01 3.70309472e-01 1.51759967e-01 3.40537243e-02
      4.38459143e-02 2.43560714e-03 2.32831854e-02 6.58164859e-01
      6.58164859e-01 3.53399694e-01 6.06185943e-03 0. 0. 8.27119045e-04
      1.13723800e-02 4.48238850e-02 6.44228101e-01 6.44228101e-01
      4.30488549e-02 0. 0. 0. 7.49883801e-02 1.72708601e-01
      3.55251849e-01 6.13846242e-01 4.59955305e-01 5.45796081e-02
      5.84955839e-03 2.18463317e-03 0. 4.22698185e-02 1.54574215e-01
      6.13846242e-01 5.05528629e-01 5.05528629e-01 5.05528629e-01
      1.02143258e-01 4.42496687e-03 0. 1.50912432e-02 4.09406126e-02
      4.64668572e-01 2.12335005e-01 6.85813367e-01 5.47763050e-01
      3.39050770e-01 1.64291888e-01 1.42063558e-01 3.38926651e-02
      3.20994966e-02 1.15649991e-01 5.93793154e-01 5.56215227e-01
      4.32736635e-01 3.95218506e-02 3.58336046e-02 2.00027049e-01
      1.31019339e-01 4.74731512e-02 2.86169231e-01 6.52331889e-01
      6.53837562e-01 3.73531640e-01 6.19462412e-03 2.29379046e-03 0. 0.
      0. 2.93678902e-02 4.79911923e-01 6.65201843e-01 5.57519495e-01
      7.66220095e-04 0. 0. 0. 6.49532974e-02 7.41800070e-02
      3.50555450e-01 4.93648797e-01 2.35481799e-01 8.31160881e-03 0. 0.
      7.28291944e-02 5.48358977e-01 5.16162157e-01 4.40854758e-01
      5.71706474e-01 4.65290010e-01 1.02272309e-01 4.00100388e-02
      2.74224393e-03 1.05098542e-02 9.92798358e-02 4.84314263e-01
      5.19810021e-01 1.40002146e-01 7.21499920e-02 2.24760957e-02
      2.17158701e-02 1.00487731e-01 1.76524162e-01 3.46864551e-01
      7.31532037e-01 2.06204429e-01 3.23804557e-01 5.08066833e-01
      6.06909096e-01 2.53418088e-01 1.04635425e-01 7.17463270e-02
      1.44970059e-01 3.37521076e-01 3.23212862e-01 3.47234190e-01
      6.40062749e-01 5.91334105e-01 6.36604726e-02 2.47392021e-02
      4.32907045e-03 2.65839323e-02 6.18462451e-02 5.40915251e-01
      6.35576189e-01 5.43848753e-01 5.83190192e-03 0. 0. 0. 0.
      3.60917114e-02 3.62198085e-01 6.98987663e-01 5.99282205e-01 0. 0.
      0. 3.71495895e-02 9.80268940e-02 5.58820255e-02 2.94595450e-01
      2.40747422e-01 9.33064446e-02 4.62018289e-02 0. 0. 5.08916855e-01
      6.48624003e-01 3.97779077e-01 4.24678475e-01 3.33290428e-01
      2.79932767e-01 6.59848273e-01 1.56091854e-01 1.68996044e-02
      5.17108925e-02 1.81136578e-01 3.57884496e-01 4.78900611e-01
      3.05742443e-01 6.84997812e-02 1.97555140e-01 1.29656464e-01
      2.97499686e-01 5.22586465e-01 2.88939685e-01 4.02702957e-01
      7.04611540e-01 2.40779951e-01 6.21907450e-02 2.05225348e-02
      1.90768694e-03 1.92087293e-02 2.10055530e-01 2.36308247e-01
      5.76262057e-01 5.84647655e-01 3.16321075e-01 4.26441133e-01
      5.25606930e-01 1.82858184e-02 0. 3.52915609e-03 9.46381781e-03
      3.06168377e-01 6.67064965e-01 6.67064965e-01 3.20129514e-01
      5.32615138e-03 0. 0. 0. 0. 2.96292100e-02 1.79556996e-01
      6.74255311e-01 6.74255311e-01 0. 0. 0. 7.75229558e-02
      2.05728412e-01 5.87692298e-02 3.00862730e-01 1.85937420e-01
      6.86657280e-02 1.20910746e-03 0. 0. 4.03526157e-01 5.98444760e-01
      5.85873246e-01 6.59729660e-01 2.68273830e-01 9.32931248e-03
      2.33490784e-02 0. 0. 1.16513088e-01 1.91699728e-01 6.59729660e-01
      6.05486870e-01 1.90081358e-01 1.56999901e-01 2.50075739e-02
      8.20861906e-02 0. 2.77452648e-01 2.69300640e-01 6.39108956e-01
      6.55710459e-01 4.67275620e-01 3.59361947e-01 1.17209300e-01
      6.07583206e-03 0. 1.73120834e-02 8.48218352e-02 4.40992892e-01
      6.06068432e-01 6.06068432e-01 4.06588942e-01 2.74778390e-03 0. 0.
      7.27290055e-04 1.09435739e-02 3.06379288e-01 6.30305827e-01
      6.30305827e-01 4.37374800e-01 0. 0. 0. 0. 0. 8.85392055e-02
      4.68805760e-01 6.47159994e-01 5.81632137e-01 0. 2.03729812e-02 0.
      4.79717441e-02 9.47807506e-02 7.03444481e-02 2.29578033e-01
      2.14022428e-01 1.23650096e-01 0. 3.40635888e-02 0. 1.04916036e-01
      5.53616583e-01 7.48378396e-01 4.25035775e-01 2.66661525e-01
      1.75292101e-02 2.08663233e-02 6.03972152e-02 1.78642228e-01
      2.94541180e-01 4.48212951e-01 6.46397591e-01 5.72438598e-01
      4.25173610e-01 3.31529111e-01 1.45132124e-01 4.66173366e-02
      9.74882841e-02 2.22055480e-01 3.20702016e-01 4.37052429e-01
      2.95738280e-01 3.94708365e-01 2.94187874e-01 6.47927299e-02 0. 0.
      1.90710142e-01 5.88994801e-01 5.26149333e-01 3.21293384e-01
      6.89509630e-01 6.40070081e-01 3.97766568e-03 0. 0. 4.92228335e-03
      1.74522251e-02 6.65544197e-02</_>
    <_>
      3.57058048e-01 1.17502563e-01 4.83173311e-01 1.75830126e-01
      4.85156700e-02 2.02848315e-02 1.79109454e-01 5.26415944e-01
      5.26415944e-01 2.57425278e-01 2.56687105e-01 2.56549269e-01
      3.07536662e-01 4.84857336e-02 5.42531848e-01 5.42531848e-01
      2.95412779e-01 1.54040813e-01 5.41111052e-01 5.41111052e-01
      6.81786984e-02 0. 0. 1.30235568e-01 5.29327393e-01 1.19236767e-01
      3.04924965e-01 6.69931591e-01 2.63985962e-01 4.34375815e-02
      2.14097984e-02 5.69391921e-02 5.61406128e-02 8.08704421e-02
      1.03574507e-01 6.69931591e-01 6.89987004e-01 2.96057370e-02
      6.66614100e-02 2.39816196e-02 4.64303009e-02 3.03310473e-02
      1.05984941e-01 1.44028038e-01 6.89987004e-01 1.83969766e-01
      4.02990580e-02 3.89690548e-01 4.01391566e-01 5.55582456e-02
      4.01391566e-01 4.01391566e-01 4.01391566e-01 4.01391566e-01
      2.87681799e-02 1.14258021e-01 6.71728075e-01 6.71728075e-01
      9.33382288e-02 1.72563702e-01 1.72763407e-01 9.17019844e-02
      1.50899496e-02 4.46621954e-01 1.82953235e-02 2.31262669e-03
      1.39833251e-02 1.99095048e-02 2.69783080e-01 4.92691010e-01
      4.86214250e-01 4.92691010e-01 2.97830492e-01 3.43158960e-01
      3.71132284e-01 1.73642501e-01 1.99541405e-01 4.65890944e-01
      4.65890944e-01 3.33958298e-01 1.88523069e-01 5.07526457e-01
      5.07526457e-01 5.07526457e-01 1.65244609e-01 2.57681489e-01
      2.51295120e-01 2.36471817e-01 7.59965256e-02 6.02714382e-02
      1.40469566e-01 2.24990100e-01 2.44755849e-01 1.54715702e-01
      3.31001520e-01 5.85898995e-01 5.85898995e-01 1.19627215e-01
      1.71834469e-01 7.53886476e-02 4.22835052e-02 6.53128028e-02
      4.13845271e-01 4.93817896e-01 4.93817896e-01 4.93817896e-01
      2.24779114e-01 1.73115909e-01 2.89659679e-01 1.50804102e-01
      2.71799713e-01 4.35501546e-01 3.43495429e-01 2.00551912e-01
      4.35501546e-01 4.35501546e-01 2.96538562e-01 5.19005954e-01
      5.19005954e-01 5.19005954e-01 2.12864801e-01 1.10827098e-02
      1.37421777e-02 1.03624046e-01 2.87153304e-01 2.18854487e-01
      1.64445024e-02 8.69710464e-03 3.79050300e-02 2.56077461e-02
      1.21825285e-01 6.94898963e-01 6.94898963e-01 8.76056626e-02
      4.83668856e-02 4.58769768e-01 4.58769768e-01 4.58769768e-01
      7.28465170e-02 7.72755891e-02 3.56926680e-01 4.58769768e-01
      1.20102115e-01 2.09649894e-02 2.51813293e-01 4.85867828e-01
      4.85867828e-01 1.17959037e-01 2.76414037e-01 4.01630610e-01
      4.18780446e-01 1.78675413e-01 2.59632692e-02 1.30973786e-01
      2.01263219e-01 2.96547741e-01 1.45777360e-01 2.75537908e-01
      4.76516187e-01 6.80607080e-01 2.31546357e-01 8.07746276e-02
      3.43158603e-01 6.65020943e-02 6.27686903e-02 1.97401568e-01
      1.68888092e-01 4.47282553e-01 4.47903782e-01 4.47903782e-01
      4.47903782e-01 4.02682632e-01 3.58480215e-01 4.02682632e-01
      4.02682632e-01 1.58024669e-01 7.93677643e-02 1.59472704e-01
      4.02682632e-01 4.02682632e-01 1.68574452e-01 5.61206520e-01
      5.61206520e-01 5.61206520e-01 6.30123541e-02 0. 4.72170971e-02
      9.07494649e-02 8.17605406e-02 4.52589989e-02 1.66914836e-01
      7.83894211e-02 6.94939047e-02 2.34649301e-01 6.44890845e-01
      6.44890845e-01 2.55367309e-01 2.52423249e-02 3.54309320e-01
      5.39347827e-01 5.39347827e-01 1.58963382e-01 1.03007397e-02
      2.17406288e-01 4.54702586e-01 7.39931911e-02 4.91537936e-02
      1.34800628e-01 2.67440587e-01 2.33834639e-01 1.99452952e-01
      6.60070777e-02 4.01227921e-01 5.64775169e-01 5.60282648e-01
      1.09435022e-01 1.57834068e-01 4.64652061e-01 4.34954315e-01
      5.40996253e-01 2.10708044e-02 4.83162403e-02 3.86863470e-01
      2.37223536e-01 2.49020502e-01 5.48007905e-01 2.31486693e-01
      1.06739387e-01 4.06131372e-02 1.11029185e-02 1.62115712e-02
      1.63016841e-01 5.48007905e-01 5.48007905e-01 4.62445676e-01
      1.77162141e-01 1.51960194e-01 8.18133503e-02 5.38955331e-02
      4.95759919e-02 5.55646181e-01 5.55646181e-01 3.10766101e-01
      4.58705164e-02 9.49867815e-02 5.16190648e-01 5.16190648e-01
      2.33829200e-01 1.11297965e-01 3.41206670e-01 5.16190648e-01
      2.95759682e-02 1.80396959e-01 4.52388287e-01 3.52363557e-01
      4.52388287e-01 4.52388287e-01 1.63228616e-01 3.41497183e-01
      9.04836878e-02 2.70853221e-01 3.69506240e-01 6.14283323e-01
      5.69254339e-01 1.36802673e-01 1.50890246e-01 2.11539611e-01
      2.37517402e-01 8.72515067e-02 7.53522441e-02 1.36867002e-01
      9.03002694e-02 1.22520672e-02 2.96687093e-02 5.50847612e-02
      1.87335640e-01 6.37131572e-01 6.80159092e-01 2.42097378e-01
      1.62387073e-01 4.05806035e-01 6.68350697e-01 4.85388190e-01
      4.13124822e-02 1.20388400e-02 1.26520544e-01 2.77571470e-01
      1.53047189e-01 1.64132655e-01 1.46567091e-01 4.32865620e-01
      5.58279872e-01 4.52265441e-01 1.44793302e-01 1.79706573e-01
      2.29793131e-01 3.62655163e-01 5.38962483e-02 5.07425703e-02
      2.35353351e-01 6.61019906e-02 1.84217662e-01 1.58345401e-01
      6.58568025e-01 6.58568025e-01 4.18535769e-02 9.21255201e-02
      2.86059290e-01 5.01056433e-01 3.37518841e-01 8.78527910e-02
      1.10418655e-01 5.01056433e-01 5.01056433e-01 1.32953629e-01
      4.55016226e-01 4.55016226e-01 4.55016226e-01 2.88744271e-01
      1.20387554e-01 4.73104641e-02 2.24500433e-01 1.29578963e-01
      4.55016226e-01 2.53150791e-01 5.67129910e-01 5.78719556e-01
      4.76364493e-01 4.51297835e-02 8.26479718e-02 1.29170164e-01
      4.47848886e-02 1.38210759e-01 1.50022432e-01 5.20388484e-02
      2.99511869e-02 3.85637879e-02 2.95947716e-02 2.35470742e-01
      6.56860948e-01 6.56860948e-01 2.15843588e-01 9.89727899e-02
      2.49148086e-01 5.80730557e-01 5.52959144e-02 1.97095469e-01
      1.62433416e-01 6.27862573e-01 3.35957050e-01 6.73750788e-02
      2.31545176e-02 4.28846814e-02 1.19815767e-01 3.21628064e-01
      7.57732332e-01 5.27318478e-01 1.38674870e-01 2.60352157e-02
      1.13970740e-02 2.61005182e-02 4.86792438e-02 1.47068575e-01
      2.60747910e-01 5.43190300e-01 1.28688797e-01 5.43190300e-01
      5.43190300e-01 1.33457258e-02 5.38106114e-02 7.20886290e-02
      2.01924056e-01 4.40693289e-01 1.39943182e-01 6.28044829e-02
      5.98445952e-01 5.98445952e-01 1.05568431e-01 2.31123805e-01
      4.31691468e-01 4.31691468e-01 6.23993054e-02 1.81365367e-02
      7.91166350e-02 4.31691468e-01 4.31691468e-01 4.31691468e-01
      1.06726944e-01 2.60569930e-01 6.58940971e-01 6.58940971e-01
      8.34506750e-02 8.60408098e-02 1.32519931e-01 5.85733876e-02
      1.01825759e-01 5.04848622e-02 6.56754617e-03 1.23928212e-01
      1.62882313e-01 1.92004144e-01 3.27325881e-01 6.38038099e-01
      6.27519667e-01 6.29284009e-02 1.14075199e-01 2.15895977e-02
      6.50540367e-02 2.00102571e-03 1.38726383e-01 3.84547174e-01
      7.86184669e-01 4.03888941e-01 1.61567822e-01 0. 6.42442033e-02
      2.28155226e-01 6.13529533e-02 3.44248235e-01 6.25038624e-01
      6.25038624e-01 1.84281468e-01 0. 0. 3.86487007e-01 5.83349884e-01
      2.45790049e-01 4.09002572e-01 2.22682461e-01 4.50660557e-01
      1.55330494e-01 0. 2.04233631e-01 1.28646150e-01 1.88698471e-01
      7.81262666e-02 1.38856784e-01 5.25408447e-01 5.25408447e-01
      5.25408447e-01 2.17572421e-01</_>
    <_>
      4.35933560e-01 4.35933560e-01 4.35933560e-01 4.35933560e-01
      3.12203735e-01 2.38018427e-02 3.64792123e-02 3.81653942e-02
      3.66971701e-01 4.96023029e-01 4.96023029e-01 3.23230714e-01
      3.81312460e-01 2.99826771e-01 5.03887497e-02 1.10434983e-02
      5.15075820e-03 4.00633514e-01 4.64989007e-01 2.46954978e-01
      1.98242143e-01 1.64445594e-01 5.19316867e-02 2.16915030e-02
      4.64989007e-01 4.64989007e-01 4.64989007e-01 5.20161271e-01 0. 0.
      0. 0. 6.34045005e-02 5.20161271e-01 4.23180670e-01 5.20161271e-01
      6.19041026e-01 1.89210323e-03 0. 0. 0. 5.49796177e-03
      1.19582728e-01 4.61586148e-01 6.19041026e-01 5.41842103e-01
      5.41842103e-01 3.17384779e-01 7.18250722e-02 0. 0. 1.01127038e-02
      8.84093568e-02 5.41842103e-01 4.48362112e-01 4.48362112e-01
      4.48362112e-01 1.09552599e-01 4.41795886e-02 2.25581247e-02
      4.48362112e-01 2.18417481e-01 3.59497368e-01 4.91160870e-01
      4.91160870e-01 4.91160870e-01 4.29245651e-01 1.35537595e-01
      2.46268144e-04 0. 7.70970201e-03 2.62098789e-01 5.06318450e-01
      3.23468119e-01 1.56545982e-01 3.61601532e-01 4.67928976e-01 0. 0.
      5.80962002e-02 5.06318450e-01 5.62692404e-01 2.23832056e-01
      6.57066144e-03 1.97863027e-01 5.19999027e-01 4.06258274e-03
      2.80859740e-03 3.76612470e-02 5.62692404e-01 6.53818846e-01
      1.94700435e-03 4.73155851e-05 7.13491291e-02 3.21407080e-01
      1.60112381e-01 5.66187315e-02 3.57172415e-02 6.53818846e-01
      6.12567484e-01 2.96468828e-02 1.49080260e-02 3.52982789e-01
      3.35716903e-01 6.99875578e-02 9.92467999e-03 2.28644093e-03
      6.12567484e-01 6.79740191e-01 5.58525696e-02 3.13821025e-02
      1.18406482e-01 2.16165692e-01 6.53351620e-02 0. 5.45067742e-05
      6.79740191e-01 6.31303668e-01 1.22552544e-01 6.15394898e-02
      1.81551222e-02 3.84851336e-01 1.64338648e-01 3.77714895e-02
      3.04672606e-02 6.31303668e-01 4.32739884e-01 4.32739884e-01
      4.32739884e-01 4.32739884e-01 4.32739884e-01 9.28512886e-02
      7.05381949e-03 1.77344587e-02 2.24438637e-01 3.88930440e-01
      4.33292210e-01 4.33292210e-01 4.33292210e-01 4.33292210e-01
      1.03928465e-02 1.05164489e-02 3.61626893e-02 3.03166479e-01
      4.87579256e-01 1.67299017e-01 5.59752807e-02 4.87579256e-01
      4.87579256e-01 5.83572015e-02 5.17468005e-02 8.36105049e-02
      4.87579256e-01 4.68863785e-01 4.39024647e-04 1.37177503e-05
      3.32057595e-01 4.68863785e-01 4.68863785e-01 6.84856474e-02
      3.21129337e-02 4.68863785e-01 4.57712084e-01 3.43657546e-02
      8.74321628e-03 4.57712084e-01 4.57712084e-01 3.93593729e-01
      2.71539781e-02 2.27117129e-02 4.57712084e-01 4.10590798e-01
      4.10590798e-01 1.48931056e-01 4.10590798e-01 4.10590798e-01
      2.50362784e-01 2.46462703e-01 8.58398452e-02 4.10590798e-01
      2.46620357e-01 7.98907951e-02 1.68320954e-01 2.50938982e-01
      5.04032552e-01 5.04032552e-01 5.04032552e-01 1.48912162e-01
      2.28338227e-01 5.95453262e-01 5.95453262e-01 2.90744573e-01
      2.92123526e-01 1.01424530e-01 3.34473029e-02 4.35908698e-03
      7.53681287e-02 3.12972307e-01 5.43471813e-01 5.43471813e-01
      5.43471813e-01 6.67426586e-02 1.79192480e-02 2.11083740e-02
      4.03072173e-03 4.66155745e-02 3.17926496e-01 4.36309576e-01
      2.09380552e-01 1.71202168e-01 2.85574883e-01 4.36309576e-01
      2.49481797e-01 1.31274551e-01 4.36309576e-01 4.36309576e-01
      4.95794356e-01 4.29997017e-04 0. 4.02903557e-01 4.95794356e-01
      1.58410624e-01 3.26446444e-02 2.62908757e-01 4.95794356e-01
      4.74384993e-01 1.36294914e-02 1.95781097e-01 4.74384993e-01
      4.74384993e-01 1.61225632e-01 5.50471246e-03 1.74806371e-01
      4.74384993e-01 4.25302029e-01 2.14677185e-01 1.75754249e-01
      4.25302029e-01 1.19371295e-01 1.08188512e-02 4.25302029e-01
      4.25302029e-01 4.25302029e-01 5.65306172e-02 8.16199034e-02
      5.58577836e-01 1.31181985e-01 1.30241662e-01 1.16541818e-01
      5.58577836e-01 5.58577836e-01 2.79899333e-02 4.82044071e-01
      4.87627476e-01 4.87627476e-01 4.87627476e-01 2.11505830e-01
      6.46693110e-02 1.02804787e-03 2.69475975e-03 2.22788472e-02
      4.69345301e-01 4.69345301e-01 1.93745479e-01 4.69345301e-01
      4.69345301e-01 1.01564609e-01 5.25235832e-02 7.71416649e-02
      2.40020335e-01 4.23659056e-01 1.27012525e-02 4.80027549e-04
      2.47574344e-01 3.08773667e-01 6.17476031e-02 4.67345923e-01
      4.67345923e-01 4.67345923e-01 6.02680266e-01 4.30259574e-03 0.
      9.03741419e-02 2.68747389e-01 1.92442667e-02 7.92724788e-02
      4.24817115e-01 6.02680266e-01 3.05079877e-01 8.99475440e-02
      1.59335211e-01 5.15945375e-01 2.52709538e-01 6.80823475e-02
      3.46291997e-02 5.15945375e-01 5.15945375e-01 2.37576753e-01
      4.26489353e-01 4.26489353e-01 4.26489353e-01 7.43322670e-02
      3.29653150e-03 4.26489353e-01 4.26489353e-01 1.55868277e-01
      5.78569509e-02 3.91453147e-01 3.82592797e-01 2.72870082e-02
      3.26228254e-02 1.22077819e-02 5.83535314e-01 5.83535314e-01
      9.07097384e-02 2.74139851e-01 4.41885442e-01 2.50047982e-01
      4.66705233e-01 4.66705233e-01 4.66705233e-01 5.07149659e-02
      3.05779446e-02 7.38292336e-02 1.97129637e-01 2.31217235e-01
      1.03089005e-01 6.63927138e-01 6.63927138e-01 9.07113254e-02
      2.09625270e-02 8.55247432e-04 1.24806361e-02 1.89300090e-01
      4.83749956e-01 4.83749956e-01 4.83749956e-01 4.83749956e-01
      1.02154175e-02 2.62127165e-02 4.69590649e-02 1.42411381e-01
      3.80999595e-01 2.75189072e-01 3.80999595e-01 3.28838855e-01
      1.25147730e-01 3.80999595e-01 3.80999595e-01 2.66203552e-01
      3.80999595e-01 1.55553102e-01 3.97927873e-02 1.25817126e-02
      5.43168671e-02 6.87887371e-02 4.90276068e-01 4.90276068e-01
      4.90276068e-01 4.90276068e-01 1.78748116e-01 2.51576722e-01
      2.06543311e-01 4.15517241e-01 3.73564869e-01 4.15517241e-01
      4.15517241e-01 4.15517241e-01 1.66667849e-01 3.11650008e-01
      4.23353016e-01 1.16206490e-01 9.59732533e-02 1.48023143e-01
      3.70281607e-01 4.23353016e-01 4.23353016e-01 4.23353016e-01
      3.20481598e-01 4.03778791e-01 4.03778791e-01 4.03778791e-01
      4.03778791e-01 2.65218765e-01 1.24083191e-01 3.53338152e-01
      1.74708679e-01 6.02414310e-01 6.02414310e-01 3.11304092e-01
      3.43648851e-01 2.15788111e-01 5.59459589e-02 5.70185557e-02
      1.43645518e-02 4.73742979e-03 4.65366930e-01 4.65366930e-01
      3.70163888e-01 2.55593330e-01 4.65366930e-01 3.70116383e-01
      7.57125095e-02 2.41824854e-02 1.99822854e-04 1.05974851e-02
      2.32643545e-01 3.84488702e-01 4.76942748e-01 5.11302650e-01
      5.11302650e-01 2.04818606e-01 2.31965054e-02 1.61412579e-03
      6.38893340e-03 4.52034967e-03 2.58876868e-02 8.22694376e-02
      4.08485442e-01 6.36752427e-01 6.36752427e-01 9.14186761e-02
      4.23886161e-03 6.57038614e-02 1.32228471e-02 4.48039733e-02
      3.51457447e-01 5.31876683e-01 5.31876683e-01 5.31876683e-01
      1.20900437e-01 3.70342433e-02 3.99687774e-02 2.68488824e-02
      4.96220551e-02 4.17903781e-01 4.89866227e-01 4.89866227e-01
      4.89866227e-01 3.03074688e-01 6.26267344e-02</_>
    <_>
      8.25465657e-03 5.52962348e-03 1.79159846e-02 3.71348262e-02
      1.78764686e-01 1.20022751e-01 6.44359410e-01 6.44359410e-01
      3.39128196e-01 1.44610092e-01 1.11122161e-01 2.04344243e-01
      2.13079631e-01 5.99317968e-01 4.21083272e-01 5.54284513e-01
      1.66849062e-01 3.10692284e-02 7.48023808e-01 4.75230038e-01
      1.06791459e-01 2.08546966e-02 2.16373891e-01 2.54840881e-01
      1.78877681e-01 1.13555498e-01 1.94429383e-01 3.31059456e-01
      1.63405597e-01 4.38671298e-02 0. 0. 1.16355136e-01 7.32843041e-01
      4.28314835e-01 3.42095107e-01 2.36021145e-03 2.81817024e-03
      4.62730555e-03 0. 2.63418630e-03 1.36965767e-01 6.83189452e-01
      6.83189452e-01 2.02194735e-01 1.56269416e-01 1.69089273e-01
      3.89160246e-01 2.81256288e-01 4.96450551e-02 9.97198597e-02
      3.21352065e-01 6.30854785e-01 4.43267226e-01 3.00408509e-02
      1.37506574e-01 6.41240537e-01 6.52821541e-01 3.66331905e-01
      3.54260467e-02 1.25307254e-02 5.95680764e-03 2.56934911e-02
      5.48319630e-02 7.18052983e-02 4.04072814e-02 5.99157810e-02
      1.76535308e-01 3.63252640e-01 7.28436410e-01 5.30533016e-01
      6.43553361e-02 3.53053778e-01 4.28198010e-01 3.83148253e-01
      1.03153057e-01 8.40531848e-03 1.49319395e-01 6.33950114e-01
      2.56146133e-01 1.95327789e-01 3.27032954e-01 2.31428206e-01
      3.65283042e-01 4.51425731e-01 2.09401041e-01 5.76279283e-01
      3.02093089e-01 1.35593936e-01 9.24798846e-02 2.11381279e-02
      1.09746251e-02 2.00900976e-02 2.04134211e-01 4.07173276e-01
      3.38348120e-01 6.58304214e-01 4.58334386e-01 1.59656987e-01
      3.69849950e-02 2.59582102e-02 2.62341071e-02 1.53237190e-02
      7.80477226e-02 4.70257789e-01 7.39566743e-01 4.29196984e-01
      1.72424868e-01 2.22813368e-01 1.18727528e-01 5.95083758e-02
      1.47812758e-02 2.36069355e-02 8.53037909e-02 3.89313072e-01
      6.06240630e-01 6.31765902e-01 6.48215055e-01 6.48215055e-01
      2.74847180e-01 2.06695184e-01 4.35382985e-02 4.00070287e-02
      3.79733145e-02 9.28454623e-02 1.46083668e-01 1.17903210e-01
      2.59699486e-02 1.11573078e-01 2.37486318e-01 3.00788015e-01
      1.40739635e-01 6.02522612e-01 5.93231022e-01 2.91350245e-01
      3.29007059e-02 5.25344089e-02 9.34170187e-02 2.47870628e-02
      3.29262391e-02 3.80136132e-01 7.36222923e-01 5.13867199e-01
      1.66723385e-01 1.58438191e-01 5.41400835e-02 2.21241161e-01
      2.65735596e-01 6.43336415e-01 3.68357420e-01 4.42345858e-01
      2.06103906e-01 2.27390066e-01 8.91760141e-02 1.12978965e-02
      4.98359054e-02 1.35195792e-01 4.01987582e-01 4.17667329e-01
      7.02851772e-01 3.10734242e-01 1.87502459e-01 2.14909926e-01
      3.42250109e-01 3.73584211e-01 1.92761853e-01 4.12378550e-01
      4.16262776e-01 4.08055067e-01 3.01364988e-01 2.21570134e-01
      3.98114145e-01 4.07454580e-01 3.73229504e-01 4.05995846e-02
      1.23038134e-02 1.81276929e-02 3.38260919e-01 4.74867076e-01
      4.31147307e-01 3.19389820e-01 6.58868015e-01 6.58868015e-01 0. 0.
      0. 6.29849434e-02 8.50974247e-02 1.09496497e-01 3.48260230e-03
      7.53678232e-02 4.40523088e-01 5.48652709e-01 5.48652709e-01
      4.22979027e-01 1.06735326e-01 4.85031419e-02 8.50507244e-03
      7.63332695e-02 9.86086652e-02 1.43158846e-02 6.09133542e-01
      6.09133542e-01 2.25998893e-01 2.97982305e-01 2.77514488e-01
      1.38534904e-01 6.56848252e-02 5.24430834e-02 1.21170506e-01
      3.98615301e-01 6.53592527e-01 5.33868372e-01 2.97354043e-01
      1.00734919e-01 4.54764552e-02 5.67716837e-01 1.71128109e-01
      2.92580962e-01 2.85197407e-01 4.09309894e-01 3.36059183e-01
      2.61747062e-01 1.46362305e-01 3.21658880e-01 7.26874530e-01
      3.96818668e-01 1.91012144e-01 6.13728873e-02 1.01090908e-01
      5.47422431e-02 1.79001257e-01 2.41726771e-01 4.03721750e-01
      5.47288358e-01 4.23625320e-01 2.06136465e-01 1.46871973e-02
      7.86226336e-03 3.12126409e-02 1.11026704e-01 3.99945229e-01
      5.47288358e-01 2.97898889e-01 5.13172388e-01 5.07164299e-01
      1.84650958e-01 1.56582996e-01 4.08911146e-03 9.82697457e-02
      4.02287483e-01 3.91303897e-01 1.24104559e-01 3.39632243e-01
      2.84776121e-01 4.04385209e-01 5.08029163e-01 5.08029163e-01
      2.88589716e-01 1.00045308e-01 1.00344919e-01 1.90761015e-01
      3.62833560e-01 1.45740211e-01 5.46953142e-01 5.46953142e-01
      1.34861588e-01 1.06966279e-01 3.70043010e-01 2.00955778e-01
      5.69857657e-03 2.87811970e-03 1.95238590e-02 6.40743315e-01
      6.40743315e-01 2.45509431e-01 8.41109678e-02 3.01338404e-01
      1.17994733e-01 1.02035075e-01 3.62290815e-02 6.89902976e-02
      6.95420384e-01 6.95420384e-01 1.98346991e-02 5.31448005e-03
      2.56955400e-02 9.09605548e-02 5.06942630e-01 3.02884392e-02
      7.58895352e-02 5.85364401e-01 5.85364401e-01 1.21969474e-03
      8.48371361e-04 2.83972477e-03 2.12542698e-01 2.30640978e-01
      4.22494151e-02 5.35776047e-03 4.65789706e-01 5.11420548e-01
      3.64202768e-01 2.40897134e-01 2.56322592e-01 4.52764809e-01
      1.84917957e-01 9.73737091e-02 4.72292341e-02 5.37193239e-01
      5.37193239e-01 5.14690876e-01 1.02520697e-01 1.84189126e-01
      2.49464422e-01 4.31017935e-01 4.31017935e-01 4.31017935e-01
      4.23973024e-01 2.00047299e-01 7.71260262e-02 1.12087592e-01
      1.19602114e-01 4.31017935e-01 2.52809852e-01 4.12008047e-01
      1.79919362e-01 1.86018929e-01 3.79012078e-01 4.12008047e-01
      4.12008047e-01 4.12008047e-01 2.05778584e-01 2.47670531e-01
      6.16755188e-02 3.69002037e-02 2.45350868e-01 5.15553355e-01
      1.95430472e-01 1.80469498e-01 5.15553355e-01 5.15553355e-01
      4.82219070e-01 2.45419562e-01 2.09836572e-01 4.82219070e-01
      4.28094923e-01 1.79219507e-02 4.62164823e-03 9.85293239e-02
      4.82219070e-01 3.18821132e-01 4.67370719e-01 4.37148362e-01
      4.67370719e-01 4.67370719e-01 2.51293331e-02 0. 7.17322305e-02
      2.03723192e-01 1.03461504e-01 5.46528213e-02 4.19509262e-02
      4.05723929e-01 4.48833436e-01 4.48833436e-01 9.82238501e-02
      4.48833436e-01 4.48833436e-01 1.05923824e-01 2.05749739e-03
      1.21661358e-01 4.78612810e-01 4.78612810e-01 4.78612810e-01
      1.19062178e-01 1.96818084e-01 4.78612810e-01 7.19954967e-02
      5.49247302e-02 4.58059847e-01 5.84275186e-01 5.84275186e-01
      3.04848075e-01 9.08827409e-03 1.92088191e-03 1.93175711e-02
      2.37387363e-02 1.99143849e-02 2.23698746e-02 5.62833369e-01
      5.62833369e-01 5.62833369e-01 2.05160201e-01 2.07705796e-02
      7.25407293e-03 6.78121299e-02 6.43061474e-02 1.47820607e-01
      6.80910647e-01 6.80910647e-01 1.26498193e-01 2.11644657e-02
      4.27865423e-02 1.30609527e-01 4.60782617e-01 1.44625872e-01
      2.73532480e-01 4.60782617e-01 4.60782617e-01 8.38760938e-03
      3.79681848e-02 2.21057639e-01 4.60782617e-01 1.93000585e-01
      3.37541282e-01 4.27044153e-01 3.62773001e-01 4.27044153e-01
      2.07709312e-01 7.97747374e-02 4.27044153e-01 3.41085553e-01
      1.44535586e-01 8.23671892e-02 3.51530135e-01 3.98286998e-01
      3.98286998e-01 3.97580266e-01 2.28413150e-01 3.98286998e-01
      3.98286998e-01 2.96638191e-01 1.76383257e-02 8.46144855e-02
      1.87318340e-01 2.75661707e-01 2.50314325e-01 4.91896778e-01
      4.91896778e-01 4.91896778e-01</_>
    <_>
      2.89780587e-01 1.87082604e-01 4.18286443e-01 4.78576422e-01
      4.97784376e-01 4.28550571e-01 1.73446313e-02 4.34731431e-02
      1.96013331e-01 3.56450707e-01 3.41416538e-01 4.97733086e-01
      4.97733086e-01 4.97733086e-01 7.54624307e-02 3.15356515e-02
      2.04111654e-02 3.29590514e-02 4.06642765e-01 3.91475737e-01
      4.06642765e-01 4.06642765e-01 4.06642765e-01 4.06642765e-01
      1.05892636e-01 3.37604024e-02 5.94966635e-02 3.24842960e-01
      3.96420449e-01 3.96420449e-01 3.96420449e-01 3.96420449e-01
      3.96420449e-01 2.02152088e-01 1.30047455e-01 2.16779053e-01
      3.23939383e-01 4.12987083e-01 4.12987083e-01 1.91698357e-01
      3.87881905e-01 4.12987083e-01 2.02562943e-01 3.49808067e-01
      1.69306070e-01 3.92866701e-01 3.92866701e-01 3.92866701e-01
      3.92866701e-01 2.12595865e-01 2.10045233e-01 3.92866701e-01
      3.48529190e-01 1.16470106e-01 2.49772388e-02 5.76636530e-02
      2.30377987e-01 6.49875045e-01 6.49875045e-01 1.32785454e-01
      2.14901358e-01 1.54729500e-01 6.37027472e-02 5.10377407e-01
      2.39754736e-01 5.10377407e-01 5.10377407e-01 2.95667440e-01
      6.65306449e-02 0. 3.01370192e-02 2.51418352e-01 4.08240616e-01
      4.08240616e-01 1.98781922e-01 4.08240616e-01 4.08240616e-01
      3.64414603e-01 1.14642471e-01 1.17131695e-01 3.60700786e-01
      1.50189087e-01 2.14356393e-01 4.07946259e-01 5.00707209e-01
      5.00707209e-01 5.00707209e-01 5.35641871e-02 1.78887043e-02
      6.90028816e-02 2.99305648e-01 4.29064602e-01 3.13744545e-01
      4.47783858e-01 4.47783858e-01 4.47783858e-01 5.80731258e-02
      2.71232314e-02 1.33311763e-01 7.91530311e-02 2.94532835e-01
      4.71738547e-01 4.71738547e-01 4.71738547e-01 4.71738547e-01
      5.91433346e-02 6.06813915e-02 7.03151599e-02 9.01323035e-02
      3.06221157e-01 4.36444730e-01 4.36444730e-01 4.36444730e-01
      4.36444730e-01 2.19465271e-01 2.68871397e-01 1.06546834e-01
      1.48182541e-01 1.16704963e-01 2.36176655e-01 4.01265383e-01
      4.01265383e-01 3.25916350e-01 4.01265383e-01 4.01265383e-01
      3.92882645e-01 3.59465688e-01 2.40325555e-01 2.93333977e-01
      4.52227443e-01 4.52227443e-01 3.99911813e-02 3.24286334e-02
      3.26015472e-01 4.52227443e-01 2.42871176e-02 8.26471113e-03
      2.12728698e-02 6.45038307e-01 6.45038307e-01 3.43438923e-01
      1.22352310e-01 1.35154441e-01 9.54644531e-02 9.52147972e-03
      9.25469473e-02 2.60828257e-01 5.81451237e-01 5.81451237e-01
      4.90654320e-01 2.42982227e-02 1.97692541e-03 9.77561140e-05
      1.23215482e-01 4.81470168e-01 4.98584896e-01 4.98584896e-01
      4.94757473e-01 7.23942593e-02 9.50595364e-03 1.84005797e-02
      1.99035648e-02 1.51712835e-01 2.31859475e-01 4.48281378e-01
      4.48281378e-01 4.48281378e-01 3.33477587e-01 2.63771534e-01
      2.75220394e-01 2.43616447e-01 5.34138568e-02 2.34234884e-01
      4.85874236e-01 4.85874236e-01 4.85874236e-01 4.71041590e-01
      7.36467168e-02 4.30462696e-02 7.06336182e-03 3.06618631e-01
      2.81467199e-01 3.77644390e-01 3.77644390e-01 3.32465291e-01
      3.51947188e-01 3.77644390e-01 3.36146533e-01 2.18513265e-01
      9.69945267e-02 2.41906166e-01 4.15539503e-01 2.00317383e-01
      1.56300619e-01 4.15539503e-01 4.15539503e-01 4.15539503e-01
      4.15539503e-01 0. 1.24811260e-02 6.77775741e-02 4.56178010e-01
      4.56178010e-01 4.56178010e-01 4.56178010e-01 3.78817707e-01
      1.21644638e-01 1.82070013e-03 3.71940695e-02 3.70659709e-01
      6.53712273e-01 6.53712273e-01 4.19153646e-03 0. 6.70474139e-04
      9.47554421e-04 2.21567713e-02 1.14863560e-01 2.74324715e-01
      6.72438920e-01 6.72438920e-01 4.65341000e-04 0. 0. 0.
      1.43791527e-01 2.01513231e-01 2.19019249e-01 5.65465748e-01
      5.65465748e-01 7.42529705e-02 3.16437811e-01 3.65147561e-01
      8.13523531e-02 4.54015374e-01 4.70394433e-01 4.70394433e-01
      4.70394433e-01 2.19674438e-01 4.10245024e-02 1.55269817e-01
      2.25837290e-01 1.75450649e-02 5.14135301e-01 5.14135301e-01
      3.80598605e-01 2.22522303e-01 5.49019761e-02 2.85121519e-02
      4.12627645e-02 4.42573987e-02 5.14135301e-01 1.59856994e-02
      2.06342135e-02 3.02819043e-01 4.22002703e-01 4.22002703e-01
      4.22002703e-01 4.22002703e-01 4.22002703e-01 1.13896161e-01
      1.91665709e-01 8.86424333e-02 1.84161007e-01 1.18813500e-01
      2.39068493e-01 3.62079680e-01 4.87936467e-01 4.87936467e-01
      4.87936467e-01 2.72337139e-01 7.15702698e-02 5.07112205e-01
      5.07112205e-01 3.48988235e-01 4.43744054e-03 2.19840743e-03
      1.49464875e-01 5.07112205e-01 6.55106781e-03 0. 9.85046029e-02
      6.98666632e-01 6.98666632e-01 1.65113993e-02 4.21776110e-03
      5.56888804e-02 6.01472445e-02 1.13975964e-02 5.98938297e-03
      3.54219638e-02 7.04015195e-01 7.04015195e-01 4.60369699e-03
      1.36866653e-02 8.27510282e-03 4.01794969e-04 3.77718695e-02
      1.62503585e-01 3.65599811e-01 6.44988716e-01 6.44988716e-01
      1.27348735e-03 3.60727683e-03 5.19279996e-03 8.08897195e-04
      1.05567187e-01 1.57974049e-01 2.27418095e-01 6.71858490e-01
      6.71858490e-01 0. 3.73677257e-03 1.99553315e-02 4.76845838e-02
      1.80601567e-01 6.21610954e-02 8.40132982e-02 4.73789275e-01
      4.73789275e-01 1.28569022e-01 1.93115413e-01 4.73789275e-01
      4.73789275e-01 5.26528299e-01 2.12588549e-01 1.39654316e-02
      1.27507985e-01 1.66851014e-01 1.21745139e-01 1.72370851e-01
      5.40071428e-01 5.40071428e-01 3.89781266e-01 5.11420704e-02
      6.56772498e-03 1.13065563e-01 4.10793066e-01 4.15757060e-01
      2.25821197e-01 4.66566086e-01 4.66566086e-01 1.56237260e-01
      3.60587351e-02 2.67828733e-01 5.08776367e-01 2.90483356e-01
      7.24884868e-02 1.03240818e-01 5.18762589e-01 5.18762589e-01
      2.36851767e-01 4.01094854e-01 4.82346505e-01 4.82346505e-01
      4.82346505e-01 1.02429986e-02 0. 3.87741737e-02 2.80399472e-01
      1.72609940e-01 1.08382747e-01 3.89551818e-01 5.43472409e-01
      5.43472409e-01 2.57882893e-01 3.77473950e-01 3.75041813e-02
      1.26418890e-02 9.40404832e-03 1.73472725e-02 3.57869059e-01
      6.43989384e-01 6.43989384e-01 1.29299507e-01 1.37413949e-01
      7.42313312e-03 3.19404434e-03 6.29104674e-02 2.34721284e-02
      1.27603188e-01 6.51354969e-01 6.51354969e-01 3.08928639e-02
      1.49110660e-01 2.71356642e-01 1.65398121e-01 1.44893035e-01
      1.39348945e-02 5.41944690e-02 5.42859852e-01 5.42859852e-01
      1.17926434e-01 1.46495700e-01 5.11843204e-01 2.89325029e-01
      4.67205763e-01 2.70042941e-02 8.79954696e-02 4.67205763e-01
      3.14905554e-01 9.01367962e-02 8.02861229e-02 4.67205763e-01
      4.67205763e-01 2.45683461e-01 2.95147281e-02 3.86068113e-02
      3.39582562e-01 3.07336509e-01 9.16308761e-02 3.88289094e-01
      5.30585885e-01 5.30585885e-01 3.78850043e-01 2.12645367e-01
      1.75987020e-01 3.91421169e-01 3.91421169e-01 2.80560434e-01
      3.91421169e-01 2.91232824e-01 3.91421169e-01 4.03850555e-01
      1.84611976e-01 2.34752357e-01 2.19029486e-01 4.03850555e-01
      4.03850555e-01 4.03850555e-01 2.08146483e-01 4.03850555e-01
      1.24066480e-01 9.76555124e-02 4.11218733e-01 4.11218733e-01
      4.11218733e-01 3.14203739e-01 4.11218733e-01 3.02869797e-01
      3.22653890e-01</_>
    <_>
      1.84787903e-02 1.48601318e-02 3.67226265e-02 2.75272757e-01
      6.74814403e-01 6.74814403e-01 6.94722459e-02 1.33926305e-03
      5.96599653e-04 0. 8.31502024e-03 1.04278125e-01 5.63413322e-01
      5.74491858e-01 5.74491858e-01 7.61546791e-02 2.08835583e-03 0. 0.
      5.89591898e-02 3.49458635e-01 6.58327043e-01 6.58327043e-01
      3.21029052e-02 3.22125433e-03 0. 0. 0. 1.88580845e-02
      7.27600977e-02 7.02609956e-01 7.02609956e-01 3.87747679e-03
      3.33613832e-04 1.11204608e-04 0. 0. 6.11750700e-04 5.23672672e-03
      7.04539001e-01 7.04539001e-01 1.13483602e-02 7.58656114e-03
      1.61135639e-03 0. 3.77490297e-02 8.40696320e-03 2.86647677e-02
      7.54984260e-01 6.47172391e-01 1.14819407e-02 7.49050267e-03
      2.01225765e-02 2.68514436e-02 6.89369142e-02 4.12477031e-02
      5.67207709e-02 6.74882829e-01 6.07484341e-01 1.59166560e-01
      1.35893419e-01 3.25040936e-01 9.81583670e-02 0. 3.25644785e-03
      4.10204269e-02 4.15160269e-01 6.33302450e-01 6.33302450e-01
      1.32166311e-01 3.71197611e-03 0. 2.95234239e-03 2.72184871e-02
      8.04059952e-02 5.60247898e-01 5.60247898e-01 5.60247898e-01
      2.12932184e-01 1.44421281e-02 2.95234239e-03 2.84061092e-03
      3.85239311e-02 3.91946733e-01 6.44776523e-01 6.44776523e-01
      8.15250576e-02 1.78957079e-02 5.00983500e-04 2.84061092e-03 0.
      2.10675672e-02 3.78453940e-01 6.49722040e-01 6.49722040e-01
      7.45959654e-02 0. 0. 0. 0. 1.10175414e-03 2.01924760e-02
      6.94241703e-01 6.94241703e-01 1.60171539e-01 5.39129376e-02
      1.24977641e-02 0. 0. 1.63576647e-03 8.91037956e-02 8.01139772e-01
      5.84624946e-01 1.97319128e-02 7.42852688e-03 2.62741186e-03 0. 0.
      0. 3.26539874e-02 7.04153597e-01 7.04153597e-01 4.55050496e-03
      6.50315871e-03 1.32801691e-02 8.02249182e-04 0. 1.37864891e-03
      3.37573528e-01 6.51880026e-01 6.51880026e-01 1.69793025e-01
      2.79197320e-02 5.46254963e-03 0. 3.74761313e-01 3.28561574e-01
      3.74761313e-01 3.74761313e-01 3.74761313e-01 3.74761313e-01
      3.45189452e-01 8.99002105e-02 2.42559969e-01 3.58077198e-01
      1.27714798e-01 3.58077198e-01 3.58077198e-01 3.58077198e-01
      3.58077198e-01 3.58077198e-01 2.87361175e-01 3.58077198e-01 0.
      2.11202130e-02 5.52283406e-01 5.78128994e-01 5.78128994e-01
      1.28878027e-01 6.06871657e-02 2.27719755e-03 0. 3.08245271e-02
      2.30117105e-02 3.05453688e-01 6.36453271e-01 6.36453271e-01
      2.94272959e-01 3.24894078e-02 2.14799661e-02 2.45980788e-02
      1.94529649e-02 7.00385198e-02 5.88021219e-01 5.88021219e-01
      5.01403213e-01 2.08952799e-01 1.87220927e-02 3.94010246e-02
      1.83708724e-02 2.51000834e-04 8.06687772e-03 4.15020853e-01
      6.40817642e-01 6.40817642e-01 0. 0. 0. 2.51000834e-04
      9.30855109e-04 1.19988592e-02 5.24816871e-01 5.87484300e-01
      5.87484300e-01 1.68128088e-01 3.57275759e-03 0. 9.30855109e-04
      7.26403892e-02 8.46861973e-02 5.12802839e-01 5.12802839e-01
      5.12802839e-01 4.33931082e-01 6.29725754e-02 2.21799538e-02
      2.78636385e-02 7.79419616e-02 7.41706342e-02 4.41232026e-01
      4.41232026e-01 4.41232026e-01 4.41232026e-01 4.41232026e-01
      9.11528021e-02 4.77393009e-02 2.68821255e-03 1.99878700e-02
      6.44842565e-01 6.44842565e-01 3.96899492e-01 4.92569134e-02
      3.94435525e-02 2.14263287e-04 0. 5.97853921e-02 5.07309660e-02
      6.95853710e-01 6.95853710e-01 1.15138754e-01 2.18107384e-02
      3.75096500e-02 4.58190627e-02 3.52384672e-02 1.95097938e-01
      1.42866597e-01 6.15538597e-01 6.15538597e-01 2.39053145e-01
      1.20211318e-01 1.29771709e-01 2.53016204e-01 1.58585161e-01
      3.48659195e-02 1.40939265e-01 5.42247713e-01 5.82568944e-01
      5.82568944e-01 0. 0. 0. 1.72515400e-02 1.11232340e-01
      2.44583469e-02 5.09410381e-01 5.46820402e-01 5.46820402e-01
      6.44675568e-02 3.83515060e-02 2.87368506e-01 1.89306423e-01
      1.14291534e-01 2.37796232e-01 5.04199982e-01 5.36964417e-01
      5.36964417e-01 3.03439051e-01 1.31923482e-02 7.24811759e-03
      4.29747179e-02 1.18451715e-01 2.36111268e-01 4.19491291e-01
      6.04842067e-01 6.04842067e-01 1.11934409e-01 2.18038820e-02
      3.22275199e-02 4.99741845e-02 4.84825624e-03 4.72921319e-02
      6.88754380e-01 6.88754380e-01 2.05180764e-01 0. 0. 0. 0. 0.
      5.22622243e-02 6.83488488e-01 6.83488488e-01 2.36840174e-01
      1.08739454e-03 2.16615619e-03 5.76981902e-03 0. 6.76102489e-02
      1.05289884e-01 4.51145649e-01 6.21450424e-01 6.21450424e-01
      6.37716148e-03 6.18203776e-03 3.16639356e-02 3.35121453e-02
      9.74182934e-02 3.23371172e-01 5.65213919e-01 5.65213919e-01
      4.88030553e-01 0. 0. 0. 5.64733893e-02 6.90666959e-02
      2.46202853e-02 1.86973706e-01 5.36241710e-01 2.97391087e-01
      3.29814702e-02 4.59841378e-02 5.36241710e-01 5.36241710e-01
      1.16298601e-01 8.77927393e-02 2.81851918e-01 4.33856010e-01
      4.33856010e-01 4.33856010e-01 7.72219673e-02 3.68924379e-01
      4.33856010e-01 5.80048980e-03 1.82291563e-03 2.32988298e-01
      6.40271485e-01 6.40271485e-01 2.56734580e-01 2.04965904e-01
      9.40283015e-02 5.12535200e-02 0. 4.13183868e-02 6.32428825e-01
      6.32428825e-01 4.38139319e-01 2.83895736e-03 8.36282503e-03
      1.46390114e-03 0. 0. 6.15488365e-03 5.75677514e-01 5.75677514e-01
      5.75677514e-01 0. 0. 0. 0. 0. 0. 2.12084223e-02 7.04456568e-01
      7.04456568e-01 0. 0. 0. 0. 2.35768384e-03 2.52362695e-02
      4.10588324e-01 6.42012298e-01 6.42012298e-01 0. 0. 0.
      2.35768384e-03 3.09661310e-02 8.22787173e-03 1.99810088e-01
      5.09667635e-01 5.09667635e-01 1.38931483e-01 1.56329215e-01
      3.61849457e-01 5.09667635e-01 3.05851884e-02 4.88337427e-02
      2.34466881e-01 5.34076631e-01 2.78333336e-01 1.71157978e-02
      5.38118966e-02 5.34076631e-01 5.34076631e-01 7.89600052e-03
      1.73592214e-02 1.38013929e-01 4.31765765e-01 4.49033797e-01
      1.31321117e-01 3.64263147e-01 4.67936337e-01 4.67936337e-01
      2.19139792e-02 6.17381632e-02 4.68733132e-01 6.08402908e-01
      6.08402908e-01 1.10962458e-01 1.04000658e-01 4.63651270e-02
      6.58480898e-02 0. 1.64173339e-02 1.54321983e-01 6.96048439e-01
      6.96048439e-01 0. 0. 0. 0. 0. 7.40101328e-03 2.65866686e-02
      7.04346240e-01 7.04346240e-01 0. 0. 0. 0. 0. 2.23099589e-02
      2.54428267e-01 6.81163967e-01 6.81163967e-01 0. 0. 0. 0.</_>
    <_>
      1.33236274e-01 1.51967525e-01 4.84952778e-01 4.53333050e-01
      8.44595581e-02 1.20295435e-01 1.58600926e-01 4.81333822e-01
      4.84952778e-01 2.24875752e-02 3.29434015e-02 1.47128895e-01
      1.40579060e-01 6.00697733e-02 4.86961901e-01 4.86961901e-01
      4.86961901e-01 4.86961901e-01 1.17505156e-01 4.19378251e-01
      4.43962097e-01 4.30965811e-01 1.27944827e-01 1.90604642e-01
      2.32211202e-01 3.45429391e-01 4.43962097e-01 1.08330019e-01
      1.52767196e-01 4.53009814e-01 4.31067258e-01 4.53009814e-01
